encog,BasicNetwork,java,3.4.0,1,1614966399831
[BASIC]
[BASIC:PARAMS]
[BASIC:NETWORK]
beginTraining=0
connectionLimit=0
contextTargetOffset=0,0,0,0
contextTargetSize=0,0,0,0
endTraining=3
hasContext=f
inputCount=130
layerCounts=1,131,131,131
layerFeedCounts=1,130,130,130
layerContextCount=0,0,0,0
layerIndex=0,1,132,263
output=0.0065349353,0.7209299459,0.548608095,0.0129818576,0.1909095511,0.9949602886,0.953357719,0.3694832893,0.0255515856,0.995329955,0.0250666839,0.8177511575,0.9495416302,0.1253289599,0.0273749601,0.0415474266,0.9990434168,0.0533329816,0.0895414107,0.9774537346,0.006686456,0.9993653895,0.9989701483,0.9172105945,0.9943233777,0.0313221089,0.0130000693,0.9988535836,0.9948219875,0.0711320999,0.0373186624,0.670479944,0.9524340928,0.0083193966,0.23261265,0.9922218126,0.0000316576,0.0280355593,0.0431464856,0.9979818389,0.9988041412,0.5577612653,0.0007325585,0.9859141808,0.0187109689,0.8627268742,0.9790592311,0.346158032,0.8685072385,0.0599760764,0.8959282713,0.057154205,0.0037269809,0.6893806149,0.9832141179,0.3792602549,0.0096975143,0.9999298855,0.0019182679,0.8286230986,0.8267228463,0.9995636979,0.9995454862,0.0382082564,0.57259316,0.9580189307,0.9217691329,0.6429100535,0.3246113569,0.0017677633,0.9839289896,0.0365859651,0.0045429318,0.0856223176,0.0176628936,0.9899833751,0.1428160738,0.99461853,0.0404753498,0.1978454097,0.4392646829,0.8986658471,0.7066794567,0.5268928435,0.812308834,0.7871844383,0.6204704611,0.1538307267,0.0441210182,0.0301248405,0.8465125277,0.0349827616,0.0161166616,0.9817399227,0.2764810489,0.0686385225,0.9996983066,0.0179331446,0.1157299281,0.9811600502,0.98135685,0.0038537804,0.5460396371,0.6857601779,0.0040202107,0.0903091732,0.0176650212,0.0014902668,0.0356970036,0.9809324344,0.9976654172,0.9994534011,0.9987497203,0.9578311487,0.1839370384,0.0092653615,0.0033287147,0.9901234496,0.1461817177,0.1432216848,0.1963155106,0.2374357863,0.9974799013,0.8196009049,0.0162462944,0.1361550815,0.0884958268,0.9649885247,0.5715946416,0.061108527,0.05447727,1,0.5990405134,0.1845808748,0.0000171253,0.0000000014,0,0,1,0.5612617579,0.0695423844,0,0.9999998108,0.005711157,0.0123902093,0.0307914509,0.0002902845,0,0,0,0.2495033953,0.007890599,0,0.0013332834,0.0004511747,0.0968483881,0,0,0.9999997467,0.0039422495,0.4562666163,0.9807187942,0,0,0,0,0,0.9998934599,0.9968280262,0.0000067743,0.0035293569,0,0.0076774249,0,0,0.3480223689,0,0.9977495337,0,0,0.0001110353,0.2194087057,0.0044958314,1,0,0.0000000022,0,0,0.9948741667,0.0000735555,0.0221654165,0,0.0000000001,0.0000002079,0,0.3210521633,0.9878718989,0,0.0941796671,0.0000000588,0,0.0000073581,0.0535033209,0,0.0120250833,0.0000062878,0,0.0022937564,0.0000007647,0.9988827393,0.943520956,0.0004861849,0.0008856492,0.9324289656,1,1,0.9959164437,0,0.9999961993,0.0312747443,0.0000941923,0,0,0.595169248,0.0007393614,0.149726807,0.0000012635,1,0,0.9999999117,0,1,0.9925983386,0.9999595257,0.9999998919,0.0697797898,0.924266118,0.9804050013,0,0.9404498218,0,0.99997403,0.9999519274,0.9999201408,1,0.0064844539,0.0000013407,0.9999339466,0.0000011856,1,0,0.0000000002,1,0.0124116932,0.0037081172,0,0.000141804,0.4574616968,0.8030637139,0,0.0596020764,0.2057791396,1,0,0,0,0,1,0,0,0,0,0,0,0,1,0,0,0,0,0,1,0,1,1,0,0,0,0,1,0,1,0,1,0,1,1,0,0,0,1,1,0,1,0,1,0,1,1,1,0,0,0,0,0,0,0,0,0,0,0,0,0,0,0,0,1,0,1,0,1,0,0,0,1,1,1,0,1,0,0,0,1,1,1,0,1,0,0,0,1,1,1,0,1,0,0,0,1,0,0,1,1,1,0,0,1,0,1,0,1,0,0,0,1,1,1,1,1,1,1,0,1,1,1,1,1,1,1,1,1,0,0,1
outputCount=1
weightIndex=0,131,17161,34191
weights=##0
##double#34191
   0.7628288203,0.8508234745,-0.7656126222,-0.4853537464,0.9459638168,0.1046806887,0.8883979005,1.0703536174,-0.7610123534,-0.2846494807,0.7171052128,-0.2143398173,-0.8690126236,0.3884873616,0.9312680419,-0.4293461806,0.4219104818,-0.2135701593,-0.0893029243,-0.7799523401,-0.6240169698,0.667494341,-0.2505895497,0.0951708345,-0.9508930897,0.575514,-0.8336155115,0.7468920822,-0.1085799998,0.942523126,-0.7224610644,-0.326879985,1.0971919434,0.2839500426,0.4163190625,-1.4144609437,0.6322992202,0.0538537663,-0.9445887819,0.3047451614,0.8674932194,-0.3751684704,-0.6492073287,-0.5746372564,-0.8320887906,0.2029960812,0.5554502471,-0.3046621773,-0.7391210529,0.2665047527,-0.7422774878,-0.9986217873,-0.3410957051,-0.7238274332,0.5979418673,-0.0885767155,0.1461941141,-2.2230664695,0.4399843714,-0.1597557685,0.5937510691,-0.4715809269,-0.5167079306,-0.8088065552,-0.9543566463,-0.8845682347,-0.2907584536,-0.7830737971,-0.6333249601,-0.5396142709,-0.1927176944,-0.8496851248,-0.1807732232,-0.2970570017,-0.5210592657,-0.1613379469,0.4734766555,0.9743007179,-0.3222529491,-0.1540547641,-0.7967421276,0.2183891506,-0.3393295739,0.9632042368,-0.789974896,0.7263528066,-0.147273358,0.262951576,0.7625159755,0.2616117798,0.9215082536,0.9428057357,0.1777603602,0.3817275376,0.2933273096,-0.2488631043,0.3887081053,0.9108788102,-0.37971147,-0.7997188664,-0.1682801069,0.6444055394,0.7584115404,-0.6068930068,0.7626028072,-0.827867046,0.0286123653,-0.4698312421,-0.6811130744,0.6904230252,0.8051722011,-0.8451991211,0.4015417546,0.3426590627,-0.836742747,-0.0468744705,0.8190612222,0.4598906184,0.254314852,-0.8451030959,-0.5401836856,0.0763954297,-0.8020042243,0.8221692883,0.1923741326,-0.309815882,-0.8982206597,-0.7465706151,0.8368601915,-0.7496992395,-0.3147396553,-0.1953987054,-0.8949719047,-0.1097921203,0.1437748683,6.1081164037,1.0563018558,0.9398300764,0.1095013591,-0.8033709265,-1.2924023304,-0.4740422928,0.9781455073,0.7596204815,-0.1820986412,0.7766409589,-17.0510291397,0.7368239332,0.2675356701,-0.9216801621,-0.6383476843,-0.8796745211,0.9853253767,-0.0763021494,0.8907429292,-0.4238826866,-0.8923613263,0.9679135677,0.9165869491,-0.6257395731,0.6125137475,0.0863137192,0.1881580556,-0.9094744378,0.5687308893,0.8317927119,0.3359593559,-0.1114602977,0.1044335773,0.091135313,-0.7996439344,-0.8584447736,0.0416910831,0.3484838581,0.3807678093,0.1214134306,0.7805358544,-1.0187991946,0.2097424638,-0.8880283501,-0.0651696737,-0.0714888871,0.5557733392,0.2097056828,0.7386026737,-0.1103381042,-47.4368250186,-0.6046362305,0.9453458205,-0.4563409524,-0.7033742403,-0.2568700562,-0.2352624809,-0.5422198755,-0.654512528,-0.807523846,0.8943191345,-0.0603701045,0.2408023924,0.0395193306,-0.112810033,-0.2864830049,0.9360621735,0.3754290795,0.3681438596,-0.4602839566,0.419564741,-0.5897465001,0.3117183866,0.1169447678,-0.1201899115,-0.4824099678,-0.7161372442,-0.6614091962,-0.4576685763,-0.52535684,1.0601243749,0.3538747676,0.1561155612,-0.0909471246,-0.6177778374,-0.7694267065,0.855068101,-0.0594084024,-0.2623155772,-0.2315319588,-0.5357305215,-0.8143118605,0.1754584356,1.8653347396,0.7632816117,-0.7046784357,0.1096921288,-0.6104275205,0.1069116714,-0.3336547278,0.2351792028,0.633821158,0.3518314824,-0.0551750391,0.7494289907,0.0426351162,0.7595742864,-0.6875596857,-0.492707947,0.8315818823,-0.3802198189,0.4981053948,0.8004967108,0.3674700613,-0.7085963268,-0.242761333,-0.9475773169,-0.631505716,-0.2323629678,-0.523656325,0.9755615344,-0.4811480536,0.6825617064,-0.4484671634,-0.8783422933,0.2957013223,-0.9815457123,-0.6813355177,0.8547717006,-0.6915760898,2.2768357343,0.4936484499,-0.7302336991,0.2891122757,-0.7899747537,0.5774689193,0.9573592445,1.0764515606,-0.0849979338,-0.7595237882,0.2866141219,43.7786392557,-0.117017763,0.841450951,-0.6609638782,0.5478219141,-0.3469863561,-0.7637472935,0.0747879468,-0.4795940165,-0.6145839595,0.0195771314,-0.0215975228,0.792879801,0.2408650215,-0.1761736072,0.1466192636,-0.6590273024,-0.5805133196,-0.2553941701,1.0754604958,-0.8912735807,0.6567357666,-0.1976770398,-0.3312115326,-0.1830338021,0.5548641017,0.9287858211,0.7427279717,0.3888574056,0.619173291,0.208344597,0.2562845449,0.0883184985,0.0625847577,-0.295082116,0.2020583757,-0.4375106111,0.396399256,-0.883531908,0.5292196488,9.8771225055,0.3745965266,0.0227558783,0.3107520985,0.1018653282,-0.5559467344,0.7936583701,0.8056504266,-0.5141877312,-0.1484222592,-0.6313577336,-0.972979465,0.5122346435,0.1192524797,-0.473663545,-0.1288184828,-0.6449995261,-0.3530247217,-0.0113751103,-0.4013754629,-0.1826692075,-0.1571728791,0.3508768939,-0.3473488374,0.1472503994,-0.8604958697,0.9835118647,0.1163045594,0.4377640855,-0.3863500619,-0.7923830712,0.1743858808,0.7841775323,-0.5697314529,-0.2263008524,-0.6250048388,0.5812044563,0.8133627806,-0.9908066582,-0.1827522847,-0.453860302,-0.1053014781,0.7540219231,0.919477076,0.6064752129,-0.993125,0.3770033962,-0.8873922381,-0.0577313465,0.4065526321,-0.4519046279,-0.6876449027,0.2345618434,1.4059709843,-0.3224614795,0.1650783774,0.1365607254,0.8043834956,-0.4235153008,0.6805827625,0.9815133905,0.0884296335,-0.3822719578,-0.2193572376,0.5322780023,-0.889352417,-0.8871347449,0.3268619255,0.9053383714,-0.1550836387,-0.3017162279,-0.8181792706,0.7633284311,-0.1996520623,0.7155339417,0.4225550616,-0.3505059225,0.3111041311,0.0731951346,-0.9181737276,-2.8767454441,-0.9002691083,-0.2319500511,0.7519534177,0.2670974384,1.5344192012,-0.9197837941,0.0905162029,0.5359597589,-0.4661687629,0.4000221001,703.7291205839,0.0340249462,-0.9720722907,0.4280687711,-0.17662239,0.1272120831,-0.6347750253,0.5932252503,-0.8349312428,0.18591258,0.046939711,0.6509483979,-0.9587164733,0.6181204623,-0.8502698876,-0.1704177502,0.7201955868,0.5418919725,-0.2489346888,-1.277802174,0.4988282623,-0.6096947123,-0.7649211056,-0.3093052832,0.6288555149,0.1462865443,-0.4442075702,-0.1415842171,-0.2025201077,0.8240195563,0.0740756296,0.6449545046,1.1014570202,0.8272150239,0.6992167891,-0.885601667,-0.9773777076,0.4927082265,-0.8052772188,-0.0577521867,-4.6119108565,0.6875598349,-0.3243501,-0.890588975,0.045831334,-0.9749263128,-0.1137329817,-0.8519344311,-0.4273209103,-0.4421548524,0.3226210042,0.1756664386,0.3214151211,0.2111390202,0.1467872341,-0.2362536038,0.5174282123,-0.2873151352,-0.9574948304,-0.9756902928,0.4199331,-0.7523062199,0.6353789538,0.3636904637,-0.35764282,0.6059286501,0.0242784538,0.0484652877,-0.6495808719,-0.9650284042,1.4032428902,0.617503589,-0.0745174284,-0.5037305423,0.4916037768,-0.6304283339,-0.8949937868,-0.1187650649,0.7641942905,0.2953419073,0.2119565413,-0.0057209595,-0.0468602682,-0.2660543882,-0.6922718356,0.6296790762,0.1113952828,-0.359525751,-0.8877610982,0.0188331401,-0.8437964616,0.9187382417,-0.8448107763,0.6454336915,0.6548685331,0.586283521,-0.6258407739,-0.6478319202,-0.681267555,0.2954571979,0.2526413945,-0.7943549806,-0.1266574474,-0.5655929539,0.3966237202,-0.4315401056,0.3526575943,-0.2593587952,0.8281098241,0.4096752631,0.025454847,0.8452934265,0.7553868073,-0.1313129184,-0.3303572357,-0.8324268973,0.7288071712,0.6137150949,-0.9744665479,-0.4014543009,-4.627281246,-1.1066075508,0.6568701149,-0.1642192835,0.2059856614,-0.5534134051,0.7348053466,0.1025598242,-0.6171538411,0.458505401,-0.5523351284,143.0725437673,-0.729055148,-0.1400600785,0.5498902391,-0.917510418,-0.2564448863,-0.1881157606,-0.4242466563,0.505045355,0.6961250075,-0.7234232733,-0.0829474834,-0.5019755198,0.2420154676,-0.5213694714,-0.7137569442,0.2321504432,0.5669160437,-0.1725050569,-0.6191806673,-0.0392233479,0.4000595441,0.2055984553,-0.1449051097,-0.099714214,0.6934189498,0.8750457004,-0.181162295,-0.6102153959,-0.0635293642,0.7899003679,0.7220128771,0.6957814946,-1.0237092586,-0.4154371572,0.8477945514,0.4137453144,-0.3451570249,-0.8702891698,0.2046153686,-17.2596665668,0.0123322246,-0.8737223169,0.8064454251,-3.3289929459,-0.6803856936,1.0293164569,-0.2020736822,0.4786995365,0.2303245464,-0.3899287869,-0.7149313646,0.4653035126,0.0220940776,-0.6969640091,-0.2107529191,-0.4311471857,0.4348129877,-0.4071238391,-0.5837021433,0.7903087813,-0.4186570203,-0.6846763323,-0.3573435212,0.0933163029,0.1100566955,0.9785181571,0.2772761035,-0.8260942867,0.2985493619,-0.8796227717,0.2212879014,0.0240450691,-0.8309182993,-0.4213271995,-0.7917389066,0.6585108462,-0.7939563611,-0.4615935223,-0.5728679092,-0.8945022701,-0.6146891917,0.1388653663,-0.7652384897,-0.2084687632,-0.5647211947,0.0695467102,0.2031250114,-0.2631786055,-0.2145632144,-0.5307491796,0.2362463821,-0.5944915334,-0.757686552,0.6622152213,-0.6394369049,-0.8638463489,0.396358797,0.312941671,-0.9159035976,0.4038698979,0.8137169545,-0.836615327,0.4871504981,-0.3637196527,-0.9203158128,0.7298549062,-0.5988024286,0.4389072396,-1.099719257,-0.7675457049,-0.4413667818,0.9563501675,0.6659231352,-0.0831082002,0.2224583249,0.2158537346,-0.9132825247,0.5502955149,-0.0006073433,2.4467725212,-0.2983699219,0.4850269788,0.1138027754,-0.17227271,-0.9944545524,0.5514182403,1.089704537,-0.9843608463,-0.8588904765,0.6895279555,-513.8389803682,0.7729286283,-0.5896319112,-0.3045311946,0.4577827449,0.6748372882,-0.9711937213,0.6712622,0.4913467109,0.111154311,-0.6239998494,-0.2956606638,-0.5704411576,0.7253636714,0.7995169151,0.9511236748,-0.6800508026,0.9042944166,1.5160491561,0.5652660629,-0.9296681227,0.5878737559,0.3109155793,0.3990699197,-0.5201218071,0.7618616082,0.3620596186,0.2702876705,0.197146579,-0.886229204,0.3264794196,-0.14910794,0.3363189438,-0.1080240776,0.4454745724,-0.7979879872,0.8881206459,0.1742131067,0.091493026,0.3739751565,0.2531164708,-0.6600725148,-0.4297270436,-0.2618424824,2.2103807076,-0.0312082037,-0.1185090814,-0.4939289056,0.6092654587,-0.732470317,0.0375597607,-0.6179986059,0.0886378238,0.4596285495,0.3168491421,0.5692438698,1.0132087286,0.7420061232,0.5340026553,-0.3241822207,-0.6153170228,0.1377488963,0.7498970594,-0.0172444463,0.269461411,-0.2197093586,0.1333024968,0.6653714471,-0.5829588579,-0.4915395573,-1.0743475131,0.6182312845,-0.303986007,-0.3995011666,-0.3766326909,0.6801754629,0.6840050721,-0.8242216816,-0.2091559785,0.8298779108,-0.3387942918,-0.6089109196,-0.0834293612,1.0607983846,-0.0411780631,-0.2044212306,0.9601889707,-0.2276964046,0.4361985689,0.860555658,0.2623276227,0.3870428433,0.6505605937,-3.5346054362,-0.1230445185,-0.0494350995,-0.5627904062,0.1187776837,-0.4709814014,-0.7717624208,-0.2240233272,-0.5882976031,0.1935725932,0.5751639292,0.8636354791,0.3580218174,-0.4776218659,-0.2953512702,-0.15347316,-0.2502656471,0.6431281813,0.7357478078,-0.7253974869,-0.2958874846,-0.5194036834,-0.0087639765,1.0772913418,0.6846737614,0.7326709152,0.5571532704,5.2530877317,-0.1005183163,-0.7936885145,0.4823515963,-0.6195782652,0.7399468375,-0.3193444797,0.0918013035,-0.9880101257,-0.0198790092,0.4387811002,-1432.3526922673,-0.603208827,-0.7752124859,-0.8516352711,0.8686288257,0.8735329354,0.6501817429,0.8516052048,-0.0855739213,-1.1509047228,-0.5328537074,0.0011466208,-0.2391160217,0.2057294766,-0.4340165645,-0.7362289306,-0.4129069457,-0.4185645807,1.1201850978,0.0889298952,-0.281237501,0.2763844208,0.7183753758,-0.4360954868,-0.1372553572,0.8652925644,-0.668978221,0.0426313897,0.6627804088,-0.074030219,0.6649275979,-0.4572272861,0.2166929214,0.7587804791,-0.9246895763,0.0874167181,-0.4066784992,-0.6922000612,-0.8609160815,-0.7242203608,5.4890531748,0.7354651794,-0.2679284658,0.0410440568,0.3522439467,-0.4274955153,0.6888231025,0.939327313,0.1740919417,-0.5456198545,1.0522355449,-0.2830467922,0.2945460139,-0.2897093052,0.2215629421,0.4264366368,0.3241576171,-0.9072980294,0.1500828864,0.9651445859,-0.141667714,-0.8817551611,-0.4459010722,0.4214209029,0.0894380242,0.1276048838,0.7523445211,0.6052848934,-0.5971068483,0.0934351123,11.4219601483,0.8840912757,0.0658733796,0.1025853728,-0.2853964689,-0.8640188928,0.457481701,0.0279192036,0.3405626439,-0.245501944,-0.1287227271,-0.780038813,0.292239261,0.4739671366,0.8066092589,0.3640966856,0.347065319,0.8974755441,-0.306702729,0.9506970179,0.162759976,0.2701141366,-0.959964249,-12.0125040037,-0.1433980288,0.0132690514,-0.551403874,-1.0545215412,-0.3979435775,-0.8139665322,-0.5181179963,0.9382643614,-0.0417505003,0.6676424748,-0.7941186807,0.3930833992,-0.194281679,-0.3097062143,-0.3868777522,0.2620107953,-0.5989301691,0.7684779348,0.9597675081,0.1334584492,-0.3117367954,0.1359992536,0.6407069396,-0.8034281571,-0.5979303053,-0.3808825577,5.6845606953,0.8204215514,0.1402961,-0.7595426741,0.6772944379,-1.7205289818,-0.7656638175,-0.5628424861,-0.839921049,0.6606328808,0.0014150293,199.2487468045,-0.6411959297,0.55530832,0.6427210101,0.9144298973,-0.2378582293,0.8746602018,-0.5518794094,-0.5331377593,-0.2537996195,0.731984469,0.3709522004,0.835129832,0.9205435566,0.7435629765,0.4897653869,0.1979240808,0.9923292008,1.3392448178,-0.7948632384,0.5521068925,0.8407833955,0.7099682619,-0.25722283,0.3268233992,-0.9651567522,-0.8988173573,0.4417945876,-0.6732156063,-0.6919063521,-0.7162273505,0.0535979744,-0.6637441783,0.5613864776,-0.8726108505,0.8842880722,-0.4496363695,-0.1301027519,0.7985398791,-0.4855911711,0.7905304342,0.4580022907,0.6815930434,-0.6796506806,0.5945176473,0.6059027002,-0.0230556824,0.7124381071,-0.9217817431,-0.0780953678,0.6414050019,0.1077237471,0.9194721671,-0.2355338403,0.8110127006,0.7037325695,-0.4002235488,-0.9949911121,-0.2192911751,-0.0851106921,-0.1448955265,-1.0572364667,0.2802788122,-0.8911654455,0.7311253156,-0.5219077798,-0.8082288208,0.535613874,-0.6852240628,0.3179936977,-0.9012417317,-0.6308249499,0.3476980438,0.354139774,0.40873471,0.5315769102,-0.3697012282,-0.6745349914,-0.5050923237,-0.5140879439,0.1354788959,0.5655021299,-0.2231056806,-0.1393029424,-0.5186691085,0.5091578139,0.0880903327,0.562472902,-0.1116634865,-0.5261892709,-0.5714041324,0.6174952518,0.4322670973,0.7199923863,0.4901259172,0.4936848349,-0.9744578608,-0.2082606283,0.5098933504,0.1171001428,-0.0635899423,0.0516730118,-0.4910079679,-0.4553368786,0.5943416643,0.9802028474,0.6727593989,0.2152503678,0.8407713596,-0.7857254964,1.2970509514,0.1554236317,-0.1290471262,0.3191449067,-0.5550502857,-0.0116887511,0.1554156768,-0.2066946382,0.170202114,0.7966173036,22.1719529743,0.6171530167,0.4328265329,-0.4434443176,0.5155556698,-4.4162355684,-1.0404635651,-0.2879511885,-1.5887603452,0.2761613326,-0.5745899833,-533.7652149885,0.139456698,0.5197831727,-0.4989575716,0.495330486,-0.4915333723,-0.3274661857,-0.033972438,0.746059811,-2.6846508331,0.521514047,-0.4087137645,-1.0022011949,0.6305773706,-1.2169230471,-1.3835769138,-0.8092357213,0.0285152688,0.5695951199,0.0959325138,-0.4478097378,0.2767933597,-0.4442316211,0.288540245,0.0013425206,0.512809821,0.5538894699,-1.0034772773,-0.0317363515,-0.3916703665,0.6599019874,0.1551204083,-2.1632517673,-1.3830586665,0.1206393052,-0.6959201007,0.1002270609,-0.8383042941,-0.3443483792,-0.1714872316,3.6480822619,-0.6273316341,0.2936005687,4.3543689515,6.7704517021,-4.675513554,-1.054434041,0.0745848969,-0.8062204208,0.6710675174,0.1423594174,-0.7624251484,-0.6586799689,-0.549766562,0.1193519058,0.6561669068,-0.1029164942,-0.3813899127,0.286817727,-0.1307863991,-0.4938183059,-1.0539172021,-0.5904932774,0.3689257175,-1.1354340478,-0.1285158805,0.60061371,-0.6079716566,0.8220784336,-0.953508842,-1.3461306615,-0.1743319276,-0.6748585063,-1.4466074799,0.0102538319,-0.2081637703,0.826237412,-0.5683930808,-0.6247907223,0.7961618227,0.7952413498,-3.0175846294,-0.708660437,2.9191682553,-0.414651788,-0.2935687703,-0.4718273621,-0.0711295562,0.2462377738,-0.1144120779,0.5856728857,0.5871050775,0.5911143107,-21.3337512981,-0.0500735085,0.4874865938,-0.9514624472,-0.0422494441,-0.94120137,-1.9891626495,-0.4264183482,-0.3670860259,-0.9021267335,-2.5698567792,-0.2853427406,-0.7004849931,-0.1969590928,0.7460343523,0.8612338884,0.1569810544,0.2084789528,0.5933263082,2.816805443,-0.5372204456,0.7834579733,0.2932432448,0.2549512917,0.8497485772,-0.9754433699,-0.113627547,-4.5462292,0.4475228383,-0.0617421052,0.4730969726,-0.5530931945,0.7125547251,0.8481104231,0.2721986185,-0.2077992761,0.398295359,0.0672096478,594.5764350302,-0.4298381305,0.1104682455,0.7886891553,-0.8264676208,-0.9158282526,-0.8132798973,0.043827808,0.1265553265,0.2727464254,-0.0578623069,0.8684916286,-0.7931314728,0.223733883,0.7218370474,-0.1646212136,-0.69355631,0.2212197421,-0.2149449436,-0.6581046873,0.1363816673,0.2051821393,-0.9743046827,-0.9390231665,-0.5583126059,0.7941230317,-0.7424895408,-0.959321352,-0.3936338313,-0.5317372195,-0.8748154806,-0.3029828566,1.0417288493,0.4097450857,-0.7870198327,0.9464613192,0.2559512075,-0.018108862,0.521977937,-0.972557661,-4.7080976631,0.3871842552,0.9086533302,0.808127316,4.4363321411,0.8217408375,-0.760357183,-1.0190654231,-0.4805307043,-0.3030375517,0.4406922722,-0.6761752093,0.5856908627,-0.3597272942,0.5969120429,0.257474067,0.602654757,0.7160694819,0.4357870248,-0.3461668749,-0.232965909,-0.3076482801,0.3133317325,0.6292876203,0.3516899241,0.3922687208,0.5123124286,-0.063513101,0.7236223641,0.1701587114,-0.5833126638,-0.4876343881,-0.4145252096,-0.2546189122,-0.6836151607,0.1875839724,-0.6193620039,-0.3219745242,-0.9428970034,-0.917076094,-0.4102186052,0.2696371008,-0.9094716495,0.1697509581,0.1235001214,0.9441960093,-0.5453308866,0.6893732415,-0.8013447438,0.1687091884,0.2005008305,-1.3257444018,-0.7122830796,44.6928076288,0.5550920427,0.5458658693,0.3771163394,0.9138700697,-0.1078258648,-0.4022854726,0.0969454239,0.7103498067,-0.632039971,0.3530999772,0.6506963621,-0.8783935003,0.754146531,0.1236866428,0.0894735574,0.0671602579,-0.2268132855,0.3773365079,0.0764441737,0.6596260397,0.8676827294,0.7014109522,-0.9182649553,0.8876070196,0.751332367,-0.4792108894,-5.3837272789,0.1211487184,0.361013674,-0.8784152301,-1.0476376417,-0.3659847078,-0.208955118,0.1348086808,0.3875788228,0.4222012777,0.2759375292,-199.8513574314,-0.4203685645,-0.2804681886,-0.9514350438,0.1750911809,-0.5879797568,-0.7497703796,-0.974806658,0.8128844878,-0.1697552714,0.8752525507,0.0310198668,-0.1986462653,0.4474557573,0.0454251775,0.7545243615,0.5884399435,-0.5357111456,0.4794651178,0.5089846165,-0.9274970772,0.4905919517,-0.35346588,-0.4632760659,0.5263073556,-0.5550426118,0.1312647695,0.7418565089,0.3076951412,-0.6215816178,-0.7006362639,0.9020129402,0.1152125825,-0.4595624502,0.68493202,0.9137061581,0.4364915768,0.9955707405,-1.0513590558,1.2035132548,-132.5146895556,0.3769212894,0.0697955371,0.0534020296,7.0774114803,0.4139713441,-0.4371781158,-0.2921435848,-0.5485134517,0.8319416347,-0.2273881252,-0.878833262,0.5399579976,-0.7426091118,0.8914454728,-0.2742176759,-0.2757893993,0.4479907608,0.2148411617,-0.2339046086,-0.0909185345,2.500085888,-0.539119224,-0.0785420039,-0.1276205117,0.5746563346,0.7457486242,0.4950455815,0.3515051643,0.6361434842,1.0366955063,-0.5553104172,-0.4220637965,-0.5373777251,-0.2651690241,0.7892459552,-0.2923718683,-0.0822023047,0.5882320816,0.0393028812,-0.1908466202,0.2372317307,-0.5603541699,-0.2179114008,0.0530106831,0.9542104598,-0.5662900129,-0.8735655896,-0.5597161411,-0.4805966203,-0.9935860737,-0.0518383513,0.8686905423,0.2557054271,0.4870020062,-0.1251924263,-0.898450947,-0.6788339121,-0.7032264871,-0.7962566459,0.0011247725,-0.1421152065,-0.3563794173,0.6589183513,0.2508309792,-0.916750656,-0.9722353153,0.5235319049,-0.2488985731,0.8869456621,-0.3438329704,-0.8389781856,-0.3170888858,-0.4856921441,0.5592670711,0.6855172567,-0.6214938098,0.6988590087,-0.1242203788,-0.1012800133,1.8318502193,-0.3279809905,-0.3197956176,0.8426354234,0.1900949331,3.3353696322,-0.2342883548,0.2139799467,0.9603010088,-0.826238346,0.2804591811,-1431.7934208139,0.3204600312,0.7037367663,0.368277439,0.5328945366,-0.053867389,-0.8620561475,-0.2138145442,-0.2647025566,0.6873377613,-0.0828127978,0.2882367791,-0.6037538423,-0.5781804057,0.5424686132,-2.1832735132,0.5620906932,-0.2178912739,1.2907497379,0.8277070386,-0.09224219,0.4478598247,0.9116002146,0.5264270571,-0.1724297968,-0.6811016109,0.4804642139,-0.2431091265,-0.2886441826,0.9847946034,-0.4969431895,0.2512075832,-1.4551160681,0.177111566,-0.6561951714,-0.3522951049,0.2785213888,0.8222482465,-0.4420417546,-0.9513192936,-0.0844455093,0.0977311814,-0.8773428494,0.9578529097,-0.3427143392,0.7670979475,-0.7514528423,-0.3138143195,-0.7397226832,0.1498128209,0.8808663113,0.1092819535,-0.5142731352,0.1132137677,-0.330940152,-0.3110868879,0.3617200852,-0.5555551905,0.4756393584,0.3473882409,0.982499238,0.593185206,0.7819832479,-0.4321470702,-0.7979083939,1.0381680648,-0.0577950904,0.3194899813,0.8423501006,0.4817563697,-0.1860934101,0.5611883429,-0.6700903344,-0.1822025528,-0.5818492283,0.4426865022,0.0250907579,-0.6572462745,0.4843800455,0.2804338246,-0.5882250647,0.8181290908,0.8080339808,1.7368332973,0.8806450717,0.211008619,-0.5535549583,0.211832413,-0.5577487118,0.3693025884,0.3938232899,-1.5961558987,-0.5578087593,-30.8085196717,0.2776842819,0.4119566087,-0.4714196941,-0.4055644386,-0.3760894233,0.6756200954,-0.550125157,0.2829258628,-0.8504346123,0.115041542,0.7992238919,-0.4821189395,0.3094931485,-0.3614704096,-0.9229143373,-0.1647446818,0.2524247533,-0.0636355308,0.4870982446,-0.0510265402,-0.0200972143,-0.4124994596,-0.9303459341,-0.9434552428,0.7359892509,0.2364029239,-6.1940430922,-0.5883189576,0.0837095488,-0.1307991957,0.7945296663,-0.3509841371,0.6526584148,0.5345548449,0.0335853865,-0.9551108853,0.8462591336,600.6721147117,-0.3462743821,-0.0271308739,-0.3236577718,0.4581073617,0.0158366539,-0.0388153195,-0.1732958011,-0.128907741,-0.2029722,0.339793798,-0.3598721674,0.7226635907,0.4018776777,-0.2445403071,-0.3424649422,-0.2245812109,-0.936841921,-0.5768315277,0.2513109025,-0.8971867062,0.7553616755,-0.5667431863,-0.9445194431,-0.0917127169,-0.1126429034,-0.0677781747,-0.2323445123,0.4367602671,-0.4539313056,-0.0042399967,0.7751480721,0.5589769093,-0.9452152913,0.4703349368,-0.5619351807,-0.531167773,0.1823780216,0.8252673036,0.2102999943,-54.4066481695,0.1342639288,0.1880972795,0.2179833345,-0.778771773,-0.5471114974,0.5858924304,0.5745341509,0.9392632155,-0.0663281497,-0.5249140739,0.7700743628,-1.0173075428,-0.615134324,0.2351239864,-0.2813222665,0.4557208651,0.326380495,0.2945998149,-0.8791694168,-1.0061657395,-0.1168864978,-0.5966138121,-0.2058470116,0.8113112354,-0.1013023252,0.6063028262,0.8327055512,-0.2879031453,0.7986897869,-0.8879763287,0.7782063658,-0.3581621629,-0.4982116682,0.6386951814,0.6599424086,0.1567857766,-0.5847126319,-0.5386965426,-1.0371708013,-0.7511282683,0.5904527032,0.7008568489,-0.3993561203,-0.4907485643,0.92677171,-0.4323443953,-0.8865575264,0.4374382927,-0.4484394215,0.0275766481,0.2047776027,-0.8305011885,-0.5455021201,0.7759302606,0.060500613,-0.0601637696,0.6791030081,-1.0560691357,-0.7631633995,0.8199794156,-0.8480260971,0.7238021212,0.4603072542,-0.3576291592,0.3316427026,-0.00210962,-0.4528128598,0.8337565129,0.6222287668,-0.5098202061,0.2605545222,-0.3232967646,0.8207754383,-0.4997723042,0.413339564,-0.7925239981,-0.2248333553,0.5343166898,0.3116182708,-8.4927670482,-1.0347940504,0.1730088826,-0.9268153515,-0.6584905171,-0.5910064024,-0.7338890083,-0.8618320656,-0.9488395766,-0.1784731456,0.0324953797,336.4502783216,-0.7433872815,0.1125669588,0.3488296432,-0.7866805958,0.2936172836,0.5806452743,-0.1390704215,-0.6194952243,1.032212269,0.3847000634,0.7500288601,-0.019163865,0.523774535,-0.1964606693,-0.7357566631,0.5479516276,-0.1113106902,0.2176077161,0.2194869116,0.3624589124,-0.7556907106,0.9452238317,0.1845166492,-0.9780959964,-0.5829134591,-0.3899758019,0.6118452308,-0.2727382672,0.0500921982,-0.326634624,-0.4220893818,-0.4761797738,-0.4259533576,-0.1415443822,0.8686064324,0.1523307784,0.7835929879,0.2038292378,0.7803142888,2.4114848514,-0.5311546383,0.3548124754,-0.7119441985,-1.099467021,-1.0129751161,-0.6510140609,-1.0386268287,0.4400693339,0.1945651246,0.9584685318,0.7773185115,-0.3163253242,0.1639982733,-0.0297342096,0.1261109332,0.5199361069,-0.2996639873,-0.3641515125,0.0259114747,-0.8780378615,-0.0562350462,-0.2379033343,-0.6459509704,-0.4334100904,0.1478762608,0.390405531,0.0994728548,-0.1027781029,0.5335197649,-0.2110667656,-0.8632737296,-0.9805583749,-0.7122429724,-0.5805409396,0.9716596379,-0.4018961468,0.384603334,-0.5921443563,-0.8168512099,0.2938640169,-0.8962969868,0.1323621992,-0.3224167635,0.9906272016,0.9448946203,0.1359798608,-0.7482932001,0.86614821,0.4103395414,-0.9106509002,-0.6567413066,-0.1495846165,0.971307556,0.440155215,0.6831911089,0.5683598926,0.6731682488,-0.7547753854,0.7958532177,-0.8525973512,-0.8041515663,-0.5521834365,0.5334043322,0.2451852879,-0.0191729786,-0.2558348446,-0.1289930423,-0.2262040751,-0.494155669,-0.3254227583,-0.6047488985,-0.0102693072,0.520348944,0.3761766766,-0.6468274644,0.1148528233,0.6956476525,-0.0725586044,0.5868785425,6.1396861404,0.5013048664,0.6415503287,-0.6494790677,-0.644321708,-0.002364288,-0.4620712398,0.5571316365,-0.886291482,0.5986751506,-0.4790209452,-1000.4392517668,-0.9595002159,-0.3102196015,-0.3438160876,0.4384884312,-0.446001435,-0.4071730971,-0.8392469216,0.6818480068,-1.2641912399,0.7198657627,0.5400783925,-0.3075585078,-0.2153481836,0.6519063946,0.8142758709,-0.4108990782,-0.1685811173,0.5237690266,0.3681994225,-0.2947957702,0.2465479627,-0.1374210414,0.579694826,-0.9036422981,0.3780284113,0.7424367526,-0.6193778973,-0.8028459918,-0.3144748053,0.5954863562,-0.4486365414,0.3487183636,-0.1181784245,0.792671812,0.6282618806,0.7392450839,0.6450762413,-0.5900843057,0.5055874084,-32.8308130606,-0.0475528523,0.0040893903,-0.684802457,1.1265503731,0.2681420423,0.8766953111,-0.8343077487,-0.5909198746,0.083745022,-0.7227627024,0.25346018,0.3074693368,-0.9877442082,0.5633587701,0.8029238238,0.9024595171,-0.849858701,-0.4159557892,0.9078005778,0.2197119097,-0.3946791891,-0.8900315987,-0.6801527689,0.419674205,-0.9889392744,0.0172767093,-0.8710069206,-0.8520646338,-0.3467741901,0.0333546388,0.6596744532,-0.1565055528,0.2555804159,0.9404893077,0.3802641136,0.0254992562,-0.5308122394,-0.1603855618,-0.7596501734,-0.7231447702,0.3924707512,-0.8545746703,1.3720026213,0.3838883813,0.1378520434,-0.8394377081,-0.2910655999,0.9175535771,0.7817415467,-0.9563760834,-0.1605762767,-0.1681150592,-1.5463179844,0.5306302183,0.4611127359,0.465188159,-0.8482494137,0.3995911986,0.4389322994,-0.7632029536,-0.8535394372,-0.2078857797,0.0413936338,-1.5297957471,0.5453339736,-0.3577813744,-0.5202350396,0.3656164205,0.1213573539,-0.7220254895,0.8549788358,-0.6863246351,-0.1547469743,0.1402501367,-0.8054950688,-0.2340134489,0.3477899353,0.5583115001,0.265419443,2.6545458338,-0.2677198482,-0.0001307798,-0.347069953,-0.5060597854,5.060419229,-0.9440356021,-0.1405357865,-0.8579310034,0.5804722949,-0.822193748,-1431.5750718944,-0.569749824,-0.8449337867,-0.0652789702,0.0553284842,-0.2867089029,-0.7158999742,0.5970862381,0.4336929357,-0.8511376547,0.7147065814,0.7785837865,0.0747305102,-0.0397101312,-0.211504544,-0.2242183128,0.1853951478,0.5867295584,0.4180594509,-0.7909044221,-0.0417361696,-0.6237226285,0.5053392334,-0.4649808548,-0.9182126156,0.2766732181,0.178113745,-0.7004490147,-0.565702404,-0.8399290691,-0.2385363238,0.0478949126,0.5001371207,-0.3468158831,0.1536185419,-0.2484752793,-0.4823771952,-0.6750384605,-0.7750701481,-0.8628827499,0.2223838535,0.080214637,-0.7243203953,-0.3801509644,0.2339148319,-0.6416930041,0.3244093913,0.1049883098,-0.252725501,0.6758767641,-0.5396283072,-0.90277314,0.9332079708,0.6856741162,0.971809383,-0.2591600126,0.953905006,-0.5283241849,0.7861608067,-0.1939027348,-0.7852187849,0.669960716,-0.9215734493,-0.9153564483,0.5367108456,-0.1389097397,0.5292646307,0.3094855393
   0.7172512874,-0.1558861741,0.2856730581,-0.3485007091,-0.0840594486,-0.6499688177,-0.7271811482,0.8941035265,-0.7231741142,-0.4822134015,0.5033718949,-0.3034243851,0.297903404,0.1085520347,0.3795997354,0.0346519038,-0.4968792292,-0.1691823178,-0.5779928435,-0.4902429645,0.4020697326,0.5245801133,-0.5315870333,0.3741639488,0.0892937143,-6.5833866339,-0.6299906212,0.5438225831,0.8587390693,-0.6214738637,-0.6705033593,-0.4645573236,0.776006543,0.4266178963,-0.4626580472,-0.3842873928,-0.8898266653,0.6707593644,-0.9880200639,-0.0727907305,0.3898259397,0.7490833868,-0.1064306269,-0.4040935512,-0.5377278184,0.735379897,-0.2920563552,-0.0998558208,-0.7546289617,0.3815098913,0.4513171234,-0.1242486313,-5.6901211419,-1.1796490864,-0.1417495847,0.1445339053,0.7747009862,0.2152243332,-0.0474086265,-0.5245476658,0.1324871485,0.3020860491,-0.1531569404,792.6859832397,0.7060133153,-0.3848757178,0.4168949754,-0.8699763686,-0.034940475,0.9006477005,-0.7534722599,0.695999803,0.1927296916,-0.3152879277,0.5381061175,0.2501179579,-0.6026984414,0.6104139957,-0.0832267572,0.9620649173,-0.0059094885,-1.2297148725,-0.2311716436,-0.6621570603,0.4829104813,-0.7437543078,0.2254529989,-0.0886171033,0.9188809995,0.9047760446,-0.3840357591,0.3653627057,0.4304643699,-0.3727052125,0.023590475,0.4622670315,-0.7985686097,0.7405956809,0.4678196179,-0.6856786298,1.1334160443,0.230084867,-0.2074125206,-3.1062607065,0.7885753766,0.3135281786,-0.231682986,0.371485048,-0.8053177517,0.3463847361,-0.6616178952,-0.0112952707,0.7791295748,-0.9463775508,-0.9016896887,0.1392925515,0.3164862565,-0.7167477285,-0.5434211614,-0.9626882392,0.9702342842,0.2741279429,0.710294068,0.8237489188,0.3250682752,0.315416421,0.7680811236,0.1192891204,0.6252760286,-0.5050861392,0.1109036966,-0.7649575591,0.940484768,0.0317026067,-0.6388424231,0.3569936581,-0.7880099662,-0.6113601325,0.1869600339,0.9279716324,0.2937454163,-0.5439823201,-0.9268165543,0.4801066885,0.0949665534,-0.128873712,-1.6611608399,0.5814922199,0.9865110325,-0.5096666519,0.7120171968,-0.9631842418,-0.8501565306,0.4937216465,0.7381452844,0.9925559566,1.5461946381,-0.0690573544,-0.8909237466,0.6498443174,0.9761211209,0.5299729327,-0.7916297966,0.4583442617,-0.3409951725,0.7114198778,-0.204975177,-0.1459210968,0.1776365194,0.4127417473,0.4034096234,0.3598810816,0.7047240642,0.7181171929,-0.7829054603,0.4478661187,0.7440870155,-0.4471738193,0.7948518909,0.9912655004,0.2110695157,0.0341119355,-0.5133892673,5.6903988939,0.6086823533,0.2439574881,-0.5640232651,0.9371751573,0.1539954409,-0.5758558974,0.219703571,-0.2340691238,0.5236769014,-0.3469236368,-1431.4434394039,0.918398419,-0.6959935231,-0.5756511772,-0.2724793738,-0.8984015566,-0.8450326065,-0.257020693,0.3422860257,0.6897889101,-0.351150829,0.4888491919,-0.8524704236,0.941337795,-0.6305064614,-0.7191653528,0.5444990315,0.2206464825,0.4119382055,-0.1475247709,0.1321252597,-0.2030974568,0.1997555644,-0.340207438,0.9631534844,0.8515015443,-0.4359952393,-0.1112033796,-0.5274321148,-0.1602073041,-0.8614419925,0.726853076,-0.9932688264,-0.2281626685,-0.7233383487,-0.8569419589,0.385697379,0.3212114165,0.4289721948,0.2016305423,34.9633275076,-0.713675107,-0.007953525,0.9701855435,0.7496493014,-0.8917779101,0.3028000123,-0.9772558157,0.8278893856,0.0830358118,-0.1767086948,0.2581314165,0.8536871854,-0.5066361662,-0.4842817712,0.0227932341,-0.4915261196,0.8510912063,-0.5877734938,0.1852215698,-0.5399626949,0.132773468,0.4222126928,1.076606962,-0.7432790261,-0.0938557503,-0.6287191561,-0.4798479819,-0.5563410564,-0.0913583903,0.1813852814,-0.4769951183,-0.2501688166,-0.4041434714,0.3140695232,0.0308047127,-0.7688994768,-0.1105921796,0.2950163814,-0.2502232989,-0.936003429,0.0766733692,-0.0556907122,1.1109324078,-0.5152259976,-0.7437010972,0.1832464492,-0.1391955321,0.1307634472,0.4221366786,-0.9375210888,-1.277714726,0.6253013813,-0.7288960084,0.5433654451,0.0066613888,-0.662833491,0.6899781998,0.644960893,0.8048546505,-0.6916916869,-0.8660300048,0.8819139584,0.8629104483,0.8682562503,0.8236008736,0.0323439456,-0.4791503196,0.6567896906,1.2841452604,-0.934873241,-0.2615492045,0.1178991226,-0.4611194073,-0.3968136646,0.5284546631,-1.0160075902,0.9156706563,-0.7577757624,-0.5005843021,-4.4909175401,0.4775633403,0.6180273514,-0.3905872413,-0.9089514777,-2.2385578669,-0.892536905,0.0881848036,-0.6573550357,-0.3062060705,-0.2074667452,525.8273587429,-0.6690685095,0.1226562724,-0.8816599202,-0.2868110924,0.1082679686,0.514521546,-0.1493044037,0.3753366334,0.5148281398,0.0410110441,0.3051705376,0.668140423,-0.6783668718,-0.4939664095,-0.0743138601,-0.3505653513,-0.4452941583,-3.6842596905,0.3335388045,-0.1549525061,0.9232332897,-0.3141741539,0.6807062526,-0.5246254249,-0.6465246982,-0.6385889809,-0.9196035227,-0.8930496056,-1.0240656228,-0.3973523823,0.6485736016,1.4403397343,-0.8090580802,-0.609050818,0.3141830585,0.4448179101,0.2872411968,-0.7326565469,-0.8445697928,-81.8774320592,-0.6647569781,-0.4856110237,-0.9758923983,-0.7139323457,-7.1987679561,-0.1232179075,-0.410383902,0.4505393617,-0.9672529002,-0.4658739856,0.3022144951,0.7787166145,0.0069042578,0.5617924139,0.3265717736,0.8238991042,0.1816799144,0.4960404198,-0.7710802567,-0.2334496763,-0.0461828066,0.3192027619,-1.0750947593,-0.0036368699,-1.0662673971,-0.8171632238,0.5705726659,-0.838282673,0.9887055158,0.0963808248,-0.037569147,-0.814413793,0.5187080101,-0.7907088153,-0.1442400095,-0.7589554576,-0.2780079866,0.0185377692,0.0945634159,-0.0799966158,-0.4759601973,0.6484422866,-0.8649128407,-0.3874254475,0.9327397033,-0.879635661,0.3785681073,0.6156211637,0.4187483522,0.0186330451,-0.1097598989,0.0693449723,-0.6711729056,0.7711442828,0.4514479204,-0.7426606671,-0.7067249026,0.0133946291,0.4449977624,0.271078959,-2.4704735769,-0.1999754259,0.4337328784,3.0887502392,0.6479219636,0.0148998562,-0.604234629,0.7995109014,-0.9302052161,-0.4149445774,0.4916767568,-0.6678244648,-0.2068535978,0.8186126799,-0.2728686711,0.0901056972,0.4697166354,-0.6472517368,0.6707108514,-4.5753135728,-0.9784535015,0.7191714035,-0.9018201911,-0.3603935706,1.7900814499,0.1602234603,-1.0078469818,-0.2904848978,-0.3438690512,0.0380280356,932.1899182594,0.4093983083,0.1129159859,0.8617269754,-0.7038754303,-0.6125853051,-0.8046915046,-0.3359542423,-0.5194678195,-0.0734943321,-0.5335584117,-0.0496990853,-0.3807861201,-0.5727750068,0.1566985308,-6.5537611013,-0.4306911019,0.3125167228,-1.9122170663,-0.4202640826,0.7406250017,0.0712955537,-0.5306245151,0.4172381687,-0.2969306432,0.7283457865,-0.8065132599,-0.0670574424,0.7818086409,0.4310903311,0.935103077,0.2234919729,3.9254115077,0.3292687607,0.6214710381,-0.483354357,-0.2261628141,-0.1021839182,-0.8464083618,-0.5612085747,-3.2095025648,0.8363814917,-0.7229762292,0.5387528006,-5.8535393933,0.3601570979,-0.4965749707,-8.8279450828,0.672431614,-0.7890526692,-0.381689129,0.1246553688,-0.3853479837,0.8878278043,-0.4425341975,0.6594019615,-0.1842041365,-0.8164841261,0.4956409998,-0.6328540066,-0.9391062856,-1.8791278847,0.8925794004,-0.6802198389,-0.8366657178,-0.6828525574,0.2135914442,0.4515136455,-0.0889156931,-0.1803473625,-0.9144699598,0.7523030334,-0.3030861781,-1.0384167797,0.0206393857,-1.076469852,-0.264698416,0.5891979963,-0.1303606054,0.3687811708,-0.44352705,0.3818938146,-0.0372958214,0.0967356833,0.6832512503,-0.8453988613,-0.7677355064,0.8091801551,-0.5644194323,0.2890126303,0.3580178472,-1.2407287775,-0.6930056614,-0.1412721915,0.466781295,-0.5663668873,-0.5767111479,-0.3770867772,0.3295747234,0.3452073145,-0.2034961436,-0.3479471601,0.1411515264,0.0677290542,-0.8164207551,0.6975529085,0.2228912489,-0.8749614812,0.5660634221,-0.9155941008,0.3278379985,0.5414328264,-1.1870371805,0.001861394,-0.637770105,0.4883061178,0.5568316086,-0.4019110849,0.7133590298,-0.4198604692,-5.9873440518,-0.7418440788,-0.7887023305,0.4268215375,0.0906027434,-0.2288260275,-0.2293593513,0.9341300623,-0.5119687757,-0.9777642315,0.0811789838,333.672964608,-0.3847374593,0.5966398384,-0.3679048838,-0.9803794335,0.2204599741,0.3792143667,0.0096985831,0.0118180523,0.4148552732,0.9813575863,-0.6677590583,0.2099796692,-0.932919804,-0.1083337894,-0.4713457153,0.4039702669,-0.8993425868,-1.2340413848,0.0336939261,-0.1897026665,-0.2545451086,-0.1433306238,0.7629949663,0.4318854269,0.5359304518,0.8070367805,-0.016284434,-0.7117968767,-0.7294121631,-0.5959423703,0.4226977999,0.2042334269,-0.3587461462,-0.9144736719,0.1805552736,-0.8988371526,-0.8344844891,0.7657825424,0.3573563059,-22.5089839139,0.1250984666,0.8956248944,-0.821314294,-2.5483639051,0.5715741378,0.2683341022,0.560960318,-0.1808290958,0.1283658979,0.2322271651,-0.260120532,-0.066076346,-0.9345757755,-0.300972059,0.3327559458,0.9363391039,0.5296945763,-0.3820404459,-0.7623038793,0.4067780065,0.0990138751,0.9829346361,-1.052563284,0.3202287794,-0.3899405316,-0.9588272492,0.3892815679,0.0967925147,-0.89359863,-0.5654626989,0.5965933381,-0.8007308449,-0.5070650277,0.6529069341,-0.3793260623,0.5126304061,0.8250466428,0.534662238,0.6580858985,0.0004187559,-0.7543469508,0.5682999564,-0.334989698,0.5354237192,-0.267187772,0.9763690759,0.6331640009,-0.2858226028,-0.3171414747,-0.3930749517,0.5316354339,-0.6658682566,0.1016110678,0.0579820492,-0.9395818726,-0.6054520493,-0.2001213092,0.4901774196,-0.0247941531,0.8139357016,-0.7903995909,-0.5474010588,0.4561412092,-0.2865323358,-0.9870147275,-0.7136483923,0.4122911554,0.8918817132,-0.2520387569,-0.7717412029,0.4635282009,-0.0973064133,0.1828862064,-0.8261494214,0.8216716372,-0.0002390598,-0.537401883,0.393046633,0.691974437,-3.1400036522,-0.0470404757,0.2633731557,0.8726867167,-0.6451411498,0.5409877318,-0.1927902196,-0.5119775029,-0.4648393822,-0.7046743374,0.7673444837,502.8745535147,-0.0615955601,-0.818269313,-0.7893982442,-0.5852167995,-0.0679392606,0.9375845183,0.3982208203,0.4754963919,0.1774385011,-0.528493679,0.234499472,0.6748712081,0.7719625213,-0.9879407386,0.7342804062,-0.7658348445,0.8876655503,4.5629166122,0.8463932449,0.270023342,0.8995921804,-0.2563223949,0.4599185969,-0.8682501255,-0.5931608671,0.2223029052,-0.5384630467,-0.7468293123,-0.2191132998,0.6467171248,-0.3147001237,1.0588005764,0.1190746676,-0.0642652637,0.4637740255,0.1226493607,0.1919185253,-0.6037865767,0.4272811626,0.1972429085,0.3006257241,-0.3523829134,0.8928502515,3.2084146891,-0.9392245877,0.6507677943,-0.3065357611,-0.7305464511,0.3971539736,-0.0860679306,0.0294808486,0.1621765448,-0.6180970208,-0.0137789193,-0.9126881507,-0.1479456031,0.0605471779,0.316966591,-0.0787021884,0.924134135,0.6831583867,0.8641359859,-0.7922433906,-0.7245841314,-0.5879605662,0.6252623863,0.153705418,-0.0134763822,-0.4891271957,3.0512539979,0.2431293562,-0.9608599383,-0.7610786905,-0.1543047077,-0.1237618052,0.9020426581,1.8754378442,-0.6402540588,-0.3416116112,0.8726239265,-0.5031371394,0.8833203954,-1.6174294757,-0.0582626116,0.6005450815,0.9282939518,0.8021333381,-0.3937097485,0.6174985658,-0.3730860096,0.7428564318,-0.7987922059,21.7573957225,-0.2780514475,-0.8455936828,0.167618957,0.3369706763,-0.8328873402,0.9367822358,-0.0456212439,0.5874782911,0.8380184575,0.9376757785,-0.1199336755,-0.5954804458,0.8766792944,-0.8835070583,-0.3606053307,-0.4409944305,0.2343361231,0.4293086037,0.0798090663,0.9714286054,-0.4215075021,0.9562945615,0.631028377,-0.2362895964,0.7624065997,-0.5838624922,5.5599782736,-0.4456587255,-0.631265572,0.5602816679,0.4047296705,-0.7986053102,0.852212033,-0.5638532468,0.9716408256,0.0297351684,-0.4784985989,-648.1108486627,0.6659208312,-0.8401318343,-0.1155227392,0.2940778391,0.2235099774,0.8167464863,-0.186815418,-0.2507255112,0.1613833701,0.4537951504,0.6019052978,0.1366563511,-0.2902131173,0.8746445236,-0.9617903103,0.3617955544,-0.6303107998,0.7673793954,-0.2098174686,-0.472561223,-0.466907084,-0.4528968535,0.3793120047,-0.7239676458,-0.8780356254,-0.4401619241,-0.8692737379,0.550039787,-0.1687124248,0.0622394197,0.8616196603,-0.8051705352,0.960090317,0.6777946842,-0.4852422674,0.5608352598,-0.0372779913,0.3015413,-0.0228569481,7.2289892173,0.6125891707,-0.203601632,0.5340173995,-0.2977000331,0.8228455446,-0.333413238,0.4185988327,0.1480853734,0.8887810875,0.9062920581,0.5253600028,0.0252256191,-0.508976294,0.2806931744,0.8141878107,-0.3989066098,0.0740638151,0.5320614538,-0.0463633769,0.4748150052,-0.9771671277,0.8645708974,0.6160259562,-0.286253852,0.9131478184,0.738117192,0.916676652,0.8771754359,-0.3200728993,0.2219250498,0.5805134101,-0.1567698614,0.2291068281,0.6084397991,0.9345004446,-0.7742698092,-0.346990891,0.1707685873,0.1348574773,-0.5656969685,-0.7356013676,-0.8126246535,1.0553099903,0.2960813753,0.4914768794,0.8418005943,-0.5421089573,0.2526493025,-0.9850566405,0.758457975,-0.1317350876,-0.9500841782,-0.8745778328,-0.9816511677,0.5346940741,0.3752191018,0.0160624582,0.7321077369,0.6965644327,0.4045154055,-0.7367110445,0.828031555,0.3833952821,0.5310168921,-0.6435442013,0.3045754769,-0.1988163239,0.5997943888,0.3425784329,0.9614298624,0.4604902797,0.707917408,0.4036102767,0.0952537551,-0.7736437278,0.8556326543,-0.3113602548,-0.0608549815,0.749524812,-4.2308306738,1.5076330871,-0.9307471493,0.17269172,0.2392958412,0.6665344595,-0.13068331,0.2654696657,-0.4491622041,0.6479196146,0.3432074037,1432.5454142406,0.1770216015,0.7375761825,0.8240660781,-0.3785552728,0.2583058654,0.108668581,0.89313448,0.5114756138,1.9036613197,-0.5725545769,-0.5316457912,-0.6578512527,0.7949309847,-0.9448732873,0.5027130953,0.4486593884,-1.3889742276,7.9453763594,0.6193371232,0.8305019182,-0.17286823,-0.6778453932,0.7200631135,-0.9798203859,-0.4178622062,-0.284108098,-0.6449320708,0.5906431696,0.7086962126,-0.6896104491,0.6705247383,2.9978035089,0.7914215686,0.1604256635,0.2159758704,0.5476178218,0.6127874851,0.2559109227,0.7242994033,-0.5922310303,-0.4741425851,-0.1825984755,0.7940181299,-0.4999288922,0.7995540107,1.0055722255,-0.3066444523,0.6131178286,0.1716242581,-0.2671844567,-0.8949993664,0.3943764471,-0.3188219887,-0.0771648214,-0.3441166254,-1.2698674746,0.2156013956,0.5508051814,-0.8671373839,-0.1980154782,-0.0626555501,-0.8296336959,-0.1095822566,-0.6803290504,-0.4846527218,0.3965594424,0.4242443892,-0.4635537665,-0.3303022704,21.2943753563,-0.5042380427,0.7621031644,-0.2343571527,-0.472824113,1.2198578361,0.164722551,0.3154268201,-0.2467324035,-0.1270173344,0.8244001971,-0.7890418203,0.1139798822,-1.4392465037,0.0212476665,0.839654378,0.7981190798,0.5328651009,0.2978524791,-0.542643208,-0.3347677282,-0.0757788848,0.0223656881,19.824939754,0.6637881398,0.4568676433,0.2983438292,-0.3406927596,-0.9575572529,0.7791021997,-0.6481091652,-0.9583336182,0.8227873183,-0.3226743687,-0.5320757753,0.5842500982,0.865704482,-0.4958595873,-0.6918476443,0.9780013469,-0.757667233,0.0317236879,-1.137419109,0.4659954157,0.8443146111,0.4507409754,0.8397102898,-0.3438228375,0.7457365956,0.9651188616,4.9631799143,0.1884327623,0.3901961616,0.9714948485,0.3734534753,0.0492427333,0.4655124126,-0.861170753,-0.6802310929,0.9319218523,-0.4891319412,431.5657520595,0.8789012781,-0.5648038967,-0.4520853975,-0.1958045225,-0.0259825823,0.0803882193,-0.0765610605,0.4283871224,0.5168666082,-0.5324595012,0.9811590317,-0.0110622212,-0.3487311442,-0.0773197556,0.8637572063,0.747288217,0.0736905707,1.2329497277,-0.8159301641,0.7926453734,0.4411199427,0.9926225414,0.8894481021,0.0543314636,0.8285636891,0.9716644598,-0.1924623441,-0.0754119232,0.3237096838,-0.9480947665,1.1721705734,-3.3294577154,0.118124056,-0.5505399904,1.0269319073,-0.8231261572,-1.0720555617,0.3178264747,0.0931747091,162.8352534809,-0.3373449898,0.385579209,0.9856949836,0.7346913921,0.8046819862,0.2149883152,1.1434863048,-0.6563099354,0.7482108119,0.8914342448,-0.6391663842,0.3308304022,-0.3488755012,-0.4622888979,-0.1596836069,0.800893439,0.4679076377,-0.1285959619,-0.0587469786,-0.1193006673,1.0250021812,-0.717698972,0.7523905655,0.3611759624,0.8890522078,-0.3464038263,0.2037871519,0.3109074117,-0.6584240096,0.0985963912,-0.093370651,-0.9594231658,0.092042169,0.5325995299,0.2029797707,0.4040867047,0.0618987434,0.8337701413,-0.7705649633,0.2648488191,1.3503217194,0.4185057692,0.9006673234,1.0006653993,0.6403431662,0.2691041215,-0.616613446,-0.9896742393,0.4366307697,0.0264973439,0.4843774524,-0.6544363585,0.249679061,-0.3075317581,0.3871781563,-0.0521346596,0.6921086674,0.2321458597,-0.1902370003,-0.8471989573,0.598365827,-0.513021732,0.0297559437,0.087035206,0.7109687469,-0.082760224,-0.742159656,0.2320070327,-0.7189635386,0.596707613,0.517083095,0.4322799874,0.8038500125,0.8864643052,0.6533539018,0.0042769887,0.0839931966,0.8140171814,0.9535026909,-10.7470030566,-0.4508940325,-0.7128916578,-0.3407400036,-0.6586645924,0.7565320966,-0.5532544114,-0.6251351372,-0.3953734169,0.7177922099,-0.9570249668,573.5393691196,0.3602230564,-0.0826961531,-0.6056126764,0.7935704133,0.0559383528,-0.3816551318,0.5857379428,0.9488584205,-0.7615831902,0.5678414314,0.0423091,-0.915160618,-0.9029450883,0.7480627436,0.2254115573,-0.6386186123,0.5852828411,-0.5645779082,-0.0178614445,-0.7993487354,0.8175296777,-0.656652502,0.0717580822,-0.2136909517,-0.0118000304,0.0610172289,-0.8694324741,-0.8563881586,-0.2229765047,0.121731186,-0.603209088,-0.3578036076,0.4461310326,-0.7030104662,0.3554918213,-0.4682642537,1.0361023365,-0.1529494859,-0.5788344959,-2.5445687505,0.1880882302,-0.6079016281,-0.8193497985,0.5779997605,-0.0630984057,0.6711481249,0.5229654741,-0.5425958874,0.2471784764,-0.3641874227,0.0418366731,0.0608018666,-0.8097360245,-0.6688619696,-0.0732575627,-0.0641873784,0.4461018535,-0.228708392,0.8002548282,0.1806534121,-0.6062346478,0.9365987158,-0.5467831,0.4339617377,0.777311342,0.7442171826,0.253712039,-0.9841637234,-0.8578026629,-0.665681313,-0.9080230791,-0.0947486195,-0.6543968244,0.3290340174,0.3767422546,-0.783810873,-0.7173528647,-0.0076518907,0.129179252,-0.313640518,-0.636375925,0.1652855614,-0.4012858344,1.9824551049,-0.0760560896,-0.1236986793,0.1188942424,-0.9687364763,0.3876850622,-0.8226700214,0.0576167974,0.106663533,0.6487716036,-0.7572618972,-0.494683393,0.8062483618,-0.8564941151,-0.74608578,-0.1169726035,0.0256991015,-0.8500692641,0.8299296998,0.9280192177,0.2882462239,0.9524878095,-0.6419454788,0.7440044053,0.8404175334,0.8604518812,-0.8261870913,-0.2631883812,0.5769258005,-0.7352363195,-0.7291364952,-0.9316989277,-0.0137864159,-0.6296044882,-0.7305573661,-0.6116683005,7.1440057825,-0.556544444,-0.6585845004,-0.7443790297,-0.8477484421,0.7978709889,0.7288014345,-0.2994593341,0.8788831554,0.5492319827,-0.7654924004,-636.183579631,0.2395300709,-0.525716335,-0.5643224247,-0.7835806072,0.8498913752,-0.0599352774,-0.9578285193,-0.3262683105,0.5554285994,-0.6577137126,-0.9888714726,-0.8525682298,0.0696168756,0.080719933,-0.8370346823,-0.737027645,-0.8392468384,0.6471317449,-0.439823428,0.4373531378,0.5289003356,0.7864160892,-0.1455148041,0.2624664242,-0.2737381347,-0.2082467932,0.6092667588,-0.94935204,0.0832815371,-0.1567533676,-0.3878568273,0.7966982401,-0.8855240464,-0.5162476007,-0.1879172648,0.285685241,0.0576959274,0.1793148069,-0.8697567806,5.9013736349,0.0702344802,0.3948098084,0.7329804047,-0.4685852203,0.4781807981,-0.5895444266,0.839815425,0.5161708929,-0.9605809876,0.1904541573,-0.4219289385,0.2527728333,-0.5420930713,-0.9215049654,-0.3128520845,-0.1733493205,0.6384462901,0.6549486226,-0.4702702841,0.2173171329,0.9545952461,-0.760849778,0.5614592874,0.3811657163,0.398219795,0.1412057762,-0.3508522432,-0.3471787326,0.9230262525,-0.4393828529,0.7114629591,0.341500277,-0.4376420854,-0.8737706489,0.5899642112,-0.8631289059,0.0949288507,0.8421920584,0.2394335824,-0.4444512353,0.5595516659,-0.4121153425,0.1480776983,0.5016902506,-0.5685208265,-0.1020188781,-0.5628820175,0.4122577188,-0.5437014043,0.7533521391,0.2051469107,-0.7420127962,0.8156807004,-0.0931874996,-0.4910809381,0.4341480883,-0.9254156923,0.4606723507,-0.6796639199,0.1847121729,0.5368336214,0.5188241231,-0.0042631459,0.1085008108,-0.3913931423,-0.5170428294,0.4914835219,-0.4887979803,-0.9069308016,-0.8373624105,0.4880155819,-0.5407534982,-0.7846160065,0.4447594731,-0.3945158162,-0.2163038346,-0.6007662617,0.5328578619,0.42449425,-8.5711306404,-0.6996847602,-0.6949212045,0.5890796524,0.8659457674,0.2784730978,0.7187305173,-0.6665410114,0.8624749149,-0.313859016,-0.4082873049,1039.4181191033,-0.3913092722,0.4719115723,0.2124680131,-0.0098626146,0.4596431483,0.0525637064,0.5842214182,0.8121833586,0.2288195792,-0.2318632554,0.8930652309,0.817941787,0.6615515778,0.9383593703,-0.079500585,0.9333038198,-0.0475475494,0.5356890085,-1.4246524399,0.7084341523,-0.1193213639,0.241599455,0.8601819036,-0.8831895049,0.115757091,-0.0106644097,0.6993457316,-0.1607743943,0.4397760218,-0.8189952683,0.2389759745,0.5074358548,0.6926393479,-0.0602909531,-0.2993914436,0.4845567168,0.6923757379,-0.5574197247,-0.0072480741,-4.8198301557,-0.7410485411,0.8216166048,-0.9539318853,0.4818150047,0.0211686216,0.1253644185,0.8331607365,-0.1623739779,0.6590584451,0.0615945393,0.9536023889,0.8761035337,0.4055170992,-0.2272916783,0.3844968507,0.2100379398,0.342659605,-0.6615827889,0.971446703,0.6215493576,0.4092721823,0.8105637357,-0.6848716048,0.5752571477,-0.3382668126,0.8082192538,0.9260467054,0.2839419298,-0.9008302624,-2.3194703651,0.9068432763,-0.0036628379,-0.7544541445,-0.1208334,0.133985622,-0.7188500049,0.5453556113,-0.1613832117,-0.5745483637,-0.4362300772,0.4328466501,0.8929389693,-1.5267058729,0.3638823856,0.8373306989,0.5575650046,0.4373224996,-0.2707800691,0.2720363425,0.8313597275,-0.3600729169,0.4375177558,0.0794401105,0.4176832936,-0.9114180031,-0.0446575974,-0.1067415882,-0.9882649934,-0.030841475,0.0447599239,-0.9698028857,-0.4390152571,-0.103492608,-0.9329142785,-0.5086513822,-0.9562859628,-0.8054677802,-0.8730643513,0.5164196684,-0.6130000118,-0.3887667677,-0.9353642185,0.3816149799,-0.9175043057,0.7388011643,0.8454007801,-0.8628979099,0.2946032345,0.2220221031,2.6963220786,-0.9510029504,0.1944114106,0.2344183102,0.7139359951,0.8177147873,0.9135637263,-0.6966816955,0.5365219668,1.0037851506,-0.1694076698,-642.2839602032,-0.1481439848,0.7316721439,-0.5941738819,0.7336699451,0.9766617258,0.309589485,-0.3081405654,0.941719254,0.1177073158,-0.7533122025,-0.1024882609,0.9778790376,-0.0148234922,-0.155590473,-0.0940901079,-0.8038632547,0.0936786092,0.1092159089,-0.2809774189,0.4241279538,-0.2605297314,0.3499672622,-0.9921655779,-0.2283482025,-0.9388644948,0.3026828566,2.3162700028,0.0033295982,0.9418077849,0.909250466,-0.7145742298,-0.7781448358,0.8602784033,-0.2376560618,-0.8636004165,0.3711678606,-0.0377036046,0.3928855919,0.4676441866,0.7939704062,0.7650349276,-0.6779831089,-0.6343390452,0.2876789507,0.7191659825,0.0608877013,-1.994439074,-0.2596945604,-0.9412619398,0.3903491463,0.0951212774,-0.1549302225,0.9255919934,-0.402190949,-0.8351912893,-0.7105037954,0.4905182584,-0.7054558218,0.3828782197,0.9643336221,-0.1877309838,0.5493625821,0.9435765885,-0.1210751271,0.7978810207,0.6085373621,0.526683171,0.8469930092,-0.2166747661,0.3543721451,0.2849198569,-0.392527097,0.9152370197,0.5664561107,-0.9658705183,0.1130320361,0.1114701835,-0.2792530339,-0.1724190364,-0.7477044239,-0.7110340027,0.3925892008,1.2851272995,0.8001027335,0.2552083471,-0.8357194983,-0.9226139579,0.9576275851,-0.9087445808,0.6446747698,0.6788592111,-0.7091190388,-1.0539797978,0.6482501447,-0.3506391241,-0.1746521131,0.4462740183,-0.70344674,0.9106169149,-0.4936875337,2.1185913498,-0.1390015431,0.0618315439,-0.4642568699,0.979996098,0.1182443795,0.0614507633,0.9235533047,0.7446251613,-0.4294087524,0.9431088897,0.2812557928,-0.3794612551,0.2482884209,-0.2847612334,-0.7650938952,0.7545731049,0.8848261909,-0.7185011893,-3.7994427665,0.1993706805,-0.05216477,0.3272203836,-0.4335870298,0.6557763502,-0.9388973147,0.5373192895,0.4162910723,-1.0291294974,0.880511112,633.1093928824,0.6196551827,-0.2287588215,-0.150759504,0.335114747,-0.8324365709,0.4948572337,0.5353684054,0.4213729259,0.3988954826,0.1095532227,-0.5613401476,-0.2594012943,-0.9489669818,-0.6483595569,-0.5566764771,-0.9173458759,0.7124260315,0.7443414222,0.5636838189,-0.6894818325,0.5086358644,-0.8905111361,0.3659308844,-0.475845771,-1.0415453942,-0.4455189443,0.2585310043,0.3432957906,0.0563283078,0.2380208455,0.4143708414,-0.0120117884,-0.2348633917,0.09877933,-0.9679051042,0.4141994394,-1.3248813956,-0.0400459754,-0.3991300144,-24.4672620291,0.0972329665,-0.2932635592,0.4009004936,0.4696345804,0.1572685015,5.1475591746,-0.1529144636,-0.9403428768,-0.0079064138,-0.0675268373,-0.0314704849,0.2477438074,0.2173633844,0.5414620442,-0.2362237059,0.600809127,0.2167353925,0.5534572045,-0.04664663,-0.4696578349,-0.4135885099,0.6975197813,0.685754566,0.5826492483,-1.4409458391,0.3883458276,0.5408099745,0.1217296911,0.6767559078,0.323749657,-0.8161818295,0.4336716979,0.5479684785,-0.7361452788,-0.3000094391,-0.2104980696,0.3964713731,-0.1487184604,-1.0085052581,-0.9992038768,-0.5083526754,0.0195364191,-1.5176139851,-0.4152521321,0.1369809315,-0.0550880306,0.7405924218,-0.0718681001,0.3438862818,-0.3123199462,0.0460122703,-0.1737362154,0.939483213,0.3419716102,-0.0120795775,-0.7938479088,0.4695081105,0.0992878435,-0.7273472794,-0.1602019128,0.2870751144,-0.978196063,-0.9777045977,0.692759417,0.1481633992,-0.2974464813,-1.0000977852,-0.2307570405,-0.3785432317,0.3891647059,0.4174670557,0.7158037516,-1.0200394329,-0.40540403,-0.88536599,0.5170400472,-0.9221637049,0.7061793564,-0.458809304,5.4559196306,0.9900607272,-0.3018930047,0.2265169976,-0.5938049353,0.6426289144,0.4940343199,-0.8746277853,-0.8127997501,0.4286212466,-0.615356313,-1143.9820734843,-0.7639964791,-0.6385620061,-0.1614042607,0.5166095192,0.7485845278,-0.3371022853,-0.7847358603,-0.951654514,0.5479078075,-0.6401973089,-0.7879884071,0.3392727907,0.460843093,0.0320280362,0.3969434218,-0.0608886589,0.7902584801,-3.3434640855,-0.5974820443,0.2926091635,0.7734412142,0.7400584561,-0.210864368,-0.4195566387,0.2972552946,0.7090788741,-0.7121089369,0.2303901019,0.2248805501,0.6413785032,0.0874617241,-3.2122213729,0.0352438889,0.0716126924,-0.7424639669,0.2973654728,0.1988367555,-0.6917990451,-0.7609888794,-28.9914173684,0.8158221726,0.5295557667,-0.2344569884,1.5070665384,-0.4458880472,0.6690587983,-0.0916611243,-0.2501373368,-0.4887074539,-0.2218149965,-0.5705545493,0.7340429685,-0.6972316652,0.8734256031,-0.1357546137,0.1157166276,-0.1058711292,0.356969066,1.3707370917,0.0694478143,-1.0439033862,0.1281191452,-0.0252871241,0.1630739586,-0.4688289756,0.7247614626,-0.3375962024,0.0001217294,-0.8407770831,0.7444754612,-0.6740220438,-0.1161895932,0.721020839,-0.2003817292,0.3806811797,0.4044798237,0.9027423394,0.8783084906,-0.8142660297,-0.2187904231,-0.3454030583,0.510743153,1.1618086142,-0.950321756,-0.4151183762,-0.1495439301,0.1228006115,0.6593817591,-0.8437311545,-0.8732289104,1.0262861129,0.2923210659,-136.6529960839,-0.3448793855,0.8792827691,-0.7935649941,-0.6807428641,0.671715891,-0.5873409951,-0.5292297424,-0.9038212383,-0.63172296,0.8990247464,0.2468584273,-0.4104309142,-0.8193403341,0.4233624896,-0.2962798481,0.2321232422,0.7561871753,-0.3937741927,-0.1534312011,-0.7441160663,-0.8693088639,0.5532627477,-0.1179976049,-0.7130035457,0.9331353816,-0.9855141346,-4.0188096437,-0.8774238377,0.1291174652,0.6027394637,0.3098078905,0.8498568825,0.5801899576,-0.3940410457,0.7166658522,-0.2161620855,-0.6190013178,635.5035273559,0.3465392155,-0.8717443676,0.3607264913,-0.9644964126,-0.7237746426,-0.5713852801,0.614643286,-0.6876880714,0.6959176679,0.6071995626,0.9291366669,-0.1283274193,-0.4042418449,-0.9323165438,-0.4457871532,0.85584894,0.8116851666,0.2152395441,0.6334228975
   0.6136376755,0.0091839081,-0.0083050561,0.3146959025,0.6959143912,-0.2625374589,-0.3318918889,0.4085493392,-0.1093456737,0.0757470832,-0.6450548454,-0.7059054356,0.038220064,0.954732603,-0.0094088196,-0.643702642,-0.1743031079,-0.6056976956,0.4885747568,-0.9019351663,-2.983110761,-0.0181147901,0.7995735654,-0.7735133713,0.5431798514,-0.1046814557,0.0311847421,-0.7216558642,-0.7083251599,-0.2522008907,0.6380490382,-0.7188595691,0.7037601947,0.0668467974,-0.8605970787,-0.278700111,-0.2788723435,0.114876657,-0.6225082582,0.0246494196,0.2999212464,0.4284632248,0.25243304,-0.5140030671,-0.4774066934,0.3590888376,0.09069022,-0.7777937205,0.0534331358,0.6767635281,0.4451790432,0.9259995732,-0.5774990149,-0.5104941666,0.9286651452,0.1731834318,0.713603799,-0.7317858581,0.315099575,-0.5987916541,-0.1426845598,0.1461205674,-0.3025163623,-0.0364102594,-0.1314124676,-0.2504883662,-0.5488817469,-0.5094140452,-0.5482607594,0.3205792432,0.388694005,-0.9354768741,0.6910882859,7.8819244634,0.5694949083,-0.323440783,0.2635920636,0.3726821943,0.1634237691,-0.9746646941,-0.0031291365,-0.3288945631,-0.1364206301,-0.3894981815,-0.1567270159,-0.6583132333,-0.5283391414,-0.7464189004,-0.8856577067,0.9164558185,-0.7162269498,0.4171809137,-1.0135841009,-0.0825727421,-0.0106922617,0.16694284,0.0639365782,-0.2995758177,0.4540156533,-0.8378581902,-8.1328372491,-0.0349044773,-0.1489205667,-0.1243361632,-0.5817607864,1.4723017839,0.0963073791,-0.3431225667,0.0402765845,-0.39904392,-0.7117276526,103.361844872,0.2989739186,0.415002261,-0.8335357903,-0.8984185636,0.8665093327,-0.6192711403,-0.7686968223,0.6432929332,0.524881022,-0.510058136,0.3878453877,0.9595071299,-0.0028349971,-0.0390148027,-0.0307836756,0.8893440767,0.8029677681,-0.8667670865,-2.2561338302,-0.1722008291,0.2067945266,0.2914679565,-0.5167411267,-0.8096295963,-0.794827217,0.8684837537,-0.1864860408,-0.4642996027,-0.4155126935,-0.3161167585,-0.5752868749,-0.2118152706,0.3254142245,0.4912728631,0.3841752216,0.8743373813,-0.2979152531,0.0303557068,0.1723309453,-2.723070945,-0.7820549274,0.0006020427,-0.6922465409,-0.2299112067,0.1571664296,0.7548460931,-1.0900603373,-0.6397683481,0.2189496793,-0.6881101046,0.3286096286,0.2001598505,-0.7101883895,-0.7293111696,0.6673407942,-0.6604558618,0.1850369547,0.8128964706,0.7402994204,0.0802594774,0.6741018374,0.7044356373,0.4187451015,0.7368778419,1.0480927138,-0.5714596048,0.0567305472,-0.044109834,0.5275950988,-4.5857733539,0.9189011021,0.7616856958,0.9209171898,0.9090168863,-0.1455053943,0.4971972475,0.1661547988,-0.6619749667,0.2938057359,-0.3732139847,0.90357106,0.7887109868,-0.640240971,0.6984046074,-0.9618487043,0.0120720349,-0.1735020077,-0.5598986458,-0.8787020778,0.3876333026,-1.2337845184,-0.8710531298,-0.7124939762,-0.1025905343,0.9164142503,0.2039260752,0.3167763861,0.7846826254,-0.8585077899,0.3473541267,0.9372762246,-0.6767176769,1.1409115378,0.5352796384,0.2165738323,0.582772246,-0.8537215538,0.7672937572,0.6534827182,-0.6049040869,0.7256748381,0.5457051187,0.0446587052,-0.2368006852,0.7298321359,-0.9443355465,-0.1225476668,0.4584130964,-0.7034247044,1.9913497769,0.3375913766,-0.1985450298,-0.5072690156,-0.1066166858,-0.6762793613,-0.1207662786,-0.0169038729,-0.2893083453,-0.5488194633,-0.3265469468,-562.4559146088,-0.8797498358,-0.7504738506,-0.8494750896,0.7896721046,-0.1746933721,-0.4809144527,-0.1659792177,-0.1671124997,-0.4203518206,0.4998287566,-0.722680697,0.0559824761,-0.9028346611,0.2470722532,0.156978685,-0.0477697661,-0.1368751617,-0.0900817481,0.8822574377,-0.1468721936,-0.4622695925,-0.6574140614,0.4972436857,-0.045346603,0.8403116941,0.5575074036,-0.2314260547,-0.843233565,0.8360680724,-0.5773135322,1.4064268932,0.4080757609,0.0339714243,-0.4412508647,0.2625544853,0.6929220708,-0.7165445001,0.758382815,0.1848785151,-0.2801778489,-0.9512560582,-0.0942873206,0.3915862639,0.1340856682,0.5972422569,-0.1463994024,-0.4077673505,-0.6352416714,0.4954863144,-0.7678941,0.7878079527,-0.1193210828,-0.5569648369,0.8445936127,-0.7620886829,-0.3319342037,0.2526462487,-0.4936740037,0.1369361287,0.9890689107,0.1436898196,-0.5627938205,-0.1784109332,-0.1540157667,-0.0910001596,0.163945274,0.711042063,0.3880759686,0.3127238276,-3.3714300865,0.0022185338,-0.9523487867,0.1246703392,-0.7793200929,0.7613495437,0.4407415609,-0.3982063241,-0.8164441102,-0.2862175728,0.2709293189,-0.073355019,-0.4179042601,-0.0593596822,-0.5039783497,0.0517356458,-0.8362244371,-0.8007007373,-0.8446573552,-0.3914712696,0.8205574,0.8343001042,-0.879570724,-21.5821150453,-0.753532311,0.5391818676,0.5539149311,-0.7111809963,0.4856279552,0.1208927135,0.3363270747,0.5037561301,-0.2916452052,-0.4137681183,-0.0817878498,-0.1994830253,0.6929910499,0.7027785491,0.2054506195,0.944520747,0.0487927554,0.6569594562,-0.4473995016,0.6017096457,0.0709234339,0.6860070644,0.0005775997,0.718088302,-0.9848726434,0.8926388303,5.3364754038,-0.0512355282,-0.6575057832,-0.5502231849,0.4899013925,-0.7926327529,-0.8327918264,0.21081777,-0.3303453706,-0.135451932,-0.4473417305,-16.9430301434,-0.5368553136,-0.5016142409,-0.4540033163,-0.5278055662,0.4118761193,-0.5417058898,-0.101393692,0.4886165698,-1.5993543486,-0.1934011438,-0.2028238573,-0.4206551989,-0.6098834817,-0.7657077653,-0.8256915194,-0.0801123521,-0.7472891678,-0.8754380827,-0.9161285037,0.7649158796,0.0556916329,-0.4763279642,0.7113991057,-0.8471086607,0.025441932,-0.5182502329,0.2920231186,-0.9730840925,-0.4521707156,0.404290265,-0.1321855791,0.3313076907,-0.6431492886,-0.536179701,0.8791912077,0.2246324393,0.5544578274,0.9319239955,-0.4018353261,2.7561311077,-0.3710588739,-0.8127656087,0.6591824737,0.2600466566,0.0715908597,-0.4462467328,0.2578322707,0.8061002609,0.8957412156,0.0483335114,-0.1748632217,-0.0340841664,-0.1440171744,-0.4857798369,0.0884789917,0.1717602285,-0.1109464633,0.1343891473,-0.6801639837,0.4000949652,-0.3648970606,0.0790896962,0.1028280394,0.9715750719,0.5704745894,-0.3571073413,-0.7185123935,0.252871971,-0.6618298972,-9.0401814549,-0.2660184767,-0.5303098593,0.6516271067,0.4247220522,0.6121031557,0.3000605385,0.9041203336,-0.0408723639,0.8428952672,0.6374940732,0.0760862895,-0.265030796,1.0625762222,-0.7981974058,0.321292699,-0.0468590382,-0.0955553558,-0.1765194187,0.2821242031,-0.6483307296,0.3328427366,-0.4865179822,-1.0950076675,-0.939079936,0.1214189645,0.4872155275,0.4476334242,0.3253051941,0.4789581226,0.5714182211,1.030734416,0.5638996091,-0.784550732,-0.4992923202,0.4175592624,-0.2296189872,0.144251842,0.7427195655,-0.1303246642,-0.0929037257,-0.3367640984,0.0052441057,-0.3402627106,0.961070787,0.9245455325,-0.571286568,0.6896019642,-0.7654647259,-0.6987987248,5.9378404932,1.4191922694,0.8089736366,-0.1480225946,0.0235629068,-0.0428091426,0.7126870117,-0.6753779703,0.8305942717,-0.4080546038,-0.137224302,-486.6581593661,0.2504066086,-0.8288393484,-0.3675816405,-0.0710013782,0.4554533448,0.9794935596,-0.1951350999,-0.596108247,0.2108151196,0.9109457712,-0.9002034677,-0.8186696122,0.332206037,0.6621410768,-0.6482731739,-0.3969190371,-0.1811742285,-0.5573367916,0.277205286,-0.0995610153,-0.5561318004,0.3285968526,-0.8045357582,0.7458600634,0.0881573202,0.5628609981,-0.4010054897,-0.0065567164,-0.7092189602,0.5813277839,0.981829096,1.0273529036,0.2402157082,-0.6574988568,-0.1667361487,0.2208241852,0.1146239519,0.4341347634,1.1226799598,-0.8403613082,0.794532302,-0.2358896684,0.2631873102,-0.9302107865,-0.2299154928,-0.7864279094,-0.0855103204,-0.2340637786,0.5448054428,-0.3621465968,-0.5026905782,-0.2994456347,-0.6577603448,-0.8901571962,0.7045945518,0.3340797608,0.1571617089,0.1361236653,0.9285957095,0.5807776117,-2.2560626722,-0.5886215326,-0.2906951948,-0.1718353311,-0.5546648576,-0.9364160712,0.8738299215,0.7493384086,-0.4186931191,0.8262942676,-0.0969599913,0.4141004316,0.67146735,0.2906152678,-0.562315638,-0.4446659635,0.6567638882,0.9021443522,0.0462601318,-0.2839036962,0.1851953056,-0.0493891597,-0.0803818777,-0.7266678591,0.3259994944,-0.2272539257,-0.7629494165,-0.0025790359,0.6585172021,0.2558628108,0.3420623118,0.9294435725,-0.8799978115,0.694937233,0.6660779826,-0.863849372,0.4059393179,0.028799277,0.0138771579,0.7731338878,-0.2605030708,0.7998487006,-1.0006659089,0.3216145219,0.8262861041,-0.056829185,0.6643407883,-0.4838024617,-0.4990179777,1.0619655488,-0.9642754575,-0.3310004945,-0.7801871248,-0.8302940511,0.5680726071,-0.0413906375,0.9254818272,-0.1602486746,0.0025022961,-6.0876444908,0.0703237767,0.5317170489,-0.0784790852,-0.6792286846,0.6232810108,-0.3055363902,0.0766850011,-0.8418687065,0.0241300665,0.8167601235,916.3553425749,0.1617626316,-0.6810410468,-1.085539374,-0.7303579553,0.0490694182,0.9268103619,-0.3436916897,0.2799050342,-0.1519955209,-0.424566533,0.7020606821,0.5643190794,0.7350260295,0.0520965584,0.7973312917,-0.1205397179,-0.1247614098,-0.3253806518,-1.1402784502,-0.7755486338,0.2784411774,-0.9600196742,-0.5079934137,0.2696565458,-0.5698703161,-1.0046006345,-0.2547031186,0.4401563278,-0.8697073958,0.4909449246,-0.001448311,-0.217144691,-0.3338592763,-0.3157195208,-0.1704790011,0.283273035,0.6002592812,0.8064824422,0.5859186065,-5.9786094531,-0.9137587885,0.3620687113,-0.0413249062,-0.374644397,0.8481139633,0.4436125278,-0.7046888294,-0.1281095735,-0.3655578082,0.4557607155,-0.6731316927,-0.5243050674,-0.6542187839,0.1833725673,-0.5562551201,-0.9701347912,0.7382025317,-0.6942809111,0.5906580459,0.4633907265,-0.2161361972,-0.1137858964,-0.9208696421,-0.8864842301,-0.5370875936,-0.7808014971,-0.7120573175,-0.9109448067,-0.2527439783,0.8899964529,0.1465115956,0.6085584071,0.2181224438,-0.4570309624,0.4205786368,-0.0486058391,-0.5283862501,0.9211371943,0.4041786018,-0.9858805792,-0.2486593109,0.8539454841,-0.5195826519,-0.516786119,-0.1939572345,-1.0873725284,0.0998813608,-0.0387324134,-0.4862738986,-1.0233310489,-1.2181815389,0.5636857175,-0.1822012568,-0.4048283049,-0.6586133689,-0.7746111425,-0.4705693641,-1.0021470573,2.751684,0.2748597156,-0.6681040923,-0.5479073611,0.605631533,0.819935673,-0.8569602294,0.3240739577,-0.8117060431,-0.9331744626,0.4702835313,-0.5309389192,-0.0821267117,0.0990245955,0.1061460926,-0.7945251185,-0.4554554949,-0.7105523297,0.6895832079,0.8571972766,-0.6248568225,3.6739487915,-0.1845332575,0.3439681594,-0.2058319677,0.7884278361,0.816303816,-0.1521701927,0.4993733291,0.5724483543,-0.5327573718,0.3445930888,-872.0159362052,0.318807966,0.8013921724,-0.3387254547,0.4209865275,0.4259937999,0.8948074407,0.9743770244,-0.114463471,-1.9913729591,-0.2739558944,-0.7108030861,-0.3851253195,-0.7679040391,0.8425423302,0.7702200807,0.5179553076,-0.2971987303,0.7528946058,-0.1019048457,-0.9740207031,0.3392488912,-0.2007331914,1.0371402701,0.2095822211,-0.4647356806,-0.8929861313,-5.5594377968,-0.4985999094,-0.1389679869,-0.2276547868,-0.5724419821,0.7769685879,0.7658927312,-0.986706771,0.3008307985,-0.7946689975,0.1548014587,0.5736705995,-0.03713347,13.429458476,0.1418774821,0.8731749847,0.5788186781,0.0773372457,0.0658683542,-0.9920774945,0.8092357594,-0.6010520107,0.8503103094,-0.7727068414,0.5588713993,-0.3051327979,0.1718470591,-0.2946168197,0.1977217586,-0.6160745979,0.1653324263,-0.2522360845,0.320275002,-0.6105817632,-0.876297012,-0.471392065,-0.2139688102,0.7138646456,0.1919919365,0.8784792331,-0.2798546718,0.1159595253,-0.0098063801,-1.1351484924,-0.7860358282,0.7515813779,0.742152574,-0.7810254805,-0.8551342439,-0.8235181907,-0.5000256312,-0.6306617692,-0.9570681772,0.1667646267,-1.0386666559,0.3929150361,-0.023985996,-0.528232766,-0.6799853592,-0.5621454535,-0.8072788807,0.3014087368,0.5269172854,-0.3655024125,0.7696585185,0.2135580813,0.5771258247,0.5094679192,0.1578275453,-0.177586252,0.3334428529,-0.6128346838,0.2976176219,0.1944553757,0.3012241592,0.1892200774,-0.8460356322,-0.2753139222,-0.3726439539,0.9780370221,0.3548991643,0.3182636577,0.1519992973,-0.0249324784,0.0586386429,0.2038572335,0.275571342,0.1389966878,0.2481202131,-0.1087010629,0.4198046494,0.2973323106,0.1000910374,9.5202366418,-0.184016997,0.9227872848,0.4584051656,0.4344180369,1.202489679,-0.512822325,0.0951971261,0.5538605254,0.6815886932,-0.8175068738,-424.4463546584,0.7024626914,-0.0424878466,1.0139386604,0.5038106004,-0.4503411232,-0.1854413133,0.637346589,0.2569093553,0.2808489146,0.4785100654,0.1728201433,-0.8856258835,-0.141686135,0.1943285158,-0.5374743382,-0.0527917391,-0.8639472915,0.8249644799,0.265609808,-0.9339236516,-0.3203974514,0.6724243006,-0.5307651935,-0.5518656148,-0.2124244625,1.0372617923,0.798191921,0.3659714967,-0.6051161639,-0.3371849837,-0.1832095818,0.6610706591,0.9761383354,0.0608164661,0.7328609826,0.0884376954,-0.7087702275,-0.1277506019,0.2763200664,2.4961080929,-0.9070377533,0.8406177393,0.387533483,-0.0476341151,0.3550633859,-1.1072345529,0.8131344919,-0.2062193261,-0.4631186841,0.6010414079,-0.7626656444,0.7761626548,-0.0714398189,1.2040782975,-0.329742643,0.6830917516,-0.330281662,0.7266731262,0.3188514959,-0.1922794126,0.4435081772,-0.3049872103,-0.5907943194,0.5687165845,-0.0039778176,0.08450621,-0.3339418492,-0.6479497288,-0.446788922,0.9714626567,-0.6000795798,-0.8756134897,0.459805639,0.7373310242,-0.5746118013,0.8097119088,0.0020632962,-0.5686434364,-0.4448964121,0.8024455095,0.1515272061,-0.0401855594,2.3709101666,0.9596670302,-0.810338413,-0.3021272952,-0.0631529398,0.4256665939,0.3613755941,0.2240528303,-1.9674945474,-0.9271648374,-0.0684994501,-0.4834528835,0.4182406157,0.7034174741,0.2942812707,1.0302186993,-0.7620539792,-0.173052829,0.7033384151,0.1674768653,0.3262195041,-0.5953031017,-0.440632442,1.0184866107,-0.2347308931,0.9398572371,-0.2872459541,0.7110458016,-0.1977865953,0.2255321386,0.1640743163,0.6956406212,-0.1895295393,0.957411135,-0.4499106217,0.1467294796,0.4173512317,-2.0027294948,-1.0015070773,0.5184654451,-0.5915896676,0.9026277158,-0.0339582124,-0.1115074223,-0.787900849,0.6946158132,0.5808165055,0.0340797959,487.6036007479,-0.628899939,-0.8907104105,0.1820579149,0.8153341753,-0.9222286608,-0.8740229052,-0.9025582856,0.4173932073,0.0867330268,0.9521155929,-0.0362048913,0.739544733,-0.5343556251,-0.8344745984,1.3896205442,-0.7503874471,-0.7610634143,-6.830144861,-1.4947268098,0.5991358598,0.7204934634,-0.3439617178,0.4653039908,0.7898131508,-0.3266192738,0.312735907,0.1009486123,0.0557708103,0.6116012751,0.8063131158,-0.2549962557,0.0775522472,0.3387635018,0.7791432446,-0.025824285,-0.0283071266,-0.1359718463,-0.3235532037,-0.5616303738,-26.5141727378,-0.1781151563,0.0540041991,0.3178386497,-0.8205006268,-0.6759846308,0.4951324746,0.3619016139,1.0041671112,0.0265497685,-0.5872942892,-0.8766585149,-0.942206963,-0.058650902,0.7317123451,-0.2230175066,-0.8213898715,-0.7487089227,0.9709053268,0.0125011129,-0.897806554,0.7378213638,0.0249098009,0.8531949739,-0.7580830912,-0.828962647,-0.3662858681,0.0142552186,0.5402128721,0.3109972133,-0.7256990617,-0.7922489231,-0.2181774262,0.8775823649,-0.9066397071,0.8497545982,0.806649835,-0.1695551259,0.5684874942,-0.7422323979,0.7688154806,-0.1793204311,0.6118222479,-0.9690729512,-0.6307258491,0.401803258,0.6661625574,-0.0316025984,-0.0458646357,0.2044822473,0.4228308933,0.4580878735,0.2457541798,4.7804368658,-0.3829127194,0.6808351802,0.8378973747,-0.1528814894,0.7437821458,0.423065487,-0.473603948,0.3737663449,0.3154484711,-0.7384030663,0.9085304097,-0.3304221506,-0.5624224766,0.2941312188,0.9245720861,-0.8285697624,0.4483923075,-0.2245182261,-0.7856565316,0.7019714896,0.4156015971,-0.1752391745,-0.4315920761,-0.2203526982,0.528471868,0.3196590338,4.8357969009,1.0004107405,0.688999125,-0.2808968742,-0.7193580948,-1.4777054443,0.6679779144,-0.8911181713,0.2120932986,-0.2348871438,-0.693613014,-1432.7034223504,0.6338303733,-0.4979395819,-0.7238432574,0.9299933366,-0.1361880681,-0.8987219406,0.0061850183,0.4989238121,0.5114290112,0.2584853577,-0.2952510228,-0.1965472633,-0.2208090597,0.6954190985,-0.119713209,0.8658554726,0.4217354901,-0.5433991268,0.1495973543,0.6450013445,0.588818954,-0.876007578,-0.9337192541,-0.5610990989,-0.6606877649,0.2206052679,-0.3220658764,0.281750655,0.0028420173,-0.3856311898,-0.3084857564,-0.6087841142,1.0226177583,0.2853091791,0.0728975243,0.6126516735,0.3944640647,0.8889122934,1.76086353,0.1644145636,0.939509691,0.3738967189,-0.853104319,-1.009538665,0.7955507796,-0.7355987126,0.2761628924,0.9673900932,-0.5765302913,-0.009785776,0.5907515741,-0.4808969215,0.6755518138,-0.6471277783,-0.6024980628,0.2042813884,-0.9474517961,-0.7854367606,0.6361441924,-0.9130665386,1.134426144,-0.9590643419,-0.0440245454,0.6797156621,-0.3818382175,-0.6726376872,0.8266926791,0.9704395238,0.1997292775,0.1391096544,-0.2911634504,-0.3303114849,-0.848637284,-0.9607422344,-0.2627538794,-0.0720079823,0.7965004902,0.5316855272,0.1049070476,0.09209298,0.6950211881,0.7541428067,1.2019547755,-0.1387872202,0.1729251271,-0.6283698348,0.7486462411,-0.3052150624,0.7266449817,0.2926238806,6.6484458083,0.750690539,-1.5000693224,0.5290024429,0.2871871233,-0.6274584618,0.7800754694,0.2796305513,0.3513959618,-0.2015750261,0.92047186,-0.9839902639,0.6502492161,-0.9601959197,-0.6983713101,-0.270487657,-0.5496238894,-0.8156065553,-0.8639932712,1.4016929418,0.0086441211,0.0518575752,-0.0313571958,0.5108796246,0.8688459638,0.0154292081,-0.3217783939,0.6805004803,0.3131681259,3.558974817,-0.4590323872,0.1784147004,-0.0988908441,0.2987863715,-0.3395898035,-0.3539693236,-0.3552509849,-0.5883430049,-0.7273703332,-0.4140999003,-311.6522226832,0.5732376303,-0.4316334425,0.2748886235,-0.4431285393,0.811243206,-0.2955349585,-0.2430200762,0.736013487,-0.3527376503,0.8019792609,0.6546616745,0.5599413085,0.3164884835,0.6962619623,-0.6126390935,-0.6378703479,0.0795846041,-0.3212346929,1.0001448072,0.9055379429,-0.3194954857,0.9718447814,0.7101258573,0.7307354319,-0.0304225503,0.2738777876,1.0553151658,-0.8735540894,0.2197827133,0.5685492398,0.8731412681,-0.0198763617,-0.8466725785,0.3564440154,-0.9086751293,-0.5999205645,0.0949776207,-0.9686876835,-0.320523072,18.8631063008,-0.4535787362,0.8796543049,-0.12240009,0.7707928881,0.0237371453,-0.4970138096,-0.3544877314,-0.935435855,-0.8660018594,0.2369314513,0.2452970689,-0.5382643127,-0.7452953464,-0.2851207374,0.7869665972,-0.5667271324,0.5568417255,-0.6364217483,-0.0310086161,-0.4671422625,1.0388120582,0.1948261639,0.4853081757,-0.1476255986,0.3385742446,-0.887410229,-0.024863551,0.5798124844,-0.1179782449,0.288937391,0.8615481178,-0.4970905053,0.7086777342,0.360547987,0.9488383108,-0.3274868018,0.1059536302,-0.0999446615,0.0317047783,-0.2963955497,0.6048308834,-0.8553510384,1.4214925446,-0.3097117261,0.0162139092,-0.2289464277,0.0439034155,-0.0540514021,0.7086516462,0.6566759262,0.2415594269,-0.7828179683,-0.4062336066,0.9731775693,-0.6834513257,0.339484774,-0.3243259115,0.5066305903,-0.3594742963,-0.5607075325,0.0962641871,0.4742067552,0.8634422596,-0.2815237023,-0.0113258592,0.3920645572,-0.2639923825,0.192859211,0.0840432712,0.8948572926,-0.5167230229,-0.6789053449,-0.5781295751,-0.3908907752,0.1954626867,0.0005358715,-0.2578578692,-0.71649804,0.038944292,-5.9089715062,0.1025426521,-0.7090687098,0.266994348,-0.1096349164,-0.2133441196,0.1673127711,-0.5521294791,-0.9046868378,-0.4972144015,0.9429899835,933.23981018,-0.3110053749,0.7308615429,0.7293512072,-0.2206385564,-0.2170684476,-0.021471332,0.5494733835,0.948922461,4.7352297042,0.2247952479,-0.6303737274,0.1871341313,-0.8066089318,0.6456585558,-0.4482712449,0.5696517289,0.1027816028,-0.6805183104,-1.1178954904,0.6737072384,0.3264795577,-0.0313531352,-0.8985566799,0.0591370654,0.6505224415,0.2310996814,-0.1190329069,-0.9258264268,0.0993977181,-0.2088458902,-0.9380595908,0.3651396661,0.9801345663,0.1394654392,-0.2100461953,-0.8949278282,-0.1696530598,0.3954348323,0.6918773433,-1.2498885348,-0.7557930721,0.1851255585,-0.1596605074,-0.4826329694,-0.6703554805,0.5553810873,0.6551377691,-0.7564284018,0.7934920668,-0.4466167527,0.3616338275,-0.5961797232,-0.3057884806,-0.5629695425,-0.9426323669,-0.5790698431,0.6470270502,-0.7865509134,-0.5775712769,-0.1275964189,0.6202866392,-0.7568045275,-1.0383338949,-0.2022259579,0.6696620671,0.4035799342,-0.5795962393,0.3045648406,0.057665212,0.7791105414,0.2247264115,-0.5298505682,0.5588721738,-0.0109003944,-0.0875957627,0.6804017417,-0.2552600189,-0.5556461446,0.7592683167,-0.0689886077,0.7718652915,-0.652006249,-0.143003818,-0.3340150278,0.14719284,-0.0886740021,-0.2198868388,-0.4785294266,-0.5480256889,-0.5171666373,0.7435899177,0.7676921571,0.3523910767,0.2102546089,-0.6701348699,-0.6357430887,-0.292692959,-0.7472935248,-0.7375890282,-0.3451384484,0.5231839593,-0.1223033739,-0.4849832976,-0.6962694162,-0.2952784143,0.1074792567,-0.918885627,0.8938719775,-0.7682932762,-0.3133802457,0.0682065456,-0.4680382326,-0.7360004304,-0.7953296303,-0.9885720554,-0.2944276001,-0.1357699003,-0.9183221266,-0.9833437377,-3.9314238311,-0.1832230258,0.573295982,0.1920625185,-0.0403530994,-1.2100969782,0.25038647,0.4804127309,-0.5574404933,0.3322912548,-0.3967874297,632.8076379264,1.0200086762,-0.7175153088,0.8345842421,-0.2880664851,0.4451610462,-0.9458189211,-0.096295746,-0.1333312788,0.1358546257,-0.5610285533,-0.7940308343,0.1365624541,-0.7978614003,-0.3994406491,-0.5032779257,-0.2197613493,0.2392628231,0.6570717588,-0.4953022293,0.257635699,-0.2310135505,0.9906889451,-0.7919448767,0.9364095115,0.8616214497,-0.4570090524,0.8391106533,0.9317659187,-0.9504481741,-0.685427429,-0.30671527,-1.1260797227,-0.3547823943,-0.2678781572,0.7037336354,0.7254129103,0.7009941322,-0.6734172252,0.2971603521,-19.1966518065,0.9643577357,0.8761789201,0.6696008454,-3.7153886658,-0.0559387705,0.1169585052,0.2134685835,0.4166811126,0.5418849044,0.0130742386,0.7014197967,0.4389295355,0.9401431968,-0.9426748238,0.0517526571,-0.7139566806,0.3737518619,0.7961223405,0.4783364061,0.2895888033,0.4372746841,0.1642246331,0.276421413,-0.5793771431,0.5410362382,0.4529172966,-0.043002829,0.0889634053,0.4058498571,-0.5792869921,0.7958755793,-0.4056698012,-0.7626492615,0.2586966904,-0.3677172498,0.2343658847,1.252176209,0.9635106201,1.0473444566,0.7756557358,-0.6958438743,0.1951964296,-0.8831100401,0.5371552827,-0.7181561512,0.0366048384,-0.0624868241,0.5735100595,0.9693057352,0.9353323318,0.0673136392,-0.6639939522,0.7420417812,0.0508884963,-0.9256555505,0.5336638952,-0.180867124,-0.2753059075,0.8816253981,-0.0892826353,0.5503150248,-0.071424833,0.1847241719,6.7520235328,0.4467367624,0.514033991,-0.9402871713,-0.1272665208,-0.813203644,-0.530794775,-0.7790733636,0.7597967015,0.4646980005,0.4203363488,-0.5597975068,0.9244035682,-0.516920741,-0.5008574424,0.4428819985,-5.7756515697,-0.5943459717,-0.1375247263,-0.5768595848,-0.1918336708,0.7039658411,-0.3398299248,0.6617033644,0.1252809347,0.1356791306,0.483017547,513.3606358562,-0.0863699521,0.2604998191,-0.9438242757,-0.0054266226,-0.2314619093,0.8103423744,0.7812161419,0.322138749,0.7430481675,0.0898187574,0.3335571879,-0.4834317302,0.2768119443,0.1162516793,0.372499561,0.4805057549,0.1763975454,-1.1085974779,0.3491703038,0.1042464212,0.9519314808,0.8877961876,-0.7992869332,0.3140605854,-0.5936221646,0.1065115436,-0.1822155968,0.8998328412,0.7510306588,0.3098962768,-0.1029035091,0.9966018246,0.3182142598,0.073725218,-0.7638177634,0.1112772301,0.1322857539,0.1796582776,-0.6895589469,-3.2091802321,-0.7753765195,-0.62299696,-0.1395827951,-0.0037915292,-2.0572705759,0.9055543171,0.6784936085,-0.5727037232,-0.6320466139,0.4034671145,0.3660399823,0.4880266138,-0.9566195415,0.0051742707,0.0428640632,0.5601867104,-0.8535778943,-0.6257219707,-0.9363771889,-0.2703574253,-0.0138631927,-0.0045210391,0.1314661757,0.7762807172,0.7335440355,0.0403016819,-0.1156673253,0.8408964054,0.0020457563,0.6781381084,-0.5624385285,-0.1482487379,-0.9617191589,0.3367679337,-0.5933224602,0.8511000014,0.4716883469,0.7857042226,-0.7348112572,-0.8983968974,0.279743205,0.2149640382,-0.8735600146,0.3597086102,-0.663997199,-0.8063450739,-0.683951897,-0.0236598628,0.8888085924,-0.7019297798,0.6517766461,-0.523812263,-0.4268766397,-0.048197453,0.2937386334,-0.6069625923,-0.4668060523,0.6475659244,0.7439900608,-0.702150187,-0.3442325591,-0.073695005,0.1607052289,-0.626128828,0.025093629,-0.5751411919,-0.1776705548,0.7159888858,0.6336830719,0.540443874,-0.7466067802,-0.4841051251,0.7693468943,0.7610407125,-0.5940819376,-0.8727557955,0.6509811557,0.9861613405,0.2121976177,-5.9103809607,0.8184645005,-0.484962371,0.6334870007,0.2059641254,0.088604921,0.0446366286,-0.0302423532,-0.134907089,0.1415271702,-0.592337832,1001.8456586078,-0.1857026284,0.7553253662,-0.753245473,0.3666158911,0.76333947,-0.691020446,-0.3826020134,-0.8253803963,2.11033453,-0.5907394118,0.6001954378,-0.2788293854,-0.0137473016,0.3624978548,0.0778500576,0.1316234734,0.2825536759,-9.3789614686,-0.5087603908,-0.499875645,0.1804661645,0.8069137392,-0.0939118539,0.0711715319,-0.0633573873,-0.491322101,3.3733354631,0.3354263754,0.1764775052,-0.1700820805,-0.310264475,2.0006956903,-0.9540491041,0.1688619628,0.3701329054,-0.9003073113,1.0100177132,0.7740062352,0.8588967682,136.0028321964,-0.2979116482,-0.2506868255,0.7686775931,-0.2460087656,-0.6414264164,-0.0715080487,-2.4164097113,0.5935610563,0.2672381913,0.9806779446,0.7757010125,0.0131212219,-0.2399905382,-0.907606226,-0.5513434667,0.7347230023,-0.1857013471,0.2342274475,0.9671364847,-0.9604343264,0.6079672584,-0.6197836687,0.7621162897,-0.6782421896,-0.3048523695,0.7834066831,0.27709757,-0.8221470853,-0.2615573196,-1.0823048452,-0.0983589142,0.6455264367,-0.0861015669,-0.4032766393,0.7068761888,0.3010556782,-0.156150519,0.8618850862,0.9777397291,-0.4025193313,0.0271790266,0.7310701963,-0.0945702426,-0.9616529595,0.3352903745,0.9577257589,0.8087259721,0.1549236505,-0.349098379,-0.3949503378,-0.1335812515,0.6412578834,1.0631245754,0.0857519481,-0.1475678043,-0.7102063412,0.5814907889,-0.4086728612,0.2718063709,0.6103984082,-0.8607021639,0.345860603,-0.4056584505,-0.1759357681,0.0345867925,0.9427906566,-0.258222242,-0.5343661916,-0.7208502402,0.6404483419,0.9436057506,0.4186677393,-0.4064160019,0.5229515222,-0.9191401763,0.9974223501,-0.4865574317,-0.8719653485,-0.132282924,3.7351679951,-0.5835870108,0.6414539686,0.3077367661,0.0341252081,-0.6385962965,0.912645373,0.1574646181,-0.1241245209,-0.1499479801,-0.7000496165,-541.3067506821,-0.2657583236,0.1197978088,-0.8841623857,0.3564167587,0.9409593621,-0.9690367912,0.770578034,-0.8975000245,-0.2728586235,-0.1891941519,0.334122933,-0.4814629893,0.3484774495,0.0884517385,-0.8027723159,0.2951124987,0.9981962228,-0.6048953854,0.9489059571,0.6029991053,-0.2991030875,-0.1766932848,0.7269872333,-0.1321406505,0.745850853,0.3675695083,0.9191359243,0.4510320931,1.0448368518,0.4782052242,-0.3800762386,-1.4805399733,-0.5802445538,0.3954400813,0.1840362589,0.6026691037,0.8438822254,0.8896104414,0.5412554444,0.8502297431,0.2551700365,0.6707904232,0.8194598604,0.7811492936,0.0049095277,0.2375437797,-0.137206125,-0.4147290416,0.4668182421,0.2858101099,0.9897520368,-0.5805065691,-0.9089219145,-0.6749530565,-0.2331396389,0.5466370735,0.3185711754,0.3675844561,-0.0186390613,0.8031587949,-2.0405089346,-0.1444244016,-0.3655054994,0.8867279674,-0.2815077584,0.2874351445,0.5193359727,-0.5192772341,-0.4131911436,-0.6458535391,0.0069833503,0.9099193442,-0.3125891686,0.2562645976,0.1945508264,-0.4789637394,-0.4231788301,0.3395568332,-0.3023851373,-0.8517888664,-1.145613863,0.9508874432,0.9284985537,-0.4057271941,0.6829169367,-0.873298786,0.2469700783,-0.7015259574,-0.354578582,-0.2377468857,-0.9156225525,-0.4084654397,0.7452396211,-0.2523493192,-0.6552835422,-0.90082585,0.6232683803,-0.1534846971,0.3323238146,0.8795723666,0.2838853149,-0.4325330355
