encog,BasicNetwork,java,3.4.0,1,1614853847976
[BASIC]
[BASIC:PARAMS]
[BASIC:NETWORK]
beginTraining=0
connectionLimit=0
contextTargetOffset=0,0,0,0,0
contextTargetSize=0,0,0,0,0
endTraining=4
hasContext=f
inputCount=130
layerCounts=1,17,17,65,131
layerFeedCounts=1,16,16,64,130
layerContextCount=0,0,0,0,0
layerIndex=0,1,18,35,100
output=0.1102275661,1,0,0,0,1,0,0,0,1,0,1,0,0.0063910043,0,1,0,1,0,1,1,1,1,1,1,1,1,1,1,1,1,0,0,1,1,0.9809544638,0.9999964976,0.9987191587,0.9609528424,0.000000006,1,0.0000037935,0.3022103465,0.0000006413,0.0000001243,0.9999950311,0.0421809986,0.0000013333,1,1,0.0000021514,0.0000028582,0.9821654007,0.0000000272,0.0224609053,1,0,0.000000003,0.0000000011,0.967624608,0.0000013187,0.0000000066,0.0035214835,0.999921108,0.0000003104,0.9898501054,0.0002229601,0.8828856184,0,0.0001179586,0.7129314517,0.9997577321,0.9234044005,0.0000000009,0.0000000021,0.8986574226,0.9610167939,0.9945174746,0.9973031902,0,0.0000000003,0.0000003986,0.9998638904,0.9985542787,0.9999920588,0.0000142938,0,0.9963633377,0.2407447924,0.3633283291,0.0013028582,0.9997652627,0.9999967503,0.0062839995,0.0736346587,0,0,0.0007645633,0.0005906642,1,0,0,0,0,1,0,0,0,0,0,0,0,1,1,1,0,0,1,0,0,0,1,1,0,0,1,0,0,1,0,1,0,0,1,0,1,1,1,0,0,0,0,0,1,0,0,1,0,0,1,1,0,0,0,0,0,0,1,0,0,0,0,0,0,1,1,1,1,0,0,1,1,1,1,1,1,0,0,0,1,1,0,1,1,1,0,0,1,1,0,1,1,0,1,0,1,1,0,1,0,0,0,1,1,1,1,1,0,1,1,0,1,1,0,0,1,1,1,1,1,1,0,1,1,1,1,1,1,0,1,1
outputCount=1
weightIndex=0,17,289,1329,9713
weights=##0
##double#9713
   -0.0993306848,0.6107400812,0.2176273452,0.2724540024,-0.4251028523,0.2483038612,0.3547772857,0.316160098,-0.2227589082,0.6221618023,-0.9093425803,0.6435667733,0.6505261117,0.8634948607,-0.7080107167,0.384709484,0.2719695005,-0.5545790968,0.5407625473,-0.2521221893,0.489039798,-0.9406240073,0.174730881,-0.3413130716,-0.2992801341,926.7206298809,0.9038913025,0.2869140096,0.1779728703,-0.0069940702,-0.229102552,-1.0232196688,0.1808641403,-0.2787833399,0.9574087485,-4.3748952605,-0.6646216571,-0.4836125503,-2.0120925461,-0.3764171673,0.7041884662,-0.4188107208,-926.909346985,-0.3192013868,0.2806590187,0.7611713543,-0.445107891,1.0499367155,0.9876927313,-0.2008922091,-0.8253464848,3.3219815718,0.0163589566,0.4863460944,-0.2049178861,-3.5985674549,0.1367841233,-0.8823606366,-0.2609979072,-925.8809346011,-0.3797024313,0.4832336282,0.8523149023,1.0106492399,3.584382588,-8.8398854802,-0.6505663746,-0.2550072845,0.3125820698,-33.0756477235,-0.9221943678,0.0624576781,-5.158639497,-0.2708390434,-0.78945458,-0.3345155004,-926.3032240743,0.0651755699,0.2545994409,-0.9689115621,0.444925484,0.1292641036,-0.3600009163,-0.3283819656,-0.136715746,0.6342051438,-0.1113319305,0.1862993124,1.2713752932,-0.0512817461,0.1203593064,0.8451757694,-0.6158924549,925.7825778152,-0.3450449898,0.4929720101,0.0093546377,1.3128861896,-0.303149291,-2.2327066069,0.9321066943,-0.5611175957,-0.3096327622,0.5184751461,0.4669739012,0.2481095016,-2.0607924524,-0.9261821033,-0.5162151067,-0.6432518419,-925.3982661338,-0.9004671521,-2.5208485451,-0.0179360329,-0.9553436785,-0.1717525635,1.2637938674,0.6928631756,0.1586333548,-0.1317788602,-32.0224898602,-0.4713983075,0.2250561871,-1.3918906837,-0.2591985598,-0.4970334659,0.1580473082,-925.8063416496,0.1129807943,-0.3259206026,-0.8919555095,-1.3024600817,-0.4071802567,0.9428826576,-0.893561041,-0.6802271162,0.1202245544,-1.4833700771,-0.406177398,-1.5796879916,0.2096597551,-0.1134199511,-0.8579417338,0.5047180363,-925.3550674383,0.2117309196,-0.6526951179,-0.3700119077,-1.3191392585,-0.7881788007,0.7030976218,-0.25869466,-0.0369347156,0.5421990733,1.2110050594,-0.6121026369,1.0975062519,0.3321066847,0.8756945475,0.5498160768,0.3910872887,925.49484162,-0.6251160438,0.002976379,-0.6541517186,1.0407073663,-0.5634406438,-0.6478153821,0.4933189022,-0.2516298138,1.1651608168,-0.8264392644,-0.3000244462,-0.1150573189,-1.8165054345,-0.9943241195,-0.0986422171,-1.1638393627,-926.8618911771,0.3469802541,0.097135638,-0.3131696837,0.6032437734,-0.6314041177,0.3354351423,-0.5812385726,0.4825000059,-1.2792443538,2.4405518072,0.2964565735,15.9592137947,-1.1747716541,-0.2835261869,0.0622063222,-0.6379191672,129.2811367634,0.9448517512,0.1242035128,0.2265690384,0.3956686244,-0.8500721779,0.201986998,-0.6976761636,0.2454515411,-0.2167251971,-0.0815048914,0.143634176,0.1076305117,-1.1071703612,-0.2974527289,0.7224179621,-1.0953209595,-922.2499356012,-0.5851161154,0.3585555217,-0.8949118047,0.9333446467,0.6482688047,1.0282797414,0.7496056917,0.0589497163,0.4064828673,-1.0216199579,-0.8576198784,-0.8143162948,0.4169879371,0.7033137861,0.8081384332,0.3344754701,-4.4923638436,-0.5114174357,0.5857439946,-0.1482716426,-0.0752624669,5.6946263046,0.517426402,0.0308343483,-0.0050747952,0.6843132073,0.7315296622,-0.9533135934,0.0861210592,-3.2053912702,-0.9015850719,-0.698465899,-0.5933487003,-925.9582890147,-1.1712847368,-1.1701720488,0.1996317432,0.6364378284,-1.5686448211,0.6607292367,-0.0766376641,0.4128142925,-0.352332557,-0.1729210831,-0.6062507993,5.1223471734,3.85409858,-0.5662804164,-0.2423295426,-0.2886113882,1205.485755304,0.5728463261,-0.0727546562,0.9725402564,0.8526679873,-0.4078652241,-0.3205251447,0.809957843,0.1708792529,-0.3149897658,0.472594974,0.169410045,-0.0303992269,-2.5267557857,0.1057851835,-0.5746645998,-1.0135726688,-925.3362972905,-1.0035880915,0.0734286526,-0.2393290584,-0.5017577502,-0.0669975234,0.440743775,-0.4862873734,0.4544687403,-5526.879659655,-843.5870203188,-362.4843825132,-2711.6118580053,711.2548278504,-1077.7100048082,1710.0663663821,-1600.2347579113,3067.4611687039,5769.4081302673,-1600.1828170592,45.1352279432,-0.0447265183,-1.067320767,-1.3179584426,1993.7445053136,3979.9074155042,-8262.8795303797,4766.8689584004,-0.663889515,-257.4927943713,-1.0889857514,4951.9162322648,437.5229535304,-1063.7342233683,-2639.8551107492,5897.5773124751,13.2491234623,-8264.2808212747,-1615.5009473352,-4171.2077621547,0.4935804617,-8269.6497908973,-0.3253417527,3147.4630830804,-1.0056965713,2.3848930626,-0.4837744124,-0.5441472451,6325.0719122536,-5483.1269296933,1722.9285808923,6.5339661236,-7988.4020761919,2375.175416126,-1270.9314651293,3316.1991803946,-4864.9807083722,-0.1106644459,-6880.1074628095,4.6564076374,158.0847897245,0.2047540985,-6325.0791342301,0.6017557781,-1970.769508639,-8262.8535513203,-8263.0889144933,4.001248757,0.271259083,8539.3537132385,-16.9905339327,-1.1319473664,4346.9742430944,-1.0717695935,6715.3740756409,459.1725667271,129.2917282647,4974.5946703943,-1996.333765885,241.4034189627,-2775.7540170993,1599.6282424106,-6716.1401437624,-5761.5919425281,1910.0091175131,-801.0726056975,-3.6662213743,-0.1902471121,-0.0908716194,-3529.1521657089,-4543.8603390439,7988.2977487289,-5434.5820141464,-0.2860682628,29.8895118849,-0.0810788493,-5582.2457440768,-3070.4470944137,16.2535189435,3072.0824897359,-7825.8442321453,-1645.4089389499,7986.3511512497,3487.619104504,5319.620464174,-0.6480529899,6321.4728881617,-0.3505696762,-4617.199832516,-0.189967469,-5.4171791413,-0.2269822807,-1173.8851840093,-6044.5765272249,5482.5495520245,-5392.5509209332,-446.9635541315,7938.563750122,-4225.021518127,2511.4589006893,-4511.6309433779,3288.2273448172,-0.2961618027,7421.2741237517,-187.5126975452,-415.9125682862,0.5366176914,4637.9906327,-0.710461942,3175.0354611816,7987.2163802804,7986.2345458226,-473.6254903112,-0.7866603195,-7712.3569296742,10.8649267568,-1.5745062753,-5325.5066480185,-0.3300248765,5255.8097389872,1007.9308950343,361.8101000362,4406.6187416183,-185.2839629201,1191.8242414113,-1.4158284618,2201.7026828034,-4725.3448937515,-5767.3219214016,31.1124264216,-0.6595530969,0.572978551,64.1115925147,0.4089708401,-1627.4196125507,-2485.638751839,8538.22726802,-3462.5522617393,-0.1414945594,840.4697658996,0.8201944329,-4190.8207186615,-2180.0320379547,2443.7584155328,3349.5721687084,-4073.3738676377,0.5640874967,8813.9848139934,2316.0683757415,6556.6345491048,0.5261745185,8538.7635680814,0.2474768618,-2424.2954225558,0.5488497697,-1.4044826143,-0.0421030361,-4.5512282413,-5762.6727351434,5201.2397036935,-841.0673955748,-55.2683726893,9088.0580171142,-2476.2434214221,1.0555374789,-3284.2184109061,5378.4509376379,0.9570309847,8269.6435869656,-0.6676798698,-46.7640010767,-0.2729488632,6884.2488802032,0.6964759509,427.6455869294,8814.5962376725,8814.169236125,-1443.0822744774,-0.0910169197,-7711.4452539028,6.6149079082,0.6518465223,-2135.2347694138,0.0512784705,1392.5439593473,7.2227966095,0.7355918889,1461.7338499896,-2140.9625754,36.3826177084,-923.0418625291,6.8566033954,-4826.0515205235,-4920.9834397792,5.9455128009,-15.3349220125,0.7779081786,1.2153423921,-0.1284654596,-198.8879420313,-3696.6708597063,8539.8075636479,-5270.2240786638,-0.7225057814,-0.6471334799,0.1175346569,-5149.2624082187,-1627.8647191452,151.2569150898,2756.2120063104,-5891.9609180964,-1915.7124617281,8814.5328351263,1171.9564457251,2718.4842218936,0.8598828918,7153.4097110283,0.0604700375,-1964.6938903471,-0.3676779938,-0.0030766747,0.4167374178,-1050.9702588956,-6161.9849853487,3240.509887452,-3878.4130452968,-472.6886115479,9089.266242557,-3943.2529988711,1270.9467557935,-2184.2151893933,368.7225152948,-0.0561992373,7443.7091133185,-17.5771404443,-1.9917443965,0.394388517,5156.7622645235,0.4188817643,-3.7071383152,8815.3320297851,8813.5780968098,-1660.0401847506,0.8769651324,-7711.6400219624,4.2423773329,-0.7643020905,-5483.7934532623,-0.1579805086,5374.3623052452,28.162306817,449.2086723767,4193.6033376312,-2729.0183996757,51.1968363714,-2998.4471814693,2442.5032636304,-5497.718856002,-6060.4236281584,234.1833503953,-2083.5095731799,-0.8655067524,29.8610089074,-1.4575822662,-4101.2441814634,-5043.0094648022,8811.8264757245,-6320.0711963497,-0.1544662628,1079.602553634,-1.0661010978,-6476.5124083831,-1753.9148874539,2503.1366722666,1728.0928923111,-7577.6679327469,-49.4806705955,8263.041023984,4683.9471072445,5481.9969544015,-1.2222430866,8008.414669824,-1.3047835745,-4669.9372423161,-0.5097329197,-2.5294423038,-1.5933483279,-2450.1766910124,-6326.5010955882,6043.366267418,-1379.2535860499,-1893.2233688635,7988.3276346078,-2315.5073774546,2624.5381924736,-3892.2643052807,2908.0000273661,-0.283822889,7159.6025584653,-3.5128326227,-255.7887217447,-1.3872120758,6883.3079550502,-1.5622820249,1413.0823222614,8263.5903078934,8262.24368231,-495.7471120983,-9.6099402631,-8819.5531829751,22.1235515499,-1.5675541364,-3613.7333108764,-0.9984304245,4885.5043696903,1021.3059441588,2157.148657913,4605.4519120161,-6.1701973652,3029.9844334105,-1055.831027831,2727.0717336896,-2135.065759448,-4073.1382571273,640.5767579795,-7.4971188052,0.4455219583,944.1462532367,-0.1748870923,-2652.0902637171,-3342.6882952421,7666.6618641679,-4281.3702030922,-0.5480307225,2445.0624451087,0.0911278403,-4247.6486488011,-3037.7113826196,5155.9593172516,2427.7564168687,-4664.9438958747,0.2564869806,8216.4996232529,4325.3277454589,6004.9742592716,-0.3244199535,7942.1454021481,-0.1732126343,-2812.4218440628,-0.6859678998,-0.2071279545,0.7394549419,-0.464885215,-5481.204783038,5725.7497329717,0.218268992,-1.8072996154,8490.7832597117,-1792.9344191563,1909.9685701178,-2488.4555381004,5552.5596919331,0.7739346764,7943.2428344931,0.3635555212,3.2807265322,0.5342210802,6287.7517530699,-0.3567376127,3461.1640761736,8216.6315211566,8216.6954167513,-4.0888737801,-0.8489116601,-7435.4118201616,2.2881132205,0.9118262534,-2659.5186630299,-0.627322688,1806.7945476818,-2.8709254601,1654.1808389992,5717.3106621779,2192.9021240696,1120.1872873315,-67.2007323401,2842.2648490343,-1669.1302245388,143.159904699,649.6211835008,4.6533331084,0.3212003131,929.3739923332,0.3159536572,-2367.4557830629,2970.3333690743,7661.0297723507,-25.8815617446,0.2139644462,44.5562207981,1.9731175462,2119.6714154295,-201.6175564018,4494.1330325848,-3299.1188072002,-3160.0010198599,4312.112123051,8487.443751139,4595.3443840798,6714.877035102,2.8717067825,8212.0664043317,6.003671267,-42.9247516053,-0.386140147,11.5996411094,-0.2886525159,-13.1831344281,-4087.0599690795,4312.6596629302,4875.6590911238,-0.7514289325,8761.9666078494,-1210.3317691054,-2688.5426181823,-2267.7767748381,1484.7655167403,1119.1311895355,8488.0360172012,0.8900620534,-1.4392872276,0.2788368618,7661.4130853241,-0.5112424519,4193.5944009587,8488.9585619789,8487.3793825193,-0.7126021988,-0.1527477919,-7987.4396206717,-19.2409281856,0.5609404973,4119.363915115,-0.1685824229,4601.9390204363,226.6545599699,949.8065964085,4651.2034893938,-443.1988973046,544.1362045826,-1.0910468447,2779.405963343,-3789.8730820903,-6042.8311303401,29.3950962538,-1.9168544618,-0.3826426651,88.9862253641,-0.1795946229,-2774.2525536929,-1794.3286402417,8100.8582046744,-6666.799004245,-0.2027632786,2121.7378735997,0.4734824097,-6305.7016108782,-2968.7306474868,3842.4866802145,1704.7853107929,-5884.8883833074,-0.1230447583,8376.0419035704,4264.4253831236,4885.6677829299,0.2328952514,6437.1513703275,0.4352400723,-3020.5779848708,-0.4486124505,-0.0263857968,0.2404197984,-1.0768762515,-4477.045439142,5107.4783429166,-2.8215233907,-57.955398117,8651.5796244299,-86.4774576518,1816.1325206074,-3855.3204282952,3873.8857306315,-0.6861039789,6436.6541561319,-0.7936866606,3.3830799054,-0.7455174142,4475.1122193794,-0.7747586198,151.9856721325,8376.688458337,8376.0341590864,-486.1019833749,0.6696566007,-5482.4765529603,1.2021426031,0.3085356532,-3359.4625708946,-0.05431629,3508.5098521404,18.9670587322,450.4290269002,3560.6403947463,-4162.4971520903,51.8929545442,-2209.3310967751,2727.5707435651,-4337.2483766464,-5485.2702075651,1252.8248935622,-1442.1822821468,-0.5336098715,256.199322542,0.0722783196,-4191.8586645346,-4476.4251937658,7653.1669293755,-6000.9595975933,-1.2248282315,30.758373967,-0.6722961107,-6512.2999711844,-1339.7704506583,1266.0011654766,2199.4567692099,-7787.199279653,-3231.0189091119,7653.4346102185,4028.2047281662,4758.074447829,-0.5193030203,6050.5702479506,-0.1877162039,-3993.3598228315,-0.4367217469,-5.5679826835,-0.0765797913,-2007.740540204,-5763.4555825976,4639.9356498097,-3657.7947398453,-2834.2202642984,7652.2165363107,-2313.7162058402,2517.6767451737,-3437.7939706913,1854.8523307863,-0.0719424462,5482.475614393,-25.7688847104,-311.0969583152,-0.1729363016,4638.3311876781,-1.0547718083,774.0439030925,7605.7509521542,7377.6678097351,-983.8926324106,-4.6221466337,-7026.0743143012,8.4178955164,-0.0398799168,-4667.3266455171,0.2311429885,3215.9008216564,449.9498288204,1347.936382905,4687.4832000494,-55.5817212421,1191.5413088319,-0.9487996037,2495.3551262061,-4041.6617767688,-3506.4199960666,100.159448995,0.0083241174,-0.5399371126,1.9746286905,-0.1806796994,-2870.1183610612,-2846.995375749,8263.9783759007,-3745.6274892276,0.3920569146,37.53320566,0.6870775897,-2320.5095719783,-881.3815484846,1618.9112713188,2467.6509402068,-4923.9435649824,-1.4741076838,8814.9676900348,1961.9413980606,5603.5324894424,0.7952168288,6879.6476674112,-0.01909307,-2066.8774061879,0.2916263019,-0.7255858204,-0.5193849773,-0.8793800163,-3506.0205751508,5481.1702681797,-1.9058946246,-1.2669293484,9088.1757576804,-1506.774717239,1252.4532692005,-1228.1325910981,3913.5568249194,0.3646181927,6879.2705928714,-0.5870963812,-49.0454598475,0.7038501873,5202.7024672633,0.1671424078,1844.1623559066,8814.155001508,8814.6802135606,-1449.9404576388,-0.8510430406,-4638.9878025473,6.898938038,-0.6497926427,-2579.7711829256,-0.7881072609,4075.6296765891,189.3783513578,40.5914030424,3499.6040480641,0.666873986,11.6990627032,-665.9974240973,1242.2636151778,-4215.3171356485,-2359.1734601224,1726.5241120306,-16.4078045669,-0.8259531642,1242.1645587349,0.6774537241,-49.9709640857,-49.6616937896,4821.2074616439,-2776.6787546671,-0.0735937281,686.4488972892,0.1543676348,-2494.2384197614,-1337.898289817,2365.3778000337,-648.5562800293,-3387.5184590522,4192.9669862986,4547.2990944135,4617.1112133659,4319.7412477701,-0.8912042926,6211.4172942377,-0.1239880802,-2.6116846924,-0.9927559285,-0.7786371347,0.4764790219,-0.791733446,-2937.4744246156,3782.9368705802,4380.5587843731,-0.0965364424,4271.8154727592,-665.1939189187,-1430.108446831,-54.0115859453,3721.1753005276,-0.1197994252,6248.8025649411,-1.7627876114,-84.8507737788,-0.4360200268,2935.0607582392,0.0128391582,2937.3926596761,4643.4184342851,4642.6644710521,0.6098489466,-0.2038380562,-6026.1605620171,0.7890091313,0.1190632606,226.8216296577,-0.7865683386,4073.1893197345,28.8361487866,1252.0889204261,3848.0217451315,-158.631897152,659.4134132949,-93.6347123494,3053.1159259395,-5378.6444077528,-5201.8757792716,459.0747457211,-2.0709131207,0.1998963167,1.6141078759,-0.2732352794,-2571.7328596291,-4476.1653101678,8538.1313499773,-5437.1053909469,0.749511492,948.0922634825,-0.5326794926,-5150.5596886421,-7.5515746664,2313.9728102808,1809.7925944655,-6335.0956454955,0.0041013204,8814.7979648674,1570.4579317577,5420.4919069858,0.821274401,7436.7749049198,0.8353066342,-2851.7789606414,-0.4497536441,-0.3609590546,0.818357741,-48.9435564046,-5039.2884650561,5483.4998903304,-4.8532806293,-58.4627405331,9088.2363830439,-943.2632493898,1240.5085778624,-2442.3177919166,3866.3518717985,0.8385891977,7437.5138813464,0.0454083594,-10.7559950624,0.7447233924,5482.2480286174,-0.3473890154,399.7702662115,8814.8532575749,8814.268564595,-23.5527389141,-0.6762420127,-6881.1010930233,4.3652176415,-0.3450768898,-2881.1925260075,0.0020988601,2366.5782420135,-0.0069622451,28.689128055,4952.1617255688,-1217.15441847,3.8736211173,-14.8584219844,3010.9150468508,-4601.4507292763,-4355.5388195381,238.7024236985,-46.5140670766,-1.6257852676,0.6852863683,0.6359075113,-2774.1138165856,-3698.2767856348,8539.3384052602,-4592.7898956575,-0.9175434657,0.9467179778,-0.5724996297,-2609.2742627432,-2509.5861141732,10.5090581457,1655.3962844214,-4933.6013788284,-110.693731116,8814.8749826074,992.3054163154,5354.6985618394,-0.1480340529,6880.9289168615,-0.6835210302,-3476.4592571072,-0.9397704769,-1.4178315104,0.4377188721,-62.2202635582,-4638.9410016018,5762.1127337704,-2178.5635401688,-780.9426543001,8814.9991454823,-779.6898195629,1142.5221229876,-1540.5825708141,0.18958566,0.6606042812,6324.6403685399,-12.1331216537,-23.0128677233,0.15472872,6323.0018675304,0.1129947936,1463.8411351966,8815.1818046703,8814.1441195187,-464.8003902512,0.0655114179,-4639.081737999,4.2259004431,-0.8805985507,-3599.6024426956,0.1246033143,-401.3614158956,-849.7209092228,-1028.9108995318,-1009.2493620623,105.3253451634,-1646.412436833,0.8341364302,-65.8771079767,-88.3144908877,3222.7428737826,-362.4922728912,0.5275823854,0.53383094,-2.0526843052,-0.9650644951,33.6925956342,2937.0831713893,-8102.120963079,3403.023325369,0.0954017684,-172.1792688237,-0.5929462673,4125.0656823308,0.3355117511,-15.9123936888,-3148.2382813762,4357.4413326833,2042.8085663421,-8653.4672013059,238.593442641,-3396.9889180157,0.719872915,-6245.9369378617,-0.8175889186,185.3824097424,0.8479772236,0.2272666586,-0.0067552563,0.4426330855,2488.8167802692,-2972.5084027855,2606.2572094882,1.8067688161,-8927.6978534448,1116.4385162013,-1435.1006817362,1576.4738006914,-2763.7820968734,-0.1217932946,-6717.24165085,0.084825254,-2.6243562411,-0.2907464196,-2934.7772220988,-0.90134732,-0.1218503189,-8813.6130297613,-8653.817953719,2.4044589736,-0.2905917218,3051.3106845592,-29.9505076348,0.7752189181,3403.4115578424,-0.3863638148,-484.1815273832,-7.3929664755,-42.1137544846,-128.3828793284,-0.1938625303,-1113.5091458117,2.1849263509,-165.5730104927,3058.6469439204,4073.0999972732,-82.4494273483,0.4219086328,-0.6598751799,-1.500342841,-0.9563325254,22.762276723,357.5577289009,-7355.3365613031,2264.343977555,-0.0725014913,-1186.6456728136,-0.2440265373,4023.7628722336,644.2671723947,-250.4236274402,-2377.3009463355,4653.2850230453,0.0108670325,-7198.4026020144,-152.4519039524,-109.5042375176,-0.7836530836,-6046.7525482876,-0.2064530378,16.508694481,-0.6984016575,-1.0703304686,-0.2634067051,-0.5937141106,3235.0042435978,-3874.6620499535,352.1198831472,-0.4058557153,-7355.4230669163,6.2101089475,-57.5609070982,1297.6052003125,0.7736838501,-0.5078632791,-6049.9365989328,-1.0612193624,65.184739315,-0.1106324424,-4353.934604103,0.0974624416,-1.4049817575,-7199.0495723688,-7197.9862977246,0.2534548996,-0.2424640072,6876.4068879287,-2.7075137315,-0.5177223008,3.3865271143,-0.5573676825,4862.5562144334,10.584633462,2456.6832114299,5109.0934398715,-50.1949004308,1780.7191294726,-3428.8118165655,3309.367545691,-2284.4702215825,-3790.3734773604,870.1022758473,-1.2164239332,0.4132246526,2911.4712325634,0.3316486635,-2936.6658230827,-4189.1157443853,8164.2446096136,-3234.7633275835,-0.2572941841,2234.6436452783,-0.0787658412,-3026.7154879467,-2766.8615088931,1169.623723593,592.4738748472,-3507.3103602661,0.788377076,8438.6097501932,5106.5365377242,6506.0480645757,0.4448762544,8163.4345874371,0.6755553078,-3337.7469634432,0.610552833,0.123873603,0.9450372593,-6.9889845203,-5947.2772571782,5947.3245633483,-652.581078013,-9.6299133675,8713.955671798,-1205.638112819,2.1157427628,-147.3707763925,57.3861924287,0.1279795494,8164.2724557233,-0.0084639374,2.8887014972,0.8459037552,5633.0586828704,0.1161022996,2392.1380662297,8438.9617162592,8439.8583442131,-21.2156992032,-0.4383044743,-7711.1047935952,1.6851008359,0.7486872902,-0.3604928416,0.1864529619,-1.076336361,-0.3306095322,-0.3765082761,0.4040406744,0.7951067874,-0.7595411435,0.7118337288,-1.054825723,-0.9583635579,-0.4462277971,0.2620091447,-0.6443259446,0.6421299064,0.6791397466,-0.7125766345,-1.0198487883,-1.1238385787,0.5585953751,-0.3357836905,-1.1840896239,-0.0696913813,-0.9132667374,-0.0422973033,-0.0640806445,-0.2531328477,-0.7233936349,0.6651823346,0.1420053344,-0.8040633516,0.0562218432,0.3603910015,0.8730461,-0.5695430703,-0.4065545201,-0.0646365592,-0.4934122599,-0.088495661,-0.5819798976,-0.1250819051,0.6399105076,-0.2769131571,0.2697217041,0.461918461,-0.3964740195,-0.6354234232,0.9445490541,0.4493575933,0.2892900883,-0.4588470882,0.6338224222,0.0619731797,0.8826881392,-0.2232415038,0.5858363254,0.0953686115,-2.217241729,-0.5770565105,-0.4980006768,-0.4977213804,-0.5198068096,-0.540714289,0.0333517826,-1.4288928047,-0.5216642395,0.2835069387,-0.0169450154,-0.117083747,0.272009167,0.1567625734,0.0025851768,-0.5695977049,-0.3154134611,0.6033562857,0.0655025667,-1.5960729444,0.0976431078,-0.8228910608,-0.6252417753,-0.7910643104,-0.1977807165,0.9769523916,-0.338576197,-0.8073999472,0.6317475378,0.6422646005,-2.3340135955,-0.4990344285,0.4958003956,0.4895797706,0.9077218082,0.1759661412,-0.4036122707,0.5630986992,0.7033913604,-0.0144638579,-0.2373655811,1.1986981994,0.9660250871,0.7981382005,0.7280280075,-0.8267521457,0.1101845771,0.2774275974,0.1405938044,-0.527729034,-0.3755063418,-0.3906984687,-0.2617574429,-0.5460554651,0.1516716609,0.2136167732,0.4956537068,0.709506155,-0.1903280863,-0.048559734,-1.133932874,-0.7290190127,-1.0555628562,-0.4376879708,0.2842369887,0.848003775,1.0261015873,0.9062701851,0.9344426327,0.0470728408,-0.1760197107,0.766304151,1.4298479001,0.3207182897,0.78148951,-0.1519024785,-1.194893509,-2.4942962021,0.555657579,0.7668725778,0.6327230975,0.2933183276,-0.3237392874,0.5225346686,0.0426562746,0.379509467,0.7290849263,0.3845105984,0.4001667994,0.626577232,0.69268228,0.8552917287,-0.0925635707,-0.754720546,-0.6143737008,-0.0445775587,0.0864000624,-0.3113605058,-0.0997666765,0.7965658184,-3.2260417441,0.2059240468,0.4993978363,-0.1476859458,-0.6634522741,-1.0583143154,1.6699114185,0.7564952248,0.5062947721,-0.0474387314,-0.4859947833,-0.7064419514,-0.706585199,2.1585118116,0.8927906462,0.1136699895,0.4904719559,-0.4242841907,-0.7301377807,0.9000796799,-0.3264462072,0.3064876401,1.8561280231,1.6546370058,0.092672192,0.2556478356,0.4702853033,0.4481380618,0.299736951,0.2588519164,0.7897839628,1.3668821553,-0.184988483,-0.26930945,-0.2459147043,0.1076057633,-0.303071746,0.8934915655,-0.5074297815,-0.4515063788,1.3315088944,0.066201384,-0.2411153681,0.0152644042,-0.5105514137,0.1607985551,2.9393513439,-0.62753379,0.1929367044,0.216389401,-1.7509133977,0.8328752963,0.1912480701,-0.1876664036,0.3376303364,1.3142840012,-0.8449956761,-0.6548496311,-0.3218709918,-0.260533796,0.1070281482,-0.5481163472,-1.0746088862,-0.2000785284,-0.5756442985,0.2359797225,-0.0948141368,1.0409040129,0.8457616122,-0.6793438018,-0.8994840998,0.4636143962,0.6618791228,0.2039604778,-0.0712669532,-0.6034425235,1.0527659292,-0.4160466462,0.5427099643,1.842871758,-0.0730128774,-0.539437031,-0.3485408093,0.5426184407,-0.2627337198,-0.4288713341,-1.3182698733,-0.6912961207,0.4696554333,0.8611022396,0.7196700253,-0.7239905122,0.9434519165,-0.8373120168,0.2195587092,1.6496927689,-0.2584362704,0.9412569181,0.3314890662,0.4938469822,-0.7391166494,-2.1046028526,1.0233642433,1.4132875614,0.3781522363,0.4121168926,0.4036887893,-0.9545614946,-0.3442167521,0.6230122449,2.9971086103,0.9686429644,0.3435368814,-3.1111164963,-2.211583445,-1.4806324105,-0.4565904974,-0.4248262862,-0.3968884564,0.489243384,-0.1639994435,0.1556681232,-1.0929647604,-0.0323571118,0.0696498358,-0.1704517049,0.7330646142,0.429495957,-0.7714544304,0.2381730428,-0.5010605585,0.1715295327,-0.2750139603,-0.4876818369,0.8404040854,-0.7209928263,0.8034870894,-1.9949119914,0.8535575442,-0.3166390654,-1.1166638643,0.8822842715,-0.0674224951,-0.4879226769,0.2952688731,-0.5344270735,0.6612792394,0.7032777841,0.380719341,-0.464035039,0.0250036719,0.035240196,0.3352274779,0.805780229,-0.0530370123,-0.6924684623,-0.3320349884,3.0299383341,-0.7959329565,-0.4690465584,0.2562748638,0.6803834438,-0.2933598366,-1.9222798207,-1.0017298551,-0.7480922822,-0.8827941704,0.6533275848,0.3647586041,0.3931201597,0.100961145,-0.3626081805,1.1055788146,0.4365554754,0.3179589011,0.2960142814,0.6679751251,-3.5670835962,0.8562392359,0.7855128936,0.1664730046,0.5152080169,0.5211822296,-0.2194999764,3.9292864561,-0.2403707736,1.5437960478,0.0188611412,0.8504388292,0.2433539341,0.2145281837,0.043581203,0.3299601726,-0.0066349839,1.0074718787,3.9262843443,0.9502959178,-0.1417802633,-0.3972651319,-0.2659232271,0.9881990674,1.680285007,-0.5443538392,0.1486362813,-0.0773637927,-0.2758377171,0.3939954806,-0.082557862,0.0882436446,-0.6404240242,-0.1071602181,0.8289799616,-0.5055757908,0.627472608,-0.0305343474,-0.523299944,-0.5923770454,0.3903888233,-0.2568262172,-5.3983914356,0.3711974269,-0.5485680636,-0.5594669561,1.8991233774,2.5398824238,0.8384074178,-0.3584897818,1.2631163951,0.8741431098,0.569157231,-0.4955234538,0.7144477123,-0.613064237,-2.2445323678,1.872002945,-0.1588424335,0.1599748647,0.9458091399,0.7386335534,0.1484385627,-0.4803235019,-0.921774594,-0.8701505165,0.3174881197,0.0667276704,-0.1764694275,-0.8200663067,0.1120052994,0.4399854238,-0.7941014878,-0.0030843066,-0.6667279697,-0.6910454005,-0.9036114034,0.0282636819,-0.2088869967,-0.3421371947,-1.1215018084,-0.5774560276,0.8253266701,-0.787246674,0.3235275174,-0.4935391551,0.0215764716,0.6160637003,-0.3149753493,0.1208175316,-0.9758495481,0.4909415109,-0.4731522271,-0.6733072701,-0.8896787188,0.2757518321,0.7908525285,-0.9647730918,-0.2731413075,0.3630656311,0.5604079016,-0.9775039925,-0.0356682484,0.4589059722,-0.8864352156,0.7741020898,-0.8354845373,-0.197161034,0.2892662706,-0.585136799,-0.4739008551,0.8706097513,-0.4505819756,-1.2502530339,-0.8753720715,0.0223715255,-1.0545258087,0.7725652833,-0.6216117034,-1.0896325082,-0.759238354,0.152633934,0.0270968625,0.1132359269,-0.4903909794,0.7981257728,0.73362404,0.4387141067,-0.1067860237,-0.5170463101,-0.3921653818,1.4438312707,0.0564337491,0.4430303228,0.1623967921,0.1457421136,-0.5986875044,-0.6773711352,-0.6371854187,1.2118813738,0.3840582696,-0.5973552578,-0.3136127986,-0.9576318086,0.5734180236,0.0081090979,0.4566502661,0.6632965611,-0.1422705515,0.71975546,-0.1864101084,0.4881666661,0.1141116367,0.1792538293,-0.7466000461,-0.367107163,-0.1574482504,1.0129409562,-0.6666750975,0.9050369179,1.4789466122,0.2061272174,0.1760780222,0.4720865375,1.1944132085,0.7010906113,0.2560061319,-0.0600020528,0.5371942225,0.3615670371,-0.4391186364,-0.8683584476,-0.3845543114,0.5442189291,-0.1344382923,-1.071960721,-0.898921971,-0.3215020548,0.1416660892,-0.5064270399,1.2816569192,1.1319451311,1.5109909753,0.63089725,-0.7790258812,0.5367123388,-1.8118444012,1.0603665511,0.2274705732,-0.6498932844,-0.8825174166,0.0399752825,0.3310314117,3.9823493314,0.8747224495,-0.5777474841,-1.3325940263,0.1604293363,-0.1074060066,2.0777643709,-0.5786952718,-0.0321120123,-0.0005128334,0.3229656742,0.6434123092,-0.1305729315,-0.6172274127,-0.2547316255,0.5448208083,0.6588053671,-0.5182577064,-0.1231158499,-0.0559163817,0.2335022772,-0.4442254729,-0.6620138547,-0.2583774506,-0.9503773884,-0.7745602616,0.8082153376,-0.0549483382,-0.1415278817,0.4878969745,-0.5413911482,-0.0084705882,-0.8481382764,-0.6190683187,0.6084038135,0.38968386,0.7957472724,-0.1239728372,0.3682497922,0.5320029792,0.6313083989,0.4862565625,-0.2871941621,0.4728965781,-1.0514434062,0.5235959678,0.2259455624,0.2766771808,-0.3333195285,-13.1557630874,0.0814174163,-0.660106749,0.1166136019,-0.3972126027,-0.0429652331,0.3100764367,0.0722349108,0.5620892531,-0.6467612235,0.4515449867,0.4856165412,-0.8371982559,0.2114905995,-1.3083053234,-0.9658860587,0.1644255156,0.6950257573,-0.5753335766,-0.5335870977,-1.5940849811,0.6201239732,-0.9016886776,0.3936853427,0.6631920987,-0.8914830722,0.5498843622,0.3744361323,0.392344696,0.3012690222,-0.6276826922,0.5338042119,0.2076815158,0.2313882785,-0.1118001815,-0.9720533604,-0.9008850551,0.7424161283,-0.2669222295,-0.8958196429,-0.5691715412,-0.4070069324,-0.5979313273,0.7825725963,-0.8173877693,-0.3338919176,-0.7275762837,-0.2745947908,0.8533351955,-0.0918293092,-0.3487241283,-0.5027345142,-0.6126144256,-0.2834441028,0.4435982709,0.0741375812,0.83360987,0.3760069617,0.2423888052,0.2038385416,0.0380780951,0.3764378218,-0.6135497868,-0.3601991145,0.9401650861,-0.3772347755,0.0569632771,0.9673965636,-0.4053833099,-1.2112480163,-3.291589706,-0.0848556226,-0.7204179363,-0.1606270954,0.2593821403,4.0995149692,-1.8859636488,-1.1611680336,-0.3576396545,0.2404459635,0.7803002832,0.2249769751,-4.9007603107,0.3229549216,0.6333934931,0.2041974415,1.3225655537,-0.4784361725,-0.3223598335,-0.1151171747,-0.3189162377,-1.8434067122,-1.0055438374,0.9832391368,1.8698274296,-0.0706891513,-0.3129713855,0.0733301949,-0.2650027643,-0.4435328439,-0.7367628932,-0.0182077866,-0.3909687322,0.387884125,-0.3674615194,0.1646946129,-0.6961359474,-0.0033416138,-1.6490499609,-1.2502143949,-0.2200541963,-5.1333652131,0.7114918532,-0.0839777022,0.622211687,0.6132864322,-0.6971260261,-0.7804280344,-0.8900277131,-1.0344294866,-0.0497571762,-0.3591006506,0.94673442,1.0412073905,-0.6734141487,-0.1246316055,1.0475953625,-0.0638596318,1.141880903,0.3665129176,1.4520987762,18.575619165,0.8509273495,0.7905415318,-0.5777624552,0.5195049637,-1.2745755455,1.5623572503,4.6413725976,4.8602793476,0.836056557,-0.2696981438,-0.6863621118,-1.3455370611,-0.4565143525
   -0.0141173587,-0.2084368577,-0.5352656213,0.0859075692,0.7703077769,0.8331547352,0.8954877667,0.7612367897,0.2994148427,0.4098181547,0.8536585391,0.0763551174,-0.2045409032,0.6240627648,0.7345380116,0.1585170899,0.4259853567,-0.4287823504,0.1799250825,0.7554916026,-0.7045219186,0.3819380516,-0.8482851345,0.507839788,-0.3375813258,-0.1338079444,-0.3753396899,0.7233195704,0.2800629833,0.115194916,0.4895441433,0.4166402443,0.7623147315,0.963231444,0.5967929657,0.9590627668,-0.0191024157,0.2826084784,-0.572735026,0.7881513988,-0.2428131683,-1.0545410391,-1.1730775155,0.1913909401,-0.0315668565,0.5066128079,0.9577680215,1.1833311102,2.072854197,-0.7338205726,-0.6035094706,-0.2738709712,-0.0416085958,-0.4350720949,0.4002324392,-0.0604502204,-0.4589449422,1.5743379633,-0.2138169057,0.6451860195,0.9892210181,0.4625880321,0.6274153532,1.0761203208,-1.7301536399,2.0206070264,0.8757871933,-0.3219700431,0.7152379582,-0.5899761106,0.0225185665,-0.3308676157,0.5259121164,0.0113575588,0.2063546487,0.456388552,0.0514013562,0.5441631832,-0.8582418515,-0.7659946487,-0.3312661052,0.6829763241,0.2434905501,-0.2972394477,-0.0221609072,-0.6423108249,0.5872174134,0.4851866783,-0.5095250814,-0.316607605,0.1932462475,-0.8426230177,-0.5741849981,0.2521289923,0.3583623006,-0.3885092457,-0.9414697981,0.5937828233,-0.6986661213,0.6321738843,-0.7809742015,0.7004401879,-0.351605473,-0.6666937525,0.8650515697,-0.8944192001,0.8482113533,0.4255292624,-0.9455651178,-0.7119558345,0.305164995,0.8920257861,0.4331457137,-0.9356990473,-0.3401366772,1.393373079,0.6758018326,-0.3193334506,0.8560391619,0.6514688928,0.8236249536,0.8554106103,-0.7453691973,0.2463291735,0.6489747806,-0.885643787,0.4385090965,0.4757351289,0.0795385577,0.7158805744,0.4274114567,-1.1256511198,0.5318980374,0.2154541429,0.3225494518,-0.7230249454,-0.406039558,-0.428686832,-2.5719294613,-0.3051392437,-0.9406496526,0.8259058811,0.3254733517,-0.8426554239,0.7543759692,-0.4574754258,-1.9739446753,-0.2940367154,-0.6031583511,-0.3639204816,-0.2630578991,0.0603585195,1.2287241217,-0.4456481982,-0.0004555048,-0.4079530546,0.467809703,0.2198783963,0.2504148337,-0.3277682,-0.9703424792,-0.108933311,-0.5022234964,-0.5732561207,0.0425340279,0.7824022746,-0.8983119163,0.6210266101,-0.7066068473,0.9120131712,-0.6615238851,0.519476309,0.7112144978,-0.8342282213,0.7584336278,0.5400201732,-0.1248765935,0.9064264938,-0.0975188987,-0.5421126719,0.0287784605,0.8752784885,-0.7714753799,-0.8992673195,-2.6090967715,0.4541975461,0.9207204096,-0.7945640025,0.1387104293,0.4029160786,0.139450763,-0.1359647713,0.8100575095,0.1032680547,-0.645835292,0.3246256082,-0.3274654008,0.1569537317,0.2561916042,0.6220595156,-0.9134430527,0.0685491988,-0.4609602782,0.8799137802,-0.7666054678,-0.571990911,0.4523421746,0.0072131385,1.2432817323,0.8218389367,-0.6466145624,-0.419028052,-0.2214880159,-0.474880085,-0.8853293075,0.5059985576,-0.8081920513,0.1604856091,0.8581389122,-0.6302405053,0.584351559,-0.725377526,-0.7522007502,-0.5325859589,0.6566235972,-0.9205837117,0.6613774459,-0.8616698963,-0.7283826111,0.7865783844,-0.6198163487,-0.6524875686,-0.2627755537,0.0161526024,-0.2380877058,-0.1430390284,-0.5928786249,-0.2744888609,3.5456433096,-0.8979668125,-0.3670299192,-0.7377354494,0.898440154,0.6652216572,0.080195382,0.7731391641,-0.2522251988,-2.2291368207,-0.3151223611,-0.0281177963,-0.8425151847,0.5188823863,0.8721070174,-0.5197769845,0.530579303,-0.9732027299,-2.0839678309,-0.7001626224,-0.6626789598,0.2079350724,-0.3536154363,-0.7349987608,0.4723466576,0.1039941871,0.7738409881,1.134366175,0.4805911605,1.0827515604,-0.5356310573,-0.0464799927,0.2292555255,0.1374245208,0.0831023755,0.9032115352,-0.3648845362,-0.6787938919,-0.5734876824,-1.1804452076,-0.1599778711,0.8079926767,1.8033832502,-0.8139364435,-0.6998815212,0.2660527547,0.1339462024,-0.062328607,0.9740404672,-0.7872424253,-0.172976499,0.8988428609,0.0799534572,0.7591341104,0.6124265972,1.1002170407,-0.2291201236,-0.7168527463,1.1623389665,0.9623097698,-0.105494925,0.797914362,-0.5501854994,0.2424132518,0.5172255095,0.4736418824,-0.1855842649,0.6227775293,0.3640772456,-0.0317739074,0.8391345281,0.4694165845,0.3246926589,1.5790789319,-0.4740495505,0.2297439403,-0.0248056961,0.2622261741,0.9203754767,-0.9308535271,0.7908613687,-0.2290987191,-0.0871025489,-0.7441024482,0.3214839564,-0.7741313333,-0.0837673599,-0.3412681713,-0.3264610347,-0.7230917521,-0.8309711921,0.8475728635,0.7023187224,0.3778356918,0.3349067272,-2.125564866,-1.1904182103,-0.3331589756,0.0041737488,1.3177018326,0.1296379338,-0.9587455993,-0.4430244863,0.3537173967,0.573741583,-0.1935157413,0.9491029136,-2.5062849447,-1.2491736363,0.3717388457,-0.6223047843,0.2395586543,0.5440712585,0.5008920587,-0.914439063,0.0648262076,0.4449632068,0.0572257378,-1.7845049184,-0.2114698212,0.0403030602,0.4963801835,0.5795286636,-0.0933951925,0.0166906136,0.2216992546,-0.3640863678,0.932787031,0.312552229,-0.0903186229,-1.1701317145,-1.4083219913,0.4459033132,-0.9939095816,0.5655477273,0.4915885609,-0.0259888625,-0.7258541972,-0.8660946106,6.2048900746,1.4676956509,-0.8869282833,-0.9783569841,-0.9476525406,-0.830756934,0.2430373965,0.9285254871,1.4919743196,8.7480913911,-0.238129057,0.6128680242,-1.2808124831,0.6624175295,4.0862217322,2.8193980509,-0.1847487134,-1.7691027547,-1.2026986341,-0.1786606067,0.244421221,-0.4180958822,-1.5631160443,-1.1745998522,-2.2809309653,-0.9537756512,0.8182846042,0.0498280896,0.6103248378,-1.1637646772,-0.5067840641,-1.0181477899,-1.6625515577,-0.3995297501,-0.2242938881,-0.3129468646,-1.0279042699,-0.4161485597,0.742537945,0.3990060033,-2.7561106362,-0.273184626,-0.3271896933,-1.3977315362,-0.9851436337,-1.1774345779,-0.8289366789,-0.6845258188,-0.0326195937,-0.4065551297,0.5536400182,-1.3562656205,-0.8884039797,0.0178346465,-0.3765684313,-1.2396919478,-0.2874043477,-0.2114279781,-0.183812825,0.0409722921,0.1520784265,0.2434193264,-0.9692807171,-0.0557466223,1.1722424763,-0.5066913254,-0.7607412365,-0.1412585794,-1.1467929473,-0.1666864861,0.1621869557,-1.4920659026,-0.5201946755,-1.0385856081,-0.5732731394,0.0240055553,-0.6945058362,1.4783890839,-0.429716187,-0.7208426439,-0.1106756049,0.1363418322,-0.480616241,1.9875449393,0.3798670518,0.7378059799,-0.5427586506,-0.1038318009,-0.9259914902,0.7418432739,-0.0969200027,-0.4795591259,1.0978251264,0.3427818203,0.1192959084,-0.8614946267,-0.0749127323,-1.3606192118,-0.1640605715,0.7014577758,0.4221217383,-0.6244190994,0.0821773223,0.00872657,-0.3313751514,0.5014991528,-0.3412428195,-0.7763328879,1.4258681595,-0.0813302641,-0.0691595781,0.7190792838,0.0838502368,-0.9312956572,-0.8931450752,-0.2232646581,0.065356476,0.8019931836,-0.3891732875,0.4317107056,-0.6973234323,-0.8739748987,0.1809430304,0.1124363342,-0.0731551573,0.4553016477,1.0369197369,0.0663031823,0.2973852288,-4.6206530018,-4.6142805985,1.0870605589,0.6007879832,-0.1408536885,0.3555422238,-0.0709000609,-0.3981730645,-1.3639836843,0.0727219008,1.0179103961,2.7933480601,0.5665359766,-0.9212206071,-0.0614371044,-0.2526651538,-0.025460313,-0.8093675234,-0.7983901559,-0.3391202327,-0.4144396694,-0.4776759205,-0.6547359718,-0.0890317387,-4.1448931779,-0.5017213211,1.4671665905,0.8059727907,0.563012375,-0.0630101988,-0.2263629426,-0.6998424192,0.8700108245,-1.3254224756,-0.1584977965,-0.4144152484,0.1525525855,0.1037801373,0.3650378452,-0.624463546,0.9304090361,-0.6703562312,-0.2397236851,0.4585933261,-0.9698888229,-0.2503795715,-0.0478618604,0.8214375248,-0.1598075728,0.6496860169,-1.8713420615,0.1752033983,0.5763810344,0.4758119618,-0.63553913,0.5748132808,-0.7967328567,-0.3603487573,-0.3693117484,-0.2885059401,-0.0770218011,0.8525157962,-0.4808525541,0.2591213018,0.1210235147,-1.2437323578,-0.958316376,-0.1826828084,-0.4819310293,0.3496701208,0.646089024,0.2384972594,-0.5551163845,-2.8023027681,-1.5065859781,0.4412055267,4.185407923,-1.0435941468,-0.2322390875,-0.7637121049,-1.3310137695,-1.394434712,0.6275012686,0.793933984,0.0654602269,-2.8128053995,-1.8964270577,0.2169877253,-0.8240000989,-0.9043480179,0.0879562881,-4.5278428518,0.2777969962,-0.3446791196,0.3210262751,0.6646367535,0.0569851725,-0.008640095,0.0683669142,-1.0803233837,-1.2430681032,6.9430040747,0.4966423196,0.8408915906,-0.3887397115,0.3587354391,0.7830499672,0.7177052397,-1.3966343317,0.5737532673,-0.2623211363,-0.2151584704,-0.5741766635,-0.1069271288,0.4137923928,0.1980021212,-1.8188894672,0.0121929133,-0.5087036389,-0.4854708413,0.2406305966,-0.6272351282,0.8208500547,-0.3681879797,-1.4924959905,22.3660202297,0.8323432913,-0.1833707426,-0.0573361136,-0.6230229465,0.2265735769,0.119489757,0.6978527954,80.0289896403,0.0218719352,-0.2213326284,-0.3665189016,0.3492110344,0.4293055832,0.2705461305,-1.5010073212,-0.5717389683,-1.3863133304,-0.6825196536,-0.6984084068,-0.0426628174,-1.2152905984,-1.4825414891,-1.1265511368,-0.3345781703,0.6521064892,-0.5263061216,1.0309055642,1.0553171589,0.1084163641,0.3918579538,1.014522739,0.1325118557,0.6622031878,0.4243571017,0.0452422836,0.3497896394,0.6010764719,0.9843566326,0.3179582077,0.2252935479,0.2226979207,0.7075318871,-0.5580982756,0.7716392419,1.0473933244,0.6177878572,0.5948735883,0.2432501184,-0.6935143204,0.8214382903,0.0106997861,0.4886790231,0.0968317568,-0.6572736308,0.137979924,0.1190982843,-2.0049449291,-0.343024434,0.4659449107,0.9910433386,-0.3191222387,0.4757636702,-0.5594008837,1.0247622696,-0.5413467076,-0.5896918167,0.0592265713,-0.191539252,0.7229661628,-0.2901262814,0.8347031581,0.9324154055,-0.1298879613,-1.71656921,-0.9729404434,0.6779487729,0.1003778006,-0.2216470917,1.134170194,-0.4076658368,0.7212638317,0.8127287268,0.7996032195,0.495447166,0.8005208908,0.3619280023,0.9221434972,-0.259443844,-0.042594138,0.7022378095,0.1041526746,0.6845518417,0.0119897974,0.2805465707,0.0119046131,0.6050442653,1.950288294,-0.2461266624,-0.7633794175,0.355671365,-0.8907395865,-0.5306629029,-0.440667833,0.5192988638,-0.7680596456,0.1376449231,-0.5908670941,-0.4429720614,0.0092099603,0.0265243524,0.900077425,0.8389306705,0.4035935565,0.1590126318,-0.2801561362,0.3533544445,0.6238468064,0.3055868646,-0.1355065209,-0.4804464908,0.6361167569,-0.706506389,-0.2889870104,0.3038289256,-0.2449877329,1.0034173654,0.1226227351,-0.6768960578,1.1498806217,0.8959083416,-0.6206718749,0.7416747796,0.2889628605,0.769603146,0.6197081265,0.9789897964,0.6235532626,-2.0572037266,-0.7546405968,1.6706988352,0.7248992904,0.6277813721,0.5841028515,0.753836965,-0.6663731898,-0.2937525217,0.4920436234,0.9757504052,0.2436284454,0.359150446,-0.1679584786,0.0749072906,0.225296192,-0.3134980146,-0.7462265784,-0.770620125,-0.7767324852,-0.2072852603,-1.4147671531,-2.3226604085,-0.7275133899,-0.298012788,2.2820304272,0.6170243251,-0.4920114419,-0.0242053779,0.784939363,0.4535003592,0.5286551649,0.0381719734,-1.0092889784,0.8557161123,-0.3083429378,-0.7926976315,-0.2879945525,0.5725869546,-0.241331636,0.1712696425,0.2485465233,0.4439824297,-0.0451334417,-0.2596757574,-0.1506174187,-0.8235352975,-1.2669068648,-0.7135414861,-0.2499183824,-0.3859018621,-0.4300203335,0.1170914477,-0.6541925465,0.4354062285,-0.0027643985,-0.5600272725,0.3945631761,0.7127471075,-0.7181442558,-0.6921579353,-0.2748752287,0.5006912889,-0.3309963303,-0.8416899196,1.2236665206,-0.2614726401,-0.0995801585,-0.1065265943,0.8066623323,-0.7652961133,-0.3602207435,-0.9604145089,-0.5618730669,0.6078340779,0.0513069959,-0.1786383793,-0.9484230425,1.5114906416,-0.5649767344,-1.1890653946,-0.6309806227,-0.5956136851,-0.5830251003,0.8662635594,0.0325890538,1.0259774619,2.5162726874,1.9263253675,4.7716976507,-0.0591560359,1.2122861397,0.8413855821,0.9543648857,0.7385146403,0.2023805691,0.2014357881,-0.4417957651,-0.0430299406,0.8580524415,-0.7644233054,0.4372424539,0.5541208018,3.2684586236,-0.3406928956,0.2871500649,0.2918309641,0.9115389168,0.1583050154,0.0360010455,0.9825038759,0.7964117292,-0.3943468795,0.5747143233,-3.8059745419,0.9640072065,1.4669823848,1.083238179,0.5351765759,0.202064762,1.1357655352,0.6540097761,1.0720380652,-0.3292429312,-1.6101155582,0.0381195252,0.1685701872,-0.0707239381,0.6059712863,0.9284273822,-0.2960015744,-0.165013766,1.3133505127,-0.5008146152,0.7057762006,0.1370897691,0.0691389406,0.7990473357,1.0703001898,1.2791224985,2.3134914927,0.6984234671,1.1043261471,0.3035843151,0.6514639442,1.4156517528,0.3275238878,1.4966897061,-0.7628704462,-9.2163472711,0.7129315584,-0.6236684891,-0.2832444502,-0.417067512,-10.3493507393,-0.121513482,-4.1101359152,1.1013538598,-0.2646947636,-0.2660928047,-0.0315998683,1.0462861188,0.4241212929,-2.3705356363,0.7120737769,-0.4240103872,0.1688139016,-0.3778314046,0.5433188381,0.1630934057,0.7322441371,0.9565550367,-0.2544550897,0.6670716326,-0.3690510912,-0.7557139993,-1.0159728541,-0.6413837311,1.5091612582,-0.0796784442,-0.6476406229,0.2865267071,-0.7114668024,1.0659761518,-1.0454708305,-0.0476182321,1.1007571437,-0.8252011492,0.2685636152,0.8753131091,0.787904941,-0.3464425696,0.3307054358,-0.1730212194,-0.1011500742,-0.3780946985,-1.0879635087,-0.0871377331,-0.1638001608,-0.2475109871,-0.1722001649,-0.1233384109,0.3959705143,-3.729857921,14.6648953018,-2.1457815737,-0.0739465633,0.7564620994,0.8181274873,-0.1929013016,-1.0261481093,-0.2590241695,0.2223721188,0.1003806334,0.2831127026,-0.4058415878,-0.411562102,0.1548918936,0.0127728717,-0.5214958193,-0.3280864037,-0.6250349577,-0.1503035003,1.3833673462,-0.1869950671,-0.4437408418,-0.6964191372,0.238038934,0.7552919777,-0.6268953173,-0.3604759019,-0.5691637013,0.9896101992,0.338739647,-0.4972446989,-0.5586533736,-0.3564376538,-0.684458693,0.3870123302,-0.6241164937,-0.4322132679,0.4532136122,0.5442576931,0.3211025615,0.6274722735,-0.4946163196,0.8506209902,-0.7202640388,-0.849083058,0.7475040774,0.7246059306,-0.8819895891,-1.1147927254,1.2020319077,-0.2572462492,-0.3562802117,0.6611027777,0.9734138675,0.5474606913,-0.0949028988,-0.3609464392,-0.4081546868,2.3210129582,-0.8959922364,-0.5060162421,0.3775424101,0.366279972,0.8751687784,-0.2592850724,0.3873143823,-0.3852374554,-0.3094022423,0.3809216111,-0.2789875964,-0.6373742517,-0.8035194769,-0.5741288176,-0.05527091,-0.6733975245,-0.4063875884,0.8614819545,-0.6693034569,0.6045284758,0.3579855165,0.4514134543,3.6187730991,-0.5610455509,1.2548550326,0.4202993175,0.0714315908,0.9219722272,-0.7580091938,-2.0085773858,-0.2824161454,1.0032296103,0.1978639482,-0.5695873935,-0.3109983664,0.3816681859,0.6101364209,-0.4481577811,-0.7783096603,-0.1565011352,0.8746119934,-0.4093386164,-0.6868467439,0.3950168954,0.411629389,-2.3695927013,0.8447485572,0.5196542524,17.9545390032,0.4198269249,0.8989900339,0.3766921083,0.6619791996,1.0327927366,0.2501641063,0.7449038385,-0.2324739827,0.6646413461,-0.4898832821,0.3775893194,-0.8316241373,-0.642852473,0.3069722276,0.8038325593,0.9286591028,0.164313526,0.444057769,0.4548439323,-0.3741476226,-0.1219199956,-0.3450627865,0.6704799328,0.8105505347,-1.0058175656,0.1071876448,-0.86821359,0.0538358316,0.9039433824,0.0612544697,0.2935140177,-0.8170942372,-0.0855576129,-0.8724613125,-0.8616971151,-0.0311812659,0.4318856235,-0.0182731726,1.1009225876,1.0895396666,-0.5915124362,0.3477613647,10.2475193027,-0.6775970635,-0.7773218676,0.6538589716,-0.6339215536,0.9848944976,0.9656142555,-0.578463492,3.9160079236,-0.4346131553,0.952797186,19.504961093,0.7324852715,0.2842860564,-0.7233753871,0.6918685028,0.9991684657,0.8387575182,0.4822956613,11.0119836741,-0.4227022727,1.6134213763,5.6051907618,-0.0369978451,1.9925457123,1.4724973507,0.7932464988,0.8655033926,0.4279346828,26.5761999702,30.6536636373,0.5417379719,8.7337343985,0.3429032781,0.523855577,0.4282007481,0.8434720249,0.4830346382,-0.3835457286,30.7226174687,39.4586702713,15.5092518151,1.1286500205,0.2482375477,-0.1512617873,0.8826519822,-0.256569766,1.0727290733,0.7938170932,0.3523748192,0.6175207485,-0.106852299,-0.7414612882,-0.4932952118,-0.7843211636,0.674831711,0.0315418043,0.0078731781,0.3332899258,-0.1037665665,-0.3393236603,0.3444869292,0.1923186712,-0.0012748888,0.8586116549,-0.5069397971,14.7103723502,-0.1168835535,0.5906132026,57.8654149933,0.2621255966,0.1055594537,0.9467851599,-0.7640844607,0.6245879456,0.2343846956,-0.4608317707,7.3519452127,-0.5851368038,2.4653299338,0.2547153892,-0.3033023184,7.4649374076,0.2777025173,-0.3518443163,-1.0455376954,0.6505877169,0.9030257475,-0.2760297956,0.5119350868,-0.0264977092,-0.6250351335,0.6123172826,0.580084032,0.0002557956,-0.3802494603,-0.6033199466,-1.0040267932,6.3747884481,0.150140057,0.7372933733,-0.4041695348,0.1388707741,0.9423370196,0.9619691048,-0.0362952188,2.9030586443,0.460402222,-0.134472039,0.3664677702,0.578084813,0.0218312738,0.2096414267,0.1462257448,-0.0487471281,-0.5991297816,0.8249165599,0.8370072544,0.4641310972,-0.0119439995,0.6565379081,1.165254979,-0.1870323263,0.5106677896,4.4083766423,-0.6821608644,-0.7588038879,-1.1417822963,0.5815824252,8.6154984379,-0.3280580804,0.4012539324,0.487126708,0.3120537701,0.8039129822,0.9494715358,0.6391851312,0.8455130945,-0.2194248998,-0.197914132,0.367578773,0.7058557889,0.8859431595,0.588555434,-0.5528112396,0.1570273778,-0.1551561979,0.6435681392,0.7250642823,-0.5394112427,-0.7805057422,-0.743285133,0.9727142929,0.4674378296,0.4437020949,0.4736294923,0.1665242456,0.6281193169,-0.4761513107,0.9535363651,0.3221217944,0.7300578072,0.5398657098,-0.7839551372,0.154884569,-0.2769188701,0.6976271463,-0.9900364203,-0.7108341694,-1.1365930692,0.3027880369,-2.0430930976,-0.8005758828,-0.626076852,-0.8356162219,0.5031991936,-0.9243274643,-0.783944244,-0.7999930328,0.3332480372,0.0440631151,0.4097885694,-0.5833761743,0.1309220254,0.6649854414,-0.643706015,-0.7762188196,0.4540626611,-0.7798330606,0.5897004893,-0.943811695,-0.7633103496,0.3492231974,-1.1847978436,-1.2202238938,-1.2774282902,-1.1322101313,-1.1525203722,0.4551718791,-0.8919779396,0.8535003392,-1.0475111986,-0.7250912847,0.0499659037,-0.3011550781,-0.5708955342,-0.6905252724,-0.3011858229,-0.3396670098,-3.1200241294,-0.2837879449,-1.5125664959,0.156699464,0.6270107855,-0.2188169811,-1.9071053069,-1.0598703717,-0.4542742022,-0.402892714,-0.0619394609,-0.903031711,-0.6027336838,1.5544581051,-0.560790549,-0.6218740184,-0.3918953566,-0.2578838724,-0.8443783412,0.0500229507,2.3208217744,-0.4505450737,0.6325504287,-4.1726516432,-2.7360658971,0.4272021401,-0.4702045476,0.5934346987,0.8554266063,0.3179600964,-0.524766199,0.4374516585,-0.9571276542,-1.7331942142,0.0801860647,-0.036201132,0.895798195,1.7728713647,-0.982595368,1.3455529428,0.2895642568,-0.9445669552,0.0843497691,0.4527098636,0.2945433047,-0.8093510002,-2.1190601667,0.1692181758,-0.2928328268,-0.0311846248,-1.483321567,0.1359742429,0.4052215691,-2.6475479097,0.1239815601,-0.3470280057,-0.6251378967,-0.0804817377,-0.7770119171,-0.4491554813,0.1437125396,-6.002007705,-1.0348175688,0.7528074977,-0.34479404,-0.0879218133,-0.4448547402,0.5348188047,-0.5591925446,-0.9416753499,0.2489204027,0.0515351861,-0.6946834283,-0.7119476756,0.5736611678,0.487179922,0.6226575977,0.7675261366,-0.8386289559,0.3460660051,-0.2688187956,-0.0767258677,0.5807366392,1.0959919196,0.5168828111,-0.7921695641,0.0406308996,-0.8141963066,0.1311553205,0.2229606097,0.625188742,0.6644778871,-0.8034532403,0.1795412282,-0.6507157221,0.6345420975,0.6993160877,-0.2314757481,-0.6952743148,0.5719593378,0.8556509597,0.4752285225,-0.1412913464,0.1515190966,-0.1657881881,0.5270839494,0.1411825841,0.6972642732,0.8910231066,0.1953757314,0.622409309,0.6076985806,-0.3419071982,-1.0789629512,0.1373736329,-0.7599797482,-1.7571079425,-4.882412981,-0.2383778937,-0.5330061899,0.6376753981,0.5597887461,0.467866657,-0.2004453988,0.4616558281,0.573474105,0.8319161408,0.6070783467,-0.3241609235,-0.2759060364,-0.1148807811,0.6048859507,0.1551764722,0.4545413389,0.6947739568,0.3723708457,-1.0647285552,0.5512437665,-0.9707471202,-2.0013349226,0.44295041,-0.1899536978,0.6378538853,-0.0918353647,-0.2400017528,1.6031779455,-0.3034342781,0.0717973442,0.1509658686,-0.971222207,-0.2542785694,0.6049027616,0.6812481054,0.4990435836,-0.4564488595,-0.9822463057,0.3273567649,-0.5922181101,0.3556886537,-0.4736461423,-0.3493063102,0.1324070179,-0.3609854833,0.8660300481,-0.1842972957,-1.7208068807,2.0297109094,-0.729161644,-0.9221407427,0.1472756726,0.7775119525,-0.1279474674,-0.1642646388,0.3820930074,-0.3863914626,-0.5996210987,-1.3817170389,-0.6778748117,-0.7726202903,0.0792173253,-0.3980232116,0.1650074258,0.0784193547,-0.3813060324,-0.6266797986,-0.7252025718,-0.0588411454,-0.3455942187,-0.7867173252,0.4173349937,0.3329864467,-1.7539295309,-0.0946053139,-0.4348488853,-0.5956426669,-0.5475132267,0.1814114043,0.5279727239,0.3564042236,-0.7857027105,-0.1268056972,-0.2327377873,0.0000482187,-1.3443494162,-1.0567226619,-1.2992200522,0.2250673898,-0.9350696108,-1.0330642673,-0.0503231079,-0.3975409779,-1.1233011879,-0.8325108856,0.068686912,-0.0535485147,-0.5537687554,0.4130777281,0.146428164,-0.4484283815,-0.5229447672,0.2557309327,-0.3329594336,-0.0445994308,0.5879815419,-0.3810970348,0.4352351014,-0.7118373688,0.7205604118,-1.0532876409,0.7145502857,-0.8619559142,0.5490922327,-1.1978793408,-0.6666932467,0.377962891,-0.4513942507,-1.0145767008,-0.6472591019,-0.3390257482,-6.3526932882,-0.0310199425,2.3721364732,0.6451023151,-0.1463831452,0.0034329564,0.5571356443,1.3355426889,0.2190902758,1.2290830106,-0.8680602694,-1.2606137084,-0.077431205,-0.4445758267,0.7825663304,-0.3945034548,0.0033497966,-0.3848987559,-0.5529870204,0.5176824934,0.5458101199,-0.4023990827,0.4467124137,-0.4879027692,-0.9774838967,3.3071121699,0.1374146828,0.2487212811,0.4900347654,0.3320836876,0.2231716401,0.2887436326,-0.1305921657,0.1893795509,-0.5270727802,-0.4812753298,0.2476803328,0.1778316648,-0.7537724891,-0.9329713363,0.4173860515,-0.8652698597,-1.0226449748,0.3991889339,-0.1247830444,0.02819225,0.2440550276,0.0045025449,0.1847137783,1.0742161531,0.226613988,-0.5899302123,0.5527823702,0.2584248516,-0.4124552956,-0.3697494308,0.3216125649,0.3519408019,1.6236169331,0.4235750089,-0.6142945417,0.8315997921,-0.6413347123,0.9668491669,0.6930510388,-0.4101350428,-0.2464250376,0.2976897711,0.3660483638,0.9316597451,-0.6307886458,-0.0929832693,-0.9276246284,-1.6488327387,1.5049261881,2.5774683634,1.0451099425,-0.7849694528,-0.5857045142,0.869564123,0.1445549828,-0.1788579231,0.4489380907,0.3858196525,-1.8538882671,0.5508872354,0.2559024821,0.414467162,-0.6691053201,-0.8275224589,-0.635238555,0.7524819085,-0.2415215391,0.4215331029,0.0740384363,0.8650403474,-0.7030824362,0.1986243781,-0.1327369336,0.8742990331,-0.6287161889,-0.5956778089,-0.1170127333,0.8993580139,1.0498010878,0.7189671415,-1.1115255818,0.3904166104,0.2514377747,0.0750167913,-0.3766360107,-0.041634524,0.7778147719,0.5996895766,-0.7185250899,-0.4294308792,1.0642317998,0.4363812334,0.484669314,-0.2844414173,-0.6033804312,-0.345872678,1.4209839092,3.4402774819,0.3044111075,-1.3067172665,-0.2561214142,0.2566876838,0.4876206161,-0.8747162629,2.5671790079,0.943640793,-1.7116700346,-0.6138468082,0.4189363321,-0.0886018205,-1.0340560339,-0.7308675691,-1.400627186,-0.5740769577,-1.6506076546,0.0943056059,0.4771842752,0.5330158791,-0.3879402386,-0.4263814833,0.522358763,0.4402574522,0.8121203692,-0.9392804832,0.5572672063,0.2877324135,0.062599346,-0.1573451835,0.1179869316,0.3792994791,-1.4237103974,-0.8554423815,-1.6503231125,-1.2470105769,-0.5693864848,-0.0422824455,-3.6281061473,-1.088677627,-2.1631209385,-0.8635325988,-0.2437869989,-1.9537850881,-0.7299290424,0.4784238334,-0.1289998201,-4.8693891599,0.3111288854,-0.2806318255,-0.4020819838,-0.9052103527,-0.6674695009,0.3437465159,0.3922801895,-0.8717283477,0.2432995241,0.4246370219,0.4292547024,0.4447389628,-0.3674836608,-1.7087597882,-0.4554991462,-0.5312707808,0.1456365772,-0.9350229723,0.3901119472,0.4077147638,-2.1276252909,0.7689376206,3.7690409858,-0.6745324386,-0.4411154819,-0.1879052445,-0.2236804659,0.1934743749,50.3855105192,1.0305176155,-0.7315927419,-0.1874770857,0.0489726125,0.778756351,-0.1001935635,1.013294495,-0.5796722588,0.8947718177,0.5063445166,-0.4819267854,0.8224385044,-0.4485024913,-0.0642650714,0.9444849693,0.0224889807,0.8633969841,1.9990283196,-0.1200921735,0.7590631815,0.476441194,-0.174768362,0.9734975384,0.4484870335,0.2389519918,-12.2727383646,0.6395388875,0.0043614574,1.0993839623,0.7459000686,-0.4148979178,0.2587483799,1.2662800773,0.3745905152,4.3337682491,0.1887438516,0.3918056024,1.0761289529,-0.0700456734,-0.2742104005,-0.3867305008,0.4425865585,0.8304959488,0.530214452,-0.6553196985,0.910868981,13.7665916114,-0.1321329195,0.1895274543,-0.7072798617,0.8563902735,-0.0945984013,-0.0837137739,0.6731246856,-0.6498973327,0.6374332319,1.2552682412,1.8505016931,0.9235307876,0.3527375891,-0.0165480573,-0.4414606044,0.1673760746,-2.0524356538,0.8662077823,1.0027533543,-2.2861644752,0.2472936916,-3.2846234175,-1.2870715889,-0.0315925923,0.0840468308,4.5272259206,0.3007886802,-0.4097036147,0.5227546674,-4.4436413043,-2.1158743435,0.373143231,0.6017111319,1.2126585483,-0.3150280447,-0.8405403038,0.4399705769,-0.4486713837,0.5473559159,0.6025025305,-0.8489484561,0.7211528636,-7.2043582156,-0.0865026855,-0.7247239436,-0.2665615337,0.9659243197,-0.721417644,-0.1436809583,0.2722454969,0.2009887467,-3.2076423014,-0.6533899013,0.8063532529,-0.6309574075,-0.6319137044,-0.5271925183,1.0172172718,0.6665397902,-0.8075119381,-0.015458574,1.1287211461,0.8007006076,-0.3588629977,0.9685015676,7.52023082,0.8617531236,0.2241620423,0.4242764827,-0.2230107453,-5.390532947,-0.4115913573,0.3795308649,0.5620089838,-0.1858345366,-0.9240185341,1.2934785922,-0.7900228794,-0.2279731953,0.9481771016,0.059997286,-0.5519251432,0.0137463125,-1.2174875595,0.6597070948,2.9431455168,1.4381239067,0.5623416264,-3.358335811,-0.2612417433,-0.3753197612,0.0087220359,0.3603269893,0.2751433256,-0.2061367659,0.7573182021,-0.7124006147,-0.7605157347,-0.3937928638,0.2167503119,-0.8342694319,-0.6024750692,0.3048897962,-0.2774977891,0.3928949546,-0.0230114438,-1.7678908565,0.2401193533,0.4038923966,0.2289249847,-0.0572367411,0.9382940233,0.2789477988,-0.1705518468,-0.386718097,0.1701070531,-0.0575953737,0.0463591701,0.3264835934,0.3487055094,-0.1235241497,-0.4867127155,0.910708704,0.2066673165,-0.6048811655,-0.2800206043,-0.8394337008,0.379229764,0.4573374255,-0.1134964146,-0.4150422329,-0.7342833991,0.2619268495,-0.7841420422,-0.3586693011,0.3683111254,0.1923796834,-0.7594029416,0.4256666405,-0.7045730583,-0.3840411273,0.5569643094,-1.218635345,0.1296103982,-1.4960228188,-1.0047254093,0.2172416181,1.4367867438,0.871955042,-0.3807894123,0.6269366584,1.1093061006,0.8992078723,-0.2244892517,1.2735294842,-0.4584381523,0.1096260388,-0.1314538186,0.4499950949,-0.6443201156,-0.1370012478,0.2722928449,-0.7885206341,-0.3776660774,1.0387939904,0.0844451395,-0.0520205096,-1.0391053066,0.8917260205,0.4880923338,78.4749234949,-0.3266580712,3.4911584881,0.821630549,0.3007385429,-1.820608354,0.7316245277,0.2357221953,-0.3940129803,-0.6843745006,-0.4469533119,-0.8977624956,0.9625362251,1.0057148726,0.0613354386,137.8206506513,0.9818041047,0.0705079813,0.0614657915,-0.559049355,-0.468462722,-0.6036984836,-0.7843308287,0.278334366,0.4471609792,-0.066523774,-0.4065901522,-0.3959195717,-0.3883210733,0.5014344851,0.5701670711,-0.1376528433,-2.02978887,0.7884856636,-0.4998920819,-0.0103419094,-0.1534162973,-0.7426095074,0.643920505,1.1317867167,-0.8696365473,-0.5612758297,0.7950496979,-0.1706366039,16.9220366028,0.0791796739,-0.7831502465,0.9673459218,-4.6110605791,-0.6522982839,0.0305221995,0.4252205253,1.1944698902,0.7615345128,1.0072473596,-0.0588334391,-0.0445719701,-0.6228274761,0.563757884
   -1.2832155324,0.7779670726,-0.5740595436,8.3549634609,-0.599268003,1.5293104746,-0.3315789746,0.8472044075,1.4232094512,0.8545982809,0.2850882036,1.0084705142,0.1927688845,0.0110590607,-76.8867296651,0.9626611862,3.5879670242,-0.6445300062,1.2032244292,0.9143257401,1.4062564011,-4.4952760976,-630.3830632805,-0.4919414026,1.0173096648,-0.4585962552,1.7567187084,0.6353381197,-0.5498795143,-0.6552295615,0.8472326375,-2.9279866767,0.0311673934,2.0849007639,1.5359661704,-0.6707892354,0.8876906554,0.5600025468,0.6274252163,0.4951032601,0.6729175069,0.0487507867,5.6211173789,9.5355838479,0.5756134701,-0.2428993898,0.1483363978,0.1689629305,0.538699079,0.346630773,0.4065412158,1.084694368,-5.9520774505,-31.0855425416,0.573461485,5.658193622,1.7933138353,-1.1223408045,-1.2111785336,0.1436742025,-0.670357405,-867.7655918664,-4.336415866,-7.0131416703,-0.5505959559,0.2582830494,-0.8485823774,0.8070324868,-0.7502068256,0.9674686578,0.6582027542,5.7270101732,0.0167030847,-0.5100367403,0.1913260422,0.1147791353,0.9533472526,2.0863606758,0.2095984263,-2.1161765454,1.4050005811,-0.1061547902,0.5125370635,-0.1778191445,0.3715895046,-0.6756341867,-0.6196603667,-10.0765000083,-0.5950850519,-0.3051372125,0.7190120864,0.1225687069,0.0717279192,0.9170470674,0.8388927597,0.604576964,1.0423669628,-0.4442326378,0.433436266,0.6596995434,-0.7063432488,0.627973877,-0.7667813506,0.3090615155,1.2687087577,0.3033590482,0.022393004,0.4590432271,0.084074764,0.7823779293,-1.1173551111,-19.5188646541,1.6321407017,1.0521757794,-0.7849566525,-0.4858521493,0.8269721721,-0.5745473232,0.3376654771,-1.1308915935,-2.3407656217,0.3838014018,-0.0654275495,-0.1317920733,-0.7466795009,0.2725282311,0.6888036243,-0.8421942106,0.0904657977,-0.3189234258,-0.7391964087,0.6665171184,-0.8108240612,-0.9493836162,0.219911017,-0.2836854074,-0.0898223796,-0.76466518,-0.9240904027,-0.6001213443,-0.7506228958,0.5062873475,0.826412392,0.1800963911,-0.7395123499,0.5867275045,-0.5914967813,-0.3718520956,-0.737120193,-0.8600985183,-0.6000172942,0.664888297,-0.8323934833,1.0845329966,-0.8858076416,0.3996589257,-0.2744475264,0.7231137178,-0.3520899075,-0.8495137992,-0.0011440635,-4.0809729474,-0.5373205193,0.7022836634,-0.5734745337,-0.3293617961,0.7422350375,-0.4555817492,-0.732887133,-0.5606937554,0.5909862088,0.7170232832,0.1568831006,0.2060161551,-0.0527160828,0.8552654118,0.5709559158,0.893835269,0.919542913,-1.2401483726,-1.5540883046,-0.1577873179,-1.3456811591,-1.4130739094,0.4316916886,-2.2752603567,-1.5806046949,-1.989515225,0.2746145083,6.7630862217,-0.2068439413,0.0617586771,-0.0434780768,0.2864495433,-1.8157645843,-0.799611238,0.1468489054,-0.0565913355,0.6593172855,-0.6767447586,0.5597457519,0.3801842634,0.8996248131,-0.3344846838,-0.531799738,-0.4899714291,-0.6060426823,-0.1971674605,0.26056932,-0.0407877245,-0.2141842758,0.3771524506,-0.2295280676,-0.0626063563,-1.2910078242,0.21243088,0.167176904,-0.2872526078,-1.0827571369,-0.8482814565,1.1365258581,0.1642120487,0.3526908577,-0.1414135479,0.688844938,-0.9037186909,0.1616851496,0.0325370227,-0.5340894872,0.1160358525,-0.4873965676,0.5023823238,-0.4092871531,-0.6666784064,-1.3662248974,-0.5339193396,-0.6859806075,-0.1789079182,-0.9081206309,-0.0134954392,2.5082389657,-1.4160305574,-0.6436451925,-0.0206491149,0.6461074534,0.237003784,0.8288132741,0.8982496561,0.2161150047,1.0430166638,0.7241155418,1.0245165032,1.6378871049,0.725271148,1.0092163119,-0.8529336082,0.7690743302,-0.1244022843,0.5756646346,-0.6497356726,0.3005193126,4.074278008,0.9151091405,0.6766704152,0.2261139204,-0.1720886282,0.5694017182,0.4206534472,-0.3958041385,1.1098760807,1.1510138704,-0.5572537825,0.0722655746,0.707567354,0.8172149536,-0.9571001184,-3.7514478228,0.5388317857,0.3769652083,-0.6873267972,-0.5936891934,0.1678832779,0.352310133,-3.0211253368,0.4684055286,0.8620865779,-0.6230966488,-0.5394320289,-0.102158507,0.3147336866,-0.2139796978,0.5243274534,-1.0074307781,0.2056067045,1.462858425,-0.3723213263,-0.0493828515,-0.3187847939,-0.3023931382,-0.6837764678,-0.998345765,-0.1875867725,-0.3855930063,-0.2628325619,-0.193448153,0.0680486704,-0.107585856,-2.8066213049,-0.2182487945,1.0026771991,0.4087475894,-1.907289119,-0.579809929,-0.778248619,-0.5433828803,0.1368214785,-1.4721756852,0.0160528233,1.0078691213,-0.9042283551,0.6011344315,-0.6814719307,0.7152181437,-0.3783418549,0.5860919098,0.1714653307,-0.1151560595,-0.8066875946,-0.3241965115,-0.8867666795,-0.0028035349,0.1883799158,0.0304323031,-0.3854338792,-1.8741248409,-0.7901435911,-0.9802382446,0.5742298783,-0.9730034691,0.7537144184,-0.262768531,0.0033114696,-0.3698539145,-0.62207186,-0.8941747531,0.0143636605,0.0538527296,0.2143430363,0.0995866355,-1.111480083,-0.2776767233,0.4078679085,-0.2912337244,0.6950122564,-0.5465305022,1.0824746209,-0.5239764296,-0.9563897927,-0.0709555197,-0.9330563894,-0.8393965703,-0.124353876,-0.5460243421,0.0354424183,0.5234246733,-0.6878972328,-1.1994471713,3.0178377811,0.6453098702,0.1624183854,0.3711757148,-0.4861965778,-0.4352243572,-1.2185724698,-0.6358407565,-0.8049656592,-0.1628706759,0.7694012093,-0.8855157388,0.2399614302,0.3740126975,0.6358267786,0.9758507351,-0.9404337893,-1.4040168176,-1.4797340367,-0.7479602305,-0.4813692356,0.2745309464,-1.0391445244,0.050278431,-0.0317981624,0.2170524498,-0.2340017755,-0.3208755364,0.2155156163,-1.3505500482,0.5563190887,0.3138079664,0.5142902578,-0.2090072326,-0.0616454003,0.4005140572,0.3328514303,0.1062610647,-1.0526263909,0.615849902,0.5214779861,-0.1631107202,0.517325326,-0.6973718041,-0.1249958931,-0.8426887419,0.6496224562,0.1781580524,-0.4939857732,0.3101713628,-0.4562964017,0.2533514129,0.3557745951,-0.7716744123,-2.2948822458,0.3181388946,1.3870095234,-0.5486905196,-1.5471821298,-0.1057603095,0.8750392164,0.201276746,0.2663024508,0.9223638009,-0.1633587726,0.5479370715,-0.9184223985,-1.0655866529,-2.3952886151,-0.8981350364,-1.2337949101,0.2117059511,-0.6346264374,-0.7992225998,-0.0416409255,0.5307821628,-0.3983675989,0.6831856422,0.5957295106,-0.0442688845,-1.8163785969,0.7976416284,0.0062132038,0.6891166603,-0.4693005795,-0.7571258768,-0.5125364067,0.2733105718,1.0139999849,0.448398767,-0.6072055605,-0.3418541907,0.8546792339,0.6298380536,-0.8562485045,0.5872720331,0.6438982361,-0.3872011511,0.2907250358,0.1515435868,0.2449519185,0.583289929,0.7782311812,0.887426437,-0.8243945446,0.8122533977,0.6646640676,0.017762237,0.5463384954,0.9541888455,0.205807999,0.4161759084,0.1888983154,1.976775152,-0.1530705623,0.7484005271,-0.1150887511,-0.0489775912,0.3198923075,0.1402459279,0.8715248966,-0.249193774,0.3753559952,-0.3768501015,-0.3218614325,0.438760382,-0.5672848248,-0.7039241422,0.0828054704,0.6371160197,-0.6191220278,-0.3482408799,-1.3396223442,-0.5420212017,0.1750959302,-0.5231828786,0.0721661117,0.3510163842,-0.7123814246,0.3901354074,-0.6212418729,0.3294347504,-1.2687132985,-1.2151220014,0.6249712401,-0.8390899109,-0.1739787712,-1.0283402587,-0.312974149,-0.462751216,0.041593487,-1.0748701877,-1.0237174371,-0.3443979818,-0.9238657383,0.4456990116,-0.2400213784,-0.8470907127,0.4805728498,-0.2245416234,0.0460486979,-1.063835103,-0.9012824251,-0.4077571114,0.215538388,-1.153497559,-0.2640711074,0.141218122,1.1689018884,0.3583870963,-0.1212077203,1.7998092105,-0.4591208954,-0.5888175084,0.6737704313,-0.8218096684,0.1827826416,-1.1571837279,-0.5008823139,5.6109037988,-0.9367550131,-0.1046826995,-0.2904010577,0.4334785298,-0.3844485464,0.7269959956,0.6861817845,0.1678161988,-0.4028165879,0.1263648914,-0.7644434744,0.0041708706,0.5523997637,-1.0657809314,0.1025051224,0.2102222531,0.5520852161,0.2506230382,-0.8893080474,-1.0779399282,-0.6798549802,-1.2548214117,-0.8781142977,-0.8317289766,-0.8860225916,-0.9904650412,0.2016650195,0.6338111661,-0.6226843822,-1.0771498464,-0.4724475121,-1.7520310725,-0.6015753668,-0.1791176523,-1.1307642669,-0.5686184532,0.7447900538,-0.0345131343,-0.6100741786,-0.9650561879,0.5373522281,-0.9048014053,-0.3708606054,-0.0714574842,0.5109236168,0.5761795841,-0.6232738575,-0.2526881025,-0.4303906199,-0.8459370383,-0.7613130335,-0.5656115867,-0.5331939491,0.0539689654,0.6443361153,-0.2986072169,-1.0471476634,-1.0293793079,-0.8521323356,-0.5903540896,-0.6199342687,0.7019834631,-0.6559035879,-0.2534074549,-3.2110487645,0.2432449754,0.3008133276,0.4089040373,0.4922430336,-0.2573308619,-1.0666585799,-1.1160265159,-0.5039939778,-0.8004467369,-0.2825888086,0.4843435934,0.0234403453,0.2429829385,0.5238742142,0.3894567632,-0.1550760236,0.6225575965,-0.433397432,0.5323420128,0.1800666164,-0.0675350614,0.9131621275,0.3400508924,-0.8434139907,-1.0293604805,0.0032573057,0.1740914935,0.5581989583,-0.4359683259,-0.493734421,-0.2332858806,-0.4586448394,0.0599069199,1.0395620042,0.5470525898,0.1653855212,0.6106513005,0.6251944107,-0.4734583854,-0.0683207726,-1.2770811315,-0.2913815897,-0.7880027502,0.1599996558,-0.7964385936,-0.815359107,0.0440061883,-0.1072488282,-0.7775474898,0.1456909093,-0.416623632,0.4355389983,0.1331021651,-0.3502108839,-0.0348702065,0.099113764,0.1961155322,-0.1071875183,-0.0831052059,-0.5678230645,-0.134775209,-0.1714396834,-0.1093453536,-0.7060398839,2.3755495147,1.5740385169,0.4868431031,0.5877011477,-0.9722275739,-0.7709219913,-0.6126507975,-0.8475155656,0.3122771377,0.5481261754,-0.0995464565,-0.1302480369,-0.6446697071,0.1307174503,0.4548572837,0.6152213906,0.3166064267,-0.5520542945,-0.1213578965,-0.5631702584,-0.5795808755,-0.7097655388,0.6804700182,0.0091389568,-0.0920319397,0.9267886561,1.4406439937,-1.4935083452,-0.5559527721,-0.8206842049,-1.0397734231,-0.8666494052,0.3551752679,0.5882170851,-2.8250599468,-1.3879995977,-0.3135863075,0.5421888717,-0.6462039081,-0.3449587416,-0.0477806137,-0.4929012934,-2.1275476663,0.4414338861,-0.0371695051,-0.4172298413,-0.2535463199,-0.7100079995,-0.5883571088,2.103027213,-0.6098630553,0.0169119073,-0.0549440709,-0.7536634632,0.0737666335,0.3165582376,0.538117762,0.345186491,-0.7706823546,0.1523457798,0.199043295,0.8698208461,-0.062642806,0.6552282413,-0.2404543332,0.93377291,-0.0452933912,-0.0726959107,0.8456647951,-0.4649546409,-0.387003079,0.0674697534,0.1018845817,0.5634018072,-0.0175789928,-0.4256304458,0.2281480622,0.4062481175,0.9247047194,-0.3243396223,0.8066702294,0.4744699027,-1.3437750115,-1.9417904926,-3.1929704677,-0.3659815255,0.1129732738,-0.8551228601,-0.3858617534,-0.8834536711,-1.5170360335,-0.0649308462,0.1418698626,0.0305858126,0.1083340187,-1.0600168449,0.0604389068,0.1997559123,-1.3590500393,-0.7995948623,-1.1201328602,-0.8399506205,-0.7369343361,-0.2697551285,-0.3119072852,0.911493713,-0.5970518241,-0.7828096856,0.7088764855,0.1938344916,0.1348979319,-0.4796064985,-0.1387912008,0.7242657132,-0.0655779042,0.4910868986,0.4864677805,-0.0996307705,0.553845986,-0.7179673203,-0.7824586926,0.7389200272,-0.6559435905,0.1455104182,0.1387240579,0.177046193,0.1071387461,-0.1905553979,0.4219135266,0.727077462,0.0986460093,-0.7762544148,1.3602548,-0.4014660456,-0.1300101964,-0.5014067101,0.0107188888,-0.3718729235,0.6715379661,0.1431294112,0.4691059437,-0.4461606215,0.1844523571,-0.4378637425,-0.8892147365,0.9198252555,1.7317798006,0.0088541862,-0.7414186407,0.7221816806,0.2456462254,-1.2865607044,0.3104131446,-0.1069446955,-0.2591528462,-1.1357321718,-0.5835283829,-1.4581665513,0.951351102,0.3385875418,-0.0120616024,-0.7184763628,-0.7231134588,0.928083167,-0.3335736523,0.8225387281,-0.2528829298,-0.3706844548,0.3370957597,0.0696786251,0.7177748266,-0.7896785512,-0.4119989656,0.1676884623,0.4047191206,-0.1189209714,-2.0201551715,0.0072463111,0.8729417249,-0.0689278356,0.457298218,0.0013415024,0.676094545,0.8305944102,-1.0193927944,-0.0387414311,-0.8607868604,0.6310159887,0.6058357211,0.6777496255,-0.4709945728,-0.8914438548,-0.7633189009,0.4388951133,-0.2579036333,0.7625920824,0.6350653511,0.2352749882,0.1170789649,0.0331670381,0.9442141317,0.6495007185,-0.8720850691,-0.0313698019,0.6451817494,0.3980044566,0.1988036872,0.5120866397,-0.3311748757,0.5832615082,-0.6329316667,0.0450895297,-0.8544069985,-1.0240322855,0.9473069243,1.0395425507,-0.0864706685,-0.7709249758,0.513013903,-0.545846902,-0.156303739,0.3133125444,0.738429831,-0.3556053601,0.1880382715,-1.4299314834,-0.9809035079,-0.1146470451,-1.3557932799,-2.0978334807,-0.2961160149,-1.1401629164,-6.8256960331,-1.3538075893,0.2531177042,-0.4381913636,0.3275599811,-1.2829672734,-0.8589097444,0.0663851592,-0.0267806785,0.6765864375,0.1374206475,-0.3022582745,-0.4930535625,0.0763481124,0.3192055916,0.1446147427,-0.1931957677,-0.5353389154,0.647080312,-1.0841482614,-0.2856349996,-1.0240005447,0.4880167204,0.4000924462,-0.1048941842,-1.2313853388,-0.1362858791,0.4391223663,0.1248136084,-0.0800297873,-0.5784820416,0.3125572276,-0.9978340562,-0.299214605,-1.1109137605,0.4681243456,-0.2471959848,-0.1641956731,-0.9855972679,0.5044505639,-0.356152738,-2.0317970652,0.0141934529,-0.2468446649,0.349876011,-1.1064335536,0.608916955,0.5880450351,-0.2485588512,-5.8315625485,-5.7160996358,-0.9978636898,-1.526267711,-1.1983523338,-0.887373376,-1.6166169185,-5.4598973234,0.1991823439,4.8664723073,-0.6204729,-0.0106278145,0.8373802755,-0.881688158,3.8769791127,1.5773718452,2.3269442197,-0.5802309601,-0.7735177317,0.3902676526,-0.3848674504,-0.3664730211,0.0056150361,2.1388325061,0.308610219,-0.7149586743,0.3523331942,-0.6277119018,0.5574463195,0.5480640493,-0.1989063666,0.3360491735,2.1899774627,-0.7014763171,0.8387984359,0.5089215236,-0.594188354,0.1708080894,0.3088184761,-0.7894995379,-0.3664909053,0.3723158931,0.5676185531,1.2567584308,1.0648057904,-0.3888401999,-0.9548549298,-0.2789877584,0.0387494009,0.3145278684,-1.1322712297,-0.6066482435,-0.5324685226,-0.8794373219,-0.1472190351,0.5862574132,1.3378670288,-1.1251654663,-0.2886296074,-1.0878165478,-0.1520023979,-0.8704478354,0.6572415624,2.1006740521,0.3914716427,0.2549323631,0.5105777192,0.192687209,0.3194355455,0.4902057758,0.7128838245,1.0951657282,-0.5897171575,-0.6168741105,-0.322901561,-1.6596249128,-0.8320006695,0.535956342,-0.0229588412,-2.0258179166,1.5893907466,0.1128241939,-1.3387486423,-1.1573802077,-3.7513339668,0.0197956555,-0.5335406796,-0.8362359618,-0.2710908797,-4.7527090164,-1.2249592856,0.6648166118,0.0467130811,-1.413133424,-0.4023068609,-1.1175116017,1.3438061925,0.3700397008,0.4132807983,0.1171287461,-0.5653998091,-0.1891584584,-1.3503616669,-4.4726927403,-1.0428139004,0.493583992,-0.109264197,-1.0226285489,-0.0715090318,-0.0502899634,-5.7637574601,-2.7507623266,-0.5769403919,-1.2654928049,-0.2392315196,0.3547821622,0.1087660443,-0.3531392606,-0.659140587,-0.3895686325,0.2187534507,0.7619012997,1.2222986048,-1.6770412802,1.3375261278,1.1071969014,-0.0566107371,0.6901969512,0.2420321121,-0.8713952139,-1.1255633384,-1.1988324611,-0.2828944918,-1.3141268031,0.248920611,0.4101842149,0.2166998972,-0.7208738552,0.3728367378,0.6513993284,-0.1853907809,0.4038047398,-0.0488996049,2.8688583298,-0.4641325305,3.9542263593,-0.6445238702,0.7550012386,0.1824974836,-7.2831482464,0.8435619805,-0.0285864602,-0.3296322012,-0.3765591436,-0.5676159499,-0.5253946986,-2.0715695916,-0.1746650591,0.6333967332,0.4382979625,-1.0915446682,0.2502930544,0.4297716048,3.8861864568,0.2565542486,0.2767084275,0.0688425887,1.6363773023,0.5741683936,1.1249424631,0.9522581538,-0.253714554,-0.6279485486,-0.7676940549,3.9652300875,1.030915706,0.1958919614,-0.6998616254,0.1494719164,0.4143507604,-0.4690761003,-0.7572663198,-0.2379034185,-1.1675056393,-1.9029050107,-0.0411553378,0.0072235805,0.723678743,0.2533551662,-0.5696245534,0.4029350423,-0.1246426174,-1.1584700504,0.2246227178,0.7760961447,0.0644706687,-0.1635878217,0.8776344774,0.5071685204,0.5112924382,-0.9304893802,-0.1934389394,-0.3646511075,-1.3611730568,1.7051276555,0.3878404739,0.2280602819,-0.4758647565,-0.0169981989,-0.5544956768,0.4909414621,-0.9024731781,-0.4804364242,-0.3985108545,-6.7606968233,-0.7813846198,-0.345309917,-0.7948478837,-0.6576703328,0.5450823557,0.5832424657,-2.0120951089,0.4544093034,-0.0158342446,-0.1557150612,0.8315595525,-0.2921769625,-0.0333756927,-0.83995535,0.0007878353,-0.4708610288,0.0628907891,-0.2780156265,-0.7521803852,-0.9635157408,-0.4524118535,0.4997765085,-0.812842257,0.6079836111,0.1931841558,0.6003398551,-0.2908073799,-0.3428544942,-0.5162738744,0.5324484851,-0.4361798244,0.3128251881,0.2770462449,-0.6663740056,0.5495092933,-0.0933484857,-0.7151548068,-0.2061342794,0.4111180348,-0.1303140747,-0.0913882198,-0.5961912908,0.000909511,-0.4477957044,-0.2519433753,-0.0186796987,-0.9147771231,-0.8539325428,-2.2439820066,-0.3115888249,-0.7424470944,-1.0815362237,0.3304852041,-1.0685637002,0.2078960358,0.1851140338,2.5505746183,-0.0646265182,0.6909529874,0.7706720071,-1.4706846179,0.5230031027,0.3841528822,0.1362273825,-0.4676279038,-0.8544892388,-0.1690382265,-0.2343827581,0.0893282843,-1.0870939944,-0.0256803443,-3.5422609811,0.7101924645,-0.846983758,-0.43383016,0.6186808708,-0.2374576421,0.6373108687,0.126837156,0.1589495371,-0.6645784875,-0.236578314,-0.1765733707,0.2949972125,0.6654648419,-0.171101786,0.45074717,-0.5538641897,-0.8768213699,-0.1769553838,0.4261028259,0.9651719572,0.6484112754,0.6387792506,0.557542409,-0.9238224408,0.9026276713,0.2368337938,0.5577850794,0.7025921388,0.6890979701,-0.5653493601,0.1421803463,1.193950032,-0.1801680767,0.4562879266,0.0756828392,-0.227192882,0.5452036765,-0.7979867434,0.6725490612,0.8101456147,2.4076869177,0.5159915478,-0.5024604843,0.6283027058,-0.572555594,2.7252830885,0.2589243659,0.8043423723,0.6839131022,0.5556684184,0.3837615957,6.741029036,-0.4153533806,0.2464081266,0.3060662768,0.6132749055,1.8436378319,2.0951569376,-0.956022602,0.699987496,-0.0647321455,0.3101474016,0.0491479424,0.385513256,0.239248279,-0.0255628074,-0.5603443392,0.169279178,0.3545546974,6.0824297379,-0.0975173867,0.8689461818,-0.1323422177,-0.5287079562,0.8191160665,0.4678599343,1.6818039411,-1.8114620394,-0.7820314818,-0.6193100111,-9.0945509292,-0.653531446,0.2116956,0.7715386303,0.4538605024,-1.2855404747,-0.3209558396,-0.1076102509,-641.7238784957,0.4113644153,0.7831616072,-0.3336955449,1.4636794897,-0.3400367841,-0.4084580886,-0.6221613471,0.7362063505,0.448074949,10.4830669065,0.6757115456,0.5085919801,0.1198100336,0.6229275898,-0.6487148137,0.7988188851,0.7560139442,0.0211626775,-0.0865580663,-0.0759270683,0.0137671777,-0.020196289,0.7505277271,1.2506311749,0.8498967147,0.9109190942,-0.0179622428,0.3418574314,0.169776343,-1.0842668606,0.5498028176,1.0531805815,-0.2541645112,0.3518038237,0.0155937453,-17.3190626529,0.8192677402,-0.2347926648,-56.0527957344,-1.0780982356,-0.2204596527,-0.0978257241,0.6441916842,0.8929881436,-0.0474119093,0.4891736402,10.376219947,-0.3071779556,9.0987975816,-0.3825844967,-0.0326334821,0.856690332,-0.4713657826,-0.1431887341,0.4288250231,0.7806443819,0.1698199893,-0.4610858632,0.6574712538,0.0616785801,0.3239240704,0.6741094387,-0.2102210399,0.0856187769,-0.2476219754,-0.1718899291,0.5754529342,2.6271411967,-0.4283892514,-0.8685142898,-0.8126326835,-94.5663863148,0.8491778041,0.0434210088,-2.4578405132,0.3547086823,-0.2557810543,0.6393722648,-0.3289125511,-0.5656611265,-0.3276211759,1.1005497665,0.4150796093,0.5752954312,0.7535740734,-0.6360686962,-0.37598802,-0.3829387128,-0.0369796607,1.9889392038,-0.5548036478,0.4905828431,-1.573089818,-3.5866274561,0.5643599436,0.5668479749,-0.2608327383,-0.416865641,-0.6234482935,-2.4273344032,-0.4689912374,-1.6111827336,0.5657457906,-0.2542204238,0.3877683815,-0.7815081434,-0.2283459545,-0.4355833075,0.0457201308,0.6672239917,-0.4406062818,-1.7868126207,-0.9188827375,-0.5612562052,0.4742295289,-0.1181283704,0.1714808651,-0.192594947,0.1356767042,-0.3340737694,-0.9721487362,-0.4144217931,-0.1085389662,-0.9499516509,-1.1509817182,-0.5493252977,-0.2933484818,0.0415785405,0.2109550178,0.2179545128,0.7012619418,0.2733721113,0.1431094489,0.2096015057,-0.1984153719,-0.4552669591,-0.9665607719,-0.2883327375,-0.9726436735,0.0067213245,0.570563155,-0.1927535041,-0.6295880205,0.2681577397,-0.8800025944,-0.4521212569,0.5218631253,-0.5781713373,-0.5021104867,-1.6537897941,-0.6690507411,-0.9590504019,-0.2443725678,-0.7496738628,-0.2364083712,-2.8614277911,1.1040449554,1.7020688837,-0.1156584849,-0.8327426485,1.7025738035,-0.5420485527,1.6670970583,0.7642335572,1.316952586,0.2054397972,0.1874634323,0.8501921448,0.0391246695,0.7911660302,-0.1630226818,0.9690291682,-0.391157113,0.5344492927,-0.1464957544,0.4998882448,-0.7294126919,-0.3819860449,-0.485492093,-0.5434251769,-0.3020653375,-0.8541388003,1.3525026696,-0.7264598692,-0.2546333434,0.9144059992,-0.4560471558,-0.8054337266,1.56952125,-0.6166592495,0.467030303,0.032819515,0.972993446,-0.3639922311,-0.731436268,-0.1788989475,0.0534005424,-0.9910435,-0.6119799128,-0.3510136348,-0.3640938587,-0.874411932,0.5310165977,0.5077316803,0.7962488891,0.5985837863,0.5709317803,0.2038809764,-0.5138906202,-0.2394085045,-0.3009668727,1.5650415697,-1.037915395,0.8427034373,-0.0533914391,0.4357401658,0.5306394108,-1.2134214064,1.3025238186,1.2039000363,-0.2066950677,-0.9602298158,0.0738896795,1.3445979232,67.2552475926,2.5038381597,70.9343615994,1.9244127319,-2.5141448558,0.6975058133,0.4507667629,-0.2052301658,5.9669516317,4.0444167599,12.6018246482,2.5571034253,0.4876274894,37.5075703353,0.2759962844,0.9031605623,0.069049579,2.8195503563,39.4196362807,0.1068078537,3.6091578446,3.9608440641,6.4476693322,3.8659506869,11.1643587048,1.3478511184,-234.3925845131,0.1824841718,-9.962513673,-934.2003553675,4.3105456785,9.4481409228,0.3007956323,3.5729287927,-106.5711493098,-1.2206870434,-903.0819905286,-894.6612034932,6.8676735857,-0.2716188357,0.8004416977,7.9157897574,1.7146613171,0.5998014564,3.2592798577,0.764451197,-91.1034886664,11.3412694285,17.2572879418,5.1401058298,-0.4477954987,2.0108243616,0.5498333345,0.4603013075,-0.4847193507,0.0905915724,7.2018922801,112.4702361169,3.1458671335,5.3173022345,1.994310614,0.7035161146,1.0417382194,0.2787495651,0.079862219,0.2083732572,0.8768834345,-2.6730568953,0.612284676,-1.0189346314,1.1399088818,0.3115149486,0.4729395245,-435.1174645506,-0.7812118435,-0.2830682309,-1619.223949876,-17.7590310377,-0.3177152167,1.3616457594,-0.2486240722,-21.5988236863,-0.8206811562,0.7972225864,11.506416104,0.5408316498,16.692433792,-0.5942134288,0.2155732363,-123.4472992273,-0.6271749167,0.6899649344,32.5851164766,-31.0207183215,-4.6151801307,1.2253309601,-0.626677214,0.0092597039,0.3129435224,0.1614971133,0.1060041314,0.8798326954,-11.2101797511,0.4263853482,1.6028143248,44.5839073785,0.8028100186,-0.3023597582,0.8627700258,-0.1206085474,0.1931599928,0.3154274639,1.4742949261,13.737501883,-0.0117801548,0.1520562935,-0.1275619871,-0.1109221837,-1.6977401294,2.19126638,-0.5926445685,0.0400015639,0.9851434547,-0.1126741453,20.7609372203,1.570162126,0.5751842048,1.5205098747,12.3552182981,0.5584808038,-0.1958270762,0.990323668,0.1215786975,-0.0755450086,-2.0487563794,-0.472412624,1.9132921045,0.0326678042,2.019606444,0.7613368322,-0.0666717193,-0.1518305313,-0.2245341811,0.1256101718,0.9485982371,1.0790099904,0.4180984872,0.8399749429,-0.728826994,-3.2259680776,-0.1579254128,-0.370867303,-0.4910032044,-0.763459331,0.7793110022,0.7686385635,-0.0441084613,1.0564696137,1.4668406702,-0.079993158,0.1388423152,0.1514635834,-0.3675583831,0.7418866479,-0.7690959091,1.0589492202,1.0570155815,-0.6327596159,2.8980420699,0.9612211738,-1.2221377634,-0.9524768085,-0.3576090306,-0.0010837473,0.6356399534,0.1428507049,1.7003141251,-0.0342902539,0.6261473122,-0.9164327432,-1.4782239811,-0.9913360105,-0.4786030076,0.1129665774,-0.6705025163,8.615505911,1.1350787342,0.948358791,0.6208347553,-0.3470905712,0.6288748683,-0.3647454622,1.2300469371,0.73897311,-1.1451302231,-0.3436447345,-0.1929058189,0.7331912696,-0.831193995,-0.850750394,-2.2694825225,-0.0180787137,1.0409000562,-0.757088088,-0.2724739607,0.0578928691,-1.0312520626,-0.4154693734,-0.0619360413,-0.5015380254,-0.9130900491,-0.0889767595,0.2962442463,-0.6197439089,0.3441378048,-0.4296438308,0.4215972769,0.1139118338,-0.2865624903,-3.9321207051,-0.8635600997,-0.1209636945,-0.3505855082,0.3437460049,-2.5653045292,0.5706845068,-0.9600615085,-0.498972678,0.4820605012,-1.2198971595,-0.8058677241,-1.0240742272,-0.3596758169,-2.3297144536,-0.530239151,0.4672200447,0.0822130437,-0.9492748434,0.7197020471,-3.3828997439,-2.9324379265,-0.2716494969,2.5169055587,-0.533774725,-0.272167531,-0.8975652959,-0.5261984594,-2.5097482902,0.0159612082,1.7888924083,-0.6980126751,0.1657109395,0.1112808067,0.4601585137,0.1804536784,-0.7364696501,-0.7127807616,-0.4238207451,0.4279934285,-1.0080043598,0.6491193706,-0.5266601454,0.5717235143,0.2578932061,-0.4366873839,0.2874371835,0.202487634,0.3757972367,1.2386619792,-0.1897234721,1.2466541032,-0.0275623504,0.4105783075,0.7586014815,0.4631525412,-0.2040072971,0.7777962488,-0.727086789,0.6180617309,1.1009387931,0.7269625263,0.5393923816,-0.7009467917,0.1852002118,0.813016661,0.3294235576,-0.4786849404,0.8534096559,-2.121026035,-0.1559012891,0.6423691753,0.0984039471,-0.4440174317,0.1223118773,0.8741166981,0.0729614649,0.8471284979,0.7098533335,0.8879009477,-0.5901667727,0.3458904013,0.910664068,0.9550897385,0.0139004059,0.5632592446,0.4481327827,0.3810802982,0.2935943776,0.1122268302,0.5354447086,-0.0582440384,1.0689628527,0.9520498444,-0.0308919789,-0.6686750119,0.8322762333,0.0826970397,1.0155797376,1.2809399024,1.1364800329,2.4990214505,0.0757885115,0.1672777156,1.1445663474,0.458471948,-0.0519226584,-3.5885056759,0.8258261928,0.4807922289,0.3643284273,-0.6484041407,-3.8120569672,-0.0026004827,-1.551620377,-0.0503188772,0.9311908574,0.2082245997,-0.3120724018,-0.4245194438,-0.5778356526,-3.3316684811,0.7028441859,0.4204232494,-0.3237396373,-0.6659588589,0.7920194906,-4.5493190918,0.278330842,-0.7150688428,-0.1975177448,-0.3200880311,0.6341362755,-0.6176108994,0.2564111772,-0.0832945279,-0.5108107629,0.0344969186,-1.1067815272,1.1211866727,0.2389515889,-0.9743043055,-0.6798331773,-0.1914749617,-0.4438360093,-0.2976343584,0.4276577057,-0.6584980663,1.9528853097,1.0352337384,1.074855497,0.599474461,1.1125769946,0.5558669885,-0.3760036372,0.1950013641,-0.6792592311,0.2394401901,0.4774267653,1.1462500053,1.1278270384,-0.8507868549,0.2705953045,-0.2550125285,0.1376408782,-0.5534981605,-1.0976548091,0.965453082,-0.1733486936,-0.8308148471,0.569808121,0.176343394,0.9513776857,1.8894669991,1.1418800271,-0.0011348838,0.8856192108,0.2306975076,-2.1119758294,0.0401247002,0.9698508951,-0.5359686696,-0.5769712745,-0.7751399556,0.0969978792,0.5940271046,-0.9069689691,1.4724321614,-0.0494272941,-0.0802160493,-0.4883300153,-0.8966485486,0.7301218264,0.5712877185,-0.2878004892,0.7827438326,-0.3188037065,0.8609795368,0.0627080097,0.3627619214,1.4124600583,-0.0131119745,-0.3651828323,-0.6114094483,0.9410835398,0.349290804,-0.4876981998,0.0895787925,0.2734418872,-0.3179731134,-1.7578088496,-0.5183915407,-0.048902471,-0.9284276401,0.1090708674,0.7470700021,0.4080982939,-0.3384848261,-0.0329945418,0.1029894557,-1.0623309679,0.3881815972,0.4595858661,-0.4986146657,-0.1955306991,0.340511949,0.878625443,-0.5859049761,-0.7068078977,0.8975831538,0.5855658861,-0.758691992,-0.6912630731,0.4103976338,-0.0262441342,0.4190861783,4.3486946162,-0.591329451,-0.7646331562,-1.0921379053,0.3942474,-0.1549365662,0.1875176182,-2.0930387502,0.0510144723,-1.0027706412,-0.7047577996,-0.1544729763,-0.4046380484,0.7521437765,-0.9256596522,-0.70626289,-0.945102502,-0.1084650159,0.1961312943,-0.7741825016,-0.9057763555,0.8244952812,0.3409091843,-1.2007960664,0.7638003607,1.0443092482,0.0619941333,0.6581471489,-0.9038814092,-0.6390076796,0.1228501788,-0.0632182993,-1.0563974289,0.2429162273,-0.6200908109,-0.6049754641
