encog,BasicNetwork,java,3.4.0,1,1615025124948
[BASIC]
[BASIC:PARAMS]
[BASIC:NETWORK]
beginTraining=0
connectionLimit=0
contextTargetOffset=0,0,0,0
contextTargetSize=0,0,0,0
endTraining=3
hasContext=f
inputCount=130
layerCounts=1,131,131,131
layerFeedCounts=1,130,130,130
layerContextCount=0,0,0,0
layerIndex=0,1,132,263
output=0.9061433105,0.0046065147,0.0581990244,0.0123804585,0.820399997,0.7938550237,0.9788037282,0.0011493706,0.744800765,0.0290817739,0.0000391392,0.0007501592,0.6528355944,0.0248469911,0.9547292107,0.5941878634,0.0556798426,0.8412548515,0.0022190371,0.1640376018,0.015676499,0.0189072783,0.9820547916,0.5051752205,0.0216668859,0.3079508929,0.6084330857,0,0.3306108106,0.0449880568,0.53929026,0.0263067334,0.9237124557,0.3897194611,0.9967465948,0.0145134482,0.4244910715,0.0588897931,0.0035235375,0.9884802801,0.9377832296,0.5205251283,0.1844160343,0.4177193394,0.0442661805,0.9938353729,0.0346237678,0.9969960848,0.0002348222,0.4363068893,0.6578312293,0.3850061082,0.9717819691,0.8437317562,0.3816068185,0.4623040517,0.9743069945,0.3804333184,0.911838819,0.3097361277,0.0099240716,0.2246320718,0.7397514235,0.1643278333,0.3165185675,0.9926341447,0.9996373727,0.0582274544,0.5971085784,0.0601652323,0.0242353958,0.7441083544,0.1317222399,0.8216657306,0.5021914055,0.0012233526,0.9723744473,0.7100118646,0.0404901755,0.9728062802,0.6830210642,0.0647614357,0.7009997642,0.9721864211,0.1616108616,0.016183066,0.0034064798,0.3791040812,0.9181408143,0.162214352,0.000341486,0.9301866883,0.9435645778,0.0008498111,0.0009812429,0.0528820448,0.1200847943,0.015169035,0.9796453247,0.3410125594,0.9972821355,0.9986625223,0.9969381577,0.1054777263,0.1901545487,0.1932949244,0.0155640145,0.8525743778,0.5728455545,0.9695946595,0.0153681514,0.1991520209,0.057918168,0.0056283939,0.1684132208,0.0658613373,0,0.358505781,0.0423329403,0.9054744769,0.0107991569,0.8681436138,0.982038537,0.0000000296,0.9881939524,0.9920902465,0.9534340573,0.8633225997,0.2312128674,0.6541017963,0.9628738772,1,0.9999991927,0,0,0.7411014937,0.0005419017,0.0033388365,0,0,0.0000128359,0.0089917108,0.0000001695,0.9999965147,0.1289510158,0.0001784296,0,0.99953737,0.0000008836,0.0000253346,0.3773227657,0.0019956152,0.0329794532,0,0,0.9632869995,0,0.1806683635,0.000121889,1,0.9855952758,0,0.9834334572,0,0,0.9995278786,0.9999999966,0,0.000001509,0.0000311424,0.0000506571,1,0,0.0043462679,0,0.9998446254,0.962996622,0.0002640024,0.0000022786,0,0.1770461515,0,0.4628273211,0.000087948,0.440785488,0,0,0.2180340945,0.0123535038,0.0173846071,0.0002823748,0.0473250053,0.0001349245,1,0.9935682253,0.000418395,0,0.9729586828,0.0001994003,0.0032963321,0,0,0.0000025491,0.0000000333,0.0002354286,0,0.4311439109,0.3210925793,0.0369261168,0.0018064364,0,0,0.0000000066,0.7763834476,0.7239016768,0,0.0212847845,0.9251426395,0.0004211274,0.1859840143,0.0077828995,1,0.9283131381,0.021382043,0.0004878978,0.0000006787,0.0062741074,0.9999895334,0,0.7049607088,0.0503043547,0.1978899196,0.0031972844,0.0000100568,0,0.999999998,0,0.0005532145,0.0000000126,0.43268913,0.0043040677,0,0.9874504793,0.0015002452,0.0000225747,1,0.2083737117,0.000000622,0,0,0.0002928427,0,0.0071781483,0.0483316445,0,0,0.9852236066,0.9999965044,0,1,0.0003505398,0.0000000001,1,1,0,1,1,1,1,1,0,1,1,1,1,0,1,1,0,0,0,0,0,0,1,1,0,1,1,1,1,0,1,1,0,1,1,1,1,1,1,1,0,1,1,1,1,1,1,1,0,1,1,1,1,1,1,1,0,1,1,1,1,1,1,0,0,0,0,0,0,0,0,0,0,0,0,0,0,1,0,0,0,1,1,1,1,1,0,0,1,0,0,0,0,1,0,0,1,0,0,0,0,0,0,0,1,0,0,0,0,0,0,0,1,0,0,0,0,0,0,0,1,0,0,0,0,0,0,0,0,0,1,1
outputCount=1
weightIndex=0,131,17161,34191
weights=##0
##double#34191
   0.2295396931,-0.7394283116,0.7696919946,-0.8892650852,-0.8569140012,0.1991498108,-15.8171363022,-0.357642665,0.0799648507,0.0136859514,-0.4431635334,-0.1263110947,-0.2908045757,0.332966625,-0.3864912271,0.262456574,0.1563039178,-0.2544687523,-0.0917981491,0.1455916321,0.7487041906,-0.7601414334,0.2239420433,-0.6859392423,0.5486736289,-0.0861428869,-0.0033183452,0.8940843013,0.4979189478,-0.1028266023,-0.9699392259,0.4213634519,-0.003844462,0.5952645718,-0.3392438539,0.1381992704,-0.5761480289,-0.281824322,0.7798942079,0.968916963,0.3395796976,-0.8167695553,0.7889572112,0.5125044247,-0.7695607101,0.0456594505,0.5195049777,1.6013048368,-0.0566469979,-0.3188544952,0.475945038,0.6589876071,0.0444356297,0.3469315134,-0.158532406,-0.7056668318,-0.9601623229,0.1730805287,0.4178375161,0.2350644068,-0.2468781525,-0.4039701604,-1.3106392646,0.0928969978,0.4885136453,-0.1358040148,-0.2696440075,-0.5682051325,-0.5951816449,0.4893556592,0.3743284294,0.1485856806,0.5411523076,0.5424193437,-0.7436315915,-0.8164584683,-0.7556635105,-0.4714497673,-0.7489801924,0.3427804679,0.2889139008,0.6251324175,0.3363296506,-0.857890506,0.0591138712,0.8513219053,0.3090069844,0.6121186869,0.0962962689,-0.762216931,-0.5305500296,0.7156601601,0.5134621657,0.9439602714,0.5567015403,0.4329981656,-0.6622068904,0.4833554119,-0.1783862078,-0.7668704448,-0.9082395105,0.8411998175,0.1462674285,-0.8660995458,-0.629855518,-0.2912101492,-0.479384628,0.8909550145,0.5698292597,0.4279236409,2.4180345281,0.5001870721,1.432580299,0.3362656096,0.1699491019,-0.009618144,0.2621061524,0.6847100314,0.2142299412,-0.7765887456,0.9591465725,-0.4102309627,-2.3198509373,-0.8120623183,0.7052790209,-0.601816169,0.4350640299,-0.1580620346,-0.3086166373,-0.4051746426,0.6527866436,0.2896420423,-0.2706149937,776.9994372546,-0.639511088,-0.2282503503,-0.6787060599,0.3137623935,0.0032703229,0.1020922445,-0.8223013016,0.3080010511,0.5442897568,-0.2831040397,2.0994792634,-0.6066083372,-0.4846051829,-0.7366587918,0.0435641942,0.177393121,-0.455561304,0.928976878,0.1405586409,-0.7160351856,-0.7800417639,-0.4794347839,0.7032664377,-0.7525677189,0.1653695314,-0.9168535454,0.8344278831,0.6282904806,0.8483606041,-1.3453190677,-0.2382158369,0.1140898821,-0.9567709567,0.6229523198,-0.3521861438,-0.5110428601,0.267989324,-0.6081378606,0.7024609517,0.8086289539,-0.7362458437,0.1400523736,-0.615042994,-0.3417544635,-0.5851692443,0.5940578331,-0.6415662445,0.237209897,-0.3506746248,-0.7811974877,0.461905175,-0.2869204313,-0.5060542193,-0.3595499367,0.7091941271,0.2238413744,0.434421654,0.0481986063,-0.5518104882,-0.8646003192,-0.2259931336,0.0556946318,-0.5133042014,-0.0481896482,-0.1483645762,-0.4321891064,0.7766245744,0.427124857,-0.3263019555,-0.1185852745,0.1425022259,-0.6198900317,-0.9597380514,0.2575163735,-0.4775815126,-3.7188685911,0.3082814205,-1.6628337737,-0.9150724328,-0.4325065912,-0.1649272692,0.1860838159,-0.9240335647,-0.6892182534,-0.0444057437,3.4273492281,0.1145834446,0.5997346451,0.792750256,0.6376974689,-0.5092136282,0.9581841789,-0.0801609635,-0.0660167818,-0.4253416791,-0.1202596077,-0.6992517026,0.0035481403,0.7201587588,0.3510761991,0.4742317274,-5.8358340721,-1.1349298423,0.8606626297,-0.0687391517,0.2521593866,-2.5551640123,-0.4582362379,0.4200715655,0.6871392162,-0.434006218,-0.4281623414,-0.8097550125,-1116.8590736759,0.8780275734,0.6037076814,-0.0692695138,-0.4640565665,0.4312237047,-0.3991596289,-0.4958865923,-0.0292075865,0.6926127197,-0.3308044885,0.6703082892,-0.66691392,-0.5836780675,-0.5491989972,-0.8593767968,-0.1087975131,-0.3312566666,-0.7097657105,-0.8091054854,-1.5050854135,0.2995244553,-0.4043503266,0.6437713331,-0.3444514353,0.9278292297,-0.6423178597,-0.162074915,0.0602829539,13.0182234783,0.0213561843,0.4338866434,-0.7755630705,0.1333028976,-0.8870709347,0.0631952231,0.7039553174,0.2257497698,0.8611092543,0.4758554636,-0.688706618,0.3778893392,0.0037869939,-0.1370115232,0.769820021,-0.24843622,-0.0310140665,-0.3613030784,0.1374117691,-0.4842818706,-0.4264549117,-0.1961229526,-0.4320195218,0.3638256723,0.0820194497,0.2064601135,0.4365028781,-0.5737088544,-0.4296219658,-0.4863832752,0.1443468949,0.5895031761,6.124924748,-0.7616787055,-0.2100553355,0.8478672119,-0.6328759031,0.4285049679,-0.5672101362,0.8620105182,0.6472349462,-0.3773321593,0.1877504011,0.5243231063,0.3132041424,-0.5418485174,-0.2538001774,-0.6438633567,0.2047238982,-0.969139368,-0.6691803644,-0.0960041644,0.3653749275,-0.3465576907,0.246024327,-0.3283572411,-0.1651238669,-0.3098406311,0.2771502617,-1.7977398106,0.5963405368,0.5718362402,-0.0917312173,1.3409528312,-0.8470490359,-0.1097056904,0.7768920814,0.2172337518,1.103637139,-0.2958805109,0.2474681065,0.9334588645,-0.5559049699,0.4539822116,-0.6689436696,-0.1389735994,0.9097164544,0.0420482264,0.7342133045,-0.3126704565,0.7894153831,0.7015032609,0.9416476704,-0.721353708,-0.8581177596,0.5020314252,0.0554219106,0.8480672171,-0.4030140617,3.7245327628,-0.5522926175,-0.6130846847,0.8471096485,-0.7470594921,-0.5628821042,-0.0867608839,-0.8937995532,0.5342718631,-0.3300144902,-0.506450863,0.6902619772,-70.2856046066,-894.2050640634,-0.6463619872,1.042996527,-0.9236036917,0.8538594035,-0.3633249721,-0.0662563562,0.7985887613,-0.929467377,0.5828914677,0.5262395835,0.4257333951,-0.6372211679,0.3301927113,-0.6944362442,-0.6907831387,0.7888985708,-0.786890456,0.3883143827,1.0378982702,-0.2384077518,0.1732650118,-0.8995891791,0.0426187889,-0.467203954,-0.2755735341,-0.8803420777,0.3590340614,-28.7912720236,-0.2718749909,0.22948945,-0.1545239662,-0.0658262769,0.2375978655,0.5579134051,-0.3025700232,-0.6934746826,0.3540817269,-0.2126991431,0.6264137789,0.1884892341,0.2444136961,-0.2944888941,-0.0417885307,-0.780763399,-0.2419494754,-0.1973042867,-0.1261563881,-0.3369524113,-0.0023399259,-0.1490486835,0.6168288002,0.5293383061,-0.3720029573,0.8542665687,-0.6697031701,-0.2901513637,-0.9219088166,-0.7756588962,0.5976791998,0.9728396597,-3.1551400272,0.438800068,0.7982168283,-0.9237569665,-0.5818270493,0.2483987994,0.0600918068,-0.6020942374,0.3736583609,0.365287736,-0.3368846868,-0.9396984566,-0.2311956388,0.8523644759,-0.8881233095,0.7650294572,-0.5614579761,-0.3119381854,-0.4456637829,-0.959802092,0.4996259792,-0.2421879346,0.2523092435,0.5471275304,-0.4682077317,-0.6027396956,0.800847204,0.4335237639,-0.1738762203,0.9324835318,-0.8130107975,-67.7861412362,-0.8422034074,0.4083316395,0.1004487325,0.6998110606,-25.7271065863,-0.5709549032,-0.8506169236,-0.8427079159,-0.1744152149,0.5492809735,0.6019554581,-0.7575195731,0.3087038363,0.3653486436,-0.5782861292,-0.5414941861,-0.1661954933,-0.7380837785,-0.7134454255,0.2014633926,-0.5994994791,0.8200463677,0.2232855563,-0.5407530698,-0.1256945119,-0.0200700749,-0.3527441332,-0.6114418786,-0.8501454059,-0.0544861591,0.423763346,-0.3573712785,0.9151565715,0.5585232604,0.8442036139,-0.0114871152,-0.2474065987,57.2149029217,803.7769527279,-0.1782965331,-0.407031984,0.3959996959,-0.7406079778,-0.5475665124,-0.6473001756,0.7863324777,-0.1402256294,0.7560102113,0.8801241069,0.2129488859,0.2261536368,0.632777906,-0.4779999966,0.7412031657,0.4047958778,0.5769904268,-0.41238073,0.6852329547,-0.1123049785,1.0843003272,0.7481863727,-0.2810850715,0.1136833599,-0.2274251122,0.0936779106,-0.782898754,71.6079342474,-0.504437138,0.3171000499,-0.5089476278,-0.4863173928,0.8071333808,0.6363883877,0.0478978799,0.3118122026,-0.1664692278,-0.0386359552,0.6630464559,-0.3170658984,0.4119905957,-0.079092052,-0.58660125,-0.2299101715,0.9320521026,-0.9785235044,-0.3909575988,0.608079702,0.3072729601,0.4741731797,0.2389774769,0.8151173251,0.3275651354,-0.7580509365,0.8812025619,0.6343909616,-0.0123222836,-0.5529038666,-0.0912779542,0.5789621976,0.9370527028,0.8068766434,-0.04730738,-0.7144535398,-0.1040673996,0.3063257862,0.701772308,-0.3743303625,-0.109520271,-0.7964264785,-0.2902029999,0.6921857283,-0.1404203851,-0.4007848206,-0.7894176512,0.104589196,-0.1267822839,-0.7490446032,0.591695469,0.5679625025,0.1602606787,0.3143165455,0.8843288864,0.3401313345,-0.2332923844,0.3492250133,0.2253730473,0.9179223494,0.0253960834,-0.9836176481,-0.2539416866,-3.0118418002,-0.6142748592,2.6102189366,0.4220581836,0.4128967168,-1.5176536092,-0.1836631723,0.3430465936,0.6852982404,-0.8899220026,-0.0565880333,0.085074962,-0.1192718424,-0.9076718673,-0.1366267056,0.1285906376,0.9351484044,0.2589125548,0.6581913156,-1.0010573825,0.7822740127,-0.7161436379,-0.268210789,0.8059444139,0.9199007313,0.7642334938,3.2775644794,0.3383867185,0.839559567,0.3612862106,-0.0122808674,0.133455334,0.2014882764,0.3903619644,0.9669470952,0.7105933055,0.3290182881,0.2909021111,-114.2949956705,-995.086262268,-0.3784191641,0.724017022,0.9497362303,-0.7537150463,0.1206298309,-0.8660165189,0.4667297541,0.9597037056,-0.2920983237,-0.57365661,0.1935260632,0.5019453353,-0.6814604944,-0.1499991411,-0.4953833085,-355.0042525032,-0.1882859543,0.5867103983,0.0072389083,0.1990019065,0.0826921468,0.0799449001,0.138152702,-0.4456435787,-0.6665175074,-0.6172224098,-0.8664155555,49.7292104423,-0.6508013817,0.0319267559,-0.5952433553,-0.901950112,-0.1579402962,0.9502139839,0.4251040768,0.776657416,0.1461093024,0.5976729477,-0.419118434,-0.3710383006,-0.3774795364,-0.6374325993,0.880128952,-0.1321182452,-0.0065229143,4.1083285371,0.3624426739,0.1480673264,-0.244214158,-0.1321856884,-0.8299801025,-0.338741238,-0.4405632357,-0.3234860415,2.5346086442,-0.0094995573,0.7514421808,0.8130282332,0.1509849288,0.7535828337,-0.5260256927,0.2449539597,0.0745019653,0.410604013,-0.446260258,-0.7027090121,-0.049488712,0.9214105474,0.0025062404,-0.1248459362,-0.6616062628,-0.6127781012,0.8890137129,0.5725507495,-0.2633939947,0.594602856,-0.0344336536,0.0658548433,-0.7489755089,0.8646783991,0.0976187321,-0.0924165921,0.7813327935,0.1339906747,0.9240070445,0.8745581299,0.5246471805,-1.2646757476,0.0326900925,0.1119203962,0.8353327779,7.5715826544,-0.1328276818,0.1059271777,-0.9259356514,0.3180354749,1.003131341,-0.1324914858,0.8840931368,1.3573437508,0.5247447602,-0.8451705369,0.7328984531,0.6074976691,0.9044138929,-0.6980562478,0.2402074526,-0.2544219227,0.2126511269,0.7240982027,-0.6858310714,-0.5944606875,-0.4306521742,0.7250925771,0.8302163087,0.0027491792,0.8731310793,0.6045458286,-0.3030597657,-0.3330184889,0.5307713166,-0.3852059386,0.5412811936,-0.2482592823,0.8396430343,-0.3007583446,0.8120959152,-0.0504710916,0.9193511581,-83.3532728789,-521.6655585602,-0.1701003824,-1.2938269518,0.1626417858,0.8688754373,-0.2642857126,-0.0227867836,-0.8331730263,0.1479490202,0.8049453815,0.4419088182,0.2961500901,0.0036338756,0.9551404063,-0.4575415321,-0.6122582679,-55.7342619868,0.771035913,0.5225859321,-0.6994814572,-0.341883749,-0.2192317184,-0.1587664589,0.0569011877,-0.0469947513,0.1428930753,-0.1053628597,0.7047407992,0.7527833504,0.5645315281,0.6505850022,-0.3209439952,-0.4762299742,-0.0866398609,-0.8169069662,-0.583878701,0.7892189066,0.4050870368,-0.3912269137,0.9306439272,-0.642001723,-0.286190229,-0.2416567288,0.4262475118,0.2350840577,-0.3520359763,-1.7647715285,0.7685879842,0.5777737486,0.5187784461,-0.3823393787,-0.43501576,0.8423107167,0.5250702101,1.7110852439,-2.0689876575,-0.3371164598,0.3147336399,0.2375364374,0.5938596392,0.1202999197,-3.8885554549,-0.5016465575,0.6850851323,-0.7655845342,-0.2686975111,-0.6975628695,0.8689590991,0.1534268478,0.6312167401,-0.3815127796,0.5441467506,0.4518377553,-0.4715073405,0.6983438082,-0.6132138191,-0.174462772,-0.7836496892,0.7460574471,0.1792725491,-0.7077560871,0.0789339773,-0.7442529056,-0.3955945292,-0.1428785897,0.5526953365,0.9037979667,0.3566493824,-0.0146968264,-0.6054207439,-0.0908316728,0.6737942769,-2.7684958709,0.8421787142,0.6987526137,-0.4329866455,0.55939959,-0.8968461238,-0.3974753037,-0.6459043941,0.1559042178,0.8874812716,-0.9631428406,-0.2958685346,-0.2891010672,-0.158178146,0.7210552962,0.6922461386,-0.0850557295,0.3812501274,0.8554281116,-0.199478453,-0.8519921252,0.4816925999,-0.7823550992,0.2060091588,0.6432683795,0.2178339626,3.0916206841,0.0491587043,0.3896763651,0.7439708467,-0.7328817221,-0.8661990755,0.7309732232,0.0836673449,-0.2133848817,0.2038251414,0.8455934619,-0.6625808223,161.6521183133,66.1395521122,0.5141348717,0.9802416621,0.2020364159,-0.0359859492,0.4371702226,0.5020191237,0.8498423048,0.722057493,0.5737488592,-0.9651845556,-0.4587279132,-0.0337432097,0.4322628592,-0.6617773033,-0.8771093141,-6.7969513591,-0.6274634681,-0.8632274065,0.1410362593,0.5335906034,0.0846532552,0.8234401394,-0.4870973528,0.8164416222,-0.7998750243,-0.933520223,0.0569732376,8.785707227,0.9200980195,-0.4899190455,-0.2601623796,0.0235839078,0.9493003969,-0.6189610072,0.8092830671,0.7850779778,0.7231929782,0.1144076957,-0.3954677466,0.3733339948,-0.3868551109,-0.5802197937,-0.3471624044,-0.3377918773,-0.3530961068,-1.8550451397,-0.157404438,-0.3147771267,0.0504400895,-0.3975303543,-0.930017413,0.7459236876,0.4528914265,0.054220967,-0.5699955897,0.7547096465,0.178366042,-0.1151767363,0.4361388066,0.7624403781,0.5359288221,0.7646928382,-0.8520307984,-0.5253071904,-0.3095350358,-0.4975270571,-0.5813533358,0.5899699247,-0.7417929929,0.4702179022,-0.2650293876,-0.8431845128,-0.3114921729,-0.5409875816,-0.5282150094,-0.2022664164,0.7684537731,-0.9885761473,0.3153581646,0.661142319,0.6751613601,0.4118363158,0.9232256203,-0.9163237587,0.4870823439,-0.4804964572,0.3468766854,-0.9135523868,-0.5646245828,0.3602211576,-0.8963579883,-7.6214999324,0.645734925,-0.5173900438,-0.0185161212,0.0307753957,-0.1011573238,-0.7160201433,0.0042325562,0.8221588408,-0.1196093919,-0.8444281339,0.3560105439,0.0549829179,0.924898055,-0.4205669582,0.1250171846,-0.404604835,0.2792202888,0.2937069651,-0.7021520017,0.6167498508,-0.8956848406,-0.2323196206,-0.9334898684,0.4379070395,-0.8949473555,0.6102238047,0.6696578984,0.6101516003,-0.8637480675,-0.6294969753,0.7543782115,-0.0552036155,0.7376077743,-0.8277889322,-0.0130034305,-0.7442652785,-0.9005507575,-17.2430980961,-523.7584220082,0.5443496109,0.2237024522,0.7634330667,-0.5827042087,0.2865512016,0.7944527756,-0.5434629562,-0.1588318379,-0.3902605076,-0.7441695533,0.4185748448,-0.9403415102,-0.5963916292,-0.5625544225,-0.5246312592,-38.4972326381,0.5685320289,0.1589494835,0.6955951356,0.1779631198,-4.2420714496,-0.6534595405,-0.8024883263,-0.0031127382,-0.6628453453,-0.882725384,0.3710630674,2.1540726711,-0.621268689,-0.4705285601,-0.91377546,0.089527046,-0.3908544073,-0.1000366997,-0.0005330917,0.0014928562,0.1867219214,-0.42140037,-0.9230146761,0.47900324,-0.5775661842,0.2814949844,0.5322323654,0.2990485559,0.6983314426,-1.642633257,0.2773924029,-0.1366781826,-0.8292818077,0.474522766,0.6853193967,0.2601022755,0.9086970702,-2.0621246664,1.2823316207,-0.4997831333,-0.153364459,0.3174493798,-0.0637214303,-0.3761663528,-0.4098398295,0.1195332264,0.7895555641,-0.5502505185,-0.4933638896,0.514708783,0.9428525126,0.8874478543,0.9011648859,0.7904968064,-0.1796986996,-0.966668079,0.0407814619,0.1517689039,0.5698254258,0.4894929212,-0.557696602,-0.5244659054,-0.566485798,0.5100650014,0.8280668183,0.7037460275,-0.1073146953,0.6508800212,0.7740022156,0.0672198147,0.561412431,0.1208014372,0.5590585291,-0.2557056256,-0.3869785577,-0.5951242359,-0.6898963322,0.6836242477,-0.8200773678,-0.0776629936,4.0778454006,-0.0490754192,0.8610560235,0.8458186018,-0.799416584,-0.412552053,-0.043336968,0.543364848,0.1291278109,-0.8838545775,-0.5869486747,-0.191017482,-0.8456425415,-0.2144007434,0.5335363887,-0.9414252255,-0.8017722664,0.5446776923,0.5739669733,-0.9564890794,-0.2760584112,-0.0591950025,0.1472896145,-0.3745690573,-0.7088091662,0.8048791972,2.0765055109,0.5577380899,-0.8613157135,-0.2195294092,0.0643422739,-0.3701986943,-0.3394017531,-36.5806523219,-920.4578413403,-0.0696026358,0.472580569,0.0131945098,0.4760478664,-0.5789545667,0.6032835174,0.5765316382,-0.0625216305,-0.5145513337,0.3579110099,-0.3021702679,0.4883654443,-0.1398994211,0.7354752783,-0.5479855133,217.8500515135,0.5118257103,0.2289949124,-0.0638598852,-0.3440418902,0.2074055136,-0.5757150475,0.5722787498,-0.1076408263,0.7536924682,-0.3270360237,0.5090023152,-0.777288959,-1.0616237775,0.8872911192,0.6269332279,-0.8530122957,0.4468456269,0.5337090864,-0.0190683251,-0.2169940472,-0.9240395718,0.029100561,0.6233301046,-0.9939999166,0.76529728,0.4579285067,0.8392164951,0.3301972554,-1.0200310386,-0.0513835293,0.2388468615,-0.4451274653,-0.8075389075,0.6575459121,-0.0144245854,-0.7707888131,0.0941044031,1.6017122692,0.2030854358,-0.4344470353,0.6427302446,0.6981354188,0.419340949,0.3089365493,-1.6816288826,-0.9714769371,-0.847519065,-0.7446175381,-0.7151796323,-0.4893356592,-0.4355948862,0.391936205,-0.3643860724,-0.0104311815,-0.6646639396,0.6790825212,0.5153915962,0.7052300562,-0.447189073,0.5221335746,0.7478904258,0.7156838181,-0.6680561075,-0.0951144044,-1.0686087221,4.0530858319,0.2470753972,0.2891438917,0.4567897053,0.3364924182,0.2865324033,-0.3360220372,-0.3605708455,-0.7711674882,-0.1129880055,-1.1954296918,0.174338798,-0.4106708992,0.5384390095,-0.5346491952,49.9427066544,0.1091244408,-0.8874547412,-0.2356495037,-0.9748265335,-0.4393657732,-0.6188124655,0.6719445035,0.272562027,-1.0531614858,-0.8829146224,-0.2611738337,-0.9929521537,0.5297132406,0.5280677698,-0.0731358079,-0.9142735963,-0.2089804074,-0.8376754089,0.184324921,-0.7972967415,6.3011915027,0.3189314669,0.5033191849,0.3749676921,-0.1724521827,0.8681587435,-0.983766579,1.590200521,-0.5855929048,-0.8773688726,-0.4376637522,1.4525773674,820.1536415865,0.2455517139,-0.7048661804,-1.6716815615,0.5818052028,0.1422047935,-0.2850392205,0.5380497097,0.2607951193,-1.0362244011,0.5807863577,0.4839914831,0.0660932159,-0.7603319695,0.3547806686,-0.2101210167,0.3632763518,0.2043969598,0.2685647557,0.4308057344,-0.3397314778,0.1009322013,-0.8624613698,-0.1798376582,0.6149899066,-0.5430466564,-0.8106594154,0.1963065123,0.023095785,-0.7300888318,-0.8185409215,-0.2524761875,-1.0080381045,-0.9458051277,-0.1222780434,0.0859779009,-0.0013897998,0.770588052,-0.224758909,-0.3009707296,-1.0245950993,0.193594328,-0.2249532946,0.2992864461,0.8369690429,-1.0220417146,0.24175606,-2.0713607874,0.1728030635,-0.1409869096,0.4031728695,0.6919095326,0.0966334998,-0.9248354174,-0.9175812468,-0.1601016799,0.3406010558,-0.7597178483,-1.0691395477,0.2269899542,-0.3478563189,0.3994659566,-0.4816130079,0.752157249,0.2711601148,0.55523071,0.3557588079,-0.9000845795,-0.0004947422,0.6326434782,0.1722909285,0.1607835693,0.5203782779,-0.368794495,-0.6462878881,-0.7238926745,0.3658745215,-0.3612252421,-0.9615628287,-0.9406437133,-0.8873237873,0.5958886825,0.4002992502,-0.2170140545,-0.0497336188,-0.025881612,0.1817722026,-0.4805640818,-0.1026639121,-0.3718233082,0.6087051207,-0.1633777549,-0.08269762,-8.9032311649,0.4679490963,0.1769963054,-0.9478220898,-0.1224043969,0.4878103307,0.0615944669,-0.134313678,-0.020801396,-1.0324399822,-0.4111854044,-0.9992886654,-0.6286172769,-0.6867726932,-0.7785516651,0.5888686702,-0.4271842441,-0.4125888162,-0.1485478476,-0.7489581337,0.3214828963,-0.0799568497,-0.9815406286,-0.8966139335,-0.6379498941,-0.0638967961,0.9822621172,-0.6014883683,0.3013117452,0.7647685902,0.0957768399,-0.9819128237,0.0316636823,0.6874219508,-0.488051603,-0.3382500317,-0.2971906203,-0.2385762323,119.1136912177,0.3335544122,-0.1778027467,-1.0857155877,-0.2601395416,-0.5306013675,0.0004020073,0.7403052284,-0.4100740587,0.6186293471,0.8134247625,0.3044672818,-0.8858931184,-0.7351902285,-1.0010681382,-0.6690211383,0.2185324907,-8.572552008,-0.5082391316,-0.5742833136,0.7855581921,-0.9709411997,-0.1483490692,0.346094186,0.3152882382,0.2286024978,-0.7615483243,0.4927787628,0.0311782721,84.2441549186,-0.4983959994,-0.3284413358,-0.3991968747,0.3815021227,0.5020274323,0.1984333741,0.3354914874,-0.3802017686,-0.1452855662,-0.3860853892,-0.0384277741,-0.6353775702,0.4271908548,-0.5928601231,-0.7429041018,0.0544464105,0.2557277156,0.4041065048,0.8397061951,-0.6704691652,-0.503348948,0.5456456506,0.4838922643,-0.1589963791,-0.4649590535,-5.1533928996,4.9707518728,0.295652496,-0.4034945884,-0.3533219344,-0.9027864655,-0.7067080494,-0.9153827886,0.8148382318,0.7324668559,0.4380923458,0.7290821139,-0.6962486298,0.1338997183,0.8784107557,-0.971528165,0.2412870513,-0.787699706,0.142878825,-1.6773853493,-0.179557419,-0.4129139107,-0.0266710455,0.1276998896,0.7794000756,-0.9650715036,0.8387863588,-0.5360419669,0.7540138551,-1.2351074062,-0.605598123,-0.221914401,0.0091177708,-0.84431989,-0.881830021,0.2289627445,0.6267595236,0.7537785491,3.5831247291,0.4199798501,0.4460248534,-0.2610086728,-0.3926597137,13.3915263251,-0.6557314155,-0.0617084952,0.6334492463,-0.8432029519,0.4251173036,0.6720038785,0.6374231252,0.6616942229,-0.6072735836,0.5901877295,-0.0851352821,-0.8461625476,-0.5221643743,-0.5192069173,-0.1444328787,-0.7352293372,-0.7150866688,0.4494725328,0.9773456183,-0.613666669,3.6619825984,-0.848165775,0.0542478192,-0.4777950304,-0.3547279232,-0.7985581501,-0.5967336693,0.2815723425,0.9284226485,-0.962690197,0.8689007106,0.4803125865,434.4085910416,-192.7399821281,-0.4065863922,0.0850515409,0.5373163601,0.9513018498,-0.170259023,-0.6566288379,0.2241287767,0.5243419643,0.0838766277,-0.0391439614,0.7979236061,-0.1075392875,0.3217035293,0.6675380541,0.6902921214,-55.2811473434,0.0288732161,0.2816092941,0.8290822853,0.7005839356,-39.8447291877,-0.0795594003,-0.3180711684,-0.7335304883,-0.1838428883,-0.0866041695,-0.7690708772,0.1816702673,0.5553692389,0.4452244673,0.5265859158,0.0007910462,0.7592260361,0.0652901053,0.8873855236,0.0850209381,-0.8738795561,0.8170203837,-0.7426193099,0.8672896386,-0.3751949393,0.8917628043,0.831005136,-0.7708195234,-0.2697972911,0.5793489569,0.0797865868,-0.9618124062,0.7065289519,1.0206384497,0.380154171,-0.2023553786,0.649179308,-0.3509765439,3.8472216559,0.1801529462,0.1890527223,0.3240413925,-0.2439583717,-0.8622660798,1.6199487262,0.7303344375,-0.4341367462,-0.2583255857,-0.9225052201,0.5508424699,0.5677133569,-0.6076194795,0.1136636516,0.0213322557,-0.5993664708,-0.4481635142,-0.3800420196,-0.9461579348,-0.57140637,0.4859199655,0.4906040814,-0.4722409875,-0.6790916676,-0.1648623572,0.8160725949,-5.3673270554,-0.2945343662,-0.2698884155,-0.7519721824,-0.8738951209,-0.9065934712,-0.5320836808,-0.7425132469,-0.4261182304,-0.8724137688,-2.0304265908,-0.6126380425,0.3944683743,0.863564564,0.049527266,0.4011415345,-0.5982993183,0.8384463104,0.0847376814,-0.3838923021,-0.4588582791,-0.8728494085,0.8342757192,-0.2536460202,-0.1673305377,0.1332903974,0.0408892247,-0.8145653501,0.7313246923,0.0459312396,0.3554062012,-0.2264697302,-0.5541330846,0.8535363845,-0.7015335515,0.3031975161,8.3513952988,-0.3423441117,0.1908686431,-0.8268425604,1.9582075686,-0.7355665928,0.1941735509,0.1409798539,1.2612961139,1.0531834275,-0.979877071,0.8661862742,-1230.0951910525,-24.2424997186,0.227582112,-0.5795852785,0.4464474386,-0.659838731,-0.7931444097,-0.8250273146,-0.5471844331,-0.8594383938,-0.5003734369,0.5340399409,-0.5481338799,0.1494458537,0.9257257279,-0.7577572673,0.5543290928,7.5245076985,0.5847382562,-0.8542195232,-0.2157267645,0.5086122458,21.8915306953,-0.1638833424,0.2182145623,-0.4561102626,-0.0678915993,0.3210970449,-0.3713296013,0.4607382617,-0.2638814298,-0.4953421315,-0.1982218641,-0.6139364211,-1.0660353494,0.6587042433,-0.2321315631,-1.0655830357,-0.8572169539,1.2390542242,-0.9074026719,-0.8673353134,-0.5729289218,-0.4532180026,-0.7785644624,0.2766072917,-0.8727500556,-1.5305658944,-0.2343577979,0.1322328609,-0.6438595907,0.0049913651,0.8580679261,-0.0190802224,-0.1212918418,-1.4483638896,0.9665870848,-0.4926905334,0.2326767334,0.6320070083,-0.8468050417,-0.5253538477,0.2468537259,-0.4165597182,0.097700863,0.4339072283,-0.1149041554,0.2842881588,-0.7483764783,0.1254382531,-0.1421712102,-0.9116375084,0.8551194358,-1.0515189983,-0.9032469816,-0.7689941007,0.8202946061,-1.1285251861,-0.0231100764,-1.0041752155,-0.7873027029,-0.9699728093,-0.7718497784,-1.8068871613,0.6174193892,0.4492533536,0.5039088219,0.5870045849,-0.7875323268,-0.115443284,0.2071660158,0.0066118987,-0.1764985167,-16.7357717792,0.6054186759,-1.0132669468,-0.7714477417,0.1850826944,-0.2490193533,0.0937616275,-0.9724696511,0.4676297097,0.8060362491,-0.5752088532,0.2724868118,0.3340748339,-0.7899600763,-0.2605616928,-0.0198422941,0.4991717117,0.2031967109,-0.620887566,0.5023289785,0.8607020402,-0.5778164132,-0.6901717802,0.3447439452,-0.7819031277,-0.9510289504,-0.0561339046,-0.7662686422,0.4315081717,0.2630484967,9.2015992825,0.9166506583,-0.439003784,-2.8905205066,0.7212473401,-0.7732754641,-0.5665871255,-0.6334558406,-852.7101597229,-0.4805417268,-0.1805764584,-0.0221841124,0.7686540794,-0.5745148306,0.0811374733,0.013985625,-0.0945860268,0.6994753672,-0.7151341235,0.666387838,0.3565607682,-0.8066006348,0.1835594451,-0.1923977209,-0.3925803044,727.298813917,-0.1251650906,0.33726903,0.353283804,0.8509381579,-12.2761337647,-0.6184524859,-0.8323520903,0.7227527017,-0.2252614231,-0.9403864902,0.9195712228,-1.8518215443,0.2063948477,0.6606088723,-0.8174344605,0.3231602365,0.1579176312,0.4241199285,0.6521701055,0.8627717222,-0.3931107364,-0.5232270789,0.1536224144,0.4857599714,0.805365522,0.3010491341,0.5390177241,0.0404220674,0.4084269445,-0.8088699831,-0.3255826451,0.2218879638,-0.5528772646,-0.8739226165,-0.0673380151,-1.0603786859,0.6186294467,-0.6679419988,0.2624746775,-0.3865182183,-0.9397063734,-0.7019750816,-0.0844363977,0.6792571013,0.1263865553,-0.350348092,-0.8350654125,-0.5245247192,0.59548819,0.242227437,0.5896165635,0.7105219984,-0.8788420776,0.4171193044,-0.097928113,0.8770728713,0.7839219498,-0.7802031469,-0.045607397,0.3227699929,0.0753913388,0.3635592759,0.8001161338,0.9296158035,-0.9125897099,0.2399422996,-0.6544702976,0.8005634098,0.247679994,0.2182678183,-0.4951074574,0.4858946638,0.5921339325,0.8016981266,0.8699387737,0.663808689,0.3052374387,0.7799725628,0.2415382306,0.8381967768,0.2243893838,0.26293907,-0.140294077,-0.5163414799,0.8831937533,-0.2996111371,-0.8635145589,0.8175574239,0.1425785638,0.4860012308,-0.2202607012,-0.5172944691,-0.1138968751,-0.443011964,0.3983633618,-0.0853531737,0.370671705,0.4461572392,0.1066844789,-0.6533903119,0.8737585457,-4.9589105972,0.1363493101,0.4225834112,-0.5872853396,-1.0559948609,-2.8120242785,-0.8267971987,-0.3452084811,-1.5430063565,0.7231778207,-0.4925820758,0.4733995559,40.0543382536,835.7613260243,-0.5711159224,-0.7329032209,-0.3612967296,0.8156727656,0.0516390256,0.431106391,0.3502907317,0.1852486071,0.0498250969,0.7502083162,-0.4393800122,0.613641231,-0.1809185492,-0.1901332091,0.7373612578,-2.2515078768,0.6361534474,-0.1520022397,-0.6808395754,0.0742007403,-1.881015113,0.4920029796,-0.9211882966,0.7277326836,-0.849674781,0.478218431,-0.4204702497,33.3397600725,0.1483427785,0.3466592951,0.0521201424,-0.0148497114,0.7206494737,0.1330073462,0.0400276625,-0.0376503757,-0.5046644862,-0.1923843294,-0.6984139578,0.2493619829,0.8242582643,0.087400836,0.1663515508,0.8636447525,-0.5308637354,0.6231868984,0.4757934717,-0.4013180686,0.907927562,0.5795927162,0.5607356586,0.9734866143,0.3576282191,-0.4374515857,5.5646875113,0.0624350728,-0.6663662989,0.2296691069,0.6536569752,-0.826124965,-0.2460434221,0.177361726,-0.6127903997,-0.5151287644,-0.3155468495,-0.4119324336,0.0299104046,0.5020209309,-0.0180681549,-0.6706991651,0.6676038436,-0.1940028875,0.8582384421,-0.059369387,0.287725355,0.3033463891,0.8895238244,0.0857121207,-0.1806121624,-0.1522886207,0.0418139957,-0.6057509458,-0.858826282,0.0652618835,-0.7665455139,-0.9043741418,0.7324659744,0.5428422082,-0.835886701,-0.3948617421,0.4561320077,4.1555323068,0.7203647235,0.3336943032,-0.7449573097,0.0754056559
   -2.0558572955,-0.2580788669,-0.6839375689,-0.4134840144,-0.0341208827,-0.9287251737,0.7031404024,-0.7945730237,-0.8464161199,-0.1852082631,-0.641857061,0.1082984919,-0.2723074153,0.8350187472,0.1000175265,-0.7236844465,-0.1187230858,-0.4602231318,0.2726346744,-0.0694650389,0.9450112334,5.5572775559,0.9267304888,0.0660225872,-0.6169607337,-0.4523691961,-0.9002663709,0.6447974572,-2.6281642274,-0.6233743381,-0.3695183117,-0.1511539364,0.1799223726,-36.9962432285,-1108.6725763384,-0.2066622643,-0.283459744,-0.1733545564,0.4789316008,-0.0693051966,-0.7753551957,0.0147359176,-0.4031559138,-0.6683843131,-0.4140875134,0.6852801565,-0.3127808217,0.9378663852,0.6384874532,-0.138396702,54.6683091926,-0.9610221983,0.8391801206,0.5520326873,-0.4520111244,-1.1075751967,-0.5176827411,0.7494532743,-0.0399288723,0.6894211548,-0.6006573072,-0.2707535258,0.5051647582,0.2946291337,0.9726208883,0.8365588308,-0.85389784,0.6168646643,0.7152251269,-0.5345843451,-0.5615469875,-0.3180796919,-0.5886645216,-0.1864705592,0.8275642875,0.9324701945,0.9546837362,0.494965316,-0.5951139117,-0.8279980644,-1.3108004801,-0.7752997835,-0.6308865706,-0.1508431354,-0.0462345432,0.4700324912,0.3153476058,0.8652627134,0.9806188993,-5.6958893262,-0.9338763763,0.4636441237,-0.4661541892,-0.5270085902,-0.4149320278,-0.449740631,0.0388508731,-0.1910547826,-0.3464333174,0.8018661915,0.6145261541,-0.0243767942,0.7167482589,0.2533507575,-0.1512809906,-0.7898350595,-0.8646973562,-0.8132142857,-0.6274987445,0.5049691852,0.0343662818,0.9230794166,-0.3222251565,-0.5208494281,0.9355713645,0.2379825881,0.734436633,-0.7666365541,-0.9310148481,-0.0289665665,-0.2271072371,0.1139442207,0.339565971,0.0985950736,-0.2502353842,-0.3212044031,-47.3194583301,-0.090286014,-0.7614062044,-0.8559071655,-0.5185630391,0.7606913699,0.8141915946,0.1157046286,0.5727094039,-0.0550224978,-0.5352663334,0.6912096464,-0.118685393,-0.3260287619,-0.7744936817,0.6153974695,-0.8104094725,0.572180107,-0.138158553,-0.8513865782,-0.3117760286,0.0627118393,-0.6117148527,0.661692991,0.5900776955,-1.0273782193,21.7283602581,-0.7668271447,-0.1233477113,-0.7797176125,-1.1391608757,0.2015712069,-0.4637707992,-1.8655481836,-1.5322823773,-0.9545906738,0.8316171149,0.0268273929,86.3711563321,-0.1879183666,-0.342054458,-0.9856853269,-0.3730118152,-0.5487265894,0.3736892485,0.6244779088,-0.5111195341,-0.3336186401,0.6225468998,-0.7165406677,-0.5113354041,-0.3592662876,0.4968973795,0.5495829891,-0.6076588202,280.5459313781,0.0981444652,-0.7206346853,-0.1051124246,-0.4467765185,-2.7610152882,-0.8625138047,-0.590811042,-0.9172058773,-0.4427269483,-0.7468730178,0.5564411375,-1.5610748636,0.7521660216,0.1226032837,0.1927108315,-0.9103078105,-0.2097291749,-0.0003284538,0.6942633164,0.6267144537,0.8505852122,-0.05070376,0.6848288958,0.8446250542,-0.8395603714,-0.0730911211,0.9172710145,0.422140518,-0.4583566224,-0.2040951192,-0.4086593948,-0.0263872741,-0.2903330224,-0.4477670813,-0.235492376,0.5247443856,-0.8656321705,0.8315814034,-0.0209573352,-0.7172065561,0.8789557479,0.2493998497,-0.0969778418,-0.032168502,-0.7102718358,0.1682438671,-0.1732743024,0.8431829077,0.9195414478,-0.5377167329,0.5442728649,-0.4227194872,0.3542123099,-0.3596459023,-0.793437644,0.8236366164,-0.1232491736,-0.3793390311,0.3537071633,-0.9729117702,0.2349099233,0.9105627462,0.6455320839,-0.5453606545,0.9151845453,11.5182558249,-0.1727359562,0.0111940666,0.0765258851,-0.8830866377,-0.8779713173,0.2426059943,-0.0596412444,0.0346223017,-0.2981794776,-52.5807659105,0.1138443916,-0.2642125104,-0.8487269772,-0.0712025731,11.1720725329,-0.8004066046,0.54074677,0.6153275294,-0.3498097794,0.3801358624,0.8635871374,-0.2646727382,-0.345847148,0.2562204691,0.7913529539,0.1958154171,0.6048622416,-0.0651005632,-0.5509647858,0.2214001446,0.6068861523,0.610378918,0.8689316074,-0.5477775543,0.7043336821,9.714278769,1.6777987945,-0.855050144,0.3115400267,-4.2376870849,-0.1299318573,-0.05902504,0.0897352566,-1.0637804163,-0.493540602,0.3865252628,-0.7521543054,98.41049516,169.3981054683,-0.0130133561,-0.8661026473,-0.7789458615,0.7929346272,-0.0177253866,0.1381070186,-0.4666095447,-0.8864703233,0.0018710695,-0.0201574235,0.6490993616,0.0019499436,0.8870025445,0.0198750842,-0.9616774866,-362.8072806483,-0.7110595969,-0.4325138896,-0.2890686978,0.1376518252,-0.8481289491,0.8092400672,0.2913816439,-0.8121189817,-0.9414679719,0.5984728401,-0.735947927,1.4646534994,-0.8360879272,-0.1840623904,0.4964455117,-0.2532878519,-0.1326408337,0.7480347538,-0.9456733382,-0.9331685282,-0.5691678172,0.5604337174,0.5887605162,0.5221045555,0.2187328167,-0.0111816765,0.8422588026,-0.2050990171,0.6670915823,1.6271269807,-0.8184280241,-0.530687762,0.1432991478,-0.6017565946,0.6917771151,0.5891977226,-0.7931142392,-0.5153119006,0.4887118169,0.251717152,-0.415283044,0.6457927204,0.2928015641,-0.1254188241,-0.2358197711,0.1350942596,0.5248609532,-0.5574205924,-0.9167443816,-0.5695927594,0.393388148,0.3419678507,-0.1884132346,-0.2202480399,-0.1763200558,-0.3758236956,-0.61858265,-0.380414327,0.5165345045,-0.3374057958,0.1600492852,-0.3484270063,0.6860594014,0.9182926694,-0.0477984464,-0.7492485627,-0.8032261161,0.0118317285,-0.9342396724,-0.034877508,-0.3760269795,-0.6871568205,0.1512025471,-0.6458691433,-0.6671643737,0.9647095381,0.3365360825,-2.5568451077,0.9038629148,0.4289585762,-0.6993229799,-0.6227668706,-0.2626231442,0.4248307152,-0.9417893243,0.0476021854,-0.3815899692,0.1263955397,-0.84703238,0.5126193582,0.3210160916,-0.230560199,-0.5650728504,0.3337913209,0.2550335162,0.104343383,-0.2654099763,0.0257171981,0.4219057526,0.1276531108,-0.1514696785,5.0106965293,0.5056275927,0.2417511714,0.9263017488,1.1388432453,-0.2568480591,0.8044255516,6.2330163989,0.6105079343,-0.9093151428,-0.9273259563,-0.1281560446,-87.0593488719,-68.9921202509,0.917152874,0.8665552259,0.1575074554,0.2607567937,0.85865796,-0.7068825652,-0.5675037418,0.1901108481,0.4443584077,-0.6606038317,-0.5291006722,-0.3083582826,-0.2826633866,0.3346498026,-0.4158625823,36.0355052626,0.0264326997,0.3789256521,-0.2715093729,0.3765149254,-0.1058640384,0.2277836782,-0.4235181509,-0.414725854,-0.9008512158,0.2547969243,0.740374178,3.769787366,-0.2855798422,0.5266809574,0.9268167309,-0.2479319984,0.2599033908,-0.7046770201,-0.866504985,-0.7783224494,0.3049942531,0.1545926176,0.0617018671,-0.2889483396,-0.9075570682,0.4230276943,-0.2705010319,-0.9275275535,-0.7487721418,-2.1536932313,-0.9649018064,0.9483600043,0.1028818499,-1.3011252406,0.6044096121,0.5123787603,0.8240493129,-0.5382999847,1.3116905897,-0.9570118386,0.5697704623,0.1755226436,0.922807662,-0.8494559061,-0.3829634411,0.7868917005,-0.2910063169,-0.4475653209,0.2536049045,0.2390617654,-0.5740122679,-0.7716459299,-0.4513274768,-0.1490065184,-0.5788660569,-0.1824457803,-0.2100184512,0.3224020219,-0.7505302325,0.3898394936,-0.1907785153,0.4626043143,-0.6986327643,0.9674989658,-0.0461471779,-1.9672748037,0.9631879063,-0.71000053,0.785045634,0.014389533,0.6886788565,-0.9243698693,-0.3389612308,-0.4460157407,-0.7501054014,4.5115532387,-0.285782494,-0.982902712,-0.245044658,-0.8719592782,-1.6516324058,-0.4383466866,-0.1618760203,0.8309290124,0.7320340497,-0.3003230835,-0.3765481243,-0.8974037267,-0.2794873503,-0.3149264194,0.7835589359,-0.9039256498,0.6255349817,0.8189587756,0.4787530298,0.3846141787,0.8863423637,0.8778043768,-0.5049710817,0.7593905599,0.2835969102,-6.6554472477,-0.8407358985,-0.0816880873,0.8841627407,-0.2063164358,0.6245663954,0.854321628,-6.1194394791,0.8689127245,0.4787348607,0.5261860537,-0.0392500952,-127.4054264931,0.2369275989,0.6529821719,-0.8321320394,0.9183538321,-0.7436335499,-0.0009509273,0.3174697549,-0.1200024518,0.259673179,-0.9315929223,0.086891739,0.5980437584,-0.3449107066,-0.8923673068,0.0938420771,-0.5026059174,6.0478529909,-0.532762733,-0.2112587554,-0.5614616701,0.3771049627,-1.4675184448,-0.1661118064,0.6434336803,-0.861391914,0.3987001566,-0.5715433168,-0.2437295865,-0.348124235,-0.1352479454,-0.4723398509,0.0077801256,0.3616822962,0.6119922313,-0.9162604227,0.4694350827,0.2546414103,-0.8718864906,0.749442093,-0.5855305506,-0.5644535307,-0.8806824523,0.8023606115,-0.4450041104,-0.9688631321,0.5624129301,-1.7638812943,-0.8647038877,-0.0187856046,0.0470671765,0.8043142097,0.1403150795,-0.7477447126,-0.9705616405,-0.112596553,-0.9143792015,0.2481459356,-0.7113898506,-0.6382188028,-0.7580895809,0.7433580879,-0.6815696232,-0.5709378001,0.0594961616,-0.096468012,0.6963927989,0.3217639251,0.7788284772,0.8810958591,-0.779072253,-0.8389153931,0.9207589943,-0.4440609847,-0.5916145367,-0.701288963,-0.3450350715,0.782069675,0.1953860353,0.5320147731,0.13190206,-0.8901435083,-0.5945679158,0.0020684265,0.4205972599,0.1869473722,-0.8426807884,-0.5180036974,0.1701482422,0.1347715337,-0.5086389234,-0.1813623423,-0.5041744589,-3.7453200087,-0.3086157805,0.8020353846,-0.69903389,-0.6931578842,0.164863523,0.5505303332,0.0185615077,-0.0119690908,-0.0495912131,0.6841945379,0.7252668813,0.4140576127,-0.1396996683,0.2630215855,-0.7031242311,0.6539902141,-0.1218461409,0.5729780943,0.7182812162,0.3543619428,0.8552184737,-0.9244573512,-0.6915564947,0.5184668877,0.150850081,-6.0386351851,0.1815856354,0.7782050902,0.8764331115,-1.9771585805,-0.5729214965,-0.1544605923,0.4302384696,0.5267031746,0.4796876025,-0.6201332553,0.2745167828,37.6799307162,-0.6600970721,0.6049524458,0.0847282507,0.5765840166,-0.2109022171,-0.0411436083,0.5730402535,-0.7303780157,0.9099997856,-0.6508133566,-0.3327144809,-0.4763184624,-0.8876092936,-0.4486602716,-0.4347787126,-0.5394058602,440.468279109,-0.2115976245,0.6849836375,0.1016465766,0.7429718379,-1.5902885454,0.7867511345,-0.3212993538,-0.5759747977,-0.0756648665,0.4571240124,-0.4693105402,-20.7918131854,0.7255388508,-0.8586840057,-0.5043981692,-0.7448341318,-0.2892667675,-0.310315444,-0.6607312982,-0.5794637247,-0.703056402,0.430499889,-0.4491223992,-0.6885366742,0.3066084409,-0.5272519264,-0.8028553544,-0.1376120968,-0.5011099897,1.3514623457,0.4382378177,-0.5328948972,0.3814859086,-0.9087845318,0.4029858483,0.6615256074,-0.4223992774,0.8562150493,0.3476268079,-0.2442969491,-0.4920934517,-0.7136922189,0.2057535453,0.122234148,-4.4450053776,-0.9264056492,-0.4585234956,-0.2237479013,0.6018239936,-0.530857995,0.6718698363,-0.0144941942,0.2968271822,-0.6965105802,-0.0460322381,0.5714155608,-0.9012360395,0.2817760797,-0.9456111521,0.5265449158,0.2753934907,0.385088923,-0.508633904,0.4040349359,0.9399032905,-11.5562238787,0.0506815775,0.3431114911,0.0288222055,-0.0601789679,0.5661174688,0.5181232863,-0.1480721037,-0.4910984509,-0.896045025,-222.4793511813,0.937145091,0.0117543774,-0.332420631,0.040638121,0.4062550818,0.7905210163,-0.9083061776,-0.8554833844,0.8369734335,0.0442133427,0.7222057438,-0.3727682973,0.564439347,-0.2659181486,-0.726418147,-0.442176251,0.6531734925,-0.8895100471,-0.4545705274,0.4987968844,-0.1711843259,0.5787531026,-0.5078006222,0.3163157243,0.5792044071,5.37944014,0.7353346161,0.3406099799,-0.7517766276,0.7665820306,0.0169437771,0.7717424545,1.3238456913,0.4678135506,-0.4990923321,-0.8988584818,0.784689051,-612.6423403732,1019.7272752202,0.2512357041,0.6850282424,0.7886357137,0.1372304495,-0.9398817861,0.1791410073,-0.3019193974,0.3924065606,-0.063835162,-0.8023645387,0.8898965642,-0.6032424514,0.8213889883,0.085221035,-0.7907105127,-7.8439973788,-0.2423163225,-0.5822085895,-0.5423812682,-0.0314113078,-0.3616694163,-0.365252067,0.8308302438,-0.668671477,-0.8432548599,0.6094442368,-0.920643485,23.7299955912,-0.9095230094,0.5830165986,-0.0452116635,0.0021456593,0.5238273037,-0.2553719326,0.4854063727,0.0275564437,0.6182894718,-0.4897715122,0.1562320652,0.3506081171,0.4799366828,0.8615308841,0.2408117187,0.4515852904,0.9534368642,1.021009955,0.027136662,0.3191864523,-0.643692761,0.2253898954,-0.4371323789,-0.2194238863,-0.3985168178,-0.4601696844,0.1142368562,0.2692898365,-0.7899074975,0.5846639077,0.8521444228,-0.3939372554,2.304018739,0.4847527529,-0.0207189034,0.0415479705,-0.9497193414,0.8247078639,-0.7106207632,-0.75453886,-0.668563548,0.0457631517,0.7499282295,0.809218207,-0.9237454193,0.5993243274,0.3808078074,-0.1848880991,0.8151406032,-0.1962932948,0.8568800818,0.8763787085,0.422678067,3.2045617282,-0.2309343534,-0.6822802628,0.3190489495,-0.2970863125,-0.4366984492,-0.2095498209,0.1790247506,0.2763467235,-0.2815257175,7.0496360027,-0.0591858024,0.3847235131,-0.1388351291,0.5041742312,-0.5283366851,0.2931729878,-0.2485819557,-0.0064446519,-0.9199376129,-0.3294686831,0.7358734091,0.2649059025,0.6213448343,-0.6516297179,0.7826338567,0.1988417813,0.3231097047,0.6722810246,-0.5181648053,-0.1920850273,-0.1658687758,-0.510773953,0.7863715488,0.2268562966,-0.0076349288,-24.6088529689,0.0666103385,-0.8279829166,-0.5948666605,0.1984224014,-0.5653439923,-0.604408328,-0.5464759264,-0.199419979,0.3906300779,-0.7954675,0.6905359749,-73.0966602798,-759.458412554,0.4687301448,0.2104633457,0.7608822992,-0.6687948413,0.3073066144,0.3158858984,0.6025432494,0.8661047525,0.5928869158,0.3438927472,0.7287076361,-0.9701271588,0.440924628,-0.8258181856,-0.2761790653,2.8318025723,0.2395677225,0.4313119322,-0.0893735191,0.267031017,-1.8051648746,-0.9518933002,-0.3728242794,-0.8100666287,0.7098927544,-0.6731799348,-0.0172435123,-0.7116324657,0.4739410023,0.5595864139,-0.4258940845,0.7524977888,0.0481636499,-0.4107331472,0.0882859397,0.648080062,-0.2862484221,-0.5415857819,0.0454679207,-0.7663879135,0.630111146,0.0251600682,-0.4421832536,-0.8116231936,0.4459480491,-2.0139393689,0.9389333583,-0.6339472754,-0.3508688285,-0.0267688901,0.6123843912,-1.3495585546,-0.6036383263,-0.3323076797,-1.6014439987,0.9538163772,-0.0376034848,0.244260481,-0.5889544731,0.0214156076,-2.7764581677,-0.0794708696,-0.0808526637,0.5595830719,-0.7755158127,0.2984954187,-0.4105092925,0.6960551166,-0.1881562166,-0.8627657078,-0.4283064257,-0.4285557468,-0.2269636367,-0.8108928598,0.6143850861,-0.0355484852,0.1967888619,-0.2877615183,-0.4902601815,0.9511491592,0.6763227984,0.4291302025,-0.0942144374,-0.5610180671,-0.1650919843,-0.3919823743,0.5024385428,0.8345745054,0.8079627031,0.0638768587,-0.6812102222,-1.8417731165,0.2901998544,1.1546877293,-0.0118335917,-0.6309903404,-2.9545210608,-0.1774306835,0.1963301774,-0.264834132,-0.7887681495,-0.2151105068,0.6681796292,0.4791556002,0.431719261,-0.4741000841,0.9103806989,-0.9359080977,0.0049548231,0.663435009,-0.2431309606,0.396035613,0.7062909099,0.4117645679,-0.6313971046,-0.1261386046,-0.4376352519,-0.2087338707,0.1204897802,0.0702224086,0.4672711302,-2.9428192433,0.3289449876,-0.6285709976,-1.129211404,-0.5924672775,-0.0472129394,-0.0569611357,0.2990193522,22.333814235,125.1335214256,-0.2337402558,-1.2081797397,-0.1727844287,0.2624562207,0.1283178212,0.1467110148,-0.1065242707,0.4750588316,-0.6032610041,-0.408163856,0.6197607042,0.5801876785,-0.9246191239,-0.1057112486,0.2092662067,0.666060454,-0.6008925861,0.9497668996,0.1734588183,-0.6244032876,0.2125393661,0.3641123662,-0.5355800798,0.0883874021,0.5333598518,-0.7684723086,0.4088500219,1408.5253541493,-0.5218819403,-0.063977678,-0.59410237,0.8663382113,0.0345449381,-0.7067607808,0.2613641128,0.9355399455,0.10597015,-0.0491474038,0.102887171,-0.4459650247,-0.1055441875,-0.7362689379,1.3296830246,-0.1448206674,-0.1823267366,0.560648288,0.6762980981,0.8002510491,0.5003225912,0.1766360384,0.2884753444,0.6498217572,0.0440180034,0.7637577196,0.3931326511,-0.8055758549,-0.5900105429,0.2486455036,-0.1138701733,-0.9305354151,0.5393781263,-0.5706634553,-0.9673483567,0.7179695413,-0.1185672292,-0.5864638771,-0.3454489549,-0.3696882643,0.1157605735,-0.7584390751,-0.3661433209,0.8196467295,-0.5047143133,0.1247374066,-0.8559350371,-0.6731823981,-0.4697357216,-0.9194651555,-0.5130107929,0.0286004961,-0.8251602099,0.0630151792,-0.3134926919,0.2685845229,-0.5252214518,-0.4631450138,0.2503988399,0.9667415279,-0.6175995768,0.2768699925,0.6574826154,1.5147258919,0.5433267163,-0.7036621862,-0.2420123925,-0.149071053,-1.5833258029,-0.8214161981,-0.8428999773,0.4027561464,-0.8363041809,-0.8899134094,-0.9129226511,0.6759108541,0.614226284,0.9059756942,0.5185545712,0.2645933949,0.2960481113,-0.7733250186,-0.6906726407,-0.0606468498,0.0706166957,0.0735557997,0.4944469204,0.4223085584,0.2333087226,-6.0245079292,-0.3832711636,0.1526198356,0.7550954652,0.8228069006,-0.0098805226,-0.4175944151,0.6357535432,0.2636913101,-0.7560536608,-0.9025007597,-0.4123449143,-74.2603721082,-60.3195491969,-0.686396975,-0.4440061972,0.1994394036,0.3544049357,-0.3769420959,-0.5017635647,0.1663321752,0.3462457971,0.7916011926,0.9656340888,0.7651304333,0.505523218,-0.9486278385,-0.1039023237,-0.0480258533,208.2613563649,0.0631294657,0.5919807984,0.173904383,0.9328796311,-0.3124797046,-0.8066059977,-0.9037758945,-0.1611143504,-0.7624465108,-0.0494892014,-0.3090471237,-175.6032397205,-0.5911340924,0.3964100789,-0.6009968005,-0.8560999383,-0.8968134163,0.9296220196,0.1119600708,-0.1759777112,0.5324513923,0.8773331549,0.7473997182,0.9551865433,0.7901975511,-0.8290930939,0.2829705764,-0.833254274,0.5106668024,0.6197986709,-0.0764942819,0.73704798,0.6462411157,0.2085316466,-0.3868815278,-0.1920024897,-0.7031488858,0.0208334443,0.0057888091,0.3993045836,-0.6139040251,0.5955207338,0.0360450417,0.0029676799,-0.1737736081,-0.5322212054,-0.0210444562,-0.5453212255,-0.1088004807,0.1056616175,0.7821715415,-0.1650473931,0.2608134751,-0.6269427915,-0.0685126024,-0.5760983685,0.937476275,-0.0393894507,0.1256941152,0.2756253759,-0.2915542104,0.2244331218,-0.2140560588,-0.7145294611,-0.0311305492,-55.4295444749,-0.0522980348,-0.1296204869,-0.105985907,-0.1749053386,-0.2040353727,1.009626998,-0.330984062,0.7719986872,0.5633978327,-10.2980796042,-0.8663526908,0.1038263167,0.7125709,0.1365341419,-0.1602700262,-0.6493363849,0.1208951253,0.5959297558,-0.4134278937,0.1645592884,-0.9609216931,-0.8683260695,0.7636103183,0.1458448322,0.1830871389,0.5162229566,0.3592921956,-0.3363409971,0.4630353976,-0.2078234169,-0.246784955,0.0622332704,-0.7868969022,0.3239115378,0.1531263089,0.5402743145,0.1994901437,0.2318513607,-0.5981561639,0.7357622859,-0.8867484095,0.9529668816,-0.9778657334,0.0358876264,-0.2949135375,0.5662474078,-0.736564355,293.652377476,1109.1482245972,-0.9184789279,0.0809181371,-0.3275971333,0.4445513539,0.2202659689,0.0829118575,0.3320544945,-0.6499899044,0.1818109833,0.3327532655,-0.247688076,0.3883303786,0.6054050228,0.3357415987,-0.3060648073,50.9444680331,0.5541219917,1.2119892803,-0.1154854872,-0.4654723478,0.5370803705,0.6259893469,-0.627310794,0.8176029201,0.6571351361,0.6378877753,0.5189006666,-0.5879443192,0.8953238541,0.7911470855,0.0975977427,0.099070692,0.8419383797,-0.0068345188,-0.650164881,0.3339317049,-0.1017132034,0.9177608148,0.2329132632,0.0960587193,0.6015474483,0.7925185777,0.0658695297,-0.8105249086,0.967369001,1.5942833668,-0.0082258773,-0.2257112809,1.9693659698,-0.0221166645,0.8630572671,2.0763201242,0.1065406923,0.3420808694,0.6323665921,0.5900550041,-0.5256349731,-0.7396183147,0.1665305057,-0.6127254576,1.6155539529,-0.3636081003,0.6243203144,0.6112116516,0.1219111722,-0.85297242,0.8951180667,5.0821298252,0.7195631061,0.0074281882,-0.1461927924,-0.5598446373,-0.9690447326,0.7929179984,-0.3528537893,-0.0052585003,-0.6138462645,-0.3608965952,-0.4070385547,0.3380206375,0.0692619444,0.5998594419,-0.8621860812,-0.4585998219,0.073482229,0.140506769,0.9574510551,-0.5839757194,-0.4632344241,-0.331139602,-0.5911383329,-0.3791178623,0.897827534,-0.1961596416,-0.5118249667,0.1916619625,0.8012345277,-0.9212198029,-0.9241282073,0.5987302478,0.0644056454,-0.6232414896,-0.9006278429,-0.0289551253,-0.0558732428,-0.8251648425,-0.5284441286,0.7791835772,0.1387339565,-0.4892127652,0.6586401571,-0.077471731,-0.4525075463,0.5551175367,0.3319771266,0.5608790147,-0.4262800652,2.8562542613,-0.222980021,0.210913287,0.2183833391,0.0866465822,-0.8297978813,-0.1679593879,-1.0310322893,1.180807239,0.321257225,0.9922313623,0.6776195928,904.6551315854,-0.1723857336,0.6666377921,-0.8552000633,0.4066917349,-0.3708944082,-0.2520386432,0.197682218,0.9101234802,0.95969889,-0.2414542196,0.4777904222,0.6776026485,-0.8275171233,-0.7342007656,-1.6583911187,-2.9731195796,-3.6553990016,-2.2496552206,-2.5248567229,-12.2972536451,-3.6988847051,-0.9436136208,-10.2950077561,-2.9962119257,-3.8056660126,-1.7202119318,-1.4796951378,-1.29319959,7.6041979522,-2.2619780963,-9.4108988062,11.2252105416,-2.0042007542,0.8719647735,-0.7593587425,-2.0321315649,-0.5884812402,-0.2082411036,-7.8838681038,-0.5974457359,0.3206532994,-2.1832559496,-0.8673467774,-17.4495468158,-0.7692010915,-2.0147218703,-0.4519319014,-0.785711338,-0.8562202028,1.944312472,3.9526668228,-3.1759371941,1.1237867334,-1.5401837856,-20.4664080986,25.1145929554,-4.2423325415,-1.2361368684,-1.3737391674,-0.5309170659,-1.2188741468,0.2314628186,-0.4545820995,-3.8383083577,-2.5410403273,-2.6302930531,-1.9346760106,0.0497953668,-4.270378306,-2.3100250731,-1.613194612,-0.356554854,-2.711383825,-15.5859853212,-2.1646482457,-1.5361214728,-3.6190004867,-1.9483028623,-3.1979211708,-1.5349988603,-3.0076393489,-1.3867218196,3.9110039039,-2.0952677916,-2.1051033714,-0.532534148,-2.1281430566,-0.7282130394,-1.3191982994,-1.4220137011,-4.2104500995,-1.639116335,19.8602740512,-3.9577887263,-51.5262253474,-2.5739355468,-1.0878241661,10.7040733901,-2.034422128,-2.3834752757,-0.3942141039,-2.5941533142,-5.5284164535,-1.2571304805,-1.6290631879,-3.3730486252,-2.1538449589,-1.1201582125,-1.4433294703,-2.200065987,-0.1337578379,-2.5700468403,-0.6115197962,-1.7001108083,-1.5664746658,-2.5629088287,-1.4129606829,-0.4952395462,-4.4534746667,-2.7362826263,-0.9950858377,-0.5268372608,6.6121227999,-0.0989363003,-1.8414250877,1.0596473338,21.157720397,-0.4981637354,-0.7434307346,-1.8280933007,-3.365392367,-16.622101272,0.0726802734,35.3929295626,-1.0550896506,-0.5329372689,-4.1493969296,-3.3020642623,-0.7976985018,-0.5057172005,-5.8283211195,-0.934983044,-0.6859152307,-2.1459590061,-1.4994408546,-0.3207998755,0.7690382561,-1.2114814865,0.4438208472,-0.0729251356,-0.4601314001,0.6224358826,-1.3156019398,-0.5025915911,0.6957438566,0.1255070794,0.8163451972,-0.604325192,0.6151397424,-20.7228410174,-0.6827515656,0.5228638807,-0.4517986469,0.3072481898,0.3751970512,-0.0999035849,-0.9323560528,0.9655745785,-0.2474751722,0.5413324867,0.5857349244,-0.8953867034,-0.1428453494,0.5267589423,0.0579319065,-0.8245167537,0.6618464952,-0.9755942308,-0.674340992,-0.1889471188,0.8062293685,0.439102146,-0.5928230137,0.3114873276,0.0885341511,0.6855743904,-0.017892719,-0.6141291332,-0.3359912227,0.1791503764,0.4266294195,0.7805813658,-0.7360475773,-0.7016810568,0.1322073287,0.4359991172,0.3837437889,0.6744262874,-0.5742996901,-0.6314051658,-0.3505004991,0.2575991629,0.0971158976,-0.9131969488,-0.23218224,0.6412788574,0.5154485407,-0.5206191115,-0.7512810841,0.5888170586,-0.0430464589,-0.1227962415,-0.8159280944,1.2916506957,-0.1290819463,0.8248073648,-0.1314334121,-0.5791260746,-0.3410710652,0.2262780591,0.4482423667,-0.2362379169,-0.6439367371,-3.750810556,-0.2464726171,0.3082873433,-0.5088085635,-0.9569549716,10.6504767482,-0.6088075947,0.5585400067,-0.3530843555,0.6841437676,0.6924213818,0.6798231806,0.2081599716,0.5271670169,0.1443681645,0.2210510044,-0.6956010846,-0.3099148298,0.5026579119,-0.8924839321,0.1373119969,0.8599576504,-0.3862226094,0.6040590842,0.9493893398,0.4293044775,0.9152917849,-0.2177531223,0.048369853,-0.042492123,0.5606861506,0.2136075177,0.6530093589,-0.722688658,-0.1653100972,0.2074010413,0.597445115,0.3846992411,-39.5108021903,608.8174275841,-0.2077706992,0.2773029346,0.8371107509,-0.1512964799,0.8447426197,-0.0753012765,0.4273532684,0.0173307107,-0.2788803241,-0.6840327682,-0.0852678617,-0.2831863117,-0.6666163255,0.0751544914,0.6407909668,-2.1608526163,0.5090853525,0.5627017654,-0.7910687946,-0.0257192,-9.1662193186,0.4047423729,-0.2494962794,0.0254444681,-0.5558650339,-0.4972342849,0.0082632029,-235.9501788919,-0.8065066036,0.7258925474,-0.4066495288,0.1016317783,-0.7259627813,0.5459906634,-0.3649970501,-0.1289115789,-0.2086465008,0.611177067,-0.6125924404,-0.2907119195,-0.8898797832,-0.8372963391,-0.8020903484,-0.2388375694,0.7331683121,-0.3755762937,0.3665513727,0.5220723805,0.4900632359,0.2235880789,0.8909384999,-0.3879812747,-0.3925586209,-0.524123274,4.3729872783,-0.0284412465,-0.1964657501,0.0263441019,-0.0423262616,-0.3492690548,-0.1890076648,-0.3673992469,0.6758772468,0.6953612148,0.7322917882,-0.8137595283,-0.5951307584,-0.0874951288,-0.4856754876,-0.7170911151,0.8091340306,0.0958009007,-0.1431189929,0.9512345856,0.4168411838,0.4735236526,0.5226602379,-0.2759976811,0.5375310721,-0.3372044499,-0.4942117397,0.083355533,0.7393212934,0.1874929956,-0.1598508056,-0.071149222,0.1900103624,-0.1726236414,0.5782816159,-0.1994266296,0.7934238101,6.099039442,0.2310863829,0.5931798192,-0.6462127382,-0.8507783992,0.3309054208,0.5427452074,0.4832360659,-0.8104630126,-0.7986227193,-0.4460324799,-0.6368270696,0.7406479963,0.2046034928,-0.0205308385,0.379061173,0.1520980494,0.3256986382,-0.0275936384,-0.8170835967,0.8229811959,-0.2313073755,0.9446749456,-0.2416247686,-0.9008580488,-0.387851506,10.0152898898,-0.2588719577,-0.2360606026,0.8848513242,0.0304594088,-0.0972593709,-0.4909952135,-0.0071745634,-0.2470602308,0.5773945092,-0.5503897792,0.743842248,120.8795135421,1058.9580721857,-0.1824112905,0.3959714246,0.8336937394,-0.8667628255,0.288051406,0.2441563048,0.1347846995,-0.3374745227,0.5099556467,-0.7050737841,-0.7529144314,0.4080526585,0.4609569484,-0.5780432281,-0.2810945066,-23.9998877151,-0.1595314023,-0.0666087321,-0.791673715,0.6983171021,0.8955467676,-0.8487214041,-0.9574752762,-0.9358764663,0.3385881177,-0.1272844681,0.4349043229,0.5332154479,-0.4142133663,-0.3479031267,0.3127329694,0.2964749849,0.2948669966,0.7108636473,-0.843027785,-0.6172474244,0.8898766359,-0.873974869,-0.1164700633,0.2514699747,0.8322515247,0.1515024064,-0.2088890282,0.6858757483,-0.2191352449,0.7250276133,-0.3506301758,-0.1593816968,0.4644458734,-0.2874534088,0.8423858955,-0.6772126878,0.1455115108,0.2830211521,-0.3980356045,-0.4708302159,0.5924338056,0.2807425925,-0.8519028706,-0.6044227981,1.0546825165,-0.850974972,-0.6570745834,-0.7459989779,0.3091164049,-0.4532196834,-0.0130974867,-0.2773078129,-0.2123755816,-0.8755194755,-0.3160780937,0.4122799112,-0.3902218085,-0.2509559143,-0.4267308292,0.383062445,-0.6126307812,-0.8090602949,-0.4582955111,-0.1637712461,0.6362713916,-0.2317799606,0.4321095058,-0.9730536003,-0.5039973334,-0.38862993,0.1894861033,-0.2999917449,-0.3685068707,-0.9802881358,0.0949053809,6.0054083694,-0.0543415809,0.165436526,-0.6148849116,-0.1402528903,0.91232988,0.4376070615,-0.4774407419,-0.4497941518,0.1688304177,-0.2252152438,0.0438383184,0.5925533262,0.2856594265,-0.0127318448,0.5515614163,-0.6283523692,-0.3454725985,0.4066022895,0.7322567423,0.1049805316,-0.6352760569,0.4089908194,-0.070459024,0.2539415279,-0.3125464656,-0.3210453729,-0.7274084676,0.3290512305,-0.4991305456,1.3500782481,-0.0291717133,-0.6514377894,-0.7594670812,0.9603566043,0.3553960661,-0.6870683701,0.8822681734,12.1285427638,0.4799637056,-0.7315387013,-0.3051559516,0.187574661,0.6863471637,-0.9085219687,1.0324276849,0.2897238341,0.9071782199,-0.2374876556,0.149442127,-0.73868206,0.3668682247,-0.7037600493,-0.0789227552,0.6380639857,-0.2763149803,-0.2852132767,0.2084280852,-0.632877245,0.4615386704,1.7574713121,-0.9544105744,0.0753842607,0.1269859975,-0.3647953604,0.5408525926,0.3024796469,2.8393242961,-0.7356849751,0.0747185374,0.9343668699,0.8326556575,0.2012285234,0.8488200899,-0.7937655554,0.8921624591,-0.6833258373,0.5928389484,0.8998855906,-0.3370274969,-0.313633971,-0.2614178236,0.7776807724,-0.7037102094,-0.1626717062,1.0959998347,-0.6328535999,-0.0362896386
   1.1791779319,-0.6822934305,-0.6505106898,-0.2133738353,-0.4738493311,0.2368115815,0.1765871667,0.8747735949,-0.6818915576,-0.5775807269,-0.5410681489,0.4693531575,0.0113902406,0.646353127,-0.4722526667,0.9748238292,-0.444998802,0.4689202006,0.3310820828,-0.2990440946,-0.3391621345,0.5619552656,0.6876108272,-0.6943014842,-0.2180586242,0.4116706036,0.7500806179,0.3189688471,0.5957794618,-0.5858556682,-0.4723560061,0.4940142015,-0.5268120218,-6.3079503519,-0.2109915263,-0.7613454747,0.9353075316,-0.9081001504,-0.8309138145,-0.4300881951,-0.870173866,-0.7222447446,0.0249470536,9.0205148461,0.4450849039,0.5570887565,0.8782255037,0.444277177,0.9884802425,-0.8822479165,-0.3994745491,-0.3462666076,-0.1478718222,0.1795907174,-0.3248168823,-0.7585133874,0.6103997961,0.2409808415,0.5376670926,-0.7539999377,0.3369051827,-0.3457646464,0.2732885868,0.2276501319,0.2356896715,0.6498929024,-0.1819952829,-0.378715287,-0.7869142452,7.7623956848,-0.1599325375,-0.5414369545,-0.4555197222,0.4759513739,0.7523224426,-0.3303183616,-0.6056377953,-0.5436963686,0.5167872145,0.7638732102,0.0792587991,-1569.3437680348,-544.9237414018,-0.7718991248,-0.6931784723,0.0551980743,0.3328167877,-0.5990220535,-0.0095419475,0.8512610755,0.5580974844,-1.2045604051,-0.8407204686,-0.1274188366,-0.5953979943,0.5889857287,-0.4859343952,0.7277472148,0.7500805669,-0.618111014,-0.9068772001,-0.5572675259,0.7008262856,-0.5107853579,-0.6167593489,0.7718517744,-0.132803793,0.4985065353,0.2252488706,0.0450359933,-7.1752816386,0.1321487905,0.512019963,0.4020746183,-0.2610732044,-0.9766224748,-0.9153188817,0.4562252478,-0.0784098245,-0.510784341,0.0213492986,-0.89685386,-0.3509286422,-0.3720742487,-0.8843782864,-0.5503658134,-0.3258784139,-0.3911568442,-2.1438716313,-0.8882342574,0.1478333218,0.7694890494,-0.3440693794,0.6390419904,0.0806863418,0.8013294455,1.2949693332,0.0079730799,0.1567762255,0.0621912784,0.6121997254,-0.9656987698,-0.2942199563,0.4803913904,0.8310233028,0.9886394368,0.9255421883,0.2331182092,-0.1720823318,-0.8231371822,-0.4627298922,-0.5295510158,0.9197697184,-0.6931903158,0.5653644825,-0.0455972781,0.2065976345,0.648260759,-0.5746729389,-0.4699575842,0.7451097518,-0.2219383105,-0.7601417263,0.0260041526,-0.7200127925,-0.9490280194,0.4754619581,-0.7525309411,-0.1180347307,-0.5019163521,1.4675186707,-0.3507227708,-0.2699498941,0.2028759025,-2.5625293573,-0.5486918654,7.8874931091,0.6988294945,0.8522040725,-1.5053158643,0.0678791065,0.908794646,-0.8227300774,0.1456200584,0.6163346645,-0.1144775899,-0.0140152012,-0.2657685933,0.4731205406,-0.7784007539,0.4373935928,0.4239184406,0.1086465949,0.0320511745,-0.205234639,-0.1617833203,0.6527593571,-0.6156912794,0.7636134516,0.8462503188,-1.349712298,0.7561206317,0.0804721028,0.2480959196,-0.6892225182,0.0644472716,-0.2825952814,-0.7874384993,0.5172878961,-0.0691847576,-0.7904841854,0.4154697011,-250.9266344273,167.9645321938,-0.4683286545,-0.7937830933,-0.8063288501,-0.8456792973,-0.4566602357,-0.0446695189,0.662064778,0.2839626943,0.1201213071,0.5337485207,-0.7936601487,0.1743299114,-0.512477244,0.7540409586,-0.5203259438,-1.8517867081,0.4617063287,-1.0626859278,-1.5913914773,-0.9565213606,0.8511341306,-0.3795030401,-0.2724106317,-0.8436723278,-0.7973252446,0.6013670654,-0.688526526,0.9908281075,-0.5393214821,-0.6411999941,-0.7677379773,0.4147211532,0.5954742235,0.504493909,0.122575319,-0.6335123037,-0.7048502421,-0.1921012914,0.2178381052,0.0524039193,0.397755518,-1.0825703793,-1.4670446825,0.2282933463,-0.7779721364,-2.1042499396,0.1686896128,0.3721176682,-0.8781254362,0.3045761172,0.3275323085,0.7147920698,-0.9556806039,-3.4697943291,-0.2672633787,0.2280361089,-0.4399102491,-0.1231631165,-0.6572857941,0.2385446315,0.3187025986,0.7285008787,-0.4074618894,0.4535601954,0.6474894362,0.7394155217,0.2451282334,-0.1523405698,0.6796286776,-0.8906954755,-0.9394957971,-0.7144375818,-1.3288429883,-0.1953773378,0.8050061587,-0.3368422502,-0.9846212213,-0.8739011395,0.5784560258,0.0633974761,-1.0531032869,-0.2441148424,-0.8185709007,-0.3756893828,-0.4841867348,-0.2568259925,-0.9465494854,-0.6670121166,-0.4842329937,0.7633847325,0.5041100044,1.8867717861,-0.5044804236,0.4032780975,0.67611152,-0.9082074172,0.5206580238,0.0548891777,-0.9185640479,-0.550315757,-0.273528825,-1.0401944549,0.626107312,-0.4152881005,0.5968101733,0.3064106747,0.7596198073,-0.6147885607,-0.7843270076,-0.7763327363,0.0277171741,0.6956306251,0.6858414765,0.6284484479,0.2598255936,0.4575357908,0.1716412757,-1.8694543053,-0.8302403249,-0.8110655925,1.6053785899,-0.2834196904,0.4082735508,0.2972312434,0.9934424986,0.2789343003,0.6492936733,-0.7219461585,-0.527679214,-280.9868220731,-0.6424829086,-0.5152218384,0.8413019046,-0.2469157135,-0.8894728964,-1.0820182984,-0.85262933,0.6292915384,-0.8543731198,-0.032115378,0.5138359125,-0.8770989815,-0.554172374,-0.2404429493,-0.4496410553,-0.1123157938,0.2200747982,-0.2879823734,0.6636809488,-0.2519894559,1.101097498,-9.6537749049,0.7009831648,0.7224021825,0.3632678064,0.2894903359,-0.2254876473,-0.3014793454,-36.3407469406,0.2429868417,-0.5230224584,-0.5784551602,0.1842129437,0.4555037165,-0.3717020488,0.6574244106,0.5745129671,-0.0166026523,-0.3418819826,0.8436170303,-0.6802828052,-0.8256481021,0.1589152714,-0.0406907198,0.9460712371,-0.1314463806,0.1535213642,-0.620821155,-0.5256542346,-0.2725733592,0.4304473143,0.5610088511,0.5679523247,0.4702491866,2.0991724448,0.5242179359,-0.2467671278,-0.2685502095,0.4379175932,0.5449145274,-0.0122635528,0.7432024171,0.8677450186,-0.6368688356,-0.5425567794,-0.3626885249,0.2772000673,-0.3355764696,-0.4373130889,0.3682526544,0.5386719069,-0.06116272,-0.7014802494,1.0114494046,0.409126962,0.8233225046,0.8561953163,-0.7340415546,-0.7145004374,0.9586686097,-0.1112379344,-0.8754234818,-0.3428311335,0.2052591434,-0.5549883806,-0.2009965394,0.2711333303,0.6547230163,-0.8828326459,0.3047416371,-0.1248497758,-0.3434559026,-23.8014543267,0.1653043166,-0.5275830076,0.9194720583,-0.5449572393,-0.0578674061,-0.1446352055,0.552911188,-0.3073865439,-0.5756368478,0.8770442893,0.1890047455,0.9548920606,-0.7560351967,0.3874819434,0.323648437,0.4668436381,-0.672562073,-0.2505809675,0.9748638713,0.8526957602,-0.4110359799,0.6502587938,-0.9221323155,-0.4377591375,0.9472271109,7.5444908429,-0.7489562569,0.7250794447,-0.0327501779,0.1992111894,0.592990305,-0.5463286813,-0.499958312,0.5006505342,0.8414361533,0.3984593051,-0.5890478558,24.481490588,89.6083298748,0.918419028,-15.5582968425,-0.6922845149,0.0644208471,-0.5672356899,-0.2304574665,-0.1541131569,0.8773641141,0.2059986396,-0.3143876615,0.6680374586,0.7438758101,-0.0265636413,-0.6169267957,-0.8010442368,-128.7074673665,0.74343722,0.7990107482,-0.4124633966,-0.8086418031,0.6025586945,0.405772859,-0.5616916973,0.2645220697,0.5533937021,0.7277991379,-0.7511195134,40.2687273513,0.2658565568,-0.6065030956,-0.588241454,-0.9032010805,0.9202441958,-0.2014391158,0.2443812326,-0.641279727,-0.7366949838,-0.6995495537,-0.7281609457,0.8525642581,0.049988063,0.3835888973,-1.0034252956,0.6482596722,-0.6660400509,-4.1038685145,0.8426272941,-0.1718537153,-0.3806834014,0.8755452495,0.0123646705,0.8838193781,0.0739797826,-0.4474026768,-1.5577547344,-0.5580420323,-0.5227909867,0.3767224302,-0.2987503329,-0.0330375333,2.7061303362,0.2055616061,0.4488657759,0.3181802821,-0.8762276239,-0.3471195352,0.3049350516,0.3984559195,0.6859874205,-0.2495580483,-0.1867933716,0.3327901964,0.5680351116,-0.9169944608,-0.7262517168,-0.5737060621,-0.8209593986,-0.7014957867,0.0385981316,-0.7190999495,-0.2668003272,-0.3532633514,-1.9101264586,0.6738011224,0.9630031735,0.806622531,0.7802150058,0.592247679,-0.5357828043,-0.6072283211,-0.2765100601,234.4885424226,0.6061721428,-1.1035112208,-0.8444199681,-0.8667158694,-10.2273457671,0.5147558065,0.0442787393,0.1779254568,0.7095147831,0.3889476544,-0.1084521155,-0.5028351481,-0.0947943019,0.726500647,0.5036255339,0.8560187876,0.6002897904,-0.6398971228,-2.9258034813,-0.0390942673,-0.0818913917,0.1868588987,-0.2178920603,0.9272123836,0.5679434587,-4.7717081585,0.324276329,0.5131481824,-0.4785660273,0.1340168424,0.2135914705,-0.6392077956,0.6038862384,0.9884422525,-0.9169833905,-0.6014854524,-0.4203291478,658.4949227147,-42.538396839,-0.58035869,0.575055516,-0.20329106,-0.4265221329,-0.6096940371,-0.7682744004,0.6805743749,-0.443410811,-0.2095651772,0.179509172,-0.7966944245,-0.2312618363,-0.4422946722,-0.0457618482,-0.7144248393,-0.0537271683,-0.0197439091,-0.5390802144,0.2462391334,0.7049495388,-2.0800298477,-0.2612960778,-0.5369929184,-0.0632184465,0.2263136104,0.0976245518,0.3768932326,0.8668248548,0.477870398,0.1281399118,0.4951349912,-0.923203565,0.0254420716,0.6522795419,-0.738598118,0.4742533927,0.5249491104,0.738781005,-0.5043822952,-0.3934049193,-0.8899483243,-0.7873338596,0.8591949906,0.8387400892,0.6736471594,-1.2422801962,0.9497806516,-0.1673032311,-0.3254137429,0.0253012446,0.0722480538,-0.3798479493,0.7958139461,0.7573096714,8.5626768945,0.4680761539,0.2332055594,0.2825780093,-0.9234539064,-0.7403827162,-0.7335803918,-0.9233759007,0.5463739591,-0.5680738475,-0.8810561941,0.9350415815,-0.7263431676,-0.0555688471,-0.5389930697,-0.5111202499,-0.6642505543,-0.7759820957,-0.9027871299,0.6075527526,-0.6805006615,-0.1889172088,-0.5727389889,0.5261083307,0.350344072,-0.0772449463,-0.3184402567,0.1388140398,-0.714925925,0.4237686926,-0.653209251,-0.3543576599,-0.6358475497,0.5042304391,-0.0777506291,0.2944290212,0.693914941,-4.2571915594,-0.3808899014,0.8907154557,0.3064556962,-0.0529127568,0.7281340352,0.2820991028,0.6459525753,-0.4041746252,0.8232723056,-0.2428546073,-0.6733046274,0.7433513596,-0.4822222689,-0.9657729984,0.6267932132,-0.6898663705,-0.4306557687,-0.6395195082,0.5825923608,0.3504702333,0.5659256283,-0.6040293842,-0.6930365881,-0.9416138143,-0.0770655831,0.0035732944,-0.2234418162,-0.4134677626,-0.8543047752,-3.1012633395,4.6171357885,-0.8273702297,-0.6019362176,-0.9028500279,-0.9193504846,-0.8255281504,0.6698176412,-21.1805382283,0.3884812775,0.1026855718,-1.167154785,-0.4435061179,-0.8432137162,0.6863847829,-0.5978103286,-0.6182922398,0.6849906624,-0.3959047975,-0.7300693295,-0.3209056664,0.100832928,0.1977763631,-0.3146684787,0.5675870682,-4.6282112552,0.0778694847,-0.6580417773,0.7683453946,0.4477030874,0.2320149464,-0.1348486387,-0.4846920558,0.7405636755,-0.1092087512,0.7352519366,0.4787009502,176.8880362061,0.3252943106,0.2076737819,-0.6196165043,-0.7032281445,0.7335754769,0.7763051699,-0.255648691,0.7060624837,-0.9195500001,-0.2726520093,0.9506709123,0.2248808926,-0.5586577806,0.1088532676,-0.6491433941,-0.8062230072,0.1480090047,0.5452919957,0.5438307972,0.1439519485,0.6717660507,0.1090944308,0.1179675438,-0.2923372564,0.7645249988,-1.0902776832,-0.8094806235,-0.3794472342,0.3065118813,0.5198266326,0.1262414194,0.6941693322,0.7355475908,-0.121565784,0.3808497681,0.4606347192,-0.2405280487,-0.8956774464,-0.1439025097,0.7614328156,-0.5150841923,0.7482364078,-0.8941048343,0.1497224842,0.7681073793,0.4951084213,0.0999985723,0.5507169199,-0.7101503673,0.2361031348,-0.890326994,0.7122173216,0.151437741,4.1452992761,-0.8610737929,0.0593281122,0.9517582886,-0.0063189219,0.009853253,-0.7319064744,-0.5179979222,-0.2557780824,-0.0692731335,2.8789152791,-0.3837359896,-0.8938215265,-0.8387748546,-0.0760599089,0.7140341124,-0.3986856734,-0.1517228805,0.0711515063,-0.6817061239,-0.4665797324,0.674812139,-0.0316957275,0.1921579149,-0.2338919439,-0.5659345897,0.8004240123,-0.2345531512,-0.3544450936,-0.5610819132,-0.553629087,-0.3320584015,0.6770164788,0.9494953536,-0.0975226024,0.3830825609,11.5281432168,-0.4600687133,-0.30163317,-0.8634589106,-0.7279692734,-0.8666815122,0.1708229536,-0.4389290384,0.8222317028,-0.709889964,-0.3943949383,0.8255677905,53.5044251505,-384.4995801306,-0.8845453367,0.8493293256,-0.7069310524,-0.6821345132,0.3387021943,-0.7607705953,-0.1972296639,-0.1150166456,-0.0159986175,0.4423537398,-0.1709126072,0.3929837489,-0.3108327454,-0.0960963619,-0.3273693374,-0.7513132568,-0.1438685129,-0.6452958904,0.6117073199,-0.6849348162,-0.3482463619,-0.6854652776,-0.5574257496,-0.245464571,0.2425449524,0.2070299258,0.4520336408,25.9882144635,0.2774034293,-0.6093062799,-0.6635263783,0.0422204097,0.2081186635,0.090223089,0.5753270775,-0.2201033068,-0.6781549739,0.2048193901,0.7419435801,-0.3638586526,0.2078350913,-0.3684958148,-0.4435526692,-0.6583951602,-0.4647649412,1.5612055829,0.3887592843,-0.9151926806,0.0503234109,0.7355710966,0.3063447297,-0.0451052344,-0.12399142,0.8730127147,0.3716882889,0.457108014,-0.7148834507,0.6529767624,0.6320346069,0.7666837221,2.9744027675,0.5834544166,0.4064805512,-0.2507922928,0.8592946352,0.654446042,-0.2790282466,-0.2739310773,0.810742666,-0.1526383906,-0.4324234616,0.8130329328,-0.6747374335,0.933096961,-0.6092312997,-0.4676901517,0.9514486917,0.8127534862,0.0426940062,0.9263818313,-0.826053096,0.477599962,0.5620997229,0.4241588947,0.1016658691,-0.5802721832,-1.0581132132,0.3364657716,0.3451585159,0.347881606,0.1872711648,4.3514086669,-0.8985860088,0.8803124893,0.0615067148,0.3515316761,0.7476834364,0.9118320002,-0.4692061498,-0.5220307687,0.5797949203,0.4213169181,-0.6762780322,0.1544346579,-0.9623400438,-0.0851147972,4.2340511253,-0.6526081745,-0.2555376318,0.6040168354,0.6431140051,0.5723804329,0.0822764541,-0.7596385147,0.3189091164,-0.184392925,-0.8388245544,1.1375304363,-0.8570972708,-0.1386952928,-0.0102898489,-0.1282880754,1.7272684456,-0.574095634,-3.0863006391,0.8929420163,-0.7150483629,-0.4880201207,0.3420778895,-136.8185905078,-474.6195545785,0.5367578396,-0.472918624,0.5610612068,0.3600479712,-0.4264662126,0.6692579704,-0.198305559,0.2960617848,-0.5749234374,-0.7336055762,0.5231925375,0.490137585,-0.4313438082,0.1572388114,-0.3200800359,4.4780910391,0.738701764,-0.1256790264,0.549819212,0.2946842254,-1.7210182538,0.19013695,-0.6442153636,-0.4782512074,-0.4458576702,-0.0161411173,0.404497663,-43.009800951,0.1784487712,0.8338649854,-0.1548835654,0.6633022734,-0.5867340829,-0.0862092382,-0.5299991411,-0.086164319,-0.7302686691,0.0297337915,-0.005102015,-0.2736742505,-0.0780215,0.7886473135,0.9321249099,0.6477406258,-0.635332753,-1.7358751143,0.5967472563,0.9671585577,0.5228869674,-0.3063813374,-0.2670198961,-0.3783979953,-0.2811258426,-0.2778630318,-0.3915751149,-0.120656944,0.7254779927,-0.2206790234,0.2440290561,-0.7014595712,-0.0819735444,-0.0924290351,-0.5045364691,0.5100407624,-0.8838944258,-0.1883499054,0.6861956994,0.0103958688,0.0549806114,-0.4274395557,0.7519088585,0.7375395869,-0.411442275,0.2478465207,0.8255298999,0.6300751126,-0.3098420673,0.7446721447,0.9517532801,0.0386163396,0.1860638255,-5.7588320239,0.4276425297,0.1977359924,0.1693363061,-0.8645520769,0.1841980042,-0.5927689914,0.1551084685,0.5862503453,-0.8456709913,51.4816309587,-0.056819761,0.5879921419,0.5727676362,-0.9182340299,-1.3383175856,0.1101428964,-0.7589184938,-0.0802684871,0.4066652423,0.4344136844,-0.4534107866,-0.6867792744,0.2633951633,0.4262868867,-0.5742169362,-0.7183771137,-0.640843463,0.4556840593,-0.9294715113,0.655265461,0.0027012637,-0.6616028734,0.2740355586,-0.6265834579,0.479948104,3.8107934307,0.2892464069,0.7882002573,0.7434293869,0.1607944291,0.4204787885,-0.0571837814,-0.182403176,0.5281783401,0.6321693905,-0.4059815,-0.2500799554,15.1507538867,1158.4819986671,0.1258107674,0.2436011592,-0.8081989004,-0.8627455432,-0.7889974098,-0.6378533239,0.6461217184,-0.6743270569,-0.3193342508,0.7923923168,0.7997665004,0.2165752448,0.2141171773,-0.8677185275,0.0516216155,0.8358417264,-0.047862063,0.0472833727,0.2098424083,0.7376623378,-1.3412804937,0.9675764503,0.231929642,0.8658961114,0.5590973978,-0.5331748929,0.4386907938,-25.472831992,-0.5105410284,0.9988121943,0.2006792471,0.0699671922,0.0018301457,0.7740856002,0.9456878441,-0.2428748077,0.1931239527,-0.3792826425,-0.5109747719,-0.4486650089,0.8831369634,-0.9055143439,-1.2940206124,0.6735448555,-0.7247267728,-0.741708453,0.5396188731,0.6301467424,-0.4469044175,0.3154278884,0.1409490847,-0.5252058223,0.8464132547,1.8928699783,0.6473534086,-0.9596573957,-0.0588855837,0.0536409284,-0.6575693278,-1.2490818665,0.259705619,0.5003118122,0.3735077653,-0.2060242978,-0.4897415197,0.8425254406,-0.6507616945,0.73852389,0.7485122808,0.583578549,-0.0186647144,-0.2703520599,0.0432110293,0.7673135002,-0.0482554792,-0.6794137931,0.0776948583,0.3295742998,0.9424656526,0.8373089011,0.4845573985,-0.5244621771,0.2017360661,0.7717047373,-0.3656749476,-0.1096264182,0.0500441923,0.3458781847,0.7726452081,-0.1885656642,-0.8063640914,-14.0802785395,-1.2334127969,1.2271159856,0.8192003267,-0.4079449238,-0.3992313922,-0.1937279729,-0.0099871866,-0.8960651358,-0.3504702735,0.2679087545,0.4828170027,-0.6784659274,0.8018154256,0.019724855,-0.3957541977,-0.6792299086,-0.4777174792,-0.5765960196,-0.7119697595,0.6420824468,0.6251372558,0.6980877479,-0.2673172597,0.8146877773,-0.1945293003,-4.2366993944,-0.0195268425,0.3102835459,0.7670076803,-0.8416627136,-0.6455486961,-0.9481460087,-0.3154322395,-0.2109336944,-0.6691392713,0.3758287484,-0.2944679604,57.6100102115,678.6704053915,0.8097615761,-0.7571890121,-0.3818883954,-0.4525351662,0.5053498903,-0.9646075945,0.4651690489,0.6329563686,0.5552967785,-0.1699032073,0.3846533144,0.6508701,0.8905840571,0.0360727835,-0.3648410325,-0.1162394818,0.3161210735,-0.4599179609,0.1305173332,0.8438232999,-1.6121471295,-0.8241846976,0.4420561436,0.5786043405,0.2884482975,-0.4473951754,0.8007082692,-8.8026531903,0.5550634668,-0.3569958346,0.4296847234,-0.8127469581,-0.2422714569,0.7242970012,0.5648785115,-0.1249573502,-0.6550716099,-0.5580793357,0.1338225934,-0.2183742251,0.4327016153,-0.951767832,0.8603766366,0.8113714087,-0.3155332102,-0.3996595721,-0.6534722423,0.1252331252,-0.181803885,-0.028414297,-0.8098632147,0.8109772038,-0.4760662936,0.8126732048,-0.1507409247,-0.0028530184,0.0466704912,-0.3333134792,0.6292768624,-0.8943326996,-1.0780510987,-0.6800644191,0.489192312,-0.0008048877,-0.7033226525,0.1426245785,0.4811306445,0.6043015261,0.5450283384,0.4542666305,-0.8823003419,0.7913836443,-0.797664728,0.2273954969,-0.5320957126,0.6793998343,0.4015360331,0.6433459872,-0.0868227857,0.7859573573,-0.6429060455,0.6906033931,0.1297682823,-0.0126820792,0.8941080307,0.7297782411,-0.123352192,0.157144735,-0.6158043292,-0.7005490042,0.6316970741,-43.0193186537,0.8060351114,0.3823680609,-0.7430923064,0.0843947021,-0.4974368887,0.3460290857,0.8623853833,-0.0588441065,0.1362989431,-0.1496042172,-0.3348113856,0.9729502128,-0.3723346284,-0.4426192073,0.6127412535,0.4168436341,0.1551409205,0.314625572,0.7358711142,0.2363870648,0.1802424066,0.9392278675,0.9716920657,-0.0885884303,-0.3607764021,-0.4457287906,-0.7008183573,-0.6269097991,0.1834789032,-0.3351416536,-0.6627109129,0.4589538481,-1.1910552936,0.6283589185,0.1508430905,0.0637333607,-0.0220537866,-313.1367095193,60.5503288294,-0.6144460294,-0.3804886142,-0.7404653938,0.6847152138,0.2560970784,-0.6412189734,-0.9327050809,-0.5273925558,-0.4822004544,-0.3655067329,0.0742151943,-0.8635812427,0.8335504341,-0.7621439225,0.1705129967,-180.8773758323,0.9644394901,0.5549704794,-1.0224481991,0.5779994436,3.0885360068,-0.1886524983,0.4663917098,0.2577104499,-0.0735437609,0.1100806114,-1.0243882372,8.6849321413,-0.3673934738,0.8176948123,-0.9178038603,0.7114385346,0.9265624483,-0.2854131006,-0.0110724568,0.6070500637,-0.3312879679,-0.5015813587,-0.5808375719,0.8526953032,0.7693427539,-0.7640803283,-1.0850345632,0.1686670607,-0.2536535052,0.857315944,-0.4939781159,0.5113818201,0.8677855028,0.7607546256,0.7679252118,1.0744193547,-0.9682500545,0.5082145571,-0.4137316656,-0.9846435679,0.7963710925,-0.3274068169,-0.6359966153,0.2689519418,3.0451695632,0.1299482078,-0.7578838345,0.4790199353,0.7117704364,-0.7059680373,-0.1106013984,-0.7735991771,0.3536210571,-0.4849027027,0.8645251035,0.5508829999,0.0858996335,-0.9216593877,-0.8734883962,-0.5545248661,0.5128663271,-0.7808396245,0.8868684664,-0.0999814837,0.2200799594,-9.0391082904,-0.5601817255,0.5032011454,-0.8344623866,0.4053982937,-0.1060622371,-0.4063196787,-0.1257781425,0.4025411617,0.7210429214,109.8604379233,0.8543287817,-0.0532106133,-0.8714446507,0.5458444424,0.4791250832,-0.3659173637,-0.1167008437,-0.8936570382,0.7155667159,-0.1928218409,-0.2561858096,-0.1919463602,0.2351884815,-0.7476640892,-0.4998155108,0.884910764,-0.8697970178,-0.168712863,-0.6161483811,0.2234381434,-0.537296788,-0.7810751236,0.3204691085,-0.5188561027,0.82635792,-4.9095899954,0.0068234668,-0.5142422416,0.6395871688,-0.4200808378,0.1721359518,-0.4290499738,-0.6379696568,0.2021919503,0.9131245219,0.1715180121,-0.7854314114,-49.9249953059,-705.4626729616,-0.9542977953,-0.0451490484,-0.0773379276,-0.5916683806,-0.441547036,0.19649824,-0.1955132049,0.0866353462,-0.7395019624,0.4650707,0.36701802,-0.1252292138,0.3115320798,-0.6260687614,0.3998969557,43.4958303763,0.898914969,-0.1656575593,0.8758245893,-0.6042118919,-0.7616653292,-0.844423,0.1261417929,-0.5040523687,-0.6076542758,-0.2671148226,0.2912764093,-11.4141865127,0.5688791361,0.0995160354,0.4373730891,-0.5289023377,0.3962076299,-0.147087685,0.4239741913,0.8851278728,-0.9195580462,-0.0905490061,-0.7613516078,0.3393698752,0.2619869949,-0.8213215953,-0.3916229765,-0.0064525179,-0.2980088908,-1.3037225537,-0.8017106157,0.1265054253,0.5091027112,0.6920730813,-0.9545235035,0.0007613485,-0.7007704309,0.7999240813,-0.8019795963,0.4006832885,0.6048691927,-0.0046724596,0.7269767193,0.6078346584,-1.4258412391,0.4196083712,0.3879610884,-0.3619985762,-0.8469714458,0.0687198597,-0.579091097,0.0793197924,-0.2974550772,0.3909258552,0.1441484257,0.0908901545,0.1048157897,0.342815626,-0.002540752,0.7268746852,0.9621104181,-0.070567489,-0.5773950036,0.1505555706,-0.4195484316,-1.9166645968,-0.5297069151,-0.529769038,0.2468568934,0.6537552136,-0.4739571317,0.6774802836,0.5466975536,0.7790842443,-0.6053858029,-0.5304394192,0.5630571315,-0.0908801641,-0.8689112294,-0.2318806388,0.1306666946,0.871117588,0.3501221907,0.7699654611,-0.9210989902,0.8628999547,0.4157676718,0.9373560289,-0.7990900279,-0.6707126058,-0.4075087837,0.1173990603,0.413827661,-0.1010170921,0.2575339975,0.9688549347,-0.1031689143,0.3139796702,0.8481818573,0.7641771827,-0.5298115959,-0.8394419268,0.033475267,-0.6678703957,0.2189392697,-0.6308227193,0.3801644964,0.362836342,-0.2487483982,0.0908204868,0.5568874174,-0.1386154103,0.1612527695,-469.260520421,584.1328275162,0.2784893753,-0.5024648406,0.6311208796,-0.4157137487,-0.8420326517,0.1591697443,-0.5873922636,-0.0131801829,-0.1640046618,0.659927193,-0.6298660622,-0.0561833268,-0.0103861912,-0.283903188,0.6499115015,-0.4245785534,0.1033421684,-0.1853580227,1.0249500463,0.4794898657,-0.1050506907,0.3050034303,0.0019416975,0.9736862813,0.6395800843,-0.0317231505,-0.3337760902,-7.8814558734,-0.6697275792,-0.2893522975,-0.3645307956,0.8067133378,-0.346772238,-0.6406391285,-0.176612109,0.073624552,-0.4435870465,-0.4172155355,-0.8789534362,0.8181038037,0.5428500844,0.4353235693,-0.3841880801,0.5950833226,-0.5292133549,0.2334221123,-0.9088487211,0.8578575046,0.9844572984,-0.1975717182,-0.4357954889,0.1974578324,-0.6444147368,0.0676895364,-0.4978666791,-0.1197081236,-0.9527513071,0.370871463,0.8597165021,0.4470053307,0.2195238813,0.0741596956,0.3554031689,0.0695426467,-0.9026577151,0.4012406801,-0.9400143539,-0.543968329,-0.1328045431,0.3012259968,-0.3631332523,-0.851192348,-0.4107969161,-0.3610905062,-0.3923716623,0.0964305021,0.5384452397,-0.7393471433,0.1826017153,0.0525083708,0.3547232741,-10.3910205853,1.2135819719,0.5900466583,-0.6467336221,-0.637227234,0.7060285719,-0.8929746941,-0.8206681688,-0.7406436394,0.1922135234,-296.900210959,0.5926227489,-1.6078030296,-0.4435859922,0.1390672127,-0.8507054246,-0.1668136363,0.0318039925,0.583307037,0.7046543182,0.7058928499,-0.5638480974,-0.6948549916,-0.0885272213,0.2321088215,-0.3848508409,0.1176086648,-0.0758430749,0.5769739353,-0.5141302474,-0.6017334855,-0.9113064333,-0.099667613,-0.0344757507,0.4585761959,0.5926610974,3.5806441554,-0.4004821691,0.1814150071,-0.4686045454,-0.4072067021,-0.1411670177,0.3554327369,0.108707041,-0.9077308593,-0.2080171801,0.5635875027,-0.4039253435,-104.8733526824,117.6234098796,-0.4658994629,0.3998213677,0.0909913997,0.9241762666,-0.4778419282,0.5377402787,0.0363866295,-0.8557274906,0.1268787662,0.4822413254,0.6401299071,0.4077792989,-0.5893137962,0.6830964478,-0.6763841064,-14.1096353739,-0.1872820674,0.6838752286,-0.8774001272,0.1268960075,-0.3807790829,-0.0065836717,0.2394826307,0.9226096955,0.4302680856,-0.1232332415,0.2647581241,37.4635783654,0.218155995,0.1009598466,-0.7182080923,0.2713055405,-0.1266585429,0.4115000264,0.0968454348,-0.4097737623,-0.3226415267,-0.8646499137,0.4091920548,-0.6317338008,0.3978576306,0.4995516949,0.6801753804,0.9374846338,0.2100404051,0.9911128301,0.7727968701,0.8652797792,0.8322157931,0.4495912758,-0.5520878153,0.6765830042,-0.6566559765,0.5540419467,0.7872939844,-0.5183900798,-0.426711292,0.7415935727,-0.2886931747,0.7807434028,4.9838189108,-0.0539824427,-0.1151979533,0.5555837184,-0.7602245959,-0.0958492981,-0.3895228212,0.334595263,-0.7464737278,0.1937471673,-0.084781385,-0.3654135498,0.3480269781,0.490368262,0.2885651044,-0.7967547203,0.4026133852,-0.0151404874,0.131881956,0.4833818958,0.825362723,-0.135699779,0.0497520528,0.9140533738,-0.1611856069,0.4044358935,0.6244411338,0.2519239681,-0.9348560045,-0.8535870797,0.4628446768,2.7663808952,-0.967104078,0.4318787549,-0.7708683799,0.2620455422,11.6788014085,0.6960569643,0.0694184315,-0.7013780298,-0.4548702125,0.9301754553,0.4203361623,0.8567066919,0.444420382,0.203633106,0.7020676708,-0.3902805607,0.3465610479,-0.3921601819,-0.6948680572,0.4240456635,-0.815157208,-0.0800966838,-0.2256466604,0.9193854596,0.794181597,0.6432785884,-0.8890368444,-0.383253109,0.655487312,0.7897067868,-0.0467710812,0.4131856436,1.0621746628,-0.3323428944,-0.1473206895,0.6117269328,0.9206299422,-58.6084315046,-296.482669586,0.9808568154,-0.612706924,0.9009512185,-0.8541322804,0.0362660494,-0.7596320731,-0.4294941847,0.5560533868,-0.2684249013,-0.6280872724,-0.2143033647,0.3180320635,0.0051042491,0.4318728342,-0.9632301911,6.4200071252,-0.2733914168,0.4480305844,-0.7402675857,-0.2988523223,-1.8219977761,-0.6017747829,-0.20072364,-0.8054781559,0.4394050091,0.0417002696,-0.0862008669,0.6409466206,-0.0836257417,-0.9192212991,-1.0492255603,0.5700278933,-0.734637531,-0.1291661325,0.6377484344,0.4154435697,0.3083454041,-0.564388424,0.8169518537,-0.3981089774,0.8176127657,-0.8486844524,-1.1819440441,0.235724845,0.7827453624,-3.7986982656,-0.152604054,-0.811460593,-0.1836697197,-1.0865584165,-0.6439006913,0.459823693,0.6024611823,0.173494223,-0.9095821989,0.7245666926,0.2602987903,-0.3314491241,0.0486926257,-2.4979363596,-0.5240403124,0.3085726704,0.6623619129,-0.2293197159,-0.9203080169,0.5533572597,-0.4555387739,0.5763024286,-0.5222930944,0.1506192232,0.0057401595,0.7579930497,-0.9372667908,-0.5608743049,-0.9789530997,0.0241236837,0.1067758746,-0.7509579312,0.8033589045,-0.9154124728,-0.0765286763,-0.2627917661,-0.8406223198,0.2194899767,-0.6635888667,-0.9578642905,0.3654924589,-0.6828695936,-0.7314073218,0.7072993732,-0.6042377341,-9.0081803545,0.3503984588,-0.8443209464,-0.4253731593,-0.8119161114,-4.6228812619,-0.7985269633,-0.3821785872,-0.4618188627,0.7017240728,-0.999250093,0.1041207113,0.2209996631,-0.5346201144,-0.4452642781,-0.1191237021,0.7083293683,-0.5209800136,-1.0277028142,0.4552846513,0.7017982641,0.4386949375,-0.0287647219,0.1418868076,-0.1943178116,-0.5022263204,-9.016555113,-0.0758480943,0.7223793051,-2.8989988203,-2.3510989449,-0.6316484062,-0.1985782213,-2.4051226604,0.031445391,-0.7239109714,-0.4769178502,0.166815308,67.0878534267,0.0953251359
