encog,BasicNetwork,java,3.4.0,1,1615065262339
[BASIC]
[BASIC:PARAMS]
[BASIC:NETWORK]
beginTraining=0
connectionLimit=0
contextTargetOffset=0,0,0,0,0
contextTargetSize=0,0,0,0,0
endTraining=4
hasContext=f
inputCount=130
layerCounts=1,131,131,131,131
layerFeedCounts=1,130,130,130,130
layerContextCount=0,0,0,0,0
layerIndex=0,1,132,263,394
output=0.9643735161,0.1935298473,0.0221176047,0.0915647283,0.1708504253,0.5208114005,0.4788589147,0.94511186,0.6008867684,0.042109746,0.000000209,0.1748715763,0.53917048,0.108249978,0.9783233277,0.5546510009,0.9762460118,0.8653943914,0.0382652763,0.1510219676,0.4934061742,0.9050401643,0.9797112661,0.0654264837,0.9427429688,0.2659460298,0.022106764,0.6615192883,0.0559940968,0.3230467668,0.9939356728,0.0362609365,0.8901969592,0.4234646392,0.0531582684,0.0401826239,0.0961003202,0.1541041307,0.7942245601,0.0497841022,0.948793289,0.479676148,0.0705108159,0.7578954454,0.6710798515,0.6996632259,0.0097873683,0.8938630965,0.5731911188,0.9474204636,0.0224860467,0.7029425206,0.8972631203,0.9881520937,0.0145119213,0.0372119772,0.9175645448,0.7075417677,0.9526405374,0.1559020876,0.0994742272,0.9503243981,0.9938676742,0.2338207841,0.9259474485,0.5792131215,0.0404829102,0.0386846581,0.8890907631,0.7555967841,0.8962523624,0.0169527034,0.130183793,0.0583636428,0.1105274676,0.2942517376,0.8380903589,0.9456926237,0.4219435352,0.5728638158,0.0225510363,0.0989253228,0.7699296099,0.7188213229,0.0347148655,0.0337151764,0.0642267122,0.0195391018,0.6191827219,0.6956788783,0.6998766269,0.335888687,0.0411051116,0.4007084791,0.8787201413,0.3027693376,0.218752394,0.0745674815,0.6785649048,0.2060437656,0.0417038008,0.4788746778,0.4270779411,0.0452781521,0.8705799021,0.3433178668,0.0289518692,0.9067229941,0.1604538142,0.0359615798,0.0821291403,0.2492518578,0.9210149064,0.4940033587,0.3754131844,0.7080972222,0.0000013678,0.7073061784,0.5704754321,0.4096391121,0.9387970348,0.3421988318,0.0234754234,0.2151911273,0.3454924812,0.2067400911,0.9964296187,0.4953311165,0.9018936503,0.0348445761,0.0593491567,1,0.000000026,0,0.2329227093,0.0001266716,0.9341606892,0,0.0061366641,0,0,0.0000068902,0,0.0000000005,0.8234365425,0.9759925748,0,0.1189084014,0,0.8632416515,0.0055422444,0.0000096254,0.0000000208,0.9977344882,0.0000866797,0.0000396711,0.1835574645,0.0000169407,0,0.0000000011,0,0,0,0.0149149141,0.0001682092,0,0,0.0008270148,0.0000000003,0,0,0,0,0.0677238114,0.0000422815,0,0.0000000002,0,0.0002674167,0,0.000000112,0,0,0.7403320086,0.0220016661,0.0003850993,0.0000021792,0.0006106316,0.0158499359,0.0034695368,0.4891203116,0,0,0.0000004371,0.0004209276,0.003236986,0,0,0.0029529199,0,0.0002552158,0.366656504,0.0000016614,0.7302485349,0.9765792796,0,0.0000198389,0,0.0000000003,0.0029472762,0.0040785791,0,0.000032335,0.0174263528,0.0000000001,0.999999539,0.9871745283,0,0,0.0002769979,0.0001575407,0,0.0004820783,0,0.0074942351,0,0,0.0001928299,0.0000371991,0.0000000003,0,0.0000000002,0,0,0,0.0007149488,0.0147823283,0,0,0.9997479797,0,0.0000060631,0.5923898197,0.9999874557,0,0.9995757888,0.9993371713,0.9978225631,0.0202449588,0,0.009554445,0.0012466612,0,0.9998357289,0.0000000001,0,0.0464900967,0,0,0,0,0.0029425345,1,0.0090986405,0.0009545338,0.9999914184,0.9999544587,0.9947838238,0.9174650102,0.0000002836,0.9999653199,0.1530477219,1,0.7861555968,0.9999890838,0.963974031,0.2049050052,0.9999960023,0.0020273044,0.0568829173,0.0000032728,0.9999999289,0.0158139005,0.9999999995,0.9999983601,1,0.9998975809,1,0.1990287629,0.0000000015,1,0.8596856675,1,0.9999999909,0.0008810144,0.9990721384,0.9999999999,0.9999999999,0.5058520628,0.8788856406,1,0.0002685075,0.5863985571,0.9999999115,0.999999643,0.999951286,0.9999999999,0.9991672057,0.9999992043,0.016261507,0.9768681368,0.0000679641,1,0.6855082772,0.9979092015,0.9999202943,0.0071763663,1,1,0.996759054,0.9999998328,1,1,0.9999991316,0.9861466469,0.9976220974,1,0.013902373,0.9999999985,0.9998834759,0.011909721,0.0030021047,0.0515062861,0.7490178437,0.9997758504,0.9999995802,0.0000000931,0.9990846604,0.9999987976,0.0082710625,1,0.5232711829,0.9536371525,1,0.0208088242,1,0.9999999997,0.7866189535,0.0000041111,0.9606455964,1,0.9961989305,1,0.9999999961,1,1,0.0000000482,0.9999995018,0.0023051082,0.9992544447,0.8280448103,0.9999667358,0.1057819074,0.9999999591,0.000000002,0.9999998993,1,0.9823825088,0.9979033488,0.2191025388,1,0.0024750472,0.0000099582,0.9989542236,0.0157648237,0.9999991488,0.9999513498,0.9863322399,0.9999527477,0.9999585266,0.9999970646,0.997565229,0.9955196566,0.9230081342,0.6069041853,0.0727251361,1,0.9999998392,0,0.9770464191,0.9999877544,0.9999998069,0.0036582648,1,1,0,0,1,0,0,0,0,1,0,0,0,0,0,0,0,1,0,0,0,0,0,0,0,1,0,0,0,1,0,0,0,1,1,0,0,0,1,0,0,1,1,1,0,0,0,1,0,1,1,0,1,1,1,1,1,1,0,1,1,1,1,1,1,0,0,0,0,0,1,0,0,0,1,1,1,1,1,1,0,0,1,1,1,0,1,1,1,0,0,1,1,0,1,1,1,0,0,1,1,1,0,1,1,0,0,0,1,1,1,0,1,0,0,0,0,0,0,0,0,0,0,0,0,0,0,0,0,1,0,1
outputCount=1
weightIndex=0,131,17161,34191,51221
weights=##0
##double#51221
   0.8823537116,-0.2753353362,0.0589433914,-0.8837419199,-0.5262349688,0.3560127035,-0.5865344272,-0.5120128845,0.8506372492,7.458151966,0.7770030463,0.9000448925,-0.8186475984,0.646052539,0.3361479962,0.5272535106,-0.8614907789,0.0361774104,0.4965692349,0.7279125958,0.5918737267,-0.4496155665,1.0238764043,0.9323663913,0.9534898832,0.6134493337,0.6883706303,0.4408743397,-0.3782026351,0.5812402634,0.2810869987,-0.4162947105,0.1131720197,0.5722182026,-0.4895843853,-0.5738051175,0.3498582082,-0.1417400837,-0.9007090768,0.2553921579,0.3176296479,0.7319702386,0.6554536201,-0.3725367933,-0.3222687144,0.562566234,-0.4359119428,-0.2635990212,0.7353881893,0.1866404848,-0.5154220443,0.858436292,-0.0657192159,0.0734254117,-0.1265582613,-0.7647587312,0.3326162041,0.6732583709,-0.6261559277,-0.900618432,-0.3066501383,-0.5796518991,0.3431711632,-0.748236942,-0.5221441511,-0.3804514774,0.7921353451,0.9213565629,0.158592039,0.6075856994,-0.4355756363,0.240715913,-0.0155036464,-0.3014579297,0.1116852465,-0.8973143782,-0.5633808593,0.3973485483,0.644619562,-0.4714036048,-0.5430351832,0.3221604541,0.8406499562,-0.8121962014,0.8859661884,-0.8665062645,0.0095957897,0.5967671385,-0.1718755984,-0.6393291581,-0.5552839604,-0.8001329832,0.2453991238,0.4896034567,-0.5363032498,-0.2042251947,0.7605577356,0.1267240574,-0.7480713858,-0.1287107839,0.2543059169,-0.6295812326,0.4284246619,-0.7246928228,-0.0628841311,-0.3927451341,0.4141124062,0.2305234709,-0.2268139946,-0.2976398177,-0.1976144474,-0.7351943512,0.2417595003,-0.2542437212,-0.4694269613,1.3652489762,0.7796905697,0.3467735359,-0.6065621957,0.4756611364,0.7495105805,0.9448285947,-0.6510448146,0.1165900001,-0.677528385,0.6501062208,0.1700887864,-0.2127139568,-0.230658318,0.9973718455,0.1654546337,1.0937285651,0.5761734279,-0.8609291591,-0.564043637,0.2474621586,1.3539025497,-0.3078877416,0.2439782699,4.9907235398,1.7898563518,-405.4991499924,-0.4742069067,-0.8518061669,0.4274603517,-1.0401224285,0.0400085686,-0.4355744679,-0.6514334667,-0.2920170019,0.1437113523,-0.0060371064,-0.6657381546,1.0816667162,0.9998973788,-0.8296676905,-9.3640742199,-0.4850417953,-0.7365405248,-0.8614636701,-0.2824040213,0.4399908773,0.9499461021,-1.5447523851,0.0351830261,-0.6083041887,0.129231585,-0.506677692,0.3740913244,0.0153065854,-0.0816618734,0.6802856099,0.9934130747,0.2230086119,0.1372532717,-53.8213624194,-0.5168424896,7.1209024469,-0.0949898146,0.7518878309,-0.7860651754,-1.0915833593,-0.0554279478,-0.219461004,0.7487280354,-0.7317943449,-0.3705169593,0.1742277693,0.0854268041,-0.4020730273,-1.3559316129,-0.7027660669,0.2120332432,-0.743790415,0.5422547182,3.315384968,-1.3985403087,-0.6762873023,-0.4037548685,-0.1408921636,-0.2550903993,-0.4369264022,0.4499078667,-0.6445964619,-0.2699120908,-0.4990001066,-2.3347088586,-0.2576069888,0.3696018064,0.3966445833,-0.8110503823,0.8467569009,0.544298839,-53.7446132606,-0.2523917096,-0.2186465272,-0.2104906565,-1.1304829861,-0.2936646089,0.8153761807,0.3746379921,0.1255077028,0.0299120473,0.2959243544,-4.9431963786,-1.0470087771,5.1708519451,0.0790856276,1.4068653594,0.8685405528,-0.6160932118,0.2539641291,-2.9581242393,0.1297583558,-0.3703702775,0.834330388,12.3439562072,-0.8292913228,0.5183121782,2.2883626831,0.4876718029,0.5733184812,-0.3549750852,-0.3513092606,0.1117021466,0.2045987076,-0.6168441962,-0.4115660257,0.4430509843,-0.9469563728,-0.8499003406,-1.9692660431,0.0592715277,2.497585752,-0.6433880626,0.3580668997,0.6465793044,-0.4303535929,0.6705061213,-0.5494937822,0.5969605251,0.9332584367,-12.2861222917,-0.1762200705,0.09060375,0.8800790235,0.1023207669,0.6280347511,0.636903423,-0.2768077841,-1.860761675,0.5644676845,152.7264880956,-0.2140376128,-0.3100493548,-0.982667736,-0.6859037171,-0.4302414259,-0.5267168742,-0.707483618,0.1082578243,0.9587682607,-0.6957072424,0.621486372,0.9273872812,0.0258855804,0.4178878779,10.0140059528,-0.0290603597,0.2238093407,0.7087774303,0.8449531282,0.9777626417,-0.9246726858,1.0962637539,1.556444066,0.312904487,-0.9323072336,-0.4701313466,0.6425715889,-0.5927412483,0.5386363917,0.3288496094,-0.4130071131,-0.2581586659,-0.6599437466,19.3162950186,-0.1547905928,-8.1727244329,-0.2194486718,-0.7633171532,0.5251864328,0.2536235345,0.6749153941,-0.0502664068,-0.248520394,-0.7057906602,-0.8171349709,0.3757241493,-0.5080325242,0.670412683,1.4379648307,0.7016103292,-4.6390111995,-0.7434431729,-0.3450375892,-1.8011670907,0.8836755492,-6.7214723428,0.2478306254,-0.0784705381,0.4923446093,1.9582181452,-0.6713827688,-0.284381235,-0.4865615438,0.8463765927,0.5554079014,0.5339075975,0.5271678547,0.5286140604,0.105019154,-0.5840895343,-0.08507622,26.5137488484,-0.1591462966,-0.8056039061,-0.0880740898,1.4006130596,0.9598797279,0.9011688017,-0.8381577662,-0.4145534701,0.7475394998,0.9449508305,4.9941077528,-0.1632888968,-12.7178139601,0.1969809803,-1.4726904594,0.5433088326,0.7921878392,-0.3711893602,2.4097460153,-0.8465055699,-0.3050413603,-0.4087140481,-3.4105721516,-0.1988745079,0.0841941805,0.6081589992,-0.9175536617,-0.6659622955,-0.6233277864,0.8649674099,0.0396312171,0.1424335647,-0.1804455943,0.182603677,0.3036358816,-0.6533808987,-0.1923985765,1.104264779,-0.4013414821,0.7658331688,0.6196283647,0.4951389428,0.0908046686,1.444255164,-0.1326323643,0.5470250914,0.4342073579,-0.6427142611,25.079591951,-0.6142929239,-0.8232630289,0.5704156825,-0.7382724574,-0.0702477526,0.7429229868,0.7371227461,3.086061974,0.6034846716,-595.8947204279,0.3330244327,0.4561304705,0.4164414105,-0.6453843629,-0.0937822459,-0.9515331016,-0.3922290306,0.4613843754,-1.0325742072,3.1436493731,0.1135734257,0.1854357743,-0.5484907141,-0.638876588,-6.9455875344,0.3514467492,0.5440623163,0.0472992395,0.1354411708,-0.4453766634,0.8247829617,-1.0517250998,-1.4711891189,-0.2699634671,-0.3986148917,0.3748005817,0.5365864455,-1.109210527,-0.5895274636,-0.7979987648,-0.1856054664,-1.0721419075,0.1147165862,-128.0329214173,-0.4727552275,29.3089407361,-0.298545664,0.378681643,-0.4171106106,-2.6853590716,-1.0776295104,0.6773164912,0.9358628613,0.0328041095,0.7739215305,-0.8708574791,0.5244951301,0.7565938272,-1.9599574116,-0.0286630253,17.6621377294,0.8949470488,0.6220434417,0.0375933266,-2.9052732295,0.9856975285,0.425315951,-1.4740641444,0.7282328195,-2.8061461896,-0.8075725299,0.0335016538,0.7433916499,-0.2303717641,-0.6415389651,-0.7011207238,-0.3996769353,0.5281090303,0.9625108084,0.2234215633,-1.2018005255,-6.4403716435,-0.4596238041,0.6865544812,0.2117032892,0.2667569063,-0.0145644074,-0.4842131374,0.4384993371,-0.2194095679,-2.34766985,-0.0788553666,-3.7414022148,0.5976229441,4.3913223773,-0.1486573804,1.7034471482,0.585434659,0.0726768287,0.5665653586,-1.3793725467,0.8962573064,0.4640274784,0.303379361,1.6096370692,-0.2434108272,0.3270795904,-0.3541926412,-1.1485972255,0.2689479438,0.7487446459,-0.7895799138,-0.4581461366,-0.5164161707,-1.0663773954,-0.155138703,0.8168245085,0.7532073604,0.4492641446,-2.1443532135,0.0299343718,-0.3119461462,0.550938649,0.3501264184,0.3340349695,-0.7248394753,0.4336867632,0.4718086438,-0.6227221581,-0.5956165658,-3.0935102482,0.2527671032,0.0101886083,0.6119782622,0.8608365346,0.5039049895,0.3298143617,-0.4822459747,-4.4050982759,-0.7277477261,153.9358352864,0.7801082722,-0.862409017,-0.3832180948,0.7378758258,-0.4562074741,0.7975233577,0.7334544315,0.6384878038,-0.1002521569,-0.4707518013,-0.7932684745,-0.5768569706,0.1528890592,0.3872420903,8.6968250482,-0.4050547314,0.4891863384,-0.4461613295,0.9137999027,-0.8363146358,0.690125992,1.4026601427,1.6479290462,-0.2637304109,0.5272047337,-0.9589814112,0.8571039854,0.4762410958,0.578584717,0.1637859641,-0.099574554,0.7479417262,0.1281462378,1.9147891421,1.0991002156,-9.7620877239,0.3201194199,-0.750402207,-0.6225969154,1.5131133272,0.8422452851,-0.5307554349,-0.035899372,0.4001276011,0.3393927834,-0.9552535574,0.6879859438,0.8045526584,0.3821194693,0.2029689982,-1.5498066268,-0.4093891012,0.0147422695,-0.9414050492,2.4131427977,7.761038801,0.0340972865,-0.4327939208,-0.8774029416,1.3967499053,-0.6495866464,-0.9253894931,0.5277568487,-0.8326950784,1.9819190285,-0.3299206519,0.4731577873,-0.7041019603,0.1148985491,-0.9136968901,-0.5585317662,37.7619649226,-0.1311517466,0.7828182504,0.7143325608,0.2864975931,0.7874738044,-0.7031316956,-0.7186414776,-0.7248944194,0.5475351524,-0.0907786503,5.5490216049,0.08619421,-2.8463806769,0.4820024392,-0.7913985943,0.5502865488,-0.1166138293,0.5707640387,0.3575286377,0.5895652604,0.964339719,0.8467267975,-3.6192663126,0.8875158382,-0.6172092807,-1.2730257545,0.3670534197,0.5062016546,-0.466211774,-0.3928146117,0.134668229,0.2338188492,0.9463863533,-0.5149422169,0.4775993784,0.8795968176,-0.580497769,2.449678049,-0.8697808711,0.3137481362,0.4630856903,-0.9048891771,0.1728260611,0.99430085,-0.5475901754,-0.705472111,0.8161697253,-0.7428946775,-3.2491531023,-0.4082614649,0.5933644727,0.7451405575,0.4308276567,-0.4896139815,0.69144191,0.4971728718,-2.8538274961,0.4396810265,404.5325034814,0.0860694967,-0.8332958605,0.0569762456,0.499115198,0.4705855739,-0.0349724418,-0.3161710372,-1.0997046526,-0.5860528587,-1.0258987214,0.4101139258,-0.3885396549,0.433393568,0.9834087161,31.2230732518,0.4145742461,0.6502953576,0.1469110819,-0.2450983097,0.2003922504,-1.3479555429,5.3183108418,-0.0303241876,0.8969949586,-0.5638930569,-0.0480204215,0.6523708006,-0.0588260521,0.5316382314,0.1578603833,-0.3914193597,0.0707279395,-0.3599332394,19.3842266724,-0.1547205794,-14.2003726999,0.3551507678,0.164081482,1.0902401691,-0.2477488939,-0.0165378395,-0.9981400099,-0.5126437149,-0.8422563718,-0.9638545731,0.2130250077,-0.1772153854,0.4535247361,1.2079580747,0.026728039,-1.9686687068,-0.2651848258,0.5346335954,-0.1260689439,2.0751787849,0.0030014286,-0.7932950603,0.0543989352,-0.3164905105,-0.0472640379,-0.1932861254,-0.8604383781,0.3104208866,0.5431212736,2.3956491622,-0.208893038,-0.4369101007,-0.5621796471,0.3816153205,0.1185712792,-0.3930877634,53.3495065062,0.9906239968,-0.5114322912,0.6053721999,-0.065781063,-0.966130439,0.5389953617,-0.4666403532,0.0048622663,1.4398149487,-0.4359578103,5.5463353046,1.054427668,-12.35759593,-0.3632612853,-0.2039018856,-0.1776973256,0.079533994,0.2650069547,1.9904116991,-0.4104835831,0.7105911009,-0.3852449691,-2.4074206524,0.8279585319,-0.9574070819,-0.2540860809,-0.4766056816,-0.2477028062,0.8333418743,-0.6671122875,0.4608796825,-0.1406925358,0.6736808643,0.5114881693,-0.661906015,0.6942538752,-0.5607771461,2.1192958226,0.4136357783,-0.538643741,-0.6694424003,-0.1995788599,0.3116783253,-0.3333786044,0.3758227966,0.0752786534,-0.3427822827,-0.8476740099,2.8030583393,0.8103033986,0.099992985,0.7021477266,-0.8779216409,0.384525457,-0.62835528,-0.1201247689,1.3315519394,-0.0778673358,-153.4280106561,-0.1211265226,-0.1618455592,-0.6354343376,0.7649898566,-0.8137780291,-0.8103091118,0.3033382101,0.179876862,-0.9683251948,-0.0970383171,0.3031265857,-0.0392090726,-0.3061147844,-0.5341218175,-7.6805263561,-0.3574498495,-0.6188798216,-0.0365710707,0.2614419451,0.8496763334,0.7839029309,0.6398121373,0.1133205639,-0.9096157848,-0.2666279327,0.783163453,0.1583389471,0.5585020936,-0.7151883907,0.3246426134,0.3157344674,-0.7137670283,-0.7650704903,-19.3096264606,0.3873144742,11.5661579981,-0.2001409358,0.4019068766,0.6124316242,-0.9925133755,-0.5911064641,-0.4654710328,0.1878146776,0.0483559889,0.7822483129,0.6125116224,-0.2225127521,0.6521239233,-0.7016993483,-0.1586962508,4.5206711207,0.8483740034,0.2525022084,0.4815112017,-0.8073050526,5.6826001332,-0.8584733657,-0.9034155968,-0.7270312817,-0.6382639535,-0.384879949,0.9636190043,-0.7149067119,0.9137598599,-0.4576781606,-0.2843146922,0.029882607,0.568264681,-0.4998965797,0.3469373357,0.8691723391,-10.3008520241,-0.2496797646,0.2003292222,0.6319414772,-0.2509226238,0.3489818221,-0.3065240143,0.9474550766,-0.3688609935,-0.6940380455,0.0761571953,-3.9948218296,-0.3903335891,12.2364470598,-0.3764024332,-0.2731125043,-0.3749909138,-0.6614172563,0.8194243704,-1.7342187401,0.7865049344,-0.153270984,-0.472277318,2.2395226346,0.6404531492,0.0639481976,-0.4901865414,0.5548563874,0.8741304331,-0.7582983972,0.3315371073,0.661993362,0.0204962661,0.2696634809,-0.6682061219,-0.552401395,-0.8491290736,0.6196303594,-1.9106694152,-0.2755877331,-0.4679471315,-0.4073110527,0.1352051704,0.2345258762,0.113491702,-0.9342613318,-1.0872757552,0.7921181565,0.3230257873,-0.9184005386,0.1206149132,-0.8097424219,0.4994262461,-0.8625534084,-1.4705855953,0.6842338686,-0.6165142101,-2.2943664688,0.0693211778,404.8968305364,0.4609909585,0.7670414652,-0.2263562609,-0.8557092715,-0.3320025927,-0.9468689901,0.8016832287,0.0542332541,0.7071855256,0.2782326126,-0.4341198865,-0.8963946155,0.4054376878,-0.2528093333,31.3651533824,-0.4350790741,-0.3038194831,-0.1667538136,0.0696126922,0.8937794572,-0.8847508134,0.3409184232,0.1548630975,-0.4168636539,0.3007082734,0.7397315694,0.2557722033,0.0420658959,-0.4334386878,-0.1335461299,0.7181601702,-0.4464387752,0.919290935,18.8070450513,0.5224731233,-12.5161115466,-0.0745835896,0.8898152605,0.2793573407,-0.2685098796,0.5582909196,-0.8260948553,-0.6287701077,-0.5771452204,0.9333546741,0.1485612799,0.4082308519,-0.1669217705,1.2986462079,0.5907988319,-3.1010716058,-0.8237631893,0.5711444514,-1.7584169417,2.3644825635,-5.4556163147,-0.7742811996,0.3469862587,0.2375107168,0.300634685,0.0031106966,0.086980189,0.7284615464,0.4924863999,0.772591598,-0.1925438111,0.4179150105,-0.8436388531,0.8630422114,0.2084828463,0.4830185569,30.5124614784,0.7551876106,-0.7853718955,-0.848133451,1.4335943377,0.6911180624,-0.5283093567,-0.7078801203,0.3530264602,1.1987616495,0.5979701096,4.1591973059,-0.441033044,-3.7483981189,-0.890884368,-0.545929808,0.2506043511,-0.1920007364,-0.4543941619,2.6398549779,0.1945886384,-0.4344051381,-0.8656301708,-2.737142327,0.435280533,-0.0107085692,0.5402648715,0.9636242644,-0.4149241723,0.7693163584,0.9148176348,0.9760568983,0.7250308426,-0.2328407711,0.2740902946,0.7330403319,0.5574148861,0.8831186106,1.5788104029,0.73403009,0.8800558435,-0.4998887575,-0.9017295092,0.7328002359,0.7433667147,0.0015774226,0.3311968081,-0.7468191298,0.0824189063,-3.7299626864,-0.622503867,-0.4567899986,0.0630343126,-0.1736795181,-0.2615898744,-0.0474519808,-1.0230294176,-4.551584331,-0.4227762451,152.6877866406,-0.7126082717,0.7752509902,0.0339814791,-0.194564686,0.6223836732,0.9423500595,0.4070896234,-1.0276837248,0.1982512448,-2.5873622316,-0.2822524993,0.7815333678,0.1122174386,0.3824325903,8.3326560377,-0.1684465948,0.3963927812,-0.6222569279,-0.4475487619,0.8607729754,-0.6778660433,0.8597376504,-0.0059046371,-0.1648457931,0.698559777,-0.3939668783,-0.4147392555,-0.3086908594,-0.0449841697,-0.6413442972,-0.2866432933,0.3503546427,0.6422174984,53.0071774644,1.0593057737,-7.0461128638,0.3272405716,0.2526981938,0.2581036313,0.4772264927,0.5759062334,0.3305364275,-0.7219332549,-0.6273004361,-0.0523056092,0.2863084149,0.7233518109,0.2776068879,0.1410428893,0.1072647476,-1.5948284446,0.8674548204,0.0814871399,-2.5968646255,1.3268541693,4.7225434042,0.1762467148,0.8526552759,0.504845262,1.2175460378,-0.733236711,-0.6407025822,-0.7989969152,-0.9266030599,2.4324002731,1.0143596544,0.7254770764,0.7773161104,-0.67669568,-0.5078489475,-0.7880888786,30.3006470555,0.4520369929,-0.1879268972,-0.5372179155,1.3785801928,-0.3054274794,-0.131147013,-1.2406670396,0.8375660792,0.7888502995,0.6674897797,4.3686032208,-0.754697385,-6.1667452334,0.9267316482,-0.3120099641,0.7320783042,-0.7555517094,0.2519971916,2.0559093537,0.9182167519,-0.7798236131,-0.7804671931,-4.4240772854,0.2013975117,0.6741514583,-0.7017164291,-0.7897451091,-0.7433884152,-0.4965807524,0.3944230672,0.2943559487,-0.1245611183,-0.447372471,-0.4020176788,-0.6695460802,0.6336221509,0.827801451,0.8079275859,0.605846411,-0.3332065878,-0.8069977603,-0.437227723,0.6444632977,1.17592574,-0.2683570998,-0.2606942437,-0.8240428977,-0.0786497124,7.3065907928,0.3500348237,0.2176539382,0.4033463779,-0.3740744569,1.0448926846,-0.4724097254,1.376071127,3.6122295297,-0.3725093101,-153.1919751522,-0.2486943523,-0.4665665501,-0.1306725672,-0.3213242945,-0.9777051656,-0.1722201579,-0.0665914429,-0.1512211695,-0.6769505255,0.1564952761,-0.1414142939,-0.2209921473,-0.9866029149,0.0409404756,-9.8983685092,-0.1560219924,-0.9962213087,-0.547700842,0.8121384161,0.4793521825,1.3664424554,0.2961543384,-1.0765522676,0.8777476981,-0.8957685154,-0.0664499088,-0.8462033481,-0.8952533048,0.2560101513,-0.0675440393,-0.4719506555,-0.5696258159,0.1960686311,-18.6552025912,-0.8007797005,12.2258180091,-0.652695815,0.1786342986,0.3718621057,0.536102024,-0.895078904,0.9651338838,0.8100988073,-0.2705715521,0.807390779,0.7422037266,0.4466490511,-0.4532405142,-1.1289241858,0.8607166789,2.8993419694,0.5949535753,-0.5266149041,1.2119769761,-0.6641328085,4.3989055161,0.4173272867,-0.9651396877,-0.1959126089,-1.1904955702,-0.881241836,0.8481091769,0.2107899716,0.2688877236,-1.4218354135,0.0572092173,0.3603370486,0.1839100503,-0.9629740588,-0.69933471,0.2667165572,-0.7758549977,0.578591441,-0.8806535284,0.2282264633,0.5737946697,-0.4812556541,-0.1720172307,1.0311762122,0.5533066737,-0.1155936395,-0.5436035849,-4.210696323,-0.390266934,3.4932486517,0.1805117059,-0.0070245467,-1.0594162962,-0.747650199,0.8162636533,-1.531622215,-0.4752583855,-0.85521154,0.5642182389,6.1985103993,-1.0848718078,1.0091724965,-0.334048133,0.5705299497,0.4056532996,-0.1017397405,0.0244936684,-0.7024960225,-0.4933758159,0.2647817717,0.2935287038,-0.7019757935,-0.7409852929,-0.3284774937,-1.1100054701,-0.7776315977,0.2946948739,-0.805773078,0.0668521101,-0.6445439319,0.5038055087,0.9095763201,0.0518660475,-0.6466966595,-0.4276138147,322.4663508243,-0.5063909937,-1.3420199429,-0.660597105,-0.3423690386,-1.4904651434,-0.7436236951,3.5419783369,34.8688983867,0.2218251918,-626.4250885392,-4.665109629,-1.0250903219,-0.5034195473,-5.7888447969,-0.4772309867,-0.9960835114,-0.7873287024,-1.2278285109,-1.0853253079,25.8523254478,-0.607573856,0.0669397622,0.5628856767,-0.8550652217,-74.3484423072,0.2556481981,-5.1650651649,-1.250729438,0.3618453436,0.3716517003,3.0718569139,-12.8448277673,-2.6713357078,-1.6491269705,-1.6086685449,-1.2689688365,-0.5668066123,-9.2567075494,-1.032606091,-0.3081303906,-1.6826218362,-1.0592855043,0.0598909053,-832.3767518615,-0.6988239424,47.3037423051,0.2066924707,1.5534259904,-0.6394650025,-3.3627304441,-0.8490001451,-0.3159181568,0.7309295816,0.5373091143,0.0720819969,-1.3786694715,-2.0481324035,-0.1151883701,-23.9454113733,-0.3872442126,402.4149908857,-0.6164828974,-0.0649228392,4.7064771099,-2.1131180291,14.83545522,-0.035380756,-0.9587751151,-1.8632172538,-5.2972471082,-1.1729413073,-0.8387676021,-0.108966909,-1.5631081085,-4.4687582923,-0.6201283847,-0.4374926701,-0.9121982654,0.196821524,-0.2606136878,-1.7626326308,-103.4356447801,-1.9769626617,-0.8469290959,0.6310784149,-1.7427789855,-1.6153182238,0.6584142775,7.98904453,-1.8276417439,-12.8595950251,-1.0853287606,-69.8351508249,-1.2255984404,12.9773854561,0.405193179,0.3772607387,-0.066337481,-0.5689466492,-1.1188734893,-2.2715837036,-1.1121127014,-1.8685015692,-1.5391244291,40.3088908848,-0.4962494191,-0.6683325208,0.5683757473,-1.9654139968,-1.2417729456,-0.904519825,-1.3142282345,-0.6110703352,-0.1259928103,-1.1913318536,-1.6746705964,0.2718068181,-0.7667550916,-1.639236326,-2.7491489185,-0.7407195326,-0.1426258676,0.3167900446,-1.4946443401,-0.0704845182,-0.9242857429,-0.0800593483,0.4312648593,-1.5248058438,-0.8345042124,3.3995725549,0.2950597354,-0.6430403192,-0.0613976858,-0.756765871,-0.5059265053,0.5280243862,0.5966932781,4.3526729494,-1.0476666657,-153.3480224978,-0.5844656198,-0.0965425972,-0.336467578,-0.499976678,0.1003016389,0.8634550212,-0.6916460546,0.8869938822,-0.9692004422,2.5793128601,0.7420014338,0.4809080702,0.3542683761,-0.8186384196,-29.4294472109,-0.6754840146,-0.7244827969,-1.1019173663,0.8966353569,0.4997168228,-0.0273215698,-0.3259896242,-0.422662909,0.9797291977,-0.0155661622,0.0168145022,-0.3863339262,-0.6201601684,-0.6444596735,-0.5466438441,0.3409833099,-0.2809829315,-0.7589261618,-6.5910360588,0.4676753528,14.0586564208,0.6356311567,0.9224271977,0.2948121636,-0.5676344489,0.2621606909,0.7375167772,-0.7775184652,0.0479957616,0.2264733267,0.3964201372,-0.444092001,-0.4760529987,-0.0122772897,-1.0652291291,2.7251061816,-0.692858375,-0.6262015899,1.6223990156,-2.533029019,-6.1148744419,-0.8660071796,-0.9483301637,-0.2095921375,-1.9901353108,-0.0643307926,-0.1456572117,-0.5858121977,-0.3327975311,-1.0700781548,-0.2369516693,-0.8802570172,-0.0381953917,-0.6198568447,0.0112597717,-0.8664080383,-6.5421360435,-0.9986468682,0.5447809917,0.5239361268,-0.7814178712,-0.6565841563,-0.0009244132,0.4722418284,-0.5869831555,-0.0357357893,-0.6822623293,-5.603763274,0.3476761547,1.8187729045,0.216839972,0.029011755,0.7654247576,0.1797694043,-0.1011167439,-0.8981182522,-0.581041141,0.1864802015,0.515668387,6.9817979511,0.4579594189,0.1125036551,-0.1727583175,0.4715778887,0.2247867056,-0.9807375059,-0.3292053988,-0.6964418389,0.3757686711,0.6822055846,-0.8455182196,0.2444844784,0.8766659806,0.9984752659,-2.3745322009,0.1771268639,1.3659814746,0.3913395398,0.8931106858,0.6070168579,-0.0676940784,-0.4605195234,0.4573728479,-0.0552452977,0.618989997,7.2107580889,0.7246539699,-0.2031416416,0.3861077901,-0.7115193926,0.8507596594,-0.6799073063,-0.5883277095,1.31176543,-0.1537872265,-153.7182714172,0.2734137465,-0.6801555226,0.3197478867,0.4061760948,0.7779309661,0.1614835055,0.7334697973,0.6120007192,-0.856482978,-0.3181221552,-0.3846528967,0.6478396901,0.3288760577,0.0717265812,-9.4472793182,0.5892644463,0.2279295975,-0.5830778761,0.6924288201,0.6727065077,-0.6935645701,-2.6359302197,-0.027862875,0.668286387,0.3527659874,-0.6531577678,-0.1085759185,-1.0820089739,0.1438146434,-0.3572651647,0.8120831979,-0.3995911046,-0.4323438318,-18.0699737598,-0.3204372786,3.41758379,0.5235277802,0.9117983717,0.3575418531,-1.0628201846,-0.927000185,-0.9676203554,0.1769502767,0.587528506,-0.0570557956,-0.9707526601,-0.3293226631,-0.9014187211,-0.3424873442,-0.6355768621,2.0350387179,0.7633414109,-0.4633293569,2.023230221,-2.5703589638,4.9182406823,-0.4063854036,-0.1178088757,0.0378956608,-0.9604684608,-0.8749426081,-0.1390309548,-0.2966630067,-0.1366007213,-0.9948828802,-0.5502937868,0.3006901796,0.1898580521,-0.1448247973,-0.1990124278,-0.3129789214,-25.1663983308,0.6055865775,0.8523776874,0.9340476444,-0.9473589072,0.6208110822,-0.7271821777,0.9345077121,0.2132603867,-1.4327150068,0.2776444313,-5.706278373,0.3486328741,3.2070320079,-0.7850868621,-0.4728179965,-0.7247138177,0.0883243247,-0.8757909779,-2.342209935,0.8047859957,-0.1445247955,0.0068434294,3.6024238597,0.5413385739,-0.2572895703,0.4200885244,0.0940020632,0.9878621732,-0.4876252134,-0.1644369194,-0.3558921614,0.70685537,-0.4427741653,-0.5603547573,0.6769861903,-0.2115945474,-0.2158461364,-1.7888188617,0.5764373832,0.1408493042,0.7982145086,-0.190134389,-1.015125152,-1.1824091947,-0.8430319058,0.6559657466,-0.3131611558,0.8816409367,-1.3073643644,-0.6997052494,-0.5546451517,-0.6182676709,-0.4332806964,-0.0185859562,-0.3283327714,-0.3597334612,-2.6616449414,-0.1289139115,152.6209888751,0.9587190024,-0.710050319,0.349015502,0.0679665482,0.9803599765,0.5993771027,0.4468892494,-0.333320294,-0.8017127469,0.4953880755,-1.0052919441,0.0960502891,0.4194745545,-0.282520596,30.2810238273,0.9105871009,-0.5948151941,0.5742785844,-0.9571407232,-0.8226999915,-1.2463617192,0.9545837224,0.7515565805,-0.9932428614,-0.9913917264,-0.1952655092,1.2708147325,-0.0755381921,-0.5681032317,0.4228765664,0.9223219903,-0.1759400737,0.9411223605,52.3890594503,-0.0357204059,-9.0385174376,-0.3346645502,-1.0766700768,0.5835636633,-0.4111308911,0.3042339222,0.1063200268,0.2904789242,-0.5131667411,-0.3493388413,-0.1114177821,0.0092429582,-0.6328675025,-0.1080005397,0.9668402826,-0.3858024509,-0.8348609112,0.8228942321,-0.6827741886,1.334071248,3.7776071314,0.7564454439,0.6887970784,-0.2224590343,0.9105259241,0.2039904125,0.5610749385,-0.4923457704,-0.0167521592,1.4317510336,0.621751975,-0.5926376376,-0.9792980873,-0.4748893629,0.5204070138,0.7470511683,4.4406857852,-0.7767493894,-0.5085894495,0.2314931323,0.0404693934,0.8681592554,-0.6409905104,-0.5953692692,0.1318001011,0.4148261429,-0.5786541019,4.5453072979,0.503655077,-1.6094845802,0.1901152126,0.0769846739,-0.5905168382,0.255105924,0.1639967182,1.7728929403,0.3233850024,0.4149682861,0.9489686901,-8.8432138833,-0.2214622418,0.6419447946,-1.2062720783,-0.4947492879,-0.8831023489,0.157411747,-0.1976517443,0.2896319071,0.4232858995,-0.2092221502,-0.5929436446,0.5537065444,-0.8633290935,-0.9777334748,1.018475382,-0.1524216222,0.9729537089,-0.6066367771,0.1279075643,0.7011952583,-0.2273403419,0.7373326428,-0.0772121855,0.6954637979,-0.7130588683,6.330483923,-0.6474003502,-0.3702345465,0.970721329,0.9813368323,1.7902133803,-0.3166916128,1.0786929352,1.606980831,0.7737985115,-152.6220489586,0.4260579199,0.5642780708,0.7169372137,-0.4062220813,0.0870770128,-0.1868337203,0.5647313969,0.963497271,-0.8640187987,1.90961333,-0.1729715183,-0.9334879756,-1.1736220409,-0.1879161146,-30.1735746485,0.5180832887,0.9156040989,-0.4127887738,0.0663820769,0.0237551185,1.6078791007,-0.9662701494,0.1336891303,-0.1192036812,0.9129579227,0.7841133839,0.8722338685,-1.1540761998,0.8304110944,0.078768232,0.480915889,-0.6053945564,-0.1504506342,-152.7602401673,0.6326482237,27.3957505482,0.0630934977,-0.1528454419,-0.6959038162,-0.6369040479,-0.3301846032,0.5941169328,-0.277636661,0.6989371847,-0.6819630391,0.2409964839,0.3238643727,0.9132997495,-0.0749350119,0.7796776348,12.8243280435,-0.7169207821,0.0259596407,0.9928467681,-0.6713976237,-4.5976756095,-0.7360061408,0.313506143,-0.4094500226,-1.3733102349,-0.2251761329,-0.9425169623,-0.4990057352,0.75605584,-1.629935177,-0.5227636634,0.7079029262,0.3736564432,-0.9817842102,0.360708394,0.8943504557,-17.945636902,0.7473074438,-0.3106749045,0.1662414767,-1.1775403167,-0.2542504366,-0.5660114227,-0.0657532539,-0.3965276894,-0.8407430385,-0.9309074429,-5.4498933815,0.7103252681,11.8545025982,-0.904866298,-0.4856064182,-0.4753052414,-0.0447608334,-0.9417069016,-2.4390840004,-0.9554830765,-0.6811571719,0.0406629211,2.6012295141,0.7140624441,0.0286393385,-0.4941432102,-0.8845493232,-0.2304933795,-0.066609445,0.1194414785,0.6050120287,0.8454304409,0.7904637457,-0.231502848,-0.8104252836,-0.8377114852,0.8191489227,0.1969995601,-0.7727041955,0.163958453,0.1490768511,0.9003195076,0.4752903205,-0.6638162064,-0.3564963919,0.2787943349,0.5748679869,0.7075700107,1.3611086476,0.3363973119,0.3476210372,0.0200141125,0.192708131,0.739178153,0.1088670752,-0.174205114,1.4200570745,0.3436137557,-153.3139719692,0.9121787549,-0.9985965885,0.7118363862,0.820700032,0.3511563622,-0.8834911746,0.7117718703,-0.5059786898,-0.9625548948,1.564200026,0.2860114,-0.6304401065,0.4526930727,0.7985504631,-11.0754481529,0.7582363458,0.3933277714,-0.1154024184,-0.8237078089,-0.5758375115,1.3888295084,-1.0519428526,-1.4477304422,0.1520406759,-0.8941105448,-0.0222027106,-0.784241766,-0.6953837008,-0.4161675961,0.6634483819,-0.383428216,0.7626482967,0.5110230661,-17.9553029061,0.4012633996,9.2604660148,-0.8972392975,-0.4455779724,0.8009699563,0.658096564,0.2503707464,1.0037967807,1.2574313501,0.0938549515,0.2005573467,-0.2244686716,0.0761994525,-0.5005771373,-0.3149665127,-0.0499646444,3.8887120384,-0.9394543307,0.6045590214,1.4722550366,-0.9985064637,-3.2883972088,-0.274468547,-0.8284308465,0.4736602725,-1.9240183812,0.785766894,-0.4187340401,0.1240367462,-0.1611517147,-1.7191746269,0.5133267434,-0.5219252845,-0.1881555127,-0.110868645,-0.9404020318,-0.4025268556,-5.3349025874
   -0.1622243257,-0.5855946349,0.3625371636,-0.7805268959,-0.6713456693,-0.6648288342,-0.5662706396,-0.9648653918,-0.8950752571,-0.3900298832,-4.9072463381,0.1569636489,4.5743237091,-0.6145843477,0.135598857,0.5405025779,0.0585923664,0.3433965031,-2.3188170392,0.4672222178,-0.0623586117,-0.5380229039,4.3564571034,0.3689154415,-0.4847678118,-0.4628986611,-0.4249689073,0.4275036082,0.3667178459,-0.7902706564,-0.4326552697,0.2441741174,-0.542118154,-0.1472430656,0.6682809361,-0.6409582448,0.1497962152,-0.8262578158,0.7623756577,1.3145340926,0.327731032,-0.5920346682,0.7382255109,-1.562889359,0.3744390774,0.5197747812,0.824237567,-0.6598503282,2.9684151727,0.6252833574,-0.0565328109,0.5241264988,-0.8451537369,0.648833064,-0.9423257326,1.2610650539,2.6142021225,-0.147562451,-152.2114128466,0.6981451547,0.8698943552,0.3059016088,0.4587835135,0.3594359126,0.870130233,0.2463364104,-0.5240687604,0.0182302359,1.0514003722,0.8779254984,0.5400747065,0.6164996683,0.5282168757,-8.8225021932,-0.6329580783,-0.2062669216,0.191130997,-0.6752089931,-0.9093394782,0.1363111975,-2.1062218662,-0.4271659605,0.9179034544,0.6802442945,-0.6323544704,-0.9773223766,-0.6549427133,0.7172662809,0.6918646919,-0.2466340756,-0.0431684559,0.3557246099,-18.0607498136,0.0607657259,12.9534623072,0.5613903092,0.3108128442,-1.0096627959,-0.6054351696,0.7942124065,0.0683031649,0.348651822,0.0920645929,0.890736519,0.6147636762,0.5938963408,0.7331509075,-0.6486554754,0.8889616606,4.5823373048,0.1394695752,-0.3207426237,0.2757424402,-1.1114209652,2.3425421661,0.1300433193,-0.1698847661,-0.8746967585,-0.1127920955,-0.5739387765,-0.8009190743,-0.8476214033,-0.6778360933,-2.348583822,0.0954559354,-0.8211110702,-0.2834441665,-0.3759566748,0.4149632396,-0.9534085042,-14.5272838326,0.5527811394,-0.236744083,-0.8132966443,0.0214747502,-0.4215592657,-0.2449839103,0.0406845192,0.4336892106,-1.4419802402,-0.0234218686,-5.9768819739,1.2011506853,12.1015082264,-0.6159048148,1.2684872083,-0.9817464779,-0.7286292236,0.9895785323,-1.4892028376,0.3605535004,0.7241342237,0.5476600957,3.098213804,0.1942709775,0.4569227673,1.2064521567,0.4151500626,0.7427250485,-0.2998167373,0.950477599,0.6142124919,0.6684300533,0.4203520147,0.4183050772,-0.0176317074,0.5590018116,0.6000421641,-1.8611510085,0.0092978764,0.8649172123,0.3949598535,-0.2394209381,0.8073618019,0.3955819321,0.8719214158,-0.262958676,-0.5674426443,0.2316341084,-2.560924333,-0.0924312509,-0.3657722985,-0.5958596326,-0.455826066,-1.6077319587,0.448507828,-0.9702952585,-3.283034633,0.7856975561,405.5295999551,0.2134120334,0.6766521382,-0.2774928559,-0.0042153618,-0.1373004217,-0.1777816318,-0.8327609258,0.5127767064,-0.316960553,-1.4687223712,-0.6125750929,0.2599597334,-0.2284677935,0.6741108366,28.822578045,-0.5299667862,-0.3917919691,-0.5728319785,0.7172229377,-0.3587509714,-0.621186403,3.3437568511,1.1214932273,0.0398577951,-0.0396306302,-0.7678271679,-0.3941728539,0.4347740013,-0.3086515541,-0.1664067558,0.4385464233,-0.6502327587,0.3975249826,18.3279626915,0.1719109394,-10.477160468,0.4157835196,-0.066300352,-0.6286657947,0.9227540293,-0.4446090404,-0.1530313524,-0.1803426317,-0.3838748523,0.7338894646,0.8541198942,0.4023331424,-0.1283011035,0.3621330368,-0.7977179217,-2.4345895453,0.5174654714,-0.5949492942,-0.5725197997,1.1385294264,-3.4085180635,-0.5079106848,0.9632419192,0.4327397376,0.2052493408,0.9094201695,-0.3568672982,-0.4449476114,-0.9904291561,2.3072311581,0.0026888765,-0.0587815183,0.8785271654,0.0939839196,0.5812486089,-0.0136367189,36.9514575943,-0.4200827068,0.2906319889,1.0892808993,1.5015970326,-0.3900401722,-1.1262892746,-1.0581386083,0.4192623827,0.8799246713,0.4461391742,6.3019506174,-0.020727775,-3.1411603122,-1.562432278,-1.4952615593,-0.3255084365,-0.6607716448,-0.579847533,1.5039401005,-0.4286615697,0.4186600165,0.651648296,-5.2965122358,0.0294194416,0.882721437,-0.1407658643,0.5967108253,0.8848150163,0.7059799234,0.8480287237,-0.6549884136,0.0902013078,0.83868859,0.5114109566,0.9339516206,-1.0355710041,-0.5487511926,1.3852914943,0.6876731081,0.0026180559,0.0656428261,-0.1016514859,-0.4769388454,-0.6420695043,0.8007000705,-0.287343443,-0.3558439201,0.2522189787,9.4659483583,-0.602569171,-0.4319856343,0.8788147782,0.0761192703,-0.9422568556,0.032834348,0.3423916685,2.7231218247,-0.088789569,-544.3962555063,-0.8180698399,-0.0107997266,-0.1133502006,-0.1299888532,0.3901188723,0.5690907766,-0.275398738,0.2133180546,-0.0026881617,2.5945112195,0.6115698409,0.3414767816,1.03555654,-0.8324671188,-8.1898519485,-0.96629141,0.1045793219,-0.4885205453,-0.9108211329,0.3304268679,1.7854401727,0.0108658316,0.4646416867,-0.3552705306,0.0552160191,-0.998599467,-0.9290739713,-2.3563927533,-0.1577831569,0.7774265563,-0.824469625,-0.3434665248,-0.6679409023,-44.3088749078,0.4402441053,37.4367481098,0.2382902831,0.4316281596,0.6601709952,-3.0878244831,0.2491923266,0.0582025325,-0.3935428093,0.3025428457,-0.9945328122,0.689057869,0.06590812,0.0700887505,-2.3621989232,-0.6143800669,6.2374909285,0.3171062521,-0.0978856451,0.5649584032,-2.7951230311,6.2954922286,0.4787129858,0.2122505206,-0.9247805405,-3.1905724046,-1.1458158941,-0.6679612988,-0.1347696335,-0.169177204,-2.0542681662,-0.3925894141,0.4394616848,-0.1556033461,-0.7124487494,-0.8843541064,-0.3109679096,-6.4161190224,-0.2692381674,-1.1203234863,-0.3085619998,0.1871295742,-0.8676399766,0.9822291018,1.0002464393,0.0979428975,-2.4975058679,-1.2321440221,-3.9013606101,-1.2326058565,4.4731767418,0.3853488549,1.0972280089,0.4030363066,-0.858326252,-0.6101943977,-1.415239334,-0.2553258685,-0.2589815433,0.7360455965,1.2380314714,0.3902583291,0.1125884395,0.481995005,-0.7445503608,-0.7366915807,-0.9277842919,0.5660342285,0.3164252751,0.9338748653,0.4583990161,0.6390566409,0.331605344,0.0891290428,0.6324935097,-1.9014892143,-0.7035900995,-2.3096302834,1.0279003574,-0.2621204135,-0.3184776751,0.6599874993,-0.5585605998,-0.2449946597,0.4927855079,-0.1222375464,1.4686971282,0.0911809692,-0.0996809424,-0.6639754657,0.4176314332,2.2229240427,0.1377230547,0.0305692588,3.3437517697,-0.4437879353,-405.4791871267,0.5650746511,-0.7930950915,0.0229174052,0.7974276249,-0.1323602189,-0.5488960556,-0.7373099918,0.4717944197,0.9523929303,1.9939416485,-0.6783047582,0.6387791896,-0.1524507827,0.1025444553,-8.8784691187,-0.2783683633,-0.0478767675,-0.5995489131,0.3500221873,-0.0441228111,0.0343717416,-1.7816646837,-0.0399482685,0.3065189742,-0.2589117696,-0.1925855873,-0.2596903121,0.4339581947,0.405767716,1.2015703044,0.42689463,0.7457947382,0.4862148326,-52.4006526837,-0.6329883781,9.6661738324,0.2072601646,-0.7262399032,-0.0747396705,-0.5163620775,0.4450643413,0.838504554,0.6770868326,-0.6023174043,0.6211904113,-0.420350354,-0.5067330836,-0.6937945836,0.2002975833,0.7242585839,2.0774488128,0.2579343404,-0.6907868482,0.4418660736,-1.0298891121,6.7061424597,-0.1175950963,-0.3192459247,0.6024063099,-0.6487884487,0.5129290958,-0.2002717559,-0.979224246,-0.2494664598,-1.0047780711,-0.1009519858,0.9519596406,0.1741870609,0.3856300513,-0.9402795117,-0.568792605,-53.520043031,-0.1742860796,0.3933604946,0.0010109682,-0.4865693448,0.4174494792,1.0515800122,-0.5912135033,0.9593348521,-1.7491934772,-0.4598750561,-6.0243727558,-0.1361087805,2.2701300262,-0.5753170188,0.2279953057,0.6116556556,-0.7971559387,-0.7326732512,-1.5316259905,0.745779329,-0.2149296603,0.3112351695,3.9533128594,-0.5093234002,-0.1325240588,0.9957164441,-0.2968355192,-0.9574582429,-0.6149920394,0.0561565012,0.5162955325,0.448457253,-0.8487804441,0.1467495818,-0.0900968188,0.4109116782,-0.88732714,-2.1218982811,0.553485294,1.6596275615,-0.8521657757,0.6919469908,0.1617767739,-0.3984570873,0.3042325724,-1.023435443,-0.0071796224,-0.2094729081,2.2968682524,-0.668263938,0.2961964487,-0.1731288112,0.9157930334,0.1188793291,-0.5301377275,0.8955002598,1.9573369008,-0.2664521788,-53.844686639,-0.5737646265,0.8219142976,-0.2876470202,-0.8323898683,-0.7115400818,-0.7973647931,-0.4686350583,1.0570062829,0.8712080226,-0.2756228421,0.0752644286,-0.0205289108,-0.3187059536,0.6873584397,-7.5167603899,-0.9825517144,0.3411510799,-0.8358053439,0.258056057,-0.4893491368,0.2507525984,-1.5125678178,-0.7418702664,-0.859162062,0.8846205612,-0.4203438115,0.1035336196,-0.644119015,-0.9613033437,0.8385329692,0.2836256201,0.0082853617,0.4429553405,-18.6376731978,0.1029526528,6.1580138407,-0.8367933678,-0.5929516805,-0.1826555571,-0.6231164409,-0.8624041383,0.2527633115,1.1318675579,0.490380055,0.6291013679,-0.6671870098,-0.9575887757,-0.5564380365,-0.50116097,-0.0718589567,0.9424205829,-0.4897095295,-0.6524216126,4.3866731304,-0.8752491131,5.5099362863,-0.2616449559,-1.0847730511,-0.5905609031,-0.2327238138,-0.8124746402,0.7893172232,-1.0862183952,-0.9239927635,-1.5570090738,0.3036216561,0.0742136917,0.3013987498,-0.2519154799,-0.6524117513,0.7927115992,-3.5735279312,0.606652323,-0.5119751976,-0.5346430919,-0.476281772,-0.1102898324,2.3201401004,0.6369653313,-0.5975147835,-1.2312050586,0.3018780023,-5.5957063633,0.4646371792,4.4164865782,-0.9408090082,1.8312126889,-0.6663848353,0.2417949261,-0.2017693216,-3.2222327409,-0.9047381021,-0.8810404024,-0.2830052893,4.334540433,-0.8715760957,0.537630024,1.6825961059,-0.5962931182,-0.5871084657,-0.9483244446,-0.4432182388,-0.3853043145,0.7482125776,0.3537330514,-0.243923824,0.7574553675,0.4455758076,0.1735377367,-2.6013444592,0.7354828848,-0.8915456092,-1.0852390239,-0.1707225058,-0.5948618621,0.0688851269,-0.1998927497,-0.9013741275,-0.6701516697,-0.9397552537,2.7111165831,-0.034640411,-0.7661169738,1.0124402357,0.3751346028,0.2813626773,-0.8817310147,-0.1196897472,1.5161484862,0.7072289966,-153.3451666008,-0.9647009283,0.7842376044,0.0048782252,-0.6758460765,-0.0027431839,-0.1354909601,-0.2223927752,0.3340858653,0.078947754,2.2683482105,0.808381845,-0.1075707406,0.5934067995,-0.6277806173,-3.1144019482,-0.6908206665,-0.9957258243,-0.7767093847,0.9855607064,-0.832149071,1.3234829581,-0.0749864368,-0.9873643198,-0.5431536629,0.0386648366,-0.9900161847,-0.5902887333,0.3848620577,0.2235154554,0.8044368259,0.5053179848,-0.2140468721,0.2121534962,-17.5616404678,0.0449289475,9.2624477397,-0.193006551,0.7636935384,0.697983194,0.1441188683,0.380978358,0.8814550174,0.9797152581,-0.293183598,0.5821166708,-0.3021207892,-0.2166881105,-0.4353124398,-0.6251025779,0.6731909097,3.773318984,0.7191558516,0.5261328282,1.1930565166,-1.1720903033,6.1545532618,0.0430111407,-0.2356366562,-0.2150388117,-1.0391070168,0.2990505055,0.3481880885,-0.8206995139,-0.4997939549,-2.103326602,-0.3326908924,-0.3928782212,0.630468053,-0.9748796477,-0.4384458611,-0.8341742272,-3.0499317466,-0.349761956,0.1536848564,0.7588621723,-0.0099549266,0.382349588,-0.6745621929,1.1239872097,0.9130555266,-1.2016221516,0.9449396832,-4.0094774002,0.7864723572,3.869325431,0.6159637991,0.086802848,-0.4634278161,0.4143772229,0.9133724797,-1.9890977067,-0.8708230901,0.9091184489,0.5730168944,4.4698923076,0.8733441179,0.2776207606,1.1651906103,-0.445127145,0.9205054305,0.2868373125,0.5661035446,0.6094775361,-0.1890143157,-0.7599410693,0.0691565157,0.6818062473,-0.6141163757,0.5655257782,-2.353370533,0.4910075836,-0.3245155569,-0.3929970443,0.1802530246,-0.2283393198,-0.5884221697,0.2703231177,0.8514783826,0.3205356802,-0.777823457,-5.6871144296,-0.3870756713,-0.7350264207,0.0554230066,-0.1370017003,-0.7166314427,-0.486294804,-1.4166748473,-2.2873955079,-0.757193486,152.3138417006,-0.7005229886,0.6882986372,0.6293981012,0.2516620734,0.2848938145,0.1515933,0.4891176892,0.288103494,0.419167979,-0.5484826572,0.1186999421,-0.9832998791,-0.1143066164,-0.7674413128,11.1797812058,0.1544352489,-0.3838769221,-0.0518825497,-0.8380913858,-0.1544372864,-1.3402050179,0.2941279185,0.6165180168,-0.071833434,-0.8999224788,0.6568452464,-0.5075874551,0.0608432856,0.756479452,-0.689450179,0.7821179294,0.0726945109,0.9403871468,6.0400122747,0.6645568251,-21.7610779504,0.6401446703,-1.0661224344,0.8596622926,-0.2347884487,0.257856007,0.5116629001,0.2984990232,-0.0029340193,0.3288973946,-0.0167791755,0.8149408347,0.5313505456,-0.648469107,-0.2499862394,-1.317396307,-0.9562152874,-0.8912345945,-1.0260533025,0.6405154923,-4.4209391444,0.3719179575,-0.5121417425,-0.2170020251,-0.026471181,0.6165854383,0.3977570331,0.9808224536,-0.7314731753,1.141250871,0.0116109643,-0.9092128415,-0.0092023479,0.5711801893,-0.6281242113,0.9836663932,2.9186044101,0.9886820831,0.1584302244,0.245439938,0.1945376188,-0.9348891146,-0.5653535831,-0.719950921,-0.7909969307,1.1551662195,-0.2299458788,5.688215758,0.5408367802,-4.3069552963,-0.6410743678,-0.669152486,-0.0766098028,0.1940873674,-0.4512384911,2.4191916374,-0.4392674009,0.9244888051,0.941460614,-3.0604897775,0.722377276,0.6066426825,0.3585237708,-0.4579422464,-0.6719134968,0.0341163296,-0.5401787745,-0.9099478264,-0.4497673862,0.3095536753,0.2757918127,-0.2779829431,0.7108881193,0.414513832,0.855594062,0.4341198788,-1.6110308889,0.3049852105,-0.9506208344,0.535505593,0.038352217,0.5549575381,0.1618080302,-0.3937463659,0.5641333128,3.1048776652,-0.8123130463,-0.3287544027,0.8830955498,0.1063655337,0.8991490333,-0.8097929738,0.9565922268,2.546782163,-0.5622385049,-152.8898879462,-0.7772812208,-0.384729867,0.5550657225,-0.1470223022,0.3793744665,-0.51739168,-0.6056611344,0.062647645,0.9898593497,0.9764403043,0.6651434766,-0.8637897716,1.0699000708,-0.168275157,-7.2096104993,-0.3274653251,-0.405079137,0.4866397138,0.3067665417,0.3955118327,-0.6395306916,0.5923960451,0.2484491168,0.5446996439,-0.3189679298,0.295424467,0.0829286396,-0.9391101601,0.3031271243,-0.064031852,-0.3874591876,-0.8221265347,0.1213140472,-18.7915041189,-0.0768342545,9.6228957787,0.5276529033,-0.0643463598,0.2379741903,0.4142715222,0.5479564899,-0.1782879435,1.6083278067,-0.1344677905,-0.2482511706,-0.3047102739,0.5628030528,-0.9218336939,-0.3725022222,-1.0679865762,1.4078174544,0.0231829287,0.7375710284,0.6125883373,-0.8478940199,-2.6198088774,0.9241785861,0.0522323131,-0.6621980936,-1.2127011626,-0.8227916035,-0.4456443762,0.192656763,1.0000728459,-0.7368419239,-0.6001808281,-0.9174352958,0.5441770482,0.6893552293,0.0115397699,-0.9723122043,-30.7043628519,-0.9417573811,0.069115187,-0.2493293902,0.1275776878,-0.8905147278,1.6801639964,-0.6102592334,0.2375656513,-0.9337129534,-0.4683731901,-4.216652864,-0.6455272434,2.6431867104,-0.8027562136,-0.4831591036,-0.0237507849,-0.1348574634,0.4521967971,-1.7036208088,0.8662254061,-0.5388573866,0.6177726718,5.1174278763,0.5615487809,-0.7177558554,1.3990981406,-0.4190065044,0.7687992057,-0.3419061239,0.4305933484,-0.4395191973,0.5214192642,-0.3821856773,-0.9786127628,0.2577355149,-0.4035043103,-0.730602438,-2.6004380991,0.2332982915,0.910514599,0.2288297072,-0.0526217902,-1.0937333477,0.5073964427,0.1093658765,-0.0272252258,0.1600434982,-0.1060851449,3.4789934674,-0.9283930216,-0.8467320412,0.6009801241,-0.3898534769,1.1510071184,0.1392010703,-0.0053377871,4.8580129928,0.3041099471,-152.1325786174,0.6988221115,0.926541649,0.5792526283,-0.3175123726,-0.1772509435,0.8949162707,0.7159138809,-0.5644547494,-0.3946421405,1.5437476562,-0.0767136782,1.0179884592,-0.3642715856,0.0005188035,-7.337005548,0.017576462,0.883114428,-0.5018174227,-0.9481504669,-0.3064497734,-0.7057028074,0.2291928774,-0.852458961,-0.4549165846,-0.3217266165,-0.9428404574,0.0994517447,-0.9045508797,0.0990358798,-0.0599064315,0.8598516924,-0.9568909484,-0.6739342164,-18.4520559161,0.3356894801,12.3321618088,-0.039858958,0.4838597234,-0.77822769,-0.806992034,-0.0225149568,0.6215452647,0.2952211631,0.5047859263,0.985165521,0.1167062842,-0.2927052284,-0.6881035533,-1.1437042824,-0.9714394901,6.3702352331,0.1134122957,-0.0824049561,0.089596428,-1.5118177525,-4.2494429228,0.6723676015,-0.5784573033,0.9724403463,-1.8775663504,0.6850465705,0.2779583475,-0.5583342898,-0.0182033209,-2.1841912474,-0.6583536272,-0.1034172526,0.0999095792,-0.7412080332,-0.564257469,0.1442911208,-18.4343505504,-0.0147367455,-0.363203687,-0.4367309561,-0.0283953762,0.7180273641,0.7488498436,0.6951767041,0.3196883035,-0.740152171,-0.9500197391,-5.5030244517,-0.642275765,12.1012419757,-0.7464558633,0.8729455197,-0.8718152826,0.7790540086,-0.6120276178,-3.5605076514,-0.7872746931,0.3776700795,0.1538067029,18.5570549688,-0.7683154744,-0.8902780928,6.9594318324,0.8464237758,0.677591592,-0.2215969004,-0.2067302983,0.8000746801,0.6254305296,-0.1053865925,0.3659303071,0.5081377028,-0.1342482352,-0.3210567355,-2.5782188542,0.4578108711,0.8055102003,-0.7572553871,-0.5845750593,-0.9945330833,0.2695104915,0.4362802151,-0.1984486133,0.0668905815,0.0147071486,6.9706728358,0.6967912253,0.9697655004,0.0385583047,-0.0140214407,1.288155578,0.2009315227,0.5462699526,4.1530885401,0.4848357182,-153.9537516236,-0.3743779946,-0.2959742791,-0.0064018218,0.5235217351,0.2201961386,-0.497141173,-0.3568372051,0.2391890569,0.8511172245,0.3895793695,0.8883619475,-0.8445839659,-0.8504701814,0.8958510268,-10.3978989985,0.0098872506,-0.5651724445,0.427404537,0.2612500311,0.4450581146,-0.3245380194,-0.3251219438,0.063457595,0.6560101138,0.49816698,-0.9519251904,-0.2356483232,0.4676409148,-0.048583222,0.2346972973,0.176060293,-0.6298272937,0.1067425922,-18.1729090837,0.7893912437,6.8051454129,-0.6075591693,0.3895367369,0.287539926,-0.1910587161,-0.9386499966,0.5638703821,0.8058372523,0.8505903472,0.7054825026,0.574379013,-1.0287802504,-0.0951008691,-0.0154162196,-0.0064079051,1.3490589939,0.038239018,0.5102940179,-0.1550556948,-2.2317584758,4.2168959088,0.6646471715,-0.4694488646,-0.3648984252,-1.6688763208,-0.6897316232,0.1120095146,-0.1680552789,0.0529837659,-0.723150541,-0.17001996,-0.5851030289,-0.9383543818,0.3705595494,-0.3885147606,0.6068091711,-11.3605935081,0.8365648476,-0.289203558,-0.1272107066,-0.8900645367,-0.3649121886,0.9030891109,1.7766354719,-0.8554467092,-0.4200922275,-0.5181529792,-6.0293077066,-1.1589506184,5.4794151724,0.4995467886,0.2970494936,0.1049084878,-0.3076327168,0.8954797034,-1.261741482,0.0271706818,-0.5500824842,-0.4808494018,18.8486356372,0.3864709642,-0.7562200383,-3.7745261251,-0.1453096687,-0.4094409871,0.1092853691,0.7549228128,-0.3063856668,0.1891372452,-0.7989735698,0.685650588,-1.0530964077,-0.1283735914,0.0570075728,-2.1008848741,-0.0069813509,0.0731291835,-0.3906327634,-0.1988407998,0.6953658745,-1.3090830586,0.1416002524,-0.7085765702,-0.3765462299,0.7412383469,1.8219389963,0.2800449086,0.872758962,0.1409291606,0.4477571737,0.8999169759,-0.479633964,0.3214813257,3.3078228682,0.9566689181,-405.4072568754,-0.2643361276,-1.045531033,0.0548880906,-0.6698301424,0.9564072852,-0.6117730075,-0.556101828,0.5641787488,-0.8239716081,-0.4817440162,-0.5304107472,0.1849561073,-0.221866755,0.3982946717,-7.7892177837,-0.0331562822,0.5053812791,0.143213687,0.2031993946,0.5903967159,-0.769662956,0.0273851217,0.190869402,-0.5249813418,-0.8320514965,-0.4286036503,0.4689286502,-1.1087996694,0.1444628315,0.2092152004,-0.0759320717,-0.4191671208,-0.1501416749,-18.2323394145,0.5390388085,7.2623998084,-0.4447338144,-0.3608245857,0.3437936972,0.5462139422,0.8701025786,0.6845771182,0.8230392628,0.6162506385,-0.372129781,-0.4614914416,0.0228059421,0.7505897243,-0.1600946638,0.5406245857,0.3765074014,0.4599084906,0.5389073817,0.6530290375,-1.9046525766,-7.1927106069,0.2374769472,-0.9109797023,-0.7461305335,-1.4348666427,0.733840437,-0.3461900331,-0.8623348987,0.8916377514,-2.1823118888,0.9611008378,-0.7076625905,0.8813105714,-0.4274983564,-0.4759941619,-0.6891498664,-29.910811959,-0.5916512142,-0.4287615845,0.2906388948,-0.30845032,-0.112980993,0.5585855996,0.9403233187,-0.6996567037,-1.4600786355,0.5209607311,-5.4419674101,0.858147582,2.4574564518,0.896025902,0.1455897869,-0.5655473463,0.229020273,-0.337744471,-2.3676651437,0.2753264071,-0.1913814282,-0.1378393928,4.3698971255,-0.251879943,-0.5873941642,0.0442025716,-0.9956503027,-0.7791465909,-0.8930806375,-0.7702860746,-0.0326503252,0.0547819535,-0.7336682352,-0.4127736379,-0.5086318291,-0.5085944405,-0.9444170669,-0.4970236725,-0.7273077168,-0.7997223525,0.1897598339,0.2285921776,-0.7826797457,-0.5344999013,-0.2179139297,-0.0225850655,0.4429829078,0.7150517622,2.9170730346,-0.8574122445,0.3447110821,0.739876622,0.5823438394,0.9391577996,-0.9797674337,-0.1062977178,3.2428782186,0.6710265467,-403.9793968822,0.096292683,0.9731010503,0.5889249387,-0.1819329126,-0.256008564,-0.4537818311,0.080985333,-0.8868854203,-0.1810259429,2.2689051133,-0.9634484804,0.8349562686,1.0499442406,0.429935171,-30.3078760688,-0.1185625695,0.2686768791,-0.136302351,0.0848182815,-0.2049211282,1.4502355071,-2.0109587387,0.3704902911,-0.317848964,0.9032550146,-0.8556887249,-0.9007272622,-1.1217860811,-0.3846456688,-0.0012433336,0.2606640773,0.8230233311,0.0159181332,-153.3860775781,0.7395975191,3.6208962538,0.3128412814,0.3562202732,-0.3816258019,-0.5738335367,-0.7248035142,-0.3393155518,1.6538045976,-0.6705476855,0.6937398856,0.4228304422,0.5381194027,0.501302981,0.4498348985,0.3601797508,1.6592012479,-0.0110305264,0.7349626096,3.0677524908,-2.1209991717,-3.7641766612,0.5257360504,0.7836917041,-0.0215472872,-6.3061534948,0.2173649896,-0.8278623804,-0.4084875192,0.0952538297,-2.2684334013,0.1256947221,0.7900022592,-0.5957605809,0.3928492736,-0.8166626314,-0.913441839,-17.6300788689,-0.9861096489,-0.7367673901,-0.9502199624,-0.1291502867,-0.2958875097,1.1401484393,-0.5059170735,0.652555416,-1.5575176219,-0.5939190863,-5.3780038904,-0.9769374567,2.9227952787,-0.5873302139,2.2075458159,0.045383822,-0.4583358028,-0.675216246,-2.2517781077,-0.7589064964,0.9716826382,0.2926915253,3.8049504594,-0.2357331895,-0.7638728187,1.1505666163,0.7620802009,0.495370459,0.4180019619,-0.7611555832,0.9931532333,-0.8679837923,0.9691284439,-0.6920075928,-1.0718791647,-0.0788406729,0.243620848,-1.8275444687,0.2470665004,-0.5833036378,0.8946467155,0.1244102226,-0.1309054886,0.6987609321,-0.8843076887,-0.1908035961,0.5229478286,0.8864915273,2.5618578278,-0.1174878386,-0.1952441548,0.5897221496,0.030404905,0.4265410641,0.6303531102,1.0297190305,1.0832919009,0.5453707096,-354.0549090039,0.3475019218,-0.1327758435,0.7670892953,-0.4469491223,0.8214035553,-0.3265550974,0.4273203337,-0.2596849595,0.9039695349,0.5464936353,-0.9919979116,-0.4559602983,-0.0263546122,-0.2248788898,-30.021970376,0.4942730536,0.9146527494,-1.0028418098,0.7300102551,0.2657837355,0.9698133842,0.4079980898,-0.3599890467,-0.9287110632,0.1872995377,0.2817392532,-0.211097283,-0.4082428598,-0.0012107675,0.6419615612,-0.0718429883,-0.350226579,-0.875701521,-18.3145131783,0.3313354335,12.3066974674,0.7766955633,-0.2835060969,0.3223714412,0.41215792,-0.6972340019,0.9185859485,-0.2314925939,-0.6363032038,-0.6720334964,0.1121735991,-0.7047786621,-0.8197025503,-1.3144142053,-0.1675668493,4.3576804618,-0.5219202363,1.0602697767,0.799742954,-1.3492438618,5.4561725348,-0.5298384841,-0.4179257805,0.4659567889,-1.2889949719,-0.0794942136,-0.1905863273,-0.3501338318,0.0097839404,-1.4325822641,-0.4211161159,-0.5190062638,0.4893623048,-0.46773524,0.4074801777,-0.1603649063,-20.9135614324,-0.745713526,0.4749489294,-0.016437545,0.5617332834,-0.3404617863,0.8833635705,1.2547384929,0.8964100746,-0.4399273897,0.594671031,-5.6765461818,-0.7600117966,13.3345501259,0.8553960596,0.5361930707,-0.8175259869,-0.6250879435,-0.0020125486,-2.0997848442,0.5742752035,0.7301461873,0.6488503422,1.970195392,0.7829307859,-0.128180998,0.895456398,0.404523192,0.4055868679,-0.3879885686,-0.3181073939,-0.4724605337,-0.3139096229,0.2754677096,0.7815741584,-0.7501001893,-0.5607283995,-0.7337857006,-1.466114041,-0.2212788612,-0.8823519336,0.7295339414,-0.9321220346,-0.8256910745,-0.1906308462,-0.327667068,0.8339823025,0.5371711372,-0.6436334006,-1.8709928035,-0.858816131,0.567093864,-0.6736590249,0.568412261,-0.3243458612,0.8198444324,-0.6866889187,-3.0522806912,-1.0188320328,353.7897075993,0.6191867784,-0.865723154,-0.0086462961,1.008378081,0.0823984309,0.268348054,-0.4880487328,0.2547593031,-0.8659391423,-0.6866730336,-0.0461271668,-0.2831280603,0.2663262006,-0.0584364767,8.4267182927,-0.6265197591,0.3890264336,-0.2819650446,-0.2221093987,0.7987728483,-1.1700238917,3.2707077026,0.9531987053,-0.1835789321,-0.2454401187,-0.8976472951,-1.2282517693,-0.6068006757,-0.0814615084,0.2724019457,-0.8194246305,-0.7262245535,-0.1099733396,19.2650956149,-0.3587748988,-10.1787699171,1.0183030198,-0.2339464134,0.1266243651,0.0714466053,-0.4946090204,-0.3783199002,0.0931018259,0.0026664701,0.3030913439,-0.0030692065,-0.4727704436,-0.359383016,0.8347988557,0.2405158487,-4.3739261996,-0.2213502089,-0.0880894187,-3.7901621045,1.236314514,-6.5086897789,-0.4888912827,-0.7044800481,0.0895216249,-0.0935842267,-0.1764144681,-0.1861024484,-0.7735965206,0.9055585758,0.3716384553,-0.389290302,-0.2335721547,0.5383643594,-0.434278187,0.5415663939,-0.5940248434,5.3638523807,-0.6199977464,-0.5472514053,-0.4921359561,0.2203357155,-0.8542745492,-2.3554396293,0.6564885668,-0.2413405327,0.2733400372,-0.2860988178,4.0567032872,-0.4458350715,-3.9892014953,0.4022961091,-0.7311157525,0.3586555664,0.5836949113,0.8571553617,2.951655263,-0.3065567354,-0.6687826688,0.6868976062,-4.5053389481,0.220824857,0.6576902433,-0.5483660857,-0.9240652325,-0.0324049313,0.8678575744,-0.9855206742,-0.186283068,-0.5896441056,0.9321287959,-0.0235823586,-0.6689322339,-0.5488091378,0.792959512,2.1574147428,-0.5488832711,-0.2097681881,0.0642368254,-0.4100271833,-0.3819511792,0.5626198749,0.4842366604,-0.0468933254,-0.4237621016,0.7808429655,6.4682091626,0.0903402259,0.7230288845,0.7032730524,-0.8412025306,-0.125004832,-0.5858058342,0.0651950354,1.978069431,0.4023072924,-152.3254851154,-0.0488807507,0.2443428176,0.6707717844,-0.6361631331,0.9670729875,-0.9409667031,0.3229009689,0.6901711724,0.0118112908,-0.214741332,0.6869566688,0.5260930583,0.4005519738,-0.0539158799,-30.3258375106,-1.1729749138,-0.6319292979,0.6846256727,-0.6470374394,-0.8107229806,-0.0401750565,-0.156983754,-0.5996712242,0.5797331945,-0.4287333741,0.2639897768,-0.0009849685,-0.6242133993,-0.0574668685,-0.2479589514,0.1864208383,-0.6241941519,0.9064960832,-19.0790835539,-0.5135776087,12.0394834676,-0.4381398693,0.878562995,0.5226021785,0.1143313331,0.1078153905,0.5896180684,-0.4218269195,0.1120278417,-0.3708838629,-0.1890607131,0.4937499267,-0.5200644715,0.4791235665,-0.5423054821,1.2648092188,0.8252818435,0.8643482516,0.2028485539,-1.144228282,-4.7675710518,-0.2352234549,0.8484052205,0.1727461955,-0.6307737493,0.4850313271,-0.855142431,-0.0664699598,-0.3626596678,-0.4576496341,0.3771093887,0.1872026328,-0.5002429685,-0.9036856485,-0.2763174898,-0.903765895,-22.0131436769,0.9353880084,0.6726767286,0.4294764304,-0.7561042348,0.5051400073,0.7385954985,1.1597817424,-0.8796895657,-1.5184684379,-0.1114725555,-4.3520328295,0.437288348,3.2232618323,-0.7130735045,2.650738418,0.6048742503,-0.8604653208,-0.7746245504,-2.3824322685,0.4411793397,0.0580918456,-0.8547292354,3.9246145451,0.0088008654,0.4855464832,0.3345563642,0.4477373916,-0.0728704532,0.5911981274,0.6933759196,-0.2306491764,-0.5463347067,0.9719864886,0.4196374527,0.4556249527,-0.0162952699,0.1572678762,-2.4404024573,0.8325222749,-0.0488327371,0.2510741165,0.8551918051,-0.3590433172,0.0787791823,0.5270551693,0.154890731,-0.2690638376,0.6925305938,3.8418037345,0.9717606135,-0.1309776209,4.2637314753,-0.1285263262,1.3220036819,-0.7221303852,0.8614088895,3.1227758132,1.5344318832,-127.3760702525,-0.944750682,-0.8641561404,-0.3699436728,-0.2833510244,-0.6842887219,0.9248243798,-0.6568837568,0.7601119358,-0.8716323443,1.1693938014,0.1917861872,-0.6272441798,-0.4099800433,-0.8844855103,-29.9043956585,-0.382565465,0.1430620071,0.6638849954,-0.2711874588,-0.3253263897,-0.3191764143,0.223011984,-0.5811596084,0.1000007463
   0.6745194508,0.5022234565,-0.6756163904,-0.5934170787,0.6634867414,-0.1244346537,0.7164325891,-0.8062758407,0.5394630687,-18.0612774674,-0.3815434313,10.0329286696,0.6068766461,0.7921625125,-0.4191382619,-0.0281710773,-0.8292620693,0.2759069283,0.4143323473,0.8021270781,-0.3653897106,0.2921050039,0.9247744976,0.2565508929,0.0533203802,0.7202335862,1.8338297644,0.3846545139,-0.3227030534,1.077857228,-0.737627434,7.4639881539,-0.3911759995,0.861490802,-0.0453512531,-7.1517900422,-0.9434427003,0.5665760795,-0.1057051596,-0.4264448962,-0.350119627,-0.9856450165,0.259273295,-0.4496689024,0.0693431199,0.9405890408,-0.1911601094,-27.442278691,0.3887624147,-0.7546569522,-0.0052505115,-0.7604826815,-0.2724299629,1.0480047825,0.2725958612,-0.8950107144,-1.5022150613,-0.4259734892,-5.5898333312,0.3063401924,5.0843684455,-0.6853537007,0.4862813769,-0.3687030642,0.7013130612,0.8140063114,-2.3358201867,0.2639903582,0.5029100555,-0.9508552755,3.4584112863,0.4447325467,-0.5528459901,0.2866557544,-0.4040422153,0.1359747887,0.6363617522,-0.9486430876,0.1883924652,0.4593491868,-0.5308174544,0.1195442728,-0.0876027953,-0.0060528862,0.0841234008,-1.4856176209,-0.0036331242,-0.8763362306,0.7952148418,-0.6057870079,-0.7503977057,-1.1764916616,-0.6852012093,0.8461621571,0.6719975232,-0.7563659911,-6.8513291741,0.9217617001,-1.0361636459,0.6249982812,0.6640847649,0.9834253154,0.6651157024,0.4307493143,-2.0029924439,0.547415897,153.5712187472,0.9146247932,-0.8324952416,-0.6098033877,-0.5432490147,-0.079258659,-0.6660738887,-0.7195239863,0.8313484872,0.2471882914,-0.8323522757,0.546631807,0.1785465689,0.5633883754,0.3335675245,9.047251423,0.5608811524,-0.1428562877,0.4075005064,-0.0203551525,0.0822249356,-0.9198562257,0.6174615075,1.2938941566,-0.9067558258,0.1300343179,0.0674248915,-0.9291665778,0.7930801701,-0.9399523101,0.8871315917,-0.3845521624,0.4907563347,-0.1148421962,17.6726607959,-0.5727892012,-12.3860374702,-0.6955726617,-0.2187219638,1.0261137801,0.0193139166,0.8675392272,0.7816490701,0.5041519553,0.1845189515,0.3565441217,-0.810568741,-0.229726377,0.4833348477,1.2115362397,-0.7201430677,-4.3281677433,-0.8613034896,-0.9467504308,-0.7420761588,1.6824613848,-6.0136286397,-0.7283975337,0.1017305329,0.7118738128,1.2957179303,0.2152874318,-0.3579677943,-0.7773166385,-0.9035522548,1.2889610735,-0.2302140161,0.0581455838,0.7090995033,-0.7764398374,0.2280347262,0.8173655213,13.5122499227,-0.5223215702,-0.5356197971,0.3275063634,0.8446868097,-0.1457610439,-1.7800221538,-0.6095019361,-0.607351752,1.9161539804,0.9186191148,5.78811377,-0.6398346938,-12.924625217,-0.9438903942,-0.4440503982,0.9963214174,0.9204174664,-0.2392113695,1.7915921281,0.3147222672,0.5532245742,-0.2789239743,-1.8757126907,0.6704534598,-0.0124404226,-0.5979897313,-0.7287515193,0.8738457759,0.9828131243,0.5743972166,0.7824919297,-0.150181789,-0.6459134759,0.6485847651,-0.5435526897,-0.2151001184,-0.3392927425,1.1618059268,0.7777473805,0.7584108247,-0.0435523005,-0.7068217086,0.6024406838,1.1460945893,-0.4611748625,0.1855416879,1.0799524439,0.9216695271,10.3457480411,-0.6709890269,0.6669831222,-0.7342744572,0.6193861281,1.6881006626,0.3071692601,1.3833702053,4.5888832684,-0.93467737,-495.7724792284,-0.625794269,0.7319823944,0.0689868282,-0.1501510355,0.7139450924,0.7108769092,0.8866201709,-0.5626183776,-0.9108715408,2.8041913905,-1.0554468437,0.4317602566,0.521293348,0.7474608573,-9.2724258228,-0.8385521766,0.3770472403,-0.9679239922,0.8892036879,0.5726348981,1.080254002,-4.2906332727,-2.1165990878,-0.0438531609,-0.9577222899,0.8397421101,-0.3854684548,-0.7747455478,0.8845054921,-0.0007131203,-0.0666430034,-0.2918537058,0.0971345626,-44.7641305888,-0.8646650017,19.3056516215,-0.1730416495,0.486667533,-0.1866768277,-0.8350303322,-0.9135510707,0.6905254777,0.5947143907,0.7510288838,-0.41497166,-0.7800517713,-0.349111605,-0.4483630664,-2.0693047768,0.3192815936,3.6205354918,0.803137634,0.2550249382,-0.4578319608,-1.8666596856,5.7029245241,-0.2229525453,0.1334475013,0.4369328792,-1.5548525332,-0.5576823533,0.1900534324,-0.0242082208,0.4238954945,-1.840412466,0.8065900436,0.2987770698,0.3324736298,0.3473544267,-0.8928475291,0.0324674187,-14.1679747792,0.5558871789,0.6466520523,0.0022346849,0.0446351305,0.522573199,1.5395486557,-0.3019316574,0.5963014108,-3.5687812317,0.0889253485,-6.9629626311,-0.7807285968,4.9962990509,0.4509304349,1.2186234647,-0.0564134242,-0.1879107813,-0.865000262,-2.8668476179,0.5939942065,-0.1908499246,-0.6569400853,-0.1366305372,-0.3392191444,0.1280823075,0.7850693922,-0.8359161343,0.4934519971,-0.6759818867,0.7327678433,-1.0423765707,0.4070907701,-0.7968137572,0.8975203569,0.3013203793,0.63462937,-0.6298819877,-1.9179827121,-0.3471314732,-0.8334955437,0.0791495788,-0.5761248269,-0.0320599872,-0.4749595779,0.5746170694,0.4871972403,0.7100745536,0.121264095,1.2347622736,0.4379217981,-0.033433377,0.5026144956,-0.4775146732,-0.002456523,-0.3622347129,-0.0106711395,3.2895057776,0.3758547739,-152.9193122233,0.9153027603,-0.5015774154,0.0781333563,-0.3851318568,-0.4727425529,-0.4740477425,0.6801883945,-0.0498802582,0.9544093439,1.5694769919,-0.3101565362,-0.1758502828,-0.73071618,-0.1088022762,-1.9829825675,-0.6056023202,-0.1219369864,-0.9383109318,-0.933865059,-1.0339891807,1.3513914921,-0.1247084912,-0.5605487168,0.2064506282,-0.7382704229,-0.9371368055,0.9388792663,-0.3110932184,-0.8979766458,-0.2292819512,0.804207445,0.7528150994,-0.5131407439,-53.6901197835,-0.394397031,14.9673881442,-1.0272895003,1.0600825451,-0.7179164961,0.009743981,-0.2663375712,0.2185989961,-0.374174122,-0.7628663324,-0.0065527696,-0.3554282984,-0.6399935035,-0.6250460676,0.1921168526,-0.0174189232,5.6879985831,0.7398054517,0.0967186054,0.370968517,-2.156375254,7.1510173934,0.3488879355,-0.2146560198,0.2662242037,0.0441453313,0.8483954578,-0.8230147374,-0.2324899337,0.35300828,-2.5448737692,-0.3360187231,0.5990310178,0.4568920157,-0.7558910371,-0.9178639891,0.8570987708,-53.6402228705,-0.7048747437,-0.8966834402,-0.4280606619,-1.7552797397,0.9736122744,-0.4401581603,-0.1883340022,-0.0244224375,-1.7344130236,-0.7551968521,-6.1634685796,-1.053931838,5.4419009054,-0.8901491036,0.4433496985,-0.3894563082,0.1065790641,0.997726203,-3.0366712381,-0.9659848496,-0.7556450331,0.3539783578,5.0706736754,-1.0732200703,0.5172975489,1.0108348317,0.1034262472,-0.3872488514,-0.3898707557,-0.2409664011,0.6252198819,-0.7845845986,0.1071159807,-0.1273172706,-0.1188652113,-0.5188222767,0.1149014846,-0.8798293766,-0.6037130392,0.6865266079,0.8239903828,0.0100282258,-0.7449714552,-0.8781778168,0.442955082,-0.9295966351,-1.2085100426,0.5444078103,-5.6626343438,0.477284729,-0.6497567443,0.6089317314,-0.2041548013,0.1892104525,0.5034007627,-0.4012506559,-3.5504392302,0.7673958296,153.5591677546,-0.7636511099,0.7764992087,0.2850338995,0.9171498259,0.4229377201,-0.7736113505,0.4133146808,0.5782235501,0.8310756607,-1.2105027381,-0.1470967551,0.2832712968,0.0847289581,-0.0796468869,3.2283983777,1.0486356685,1.0160596899,-0.5629769305,0.7257279987,0.4461278423,-1.4605891619,0.5732881297,0.6479128744,-0.4886899758,0.5429509879,-0.8547693322,-0.6552985473,1.6082789531,-0.5810632941,-0.3995326443,-0.4656001467,0.4815437588,-0.3875203948,18.5485403589,-0.0236556548,-18.8004858903,-0.785578638,0.7129033129,0.7189446125,-0.05901872,0.3384596822,-0.7570385953,0.2481619143,0.0306570422,-0.8059037962,0.8125853167,-0.6948701625,-0.4196793583,-0.1049864451,0.6255044058,-5.8877917508,0.8519737644,0.1270472779,-1.0723813849,2.3851102197,-8.5826876436,0.7279565889,-0.5127415179,0.5577190535,1.2244947382,-0.4185554511,-0.9114586743,0.7834270469,-0.3696524663,1.1403270415,-0.828426244,0.0878841616,-0.7919955278,0.3190768109,0.5782447478,-0.1095707101,5.9261736983,0.2102229828,-0.7851674493,0.3281689419,1.0996492645,0.3245166352,-0.5684721663,-0.8567511498,0.8203962541,0.6074567017,0.4317820566,5.4004280999,-0.4796600319,-12.6619739644,0.4413109799,-1.3461534093,0.4243808475,-0.2105517559,-1.0058813596,2.4012494804,0.3307549718,-0.7957379558,0.0877324197,-3.8855247417,-0.5348447222,-0.7067746194,-0.8292542748,0.8432839872,-0.3005209058,-0.6050463946,-0.3419624419,0.0976117005,-0.4614742402,-0.2275927465,0.3019726621,-0.3284281171,0.5206760975,0.5599253234,1.3952406251,-0.989177272,-0.5696627335,0.478867878,-0.9255092022,0.8245515798,0.495861967,-0.7048908808,0.4617963942,0.1082505266,0.7021307686,-5.6940867316,-0.60864164,-0.6348524883,0.8153887659,-0.7873226107,0.1487906822,0.3033615023,0.2052225777,-4.3926640384,0.2032866162,152.0976896689,0.1144503989,-0.3128179911,0.6005117803,1.1530296267,0.0523552774,-0.1772000045,0.0735260619,-1.0479316835,0.3663422766,-2.0490702514,0.7249742697,0.8528131915,-0.78434296,1.0318605788,9.5681755932,1.0396391046,0.307001806,-0.6211061806,0.3803491209,0.7403080537,-1.673948371,0.9481678622,0.3927702356,-0.2422906354,-0.7131448598,-0.7496168075,-1.013438849,-0.2824993309,-0.6450690015,0.4063471552,-0.8101463975,-0.9040071599,0.3644234593,19.0004905645,0.3794283566,-13.8571767941,0.6131440859,-0.1493223993,0.4594515878,0.4558937063,0.9582627704,-0.2419517998,0.2855718507,-0.9977720061,0.6712598748,-0.1945526626,-0.7776987309,-0.8116411794,1.0854666248,-0.6493683315,-6.6751882262,-0.5046520351,-0.4166619486,-0.8531877155,1.6579842108,3.1066215242,0.2413190544,-0.5820502749,-0.366761456,1.1372401412,0.7024373815,0.9418690686,1.1442660055,-0.675544119,1.9876755509,0.0428424077,-0.4726510899,0.2741838348,0.7128594192,0.0650336171,-0.4896113744,30.6811761327,-0.9147846551,-0.3320703946,-0.3680761129,1.3204833034,0.3901831187,0.6172236562,0.6930077967,-0.7482856268,1.6237327221,-0.0550890474,4.6409035289,-0.1411540741,-12.606165225,0.210675827,-0.177974603,0.5018016538,0.427924342,-0.1826093466,2.6833853811,0.690048384,0.4952701164,0.6060277433,-5.7260457876,0.4221015264,-0.5982812559,-4.195988994,0.3461910486,-1.0184767106,-0.1884101744,-0.3901151096,-0.29209636,-0.766584643,0.0183443392,0.4032149767,0.3130939444,0.6297141939,0.0339445007,1.7150416136,0.0227888824,0.2801143882,0.3336261233,-0.005548708,0.8481164581,0.6131760261,-1.0129378121,0.284499011,0.7748649737,-0.553197499,3.0088131784,0.8838783286,-0.8664264383,0.1285021515,-0.7360423375,-0.0611414782,0.7762514511,-0.0920037197,1.4485153403,-0.7030401021,-404.0352288542,-0.5892759294,-1.0246727375,0.0438402896,0.3966145177,-0.7812928609,-0.7332270624,0.7996890449,-0.1846935092,-0.4172646801,3.1661457122,-0.2744744647,-0.8120655689,0.7237721784,-0.9916224068,-31.6755365742,-0.1123974969,0.5807951124,-0.9018589297,1.0202216274,0.7051202123,-0.2348138043,0.3744588619,-0.5514237484,-0.3548020383,-0.8095576172,0.2064694718,-0.5263700981,0.2999468781,0.3936455888,0.126500079,-0.1584699805,0.4483626964,0.8860681036,-52.7413039467,-0.7145550115,10.2803599325,-0.1455780464,-0.5502933283,-0.1315013337,-1.4632695504,0.1243716035,0.4493673478,0.6855726443,0.1229370297,0.1151704851,0.137094678,-0.4576798692,0.1394849668,-0.4438276558,0.4678520706,3.7283340901,-0.2540678994,0.2496730119,1.4881378342,-2.0894029684,6.0600531548,-0.7712626258,0.4305761721,0.9604539134,-1.6314910241,-0.4637586546,-0.616121732,0.5293787057,-0.1921762058,-0.7481262467,-0.5933091344,-0.1363877929,-0.0531836998,-0.0050594763,-0.6548935867,0.1391926914,-31.0819393107,-0.7313951661,0.4440227133,0.3473021879,-1.0227158811,-0.1876687051,0.2524292753,-0.2043009366,0.1325029019,-0.6327311081,-0.8587411833,-4.499871952,-1.3271765775,4.7317010733,0.0883288946,0.0107651807,-0.0805628124,0.1059739764,-0.7567907735,-1.5991657283,-0.8568122965,-0.1205660386,0.3956784785,4.6873158993,0.4564654403,-0.6947199135,0.0183544986,0.2412941217,-0.3880638726,0.5294859024,1.0105744029,-0.3927689747,0.4798409113,0.4927736961,-0.1218430335,0.2553441613,0.5792774428,-0.1786048742,-3.0175503877,0.5817922185,0.7397368163,-0.4481688426,0.8620345303,-0.440189365,-1.1447413992,-0.0769746218,-0.4072191026,0.4947525204,-0.265430662,-5.6223160086,-0.0792565163,0.3671058334,-0.3632276612,0.192764982,-0.9511010979,0.5778121701,-0.5565643204,-2.0032315515,0.2495658792,126.8225025732,-0.4849651239,-0.2884171887,0.5161627057,-0.6158311374,0.1008871618,-0.6402128149,0.2048718104,-0.4944753345,-0.9671743378,-2.0014309249,0.9374619004,-0.3085140265,-0.6228699521,0.617120361,10.6503800143,-0.0275776834,-0.3452339578,-0.6430371595,0.8974109051,0.8236061468,-0.1735511598,-0.5455993495,-0.2176264831,0.5675305144,-0.5408352074,-0.2952166254,0.1547645124,0.4598432508,0.7565595005,0.6932103164,-0.5150291623,-0.1358395052,-0.2127413288,18.3505966315,0.5346417866,-14.9581203838,-0.80573404,0.2170430173,-0.6866107882,1.0718823765,0.1445058461,-0.8624987207,0.0788942006,-0.042808933,-0.6727797353,-0.1636841389,0.3103629021,0.5424816254,1.0108342863,-0.1536202634,-5.0470306243,-0.0040222676,-0.2334010278,-1.3619260706,1.3023234208,-4.4990963835,0.7936938502,0.2938417895,0.0116557839,0.4573773256,-0.4787394057,0.6196409215,-0.0107900463,0.5109198169,1.5870869289,0.7381299894,-0.1084068655,0.056679817,-0.9630816183,-0.9703408611,-0.8092787891,14.4524491426,0.3134182209,-0.1060185225,-0.163902651,0.3684187698,-0.8991380839,0.2073215463,-0.8722236068,-0.7024280541,1.8371455968,-0.3418256202,3.1715017556,0.564861354,-13.6057281913,0.9965668222,-2.1121745147,-0.5409181085,0.3043526319,0.6022790032,1.6168759204,0.3847354104,0.5700089622,0.4168366539,-2.7216249568,0.9062781203,-0.9697265729,-0.2689401054,-0.5038372773,-0.7923686784,-0.7435606607,0.266632555,0.1832634255,0.641838246,-0.9648542292,-0.422971933,-0.904633477,-0.3267978122,0.5089336052,1.2838183863,0.9826650272,0.3937654603,0.2827029939,-0.7135906527,-0.1271642589,0.7886055859,0.7817402805,-0.3773467656,-0.5326136749,0.213567645,-1.944004898,0.5144620059,-0.7449097514,0.7447676432,0.4948103258,-0.599045773,0.7002015544,-0.6100198911,-3.5179471556,-0.6081691586,404.3424569667,-0.2831388967,0.6169853919,-0.4764040923,0.819170011,-0.5419364183,-0.9416344521,-0.9766209363,-0.2646839806,-0.4826276736,-1.0088506018,0.0073685401,-0.6359916146,-0.541082112,0.3305677872,7.2493650956,-0.7210854848,0.2701177298,1.0424380307,0.8548942172,0.4662082386,-0.7080326235,1.5293456013,1.3510360484,0.5531041532,-0.6334949739,-0.4268319296,0.5511111316,1.3313514864,0.0335974862,0.4216825328,0.8426571819,0.9196792505,-0.6114568118,18.7211214838,0.65312693,-12.1780099622,-0.5690902436,-0.0795080262,-0.5419772904,0.6416036174,-0.8969466645,0.648432632,-0.1860406993,-0.5350800924,-0.5769459349,-0.5794450325,-0.2100389341,0.1320673252,-0.5300981668,-0.9701050799,-2.2005119353,-0.11736252,-0.9596179368,-1.0960424655,1.8026613066,2.3057195588,0.6818561723,-0.2180199349,-0.0305565116,0.4234129052,-0.7938024042,-0.5130726496,-0.2647495727,-0.4159305017,0.9339845106,0.3991192936,-0.4888313472,-0.3362404507,-0.1081992972,0.8761383357,-0.3829858646,1.3698848471,-0.0143151945,-0.6512745538,0.6803233598,1.5065650058,-0.8602478485,0.4165310665,-0.536057964,0.591373401,1.6460330416,0.7961650368,3.9987094889,0.4638696343,-1.7757525761,0.6644432035,-0.7442904136,0.9857096094,-0.0499918553,-0.1634876351,0.8093247542,-0.6607527406,0.1627572194,-0.3930478743,-4.8020095129,0.5303767501,0.9494168182,-1.8782590285,0.2296631372,-0.3217603397,-0.0694812031,-0.723643325,0.2584220126,-0.4150482139,0.1830363178,-0.2804671308,-0.5555001646,-0.5789171168,-0.9133406228,1.9028757501,-0.9526763688,-0.4982569502,-0.3064853163,0.8626792523,1.0774157408,-0.338321329,-0.4532933542,-0.2156535379,0.2178957876,0.0720213576,6.8736585447,0.8397542653,-0.7174744369,1.0183319903,-0.8149256864,-0.4653569041,0.3501587514,1.2235381689,1.3470345573,0.4378125303,-404.2214147813,0.7307761466,0.0858902112,0.6238571152,-0.7723644655,0.1244869849,0.868255922,0.8700536608,-0.7348898908,0.9522719778,0.4674619137,0.6018180077,0.6218983749,0.2673809388,0.7398677432,-10.5180171145,0.7835329089,-0.1517169794,-1.1035382714,-0.6187855623,0.6911858249,0.4895780202,-1.0906359818,-0.5863141835,-0.0486028888,0.8185323156,-0.1979364104,-1.6432137877,-1.257628407,0.4232966724,-0.0991345836,-0.4379645788,-0.8028171067,-0.9468924877,-18.9596514896,-0.4039384983,14.9351824974,-0.9259017651,0.0060758688,-0.6932166364,-0.404423486,0.926864769,-0.2548025425,-0.4291785594,1.0391760148,0.5296600679,0.2018610348,-0.6252538766,0.1175393846,-0.3780484314,-0.8263158268,11.8632365979,-0.5106941369,0.7919512276,0.2781465612,-3.3404969859,4.6737786321,0.3714491857,-0.5652564606,-0.9899478274,-3.15784891,0.7765450882,0.4989747757,0.3603508427,0.0278326039,-0.9781063737,0.5240594513,-0.2542473499,0.5884279908,-0.7726488824,-0.2387429033,-0.552473649,-29.9988802129,0.4072004652,0.7586021077,-0.6494781589,-1.5558459589,0.5471403992,-0.399171474,-0.3190271987,-0.5308993402,-0.9158722214,-0.2984013652,-5.0982803813,-1.053091918,5.2747451546,0.0087485752,0.9242773955,0.7110724866,-0.777658589,-0.2933674624,-2.529794688,0.1906245676,-0.0917670443,-0.8959803309,2.9776248537,0.8529872107,-0.2368768986,1.2975568274,-0.6944105421,-0.8956370128,-0.5324746179,-0.8362703144,-0.5812252471,0.0703379117,0.3110301602,0.8933076753,-0.0411695213,-0.3823116424,-0.9468904187,-2.7055122013,-0.2610363302,0.6581796202,-0.9982830294,0.0469856193,-0.3794872509,0.5263554847,0.0121335276,-0.7934436477,1.0618147399,0.8483460797,5.8093554137,0.1512949354,0.5696910603,-0.3290100644,0.7570196072,0.9421574697,0.7489338468,1.2936344998,1.8804569153,-0.0742686368,-153.0203743587,0.0163435598,-0.125387537,-0.414364713,-0.14013766,0.2987603407,0.4848441912,0.3729451821,-0.6030331546,0.4703912667,0.4776059429,-0.3316431207,0.7801584975,-0.8664258278,-0.2139122887,-8.1842143602,-0.6609780612,-0.8960160824,-0.1570959342,0.7957540292,-0.6149189222,-0.5207230901,-4.0733955567,-1.1124343085,0.5462347677,0.9420818463,-0.9128986296,-1.5111787522,-0.6729662055,0.4175501432,0.9633212938,0.1353515275,-0.6184799958,-0.0338573099,-7.137452049,0.8463828196,11.2607124097,0.4222912126,1.0763936553,0.6360904267,-0.8020882821,0.1642811039,0.607088884,-0.7828544743,0.6652521679,-0.7060874824,-0.0489309888,-0.9036851583,0.6447935568,-1.2175663619,-0.4710889463,13.3415227398,0.7291902749,0.0083242852,1.4152938687,-1.429119007,-4.2883166329,0.6153515481,0.5184955239,0.8317233444,-1.2952322691,-0.9188538413,-0.8299046155,0.1759316726,-0.743121611,-1.0283990878,0.8771134617,-0.3290237994,0.2517747543,-0.5474398528,0.0382347464,-0.4947793693,-8.4220089461,-0.1868190657,-0.6031288166,0.9815453994,-1.0749721139,0.8308419723,1.0430783812,1.2208319407,-0.8423308808,-2.1253640063,0.6319468734,-4.0987139492,-0.0543007998,13.8038521863,0.9666394551,0.0864630009,-0.9243521716,-0.8261518546,-0.5204352577,-2.3474792968,0.3142095521,-0.7322871666,0.5897777326,3.8749004059,-0.8102248117,-0.8816149817,0.8928196437,-0.4757816783,0.7237071981,0.6313510449,-0.2277351488,-0.0844453967,0.9311929395,0.2835454026,0.2893860438,0.7860000933,0.7883220858,0.6748078088,-1.4061697404,-0.7729776088,0.6606358182,0.6352600958,-0.6172916324,-0.1383813014,0.019047578,0.9772778195,-1.0109461944,-0.1870034929,0.5918127412,1.2233677739,-1.1958359419,0.3501957238,0.7651307316,0.2507345306,-0.6088786248,-0.77053673,0.1782268571,2.8990506875,-0.8235588376,-404.322758991,0.7629822993,-0.3160880517,0.4051148918,0.0435767573,-0.4602604943,0.2447101174,-0.1683885374,-0.4422274292,-0.9269072388,0.2196633986,0.6326012181,-0.4778496445,0.9748160996,0.430504097,-30.8383274567,0.5893060192,0.6293913619,0.7141581512,0.5156747347,-0.6081002835,0.2313949543,-0.9627234634,-0.3682498005,0.0245742179,-0.0535733175,-0.9001129902,-0.3165348485,-0.603625112,-0.0345657673,-0.054441509,-0.3099630549,0.750742391,-0.5792976251,-19.3032184024,0.3878151688,11.5417291405,-1.0942858911,0.7510849568,0.1262823565,-0.2384697546,-0.6592629636,-0.0390438843,-0.1800627468,0.0349427883,-0.6629490574,-0.5412630506,0.3454699039,-0.7026364266,-1.2289368575,0.8684167036,2.7713532719,0.3062323509,0.7949568654,2.1813627019,-2.4323172836,-7.3420413224,0.3949702713,0.2651538571,-0.238393504,-0.9444280687,0.7954817204,-0.4482616084,-0.8299254373,0.0516259139,-2.1679568774,0.0360561705,-0.1492528624,0.3279732653,0.2566988636,-0.3303962427,-0.60264818,-37.2517268029,-0.3593243196,-0.8244870349,-0.471495723,-1.7291877234,-0.5829149868,-0.3579553503,0.1447089483,-0.7073978135,-0.6592483075,0.6460991653,-4.2713264219,0.4941411696,12.6915493662,0.7081308074,0.0845035686,-0.2674675007,0.5308012494,-0.0198708984,-2.6382057606,-0.7115011657,0.544041276,-0.105111677,3.9941307591,-0.4585830065,0.3568988228,0.5187514471,-0.8088714549,-0.2890679868,0.6001431826,0.0671111539,0.0811406537,0.0269105575,-0.8339255875,-0.1268599609,0.2805719828,-0.4786050719,-0.689690985,-2.3763075853,-0.8084579913,0.7499029422,-0.727099918,0.8300972758,0.7346767804,-0.0488887138,-0.0699657429,0.6982927776,0.3568538715,-0.821625845,7.2125394115,-0.2963472758,0.5930997756,0.4133467421,0.6230424267,1.7826047183,-0.5047695238,-0.4202399317,3.5404685249,0.9146206076,-152.0741794566,-0.7030274836,0.7433628113,-0.5609079185,-0.0428725455,0.4019898262,0.117425194,-0.9470008122,0.3830581958,0.3581992982,2.8981007385,-0.0866083018,0.7815510523,-0.6342573428,-0.3032528958,-7.9351401142,-0.3373130367,0.9242919533,-0.8347023709,0.8183135686,0.5504533897,1.104578865,-0.1174375233,-0.3071192632,-0.2012146105,-0.9278304043,0.7276355171,0.0929618229,-0.8905786326,0.7455884493,0.6847208771,-0.6876134864,0.1917763228,0.2429136896,-52.667831819,0.3976626347,12.0908987787,-0.3116394591,0.3623661759,0.4453568239,-0.7132018745,0.458924672,-0.676811106,1.1524297939,-1.2562533434,0.7557653812,0.8723196236,-1.0396215758,0.1167859676,-0.7683858341,-0.5870518103,1.4128504493,0.4173973702,0.8166464445,2.3132361121,-2.5738841525,-3.6078883841,0.7543744349,0.8615530332,-0.1439395422,-0.3230907283,-0.1178545089,-0.6979602292,-1.037097321,-0.3979462561,-2.0907835677,0.9494020025,0.20764518,-0.4871300182,0.8784960871,0.7807741565,-0.0130142749,-2.0633994416,0.539434668,-0.3885450906,-0.3053294478,-0.4155144918,1.001640797,0.7167632163,0.5996449439,-0.9305200957,-0.5713837523,0.0215702131,-5.6600058052,0.9056425005,12.1346536695,0.50888817,-0.3108540391,0.5531609391,-0.0366010925,-0.5050855142,-2.1597108995,0.3335117902,0.4822961257,0.1187253281,4.1735384711,0.2153173591,0.1749304924,-0.5716761743,0.9202951194,-0.3277490323,0.0295065872,0.3222986464,0.838526256,0.5627840628,-0.361874945,-0.9283811201,-0.2885254217,0.7642075226,-0.2157738585,-1.1906609119,0.7393221678,-0.2117661958,0.1730249266,0.5678601081,-0.0894823073,-0.8275647211,-0.8768746527,-0.6512071994,-0.2875997435,-0.2298748391,-0.211811665,-0.2655200524,-0.4891947738,0.4048093371,0.236608493,-1.7548581785,-0.1373349029,0.1433437235,-2.0124683337,1.1354513315,153.7209971246,1.045576108,-0.6434365963,0.1697860492,-0.0320435211,0.7372051763,0.0235550209,-0.4536721094,0.1209765714,0.132368354,-0.7809139191,-0.0319377085,0.5665241266,0.8438669082,-0.5934164998,30.7319364343,-0.3774004437,0.1949799548,-0.3751433431,0.0277980151,0.1183472372,-0.8078883267,2.4745590873,0.0017771522,-0.6643587064,0.7623505815,-0.6191473225,0.7301470985,-0.6171893211,0.2723087208,0.0422484952,0.7700705812,-0.8169515852,-0.9363958248,19.1181070045,0.9143838831,-14.9193795591,-0.7534743359,-0.8925059045,-0.8535627702,1.0491730601,0.6500448514,-0.3463071582,0.2310128504,0.781217835,0.4829480544,0.5535395974,-0.753712341,0.1042584813,-0.3786566778,-0.4314586429,-0.3795484706,-0.5343437252,0.2163844798,-1.1569571746,0.7331485525,-5.2578002975,0.4887522752,-0.5693408119,0.3365359223,0.2371153919,-0.0400105685,-0.2640762222,1.1850481812,-0.3003043685,0.5082817369,-0.6195702396,0.1070579074,-0.9492837652,-0.2873929205,-0.2174849012,-0.8586848548,24.9340812208,0.0494874643,0.7937230777,-0.6039254294,0.1256429809,0.532793221,0.2817195508,-1.2045758927,-0.150206513,1.8788318678,1.0040308294,5.2532833772,-0.0904803757,-4.9447659928,0.0366620541,-1.0545557695,0.5621953454,0.7812373862,0.8866566915,1.438747694,-0.1344546059,0.4632874218,0.4397583102,-2.0232829203,0.1420657559,0.2146990498,0.1834162752,0.0944248951,0.302972577,-0.3367779499,-0.9552896938,-0.5257805704,-0.4514328598,0.8414197259,0.98970413,1.0835667879,0.5589057244,-0.3408531112,1.9168340537,-0.0773561027,-0.7548627859,-0.900739294,0.9998494058,-0.8327555632,0.4822237304,-0.9303660186,1.0312091312,-1.1936345076,0.2861466927,-0.1677329835,0.5697382478,0.7292617257,0.1369238851,-0.2712947406,0.1746017824,-0.7815376307,-0.6146364917,-1.9564169597,0.1504505439,126.8843909171,-0.3224726269,0.2500473937,-0.8483759577,0.2144577428,0.6045988109,-0.3716614381,-0.5842897144,-1.0731721703,0.2686644886,-1.1171643348,1.0469315722,-0.2623069532,0.9493900035,-0.1191699108,9.5614744932,-0.1113971838,0.0843539796,-0.7053294319,0.449143076,-0.5029435734,0.2380557912,0.2314508788,1.3548633434,-0.612594351,0.2773538928,-1.1075965667,0.9023972909,-0.4040082824,0.9080826637,0.2072840899,-1.0186352278,0.6939180323,0.6092862609,18.5295377296,0.875150983,-10.1055015273,-0.1718695777,-0.2703556779,0.2412470907,0.5886857212,-0.0270074959,-0.4581881329,-0.4959255688,0.772166056,0.7645094612,0.0147727518,-0.5129276205,0.9226720872,0.8965861708,-0.5752445745,-0.9541268735,-0.1904427859,0.1364026677,0.5735584137,1.1224346931,-4.5894018099,0.0772949709,0.8349136957,-0.8395068428,1.4981490449,0.2702753928,-0.5923195638,-0.0467202714,0.4406542421,1.5379511682,0.8770945183,0.0958791353,0.1004483849,0.1168149901,-0.0380517508,0.0868943453,-0.6160091597,0.3513081116,0.7609264019,0.0783918912,0.6138883816,-0.9800518349,-1.0861838876,0.2219095916,-0.2249315509,0.2429393149,0.0183184227,4.6084921352,-0.9599046399,-4.8341554151,-0.1842553539,-1.0801416418,0.8960574623,-0.0467409319,0.3971600889,1.5357733571,-0.6307468244,0.8234890367,-0.6831037673,-2.500638245,-0.2950604201,0.3184082825,0.193136968,-0.7250688563,-0.7869210017,0.8292565884,-0.6108092194,-0.3157597676,-0.2281269667,0.1828809056,0.0569162627,-0.3377147609,0.6863799697,0.9643351097,2.1324373627,-0.3020479009,-1.4025219994,-0.8768799556,-0.7963844265,0.7470372842,0.4129063724,0.9140443424,0.2617900967,0.4363109665,0.2361910633,5.5331683433,-0.5174348437,0.1417569006,0.9482042724,-0.2463365432,2.8592111715,-0.1497275644,0.2639353582,3.4367323483,0.9417330311,-405.2584144464,0.6965676249,-1.0666476625,0.0689602176,0.7746399639,-0.780536342,0.1952345199,0.288010035,1.0183769131,-0.4280299983,1.8020648852,0.0788740357,0.6205897544,0.9128436538,-0.2485636988,-30.4560765928,-1.1723818013,0.0285009073,-0.9382642454,-0.8523413496,0.1358378283,-0.1496471788,-0.9989950182,-1.3679288488,-0.1262615751,-0.8341155229,0.2046353521,-0.2872242048,0.0779450686,0.5857696904,-0.4440243007,0.9241840849,0.2899442791,-0.7381284948,-53.8273914354,0.660278474,13.7172223052,0.027896623,0.3831727865,-0.7716461233,-1.179681903,-0.1691015413,-0.6998605757,-0.4445610779,0.5553572145,-0.8339989267,-0.7494623288,-0.8409447554,-0.0715157932,-0.5195623974,0.270928465,4.8587207894,0.7852497824,-0.1383517561,-0.3437121799,-0.9503098078,6.0928257805,-1.0513173406,0.4403046424,0.5117698533,-1.2492658791,-0.0745303144,-0.7643353767,0.6317274714,0.0937474049,-2.3316960418,0.6377025034,-0.7888874881,0.8615873955,-0.3949324636,0.8578343871,-0.7844949507,-22.1857435156,-0.1581318374,-0.3836704791,-0.7771572761,0.1390226092,-0.6240092032,0.1601407505,0.949572493,0.6120507256,-2.033548907,-0.6976323025,-5.0393220191,-0.7867282118,12.3573563988,-0.2285259721,1.5574665812,-0.1602161784,0.8871124584,-0.4021683693,-2.5242002891,0.1841623915,-0.6894639057,-0.4238646527,7.828381839,0.881822783,-0.8953632866,-0.1356503112,-0.6611313879,-0.0140645001,-0.8371877934,-0.4358273252,0.5185902917,-0.7105869246,-0.7087892104,0.8530927603,-0.5971710852
