encog,BasicNetwork,java,3.4.0,1,1615103277802
[BASIC]
[BASIC:PARAMS]
[BASIC:NETWORK]
beginTraining=0
connectionLimit=0
contextTargetOffset=0,0,0,0,0
contextTargetSize=0,0,0,0,0
endTraining=4
hasContext=f
inputCount=130
layerCounts=1,131,131,131,131
layerFeedCounts=1,130,130,130,130
layerContextCount=0,0,0,0,0
layerIndex=0,1,132,263,394
output=0.2346293923,0.9589525227,0.0186387322,0.1567012961,0.0944820109,0.6451399593,0.9320822201,0.2405317414,0.9901609513,0.1059541041,0.0183946267,0.0000000001,0.0013933841,0.0858649327,0.9344621947,0.2129489961,0.6307015778,0.7933634003,0.1286012012,0.0219534769,0.9885912297,0.9662896862,0.6609680655,0.7620662986,0.0100594845,0.0810559906,0.1393755847,0.6980235955,0.9645676455,0.2636010909,0.995525467,0.8371840581,0.8471966771,0.1554580924,0.4063693342,0.0440121682,0.1288766048,0.0573642466,0.4561210726,0.9415336746,0.9902701037,0.4169419727,0.8983393008,0.0314744282,0.9788801119,0.9047744775,0.9780820971,0.0196033425,0.0000326282,0.91075787,0.3310178434,0.1775867402,0.9746133478,0.3167512439,0.6446490307,0.2288069895,0.1652656187,0.409990816,0.9849658312,0.0919019638,0.2043829028,0.8817581289,0.2688300741,0.0785207629,0.0135156043,0.8608485403,0.9503537261,0.0505639304,0.1091547362,0.012518804,0.9366036839,0.14175145,0.1064833528,0.0284930122,0.8489152521,0.0064370183,0.1014204217,0.0100528186,0.0709310885,0.7892329314,0.4039032377,0.0641224934,0.2740967485,0.8472791073,0.8397168573,0.6826359327,0.0334044294,0.7468379104,0.8882077732,0.2611062804,0.9742812544,0.3840983426,0.6428935688,0.8630048769,0.0240390348,0.9869783585,0.0042842756,0.9009917208,0.9888394485,0.6864458487,0.7833207313,0.0230834756,0.948162213,0.0170501744,0.0020792593,0.6500175206,0.027177519,0.0106703785,0.7190054306,0.9516044838,0.9997278966,0.0015160807,0.2061319411,0.9397092194,0.7037591976,0.9885575475,0.1248580525,0.0835738145,0.1613403552,0.198243684,0.8984069209,0.0377138952,0.3894165912,0.0226331065,0.5369727643,0.7474992468,0.9605493253,0.0254043721,0.1262164242,0.4942898568,0.9980052821,1,0.1162472709,0.0000000001,0.0286384633,0.9999973092,0.9995818047,0,0.0001453964,0.0000014252,0,0.9959679567,0.0023650861,0,0.0013238737,0.0000000004,0.0006849364,0.9927409979,0.0037201327,0,0.0143745491,0.0408556634,0.0001924574,0,0.0000120135,0.0000001989,0,0.0000002807,0.0000013117,0.2119608012,0.806658328,0,0,0,0,0.02904412,0.0013760856,0,0.0000000289,0.0003134591,0.0001789918,0,0.3197131291,0.0000410896,0.1667556075,0.0000000002,0.0000465414,0.7669783533,0.9911474015,0.9994056999,0,0,0,0.0839443366,0.998463943,0.0000034839,0,0.0001160676,0.0024345617,0.0000118831,0,0.0001236157,0.013193275,0,0.8853173651,0.0000036093,0,0.0016435837,0,0.001530343,0.0067204226,0.9988301329,0,0,0.0000000002,0,0.163406696,0.8972227963,0.0000001042,0.0001512451,0.000030245,0.0000808266,0,0.0000150548,0,0.0000031898,0,0.0000008998,0.0000000001,0.0036757464,0.7100502486,0.0001788957,0,0,0,0.0000007773,0.0013560974,0,0.0000007003,0.0420770968,0,0.0043831577,0.0000513125,0.9732277463,0.0000329025,0.5409908108,0,0.9726328276,0.05708927,0.0000039078,0.0006299813,0,0,0.9985702309,0.9990872774,0.9817362416,0,0,0.9804895804,0.9999960617,0.0000093707,0.0000168118,0,0.0000086549,0.0010936815,0,0.0000111265,0,0.5684960765,0.9999483244,0,0,1,0,1,1,0.9624137107,0.9999300614,0.7403089315,0.7448979173,1,0.000497029,0.751623044,0.8358600736,0.9999999998,0.0000000114,0.9453139698,0.8712793125,1,1,0.0000813093,0.1278494507,1,1,1,0,1,0.9919883357,0.999972633,0.0519338032,0.8392764953,0.0267778877,1,0.9999997966,0.0000014138,0.0000000002,0.9997776846,0.9971074356,0.970945634,0.0736221292,0.9999999964,0.0005990646,0.4770831496,1,0.0000103551,0.9606878056,0.9999235424,1,0.9835372681,1,1,0.8499370439,0.0043265345,1,0.9672102942,1,0.62977328,0.9999999997,0,0.9999999377,0.0316376403,0.5841815315,0.9998433648,0.0000000523,0.9357687761,1,0.9961688091,1,0.0011938617,0,1,0.0000007911,0.999998462,1,0.3788182284,1,0.991870928,0.000000788,1,0.9968491904,1,1,1,0.995107596,0.0000003216,0.0000000018,1,1,0.1456584814,0,0.9999998781,0.0000000087,0.9997526145,0.9999999999,1,1,1,0.0000002811,0.99999948,1,0.2090518523,1,0.999999981,0.064443574,0.9999804444,1,1,1,0.2611868773,0,0.3524384012,1,0.9999954797,0.0000141758,0.9992429129,1,0.0922279633,0.9999996652,1,0.995053642,0.999999999,0.0171026071,0.0000106966,0.9999748766,1,1,0.9999999959,1,0.9651121486,0.0000000002,0,1,0,1,0,0,0,0,0,0,0,0,0,1,1,1,1,1,0,0,0,0,0,0,1,1,0,0,0,0,0,0,0,0,1,0,0,0,1,0,1,1,1,1,0,1,1,1,1,1,1,1,0,1,1,1,1,0,1,0,1,1,1,0,1,1,0,1,1,1,1,1,1,1,1,1,1,0,0,0,0,0,1,1,1,1,1,1,0,0,1,1,1,1,1,1,1,1,0,1,1,1,0,1,0,0,0,0,1,0,0,0,0,0,0,0,0,0,0,0,0,1,0,0,0,0,0,0,0,0,1,0,0,1,1
outputCount=1
weightIndex=0,131,17161,34191,51221
weights=##0
##double#51221
   -0.1428795694,0.992648036,-0.0226630328,0.3805706853,-0.2367977719,-0.0404657732,0.5428833677,0.9891358148,-0.3826004686,0.9305765223,0.0218651462,-0.5139639787,-0.789570656,0.1431110323,0.5449809289,-0.1360099015,-0.0388972289,0.9521751831,-0.0108444341,0.6761377989,0.4211450081,0.1721142634,0.850735842,-0.3214749537,0.2201179334,0.0491687411,-0.9164691971,-0.9237348089,-0.3403952257,0.6976049249,0.1386420007,0.2266457559,0.7950735444,0.6833733921,0.4947624041,-0.7687355428,0.701952037,-0.5069741806,-0.7161240436,0.6961245279,-0.1586308075,-0.3702579082,-0.8238964818,-0.4168760455,-0.5178323143,-0.8620477218,-0.2755680041,-0.0067191762,0.7762381664,0.4743786613,-0.0720709077,0.8236095911,-0.9053852359,-0.266955981,-0.3322974617,0.3804669265,0.378731925,-0.6946939339,0.2158837479,0.3081407349,-0.1560019594,0.0840690869,0.1120409091,0.8282095811,0.2984377898,-0.3973395259,-0.0903351201,0.3247298375,0.1348427743,-0.2173205376,-0.5673177296,-0.8381456058,0.464330808,0.1336107081,-0.5720046209,0.4628039231,-0.0363711917,-0.8479119135,0.106739242,-0.673038129,-0.217906285,-0.3747543128,-0.3799181482,-0.6951520084,0.1519117747,0.613277369,0.5169478078,-0.218759117,0.0932192861,0.534331081,-0.2001409729,-0.876722617,-0.4486180493,0.5238649481,0.8753913387,-0.0525585336,-0.1860101798,0.4458506414,-0.8315954738,-0.182850416,0.3194267568,0.2302410834,-0.3915856418,-0.5505296749,-0.6323995108,-0.115326,0.3490342867,0.7009115884,-0.9067301315,0.8043437843,-0.4784600483,-0.7864755889,-0.8743565591,-0.8387161542,-0.8554777781,-0.0744017429,-0.6731155056,-0.08195049,-0.0827178446,0.3915400744,-0.8488221868,0.2567847519,-0.4066860677,-0.8583832395,0.8422227565,0.6528653521,0.7027436601,-0.419773874,-0.0364669265,-0.5648420453,0.9074161933,-0.7333853725,0.6116161432,0.272922012,0.3356195104,0.2733636067,0.0335311792,-0.8353487318,-0.1389701871,-0.9793524857,0.6869894382,-0.3814467168,0.1490951481,-2.3409209689,-0.3205130421,1.5156573977,-0.1534286044,-0.0616760088,-0.7231164733,-0.8787906621,0.2852442423,-0.3730181818,-0.218222759,-2.4986478529,0.1118305858,-1.2689359739,-1.3742767731,-0.2256344524,0.4294295177,0.0224495324,0.5548161179,0.8341484412,-0.2295682988,-0.1391461427,-0.8895096362,0.6447818201,0.4507307503,-0.4542482417,-0.8240425783,0.8943483988,0.0584853976,0.8240574902,-1.1989718806,-0.2666740243,-0.8349716928,-0.9472517545,-0.7702579049,0.1950175401,0.5807491859,0.5210988317,-0.1087884786,-76.6550849577,-0.3041123794,-0.2186155587,-9.1791211521,0.3037681722,-0.7272166798,0.6238244317,-0.8440586104,-0.7944154818,-1.7829602101,0.3036421132,1.2816940138,0.4058886888,-3.7957599742,0.1366545074,0.7584636199,0.5281783561,-0.6379620989,1.0789658322,-0.4345370483,-0.2708197715,0.1931289123,0.1744749193,0.6742443833,0.9348341795,0.9782973895,-12.9249421585,0.4511339774,-1.0378498458,-0.8615107283,0.4043909481,0.8045251937,-0.5010687676,-22.776602418,0.7284277906,0.4508925356,-0.8079566407,0.072100065,0.0726313021,0.3371760189,-0.9135529332,0.0983095885,1.200340568,-17.8098802027,0.6759491227,-0.940869245,0.796535869,0.496251674,-11.7427202319,-0.1218235888,-0.7232507509,-0.9327220843,0.4445195983,-0.2854906535,-0.8476045702,-0.6779084379,0.5238090286,-0.569098783,0.7270705813,0.9344540062,-0.3042715111,0.7803298199,0.909346552,0.067346435,0.8117539281,-0.6987745092,-0.6456118831,0.693158409,0.1991416529,0.3784601234,-3.0424406426,0.4992678066,0.4424343961,0.2911996389,3.5153458107,-0.2162269836,-0.2034079238,0.1919128859,0.6737711263,-0.7305791867,0.6089416649,-0.6793387567,-11.5127332124,-0.274013235,-0.9290900887,0.227130206,0.5069472566,-0.5389692921,0.5836087003,-0.7742671355,-0.6412764791,-0.1009870674,0.3947766478,-0.0268434231,0.4118057381,-1.1697204578,0.8419388881,-0.7835235239,0.8163410901,0.5842213989,-0.8645006892,-0.1041304144,0.5038969352,0.9940474847,0.5971371885,0.8579118112,-0.4472662658,-2.1744957895,0.5531510079,0.4001842987,-0.3072949923,0.0059400933,-0.3087975946,2.0193653747,-0.037950519,-0.9578323461,0.4995654641,0.0739880231,-0.6603673205,-0.5409022151,0.9274075826,-0.9739914459,1.7953902323,-0.7559044406,0.5798773541,0.9608123286,-0.5291467676,-0.8183595305,0.3462200818,0.9070642842,0.2254676219,76.3516784006,-0.3381824671,-0.2924153781,0.9077186931,-0.5452690818,1.032539868,-0.4331312653,-0.7736102887,0.0157343101,0.5694805655,0.5742018741,0.4116582628,-0.9307197708,0.2056196938,0.1854903161,-0.3449238397,0.0266351156,-0.6546526698,-0.8595353177,0.8235548573,0.5233528113,0.2211040137,0.2874004935,0.9542590211,-1.051671888,0.1496322697,9.5247348436,0.1363070023,0.2490523341,-0.9371944149,0.9669512579,0.8185827786,-0.7526232399,5.1675403514,0.0396486665,0.487618167,0.1156387463,0.7768984991,-0.8396002174,-0.7754832581,-0.3556463129,0.3498169692,-1.9514551917,9.2324414709,0.2043231892,0.57368053,-0.0579965844,-0.2484898196,20.8386625012,0.7088967305,-0.5624296552,0.2907999548,-0.4333640265,0.9003329934,-0.2617105321,-0.3576468974,0.768136893,0.4508206067,-0.7941351076,0.3146159748,0.1454298178,0.0144281581,-0.3293028276,0.3054042489,-0.7834641321,-0.1149721066,-0.5336539821,-0.8115626451,0.4084092612,-0.748253635,0.2379831035,0.6103487147,1.0272736508,0.8162261113,-1.3816278042,-0.4832069425,0.7843700284,-0.5663308333,-0.2344612133,0.0960362185,-0.5062003812,-0.976770865,-0.4410248231,-0.9538446395,-0.5437014648,0.4505713334,0.3546375521,-0.3662834535,-0.2228000639,-0.782795856,0.681605688,-0.0509994758,0.3396185745,-1.5885014223,-1.2556875664,2.0728576379,0.2176009569,0.8127855889,-0.4310960993,0.5403580756,-0.7409141751,-0.9407733075,-0.8508191804,-1.941124439,0.1253992279,-0.3450208398,-0.919716416,1.3841295693,0.2108276054,-0.8080726462,0.114215437,0.7215975715,0.9160193504,-1.8729098849,-0.8351936236,0.6144390841,-0.7959409915,-0.181237334,0.1907278479,-0.022527661,0.33789293,0.2306990893,-1.7623627944,-0.5463201935,-0.0131561835,-0.1891427573,0.5438525243,-0.6767265646,-0.1156179139,0.4216774243,-1.9826831875,-73.4662979484,0.4727493012,-0.7671762774,-10.5531524144,-0.4407763879,-1.4701272165,0.7469370502,-1.1974010462,0.1116622436,-1.3647105667,0.1972908502,2.2157851192,-0.6188598328,-10.7442427245,-0.0130165059,-0.1450016818,0.1195024967,0.1205113444,0.4293206514,0.420100316,0.7355380767,-0.5205387692,-3.0906674458,0.7770347051,-0.5448999474,0.5134691468,-1.8434391323,-0.8342923089,-0.923260366,-0.0306271007,0.6309467202,0.4720947094,-0.9981790326,-20.9505331691,0.4951234355,0.1312650843,-0.9182515429,0.3129980043,-0.3183104046,-0.0413950812,-0.312052826,-0.9859978164,1.9121456505,-12.1078749482,-0.0275595762,0.2975405967,-0.9249187468,-0.9443258384,-3.4438417076,1.1554839821,-0.6172692921,0.1980342578,-0.9553613702,0.6924184273,0.8355855231,-0.4060350017,-0.4234582303,1.8694380509,-1.0095520949,0.1690177623,0.2153905176,0.0770829667,-0.1176795043,-0.0845845994,-0.6006606373,0.8693069386,-0.2701764751,0.2974984355,-0.0295968927,0.4644280989,-2.7982440725,-1.2624442527,-2.8847352202,-0.9953368435,-0.2906004408,0.6621882345,0.7814081667,-0.4076838754,1.2241988837,0.447232914,-0.6600148433,0.8132728459,-2.0522749542,0.8154039762,-0.3055591605,-0.5546796707,0.2486016942,-0.4441706922,0.0410984277,0.2185539731,-0.1966273239,0.1556640788,0.1265944554,0.5265529244,1.0896916777,-1.3784054705,0.9413227222,-0.517742207,-0.2615265846,-0.11868753,0.7490620197,-0.1700508643,0.3768852177,0.4293387105,0.0988098671,1.1645164771,0.6572851913,-1.4516176129,-0.1409340209,-0.4644922828,0.2210796102,-0.6676887263,1.1327333042,0.8614398943,-0.4411438928,0.4491372658,-0.8116641255,-0.8078263584,-0.3999379869,0.0259598401,-0.5517056339,0.4204454701,0.4475290046,-0.1615785951,1.0785885451,0.289670247,-0.4497851333,0.0896028932,-0.8095056079,-0.7251367446,-1.2067815563,76.0408408275,0.3316039205,-0.7885705847,1.1214261741,0.8801118511,0.4295524645,0.464231011,-0.6385514307,0.5043192663,0.454185135,0.3325416574,0.1877762377,0.9470189004,2.3448276721,-0.1309034633,0.9965176486,-0.425142397,0.071295148,0.6877297413,-0.8071797069,0.0349578351,-0.3634850139,0.8063278854,-0.2097306785,-0.5275778175,0.6060393786,8.6535011445,-0.8400584008,-0.2860847713,0.4925521257,-0.0953142287,-0.4113210284,-0.7217425249,2.3061338254,-0.691557149,0.1885212412,1.1174628423,0.7702964383,0.9108273391,0.8418628992,0.9405999321,-0.199233027,-0.5142374324,25.5758189014,0.8102288855,-0.4319160064,-0.536560174,0.2101249634,19.9476883514,-0.5023402044,-0.6123228668,-0.5768189267,0.9687314414,-0.5062850509,0.509887764,-0.8228689224,0.8044150781,-1.2572478867,0.2853940979,-0.9974167172,-0.8043488269,0.5613849883,-0.037683813,0.0024903109,-0.3549836498,-0.0470462545,0.7482666029,-0.6485369722,1.0145722191,-0.3307862649,2.349497201,-0.1957195541,-0.6047670305,0.1292400903,-0.2364814557,0.5516186555,0.1204937909,0.5678178057,-0.1288331284,0.4799532425,-0.9652715688,-0.5977627529,2.2001486994,0.0224332037,-0.4100716632,0.2726772206,-0.6764947752,-0.8242095559,0.3270033231,0.1765478256,0.0370363919,0.3928221967,0.3566549241,0.2069007531,0.2634097149,0.4253772508,-0.9214176314,0.6212688691,0.6606290613,0.2687960541,-0.2310084802,0.6737551431,-0.7381287182,-3.0465403663,-0.524675418,-2.4155178443,-0.5017442865,1.2644458963,0.0159572915,0.7951428428,0.3297762421,-0.3396068514,-0.9349483562,-1.8228673735,-0.2082842532,-0.6123077244,0.2225159411,-0.6799369345,0.2541076869,0.133901417,-0.8874994213,0.1891497394,-0.1893486823,0.6498065993,0.3910698814,-0.3020735052,0.5500425364,-0.2421277111,0.2040326146,0.7675985966,0.4523397705,-76.8066285351,0.5082225775,0.0888794143,-4.1086867022,-0.2542917064,-0.5637631189,0.713142537,-0.967102461,0.997735233,0.1923918025,0.5483598505,2.1309260911,-0.7787694662,-5.7202061177,0.3007265448,-0.4215500639,-0.7413219846,-0.5945765441,0.6875457898,-0.6445787997,0.8061188634,-0.1930679679,0.8192476991,-0.2918416842,-0.0921085139,0.7731065834,-8.8942929115,0.2990291265,0.5904016261,0.2702747606,-0.3247844503,0.2585654323,-0.3542790037,-7.1905381954,-0.5698395449,0.8720945857,-0.2268735746,-0.8140196077,-0.6426047931,0.0515894706,-0.4965271543,0.2110630518,0.9188430484,-10.0400033341,-0.4527992772,-0.1220039873,0.9670569486,-0.1612706691,-12.0258415926,0.0000589215,0.2281207626,0.9942751309,0.235596175,-0.5665637252,0.6686290295,0.3785188409,-0.6078758073,0.5038727264,0.5339189428,0.7515314287,1.1672445904,-0.1628892608,-0.620299321,0.6056629501,-0.3655516257,-0.3094559356,0.4831527229,-0.4374764996,-0.392996329,0.7770336918,-2.5004151222,0.0386695983,0.4283983929,0.3407269301,-1.2032770572,-0.0425424136,0.6843218255,-0.1372690594,0.0174387977,0.3712881115,0.3734412115,-0.8572651698,1.0082737808,0.4929961824,0.0993636716,-0.232617776,0.6744842276,-0.8911521302,-0.6779843728,0.7413896394,-0.4181048231,-0.6214743558,0.3463815279,-3.8673438859,-2.9260820845,1.820090618,0.5726789913,-0.2993155194,-0.4783664031,-0.2888163638,0.6690243584,-1.397921603,0.9722265525,-0.4006449966,-0.7380157628,-1.1498276096,-3.8022778408,1.5437203055,-0.0908162793,-0.0124953364,0.5356146877,0.2070074277,0.784717534,-0.7946672462,-0.6138423016,0.4854436345,-0.5139588889,0.7242135444,0.624625274,-0.9699489665,0.2280178079,0.3763810522,-0.7846338985,-1.0600580598,-0.0809981463,-0.7284044709,-0.1265376961,0.4226598588,0.1155267327,-0.0113949418,3.096165884,-76.1071662292,-0.4740100911,0.8407619114,-29.6765634056,-0.6827330664,-0.3330483417,-0.4643553601,0.0339227893,0.7920712339,-1.0135077036,-0.8220292067,0.5853629657,0.658879839,-3.6171296449,0.1800767649,-0.6006147678,-0.164282095,0.3944082459,-0.9800542974,0.0183691836,0.2467539542,-0.4026035239,-2.5591148348,-0.9399228473,0.4377025698,-0.9134139146,-1.505108553,-1.3217332433,-0.3436258701,-0.5619326857,0.5003285907,-0.0036730751,-0.4398169657,-5.0630281805,0.391743916,0.3737744759,-0.0167443274,-1.0164487503,0.4617716418,0.3110214644,0.5628543402,0.404603077,0.3122990903,-19.1845449114,-0.9369544007,-0.4373342971,0.0017335908,-1.3269220855,28.5438862959,-0.9713150831,-0.4853224221,-0.2127987414,0.0354541271,0.7474471218,-0.4034080143,0.1877134138,0.5330244484,0.7491682294,0.6016434769,0.168223954,0.7182677651,0.8850675067,-0.7408678397,0.6580648948,0.2599694229,-0.3730184662,0.105220438,-0.5386926562,-1.2480744619,0.9025274432,-1.614946945,-8.4134921329,-0.0554150381,-0.1282905389,-3.3508516393,-0.528419385,0.0924102737,0.4247369441,0.2677263889,-0.9203107623,0.1965358709,-0.7676800331,-2.79564356,0.3975971799,0.3453955495,0.4617096308,0.9546513293,0.3086907326,1.0211717797,-0.0499669222,0.0531435765,0.7063834118,0.4912363862,-0.2374612074,0.308891298,-2.0648703834,0.018751017,-0.0890677269,-0.5120177355,0.8919842639,-0.494972054,-0.4236988736,-0.3293189337,3.1653332379,0.2808647979,2.1663582854,0.7860055892,0.1341502523,0.0103562897,0.7523784882,0.6877269285,0.0058749497,0.1967590122,0.5828953194,0.1285649802,0.6994348676,0.9553593685,-0.6521841541,0.892940307,0.2530358671,0.7925307519,0.4334565666,1.6548648132,0.6563563176,0.2377662035,0.4763697698,-0.3191655156,0.33364791,-0.9058956014,-0.5394341477,-0.5960433963,76.1496995429,0.1253612623,-0.8873309606,5.2651323618,0.6162653568,-0.0772513287,-0.4185127073,0.0482549398,-0.6587283209,-0.7884923529,0.3269482568,-1.0103334582,-0.265030543,4.7263200702,-0.0716941362,-0.4940532222,-0.7075523919,0.3945438036,0.6715300574,0.753338607,-0.7269994166,0.098686809,0.2989341549,-0.8599922987,-0.5679631301,-0.7380436154,6.3667033572,0.152612317,-0.4180179233,-0.5994116325,-0.6180262969,0.0827613082,-0.2050995795,3.1875282184,0.9614052912,0.5048619275,0.2278997973,0.4164826022,-0.2590746282,0.1298724391,0.4861027116,-0.0691642358,-2.127491556,2.2001713234,-0.9086736261,0.5558628397,-1.0090319327,-0.007646524,12.2713429894,-0.8792597519,-0.4473164069,-0.7540689899,-0.2213592541,0.9669590815,0.1835264321,0.5509055214,-1.0449360938,0.0017323392,0.8988471291,-0.0335970546,-1.0789993999,-0.5456804449,0.3997294922,-0.7520640146,-0.1535407776,0.7141162849,0.0525996757,-0.2620479157,-0.5406497155,-0.7160915707,1.6430316493,0.8357248012,-0.0617359969,-0.2994268119,-0.9935320056,0.4835378027,0.3733407065,0.4869065877,0.6040052466,0.2903615641,-0.563093387,0.9931597658,-1.1001308107,0.5631027311,-0.6403344863,0.675329476,0.1977216674,0.1448953387,0.8689182856,-0.8244218903,0.5211278354,0.5085453977,-0.6937553928,0.4330298828,0.4331920643,-2.2263537143,0.9336379778,0.6734578854,0.7215262769,-0.6719680484,0.5433288013,-0.6887419727,-0.7133899668,7.3923380648,-0.7049994577,1.1731933382,1.1968057427,0.0130048144,0.9705820619,0.6130070807,0.6397484338,0.3451935851,1.1956645886,0.7118080479,0.3246421851,0.2271993525,-0.6242285187,-1.1329909545,0.7056318423,0.8626065385,-0.2611437287,0.2485627699,0.8007265949,0.9689090843,0.5305358954,0.7434375282,-0.0399020399,-0.3459645521,0.7280844724,0.6594052758,-0.0700047985,75.7265685044,0.231891754,0.8587897257,3.5006344623,-0.5455602948,0.3529637236,0.8925386653,-0.068121953,-0.8497968357,2.2204198132,0.7658202923,-0.3910293297,0.0630621503,4.434385211,-0.3616774889,0.6475654556,-0.9290383781,-0.7583399563,-0.2229747663,-0.1897191798,0.7536545372,-0.795857196,0.0048029884,-0.9089734962,-0.838930721,0.3041830142,8.3899832533,0.4840971048,-0.977105466,-0.1199763596,0.4989379641,0.3881355946,0.8865549107,6.5378308379,-0.4399514082,-0.8673512265,1.1072687715,-0.6697506768,0.1375710887,-0.8516686915,-0.6861217583,-0.0486812105,-1.565341405,9.1922644811,-0.1896559571,0.9470298705,0.2223444731,0.2891339265,20.2490137006,-0.272139546,-0.8951788609,-0.1385560456,0.2946383108,-0.2332522184,0.1551397101,0.4092066601,-0.3910063808,0.2253626148,-0.2477923328,-0.7142770002,0.1023233895,0.2906910692,0.8907262538,-0.2735456349,-0.256637908,0.5102358109,-0.0888894444,-0.2013650063,-0.3674305732,0.3179350134,1.1981481628,0.4805044267,-0.2994593299,-0.8847791806,-2.0891500688,-0.9908962946,-0.095631706,-0.7139933433,-0.0625031457,-0.0494436794,0.7135795118,-0.5344699387,0.8649873646,-0.4714468541,0.0608945726,-0.0561579875,0.5362475433,-0.6904328522,0.3940694951,-0.2321537365,0.0407496262,0.708562234,0.89651655,-1.7850223942,-1.1160556018,1.4885887124,-0.9181282504,-0.9969958364,-0.9478413973,-0.6916357104,-0.9349188157,-0.8857080628,0.8781537674,-2.0674628334,1.0016349025,-2.9352033345,-9.5637345095,-0.3441246075,-0.6173036035,0.4131835295,0.2876349252,0.5853949208,-1.1433094368,-0.9639519179,-0.7910665648,-0.1937137651,-0.2804812931,1.3573337787,-0.4259125368,0.3924397269,-0.4812846917,-0.8585544426,-1.1948218767,0.9026108811,0.7928967122,-0.9122077971,-0.6233289164,-0.5001801974,0.407652551,-0.0318218117,-0.4309951766,-77.0607098228,0.0883472434,0.8079698367,-5.2624999756,-0.5193271385,-1.0407466875,0.9051836066,-0.0662540048,-0.4277982462,-0.0591521854,-0.5339443681,1.3206708353,-0.3960542807,-3.2287630758,0.0909390163,-0.2115037692,0.6578313309,0.7756502328,-0.1288285473,0.1530651698,0.5136964051,-0.7975917494,0.3110587715,0.1873137025,-0.7091796889,-0.185444433,-3.8476392052,-0.1781918213,-0.7328988952,-0.5814283067,-0.7274029265,-0.84413262,-0.5050854816,-18.1220799752,-0.0831422611,0.636087675,-0.2931365882,-0.4608100469,-0.2910789385,-1.0076582591,0.6245398733,-0.7284600491,0.2096370613,-8.9744790973,0.24424962,-0.4131375457,1.0856637587,-0.0359624463,-8.339537918,0.8782929842,0.3585241763,-0.9198852136,-0.0535485834,-0.4093058049,-0.5321634793,-0.3909601497,0.271563876,-0.4276542256,0.5589930942,0.5676316477,-0.5614203259,-0.2125624097,-0.1075329216,-0.9106275258,-0.1020772543,-0.4486315369,0.22674795,0.1985799442,0.8018241144,-0.6824272707,-1.5457393509,-0.3653156813,-1.8787809535,0.0603149161,-7.836297159,0.7618915304,-0.0074320462,0.8955122728,-0.5971646071,-0.464677746,0.6338848241,-0.5271974059,-0.1658481229,0.1870329433,-0.2586257991,-0.6844455017,0.9057265524,-0.515473236,0.5540386882,0.8369246562,0.1231766855,0.7361807597,0.8897652821,-0.2199862366,-0.6869565254,-0.9487481733,0.0692625376,-0.3738249159,0.1943829152,-0.0329150984,0.2891324311,-0.6983495958,0.9952258753,2.3703433112,-0.580962469,0.8129515971,1.929543508,-1.1946817946,0.5446543923,-0.8191661593,0.4689475071,-0.3543232405,0.4956821675,0.5689170121,-0.4668929197,-0.8238341347,-0.4139917555,-0.1262369204,-0.9721521348,0.2023502333,-0.8776928934,-0.1205199948,2.090556459,0.364330918,-0.0960362314,0.3252176216,-0.2314517876,-0.9074630442,0.0117814505,-0.7350273263,-1.5817023798,75.981916312,0.7079565546,0.2108630318,2.0491050167,1.0591020181,0.2822868072,-0.2067683226,0.264053962,0.4759724135,-0.3127451462,-0.0266240633,-1.3278206852,-0.7648017656,3.543087383,-0.2351337484,-0.9750162809,0.7359034446,-0.0724736236,0.4377843974,-0.9612565171,-0.6314489741,-0.5682195395,-0.1946833022,0.8149309769,-0.2412658217,0.8563072628,8.5574274792,-0.8306603319,-0.8434106143,0.0640903401,-0.3705860349,-0.875317646,0.7764619579,18.2950900149,0.840982302,0.7506689568,0.5997228459,0.4215504406,-0.1056338464,-0.7104184186,-0.1386828059,-0.5110103462,-1.8923053953,8.8396747007,0.4640859258,0.2849491235,-0.4714565502,-0.5196186535,-2.3897837334,-1.0283194296,-1.0529690921,0.3702674747,0.7583696047,-0.2695549792,-0.7088971128,-0.5643070803,0.7618120583,-0.9416480133,0.7763801498,0.1226104609,-1.0774677316,0.2435114229,-0.4931744068,-0.0612638952,0.0085002535,-0.0322758069,-0.7806826733,0.4708191136,0.0721328456,-0.7634561766,2.2802993353,-0.3301348393,0.975295987,-0.6936683983,-0.4411964581,0.4264842901,-0.2400426864,0.3710904741,-0.536807397,-0.8288197358,-0.1807882019,-0.7655716994,-1.1891532293,-1.4462637136,-0.2110818975,-0.6827556604,-0.4659642873,-0.5478564185,-0.2989816476,-0.6054175433,-1.1868645539,-0.8412590586,-0.756472407,-9.6533312082,-3.4055987533,11.9473633282,0.1133848397,-0.4893794998,-0.1786531575,-0.6592050835,-15.6395231499,-31.2681852881,-0.5149466094,-37.8424716192,-0.1526204911,0.4990973349,-14.5226425863,14.2138848083,-1.227631,0.1572723379,3.7939501758,0.0020567866,0.7764014091,0.5470283124,-2.1454588597,-1.2848332644,0.6953342063,1.1522050938,-1.1888712347,-1.7191889921,-0.7122663026,-0.5715725644,15.0969844029,-1.7191642997,4.1537247359,-9.7409843269,-0.6907482168,-1.371524863,-1.3489622947,-1.5192043171,2.0545929509,-88.6641603426,-3.8400598761,0.1424459551,14.563394081,0.4585062559,-39.9638303119,2.1086855877,-2.2486530306,0.3471424101,34.7831854808,-7.8245342935,2.0451736472,-0.6934010983,-96.7097330183,0.5483353057,-1.0940553818,0.70903268,-1.9490091466,3.7185573083,-0.9962347791,-0.7164396752,0.4718409022,-1.2727180727,0.217759139,4.3830375469,-2.1316953625,-6.6992293176,0.0675166113,-2.1788837716,-2.8852809621,-0.040710703,-1.4840654441,-0.4950491787,-486.0058232444,-0.5424033655,-1.491526159,-3.5439218527,-2.622988928,-0.9346467575,-3.2149204709,0.0819243512,-0.4155343668,-0.2776001723,150.4013584292,-2.2226846798,-40.8782812179,-0.3749377916,-0.7577012015,-8.8748220288,-4.7905691557,-0.7212526766,-1.1185925596,1.4597560415,-1.4936850745,-0.0536081685,-2.9176873712,2.2221187483,83.9037669153,-0.1374942236,-0.9163008474,-2.2373637793,-1.2513045132,-1.4983382076,-0.0986493185,-0.1821404136,-0.2379799917,-1.1956378224,-1.5571888401,0.4781016825,-0.12738388,-1.0807280681,-5.9136291652,-7.2089875939,-0.3475385963,-95.9040411744,0.8902145772,0.1266043413,-2.1633332187,-0.2888460849,0.5872132575,-0.7715990509,0.3248569128,0.7919145375,0.6414403047,0.2111390516,-0.294117883,0.0757291969,0.0339225456,0.1769101826,-0.5986402898,0.0663932447,0.547237907,0.433126438,0.5219917867,0.1612051994,1.6545169935,-0.0134322122,0.4377436282,0.3420665944,-0.2609835289,-0.0104940195,0.0600440194,-0.9004213871,-2.1268832341,0.3448715164,-0.4089249046,-0.4465128865,1.3999332182,0.7641888087,-0.2822221889,0.7296612646,0.5411788399,-0.9321354293,-0.563637086,-0.2363684566,-0.4284652788,-0.4644258762,-0.2231595453,-0.9660959817,-0.9257356945,0.6565798974,-0.2952847736,-0.920757329,0.1996204215,0.2983869169,-0.4148008611,0.1764380125,-0.0290355102,-0.9705507415,-0.3089992873,1.0316130262,-76.4182034941,-0.05739953,-0.8103223909,-2.1451990105,-0.4636603122,0.1089697433,1.0069793947,0.5826731929,0.8997037866,0.2722145297,-0.4799561561,1.3020113607,-0.4630288875,-3.680274855,0.5967073366,0.7369209593,0.8400443314,0.6747036565,0.2433338927,0.5218267795,-0.0684108585,0.2933728202,0.2948869933,-0.9494456063,1.0112578616,-0.4960731337,-7.9061348776,-0.5221361573,-0.1198110499,0.2143936361,0.7914483507,0.375148633,-0.8058882477,-17.3479697903,0.1588513054,0.3287042105,-0.2334687945,-0.6949812266,-0.922099041,0.953447392,-0.1445801217,0.9630340864,1.4035977037,-9.778385882,0.0644967657,0.7405059275,-0.7055869921,-0.4726070126,-10.660978456,-0.5349258029,-0.181125343,-0.5264643669,-0.7685771849,-0.5119534773,-1.0290395373,-0.1507525846,-0.2850062085,0.1622469177,0.2145664598,0.3748806736,1.0698318588,-0.672940971,-0.3068522419,-0.2205283619,-0.5448547817,-0.910319678,0.998032451,-0.6692042307,-1.3761186985,-0.2582017879,-2.5251786015,0.3091126108,0.4858646051,-0.539711783,-0.0566176127,0.112056308,-0.8688328409,-0.9875190844,0.5632927754,0.8479208113,-0.6225405064,-0.9041067191,0.4186921271,0.8948478637,0.4513479892,-0.0007771755,0.001799564,0.1483066663,0.6046886207,-0.3180284309,-0.5266913466,-0.0370696994,-0.7018116083,-1.1200253135,-0.1323208247,0.4086719861,-0.4864345311,0.1991023759,0.1968436556,-0.4932549272,0.351039296,-0.0669374989,-0.3757064386,-0.3912923165,-0.1587733927,-1.7012858728,-3.9062079567,-0.5662151572,-0.6070800105,-0.8711951412,-0.5485879945,-0.290949925,-0.9633958272,-1.6221346572,0.449256168,-0.5281710296,0.8945431054,-0.2092265898,0.1861962475,0.937225822,0.4735541795,0.6363463578,-1.6482905182,-0.6664708102,-0.4262847684,-1.0290853808,0.9880275644,-0.5614935385,-0.718546467,0.6975609676,0.8554925252,-76.1297851967,0.8659799023,-0.2335752227,-1.2531384559,0.7517848534,-0.932525177,0.0501443927,0.2432226378,0.1487594367,-0.3143121966,-0.7978071399,0.3231343603,-0.429747483,-0.8006783021,-0.7612447674,0.8138102731,0.6919055709,0.7836305435,1.0765242797,0.6258168364,-0.6503247721,0.1236507216,-0.5757251058,0.3821075247,0.9887096323,-0.301633687,-3.8412197012,0.7874691536,-0.7435910113,-0.4190026405,-0.5456250744,-0.3920789709,0.6345552608,-16.9969730348,-0.6381449851,-0.7642440176,-0.253282555,-1.0735580447,-0.260213301,-0.550005403,-0.1556679646,0.3953844382,0.2881020178,-27.0229298318,0.6684227883,-0.3926494536,1.0251109568,0.1308950881,-12.8050694113,1.0595942134,0.5934174327,-0.5536941064,-0.3192969038,-0.5607598595,-0.0471890012,0.4170052556,0.0104958883,-0.4272047493,0.7178298003,-0.1728967811,0.1585225479,-0.5670737593,0.4304697545,0.2402959937,-0.2618277299,-1.0951117587,-0.7506174505,-0.0674449014,-0.0558173372,-0.5427289369,-1.1516328296,0.7884071283,0.0392222582,0.3085847369,-0.5111222741,0.3601862533,0.8667277219,0.800762935,-0.5982649635,-0.0014862694,-0.442688628,-0.5953105846,-0.5026661833,-0.9566402395,0.9270350549,0.9273161576,0.2854307221,0.3299775505,0.5788219963,0.4815272059,0.348354025,0.3525258166,0.6832137858,0.0984020956,0.1153475866,-1.4034557257,0.1369148674,0.3066825573,0.5160088773,0.5100231713,0.2626026159,-0.1964021612,-0.9415068618,0.0826199826,0.8333249666,1.17544921,3.584870408,-0.9721367355,-0.0275506396,-0.3653007532,-0.4222656749,0.5038320604,-0.8592882929,1.7907603513,0.9171011587,-0.7182450354,0.7675518853,-0.8524735652,-0.5690167688,-0.1083684469,-0.966405728,0.1046388597,0.4448213728,-0.417316891,-0.8885269644,0.3208195541,-0.7997431055,-0.2277520535,-0.2398961692,0.533659882,-0.7674613594,77.2762778545,-0.8662182306,-0.4976044542,1.2328872157,0.9758667203,-0.1817061779,-0.5205460991,-0.2420131351,-0.8781647517,0.4917666489,0.1070840757,1.4716140883,0.2334351584,3.4498303364,-0.8188099814,0.0257430263,0.4988282776,-0.5594035869,-0.9660237554,0.076730775,-0.0958802892,-0.7334529092,0.8219103768,-0.3731404559,0.663992718,-0.2781465843,7.0387542859,0.0615478689,0.410777352,-0.0674471626,0.8232459559,0.9058622609,0.1722509987,7.6909706663,-0.856457448,-0.0126177196,0.9911829908,-0.0522608543,0.7555716931,0.4614533353,-0.4324317503,0.6674341706,0.9117495462,25.627119031,0.3609875947,0.1638407361,-1.0722564472,0.794309185,-1.9548510846,0.9095044981,0.7774359942,-0.8956415821,-0.3631539756,-0.8561106969,-0.275169479,0.4335518865,-0.5823764214,-1.5042582743,0.3292183701,0.9317079285,-1.1751687533,0.7046145612,-0.8479026992,0.9430359341,0.1236766635,-0.525422899,1.0368817143,0.7757731981,-0.291163193,0.3861653527,1.5358730873,-0.0866053464,-0.5965046246,-0.2212481673,0.1216117672,-0.5416080951,0.4397522439,-0.1423631279,-0.5768481471,0.5839776278,-0.0875698504,0.744105334,-0.9153450627,-0.7024286013,0.1080201334,0.939567177,-0.856996158,-0.8631577642,0.9860349885,0.0874102242,-0.3652701243,0.5676716677,-0.1261139416,1.0800070207,0.8131243785,-0.6626907273,0.2479644199,-0.0077305432,0.8145706864,0.1540453895,-0.7010698678,-0.6624904359,0.1507755879,-0.5969467396,-0.2971336912,0.4119972506,0.8037325442,0.4181580438,-0.8688843554,-0.7525826075,-0.3561818117,-0.3543373768,-0.0960512102,2.076793006,0.0911452855,-0.0759499086,-0.706855928,0.5526504804,0.036349351,0.2480271372,0.7454039203,-0.7051243822,1.2043019357,0.8307024258,0.1948911567,0.4265157821,-0.200020198,-0.2083383999,0.5297429662,0.365332229,-1.4481485158,77.0965989423,-0.3823666419,-0.5575532342,4.0247106669,0.8618385182,-0.8002703237,-0.5598286875,-0.270627667,0.3957095298,-0.528749149,0.1136239045,-1.795383302,-0.1526245466,2.9400113673,0.1904162659,0.5949420157,-0.6944044258,0.8913382727,0.0467117104,-0.7963238217,-0.9241175746,0.7536127784,0.3585112306,-0.9957649664,0.3137522669,-0.7535366049,8.9988311234,0.9867003974,-0.410121955,0.1137474468,0.4571719727,0.0620045255,0.7898398111
   2.5425776957,0.029093686,0.609619522,1.3585253111,-0.0936345495,0.6271980391,-0.4593577905,0.0690257021,1.05631562,-0.3684228841,2.6840612288,0.4729587594,0.7517693937,-1.0761943649,0.2695695185,-57.2272225775,-0.6328526143,-0.1427085816,-0.4755526444,-0.4843338032,0.5314053311,-0.6934156824,-0.1478116898,0.0186414129,0.4092071104,-0.9484617838,-0.6634158956,0.6378551345,0.0048270659,0.5523299678,0.0529667153,-0.8940505222,0.0313647815,0.1657013774,-0.7093518006,1.9374934348,0.4424312168,2.5482799475,0.692834242,-0.2357709837,-0.1913142926,5.1779253352,-0.9435206296,0.6752504097,0.5316191491,0.1162417941,-0.7158296757,-0.5440379656,0.1312467808,-0.203639619,0.9124125144,0.832042953,-0.8242063015,-0.3755706658,-0.0844964505,0.9064138943,-0.1701100254,0.9310293502,-0.0353269624,0.5974550358,-3.0597791393,-0.1493706361,3.2683939561,0.640400533,0.2949676817,-0.0481048974,0.9390235967,0.6819659583,0.5810329864,0.5316183329,-2.9442392765,0.19120304,-1.0386122965,-0.551338275,0.740850292,0.1357118964,0.263611919,0.4385531487,-0.5144011759,0.4085474087,-0.3982700226,0.582726523,-0.4368668178,-0.1067552994,0.0941683791,-0.5083103773,0.5261984775,0.2926334789,-0.5674401895,-1.9100773848,-0.2719308772,-0.5047726735,0.8660931436,0.67315569,0.5014796533,0.1812093189,-0.9352547671,-0.5300954777,-76.9004455209,-0.9560333931,0.6881731543,-2.5171218732,0.6992131437,0.2206631213,0.2198559745,0.6743670268,-0.5768842988,-1.0704938268,0.4777435814,1.5811274782,-0.6414832348,-7.164648874,0.2676604033,-0.6220669136,-0.1627949595,0.1570617975,0.3739489034,-0.2136206864,0.357211409,-0.3551192494,0.4565985467,-0.0744425704,0.5686553414,-0.7782654298,-7.9807074409,-0.3847894848,0.1930937861,-0.7072385465,-0.5217787483,0.8064482981,0.7664723859,-7.6944104928,-0.9025937841,-0.1646549771,-0.5002473604,0.7662228889,-1.0815733835,0.3187868634,-0.0839564587,-0.1940006721,2.0114130416,-6.7837563907,0.4464892547,-0.8765418025,0.6280712046,0.0232539557,-7.5478505361,0.1759780004,0.6572685208,-0.4630750951,-0.4219556018,-0.5321478988,-0.9318214174,-0.5253539064,-0.9330428867,0.4639061738,-0.6310536657,-0.3904006409,-0.4581641268,-0.1260829253,0.4228549085,-0.5275460004,-0.8015883719,-1.0705561016,0.792837302,-0.0914702394,-1.1400336576,-0.5120928149,-2.9331389356,-2.0250230381,-0.372420071,-0.0529373496,-3.6113712322,-0.439105986,-0.3754490124,0.05044669,-0.5903294156,-0.658189751,0.1930273307,-0.1125980551,-0.3920278987,-0.6057551582,0.4115889834,0.5114911991,0.6961348311,0.199229311,-1.0276775426,0.9177305247,-0.0942693153,-0.2378304562,-0.1372379677,-1.7443526555,-3.6365794844,1.8179030982,0.7249630408,-0.633646726,-0.4715430944,-0.208052743,0.5948919589,0.1355558178,0.2058802826,-19.3022525181,0.9040575083,-0.5979822881,-2.1849726683,0.9359426352,0.1107610199,-0.413289194,-0.5074193292,-0.8436464301,0.9781406997,-1.4221354436,-0.036899406,0.0351566914,-0.4273591402,-0.2191290938,0.4785734178,0.2593073381,0.4756466939,0.4907799355,-2.2324975555,0.7202447611,-0.2710601661,0.7421698216,0.8346071344,0.499707015,0.3370517213,-0.7472698007,0.2029216997,-183.3168093553,0.4646387874,-0.324327841,-3.1312440154,-0.7794381183,-1.0162754073,0.4207761874,-1.095689362,0.7156088389,0.683460583,0.7155634032,0.3991591392,0.5954394861,-5.8229783497,0.0966005685,-0.0887591588,0.7299396878,-0.8162503518,0.8146200722,-0.8513440077,0.8444115468,0.0788289284,-2.9914437086,0.5431493294,-0.6782200583,0.5533366386,-2.7140516964,-1.032255223,-0.0116290868,-0.1248761608,0.6002477954,-0.125557805,-0.283566072,-17.8778177017,-0.0788273743,0.3656248002,-1.0742813426,-0.8799893531,0.8823462611,0.3702189051,-0.3829075075,-0.1631060542,1.1226066862,-19.3362245681,0.2271431581,-0.7612981048,-0.1080815003,-0.7040238754,7.4612580131,-0.1406264415,0.1653862883,0.673750117,-0.8562804947,0.442097602,0.5924066984,-0.6169700653,0.976424641,-0.3395727704,-0.3789979913,0.3725704855,0.5019510273,-0.7506457118,0.0516500482,0.5700971215,-0.6719754705,-0.9500588819,0.5800295651,-0.9248927804,0.1280230842,-0.463273513,-1.4135750814,-0.3175565194,-0.7770689479,0.0384471072,-4.7608617306,0.8298975879,0.2698282256,-0.9509467122,-0.1959344722,-0.2119295075,-1.0712184641,0.3572336508,-0.3862401223,0.4530846391,-0.3282624097,-0.9012856653,-0.9162627449,0.3831494251,0.2100074643,-0.1263909129,0.8544986489,-0.7508000723,-1.0088064438,0.2039152332,0.8216444018,-1.9302666178,0.0010511418,0.0493361206,-0.1763624114,-0.5659673419,-0.7841662047,1.0779285169,0.6871685707,0.0340711253,-0.1131476471,2.1999172229,4.173838434,-0.421409854,-0.9660171701,-0.0360455055,-0.1158022635,-0.9001052861,-0.6755846766,1.7749177333,-0.1800559306,0.5371697662,-0.0970563849,-0.0834859921,0.1408305006,-0.4655140856,0.5356008186,0.4607879581,1.265806151,0.8750514873,0.9751411359,0.3166853642,-0.0155409353,0.8625431907,0.3908624939,-0.5467620867,0.0587516264,75.729875335,-0.1638417134,0.0498348352,2.4496541164,0.7493340638,-0.1558354867,-0.2428729303,-0.8330586381,-0.4232158129,-0.2964785443,0.4821863106,-1.7032768769,-0.3297282745,6.2505519486,-0.5593601852,0.406198653,0.998658989,0.2338728732,0.1930234395,0.258522451,-0.8213904064,0.8798932258,0.2209064396,-1.0096597757,-0.7263156119,-0.3493574688,1.1933227857,0.3927238324,-0.6708761906,0.7799467964,0.1171723031,-0.8064789496,-0.6722809247,8.3236809295,-0.6414444487,-0.1024800188,1.3167809646,-0.9363109783,-0.0687707378,0.545993678,-0.1787016316,2.3361163696,-1.4190455088,8.5784182749,-0.1680276687,1.2433572821,-0.308005305,-1.0199584291,54.2188730429,-0.0636400413,-0.0078589926,-0.8729145257,0.0410314863,-0.4264521394,-0.0453414897,-0.2161235639,0.8246264582,-0.8211339267,0.8670499816,-0.2407462541,-0.2586301834,-0.3864911316,0.9006056376,-0.1876044939,0.7328482774,-0.7797802645,-0.573879142,0.5128854041,-0.1908416225,0.1271182241,1.1356143982,0.6557244047,0.6935706332,0.0749122145,18.35617961,-0.4792041028,-0.8062363468,0.0681883467,-0.5628518261,0.9445018668,-0.9674197609,-1.0062708872,0.5499434362,-0.7946023732,0.7266712874,0.5219580775,0.188678941,-0.8601220953,-1.2074243543,-0.5726933852,-0.7258162515,-0.1508640089,0.2724953244,0.0221542654,-3.256562151,0.5802201907,-0.522226444,0.5414650791,0.769150643,-0.1484523037,0.0311351383,-0.9160844055,0.8576622906,-1.2071291295,-0.8124459898,-0.4913749362,-1.2467839367,1.2955443498,0.4675821835,-0.2387514761,1.3023947026,-1.0945344734,-0.9458732059,-0.7227250469,-0.8126580077,0.5089842742,0.3954466451,0.6326103257,0.0054309935,0.7351871604,-1.0270490301,-0.0541634038,-3.6460182478,0.3328304299,-0.2796258618,-0.8233999772,-0.8910986773,-0.4038494699,0.3385129078,0.2866786147,-0.2798328704,-1.3672157399,-0.7042599215,0.1910637743,-5.7682052119,-0.2478843587,-0.5959823844,-0.857265231,0.2874799772,0.1196621351,0.5442703534,-0.1911130854,0.4193946224,-0.3258906231,-8.1135271252,-0.1215962759,-0.6110328298,-0.4971720711,-0.9219738541,-0.0286793226,0.4498871951,0.3474834227,0.0506949348,-3.7079964878,-0.8359549388,1.0665325727,0.4352398374,-0.5795111019,0.1522733682,-0.5914938964,-0.0239553476,0.1214259833,0.1576017656,-0.4111594847,-19.1106869661,-0.7089604256,0.0997738988,-0.7111842276,0.6618989921,-0.8548537112,0.3980010348,0.8881406127,0.1915657418,1.4218880914,-11.4194476658,0.144651051,-1.0339764989,-0.7329461088,0.5656636028,3.4235587537,-0.3698886806,-1.0408275055,-0.4013066916,-1.1646019352,0.3023997017,-0.1508937593,-0.8415616555,0.2109091023,0.6192421539,-0.0246083362,0.575994726,1.2410147672,0.2585686031,0.6644292319,-0.5807232384,-0.1207622294,-0.4723554038,-0.1437397377,0.0190473002,-0.4572639709,-0.3907000152,-2.2558639685,-0.435513548,-1.8583274453,0.4378639634,-0.6571075172,0.7403391162,-0.8498545757,-1.0082301063,0.722342502,-0.9811843305,-0.8121456975,-0.0448483358,0.2435976296,-0.8945833986,-0.288584866,0.6650706392,0.0975772728,-0.2566452938,-0.0193983414,-0.1093063477,0.8494989694,0.2418158367,0.7960842675,0.6826195274,0.3846465176,-0.7540371612,0.7416653897,0.2510882685,0.2298096735,-0.9376825981,0.9884455093,-0.7122896648,0.2180331821,6.8703854174,-0.924483975,1.7260893032,0.7594866775,-0.3188661438,0.8158967561,0.3423790329,-0.7170587584,0.2560343017,0.8998585212,2.0143106775,0.5940118099,-0.6027570776,-0.5994389364,-1.0418338913,0.6580008471,-0.9788802648,-0.0048958097,-0.9723274233,0.6367935366,-0.7918237747,-0.5358730628,-0.4721738779,0.548770575,0.8746154266,-0.5603218729,-0.6880367363,-1.0667236264,76.0466792998,-0.3945058092,0.0685438886,2.0341300935,-0.4676347236,0.5826474845,-0.1149635221,0.9567382769,-0.2415171154,0.4613672879,-0.3118034906,-2.3301172931,-0.3127825663,4.415555471,-0.5967138413,0.3695370267,-0.9244149392,0.596429856,-0.2244100018,0.5849014595,0.5841622345,0.058490185,0.1716795927,0.0852769963,0.6538453172,0.7212100919,8.2157104128,-0.5271883815,0.185900748,-0.9927561551,-0.0149011052,-0.7845795727,0.0544478803,2.5854915268,-0.0368340682,-0.900081063,0.7803452316,0.1282262128,0.5100902008,0.2611132977,-0.4585389004,0.8288938273,-0.2778992844,9.6467538637,0.0046018087,-0.5493847621,0.4876977594,0.8809100505,11.7961766897,0.0906063758,-0.0716223844,-0.0775498157,0.2401191279,0.876988387,-0.6513097684,-0.1346891313,-0.9697774654,0.4408649645,0.4436422357,-0.6841018672,-0.3086229681,0.2249044505,0.6798215964,0.3148264503,-0.5161676983,-0.0878185667,0.2308257729,0.4849414636,0.7454829933,0.7572627201,0.926483781,-0.919376971,0.8247953444,0.7485974102,0.8524070326,-0.7874496348,-0.7316280956,-0.6553526167,-0.576522705,0.5886862018,-0.8040372128,0.3536286175,-1.2672818866,0.2276440924,0.3119121258,0.7100510617,-0.8001218212,0.7732954611,-0.3993292384,-0.6939810664,-0.0196017559,0.7036785739,0.6999981069,-0.9358585922,-0.3864369283,-0.6518060137,0.2007809379,-0.5536921038,-0.2143825922,0.241414474,-0.0114114019,-0.5774847463,-0.0599590072,3.4452671252,-0.4980342316,1.270497435,2.7678573015,-28.3330927646,-0.9178947223,0.6072103349,-0.7728448212,-0.2563728738,-0.0000338574,0.5860507431,-0.4646972974,-0.4966402316,0.6046984097,-0.8023306253,-0.4137669944,-0.7683496417,0.1304335816,0.7026711631,3.8713120499,-0.8741077689,-0.4121208563,1.0550813346,0.0281962524,0.9819042583,-0.6858665968,-0.4975406436,-0.8174735622,77.0980581564,0.8031270048,0.9958983818,4.8707582927,0.6931865869,-0.4195257597,0.5630411974,-0.0454299572,0.8205905023,0.831779504,-0.2729225647,-1.3971765501,0.0253613279,1.3359263747,-0.0936524975,0.2531656874,-0.8575672354,0.6823218027,-0.8091963342,0.6867989554,-0.3352869076,0.3890971625,0.2432707251,-0.6799479499,-1.1716940893,-0.0487899649,9.4351642789,1.0959120182,0.1576582625,-0.2095336214,0.8984541835,-0.6931275973,0.5753803149,6.718084671,0.1962260084,-0.3108909831,-0.1522229107,-0.9207896855,-0.137589076,-0.8532664739,0.2564309033,0.959301327,-1.1903432721,9.2046602769,-0.4315320666,-0.1980225637,-0.5229426102,0.0090985936,-59.9145308143,-0.3581269197,-0.0630937271,-0.1297367074,0.6802214447,-0.3518715422,-0.0735946037,0.3693512878,-0.4381952187,-1.666063825,-0.6840575315,0.3858220147,-0.5425744364,0.1903854856,-0.368450457,0.041815116,-0.0748361309,0.1562461105,-0.0788354747,-0.470304566,0.896322199,0.676131896,2.8173425023,-0.6234187322,-0.4179854839,0.6494542514,1.5794980973,0.8603499082,0.1486590072,-0.0749035101,-0.8215445521,-0.0774663668,0.6684977139,-0.9559414034,0.4410370466,-0.3677462622,-0.0864017381,-0.067848672,0.6733695865,0.8690559968,-0.5493324034,-0.0639811543,-0.8603262282,-0.6440765927,0.8331747757,3.4038391797,0.6910080378,-0.7299840421,0.2896798619,-0.9792887072,-0.3995422718,0.1710534616,0.0836378948,-0.4623522911,-0.7169971382,1.5478682255,0.6573995092,1.3246085261,1.3217181787,-0.7108060269,0.5668693527,0.3139993618,-0.7765197764,-0.7039869683,0.7684715613,1.4603781465,-0.6328209839,-0.477283436,0.2764167314,0.2990741504,-0.7269131549,0.0963663055,0.4547693564,-0.9734049676,1.0156631226,0.2962848681,0.5990519186,0.3838150105,-0.756078979,-0.5055762211,-0.8894829439,0.7007274279,1.0448833875,76.8826235892,-0.7952687146,-0.2750916795,1.3576221945,0.5374189059,-0.2490872931,0.8424404953,-0.9761301287,0.0054888757,-0.2016637554,-0.2840181566,-1.0191269166,-0.9025109734,1.3043846969,0.9542488851,-0.8963150278,0.4122241373,0.6271859482,-0.5515113059,-0.8468674629,0.9579252185,-0.3915599976,0.0784007126,0.9369534935,0.5530620469,0.3554202069,8.9396525987,0.1495343841,0.4202503178,0.4312888553,-0.3655544371,0.3695399668,0.1719324115,17.6987621863,-0.1417348677,-0.7961021578,1.2620446841,0.1037064132,-0.5617166708,0.7142367712,0.8414128632,-0.8488973727,-0.7332131911,8.7067302818,-0.2724117266,0.1219147209,-1.0615222368,0.4255331988,8.7758365673,-0.4406068533,0.4657138815,0.4945118527,1.5319068393,0.0929818375,0.8879815089,0.8325797814,-0.5079494285,-0.8795282158,-0.9412281604,-0.1786299207,0.2085851361,0.1570631351,0.5205704313,0.8763700492,-0.5151516164,0.4249353949,0.5385457202,0.88822198,2.0396816038,-0.0618769927,3.1856026314,-0.2185376319,-0.0635444767,0.6339810528,2.4832599993,-0.0508337391,0.3788668743,0.0385295352,-0.2312998722,0.1702108918,0.8318221212,-0.5582383063,-1.5320301731,-0.4527074374,-0.7546331349,-0.8306487044,-0.5899380006,0.2278457793,0.536774966,0.4773229835,0.3561637305,0.2100518898,0.2835537754,0.3548816667,0.2171097526,-0.2791253303,-0.0445961914,0.1680051336,-0.5474900434,0.3675133914,0.1155418815,0.2595685119,-0.4624821479,7.0619065692,0.2023556152,0.9010929585,1.4060323975,-0.0761183153,0.7066902265,0.1578356546,-0.0275443972,-0.9616958943,0.1792109717,0.9502095434,0.1365449925,-0.9242823634,0.2030236946,-0.7990573629,0.3970043602,0.4836376828,-0.1572524622,-0.6921647335,2.1117515683,-0.2539523952,0.9818499761,-0.5722762212,0.9500944696,0.3087289952,-0.2342339767,-0.047163379,-1.1855135249,77.0035507601,-0.9211694085,-0.8751688649,1.0605486193,-0.0835915187,0.2686804783,-0.1343965464,-0.1093501703,0.5720485827,1.2723066079,0.3724590925,-1.0798634979,0.5329642739,4.5956067133,-0.7873826322,0.3856188092,-0.2854182824,0.8845566578,-0.3839567339,-0.1231544267,0.2572237753,-0.0580852543,0.8022590072,-0.3190789985,0.3423357539,0.2434642261,9.1860997972,-0.6323519629,-0.2681598892,0.6691855245,0.071793162,0.7326485655,0.1939016056,6.8472742353,-0.2796601261,-0.1763723049,0.1065223853,-0.4222962791,-0.9926030194,0.8716585937,0.4892573819,1.2742815621,-1.2663145793,8.9724403106,-0.1312497265,-0.6623277482,0.6117590701,-0.7929146602,36.293844197,-0.0881245028,0.5823288193,0.2856101139,0.217975276,-0.0587860276,0.0809836519,0.8741793245,-0.6377902792,-0.4627859363,-0.5611332375,0.923861454,0.3694625898,0.4549207869,-0.3506239206,0.2441555407,0.2480705861,0.9616459903,0.9439472247,-0.9654443246,0.3263944597,-0.3705877212,0.6141095364,1.0280557966,1.2895171949,0.7995459737,1.5783140936,-0.6877995588,0.8529631448,-0.0112151702,0.3941784009,0.4009857914,0.9130703277,-0.5246493321,-0.1584840288,-0.9084463886,0.396987172,-0.9480178024,-0.8439248074,-0.827053297,0.2608791158,0.300788602,-0.3510193483,0.9202331917,0.4768267828,-0.8621694882,0.6225783039,1.1917545618,-0.6886919241,0.611277911,0.9099425136,0.1097237051,-0.5594491064,0.7818524518,-0.7379500791,-17.8891000319,0.2745673799,-1.8469703411,-1.1219797279,0.362037204,0.916397984,-0.165252044,-0.0630367324,0.0627948383,0.0410475392,-1.1269366943,0.4919947424,0.2955171938,0.3463830004,0.7599350345,-0.7555352255,-0.4923715272,-0.9359647799,0.4242894993,-1.3699216275,-0.8382892911,-0.3485859997,-1.1100352015,0.9725246837,-0.8534314242,-0.7503630777,-0.2471535551,-1.1319738741,-75.8120124986,-0.076057648,-0.8986009631,-1.7025224922,-0.0216107982,-0.9756553744,-0.2710266047,-0.2716472024,0.9290303495,-1.044763795,0.5145709504,1.274241849,0.2216663171,-5.9675561887,-0.5593672061,-0.3587855864,0.1438152433,-0.2069728085,-0.8351618222,0.8875040325,0.7608987158,-0.4943312966,0.6486215525,-0.1784640103,-0.4080619934,-0.8314130013,-6.8606476066,0.351867741,0.0058679099,-0.1190674252,0.9597884556,0.1159236459,0.5604707917,-17.4518946707,-0.4876461654,0.7097552774,0.4046857786,-0.9698323722,0.7575415151,0.121654706,0.5533431988,0.1753441481,0.5046613497,-10.1482971082,-0.0311890981,-0.2516598276,0.4686871666,0.231776247,-7.7038821422,0.7688250889,-0.0860342312,-0.8568321468,-0.9249295009,0.988414925,-0.21329507,0.6837003436,-0.0141660304,0.6722232213,-0.9156967203,-0.1703645395,-0.0985601654,-0.5492427135,0.2035599123,-0.0692814277,0.2998007424,0.8364425087,-0.6271755047,-0.4775781723,0.1635834559,0.9482614051,-1.9759102252,-0.4615947147,-0.8529294371,-0.8484325643,0.9496461516,0.7460823163,-0.6005060302,-0.8734407539,1.0701661087,-0.5321241101,0.3216625064,-0.7556570725,-0.1235552483,-0.3761173887,-0.9604107315,-0.6848821558,-0.4525898446,0.4574546764,0.6711242853,0.9080899664,-0.6681264368,0.4041739971,0.1042391181,1.736650007,0.1591565944,-1.8707549121,0.0369298946,-0.7174202598,0.3729138358,0.542643773,0.3049362856,-0.8352272121,-0.345431385,2.2467337065,-0.2115449967,2.3310916289,1.2279703762,-0.2058663998,0.8628638897,-0.2494638239,-1.0003345223,-0.3431392979,0.7306360334,2.0262573976,-0.6915817623,-0.982559479,-0.6695918927,-0.0560994319,-0.7057914528,0.3210389049,0.6724515244,-0.0830662955,3.9434168794,0.8358787871,-0.9586974024,0.7478875296,-0.4281967044,-0.9895825833,0.6583784484,-0.1755972286,0.8184306734,76.5739487966,0.6414584729,-0.5577884955,2.9216980458,0.5201180873,0.235015429,-0.5964135773,0.4158781273,0.1233281656,0.1777674299,0.3960623328,-0.8330315346,0.6728149598,3.1753809625,0.176860569,0.2772304496,0.4877761899,-0.5533045422,-1.0165341895,0.2431340759,-0.3556188437,0.2209632609,-0.6431695495,-0.5332275475,-0.4217133829,0.0301481758,12.0124781868,0.3566078885,0.1615032511,0.1325928424,0.4828783864,-0.0244170551,-0.7617410864,29.0078990193,-0.695271988,0.3115055081,-0.222153436,0.3979300019,-0.4073996153,0.6285300874,-0.6107314457,0.5304119454,-0.3474548283,8.6134339719,-0.9653087371,0.2365558016,1.018703226,0.4322093884,8.5299559863,0.3097007124,-0.616810312,0.0949682239,0.9980812005,-0.8448035189,-0.6250532486,0.2878083473,-0.8273589252,-1.1547491481,0.418749367,-0.9405030574,-0.3086174162,-0.1007124184,0.0153606414,-0.3546714823,0.7393761819,-0.3879669497,0.601719442,0.7472211251,0.1170694479,-0.2127573277,3.0917661656,-0.344471507,0.3341186719,0.7907274634,-0.8581687588,0.6490732285,-0.1829334169,0.4292665946,0.6409376594,-0.5441626839,-0.6156512574,0.4624421106,0.5902798304,0.6234560133,-0.4402880202,-0.5785466369,-0.7532432013,0.6021332309,0.6256090871,0.4347989745,-0.3642028765,0.9736319297,0.9854152404,-0.1895671524,0.2985841612,-1.4441301529,-0.7526916438,-0.3859343915,-0.5876858572,0.2710597593,0.5980042348,-0.0904990988,-0.7496563072,0.0510380744,0.5568148957,1.0899284781,6.9942666408,-0.6829652729,-0.5477184165,0.1534317609,0.1175091488,0.5159263865,0.7501451433,0.8739549822,-0.3035351048,0.9081409266,-0.0926755016,-1.1806871715,-0.9800095086,-0.3671815942,0.6321138049,-0.1889477362,2.846837327,0.1785114798,-0.6053170766,0.3341129975,-0.1713418093,-0.9560391033,0.6651914935,0.4520409127,-3.7277655073,75.9775652603,0.9869395986,0.6914795696,4.4863926129,0.7349668398,0.284036855,-0.9302409403,-0.0081280347,0.3932502574,0.2892363239,-0.7664476872,-0.3522720294,-0.55122183,5.9909365884,-0.7892792078,0.6507940286,0.8043912508,0.6294322136,0.397329033,-0.0595841143,-0.0789500786,-0.3296717124,1.9251626266,-0.2877242711,-0.3868601542,-0.2700829991,0.9886864154,0.8181855299,-0.8326863746,0.3824669386,0.5624302074,-0.0813038543,-0.7403258079,8.6473578704,0.8843657231,0.6955941414,0.0217293719,-0.3156121131,0.581341955,-0.6846275221,0.8290624117,-0.305336744,-1.3682313258,18.0355731763,0.7645715502,-0.3515854047,-0.6515757853,-0.3822523396,6.2087611658,-0.2019967319,-0.2642621967,-0.0381167333,0.24375732,-0.536661499,0.827656674,0.9111203878,-0.6942026107,-0.5568829175,-0.4599000128,0.3893054768,0.7627253975,-0.9333148558,0.5798463274,-0.3000138414,-0.3089822891,-0.7914048054,-0.7564985952,0.8222501887,1.6222500853,0.6953246958,2.548358377,0.0430645707,-0.3620037629,0.4142884605,1.4935501171,0.5239784551,-0.2509476406,-0.4147054507,0.5472221683,-0.8503699924,0.9505816812,0.8215595123,4.3243649921,-0.0019556171,-0.6542931287,0.9015977361,-0.7396204074,-0.505557373,0.7868668809,-0.8138222308,0.4917773553,-0.6236960116,-0.0743211281,-0.6325125309,-0.3488571345,-0.0153068743,-0.679263502,0.7584439677,0.1067734045,0.6103807277,0.0493131142,-0.4840813582,-0.2950984348,-3.9792676644,0.7593852123,-1.4483864306,-0.3722157372,-0.1578893761,-0.0790527662,0.2690853997,1.8019683734,-0.9612022334,-0.0709135178,-0.8997288644,0.2988307329,0.9865969967,-0.9314908767,0.691317847,-0.8945286707,-0.5479071764,-0.7824888722,0.6885553936,-1.2087286262,0.6678922078,-0.569307922,0.467865783,0.7748940583,-0.4013588751,0.5436897842,0.5434371384,0.911069274,-76.1839990391,-0.5655161082,0.820973386,-1.0865331479,0.253247601,0.0920228353,0.891119879,-0.3314252171,-0.390997394,0.8312555982,-0.6032442506,0.65068778,0.9442773117,0.1290494357,0.2368196002,0.1046597813,0.7409722867,0.7139158263,1.033206543,-0.3667769857,-0.1597558083,0.3516986171,-0.0589672928,-0.4911586831,0.3690047013,0.3313834201,-8.6980677634,0.0391807066,-0.8864664225,0.1665132351,-0.1069105169,0.0826884161,-0.269478318,-8.1600185394,0.7148854362,-0.4747029162,-0.5258259286,-0.0583290011,0.3255514138,0.011245088,-0.7783844029,-1.8089580832,0.6021046412,-9.4017019145,0.3355424779,-0.7809550417,0.1019075752,0.7150500881,-5.4928244796,0.4475555422,-0.7457109571,-0.2832535669,-1.0513677206,-0.0894673222,0.2305496786,-0.5353826461,0.4992129531,1.1084674834,0.3944799057,-0.9023336153,0.7904976368,-0.2048640143,-0.0955702094,-0.1931321599,-0.170708816,-0.3986016724,0.5408326758,-0.5154965715,-0.5461703205,0.0774319358,-2.0034067119,0.6058988096,-0.1427069643,-0.4313623893,1.7240845419,-0.3338069473,-0.5358571793,-0.7873497606,-0.1450153593,0.0088537421,-0.0947078507,-0.667809231,2.335419386,0.7288570662,0.6214829964,-0.9132211404,-0.9311768864,0.367222645,-0.695060173,-0.5687415783,-0.840296108,0.6307247869,0.1803717165,-0.0052779935,-0.4524099003,1.1633699699,-0.0063195341,-0.9816002463,0.4676427919,-0.6216408886,-0.1817002002,0.0340545068,0.1674950864,-0.2197563744,0.3488190675,-1.4167181175,-1.6959201157,0.1969562044,0.6233687893,-0.1477810814,0.1251545577,-0.7673989955,0.7703920084,-2.1636741904,-0.3564092781,-0.0439200164,-0.0889768907,0.6283504238,-0.4260026243,-0.9277927894,-0.2264154676,-0.0082236702,-0.80004734,0.7655836473,0.4007624255,-0.7299710194,0.1071453052,0.3005246782,0.6134942706,-0.6459483792,0.2173007367,-77.396767482,0.7872775238,-0.9682356854,-5.3585084516,-0.8978464831,0.0799229854,0.5229414002,-0.7400945682,0.4596655952,-0.6686256302,0.0516992818,0.5201556129,0.5494433359,-1.3017374256,-0.1006279722,-0.7026140532,-0.80307819,0.6703951316,0.3074795055,0.4349766471,0.9739661923,-0.6308291714,0.0648475983,0.848779624,1.1150959965,0.3020222447,-6.9349006793,0.8804148745,0.354751849,-0.2557473239,0.4380882677,-0.9355818904,0.3049382862,-3.7776667031,-0.9495704905,-0.8147681309,-0.4468229587,-0.3984624548,0.4303550795,-0.5142841201,0.5306430453,-0.8679571458,1.3959121061,-8.8559375889,0.61641575,0.0854982154,-0.4121829,0.034136133,-21.2294732238,0.0601951198,0.2366392512,0.8825328415,-0.8222976889,-0.0272924777,0.665876732,0.7587972645,0.50483929,0.8036046965,0.3508688629,-0.6932299981,0.2192942858,0.475338205,0.0864086692,0.0361045599,0.1917770581,-0.5258533268,0.9141006377,0.0718961224,0.5648329729,0.4579555191,-3.4794114203,-0.1100660405,0.8025729887,0.9800390904,0.0326422115,0.6253639455,-0.6491615616,-0.8461414151,0.5696999523,-0.7734907557,0.6472676156,0.4462218219,2.2810263233,-0.2351286541,0.1317961724,-0.5399948746,0.3860185499,0.0184466465,0.0170441696,0.3845461699,0.6313164241,0.4894105647,0.7474421884,-0.8573331216,-0.4172173448,0.6120577332,0.3607321831,-0.4381972937,0.7169996795,0.1055833529,-0.5168217569,0.9124459129,-0.573978544,-0.2360241543,-0.3627301405,-1.6873191228,-3.3233751026,2.9915171186,0.6861729392,-0.8603088158,-0.0143886892,-0.6353586393,-0.7423546895,-2.0953523061,-0.268502958,-0.4647349455,-0.2888357592,1.6894868922,-0.4158610229,-0.2245875074,-0.1546879835,-0.0782803805,-1.7609552486,0.796596941,-0.6818900105,0.2999588707,0.3157506294,-0.6140847263,0.2427004005,0.5847234268,2.4585308188,-75.8903791416,-0.9241159546,-0.7489663414,-2.1677224717,-0.2513780208,-0.7400557921,-0.7665380624,0.0830792634,-0.3846601475,-0.4084389512,0.8525569688,1.461187537,0.0182197689,-1.8387930232,-0.0458700829,0.1734792466,-0.665573429,-0.9660624834,0.4280691314,-0.1429289177,-0.0525098572,0.6706897576,-0.0803496565,-0.6535871903,0.040821258,-0.0273420798,-2.5084897697,-1.66205537,-0.3203585943,0.6281461788,0.6065933587,-0.4036027869,0.7939905861,-2.0314939428,0.7165794584,0.9248402213,-1.4175572859,-0.9219942026,-0.4648858095,0.1904308693,0.744515555,-0.8708131594,0.6218907907,-9.4587745322,-0.8877720644,0.819890739,0.2405453558,-0.6264916602,-13.3434516338,0.5420615543,0.5629226279,-0.2507902931,0.21502102,-0.1970668447,0.4231539235,0.8917254323,0.8048479044,-0.06449723,-0.4591002574,-0.4757060607,-0.2090597321,0.3305241635,-0.2936510741,0.7678315086,0.3979406345,0.5610981737,-0.4107259808,-0.7283722648,0.9267417209,0.6466449826,-3.4922876373,0.0479406299,-0.8923096303,0.9056459802,-0.5878476913,-0.3344732091,-0.1612831749,-0.5832452673,-0.4608279036,-0.8790434864,0.7145078586,0.5202924831,-0.21711751,0.936716456,0.6324379223,0.6644012081,-0.4018574209,0.8286656709,-0.3581656416,0.4877670958,0.6168016143,-0.7935695442,-0.1132284039,1.2342009513,1.2164805199,-2.1895596642,0.5684202158,-0.5823391912,-0.8781726474,0.9503463142,0.4781907376,0.1460302141,0.5471511575,3.2724906851,0.1925813183,2.1830099917,1.3696635498,-1.2615571633,-0.0459132483,0.9343833347,-0.9405754085,-0.8528169534,0.4651797217,1.0668142448,0.160570709,0.4391385483,0.8142450468,0.0913422342,0.5981677083,0.0482414954,0.7671393276,0.4569184347,0.9690745272,0.3023895899,-0.8281034291,-0.3590544745,0.2036096716,0.2686646851,0.3419525619,0.5903894245,0.1084463507,75.7625652953,1.0226278069,0.0731539437,1.5975001075,-0.3476531141,-0.2339372636,-0.6717118862,-0.9773551943,-1.031330923,1.0606536526,0.7021038357,-0.4042603521,0.9267025133,4.0968031179,0.8869363709,0.5074644121,-0.7217506397,0.3374940553,0.2489115531,0.6312566994,-0.2835977351,0.2821639748,0.6628324432,0.4467840625,0.0378384952,0.2682700665,8.2430387853,0.5609545415,0.2032217831,0.1404836038,-0.2467450619,0.1138452577,0.0502472714,7.4469224348,-0.7959932675,0.2994950745,1.1677985612,0.9688793175,-0.9928094697,0.6427285938,-0.2141621503,0.9551221247,-0.4294734803,10.1280035182,0.0727887243,0.2854572976,-0.1839258154,-0.0465718768,14.0825019182,-1.1196665088,0.8087996476,-0.9703976532,-0.7256623616,-0.6290477617,0.9243675135,-0.471840533,-0.8129436837,0.1276495095,-0.0998892707,0.4826986054,0.2373277754,-0.7458713626,0.6848265116,0.7534271607,0.7029216251,0.2912433055,0.8987364329,-0.5049961194,0.3198703825,0.4787303227,1.5827014162,0.5254800894,1.1909421366,-0.701663582,-0.1610531304,-0.6586815724,0.1406754239,0.994842299,-0.3633166471,0.499609237,-0.3980901376,-0.8676209904,-0.4953675661,-0.905663025,-0.789047898,-0.0889064499,0.1357537787,-0.9838132514,0.640304827,0.4082095855,-0.3750575428,1.0888482641,-0.9580256941,0.8685377659,0.5603951009,-2.8777125485,0.7349610152,-0.1042121274,0.511694574,-0.140848717,0.0209438583,-0.7337171258,0.9162030594,7.9877739089,0.9251101342,2.6090194696,4.3100986736,0.5828791638,0.6439701974,-0.0987032409,0.8819850905,-0.6596654772,0.8692564667,1.0754888551,0.9892094669,0.6715727392
   -0.3097637065,-0.6106753659,0.3720030242,0.0626049751,-0.8415087538,0.6116030551,0.4957345358,-0.7486292855,0.1582961382,0.9174250274,0.4015301946,0.9148016019,-0.3136450941,-0.6572989258,0.865685208,76.9476087328,0.8027293989,0.7263693828,2.9252540728,-0.0816554159,0.9407035628,0.8845066823,0.0130825423,-0.9284166135,0.9481863563,-0.7619546143,-1.4527145824,-0.4712709831,3.3011492368,-0.4795012063,0.9873351734,0.2737603067,-0.8643549382,-0.4331370671,-0.8258607551,-0.5021603271,-0.4762151168,0.8530133881,0.2498388751,0.3115940559,0.9038322304,9.0667222291,-0.7092931864,0.778053769,0.7793088926,0.2270635057,-0.6040489769,-0.6674008392,215.3643243,-0.0304929731,0.3746273763,-0.3726368758,0.0499260914,0.6565579462,-0.1463528641,0.7729781488,-0.9038217283,-1.5327268684,8.5540531871,-0.4035382197,-0.0850725359,-0.8382792354,-0.9209435788,-116.0296642803,0.3962917531,0.3997517948,0.4192366155,-0.6046121707,0.1727243138,0.2864566668,0.5629704021,-0.0568362067,-0.1048691186,-0.3210402104,0.1688256749,0.6767511439,-0.6821500633,-0.7781491344,0.4558407446,-0.5854808456,0.7774638641,0.554188874,-0.201987799,0.415385787,0.5136925569,2.472531001,0.8297316477,-0.5671360038,0.5875638571,3.5535028211,0.5810913592,-0.533382686,0.7734299416,0.1341363644,-0.3099311799,-0.449619129,-0.4006201146,-0.8946945151,-0.4372595768,0.1695530995,0.6321287623,0.9726790751,0.0031188601,-0.0101672838,0.3675254698,-0.5251830099,-0.2194513742,-0.7797327553,2.199995308,0.7928228969,-2.1458632103,-0.1518715835,-0.0738162202,-0.0932814063,-0.4694987591,-0.6888602312,-0.43290168,-0.1145198428,1.203455632,-0.1896583593,2.5819757869,0.214315336,-133.2698296287,-0.9608177222,0.0012604711,-1.0121706195,0.4142874035,-0.2731208556,1.2264629194,-0.2241581537,0.9671149435,-0.4749143691,-1.6699501216,-0.5725294903,0.2352348704,-0.7105392792,0.9833824034,2.1495111007,-0.1487624521,-0.0772110215,-0.1040262413,-0.4634612712,-0.2283487441,0.8229691918,0.224490364,-1.5255750997,77.3891001893,0.2272853351,-0.3905801492,4.4589659052,0.3011947339,0.8188270583,-0.4412724181,0.3679043048,0.3576107362,-0.9358544551,0.4670724201,-1.3130633594,0.636008754,26.4944655325,0.9085916699,1.0443358352,0.0767628054,0.9383083058,-0.747681047,-0.8551560196,0.6953063582,-0.06939903,0.1657650667,-0.9280851431,0.6727503422,0.0373708174,5.405250695,-0.4129016373,0.8247580096,0.9209729176,-0.1683522624,0.728845877,-0.9970065083,56.0928532138,0.7242158497,-0.0749032518,1.5413747905,0.7735802431,-0.0096268167,-0.2717852406,-0.4236212842,0.0307230813,-1.215194999,27.2423627236,0.8267472899,-0.4189287647,-1.1075848924,0.4826605167,-38.5139603293,0.7350034437,-1.0065019093,-0.8738693555,1.0710884887,-0.2538058402,0.7371961133,0.8308079074,-0.3192740426,-0.0220902338,-0.279531256,0.5961541892,-0.2680685199,0.2519459821,0.700661782,0.8941098171,-0.9636001787,0.9324188938,0.3849063019,-0.3360901403,0.8428748432,-0.2136711122,3.0551165042,-0.7482188619,1.1074592672,0.0826651983,21.1562983485,0.0683228241,-0.1416741849,0.321108115,0.4737052969,-0.4116276052,-0.0638354762,0.0302474252,-5.7882831003,-0.8402623723,-0.0305200929,0.7189823983,0.7523431866,0.1820424134,-0.5808753559,-0.7647705752,-0.1567607045,0.7858941577,0.7507836536,-0.3932066327,0.1589969139,-0.4424252509,-0.7244187216,0.1072778989,-0.4563389534,0.6383620273,0.2858673305,0.9546197118,-0.6486876192,-0.3641500173,0.3363506194,0.8636204251,2.6794055035,0.7453621323,-0.6914550021,0.4357306071,0.9516917137,-0.5878300563,-0.2317048655,1.778896316,0.6237175909,-0.9820135094,0.975741799,-0.8209964892,0.1501792142,0.6350486518,-0.0527210144,-0.5864507946,1.0167956813,-0.3321227675,0.1791039914,0.2617334755,-0.0367678843,0.4707822669,0.1623979118,-0.6906195978,-1.2733457506,77.3838367914,-0.4517648899,0.2687035729,4.9157533296,0.817719599,-0.3416826802,-0.060433038,0.7922017266,-0.0991863961,-0.0293707414,-0.1712857213,0.75961912,-0.5427529585,2.3340291752,0.3606347676,0.8423794655,0.6134030499,0.0803523775,-0.3659581391,0.865489709,0.7090505644,-0.2556021772,0.5142987379,-0.8953905922,-0.6811724074,0.9835442893,2.7874731146,0.5416217313,-0.2680550664,-0.008969753,0.615193226,0.4984100489,0.2867979845,8.6623887352,-0.8750549459,0.1699724705,0.6824065393,-0.7166349108,-0.4388767865,-0.5209335093,0.0987924976,1.9545522619,-1.0976019502,9.0106784779,0.0988835575,0.2733709673,-0.0640808923,0.4987180013,-58.6307737752,0.0920863525,0.2188081092,-0.1740089347,1.1161275216,-0.5138274901,0.3441720621,0.6142315865,-0.5197093961,-0.1201450011,-0.875152164,-0.6293634637,0.6180512563,0.2093063551,-0.8682190731,-0.6878001333,-0.5273338524,0.5427566801,-0.8572928533,0.0480249299,-0.0689394935,-0.8930193235,2.3100470042,0.4108907692,-0.7804954676,0.2353910717,0.6913464607,-0.7639722775,-1.0286532535,-0.1625117421,-0.8838623711,-0.7691529671,-0.4219601279,0.7893067315,-1.6353431043,-0.0591789422,-0.9424340702,-0.6609615019,-0.8559672983,-0.6526434778,-0.7411707285,0.9754748173,0.4135479722,-0.5543208181,0.5872882287,-0.588030362,1.0353885695,-1.7952448627,0.6163363536,0.9950639437,-0.6531182376,0.7381555221,-0.8641981658,1.119798377,0.4376382406,2.6019237378,0.7630877948,1.9381137107,1.5857661683,-0.7924876692,0.4470020494,0.4177400982,0.4994684047,0.7105688214,-0.5365144217,0.6048377554,-0.3046505816,-0.3539041966,-0.787436272,-0.7388181298,-0.5344218862,-0.9507982598,0.1738925399,0.4368271457,1.8845610524,0.7529894409,-0.1806090192,0.1697389684,0.1696299222,0.1132669898,0.1285160014,-0.0476413873,-1.7614997055,76.4120971518,0.7793934923,0.8493693742,4.0387206418,-0.6460189851,-0.0035162865,0.5814607069,-0.1357396952,-0.8430972586,0.0488041734,-0.439341084,-0.4765560199,0.6568453126,0.8584744764,0.6344352656,-0.8989037885,0.7988439959,0.5439656758,-0.740198983,-0.5559022469,-0.302695426,-0.2579631285,-0.242266035,0.3866566367,-0.0465097475,-0.111184823,9.7875070992,-0.8793606198,0.2075418592,0.2299168465,-0.2442552555,0.3944272943,-0.7913348241,3.8753086398,-0.0300989976,0.5053626094,0.8016975277,-0.4801138516,0.3552771478,-0.6627357802,-0.2681250988,1.6915673202,-1.5333622085,8.2840391294,0.5892474161,0.1513786645,0.8698033229,0.0771542455,-16.3727981258,-0.8022850463,0.9401857432,0.4772084797,0.6756119988,-0.5634087756,0.6892214924,-0.5679104071,-0.5133774164,-1.1063498359,0.517407603,-1.0114970651,0.0652886478,-0.005817226,0.4753199638,-0.1520244363,-0.6198474355,-0.1025540101,-0.9398751054,-0.6236250677,0.191782877,-0.568514385,2.7475614366,1.3284771319,0.4170344615,-0.7129125783,2.9480783786,-0.8496784876,-0.3039095338,0.2709814039,-0.0628924428,0.5590170224,-0.4486351982,0.8575371918,-0.8195322915,-0.0673302187,-0.0553855142,0.3100765724,0.36084961,0.4250793103,0.087040183,0.5627517141,0.2606235822,0.8475136248,-0.8363362477,-0.3349355489,0.8516209602,-1.8791773653,0.7291732104,-0.0606370807,-0.255242964,-0.6918230042,0.0501223133,0.0521460217,0.7608890791,3.641666129,-0.2440645538,2.2438036933,1.4673067184,0.2013690757,0.5785998448,-0.5927849356,0.5700888952,0.2078612203,1.0667638595,1.4896365815,-0.9591038346,-0.5856939641,0.8765341254,-0.5959020514,0.8834862716,-0.209634793,0.2978206079,-0.0104508172,0.7869901515,-0.7983474074,-0.7338069853,-0.1198681235,-0.8616761502,-0.4849476484,-0.8190951972,-0.9339839619,-0.7214222429,76.5827883038,-0.1479914169,-0.7094502233,0.7528049949,0.7761986634,1.067306169,-0.0642825793,0.4230945413,-0.2773581101,1.1819151362,-0.3020473226,-1.8896216461,-0.0367748006,2.39442119,-0.0445156362,-0.6201220212,0.6370541505,0.5286026329,-0.7381776235,0.2872601784,0.3654912396,0.1028368064,0.019831639,0.2165833901,-0.2401850658,-0.1804111357,9.9734053498,0.7398836299,-0.9487441318,0.8583170889,-0.4637062608,-0.9396598489,-0.1814731054,16.5141193689,0.2060702391,0.9416067827,0.8124959881,-0.9768886619,0.5412411462,0.8822717128,0.9694879849,-0.1212342103,-0.7194966407,25.7931307788,-0.378784711,0.8150231252,-0.9397829058,0.4050873688,-50.2765580269,0.4419214594,-0.2778636338,0.5202941792,1.0658131174,-0.968562623,-0.821900511,-0.3273416605,-0.4279998768,-1.3503009663,0.0022276729,0.4928004918,0.4579432606,0.1183242365,-0.8143112767,-0.8874502201,-0.2703863066,-0.4630310758,0.0494176594,-0.071119394,-0.9191080387,0.4081362731,2.4238711722,0.917562278,0.4924798328,-0.1821727816,2.17752361,0.2965434258,0.0316873004,-0.1756837875,-0.3535820068,-0.8201023533,0.4580666256,0.1366131796,2.8484121845,0.9278080089,0.0824489077,-0.5823212064,-0.0364331967,0.3558442566,-0.6882199549,0.3749155711,0.5785089121,-0.7981897219,0.0743751464,-0.4885517432,0.044494889,0.355670282,0.3365965534,-0.3979971591,-0.8053671502,-0.4000017061,0.6042189041,0.7857148862,-0.4809399891,0.4008472884,-0.4452183056,-0.53619878,-0.9532776084,-0.2861543691,-0.8186007053,0.5173152166,-0.150833937,0.1753465582,-0.1840132575,-0.7385880374,0.5224458786,-0.4550566875,-0.1917748076,-0.841261717,0.4550516153,0.0254125342,0.4437477426,-0.975997881,-1.3964433972,-0.0859013417,-0.1068093305,0.4331623282,-0.5856590876,-0.5812278472,0.2082510426,-0.8220165782,0.9855211634,-75.6928779779,0.1073416297,-0.6624608745,-0.9552290919,-0.7436194483,-0.5492029735,-0.8959036742,0.7515095805,-0.7360615601,0.2692564407,-0.6628647442,0.4789439534,-0.0026884569,-5.493932656,0.3944466139,0.8500226361,-0.5419062663,-0.2358988982,-0.5335434766,0.0685065702,-0.6042890664,0.1473273473,-0.9585322338,-0.724079256,0.8983965659,0.4184927677,-8.756643773,-0.8980122857,0.1558090774,-0.52046162,-0.2985904214,-0.2372996227,0.3244235593,-9.0584905224,-0.4828673094,-0.5054731453,-0.303167674,0.6919404671,-0.6092221646,0.275472851,-0.6567098959,-0.7063495381,0.4892893058,-8.4155024432,-0.4343340066,-0.9928983487,0.4300105954,0.6499558939,-6.9476263124,0.0197997409,-0.7993077974,-0.7404798605,-0.2366523461,-0.3955826311,-0.9055642705,-0.4128446586,0.9707194724,-0.5493751598,-0.1176086163,-0.8137483666,-0.0755755194,0.4882505859,-0.0377155299,0.3212298605,0.4016897838,-0.4532041924,-0.0945922536,-0.6382388197,-0.8964407049,-0.0311722678,-2.8722140872,-0.453613157,-0.4481524206,-0.5851588229,-21.2876475138,-0.032347823,-0.1389026763,-0.5964877055,0.7535314321,-0.6749088099,0.9094140743,0.826541231,-8.6083710095,0.6161489194,-0.7362855776,-0.9590797684,0.4757253101,-0.4850931377,1.5687074406,0.237018336,-0.8602265613,0.8890437486,0.5110776159,0.5493118907,0.6398505005,-1.3930695993,-0.305212272,0.1748554986,-0.8060187485,-0.3474821319,0.421015311,0.4430539607,-0.5985287947,6.1874805885,-0.2776961794,1.1833513738,9.7721758937,0.1565164655,0.1746491989,-0.6607938232,-0.7931887857,-0.8254638179,-0.669435786,1.2151175486,-0.2906205351,-0.3129162243,0.3873450935,-0.1852496839,-0.0270921616,-0.3659078423,0.5211250473,0.2472409894,0.8410475192,-0.5841895365,-0.1597361586,-0.3308364279,-0.8353081862,0.1758425738,-0.7533601051,-0.257010747,0.1538897935,77.2462968523,0.1376085372,-0.004867357,0.8387911088,0.8104354881,-0.063827789,-0.5045742515,0.7225729967,0.6592144825,2.5587659532,0.5051918626,-0.2002933883,-0.7027427975,2.1306495805,0.3976009078,-0.9210773469,-0.8651134916,-0.0442756841,0.7272087671,0.1505141763,0.2824600119,0.0526177818,0.5524305164,-0.8126337996,-1.0691836048,0.6120219308,8.5574845022,-0.5504368707,0.6439984494,-0.6848911736,-0.9294326802,-1.0155505045,-0.2718528275,6.7109848117,0.433203299,-0.2584105445,-0.0339813655,-0.5100303856,-0.4430203145,-0.9247235246,-0.2299889959,-0.7686753646,-1.6981803768,25.6638304278,0.4852622213,-0.0760102503,0.6324196997,-0.0737155055,19.9538208545,0.320126854,0.4455968145,-0.1271939757,-0.6552852584,-0.3935843752,-0.2465056154,0.8610900124,-0.3164595713,0.3960030341,0.2531415126,0.0431560164,-0.490387407,-0.2254523311,-0.6750433735,0.7725974921,0.3314355724,-0.5186737803,0.2012945369,0.4200585441,-0.6086825363,-0.3036101678,2.1128898623,-0.7634122792,-0.6018470509,-0.3600095412,-1.4845492012,-0.4500888382,0.6358775329,0.6488199314,0.1520623765,-0.0424051748,0.1000395249,-0.078259922,4.2457827397,0.1498643515,0.2714496752,0.53692134,-0.8705844334,-0.1160981701,0.2693037985,-0.6942957723,0.0649203435,0.9562363194,1.0429215999,-1.5350176744,-0.0573149248,0.5903294319,0.9159514715,-0.7721824969,0.0660916647,-0.6286457939,0.0337130992,0.2360102393,-1.0196032411,-8.6733803294,-0.7462943063,-0.9441342317,-1.8044355463,0.4980352203,-0.0441403056,0.1165342224,0.9467244378,-0.5372856239,0.2518900362,-0.6836193463,0.2455943752,-0.196191505,0.9747590308,-0.4878699184,0.3276057054,-0.983926497,-0.9054059739,0.6059301387,-1.9651170572,0.0230372149,-0.2200943249,-0.1846365048,0.5836576032,-0.8956624508,-0.055596885,0.5510777251,1.1299452425,-77.3912642099,-0.5816619006,-0.967806781,-9.8797632823,-0.2827782135,0.2142015238,-0.7238728143,0.5977987286,0.5865073942,-0.6128238748,-0.1607400333,0.9291320639,-0.5348881597,-5.5312759558,-1.0751492158,-0.4405898571,-0.8860275561,-0.0301901096,0.4755065047,0.0394364375,0.6288266776,0.3137944205,-0.5315556323,-0.5060062712,0.1952569828,0.6724841316,-8.9267867429,0.2669134499,-0.2887105943,-0.7515471746,-0.1801273209,-0.1243367448,0.6239832655,-7.1975791168,0.0422840474,-0.0172253818,-0.736520562,0.11491171,0.0330355208,-0.3650791667,-0.7390117745,-0.3989032181,1.7843716867,-9.7782650355,0.7437758958,-0.6053936095,-0.738632776,0.0628034507,2.1697567697,0.3716609569,0.7216634874,-0.590067261,-0.8052927061,0.8897090206,0.868402781,-0.9978390769,-0.1680573271,1.1704769512,-0.5642397504,-0.272639471,-0.2587737035,-0.425369102,-0.4982553981,-0.1618802771,0.5130496571,0.4835069404,0.1446674371,-0.0950503584,-0.5186275267,0.975404766,-2.2639228642,0.336267065,-0.614207557,-0.4886777702,0.7391538806,0.100404867,-0.8675730424,0.7441506743,0.645714192,0.1521729358,0.9078385527,-0.8675271941,1.0842356157,0.6568720447,-0.1038412504,-0.6433175508,0.4297317877,0.9073618508,0.0056615915,-0.180862881,0.9896576759,0.6142141917,0.4181183819,-0.4458448644,-0.2721292482,1.7102207785,0.6467106151,-0.3775400076,-0.8240470137,-0.8562167934,-0.0399430305,-0.0017455292,-0.9526092738,-6.871272121,0.4904616346,-0.5182212738,-3.2113289126,0.7181015722,0.2429157588,-0.2116583465,0.2776758361,-0.8468868721,-0.5618761741,-0.4886527861,-0.2069336974,-0.9353242797,0.486605557,-0.5204389419,0.9558747003,-0.4127214053,0.4654592363,0.6091169638,-1.5385663159,-0.3301143874,-0.3051677491,0.392392998,0.863380297,-0.1463170917,-0.2582345775,-0.1699619382,1.1993303754,-77.2417814285,-0.1169674436,-0.8961195889,-5.0696765687,0.8062867426,0.3690795528,0.5499071944,0.3049007188,0.0050146428,-0.2240638757,-0.1338968456,2.2433097033,-0.896489552,-7.9450700796,-0.671323619,0.3837427013,0.2262255208,0.0023915594,1.0480098085,-0.3453434566,0.1992859935,0.8766627056,-0.8116074216,0.2234708162,0.9800562719,0.1854946562,-2.687870126,-0.8962103981,0.0424519829,-0.7355387697,-0.0869106993,-0.6716989724,0.5960114302,-8.2206481269,-0.3133560896,-0.9725083206,0.4498885716,0.3491444299,-0.9775206707,-0.3436919276,0.9093763794,-0.20843075,1.1632975472,-9.2788263187,-0.6303260868,-0.4222938993,0.0224285435,0.7587119318,-12.9747575822,0.3231799857,0.7576727345,0.3682269023,-0.5689362138,-0.0744923703,0.8198229003,0.5735814867,0.7938317127,0.599774457,-0.8690389299,-0.701584158,1.0496189628,0.9978093191,0.4471283099,0.870662901,0.8949352486,-0.8980558621,0.4373354083,0.3827581613,0.550195082,-0.959055735,-1.9803147056,-0.68872984,0.902637019,-0.8705923517,-1.5577214022,0.3912800192,0.2359588561,-0.2151070527,0.4985280255,0.8097926832,0.1409692003,0.7946779049,-1.5341661817,-0.6315055803,0.0916962182,-0.6464535307,0.6657750939,0.8056767956,0.7393302165,0.5263788938,0.0202033606,-0.4395058095,-0.0280965837,0.0655250914,0.4368948612,-2.1004720945,0.7306815253,0.0892055652,-0.2484629328,0.6127808145,-0.1970921409,-0.5027286844,-0.8006741537,3.7786619075,0.8408187096,1.1893975195,0.8262277888,-0.6129464993,-0.0074587245,0.6777122014,0.0627744715,-0.6583700474,0.790040656,1.7380230164,-0.3727284321,0.0138375926,-0.2741079312,-0.20635024,-0.5817847507,0.2856014717,0.6143476227,0.9442979875,1.0080146956,-0.1730069947,-0.3522056698,0.5451251265,0.7710523584,0.410309973,0.3134463932,-0.6859432481,-0.4339432721,76.9562743475,0.3613846091,0.5354531542,1.0939691964,0.3061957274,1.0413237871,0.5735550907,0.7227887015,-0.8054600954,-0.0657682516,0.9025927496,-0.6065589929,-0.290601158,3.5755233746,-0.5278483875,0.2390774863,0.1315684934,-0.6332749787,-0.0556792957,0.6196776224,0.8698047174,-0.7097247521,-0.4453732246,-0.0196914101,0.6996274709,0.3235248174,9.1372040182,0.1597712513,-0.6033030237,0.7417281262,-0.6320724184,-0.067699932,0.535778663,7.6378020027,-0.1217696864,-0.8550972845,0.7425498664,0.3101146208,-0.030546299,-0.0296871121,-0.2117224932,-0.1085246736,-1.6625842557,8.4997399435,0.9331294799,-0.2828938476,-1.0978989756,0.7350848448,12.3167778915,-0.6439418423,0.5590028736,-0.0296075548,0.8181788722,0.3440120256,-0.643951748,-0.9754022018,0.4646356628,-0.8200319974,-0.457529518,0.5499098655,-0.4413167008,0.6327700136,0.4659342763,0.972105852,-0.8623161017,0.7288380186,0.108947124,0.2332643953,0.0832014819,0.2294976333,2.1976846521,-0.4914469099,-0.3368567276,0.4209276049,0.801272014,-0.2054133531,-0.7725159759,0.2381467059,0.3056070071,0.0602099845,-0.5378341947,-0.4865872596,0.6382262037,0.7141902903,-0.494454836,-0.828016108,-0.753287931,1.0124794756,-0.3114945959,-0.3259367346,0.9953937248,0.1898344248,0.5447492268,-1.5641482882,-0.9236673148,2.7550333949,0.0406039925,-0.9201098924,-0.3837048371,-0.4357689329,-0.1387219657,-0.0600031397,-0.5240573644,-1.1409034839,0.5299368467,-3.0111689511,-4.1600502525,-0.1328501508,-0.9634070871,0.8335939326,0.0334296504,0.5986794621,0.3088865055,-0.9715818364,-0.4517642316,0.7826713581,-0.3674680287,1.2522696611,-0.2721805198,-0.1843370144,0.1624976105,-0.7077835167,-1.2332143855,0.3109578988,0.6995307344,-0.0763061564,-0.4801347141,0.0618842544,-0.3580070283,0.8356853319,0.0622284403,-77.2237159854,-0.6836410377,-0.0220262785,-5.2984168331,0.4599903019,0.8358089674,-0.4099773846,-0.4169662944,0.2700334799,0.526929448,0.775203596,2.3466670835,0.0454579284,-17.5873005691,-0.1011000177,-0.9345130215,0.3144657412,-0.3744689506,-0.8206134487,0.9576849147,-0.0525685416,0.2372401043,-0.5768427593,-0.4992297729,-0.1213056342,0.8683734079,-9.2607636865,0.6335738765,0.3933296541,0.0812092544,0.9851072958,0.7590339213,0.7012893537,-52.3606844535,-0.1647474737,0.2744525623,-1.3135897093,-0.9018702014,0.0576321442,0.9222999118,0.2029327371,-0.9425271108,1.9252702353,-8.9699356113,-0.5101080778,-0.838178841,0.6484692379,-0.1594510529,-18.0356720648,0.7491440793,0.2073810702,0.9886502243,-0.6775079941,-0.0048259384,-0.1345074391,-0.9542802224,-0.5503976439,1.2276080755,0.4430711618,-0.0766777421,0.4665165521,-0.9952459235,0.706527884,0.6479265384,-0.2660059097,-0.4969782127,0.1319302245,-0.6473054373,-0.9960181827,0.481251661,-1.8686634438,-1.0585689161,-1.5573639432,-0.3802380963,-12.0450009022,-0.7909585825,-0.4761718711,-0.0869391792,0.032680098,-0.3394383203,-0.7936827596,0.7266047492,-0.5780113233,-0.7050180881,-0.6602528824,0.849818658,-0.3127861214,0.1165522393,-0.7533415256,-0.6741496575,0.9213838442,0.5307118822,0.0002137892,0.1244188031,-0.400345117,1.3030568196,0.3806453291,0.5020016287,-0.5362932872,-0.6177059702,0.845551732,0.8895830749,-0.8870935482,-8.1868233973,-0.240447329,-2.3692032928,-2.5012966636,-0.3331768989,0.2613581015,0.4329736537,0.4755056733,0.6469567005,0.3143145614,-1.9024098738,-0.0105273783,-0.1140899389,-0.0369622837,0.9984877251,0.2614881299,-0.1689510913,0.6368210418,0.038741571,-3.4327084926,-0.0586428501,-1.1058853787,-0.4027143121,-0.146591558,0.9947973261,-0.7767270045,-0.3406655145,0.491948363,-75.5171434685,-1.0035040977,0.2497287674,-0.5837296917,0.6262217446,-1.0634903944,-0.2713280051,-0.4521778368,-0.8705163975,-0.4581741702,0.7911960127,0.6933321459,0.9243837942,-1.1882141193,-0.350646829,-0.195165192,0.7314392015,0.601258982,-0.0025332952,0.3379662334,-0.4361657993,0.2337745707,0.7529707443,1.0212559552,-0.7640544623,0.8057506176,-6.1368390044,0.3828994169,0.1788005812,-0.0111985874,-0.4738246025,-0.4128149338,0.1207010797,-6.864695029,-0.5651860976,0.7869871771,-0.5706811846,0.0805402458,-0.1582024872,0.816289403,0.6927239067,-0.1326342757,1.2546319336,-8.3446418207,0.7413560089,0.5364557905,0.0375185495,0.2817303229,-7.2615139193,-0.5520766883,0.9658599762,0.6757186373,-0.2761714147,0.2095928798,-0.9907079669,-0.910824532,1.2011937302,1.0330933979,-0.7893436832,-0.3907998295,1.0259252245,-0.6143602437,-0.6054029182,-0.7926832538,-0.8627819086,0.1214956552,-0.2745869523,-0.5873225501,-0.1350574494,0.1124726653,-1.4105720403,0.7520365892,0.4282488835,0.4624653003,0.0653980481,0.0366278329,0.5307926558,0.472540008,-0.7278343705,-0.6430466823,0.3931647815,-0.9841747367,1.264523484,-0.8416740845,-0.0103866715,-0.8445523266,-0.4078530263,0.7448317517,0.3030724816,0.8250182412,-0.239607715,-0.1080804266,0.2876316197,-0.9504080211,0.2967023789,1.3040994198,0.5219952435,0.2902211988,-0.96811316,-0.3793020034,-0.1783741444,0.8216683925,-0.9176960441,-3.1602425214,-0.6922812505,-0.2535171463,-0.8694064258,1.3691899435,-0.8616189575,0.9968375395,0.5735913962,0.3163382391,0.7053394196,-2.1177449913,-0.9516289105,-0.6533753262,0.8387117757,0.3770632662,0.2815722303,-0.7017033927,0.3186452034,-0.6323320828,-0.4202830183,0.4411287613,0.2402506535,0.8198401602,-0.4602747224,0.538698098,-0.2936505993,-0.9827053318,0.3495709524,-75.4508751403,-0.8149870827,-0.1850116564,-1.2418484214,0.7794453272,-1.0249371695,0.1578551787,-0.8799569631,0.8744410572,0.5404116079,-0.6953146037,0.8376196561,-0.0288808687,-3.2526522607,-0.7158656865,0.086282041,0.0728272355,0.2117918322,-0.7234430829,-0.5946542976,-0.6901475524,-1.0488057305,-0.1971512854,0.042553776,0.499612282,0.0107678831,-9.750786071,0.0443118684,0.2777566346,0.065331811,0.6719255315,0.7580050977,-0.9700039217,-10.9119904093,-0.9954225498,0.8085619749,-1.4399427001,-0.8168599666,-0.1438803928,-0.6979072521,0.3744225295,0.1388206036,1.3599186391,-9.5024528806,0.1429571288,-0.4389440168,-0.2687273926,-0.0619493375,-12.3305203724,-0.3808696952,0.0343815063,0.0148684108,0.2018449926,-0.8357152615,-0.7834277301,-0.1993390697,0.8073641228,-0.1962377105,0.6055494874,0.9683210567,-0.7128342651,-0.9016920891,0.8551012248,-0.6600639731,-0.7094246001,0.8596111697,-0.4214486565,0.0678098901,-0.7789147532,0.2925964539,-3.3003226626,-0.4383038701,0.329201171,-0.7778552454,-0.7590042006,0.0290866236,-0.1231578813,0.2538332197,0.4293186745,0.6008071946,-0.7083501033,-0.6024146829,2.4295885966,0.8821355983,-0.1799955211,0.4639597358,0.4025791917,0.5726077343,0.3185433975,-0.3166997257,0.7178634576,-0.0011297558,0.9749805558,-0.3110110647,-0.6096270642,1.6023308085,-0.5991928897,-0.5201581097,0.7437246913,0.0827520254,0.7310863048,-1.0291929429,0.8231768343,0.0930995653,-0.2531551434,-0.4002618167,-2.8650598291,76.7289474588,-0.7124759891,-0.1128698561,0.3234544167,0.7372508946,0.114745353,-2.2094553279,-0.0661877474,-0.9743556097,-0.436411575,0.6405184119,-0.6908804015,-0.5961976405,0.4675993207,-0.3656194461,-0.6081804472,-0.1543121462,0.1499214154,-1.001316908,-0.102850187,-0.764841273,0.1299596136,-0.0844348188,2.6708544138,-77.0257776412,-0.8974886636,0.7483726351,-3.6386490445,-0.9548158219,0.4302931896,-0.3172528338,-0.7820117734,-0.4626650395,0.6506938737,0.2690418311,1.8048079593,0.8287421662,-2.4493769926,-0.0411886063,-0.6556652291,-0.2130661994,-0.3061547198,0.9574749563,0.1805890763,0.9672229028,-0.7847369936,0.8074383543,0.1021998162,0.6075774059,0.3749732346,-2.7234759737,-1.0245134016,0.5280566128,0.1542473056,-0.2958225016,-0.0533595941,-0.9900192335,-1.3439583118,-0.3721342759,0.6886478477,-1.2062593006,0.6534288631,0.4983357174,-0.283645703,0.8624846634,0.3963352074,1.981341538,-9.7263591255,-0.0795567257,-0.6489070277,-0.8865018655,0.6525330027,-13.8067050609,0.7154365755,-0.7173380254,-0.8563371143,0.6951564828,0.2332389195,0.1790782089,0.7439909086,1.0613398201,1.1579725087,-0.1068723963,-0.4410867438,0.0305285047,-0.6626632351,0.4192180165,-0.0814573629,0.5552737808,-0.3717498558,0.4447208199,0.1482350856,-0.6041570608,-0.0376822509,-2.6911318266,0.9427143114,-0.3134438952,-0.3803389946,1.0831240134,0.0492323773,0.8190653552,0.560138673,0.74296993,-0.5013557091,0.7629490871,0.8174919244,-0.370116681,1.0275623093,-0.1686090929,0.6768637669,0.9046979253,0.9424928285,0.8724593469,-0.8909029848,-0.8515921797,0.16431461,-0.1724602804,-0.9165689943,-1.0083475121,1.6449453511,0.1646542309,0.5996660158,0.8309415333,0.320765634,0.8369708011,0.8309192554,-0.5722852033,0.2323514368,-0.5892562951,-2.1273994814,-2.7163726276,-0.6455685434,0.0278583641,-0.6945932926,1.0267923659,-0.706087043,-0.5021495751,-2.1790332663,-0.3746586968,-0.9745197689,-0.6591267398,1.2551236901,-0.5904622674,-0.1017734649,0.7460910477,0.8158119354,-2.638340418,0.1041137034,0.464188827,0.1718853429,0.0555480573,-0.0726583806,0.6937102069,0.3820113316,0.432978208,-75.8992397335,-0.2872486757,0.7136417288,-4.5236287731,-0.5449132337,0.5602234087,-0.7858135673,0.6331484477,0.7400717259,-0.4756705946,-1.0742495749,0.9936364964,0.0567188965,-7.3775696471,0.7346442935,0.3838038249,0.3749663252,0.0321749446,0.409846343,-0.3822305827,0.9800774171,0.7646110427,-0.4455843046,-0.5998461245,1.2399643687,-0.4792404925,-6.7416393885,-0.750369224,-0.0588675187,-0.4387176311,-0.2340915586,0.3807353879,0.316263184,-6.9939232138,-0.075583697,0.4723228846,-1.678575104,-0.1268133712,0.6882647491,-0.9371757752,-0.0186875542,-0.8368711588,0.5305936501,-9.7459154428,0.4101727317,0.7936414046,-0.1066398876,0.8683076013,-19.6328589566,-0.0278822782,0.4665425742,-0.4892385194,0.6535597317,0.8429611287,0.4850374653,0.2749065922,-0.6645339681,1.2211193549,-0.010399849,-0.4546344166,0.5630569229,0.7171880046,-0.0441322552,0.9757641089,0.8411441377,-0.3867949211,-0.3652130723,-0.856297565,0.4227077675,-0.2716799318,-1.7084584661,-0.9617602671,-2.0140421444,-0.6084018078,-2.4837159908,0.779601621,-0.7339104579,0.7920767068,-0.1767712966,-1.1064659439,0.2476494937,-0.2501704015,1.704563424,-0.6884385757,0.8296820782,0.8713305962,0.8888505021,0.4244236838,0.6097638997,0.5078954793,-0.214989204,-0.1420893084,0.6997881652,0.7532924613,0.1131900762,2.0432786104,0.9470628287,-0.3266702091,-0.3535178899,-0.8252656631,-0.8049477451,-0.5077134131,-0.4457563723,-3.498771687,-0.6755906315,-1.2684685357,-0.4350381582,3.8888127046,-0.2163970076,-0.6676240819,0.1442179284,0.3795488366,-0.5701526591,-1.4079781985,-0.598484679,0.2204068438,0.4585104595,-0.2512465069,0.1191279003,-0.6549637902,-0.4775217395,0.6533178658,-1.2565114897,-0.0798469576,0.3282451535,-0.0131288107,0.2340979539,-0.0986749644,0.6885035008,0.1574624143,-0.2337605558,-77.0852301042,-0.2288588075,-0.1484917775,-5.261589135,0.0266335458,-0.5786660343,-0.9179288471,0.75218656,-0.1891984904,0.8483436949,-0.0757972552,-0.5519827481,-0.797118366,-8.5328112832,0.5962614338,0.9108161693,-0.9118335924,-0.1127508799,0.5706334056,-0.2974486217,-0.1087620793,0.4381725482,0.1510608944,0.9356669,1.0604286801,-0.7061352267,-9.9751153361,-0.0032102355,0.7615912418,0.0317443079,-0.8318984796,-0.1040345792,0.131993196,-7.2470348099,0.8302523354,0.3761944338,-0.1083675904,0.6749419786,0.7764534289,0.3592108638,-0.4196820026,-0.4113223041,1.6637875318,-9.5302766781,-0.4920200878,0.5783027894,-0.4126495737,0.7346988333,-20.6353995474,-0.6616904688,0.8500844862,0.8191062801,-0.0172403533,-0.7918781671,0.4845437905,0.6841656657,-0.3773208007,1.1799930293,0.9488173829,0.4657878032,0.8898083264,0.8189210021,-0.900317276,0.2418708978,-0.7702834203,-0.5411814998,0.4137238139,0.4844776341
