encog,BasicNetwork,java,3.4.0,1,1615194568604
[BASIC]
[BASIC:PARAMS]
[BASIC:NETWORK]
beginTraining=0
connectionLimit=0
contextTargetOffset=0,0,0,0
contextTargetSize=0,0,0,0
endTraining=3
hasContext=f
inputCount=130
layerCounts=1,131,131,131
layerFeedCounts=1,130,130,130
layerContextCount=0,0,0,0
layerIndex=0,1,132,263
output=0.0283803314,0.6831235644,0.9913432442,0.0297338403,0.9056667906,0.0018515333,0.7575228265,0.0026961288,0.0043694799,0.9355696906,0.0026798874,0.830248666,0.0059305705,0.6687466778,0.0023528068,0.003807026,0.8199490995,0.9678918331,0.1928655505,0.0322570521,0.0012573534,0.0034973709,0.6677525155,0.9848886029,0.0337482446,0.6548596762,0.972795288,0.3786079534,0.052684832,0.9959277748,0.0146600038,0.8692094606,0.0426521001,0.0029121555,0.0005240571,0.0155463777,0.6196806546,0.8343601745,0.9851222063,0.9988358362,0,0.0162840794,0.9912557005,0.9952608305,0.0039991229,0.1467085667,0.9444573943,0.0040577821,0.0487341883,0.1104768019,0.9980925737,0.9530783084,0.6573140619,0.3031837676,0.2040637528,0.3259886156,0.0051501865,0.0000000044,0.0541601162,0.9404632474,0.9221642672,0.9991032421,0.0022286419,0.4198814447,0.9652228966,0.9715854439,0.9997959609,0.086321733,0.5804382728,0.8267051966,0.0101688188,0.670639423,0.5750975838,0.7382098917,0.9980829677,0.0094859718,0.8927487636,0.0943680974,0.957757781,0.0957583756,0.702586545,0.0004009152,0.6775379723,0.004298754,0.9987037349,0.0062692985,0.353989733,0.9450879397,0.1260434501,0.0332843503,0.0003811452,0.1440794673,0.074918781,0.0336260972,0.9985708362,0.0029545463,0.0039097164,0.995622314,0.2289489373,0.1532533616,0.7095421263,0.9915875573,0.0041170806,0.0358956195,0.9262489454,0.0027140227,0.0676119405,0.9800166774,0.4666333103,0.9902421776,0.9899768768,0.9837251247,0.8917181574,0.0062952529,0.9073113923,0.8561800979,0.0492869133,0.988145146,0.2590567055,0.3609846715,0.7123771774,0.4592649114,0.6883036359,0.0148133194,0.2942010582,0.1090326651,0.2047557675,0.0135398979,0.9237766042,0.0177940644,0.5551415952,1,1,0.0000287884,0,0.8455611719,0,0.9225316835,0.0171174687,0.0798950886,0.0000000009,0.0025601407,0.3001961656,0,0.0004588966,0.004145494,0.0000870163,0.1132280984,0.9953683052,0.077368071,0.1815899081,0.00740781,0,0.9628268836,0.5368809261,0.0002533847,0.3865420917,0.0061116873,0.9998636359,0.0000000128,0.9993740473,0.0103034492,0.9998623371,0,1,0.022415512,0.0000575265,0,0.0005404463,0.7614472136,0.0889624301,0.2597601749,0.725761382,0,0,0.0000010034,0.0017024028,0.287115267,0,0.5858566249,1,0.1350455721,0.0018928892,0,0,0.994800267,0.7145148023,0.2132593265,0,1,1,0.9400357554,0,0.0031122759,0.0004440829,0.0002818966,0.0893196388,0,0.0047338806,0,0.1405630901,0.5901863943,0.9938407974,0,0,0.0000000376,0.998845988,0.3978918045,0.7801344425,0.0000930014,0.6298185451,0.996946458,0.0315570326,0.0054203488,0.9832635028,0.7699313383,0.7752763269,0.0000003512,0.0077745642,0.475015781,0.0000000008,0.0000122059,0.0000000661,0.0012268455,0.0030297804,1,0.0000093607,0.0000348184,0.9904496891,0.2797950946,0.0042353254,0.0002148951,0.9992673769,0,0.0042197387,0.8089179029,0.7367313053,0.0003110415,0.0000026435,0,1,0.4911300908,1,0.0000374333,0.1558430931,0.8272989844,0.0098067795,0.2022204782,0.5042148529,0.0151559486,0,0,1,0.0001179443,0.0490428901,0.6581232674,0.0049371245,0.0000832672,0.0000002208,0.7111319375,0.0353494644,0.9924376357,1,0,0,0,0,0,0,0,0,0,0,0,0,0,1,0,0,0,0,0,0,1,1,1,1,0,1,1,1,1,1,1,1,0,0,0,1,0,0,0,0,0,0,1,0,1,0,0,0,0,0,0,0,0,1,0,0,0,0,0,0,0,0,0,0,1,1,1,1,1,1,1,1,0,0,1,0,1,0,0,1,0,0,1,1,0,0,0,0,0,0,0,0,0,0,0,0,0,0,0,0,1,0,0,0,0,0,0,0,0,0,0,0,0,0,0,0,0,0,0,0,0,0,0,0,0,0,0,0,0,1,1
outputCount=1
weightIndex=0,131,17161,34191
weights=##0
##double#34191
   0.5342483764,-0.1484156756,0.8525394368,0.711873615,0.2849402762,-0.6957122256,0.277737117,0.5387569838,0.1704726868,0.4972302307,-0.9662006425,-0.1306276946,-0.8709408939,0.8427045585,-0.3120231955,-0.121654025,-0.6619096694,-0.2299003133,-0.6322729273,0.9755227234,0.0328880803,-0.774135881,0.8402980953,0.3434450083,0.4046981201,-0.8714559029,-0.7826811564,-0.8788570625,-0.4854877873,-0.9374430338,0.6478572443,0.2165280288,-0.1436623285,1.7210211445,0.7340528746,0.2326451215,-0.58635302,-0.9915148407,-0.8238280447,2.5876326175,0.2643714116,0.5671845412,-0.6155155051,-0.2918749719,-0.070153917,0.7666858756,-0.5276328691,0.1740509893,0.7108984525,0.2169899016,-0.3327108217,0.2573105323,0.7788633888,0.2540785814,0.4339978617,-0.7746050462,0.0816678345,-0.6132089641,-0.1303095661,0.6973906831,0.4668174906,0.8630114584,-0.9672196891,-0.2137257904,0.7705776075,0.58842251,-0.3401837437,-0.4758025594,0.9556116982,0.3147071883,-0.3285685587,-0.327886938,-0.146893795,0.1866672716,0.2781114256,-0.4607167267,-0.5032822697,-0.4110917947,0.6421395697,0.1744702664,0.0398891475,0.8199951485,0.8454429416,-0.8235994794,0.4911207992,-0.3102013959,0.0534015014,-0.1852866453,0.3702143495,-1.3868311248,-0.5171906004,-0.7092834311,0.6044450411,0.650837776,0.0876574005,-0.2309204231,0.6090472028,-0.4917770265,-0.2876673894,-0.7599522968,-0.9143995523,-0.3313778826,-0.3138433895,0.336022293,0.8153199597,0.8142099208,-0.6892520175,0.690860358,0.6762708905,0.0617791456,0.3468755365,0.321626209,0.7360631726,-0.7450558467,-0.7425688065,-0.7965188203,-0.4737319529,0.0844726022,-0.5844897571,0.2792587301,-0.3444736626,-0.5625894205,-0.394008384,-0.5316388685,0.6931906145,-0.1732715244,-0.1343918826,-0.3453046341,0.2392017384,0.1053531293,0.5281145421,0.6417419705,-0.1845537919,0.7540364011,0.0384012775,0.1997663112,-0.8524934858,-0.2053256897,-0.7961004248,0.6859169681,0.3953561305,-0.4705656756,0.0331610097,-0.7006175895,0.7326566238,0.6974624055,-0.5438930282,0.6011585045,0.3787067982,0.0915457357,-0.7054110059,-0.9516772496,0.5749762846,-0.0542436176,0.6882956581,0.4129985166,0.7530329311,0.951784099,0.6949061679,-0.9523187746,-0.3587525261,0.2452465496,-0.5647512377,-0.7737153134,-0.6934838577,-0.8670083902,0.1876348143,-0.3513492846,0.2750178871,0.7665834682,-0.8596027674,0.908066131,11.0310222964,0.3453208704,0.5752082728,0.6128290363,0.7320346779,-0.238527255,0.8884824108,0.5777261733,0.4045138913,0.9084140042,0.7652687703,-0.4185583582,0.4246277732,0.2179908966,-0.9129978279,-40.7224983547,-0.3758131609,-0.3933599698,0.9130509721,-0.8178599435,0.7804669124,0.7413036403,-0.6146408735,-0.3236076418,0.5420633857,1.0008072373,3.1703482207,0.3372936332,-0.8378392338,-0.3477003297,-1.8337517241,-0.4722655992,-0.5480613741,-0.4123521869,0.6286905128,0.4256614569,0.9044816692,0.9338951728,-0.5590863251,0.0567626634,0.8349930101,-0.1654050779,0.4650774464,-0.785690662,-0.3289793168,0.9120687016,0.1765772303,1.2719912396,-0.9462340313,-0.0759226963,-0.3125048632,0.1907080065,-0.6445501704,0.2073070124,-14.1076546504,-0.5370455627,-0.2111096114,-0.6623819267,-0.838566796,0.7767354225,-0.2104667812,-0.0003280726,0.4050087493,-0.6514358288,-0.4787174371,-0.1618523371,0.3656118544,-0.8450028149,-0.3209124237,-0.9817576063,0.3930201693,-0.8955658069,0.8683439566,0.1686072661,-0.4134046945,-0.0194943116,0.8792197594,0.468528503,4.207733525,0.0958300105,-0.8849014879,0.3425207185,0.9983408256,0.8598504767,0.7537255895,0.6561895806,-0.0378209404,-0.8684502419,-0.6494235135,0.7716271988,0.8692824266,0.070047532,0.2765378387,0.4890240471,-0.9606531137,0.8245622672,0.8481881679,-0.6369384591,0.5354699711,-0.3393913174,-0.1594374552,0.069535109,0.6080837571,-0.0654345127,0.9123383601,-0.5087921702,0.4940022105,0.0224218576,-0.9942435055,-0.0709792462,-0.2760931853,-0.5837102068,0.4774188243,-0.9055892168,-0.833076731,0.3182533933,-0.4052287474,-1.076453681,0.8910031084,-0.3244178422,0.9940652141,-54.1517833033,-0.2924581647,0.5329593205,0.8216398186,-0.1809459617,-0.2552090898,-0.1235798624,0.3378231871,-0.0188247867,0.4270515956,0.5748835008,-51.4822307674,-0.6893332338,-0.3652272626,0.0537081995,0.5369035307,-0.322926578,0.0845781954,0.1964934624,0.0575907036,-0.8863630284,-0.1714191277,-1.0134502322,0.9160187807,0.3982106136,-6.697493448,-0.7486328028,0.863182875,0.1546605507,-0.2350970893,0.0387489633,-0.8087698448,-0.9213669772,0.7153501406,0.4242508424,-0.7966459652,42.4776104708,0.9330256348,-0.3644520506,0.3454308546,-0.5792433871,-13.7711523737,0.0908262126,-0.5978170925,0.3927314226,0.2745730763,-0.6884537356,0.5098076045,-0.1678402957,0.6548196637,-0.0273461269,-0.1592326503,0.3037876221,0.0585527014,0.762997288,0.2765585924,0.1234383439,2.1408306117,-0.6182167799,-0.8960172561,-0.680794028,0.2524437031,0.2555831973,-0.3740187081,-1.2102551722,-0.2466419265,0.0556182473,-0.5633768788,0.1238153816,-0.2682275142,0.6764650983,0.1769456217,0.1069790539,-0.1439936975,-0.2224939484,0.0765394446,5.228112713,0.1152082045,0.0682307028,-0.4335830441,0.000665205,-0.8254787903,-0.0261866359,0.4199965005,0.6585491603,0.2390571302,0.1021387672,-0.5541325258,4.1166715517,-0.2860857956,-0.7171645035,0.6759519905,0.2682023637,-0.601612417,0.1745030613,-1.0793424834,0.5129416707,0.5139544715,0.8115140213,0.6686515682,-0.3693254596,0.5838708411,-0.7552645113,0.4018461034,0.8251698112,0.6801206006,0.882184124,0.0236304631,-0.8820790809,0.4301950082,-0.7880920966,2.3243705674,-0.9697194086,-0.0892197915,-0.8153624365,0.9111373096,0.4606490994,0.2524538496,0.3369534294,-0.7778678547,-0.0507145354,-0.8513017368,-0.1760724947,-0.4637011459,-0.4992627325,-0.2450980964,-0.9589120085,-0.7613475647,0.0561863897,0.8597111371,-0.1777472939,44.0675901177,-0.1151276637,0.4647588461,-0.9296335176,0.7338915045,0.2927042553,-0.3488324508,0.8689020008,0.7778953897,0.442057215,9.7301331535,-0.6655323657,-0.0665969143,0.5071286692,0.0474842832,-0.2282717909,-0.0928111203,-0.2322236402,-0.2509881616,-0.3110012208,0.1679792333,-0.8288201272,-0.5687738345,0.8942338417,-0.9535441283,0.7726104191,-0.394108919,-0.3541864372,0.1907915145,0.3932947851,0.248270568,-0.8267114549,-0.0398952623,-0.3555983361,0.6513567842,0.9747658373,0.9240179573,-0.8169581003,-0.4990893131,-0.1298209564,0.0999557459,-3.6049080579,0.5433686,-0.4404439316,0.671123176,0.7813557435,0.7843768506,-0.3773428076,0.5041937299,-0.3715721296,-0.4821810897,0.5847625499,-0.6122657326,0.2729954531,0.2734953057,0.7442801158,0.5198693479,1.2666943134,-0.743008009,0.7153152612,-0.400984186,-0.1471071085,-0.9621351753,0.78298654,-0.4170841482,-0.3183555239,-0.0535773263,-0.8739974941,0.398816023,-0.9461062448,0.1935132021,0.5613080905,-0.337011826,-0.5100937282,-0.4804260934,-0.8615047573,0.9710895504,-0.4111629309,0.7486115462,0.3664755577,-0.1747274381,0.7458380138,-0.0283632988,0.0669993074,-0.2908337283,0.1796216939,0.936037573,-0.5350023233,0.1312341675,-0.0572168971,-0.3299696066,-0.8115309297,0.8131342564,0.5822803048,-0.8593074855,0.6758245099,-0.729694214,0.3748190921,-0.1892932898,0.4443456385,0.339271272,-0.7218653176,3.0031023432,-0.7127499275,0.7922539928,-0.5277354076,0.2231363408,0.1859059592,0.4161129195,-0.3191234963,-0.5696008014,0.0262656011,0.1952468668,-0.16202954,0.7036920428,-0.7886328143,-0.9112310301,-0.3806518834,-0.1883127288,-0.5172138626,-0.5920226699,0.8002666245,-0.956462243,0.0694875136,0.4093392791,0.1450839845,0.8853786422,-0.4600247701,0.3848474171,0.6637745983,-0.3865514411,-0.8570294739,0.9384171555,0.6239090658,0.9882693557,0.7768163355,-0.3745731662,0.8535225122,-0.3613904703,0.6324719249,0.4457828094,0.3414725321,-5.9722799217,0.5778166507,-0.9706944171,-0.0536681631,0.3098228419,0.0196744631,0.9527569936,-0.3380070042,0.469898342,0.6267434124,0.6280195718,0.2463949342,0.367133287,0.1781258359,3.8336899584,-0.7088662975,-0.5334826889,0.2395783326,0.2168428115,-0.085305285,-0.6619223197,0.5881512171,0.0208387974,-0.5629979558,-0.4660239926,-0.3858548761,0.2593702908,0.9985738909,-0.6780476553,1.6725285654,-0.6348019081,0.680534632,0.3883818908,-0.3691821857,-0.0729639068,-0.0074974443,-0.0774270858,-0.4074947658,-0.7048117845,0.9943433215,-0.9566601775,0.8078658608,0.3648016973,-0.7535092445,-0.5782922151,-0.5530003781,-0.2692396502,-0.8562753673,-0.567181604,-0.8827677608,0.6782655136,0.0718750123,-0.3862199174,-0.5001336106,0.4301402149,0.8282408187,0.7465129339,-0.9042623497,-0.7678895859,0.5684529981,-0.2401807502,0.0802602354,-0.0062558454,0.8870922563,-0.0257162023,0.7538996057,-0.0022406043,0.7008541868,0.2816237933,0.8291960675,-0.8206684334,-0.0535225738,0.2276673965,0.1803454175,0.6326438331,-0.7157923321,0.3060947673,-1.4227786368,-0.7592173095,-0.5650526507,0.5175654956,0.471357977,0.5270896034,-0.8238383359,0.3189209893,0.9497742746,0.4598601511,-0.7520436896,0.7259222344,-0.0231954522,-0.8613168059,0.1392927647,-0.5375457112,-0.5553851783,0.6066315011,0.6063675497,-0.9531878158,0.4763503852,-0.0014331581,0.4781890419,0.7003746273,0.3036310381,-0.0476416476,0.6671989644,-0.7988533868,-0.7987126071,-0.9479501672,0.2276353537,0.3878500652,-0.0057558202,0.4581268996,-0.1479819498,0.4854227095,0.2538479456,0.3481605906,0.471706535,0.8175186513,-0.8055869286,0.8528870876,-0.7052423978,-0.1549461744,-0.9935576439,0.5928935831,-0.8383839263,-0.296969942,-0.7760226387,0.6437522657,-0.4488804672,-0.457384099,-0.8336043602,-0.8234818745,-1.7677817381,2.2858570504,0.1043011338,0.523269647,-0.1769585745,-0.2528585225,0.4013372265,0.8483328722,-0.7408538882,0.2541546407,-0.8850460531,-0.7503371609,-0.085917119,-0.6807455266,-1.4206410755,0.2437592466,0.0995628281,0.2529351943,0.7748821879,-0.7581315384,0.2957533057,-0.6849887165,-0.8486764611,1.123454419,0.2121886769,0.2461154258,-0.2184039062,0.2317755224,0.5008463057,0.1531765982,0.7854048302,0.8211332741,-0.7246652997,0.1924194537,0.7808099383,-0.7931749875,0.9113828133,-0.7343195919,0.5891838492,-0.7166344525,0.1607279174,0.188715671,-0.0530798156,-0.9492763866,-0.4988298416,0.0186810368,-0.0769320114,0.3116117712,-0.2850480541,-0.712896876,0.0205840933,-0.3748362515,0.115062711,0.8454216677,-0.1784169963,-0.7698075909,-0.5851833653,0.2413377565,-0.2799139539,0.6363346964,0.1549529605,0.3862259971,-0.8262149793,0.9712824586,1.0363956346,0.0689107481,-0.0357654234,-0.720906088,-0.8718869649,-0.1487390171,0.8815020049,0.7060126209,-0.9168268684,-0.8384029707,-0.6938852803,0.586352393,-0.1038710777,-0.119822717,-0.8455385003,-0.1070042113,-0.3013937512,0.2248136242,0.5121151539,-0.4150769892,30.1136343,-0.8252102005,0.0505768181,-0.1562888559,-0.6150285184,-0.8947692137,0.8806965042,0.7455781984,-0.8001439547,0.257221058,0.2440055376,0.3615585533,0.6638226234,0.9076482266,0.8876297469,0.0473577985,0.5358407884,-0.6913222036,0.959386815,0.3211052484,0.2260682233,0.3154017207,0.8156116481,-0.8135260933,0.0272275781,0.2778946962,0.1364734453,0.2105008851,0.8541722907,-0.9164453827,-0.0272424877,0.1340556444,1.0955564375,-0.035861624,0.6739737065,0.2505801618,-0.2471207713,0.7516024681,0.0258609707,-0.0702058306,0.2109618989,0.757372196,-0.2624661117,-0.7075020587,-0.7026109953,0.3143324995,0.1419112766,638.5751873575,-1.1699224239,0.7751446031,-0.8575815369,-0.488060605,0.6820839982,0.1643253401,0.5492478124,0.293138549,0.489671738,-0.2500542232,-0.9486705935,0.1376604815,-0.8209733648,-5.1187545648,-0.0524297379,0.0428355552,0.0561532638,-0.9697176801,0.5408401945,0.223023705,-0.3252592339,0.6947883246,0.1095998913,0.3138847205,0.0317381943,-0.9197778333,0.8770649231,0.8208140016,44.6204206697,12.035379844,0.2439655455,-0.6676396665,0.4599773186,-0.1913201056,0.6321070928,0.8806509077,0.5671536914,-0.1846294362,-0.510174433,-0.6746051357,0.8917186752,-0.7809231905,0.7738320689,-0.2016477906,-0.562351884,-0.9854595687,0.0340795861,0.4012511137,-0.8084711206,-0.887364319,0.5584737481,-0.7700753691,4.26833624,0.0955356499,0.9982901401,-0.0811412355,-0.3744203167,0.6317220497,-0.5961435671,-0.7029414225,0.998783605,0.9492025613,-0.4966056774,0.8615544181,-2.4330588653,-0.0225672928,-0.9620727434,-0.8352871923,-0.0719731006,-0.5644666503,0.7800488269,0.796187782,-0.0728950883,0.5397326478,0.8200568426,-0.1952239305,-69.1285474297,-0.5219110855,0.6777132437,0.144950668,-0.9565149577,0.2340838856,-0.7788223464,0.1588127329,-0.6608664515,0.8971007369,0.0762957075,-0.0066668746,0.2722655994,-0.9273171633,0.7912057119,-0.232595384,-0.418320452,0.2556436691,0.9568715066,-0.6588769477,-0.2121841532,0.8171956752,0.0186344512,-0.6833788408,0.3625663154,-0.6900227613,-0.3612689893,0.692309347,0.2817295201,-0.9647439221,0.6835400609,0.9171354179,0.6619361019,-0.6261218317,0.1637889302,-0.3603662613,0.6790608424,0.632178158,-0.6736233563,-0.7409081156,0.094353724,0.9970407061,-0.9616997486,0.2685614045,0.6744420934,-0.1318191875,-0.2780951123,-0.5839792585,-0.2743497972,-0.9625393254,-0.623081553,-0.7981796266,-0.209496768,0.7760526649,59.8927168542,-0.3188175573,-0.6904529472,0.1590036754,-0.4540781221,-0.6726374475,0.719496011,-0.7338160056,0.963054759,-0.3005408503,-0.0915655205,-0.8830614787,0.1396872244,-0.0059677734,2.692626897,0.4167532542,-0.8959730582,-0.5424313951,-0.07147873,0.7422964275,-0.2702976945,0.4573495851,1.3798448428,-0.3642580195,-0.0138584062,4.5361005608,-0.2571508503,-0.5543165899,-0.9916645084,-1003.269179192,-0.2419483652,0.1497327722,-0.8892595138,0.954177189,0.7490234974,-0.3025026804,0.3021198527,0.141339497,-0.4609367039,0.9716684279,-0.959609254,0.5446486056,-0.64769586,0.1152334778,-0.2258099105,-0.1988671365,-0.1970264154,0.2820265435,-0.3777493452,-0.2791827979,0.8041209394,-0.8373071558,0.3175322,-55.6253911543,-0.6535847879,-0.5630517934,-0.2607155865,-0.3903896233,-0.691837046,0.7558588534,0.0979602812,0.7057401885,0.3488629849,0.3301870326,-0.738593076,-0.5772788081,0.4326931517,0.1067696883,0.1896835726,0.423117749,-0.1444354891,0.7859123863,0.3704815537,-0.4715850761,-0.4368393418,0.3612347204,-0.0105919493,-1.0852229973,0.2869037127,-0.5015166673,0.3156839112,-0.8376319423,0.0640457029,-0.1225684601,-101.0870628783,0.6307548223,0.9916503621,-0.5889155378,-0.0484810075,-0.8168684414,-0.9969316969,-0.5257666022,-0.939285475,-0.3190782258,0.6744922415,-0.3486717347,-0.5797269725,0.6269425516,-0.0675902017,-0.1233199131,-1.2027956367,0.9902483209,0.5716632128,-0.0809764221,0.9239477083,-0.3640452574,-0.8255590364,-0.5095262427,0.6987323634,0.9586098166,-0.0871720459,-0.2547252455,0.3139288338,-0.7403825578,-0.3398009897,-0.3259323692,0.1559259788,-0.0011601695,0.4086742673,0.0266187077,0.1317744083,0.7610739251,0.7742817237,0.3107211631,0.3443744305,0.403778053,0.1826646985,-0.0004619991,0.5227795538,0.7324909955,-1.201356263,-0.5030678928,0.762013118,-0.6590041786,0.7111557926,-0.5121959936,-0.8353058542,-0.8460639842,0.2827673479,0.8667267853,-0.4745829724,0.1134459941,-0.5879687703,-0.9323695283,0.7493973503,6.1773158764,-0.9070909281,0.882446056,-0.1607798384,-0.4430246104,-0.6805976324,0.9497545609,0.1384024787,-0.9633097564,-0.505018668,0.3497501824,4.189129224,0.0912541189,-0.3933733819,0.2318874471,1.2295082655,-0.8204345623,0.1401280411,-0.7720695934,0.3691397134,0.2895645948,-0.1977719214,0.7773512717,-0.7048618956,0.4651308489,0.0413592332,-0.1888300067,-0.6397921275,0.1909156033,-0.4589987307,-0.217648239,0.5503316923,-0.6741943112,-0.3333311138,0.3811912995,-0.7648301944,0.2963669274,-0.8140351217,0.124730933,-0.7772751923,-0.3158474173,-0.013891941,0.0501383349,-0.783195071,-0.9481478072,-0.0386775802,-0.961967093,-0.4234272248,-0.4550061536,0.5291445682,0.5639162803,0.3083363576,-0.1291853431,0.6835039575,0.4663117692,-0.7056009934,0.747487478,-0.7215941433,0.0582776834,0.2224684999,0.8822238605,-0.8529791777,-0.9588238487,1.1073438564,-0.0066112278,-0.5409855202,-0.2074362064,-0.4592618075,-0.728579347,-0.4982173229,0.5519893414,-0.2566312569,-0.1735223553,0.3785066185,0.8032653306,-0.0143339665,0.0676758726,17.6378183962,0.9135944602,0.7773421532,0.5781488062,-0.3572443556,-0.7137327294,-0.0589333204,-0.3665868993,-0.6385287533,0.2346797272,-0.6807106498,-0.8420579635,0.2888225693,0.0400256637,0.9604060339,-0.1219571884,0.2052354347,-0.347961772,0.8580725372,-0.9365616676,-0.9892943407,0.6347837346,-0.303032376,-0.8728575216,-0.4419300071,-1.3208670347,-0.6752124799,-0.3150112945,0.4400932865,4.3416148722,0.1734603811,-0.5662975504,0.9572821238,0.6356700823,0.2267511199,-0.2557616663,0.4539608694,0.6753743423,0.6238007359,-0.9131653653,-6.1958304085,1.1980601743,-0.412661176,-0.6048698488,0.2339364276,-0.548170211,-0.7524193851,-0.5736655005,-0.1272391102,0.2041913828,0.7539346909,0.9711908222,0.8449875654,-0.1991911925,119.9761562565,0.0220358791,-0.3208065156,0.5348495478,0.917662302,0.4924361723,0.6756316977,-0.6881929722,0.385208871,4.2379892113,0.4371567944,1.950527573,-0.0933964583,0.1302534444,-0.6058530721,1.6782954525,-0.0209261072,1.1456187896,0.7254812552,-0.7361140301,-0.2030247694,-0.3707933684,0.2833199571,0.4777376403,-0.3309810654,-0.1266616866,0.0002007736,0.933517678,-0.3050923744,3.1389470149,-0.8337819453,-0.745563831,8.1858503774,-0.7912625763,-0.1671398659,0.4960158901,-0.9241783986,-0.2828059268,0.6364821148,-2.08802128,0.7188733895,-0.6678563588,1.0456457584,-0.0081625152,0.9583397511,-0.5682981153,0.9310816619,-0.1043791368,0.7110359198,-0.4955714456,0.40118156,1.1703333937,0.4758174451,0.0266101464,-0.097610577,2.0317574113,0.3345802692,-0.2263882696,0.9914131797,-0.8960203447,0.0750906335,-0.1237602219,-0.1389875098,-0.6291387505,0.1149230335,0.8344869652,0.2965412074,-0.3991284096,-0.7793990624,0.086491005,3.3285657811,0.2102560699,-0.6015063555,-0.7036821383,0.2549616019,0.6002146401,-0.0262191707,-0.3759544621,0.2954873741,-0.3843943462,0.0913321488,-0.7082688676,-0.515065345,0.0747195439,0.774098555,-0.6642659545,-0.5990221795,0.7529606923,-0.2404345171,0.5933331482,-0.3775554888,-0.3337259775,0.7853516229,-0.6784556133,0.4339970184,-1.0843137888,-1.1775165462,-0.4392031944,-0.793094521,0.2671378774,-1.0593405483,0.1300668647,-0.8595011696,-0.5885481407,0.5087075747,-0.14596038,1.8124352094,-0.5785790901,-0.2128043449,-0.8021736996,-0.9606628827,-0.5757084677,-0.5331610434,-0.6833568979,-0.9453058753,0.1324007616,-0.7949393174,1.9462388153,-0.8882836573,-0.1043945202,-1.0596794352,0.4161161895,0.1826268584,0.4271487654,-0.2462339207,-0.0702615118,0.1385649334,0.2816187845,0.4110017129,0.5318375061,-0.0272040382,-10.8373673912,-0.8458500952,0.3861831573,-0.4591341949,0.5057245545,0.1307259977,-0.7469860042,0.2668399297,0.127363185,0.4780317977,-0.4931809394,-14.4671004678,-0.3660508767,0.4090554285,-0.1444564549,-1.4621120193,0.4446635159,0.0886136062,-0.5917260391,-0.2350856931,-0.8231361636,-0.9554520814,-0.5527017805,-0.4835169168,-1.1157028637,-0.9337143022,0.3867684562,-0.8917008839,0.1535499687,-0.9354925192,-0.1672814718,0.3637011665,-0.9701459079,-0.178195733,-0.4290470771,0.7273844694,-0.6989489692,0.6366878642,-1.0694954914,-0.8067664762,-0.7070375538,0.4922896997,0.6946758915,0.3970580458,-0.7546741279,-1.0805295668,0.052962861,0.1050203379,0.4968060562,-1.161043046,-0.7274315584,-1.2130615758,-0.3056895327,0.2278341248,0.2381764656,-0.4120773283,0.2045937103,-1.0382203193,-0.268782909,-0.5629759514,-0.1459383567,0.2948960989,0.3085162024,1.3627651712,0.1634651174,-0.4491827359,-0.5186942542,0.0605624102,-0.3904690142,0.7128828968,-0.8420408807,-1.0251932656,-0.7476972267,0.1249421859,0.6240008588,0.0220623932,0.6421511963,-0.5611714591,0.77274767,0.5386248867,0.017074966,0.8796988086,0.1000886801,-0.9621330221,-0.8426525795,0.4089378149,-4.3173267376,0.5263368891,-0.2787091356,0.5034741579,0.7343403474,-0.125774892,-0.645208373,0.4077633572,-0.0664252507,0.6909598807,0.6813241743,0.0891959248,-0.6023093574,0.1341658782,-0.3389463425,-0.791072515,0.3292221695,0.7609245546,-0.7410249712,-0.2702618059,-0.8112299293,-0.9603022077,-0.8531321266,-0.9908742448,0.0289911406,-0.3339907292,0.1824573522,-0.9692779087,0.0457564413,-0.7562071707,6.7378484206,-56.9238307491,8.4654778226,-0.5457653914,0.4862995263,0.3942019768,-0.0099278676,0.1769886343,0.7547681293,0.6140769824,-0.498995171,0.7913816173,0.8680393411,0.3998932663,-0.2907668055,-4.8783121516,0.866802981,0.6045665944,-0.9411752566,0.3511473748,-0.2619759448,0.9541049818,0.2149278593,0.5747594297,0.9022468269,0.914259405,-30.8327618144,0.2597267062,0.3866741708,-0.6902486287,-0.0562046763,0.4271030056,-1.1775904979,0.2891393856,0.5181603996,0.3109875915,-0.463934969,-0.0862817227,-0.8857645054,0.7900087656,0.9181895171,-0.0263699701,-0.4615817323,-0.4189185683,-0.8132680559,-0.7955323937,0.5056100886,0.3684269639,0.9467633806,0.9777140452,0.4023555024,0.3644719276,-0.0298228262,0.1070209471,-0.4547446201,0.6224112375,-0.0516366397,-0.653947083,0.7761981406,0.040130108,0.2417011594,0.5199392113,-0.9486827384,-0.6808849426,-0.9799412378,-1.1675782608,1.0983604046,0.183060519,-0.7307155856,0.0586272105,-0.8000907473,-0.9797328815,0.3415207054,-0.6189332487,0.5821049641,0.4611746799,-0.2546342575,0.3212159167,-0.0496796566,0.6742088693,0.2606263157,0.1223495207,-0.5199727993,0.3433470239,-0.7451196161,-0.7890987108,-0.9215816082,0.396794607,0.3480921803,0.9708035711,0.1443922669,0.357539027,0.3701874254,-0.8487220279,-1.258506263,-1.0796730951,-0.2744204344,0.0341611666,0.3689007633,-0.6504476189,0.1622946399,0.3015500871,-0.1446470845,0.3921541517,0.3215915982,-0.9478744473,0.7066402358,0.5308200442,-0.4694136625,0.0884577868,-0.6918535979,0.2129940184,0.2207716461,-0.8189702833,-0.4871585816,-1.055243689,-0.9881899861,0.0185711899,0.8108516652,-0.925916111,-0.8688175935,1.3656882482,0.576842332,0.1836067262,-0.8729592351,0.7072360545,0.0249953795,-1.0961482768,-1.0604110029,-0.4318588266,-0.1984151621,-0.1424941292,0.7681943886,-2.1144668909,0.210871298,0.3115086575,-0.2823690602,-0.0085616463,-0.3226999801,0.8834310778,0.8736156963,0.768478112,0.0924575933,0.3848769275,-0.360519967,-0.7752671347,3.3947745965,0.1770142878,-0.6505893472,-0.1645841937,0.2973106343,-0.0215921911,-0.2102154397,-6.5657039701,-0.9143540237,-0.2735898863,-0.3129460988,-0.7664178263,0.8224150584,-0.626137337,-0.8342727351,-0.4633276668,0.5578979875,0.9457067043,-0.1243297973,-0.7284826629,0.6340283246,0.3579283631,-0.953870262,-0.2186209821,-0.5086586071,0.6725748997,0.8070878111,0.3098956247,-0.1130598262,0.0991983404,-0.0585242393,-0.7214399991,-1.3206994461,0.7961624476,-0.6102145158,0.5667774787,-0.2860033838,0.5207305053,-4.5240948988,-0.4418172911,0.567422287,-0.9932429908,0.2364245424,-0.5783134874,-0.2142175592,-0.9448280194,-0.2210732348,-1.0559455265,-0.1954660666,0.7838181147,-0.3664673138,-0.0608292014,-0.9266026144,-0.2623491523,-0.8058473882,-1.2180665943,0.6345789295,-0.5568468559,0.4452791989,-0.5405631055,0.742628978,-3.8423715118,-0.3524424699,-1.5996690013,0.5697145581,-2.1526079643,0.3097872257,0.8574119027,0.1149760954,0.5433987681,-10.2300007371,0.826227504,-0.4623014083,0.5932520726,-0.4075911934,-0.9377530742,-0.4308493381,0.4289759829,-0.334178573,-0.2421900226,0.4021177643,-0.7123939638,-0.1864421402,-0.0567231894,0.3921239391,-0.2406616447,-0.98479104,-0.3041417389,0.3724786213,-0.3531541927,0.8213206772,0.1242605017,-0.4072890445,-0.0019607039,0.2829847229,0.5584570367,0.7720007615,0.0917666329,0.9008563846,0.069908833,0.5204214818,0.1894557749,1.4372077645,0.2672089884,-0.9882045632,0.7313264376,-25.1178982737,-0.3136277614,0.8904424322,-0.1288732837,0.1131317211,-0.5457768739,-0.2816160214,0.4879627228,-0.2769987328,0.9970125478,0.3539556644,0.1946141763,-1.1426133012,-0.8373854083,0.7835349162,-0.6099315818,-0.3737347098,-0.6270887687,0.6232528215,0.87159818,0.2133995661,-0.3047573457,-0.9187998014,-0.7008736349,0.4364317612,7.4467557861,0.5388955053,-0.4731425604,-0.4353897019,-0.5902920971,0.5600581465,-0.2175197509,-0.2344413556,0.7390709526,-0.890357273,-0.6021878921,0.3029489687,0.8797606894,-0.8317230658,-0.4424737406,17.3744823726,7.2156883451,-0.5235322134,0.3008434234,0.9207766298,0.4713085353,0.2787505054,-0.1446895511,0.0745991273,0.3844614428,-0.957505887,0.0624119093,0.6923945093,-0.2477862881,-0.3645375369,0.1756175129,0.2796891969,0.4850637374,-0.5391463863,0.6857084589,0.3770584276,0.0208744607,0.7129576368,-0.6710393544,0.3859403479,-0.1025821436,0.593349767,0.6270592763,-0.945547451,-0.6097182534,0.6131076044,0.8845588807,-0.5029771757,-0.9470496581,-0.026568108,-0.161313861,0.4068144046,0.886208516,0.816091168,0.8095444479,-0.4092962816,-0.2788401171,0.7099129942,-0.3655560928,-0.328991479,-0.1601162634,-0.926324755,-0.4284203772,-0.8078113635,-0.3000154214,-0.3173339469,0.8048841155,-0.3073241578,0.7351645496,-0.689345278,0.6992161207,-0.1856226519,0.7881388867,0.0204291542,-0.3450002837,-0.2002287526,-0.555023035,-2.4475326071,-0.8431804752,0.9193421379,-1.0495635028,-0.6210494836,-0.1971413151,0.0021589058,0.4805624945,0.7236946086,-0.064416516,-0.0345494313,-0.107193266,0.0306781403,0.6306157734,0.6310347934,-0.7106731,-0.1160516489,-0.6256699435,0.298951846,0.3093676885,0.5831567667,0.171142587,-0.8060141077,0.5638136019,-0.8666492172,-0.570771199,-0.4607216493,-0.5820422168,-0.2668218498,-2.660811795,-0.4994925874,-0.8030593776,-0.9146539205,-0.9517420387,0.8911409457,-0.389660247,-0.6345327756,0.851588678,-0.8594595041,-4.166189336,-0.9335239477,0.0079436723,0.5627754701,-0.2182211969,-0.5378045636,-0.2803255774,-0.5847347638,-0.900810056,0.1455167553,0.5893239651,0.8967457733,-0.4780391152,0.5858999518,0.7982446178,-0.5575549368,-0.4177090165,0.8275547133,-0.1711758361,0.891196837,0.0896274203,0.9264156732,-0.1928363375,-0.8435809538,-0.8608019657,-0.2390527367,8.194010243,0.4981574474,0.9534091068,-0.9729296379,-0.2089373314,4.7636607578,-0.1258654433,-0.9289915737,-0.2019204212,-0.1534698355,0.1380320325,-0.0910956501,-0.1192639387,-0.6805824394,-0.3220894958,0.253270302,-0.2984184853,-0.413189222,-0.5001721671,0.7892517462,-0.1834844414,-0.4361510856,-0.0464358125,-0.3245092476,0.2296946387,-0.7066173771,-0.6058786025,-0.178999812,-0.8138826002,-0.2333119708,0.0160393127,-0.7270092946,-0.7956549438,0.3726196247,-0.5678757287,0.753809759,0.6400880737,0.0315721736,0.0377194397,-0.0479154292,-0.6716053851,0.729892821,-0.3296053322,0.0741415001,0.3125083704,-0.1198260473,-0.8952525137,-0.9157013468,-0.3495600019,-0.6306447048,-0.5995036645,0.8453757948,-5.916745986,0.9185953372,-0.2116115768,-0.0066434023,-0.9267469481,-0.4503772019,-0.642727307,1.0936263565,-0.0870645042,0.9936195812,-0.2904364751,0.734156676,-0.5095145592,0.0983031191,-0.6290426878,-0.8838540593,-0.3965415562,-0.0756693486,-0.2929166345,0.0463111366,0.6167613052,0.4110115622,0.2135720586,-0.2819545075,-0.4276003016,-0.6655513962,-0.819559869,-0.5655817335,-0.3865424789,-0.993640591,-0.555945343,-0.4266303385,-0.7701831489,0.1485097885,-0.1370157473,0.3589506813,-0.3508970268,0.5854727987,0.8551792474,0.6468884166,0.8269124996,0.5342857823,0.6378988111,-0.4530170059,-0.2250535464,-0.95375638,1.2006626587,-0.5921170341,0.2606225046,0.0406793719,-0.3878710557,-0.885234056,0.1526078645,-0.7214603021,3.7255964232,-0.2463658735,0.4178060015,0.1047334482,-0.7659398355,-0.8121403446,-0.5803958364,0.7015373974,0.2502973918,-0.5336177531,-0.3136634716,0.081104296,0.7958708431,0.2630412316,0.7880617002,-0.8810188136,-0.3717541085,-0.0598402906,0.8888177012,0.4900080976,0.0072632157,0.2581448398,0.53944205,5.1629155258,-0.3533411422,-1.5888377587,0.4414402517,-0.8282141692,0.2704134281,-0.8526449878,0.9083453726,-0.8515222628,-0.9328337203,-0.104917462,-0.1109590002,0.3007418054,-0.5738234745,-0.7583025969,0.4307233562,0.327649931,0.352179048
   -0.7485488011,0.7254023319,-0.873999626,-0.6358194435,-0.6043809836,0.3357067166,-0.6022970175,-0.8476702601,0.6749372066,-0.7077172963,-0.6455042198,0.5159901257,0.0782597428,0.495730434,0.3327171659,-0.1395624734,0.2047685427,0.1738050843,-0.406045069,0.5506688607,-0.9426230053,-0.8049103801,0.2545964772,-1.0031183478,0.1417743847,-0.9866389516,-0.4829546757,-0.0348339217,0.6557364052,0.0035111398,0.4472819582,-0.4514815556,-0.1659700444,-0.6835452709,-0.5950046892,0.4664184011,-0.0785300987,0.4694974339,-0.2643186453,0.2980111879,-0.7872624873,0.7906047342,-0.7162625775,-2.2799752809,0.7244130453,0.9497888587,-0.3015464376,0.5038343421,-0.8321740358,0.8669206651,0.1822512159,0.2332894243,-0.0800133627,0.8676394967,0.7406277431,0.4112579671,-0.3127582932,0.831818775,0.8685689654,0.405417153,-0.254864502,-0.8078092103,0.4612975162,-0.4647489696,0.3858565648,-0.0329855981,-0.2560917005,0.6522620576,0.6494008623,-0.5371821358,-0.0704355067,0.9030795947,0.373617544,0.6538617802,-0.009048488,0.9605127326,0.5513127982,-0.9003778792,0.8218621231,0.3055915904,-0.2430281128,0.8864650336,0.7623242182,0.9627890924,-0.021406432,0.7858515891,0.3488543089,0.566057768,-1.151876937,-0.4115947025,6.1672086391,-1.1082352483,0.2557610553,-0.3172353907,0.4084789718,-0.7492400995,-0.0726974377,-0.2619707989,-0.3542085609,-0.6566665271,0.5386856981,-0.4067688996,0.4129265639,0.1741777652,-14.7442421819,-0.0420750558,0.8732702036,-0.294129948,-0.0075409007,0.1067070378,-1.0084413603,-0.0729046256,-0.4419921897,0.0797325391,-1.2680516785,2.6810779012,-0.0271831575,0.3378203164,-0.0454929989,10.1001055563,-0.5607687425,-0.316394138,-0.4754758091,-0.2257952627,-0.3686088829,0.726855222,-0.6273628935,0.4147143366,0.4000888843,-0.5596542021,0.6403686832,-1.1054458898,-0.2274985465,-0.0964019255,-0.5968485389,0.1717891865,-0.1737124691,-0.2591807029,-0.396151778,-1.1079469734,-0.7737017079,-0.4998298345,-0.422917543,-0.5821960922,-0.589228787,-0.4608926835,-0.4876799496,-0.7728915179,-1.0420268154,0.1272458905,-0.8935870416,0.1365752157,0.8216918565,-0.5164706734,0.0270193994,0.6061570179,0.8179126379,-0.4375848374,-0.0358795931,-0.264335681,-1.0302715305,0.3166527377,-0.1500397557,0.3995689608,0.4960883893,-0.0167101763,-0.5698665195,0.19589656,0.4181591039,-1.376481119,0.5523626079,-0.4975681723,0.4042042458,0.1433436964,-0.7284976054,0.7738149929,-0.1944229351,0.4501033216,0.7297463569,0.3961024675,0.2896134356,-0.8413057592,0.3590395447,0.7377166278,-0.2588312309,-0.0144681592,-0.510692869,0.5593396311,-0.2602144375,0.2866661954,-1.1513544593,-0.3928702365,0.3762617437,-0.3487560423,-0.9410367385,-0.0638152695,-0.1561770249,-0.1407800276,-0.3484383388,-0.3152887398,-0.3765299628,-0.8571497015,0.8108539689,0.4746040548,-0.4617658381,0.9527253908,0.1846590296,0.7602726047,0.8924634131,-0.3629746705,-1.6110579632,-0.1842742651,-0.7861006122,0.3124446501,-0.9523171852,-0.3638230112,0.5346025287,0.8252464433,0.4335337423,0.6824906628,-1.3070193554,2.766702724,-7.7558884687,-0.360850202,-0.3916003364,-0.3086171803,-0.4182702621,-0.7318751739,-0.0014980147,0.2933691305,0.4388919913,-0.7924554145,0.9907650962,-0.8084291699,-0.2011286742,-5.3461744308,-0.8417421682,0.7057108368,0.8825530187,-0.5435474711,0.558707223,0.1524286029,0.1189325771,-0.0886394006,-0.165170837,-0.5229278383,-5.9795445685,-0.7898088089,-0.7014554613,0.2230364971,-1.3369894032,-0.9206760029,-0.6085079817,-0.6683127901,-0.7365275427,0.9871413614,0.7508420633,-0.8032941558,0.4096693547,0.4828658385,0.5634661102,0.4970532822,-0.3917716646,0.6267786475,0.9207838503,0.238639593,0.2130891788,0.4899449695,-0.2362021858,-0.6304056096,-0.7266638729,-0.7989247052,0.5800999143,0.5566393451,-1.4473961349,-0.3315614229,-0.4919196944,0.8435261097,0.845944346,-0.3632921212,-0.0138848946,0.4948501211,0.5039956249,0.5627838401,-0.093008449,-0.0697768184,0.7350740032,-0.989081446,-0.6333529703,0.4618210239,-0.0196320832,0.537150992,-0.8739969838,-0.1246652928,0.6739985087,0.5851632389,0.0945185787,0.4337559975,-3.7727841999,0.8391366712,-0.4393133425,-0.8700615132,0.7778543338,0.5801709684,-0.711964479,-4.7409178757,-0.0296685406,-0.8688022204,0.5183649314,0.039474315,0.6149620346,-0.5072699524,0.3905468002,-0.7366577813,0.602082741,-0.3228387641,-0.7858765675,-0.4538736262,0.9678873313,0.2510719842,-0.005788255,0.4160197176,0.9686956733,-0.6719011475,-0.0024998729,-0.5811357752,-0.8757122821,0.4898337861,-0.7022508573,-0.1551755866,0.1478462325,0.2882137298,0.2580303556,0.1699252515,0.6933317347,-0.8314975895,1.0019367218,-0.6187058097,0.1645672262,-0.2978489277,0.9987047567,-0.5742054431,-0.9238198877,0.7255299926,0.5939741971,0.0257736104,0.2108573234,-0.990015449,-0.1367597748,-0.0840087539,-0.5447692913,0.147044003,-0.5460211873,-0.7129415408,-0.4398758818,0.7618062186,-0.5974262632,0.5713641401,-0.5479023517,0.0533065218,0.7244215915,0.2634358694,-0.5981060772,-0.2385881958,-0.1521261733,-0.6966416363,7.7173861531,0.6054621956,0.6570829961,-0.2408755181,0.4359833623,-0.7989615577,0.2186457009,-0.4112342669,-0.2812092193,0.0526328081,0.490890338,-6.2411814833,-0.3955498921,0.6501411093,-0.6102935293,0.7270728588,0.5290996961,0.9663168247,0.8153696783,-0.6775191248,0.4407583999,-0.3062439388,-0.2475260219,-0.7345054492,0.2560427301,0.5285970988,0.4961348551,-0.8599752044,-0.6677742156,-0.0546682714,-0.4210704987,-0.9959653388,3.5635976224,-0.1344874978,-0.7726602441,0.7445723449,0.0115780047,-0.7219559328,0.4659562683,-1.2452706131,-0.08045892,-0.1164552289,-0.9433480626,0.4340570658,-0.4594111161,-0.3924735641,-0.6198882097,0.8649074244,0.383223522,-0.1908783804,-0.8516871619,-0.8501685721,-0.0801434359,0.5031100898,0.8151400925,-0.0172896594,-0.9178731979,0.79158474,0.3805162539,0.8308925335,0.6382535124,-0.5647399827,0.2177900853,-1.2190456143,0.177373904,-0.8740388279,0.199688338,-0.6630901389,0.5354840703,0.5439624627,-0.772737254,-0.8668330105,0.7586387032,-0.8279788173,0.1073146026,-0.4116518905,0.4344685608,1.061482234,0.5290909898,-1.1261350795,0.8354166264,-0.5116987753,0.4561211509,-0.482298848,0.4237439335,-0.5232267258,0.3625679726,0.9734467479,-1.0114183853,-0.1260721786,0.2304829241,-0.9308953177,0.1422595075,0.0244636664,0.7094728629,0.0154499892,-0.4011655668,-0.9113439411,-0.5811372252,0.8909046218,-1.0101535304,0.3268825744,0.7262103042,0.1583920366,0.5031575042,0.9955297253,-0.1871515217,-0.9975967341,0.9968420646,3.6709515604,-0.760440471,-0.1356365287,-0.1049961858,-0.4623629158,-0.7748536837,-0.8471097273,0.3730467726,14.580767876,-0.3263497423,0.7039722413,-0.2139046194,0.6200473481,-0.6453311435,-0.823409454,0.4293274587,0.5734133264,-0.3643339545,-0.0791479447,0.448281328,-0.917770226,0.2063482877,10.5680263275,0.372004346,0.5051032886,0.6193441744,0.8821523949,0.1588188663,0.6285535562,-0.9486643722,0.2411990329,-0.9556014444,0.4947476877,-61.750621904,-0.3574536817,0.4449765818,-0.4568190586,-0.0075138139,-1.1290782397,-0.108322052,-0.3275430674,0.2910757145,-0.6658946764,0.4683634672,-0.7035968035,0.2842899892,-0.9456390821,-0.7779274217,-0.5944393922,0.9387858277,-0.9716355595,-2.7080902997,-0.4214616919,-0.4856061678,0.2681018652,-1.1370721658,-0.4584836883,0.8221454348,0.7117754836,-0.9078362725,0.3266237288,-0.2931873091,0.3892617927,-0.3191474552,-0.3508299937,-0.7707883049,-0.1925850193,-0.2217538974,-0.8336652636,0.6743775341,-0.034776313,0.3470044943,-0.1648737685,0.6221617108,-0.196535056,-0.3075418007,-0.0169890434,0.0890197385,0.7599442409,0.4124174672,-0.045668588,0.0855591465,0.1580424546,0.6966928127,0.0445493119,-2.2178383098,-0.620652909,0.6893802878,-0.2855922783,-0.3286934009,0.5692266936,0.214012905,-4.2927679422,0.8662940875,-0.9934899862,-0.1730818346,0.1908864852,-0.2025517063,0.253008893,-0.7847825313,-0.9151189979,-0.8745873247,-0.276710139,-0.7947029148,-0.1163231107,-0.0807051543,0.4024835764,-0.2417788741,-5.8530258395,0.9808456805,-0.6633503921,0.0343023772,-0.0188038325,0.7941287766,0.9057796466,-0.5166419636,0.1523345829,1.0001663678,-0.0702009469,0.4598467812,0.7437083423,-0.4312188023,0.5996433495,-0.4315440425,0.2318112995,0.0400192267,-0.5497139035,0.5382351133,0.2237133074,-0.0997921466,0.9771710634,-0.5523441447,-0.66025768,0.1174121126,-0.9495717695,0.0597986727,0.7984190518,-0.659041983,-10.1418313492,-17.4218044978,-0.5181459165,-1.0584981065,0.2243305343,0.2425551123,-0.9973593375,-0.895442763,0.5601598439,0.2161672233,-0.0065941825,-0.4447264499,0.846120067,0.6820193509,-0.0902579123,258.9738733646,-0.6578246815,-0.6168398642,-0.6674788427,0.3087400281,0.7251486599,-0.9023805153,-0.715701146,0.6782676243,-2.5165447885,0.2909202521,0.0607849889,0.7032189374,0.1639942273,-0.1306371702,-16.8265792668,-0.0393836853,-0.4448297917,-0.8491072268,0.6886325168,0.1712069744,-0.2824568714,0.8279843539,0.0969109496,-0.0502708205,0.4883225999,-0.9295018739,-0.5625927114,-0.6349519884,1.021682842,-0.1530773756,-0.4214327108,2.3973608529,0.330673976,0.6942781504,0.365203012,-0.0047400542,0.8650184442,0.2463568777,-4.8346134984,-0.153085726,0.3678777123,0.4201343077,-0.6371573272,0.3111390706,0.2244862439,-0.9028741866,-0.3495327023,0.0229309923,-0.6310401525,0.600508969,0.3081429722,0.0187600996,-0.6952979806,-0.7130163367,0.4254835772,-0.2571049478,-0.8772959494,-0.094754378,0.0022649944,-0.3209504191,0.158379266,-0.1754043062,-9.0151771406,0.8246325967,-0.1843714343,0.0785915778,-0.5218448839,0.2214041513,0.1604575245,10.4628282554,-0.7485457945,-0.1021849818,0.5022365605,-0.8861042223,0.1481746038,-0.5757325707,-0.4404905026,0.2656566562,0.2076936366,-0.3484367599,-0.3505199408,-0.6866895634,-0.8764924733,-0.1038076044,-1.0514127781,-0.2113275789,-0.3670608922,-0.8280630998,-0.6588248584,-0.0154008203,0.2955453457,0.4585019472,0.0017396138,-0.3490514122,-0.2599483136,0.8530178871,-0.3347684753,0.8659064566,-0.7555285866,-0.4892045363,0.1122055397,-0.4373866822,0.1997217511,0.0494155327,0.2760426082,-0.2090282999,0.7330037573,-0.2871643399,-0.7803351527,0.8171316159,-0.2902803271,-0.2583734921,-0.1071374361,-0.0106053944,-0.9544183899,-0.3545526117,-1.0244687646,0.5711788272,0.488356087,-0.2469602259,-0.6173427953,0.7211400891,-0.9021824794,-0.0453809116,0.456986869,0.031664217,0.1894946933,0.6921153006,0.3291662621,-1.1189416775,1.226278382,-0.7672645468,-0.1375220345,0.4837465081,0.8360728908,0.3219025329,-0.0155752822,0.5186735055,-0.2344992918,-1.0150248375,0.9116438631,5.6533440926,-0.8657258526,0.3000737807,-0.2109256729,0.2596686235,-0.1661012073,-1.041235338,-0.3056631906,-0.2152969125,-0.1958370117,-1.038580343,-0.9674856739,0.4166130812,-0.1334614881,0.3532916589,-0.9314701966,0.673882261,-0.995780895,-0.3901457709,0.0058619411,-0.9794143014,0.9905078466,0.4768516127,-0.2278377945,-0.65856784,-1.0822912712,-1.1043093279,0.4251948537,0.6956351881,-0.3692839299,-0.3817778786,0.9141831391,-0.6551885836,-0.5245086741,-1.2632746433,0.749849567,0.0730285128,-0.5534556219,-0.1071541885,0.4785940758,0.8006053833,0.1562002548,0.597309448,0.83707822,-0.3066662972,-0.6657543821,0.3856382204,-1.1128017239,0.7933225306,-0.4794809981,0.1179268074,0.6231195937,0.9241294479,-0.3570653546,-0.3309490078,0.6319427876,-0.3281696538,-0.5651691629,-1.0461192987,3.9541683066,-0.8539431981,0.6255485785,-1.1074531208,-0.2798205189,-0.5197849344,-0.3911327739,0.9115281327,-0.4160288156,-0.0129905673,0.7267613792,-0.2291992069,0.0655755422,-0.0788149312,-0.0551775095,0.0336349093,0.1722213718,0.593289069,-0.4576898341,0.8095579298,0.2479877484,0.2949759223,0.931195916,0.3440466752,-0.8112394034,0.8998550886,-0.8329724763,0.7151427069,0.287892764,0.6183578757,0.3298007094,-0.2284405155,1.2928176144,0.323243749,-0.8013184966,0.0669439047,0.3773472358,0.3403764694,0.301098168,-0.7642458193,-0.6639523017,0.1327628976,-0.5515758497,1.0017701036,0.8727919146,0.9186667443,0.7185634688,4.7936880723,0.2484258053,-0.0560663889,0.2726906469,-0.635437017,0.9677424824,0.310013154,-0.6924506176,0.1555323173,-0.2183718925,-0.0242308354,0.1140284114,0.3128283177,-0.35919757,19.1218241143,-0.2089786391,-0.116790168,-0.4881349635,0.8476582876,0.4415298231,-0.3562342887,0.1938803574,-0.8162507831,-0.0212141244,-0.0176346704,-1.9659869217,-0.7929415421,0.0526986417,-0.4456901141,-0.4056548293,0.7090252335,0.0851618993,0.6790319539,0.7387309844,-0.4529444375,0.8830793658,-0.4977991325,-0.2155567996,0.2261752814,0.2313032452,-0.2907975526,0.6973614272,-0.9523850939,0.4392024064,-0.4751842972,-0.2380059764,-0.9556244106,-0.727317952,0.3802216917,0.1760267994,0.6579584171,-0.6529944537,-0.3178717909,-0.8880164923,0.2801664417,-0.9646887,-0.7758923806,0.3525222197,-0.1008200419,-0.0868588809,0.5842955063,0.4339006716,-0.3713157713,0.325444253,0.8502880451,-0.540881159,0.1124840467,-0.4352700777,-0.6410841857,-0.4949288332,0.2160353527,0.8399960532,-0.5039727568,-0.2003868576,-0.607921105,0.8669387444,-0.8337141682,-1.045176522,0.9711826628,-1.0034170434,-0.8395289626,0.4125333896,0.6947126583,-0.0436518719,-0.8164883868,-0.2323781144,-0.8236159157,-0.3498522901,0.6723555407,-0.3787619587,0.9210410643,0.8359160294,-0.756964679,0.5801672757,0.5003388694,0.612519494,-0.6657127858,0.3493029742,-0.7037272421,0.801314054,-0.5331509322,0.2679468253,-0.2512123376,-0.0319945684,0.4888836596,0.6787841248,0.3548155899,-0.133997463,0.5330872301,0.6894062248,-0.2079619455,0.6732016087,-0.9028524281,0.2811821471,0.2154310629,0.6956353729,-0.2625502078,0.2367431857,0.2041135355,0.1898648414,-0.9864452731,-0.793979742,-0.1282921891,-0.0774899057,0.3324090488,-0.168686528,-0.8776239101,0.530628074,-0.512781598,-0.8601095103,-0.1627339858,-0.3785868572,-0.2936717758,-0.9886630686,-0.9474527517,-0.150160696,-0.4736469395,0.4204602865,0.9878650803,-0.8073104789,0.7931647891,0.5056820261,-0.1564841554,0.9867367002,-0.4937054107,9.2022045559,0.8211714595,0.3421080797,0.0803719358,0.7711130375,-0.0843131115,-0.139942919,1.5712305218,0.6512536753,-1.5832115832,-0.3323882674,0.9537252502,0.3674860362,0.7309142446,0.919245471,0.8432765431,0.5649785257,0.4190801099,-0.2438580996,-0.5584925068,-0.0943204029,-0.8488447086,-0.0286863336,0.7053711668,0.754163196,0.3836804276,0.4130766322,0.9024898278,-0.4215427981,-0.711817112,0.5395185113,0.8687692032,-0.4292687712,-0.306762573,-0.5408179958,0.8316225082,0.5607693072,-0.7822549075,1.3217711184,1.0076019486,-0.4992552464,0.0437260752,0.0444672263,0.8951804577,0.1517287096,0.9030636612,-0.1142493066,0.7293624052,0.1339511828,-0.2007027325,-0.256561036,0.6548807505,-0.5589586227,-0.0696663892,0.7102009075,-0.1395413546,0.9296264955,-0.2537424982,-0.3127111974,-0.6447327196,0.6556957795,-0.6227552391,-0.3862385769,1.8690709588,-0.2692415143,1.0093844794,-0.4671310507,-0.5722872695,0.4008401476,0.106045596,6.4785728572,0.880692058,0.6517457233,0.7206705403,-0.4344941135,0.7016397955,0.4801035604,-0.3988248945,-0.7439215307,-0.4246425622,0.1439582532,-0.4074503913,-0.2133836534,0.6440000688,0.436447314,0.2942455713,-0.6089550299,0.3410304154,-0.1555098338,0.7504463694,-0.2108583742,0.2193680885,-0.786191058,-0.3056520089,0.5712134579,0.8324552498,0.0666866084,-0.2146230019,0.4756009506,-0.5716288808,0.3737394423,0.2839674783,1.0668061631,-0.6654031952,-0.8401855242,-0.5937990894,0.8923857187,0.4925906053,0.5106809862,-1.0213253071,-0.4378602465,0.2423290918,-0.9935882449,-0.1876573061,-0.6566755493,0.4092396814,0.4593919797,399.0368204794,-0.4700975626,-0.3438861584,0.9272827474,-0.3449055633,-0.3982798346,0.5160920391,0.1240860798,-0.0360815935,-0.6738555138,0.6168958482,0.6900988114,-0.0211083033,0.791411877,-29.3116969675,0.9685214593,-1.6064900488,0.5428051684,-0.0878181124,-0.2675202286,0.5137415145,4.2316846644,0.826800689,0.6315152641,-0.7199101525,-0.2453497876,0.4008446318,0.8233722874,-0.1560093405,1.4235660664,-3.6218006231,0.8523381502,0.5696590603,0.5943471485,-0.2281862445,-0.887736147,0.7585504295,-0.4994736158,0.3182923962,0.6785548175,-0.1290680784,0.2243817573,0.6807196914,0.6835793145,-0.523610506,-0.8581984746,-0.1701717381,0.4876833085,0.9291605598,-0.9062277509,0.439678333,0.8881873454,-0.0495237549,0.1678387133,-0.4908460606,-0.4387383672,0.7913714238,-0.0451360135,-0.9666118222,0.4145946476,0.9422857113,-0.9993074307,0.6866050642,0.5803808588,1.3415116355,-0.7956370623,-0.4590330382,0.8630076493,-0.6128687415,1.1214008793,-0.9535838945,-0.9535838197,0.827350652,0.3196297504,0.8266868358,0.4867383037,0.563809354,-4.5068706469,-0.6855333767,-1.1198027707,0.9574841331,-0.6201604985,0.3201330354,-0.8296778034,1.4960003565,0.0952498694,-0.1220207885,-0.955132508,-0.8304196541,-0.6405948578,-0.4807194792,-1.3216680985,0.8243093563,0.400997926,-0.430555629,-0.2455684079,-0.3091769682,0.0656625046,-0.447772555,0.6788310078,0.8165427138,-0.9893714548,-0.8098070138,-0.6621230164,0.3737179484,-0.933780955,-0.5259209079,-0.833971756,-0.1598138648,-0.6590709613,0.2880460329,0.5206868119,-0.7096478199,0.6920242952,-0.7968448974,-0.5926710997,-1.0957013515,0.0284160852,-0.4658496331,0.841703758,-0.519952679,0.3880817874,0.0548314687,-0.9438675608,-0.6951660827,-0.6008245185,0.4135168781,0.6820232742,0.8384475425,-0.3071285388,-0.0863273542,-1.3213514231,0.0421995273,0.6598342362,0.9322802341,0.7445017909,0.4834729273,0.076203749,0.9283862371,0.8069545714,0.0680174205,-0.2302703966,-0.6698678525,-0.163403164,0.6101455531,22.5975148738,0.7252619622,0.8156724516,-0.5640021924,0.5732773533,-0.0360487835,-0.2211226327,0.2756176897,-0.6176466135,-0.997053643,-0.7959217627,-0.0483811888,-0.1373391938,-0.9540165911,0.2465124303,1.3120641527,-0.4248783061,0.9822937829,-0.9490339106,0.31399698,0.2314126506,0.7973048019,0.3320263024,-0.7735375079,-0.1153479448,-0.737937172,-0.4093816789,0.4972405495,0.7027956942,0.2464124549,-0.8363152471,0.0514941785,-0.1790937225,0.0056741748,0.5715236749,0.947623645,0.9284601456,-0.1545471147,-0.8747899135,-0.96238065,0.4335702431,0.7758008971,-0.6079492993,0.454494553,-0.709728298,-0.7292714206,-0.680359878,-0.8303648939,-0.0443083044,0.1932191928,1.0498874887,-0.1556904361,0.2362643737,0.5782182612,0.3887001243,-0.2313413636,0.4166652528,-0.0731225807,0.9299090322,0.0094786352,0.3611166383,0.2254485148,-0.2840741125,-60.0196958272,-0.7416941964,1.4080819593,0.6487059545,-0.0365705392,-0.7323812668,0.8303537843,2.4991355153,0.5670771718,0.7776094075,-0.6174081286,0.7254347637,-0.3319620693,0.1874583935,-1.1505296652,0.0275036053,-0.6132480434,0.9668497162,0.2869961274,0.640768116,0.1272682328,-0.2608268458,-0.4468280503,-2.1059909013,-0.7054175041,0.6181113278,-0.0388450481,0.960730171,-0.7501786812,-0.3944285101,0.3564148445,-0.6288973365,-0.5339053082,0.6244536365,-0.2850971851,-0.3756966451,0.3281789785,0.9125566033,-0.6323109595,0.0005801054,0.1255397956,0.3276602893,0.9489213937,-0.1615976208,-0.2839895508,-0.071175192,-0.6695100423,-0.7804940675,0.9818983356,0.5141614344,0.1293907726,0.2129243583,0.863721456,-0.4477209385,-3.96988089,0.0841053644,-0.4631500585,-0.304761578,-0.4836652838,-0.1586153852,0.3791430359,0.8649499576,-0.0953557534,-0.8949885174,-0.4863062053,-0.6166459864,0.6675890558,-0.1342866624,-9.6537004832,0.4781487884,-0.1413143067,-0.4522266853,0.9965822749,-0.9293235271,-0.7003570479,0.3246858205,0.6584750235,5.8279951486,-1.0277658398,-1.9927542725,0.1787537876,0.9419880126,-0.8104117079,-49.8650902574,-3.6164487892,0.413429987,0.7515436046,0.2772607385,-0.9373460928,-0.8431430181,-0.1023140803,-0.8867071806,0.6865205548,0.9321857348,0.7452105296,0.9489116685,-0.0170534349,-0.3159162181,0.9053705522,-0.7318817879,258.8736705404,0.7056807252,-0.3411710714,-0.5964988243,0.2742870358,0.3834976873,-0.5329447262,-1.3575084944,-0.2205050315,-0.9025119712,-0.9361480278,0.2393245058,0.9028028598,-0.0206367894,0.1891366187,-0.148508925,0.4165483181,0.9128261143,0.1772733862,1.2554008174,-0.7172690598,0.7430260347,-0.9134960679,-1.649616695,0.1673994507,0.8206609221,0.4082996693,-0.6232661647,0.4471422552,0.7984080249,-0.3819359422,0.8096460483,0.081933397,-0.7795946573,0.8988801334,0.3686812118,0.8362099214,0.6686905046,0.501521833,0.9703126812,0.9893774504,-0.136331306,0.1314518267,0.3743975135,-0.7410435723,0.6374739712,-0.4165774779,0.286554565,-0.33261595,-0.1365973913,0.4497788465,-0.1485641695,0.0557282573,-0.6500002844,2.7746241298,0.0068698635,-0.2215066112,0.7889473247,0.9506588382,-0.8553846048,-0.3255414591,-1.0593242454,0.9022745917,0.1763886706,-0.5619593368,0.5175904857,-0.0423382043,0.423292313,-0.5524903085,-0.1636931502,0.8397740103,-0.3529427146,-0.2775060059,0.530270543,-0.8158756266,0.7878371671,0.5891208535,-0.3206705588,-0.3982292649,-0.0821222763,-0.1124695075,-0.348754609,-0.4515673831,0.5372124798,0.5077875519,-9.2613342303,-0.6498784122,1.0222471166,0.5646708883,0.3905402423,-0.9903952215,-0.1449994971,0.6235590328,0.121604871,0.5755291988,0.8826673437,0.6629838379,-0.3104816648,-0.7827447881,29.2550588577,0.5639707689,0.1929403695,-0.5540966211,-0.0582182061,-0.9548880375,0.6545874048,0.5674759601,-0.4091556471,0.0870759351,-0.4312613515,-1.3443382714,-0.7608361102,-0.2582002701,-0.4207808602,-1.468571484,-3.3480572674,0.5779012952,-0.4695750346,0.8739560594,-0.9976011465,-0.1126343643,0.5718040996,-0.3799432711,0.2600759205,0.9795388185,0.9420420442,0.9438568197,0.82021382,1.3573584805,0.6057738504,-0.3107127373,1.012989311,-0.2436014445,0.5855596805,-0.1407799163,-0.8464586794,0.0177941281,0.1711167521,0.1792166943,-0.7479238045,-0.8090209876,0.7290738527,0.4130678523,0.1844275439,-0.9074341386,-0.151137295,0.8358643865,0.6286848554,-0.9518279838,0.9099455666,-0.5618800931,-0.1927136291,0.5802736895,-0.2153379888,0.0902021235,-0.6308799051,0.247439368,-0.3965098422,-0.2249157712,-0.5213330499,-0.1141536076,0.7008015641,-7.2027777599,0.4376653888,-0.6457034089,-0.0100741032,-0.3973756522,0.4950789435,-0.6005789893,-5.0858852651,-0.5836244868,0.0527243276,0.0104941661,-0.3296540068,0.6198681022,0.6309529922,-0.0451141637,0.0133385501,0.1214933647,0.2557315478,-0.3357839701,0.833234751,0.3052560776,0.9948699382,0.2775324249,0.8440134894,0.0298316104,0.8180525095,-0.0468222667,-0.7961199316,0.2135631513,0.5052162844,-0.40386353,-0.0591219362,-0.0553720245,0.4237782443,-0.5142756908,0.7648533851,-0.0542886524,0.1704442337,-0.9003227583,-0.289238657,0.1158042436,0.3043459624,-0.6722274031,0.5676530446,0.8265517319,-0.2579982064,-0.7147576251,-0.147264159,0.7842987873,-0.8060485561,-0.3881566605,-0.4359018877,-0.6095455218,0.5611478422,1.3054680938,-1.0180045784,-0.4750302222,0.2470973815,0.6043900841,-0.3019702371,0.6612747813,0.0654953056,-0.5852324004,0.0676807432,0.8236946323,0.1306283641,-0.7357934805,0.9094602316,55.3522774523,-0.586996743,-0.5452381459,0.3000035112,0.8080872571,0.9853188082,-0.0054933515,-0.9054973621,-1.0131725469,1.3611308629,0.4541099838,-0.4711208191,-0.7672452629,0.3900151887,-0.6914634034,38.7891797901,2.2427205287,-0.5915017493,-0.8608718742,-0.8232144463,-0.9295236536,0.5382882594,-0.1924558978,-0.1612397047,-0.3409928217,0.2933303972,-0.8533521405,0.0395858163,0.1522820395,0.4631275845,0.2691557695,0.2444372127,-0.1578773675,-0.1505980724,0.8542891601,0.8216792273,-0.4616581448,0.3997770638,0.4206365887,1.6641996938,-0.2544857956,-0.6593608299,-0.2753651289,-0.9229399844,0.45405398,0.8520208821,0.365389124,0.7167784931,0.090878463,0.5256527351,0.4976647301,0.2423278007,0.6561837472,0.7736459546,-0.3242908289,0.9630091471,-0.0072473565,-0.3280484525,0.6191015044,-0.0834549831,-0.0841834121,0.6928824135,-0.8794309136,-1.026847953,-0.5164744102,3.5606273749,0.5800377963,0.5759555795,0.6940541329,-0.49677983,0.6208235615,-0.8311735034,0.6716400015,0.2216795633,0.6382009628,-0.1396155815,-0.4940857328,0.4087649807,0.0345710874,-0.3897764962,0.2950535027,0.3232585242,0.7711758505,0.2559803375,-0.633911799,0.7831831803,-0.6313685563,0.9695802076,-0.7826319426,-0.7585799312,0.1510826588,-0.0344552763,0.3154708167,0.7751090931,0.4849431793,-0.9489173269,0.3865314111,0.7254331957,0.4875527422,0.9572350808,-0.3337239566,0.4683627279,1.1149491785,0.0517129802,0.362678969,0.1393834623,-0.7878405474,0.2067092318,0.3765811328,-1.2980425885,0.4676409128,-0.7200521246,0.7414294764,-0.3814622044,0.6008070429,-0.0177454722,-0.1719157229,7.6615698905,-1.0513135389,-0.7104464586,-0.8337359925,-0.5407901225,0.1372487955,-0.2318078651,0.0056622258,0.4290366771,-0.0576586164,-0.3939151726,-0.0275412236,0.7443174665,0.3093606622,-28.4446247285,0.779930514,0.7995388576,-0.2141448654,0.9164573361,0.7405657058,-0.7680824754,-0.9970673139,0.2699944962,0.1180492591,0.0999249477,-2.0761464392,0.714080589,-0.2203089986,-0.8657058809,-0.3081104953,0.5586950336,0.6581262834,0.9433071527,0.7315146989,-0.9536165172,-0.1749380334,-0.1915428617,-0.0249693646,-0.4231894923,-0.9708407103,0.167361411,-0.6847047485,0.9300170669,0.1563327515,-0.1304224026,0.2508894624,-0.1183015196,-0.0070199951,-0.1496691212,0.13286893,0.3797087533,0.4421757297,0.785535378,0.2578618846,-0.6998592202,0.6585095213,-0.1241250432,-0.4611851469,0.1326137415,-0.4332323434,-0.5218385302,0.587236348,-0.5388355788,-0.789848464,-0.4752090613,0.2951819095,-0.5554530857,-0.4850277483,0.6840223004,-0.6240194242,-0.1791321667,-0.5509462417,-0.3347788221,0.7462568793,0.0328301367,0.3490919303,0.9243237769,-0.4979943674,-0.5479211629,0.165186817,-0.6242431618,0.7633001624,-0.6099800035,-0.7815166902,-0.7492892097,0.5911347327,-0.4928807372,0.8089117517,-0.1337486509,0.0317000103,0.563856542,0.7493459572,0.2627000469,0.1378589405,-0.4428293671,0.0330914004,-0.559143779,-0.2728926447,-0.2742352077,-0.4381036838,0.5816773695,-0.1646601431,-0.3788059487,0.1491190361,0.7310222512,0.4252911412,-0.2295725374,0.8906912332,0.6185091451,-0.811163937,-0.5418203208,-0.1518986205,0.4422941003,-0.3681167092,0.2456915312,-0.6816344871,-0.3934903631,0.2118830998,0.7744590942,-0.8438134713,0.9137610602,0.3833807507,0.2008075989,0.66059166,-0.3926389577,-0.1509972752,-0.7449079599,-0.1664379326,-0.4419094282,0.6818292875,1.0530438774,1.402313493,0.1204301647,0.7691518955,-0.8781263635,-0.5754644763,0.4347625218,-0.5105296377,-0.6786262346,0.5966692113,-0.4994987597,0.4534113457,0.1196861004,0.0625059132,-0.7895331403,-5.2848205466,-0.8502808057,-0.4545125246,-0.073606865,-0.2523926292,0.9159566717,0.1288414487,-1.0207298606,0.1946667815,1.4338322084,0.3677673429,-7.824346753,0.466200296,-0.0952812595,0.0009340684,6.3429686664,0.2387425855,0.2157974988,-0.3862083366,0.1654952818,-0.6794488695,-0.6311969536,-0.9005706657,-0.8747197603,-0.2161811324,-0.8228495927,0.0103608266,0.1526121268,0.5784770591,-0.1196712982,-0.4438474832,-0.9435464158,0.924807537,-0.6964944507,0.2367171613,0.6365273726,0.1333787205,0.3060913015,-0.8504235198,0.2753364701,0.9732050364,0.0758183449,-0.9472493698,0.5329369794,-0.7668719743,-0.0583186373,-0.024705159,0.7457400698,-0.6273693838,0.4989905381,-1.4432657402,0.2393031355,-0.7711806981,0.4357994635,-0.4871904405,0.4041263271,-0.0209404399,0.2572707967,0.8125087671,0.4011310712,0.4604853773,0.4437584921,0.4817035917,-15.8888260799,0.9129813341,-0.0595094818,-0.172317653,0.9968602136,-0.108619013,-0.887839446,-0.222451045,-0.3451468689,-0.497814515,-0.3322643269,0.3298180322,0.1962475067,-0.5989414413,-0.714967203,-0.7030618988,-0.1109087346,0.4797774962,0.3333619704,0.5909110745,-0.2624652476,-0.0828441333,-0.5977947669,-0.2050618801,0.8474612283,-0.2932586901,-0.9075707715,-0.8640564986,-0.1081205056,0.6722267009,-0.8346275067,-0.0309301771,-0.7426506267,0.8615705509,-0.4568440708,-0.8498588197,-0.6007440219,-0.659236281,0.3563314589,-0.9783839399,-0.5202789844,-0.3300595597,0.8075087955,0.2095246245,-0.0237978266,0.7021357647,-0.0379607099
   -0.4421539896,-0.4705029324,-0.5473881975,0.8277219288,-0.1020231968,-0.0534612579,0.2331953513,-3.1151154746,0.1990509496,-0.2341078477,0.8146855599,0.0040224173,-0.0390548648,-0.3282436319,0.8038774954,0.4161533866,-0.092085795,-0.9466864066,-0.9677046727,0.5465135813,0.2886325533,-7.6562465399,0.972263126,0.113238473,0.5765777154,0.0970232336,-0.8106174317,-0.1859320296,0.848591436,0.9300145778,-0.3406390167,0.2989660039,0.8851703647,-0.6614269654,0.9408492628,-0.5240123539,-4.4914370511,-1.8708589425,0.3797279241,0.3194356133,0.6321653035,0.1321540751,0.993580858,0.5506951056,0.4790115608,0.9327289254,0.4813189456,-0.0459043387,-0.8244272267,0.1338100047,1.0224989984,0.4251430582,-0.5154811209,0.9201803336,-0.6326126152,-0.6512049938,-0.9342471606,-0.7548497691,0.0367765057,-0.7018740712,-1.7995092179,0.1581569169,0.5406040794,-0.4734834283,0.0193307552,0.7014090444,0.6836706995,0.3029606029,-0.3240332367,-0.1836650621,-0.7895547207,0.2783164783,-0.7149615779,-0.7962707125,-0.4160847342,0.1763554242,-0.8857381931,-0.9127851646,-0.4442621825,-0.39319764,-0.2552707639,-0.128772395,0.6782971739,-0.5959750478,2.581317571,0.2544878519,-0.0297942358,-0.4953027073,0.867923469,0.6290238027,0.9452244836,0.424100141,0.160968041,0.8533219161,-0.7933608269,0.50509523,-0.2452284645,0.4117879561,0.982271778,-0.2410778784,0.4437018009,-0.5736760123,-0.477243282,0.6150733456,-0.9945892695,-0.309420083,0.1318518904,-0.1157208378,0.1423148281,-0.058090918,0.5551481798,0.2995240345,-0.5778130172,-0.3985413456,0.2136786013,-0.8862480377,0.6745000769,-0.1421645752,-0.1537589289,-0.7161957123,0.8491583307,-0.7350410793,-0.252089538,0.4416954273,-0.9836282902,0.8163978883,-0.4671530733,0.7446595228,0.4566389165,-0.850119938,0.7224375155,0.8360085759,0.087153066,0.9317117436,0.2958621423,0.5869396234,1.380419445,-0.6408379526,46.5644997563,0.5605631807,0.3696805735,-0.1225129289,0.5604514386,0.5440298097,-0.6791553076,-0.6596673149,-0.389619681,0.3634013149,-0.4111156057,-0.9429402839,-0.9059332526,-0.9142257008,-3.0786879445,0.8111637295,-0.9888816451,-0.0623481559,-0.9982425146,-0.7319666843,-0.4220527288,-0.2718166946,-0.3168390913,-0.2949280742,-0.6481530117,17.2719660423,-0.7207352247,0.404772724,0.3571018769,-1.7456831028,0.3670928492,-0.4336372969,0.6790440389,0.4706691156,-0.8463836155,-0.0990536733,-0.3925373678,-0.3762636632,-0.5598655644,0.2051352724,-0.7185837904,0.0951160154,0.5227538547,0.48675514,-0.1628917928,-0.8364326785,0.99287349,0.8158837665,0.6793514357,-0.228260671,0.1288521746,-0.1691337294,0.1482218668,-0.1289671682,0.191965591,-0.6999522608,-0.4057558916,0.0997055417,-0.5787882026,-0.7589648508,-0.4046839942,-0.4068058247,-0.546380115,-0.1112176308,1.0777612455,0.5243995156,-0.2470412791,0.9134450606,0.1419644024,0.5274646461,-0.2107483212,0.9340605621,-0.3225110169,0.4530851108,0.3058925574,0.6200293102,0.8394981821,-18.8916961717,-0.6518201855,0.2858647914,-0.6207778851,-0.4545734953,0.6860385551,0.1966455276,0.9063117889,0.6512028281,0.8323759522,0.9270370132,0.4104274977,-0.9983993401,0.8600090084,0.326101596,0.6813334172,0.2912709299,0.1875043648,-0.0644043742,-0.1144014205,-0.4411242369,0.3366518296,-0.1884936095,-0.6065317905,-0.6752405357,-0.5272501254,0.3785601604,-0.1811264149,0.3812386333,-0.1710269479,0.5766141152,0.033517591,-0.9137277044,-0.8015462967,0.2539494783,-0.4524205162,-0.5523676245,-0.5760636521,0.5271687584,-0.0608029506,-0.3783200094,-0.324095971,0.5962044335,1.2848141483,0.5212703194,0.0597319608,0.2940266999,0.028539109,-0.6413079271,0.3036588983,-0.1415213495,-0.6554402862,-0.4364753108,0.6166591114,0.0204826722,-0.845072488,-0.3635135497,0.2670940124,0.7524220785,-0.393238743,0.4218775275,-0.5268883716,-0.7078816728,0.8254651335,-0.0186815077,0.1872748811,0.8259871023,-0.1933264892,2.6636811144,-0.6899712717,0.4344768503,-0.5220755353,-0.4656606107,-0.7578364198,0.0403981331,-1.1041993139,0.005694656,0.3860402254,-0.9900169476,-2.9545702267,0.6551981861,0.5511845342,-0.5290281323,-0.8199000388,-0.9681320326,0.5539198734,-1.0458563069,-0.5958708804,-0.2600152871,0.6523224513,-0.6773964387,-0.8591533976,0.4495849536,0.71931886,0.2832202344,-0.000556472,-0.7898247198,-0.8534418459,-1.0885852801,-0.8243189824,-0.0269825896,0.7120183271,-0.6797189986,-0.3809131537,-0.9411516029,0.1519997469,-0.109772397,0.1179637638,-0.2545147429,-0.307873779,-0.0560397402,0.3121835947,-0.3783496653,-0.9591705406,0.5656628539,-1.0323316586,-0.7772209492,0.8041033407,-0.8728490933,0.2418821416,0.8861989935,-0.2604002192,0.5881866233,0.3312458225,0.7829069806,-0.0805431853,-0.4453727159,-0.0380489146,-0.8291348986,0.3115548831,-0.7828874631,-1.0869988345,-0.516349131,0.2807824069,-0.3645220654,-0.8185009328,-0.5445205935,0.6462849172,-2.300094667,0.3505431695,0.8347829711,-0.8602082647,-0.0502242947,-0.894440599,-0.7275670309,0.7744849781,-0.4057780112,-0.6182460083,0.9632226574,-0.1486375958,0.4335280447,-0.3675299806,-0.9328307606,0.5277576738,0.2161826839,-0.400943317,-0.2316547146,-0.4162708989,0.3082943534,-0.0450445823,0.8654843983,-0.4849957044,-0.063062547,0.3243760634,-0.2162584522,-0.1309863476,0.4851871028,-0.7516516347,0.3950065509,-0.6806499013,0.2078574939,-0.9108612713,0.671999267,-0.9547862585,0.2830479675,-0.968323802,0.2747193338,0.1011824382,-0.077724237,0.914298896,-0.8304115724,0.4293302051,-0.3196467208,0.8716385911,0.5504809852,0.6088183259,0.2446103299,0.6575156356,0.7579547251,-0.6192475221,0.425956103,-0.9473824674,-0.446332125,-0.6746694641,-0.8958145207,0.2978228733,0.1922743922,-0.6107134573,0.0785892106,-4.4353637165,-0.1374524021,-0.0407577681,-0.2777957833,0.9287122036,-0.5576239329,0.8753129113,0.9108288493,-0.862533084,-0.2508308254,0.0994590415,-1.0447531054,-0.4197989828,-0.636017317,0.9759648006,-0.997213096,-0.4198277232,0.1478565476,0.7413821774,-0.3472443934,-0.8523881329,0.9373299604,-0.3064684131,-0.2365038908,0.2878500008,-0.7338498101,-0.4851231174,-0.0917707605,-0.6252700291,-0.3024039254,-0.451890297,0.1824058557,0.3101729385,0.0490662673,-0.5357041328,0.2394924479,-0.3531062417,0.784424277,0.2176491712,-0.2751423787,0.8084937083,0.0211420823,-0.429436368,0.3752434102,0.3379581331,-0.0007305069,-0.0444201709,-0.0543109339,-0.9138137889,-0.8170170298,-0.1074835312,0.3881312127,0.5600020252,-0.1307054149,-0.9192143741,-0.8959505412,-0.4496282227,0.5937429125,-0.137337455,-0.7012887673,0.5006230656,0.2104728412,-0.8576896739,0.5890840131,-0.9119620585,0.3942953521,-0.6969906469,-0.4308291669,0.3977593285,0.7179633918,-3.6305779685,-0.8775384639,-0.0991608297,-0.9286401549,0.3953454919,-0.7285880584,0.7407998984,-0.3676940182,0.5818051048,-0.4696893803,-0.1986268396,0.8116771581,0.8353782554,0.9944172564,0.2507174089,-0.6256636688,0.3864684129,0.633196312,-0.8661379425,0.3145689969,-0.0566798798,-0.4244423707,0.3652651862,-0.2624475245,-0.1722027765,-0.4291698073,-0.4023116633,0.5841017455,0.5711354531,-0.488379497,0.2380632956,-0.1902761734,-0.4316847519,-0.535119705,-0.7017996212,-0.5828941587,-0.8258110536,0.2656984007,0.165314065,1.0750962377,0.6704075768,-0.489539731,-0.0570143418,0.5010944392,0.2267408269,0.7659078561,0.2106149989,3.3995880968,-2.0046393264,0.7675533183,-0.3969667424,-0.7753291381,-0.1716772411,-0.6271251884,-0.9923384709,-0.6196185235,-0.9274527554,0.960895602,-0.7532709105,-0.7507342513,-0.3255992121,-2.0549122189,-0.6442810749,-0.8734252602,0.9466408412,-0.8575793516,-0.0965813721,-0.9583620101,0.1258191106,0.5865227644,-0.8937709413,0.3336844223,-0.8268494009,-0.2031501851,-0.445018678,-0.5244696708,0.3419542989,0.7911752686,-0.2373518813,0.8320708405,0.3180681401,0.3049387455,-0.770034401,0.2852494988,0.5149014345,0.2480408709,0.4211903251,-0.4308126016,0.3964925095,-0.8245920275,0.3131653515,0.6367711974,0.9938566193,-177.0224872373,0.3819362688,-0.8738995388,-0.184770201,-0.7273794895,-0.4793080991,-0.0866278404,-0.593546181,-0.771458554,0.0039560809,-0.2649373669,-0.8841474211,0.841060957,-0.7204834571,-0.9135578521,-0.1863597261,0.4008939992,0.4752866297,0.0112435337,-1.0587822434,0.0577508007,-0.8876048921,-0.5906950724,1.0257756361,-0.0386569225,0.3355782765,-0.1089503502,0.2016105155,-0.619020122,-0.0782899719,0.6070411974,-33.0571602142,-0.6797006847,0.530935886,-0.6934760876,0.7845418482,0.0916990151,0.9362489942,-0.4819240988,-0.8798638515,0.7664230073,0.9862675629,0.6737504633,0.5434825236,0.3076699346,-0.3669739185,0.9080014983,0.1243115138,-0.3057968151,0.211925627,-0.7070094539,-0.727561246,0.5960072743,-0.8334397478,0.5063343259,0.8836557877,0.7775569406,0.4496989733,-0.9063663769,-0.1574922453,-0.6170402916,-0.6227289608,-0.5684078069,-0.776147008,-0.9322175705,0.6303735229,0.5722548488,0.2992212866,-0.881063801,0.254484301,0.8678506225,-0.7193794409,0.5386438092,0.6571662177,-28.1037811773,-0.2242011623,0.3471876059,0.2986373115,0.873255768,0.6951944805,-0.1432884191,0.2535835479,-0.844961937,0.6633405132,0.4122282661,-1.7090982866,0.9648388016,-0.5676423166,0.9612917573,0.1248700406,-0.7672477902,0.8148597969,0.7176260282,-0.3754565812,0.5524188294,0.8377435056,0.7331370209,0.7281848105,-0.5897608894,5.1868280358,0.5597574189,-0.5671391032,-0.7960782759,-2.053840635,-0.2589692693,0.7717587942,0.3040019339,-0.0191990763,-0.3187205426,-0.5064178341,2.1991764829,0.610300058,-0.1268498612,-0.038292668,0.2355430993,-0.0122501544,-0.4055838811,-0.1809632149,-0.8371954963,0.3318855682,0.7892663307,-0.7818301057,0.0661570375,-1.0911909197,-0.952632455,0.3542140597,0.4225570235,-0.8102296721,5.4228531831,0.7853994752,-0.1602251718,0.8617919442,-0.7459245335,0.8493138751,0.3299211415,0.6602267264,-0.6341141804,0.7013707355,0.8804269632,-0.2039306936,-0.2496969947,0.6267260213,0.9849183745,-0.2228733163,-0.404412492,0.8711267134,0.7631938144,-0.0010076871,0.6599293949,-0.6928495247,0.4492314174,0.05074338,-0.7415021132,0.1605640933,-0.3399998656,-0.4085370111,-0.5299976542,-0.524880077,0.1559492794,0.9717655852,0.565102399,-0.3411462869,3.0958630712,-0.0407208254,0.2664907293,0.5420179562,0.7348584449,0.5948535762,0.2045478704,17.3035476135,-0.2873458283,0.7478808645,0.3927040871,0.0935182182,0.6778034711,-0.9557147693,0.996413787,-0.2848318868,-0.6878312356,0.9747533469,0.1142714528,-0.5137631414,0.6548499843,-0.5537192932,-1.2771682749,0.0105114417,-0.8125355632,0.7908194592,0.1868323174,-0.5307750236,0.8744341279,0.9418371021,-1.2767615427,0.3298784022,0.8387489195,0.8415779568,-0.2822351665,0.7820545136,0.9149023139,0.4412340074,-0.5731201303,0.3942561872,0.6666171718,0.2575193891,-0.7141185937,0.8156531928,-0.6050323521,0.2596671818,-3.194538494,0.3549457593,0.6457190202,-0.8022663085,0.5541435601,0.0394628937,0.5321366276,-0.2926997316,0.2026054223,0.5856700208,0.2898921064,-0.0068692462,-0.0873201279,0.725772214,0.6841562119,0.9417913898,0.2368625034,-0.469419803,0.6562750765,-0.7557288812,0.8910427021,0.0186140332,23.3249773369,-0.597737341,-0.8107642775,-0.060220345,0.3211320917,-0.9918374517,0.380534031,0.288555564,-0.3688956369,-0.9068966933,0.8630703007,0.7926339105,-0.7754515533,0.8878545359,-0.6331732839,0.0723522177,-0.788590903,0.8513682851,0.2565174188,0.7647973978,-0.1268522762,0.3625675136,-0.3382855589,0.4389704212,-0.7433588706,0.3218756855,0.9221260991,-0.6669992013,-0.3078840335,-0.6962781424,-0.6113902933,-0.1075535026,0.7131294734,-0.3220372194,-0.4532432365,0.8025045458,0.4293778731,0.1802194401,0.3244431595,0.0648023895,-0.0698953332,-0.6378024275,-1.3851826511,0.4891231599,-0.958501697,0.2029496873,-0.9668838075,0.3170507302,-0.7029996249,-0.4910634458,0.4532216764,-0.7533538706,0.4453901096,0.9405054394,0.9003021719,-0.2705923479,1.022683998,0.1407076859,0.7905175933,0.886306248,0.0855697737,0.3694642768,0.989961306,-0.644518412,0.830459707,-0.2548282204,-1.0450667706,0.6069826318,0.6476966956,-0.7572883971,-0.4067215588,-0.266745744,0.4291697784,-0.9118927581,-0.8882844992,0.8232062798,-0.3274557395,0.4331417702,0.2428795079,0.1702929775,0.4756983001,-0.6187575045,0.8444880147,0.9196405773,-0.2245954411,0.5120787836,0.3231436622,0.4467773995,0.4840585215,0.7924642896,0.9696070988,-0.6365450954,-0.3479126656,0.490959903,0.3915575068,0.0107288959,-0.0980537789,-0.7943303402,-0.320161419,-0.3864625282,-0.7177171408,-0.4187605449,-0.218750545,0.6251637391,0.8452292156,-0.5914349127,-0.62403422,0.7111482914,0.8491132298,-1.2208480464,0.838076748,-0.6369594817,0.5393272928,0.3091776597,0.8200562659,-0.608954106,9.8025011974,0.2706351986,-0.0618234234,0.2074015135,-0.8099044456,0.4816369162,0.9007709836,0.6654576318,-0.1271422809,-0.507194455,-0.722781289,0.3360132474,0.6406435447,-0.766319901,-0.3050236337,-5.8164303072,-0.7317799178,-0.5232521543,-0.6805531853,-0.3469129579,-0.9328605046,0.3740983193,-0.8755723452,0.9759242679,-0.2419872514,0.5644443082,-0.2927159034,-0.9109502811,0.9065583998,-0.0112352004,-1.4700765562,-0.5524201871,0.3730792686,0.956717789,0.6494741153,0.5393322256,-0.9713480521,-0.5140711155,0.8231859864,-0.6962883835,-0.2069023771,-0.5012160849,0.6331170749,0.4036710146,-0.2143252844,-0.6411150422,0.953736579,0.6852677494,1.5676390669,-0.2764604826,0.8948562867,-0.3863179514,0.9564789523,0.8793517219,-0.9462094466,-0.3726698058,0.3879477689,0.7730785047,0.1422621306,-0.4609304151,-0.6183668869,-0.9903497046,0.011668971,0.8491425089,0.3861974006,0.7981551515,0.5839785521,0.8019379649,-0.2775999033,0.6261126915,0.6619989555,-0.4530056382,0.1282964044,0.1079561242,-0.8050584052,-0.9479380607,-0.8727635517,0.4409468278,0.8064183205,0.1920624916,-0.6608947777,-0.0420223087,-0.8116745885,0.0130261313,0.9538694128,0.5270582394,0.9032849271,0.6959729021,-0.9156979292,-0.2934303529,0.0975235564,-0.851097926,0.9877049842,0.21210197,0.8112346405,0.9636338019,0.9412538481,-0.7231511202,0.3010506633,0.9056808102,0.894189917,0.7114806627,0.0613482857,0.8563101,0.1717072395,0.8736372947,0.2848926643,0.0143448135,0.2859935277,-0.2741651884,0.1742717,0.7664097115,-0.2257748721,0.6478842854,0.6495987359,0.01296133,-0.3842057289,1.1756260205,0.6307930291,-0.6339597519,0.5676732052,0.5584250276,0.4081377992,-0.0757346994,0.4651115018,-0.5735899065,-0.7777917249,0.4237563231,-0.1845762075,0.2697805093,0.6643522901,7.5323854182,0.9881295546,-0.1401076149,0.226666664,0.2943058275,-0.3771721376,-0.7808286324,0.7946153195,0.3946869605,0.7272457535,0.6442101093,-0.5756944761,0.0982983519,-0.1618594129,-0.5124733843,1.4683096212,-0.7544718319,-0.4174404373,0.7993505674,-0.3055944176,0.1251442082,0.6634926994,0.492014882,0.3651343994,0.0618261635,0.5007836141,-2.0264705007,-0.5845821463,-0.8150027246,0.9325489357,-0.1632849334,0.8070539205,-0.0140320143,-0.7443280319,-0.2046843675,0.069022717,-0.5603884071,-0.7291706952,-0.3166441266,-0.0419100105,0.2859549804,-0.3369937977,-0.4410816191,0.3987267899,0.4960521074,0.2435627116,0.8956787051,-1.2178194389,-0.3050097055,0.3731238223,-0.2455429119,0.8677663762,0.5196600244,0.229283352,0.279724196,0.5140727773,-0.7116013008,0.3551422755,0.8165703135,-0.3179764955,0.4871747638,-0.9027188528,0.3924877176,0.6453211053,-0.4589797965,-0.7476054432,-0.5090333633,0.4964847935,0.1824910216,0.2219678845,0.1544860473,0.1098796389,0.4588777301,-0.7148824785,-0.0639762792,0.5080270339,-0.1888056896,0.1986479227,-2.0210635901,0.0097793806,-0.0001727415,-0.2703922471,-0.2295758005,0.1767376162,-0.8573270586,-2.1111102978,-0.8291771288,0.262453049,0.4566610764,0.672258974,-1.4995892131,-1.2290506265,-0.6174094915,-0.7719256391,0.1418805939,0.6007239373,-0.0118117416,0.0881783828,-1.4818554244,-1.1994398127,0.1815006639,0.3450394821,-0.6907853656,-1.4304851491,-0.6957509756,-1.4335112862,-1.1228875373,-0.8601188601,0.2815785227,0.431365233,-0.2029579169,-1.6453937265,-0.7395207332,-0.2214671304,-0.6765988691,-1.6299137951,-1.5926303983,-0.5770727922,-1.3756382847,-0.1645953271,0.1394162067,-0.2746660867,-0.4026658305,-1.0210154393,-0.9720831636,-1.0005607333,-0.4577916409,-0.8469066556,-1.6388431919,-0.8266516042,-1.4293602922,-0.2474368187,1.2188246336,0.0235148657,-0.2860174429,-0.5787319746,-1.5029709227,0.3115743645,0.0101096367,-0.184478421,-0.3781811323,-1.3341843371,-0.7899480416,-0.4174135327,-1.3949930168,-1.594935176,-0.7681169997,-0.1477511392,-0.8281883415,-0.3290087381,-1.1004124053,-0.4852102197,-1.0718839535,-0.7388220612,-1.5045423289,0.1391839202,0.7585413667,-0.0088297192,-0.2120587573,-0.5605935277,0.2533618256,-0.3366277361,-0.0393094972,-1.2566762654,-0.5603026054,-1.3469719142,-1.6590296203,-1.4743656517,0.2400179538,0.2813077135,-1.0239756765,-0.0513444285,-0.1634831277,-0.662883979,-1.3744475401,0.2822619604,-1.1841580201,-1.1532230122,-0.2892466397,-0.3507829843,-1.3736400285,-0.5662325918,-1.1291204183,-1.6149946482,0.2801239718,-0.5107604011,-0.2513831106,-0.689043632,-0.4469001533,-0.3778892059,-1.4372319743,0.0793810011,-1.5862498109,-0.7576393977,-1.2614814795,-1.2444084081,-0.6355138013,-0.4526525174,-1.6183043644,-0.5510982037,-0.7790760054,0.6518955583,-0.5300944366,-0.4658767364,0.1694070917,-0.5269660316,0.1124247507,-0.0357989969,-1.2825304284,0.6059603666,-0.9954740022,0.5773048734,-1.3629485074,-1.572268806,-0.9249522947,-0.1482619838,0.8942404878,0.2481229876,-0.2161987916,-0.8873241472,-0.5870450295,-0.1426379342,-0.2100801864,-0.5500535301,-0.2176674492,-0.1430894903,-0.3728118173,-0.8910225789,-0.3998791399,-0.8192080981,0.549962868,0.4298108924,0.3481102464,-0.3185526782,0.3726692618,-0.1396070642,0.3607649592,-0.6382544918,-0.6921710278,0.7776617204,0.7637060262,0.4946341302,-0.0440624906,-0.1040678406,0.3118405135,0.6455013209,0.1476789294,0.1959265053,0.1035922411,0.9287129429,0.4238968907,-0.7579098218,0.3656616742,0.1341272405,0.8444792428,0.8857397305,-0.1440301558,1.0801647295,0.6942741281,0.0078731078,0.6756552185,-0.9777060284,-0.7394396045,-5.3837774224,-0.6593106126,-0.882649398,0.0433714634,0.5880923711,-0.1360860661,0.2822004563,0.2028577186,-0.1381233753,-0.0295073791,-0.3518094446,0.3826591831,-0.7607211977,-0.0875470791,10.2573336306,-0.4359287953,0.6133749911,-0.4891400369,0.1208965466,0.0988460261,0.0309919516,0.1256076143,1.2875282176,-0.3972136571,-0.4704913746,-17.051493641,-0.7013575098,-0.4625992325,-0.6936178317,2.3444860028,-1.2693304658,-0.9136180164,-0.4493026989,0.3257174405,0.6082111524,0.4305093582,-0.9848463349,0.9943582703,-0.3894799955,0.8883934352,-0.8175752362,-0.3381732461,-0.5819498654,-0.1721027889,0.3083860865,-0.4148449943,0.3380516789,0.5277655747,0.2863469431,0.7600359824,-0.99898132,0.736085912,0.8156636189,-0.7856833567,0.201567297,-0.3199490662,-0.9312346126,-0.0482389749,-0.0115884737,0.3516121701,-0.3430296738,0.554404416,-0.8828147503,0.4161348695,1.0153864438,-0.2321089612,-0.1758337457,0.4635630027,0.1727822314,-0.0474788946,0.2838315029,-0.8372194884,0.2581740552,-0.1957261677,-0.4583005073,-0.8348902335,-0.6075949195,1.0680361628,0.5508545163,1.2181214559,0.7933389603,-0.2422011874,0.3666319864,0.1493765639,32.7938286077,-0.1934974598,-0.6033190178,-0.7781608146,-0.7453159129,0.5990021003,-0.7436634909,0.7852415694,-0.2584212583,0.9928791125,0.4901324968,0.9522391606,0.8741340192,-0.3376511282,-0.973313011,-0.6321237517,-3.738444563,-0.3766148852,0.2000921936,0.2279473137,-0.6528269316,0.3068402406,-0.6510264635,-0.0966734746,0.0726432614,-0.4677831205,0.1122527999,-0.8432951242,0.1133819703,0.117843096,0.3832113701,-0.7380292056,0.7274139724,0.3855147892,-0.9489198639,0.7184566575,-0.0237067626,0.6488178769,0.3172125035,3.0623115394,-0.6154602336,0.144087549,0.1152195429,-0.374493103,0.5340200523,-0.3495525597,1.2332541153,-63.091165422,0.0592980046,-0.3850250554,-0.2327956851,0.9375136282,-0.3659313867,0.9777776555,0.67313788,-0.3497866663,-0.8182416036,-0.8650576733,-0.2310447995,0.9281286182,0.9770601138,39.1522836345,0.1043788356,0.7196526958,0.0116512419,0.5990567226,0.9487316255,0.4755615433,-0.0570335163,0.23830337,-1.0724778991,-0.6768071326,0.5176816794,-0.9311571258,0.1970098185,-0.0051692036,-4.4383393425,0.4989234497,0.2824520114,0.1340837761,0.5129729133,-0.369198832,0.7850220322,0.3414654929,-0.2272322451,0.6604913432,0.740701717,-0.7994622293,0.8568334508,-0.3454866529,0.340355334,-0.9286281937,0.0915427224,0.6156554844,-0.7660080229,-0.6617088561,0.6172834223,-0.9535530679,0.4979205996,-0.7931360511,-0.452169061,0.0214734321,0.9907994524,0.6449936514,0.1614511673,-0.0554233903,0.4917627666,-0.5688451396,0.766531479,-0.8904520164,0.9051185509,-0.4112913969,-0.0019247843,0.4630626766,-0.5728377715,0.8216109612,-0.3819794193,-0.6279015751,-0.2364843719,-0.229575233,0.928038579,-0.4681495866,-0.5539971742,0.2224850309,-25.2506531432,0.7154050495,-0.0527723173,-1.4971441177,-0.4280715726,-0.3065557326,-0.0362220554,0.3432059732,0.680254765,0.1264951314,-0.2810573268,-0.7077049732,0.0392013325,-0.7800719183,-0.7982671259,0.0193562593,0.4336565734,0.3358076845,0.016544311,-0.6743196295,-0.285938893,0.9017365208,-0.5394079222,-0.1545316365,0.0834501112,0.5302579416,-0.7048327416,0.4031726094,0.0826358137,0.6394384688,0.4402682237,-0.8240602973,0.4769161953,0.8489871653,0.5260400205,-0.7208224807,0.5836789492,0.3537933233,0.1069208626,-0.4419858368,0.9625462377,0.3839735197,0.661450324,-0.8650845422,-0.3781499635,0.7867957537,-0.8888076725,0.5878515685,-0.6760736178,0.6525764507,-0.5231607878,-0.5151967634,-0.1870036837,-0.1695626273,-5.9542302785,-0.6767389218,0.6238123061,0.0973705617,-0.5214052366,-0.7473242752,-0.6544075092,-0.9765839252,0.2808427247,0.5774485429,0.8114586611,0.205584478,-0.6175169105,0.6217674239,-6.2097675459,0.905387311,0.7221177581,-0.7507565417,0.1394026811,-0.3476625364,0.1729479123,0.808215443,0.0217055351,-0.2050382967,-0.526166559,-1.1829756122,0.0378871745,0.9254993322,-0.010017185,-0.8009702415,-0.0322919412,-0.6625280063,-0.6420964443,0.8669392488,0.9456629053,0.1485870006,0.7765294288,0.1574584495,-0.5891939207,-0.157813989,0.1314985508,0.4796628561,-0.0889373318,0.9414477758,-0.06661609,0.8721504803,-0.988055531,-0.1136787373,0.5280541017,-0.8736812722,0.4129844003,-0.5907601279,0.0622972594,0.512798606,-0.4442662567,-0.1480526519,0.1470621655,0.3297256073,0.2376726327,0.4662585267,0.1490391168,0.3082620035,0.8345097388,-0.8934414982,-0.0654378346,-0.7445518428,-0.2198303409,0.3842222513,0.3962142665,0.0115009702,0.0989331362,0.8419803933,-0.8857706238,0.7691047826,0.1605771877,0.0184472952,-0.3413941033,-4.1213278392,0.7578659511,-0.1073577837,0.0048960295,-0.5747342458,-0.9444880958,-0.9101996818,11.5910388103,-0.6425778208,-0.4679810654,-0.8726015827,-0.3860634647,0.1383354388,0.8170640759,0.1874664535,-0.0867950975,-0.6552143613,-0.5046636053,-0.8160187204,-0.981995313,-0.1896009389,0.1271597181,0.2742564697,0.7008973114,-0.0290335182,0.7191011485,-0.5918469739,-0.4539642038,0.1104197911,0.5109226256,0.1458946911,-0.8392361716,0.1798149276,0.2305627269,-0.0988761147,0.3232868874,-0.6325229267,-0.2707018654,-0.9498684598,-0.9734813153,-0.3847073303,-0.4753464717,-0.3581051089,0.2784042238,0.5986597436,-0.0382599621,-0.4487599729,0.0337884598,0.3666983759,0.8009677995,0.255408504,0.4649024899,0.2526282404,-0.302459241,0.449134838,-1.2721058841,-0.2596968838,0.2996569712,0.1862567794,-0.3055043388,0.6214558952,0.5995668023,0.0930485196,0.4416581435,-0.4837387647,0.0099212445,-0.4152252496,-0.4952249703,-14.789604273,-0.2414681809,-0.5419726565,-0.870412776,0.8433344394,-0.7350590234,0.3554888334,0.1170394757,0.5661864849,-0.8124685377,0.3165283675,-4.0275095057,-0.3258045655,-0.0195097112,-0.4252894218,-0.5623787073,0.4281209065,1.0066010967,-0.4417540293,-0.2770574649,-0.6702332416,0.8334261012,-0.6880278892,0.5951440548,0.8793938418,-0.0075977627,0.8173239009,0.4238222417,-0.6281365166,0.2342935974,0.1050077095,-0.5896938648,-0.1861886524,0.7877270422,0.5776049047,-0.1661781798,0.4788924609,-0.3599801052,0.4899466734,0.6994046616,-0.6405687469,-0.6108416712,0.3786851581,-0.885198257,0.7253753324,-0.4723209812,-0.2795907971,0.1177226971,0.2170686504,0.4719081624,0.2960817992,1.0698703303,0.2271973452,-0.7170859986,-0.1609452674,-0.7245931692,0.7656008506,-0.928055596,0.2967290182,-0.9190789484,-0.0444004869,0.1171399257,-0.6568759014,2.220560856,-0.7169024856,0.0213564641,0.5226134218,0.3802993933,0.2632080661,-0.9592245182,-0.9711521763,-0.9510839608,-0.4000465578,0.1613815638,-0.3593843823,0.3954507031,-0.4263307315,0.458435735,0.6500420247,-0.1314407864,-0.4753922943,0.2317680022,-0.5730630886,-0.3844221567,-0.4004004239,-0.4466451984,-0.8513670888,0.7838917835,-0.3914323517,-0.210851936,0.5622834677,-0.2695831003,-0.1290501778,0.1938312678,0.4491145018,-0.9859486749,-0.1833645916,-0.7320916293,-1.0595911179,0.6727027213,-0.2722473163,0.0171074091,0.3795647067,-0.6890443267,-0.1396473474,-0.1312601289,749.8226253465,0.8562548044,-0.8734482769,-0.864007227,-1.3371319226,0.4350096202,0.7830605733,0.0374709444,-0.3000387004,-2.0152350102,0.7500876949,-2.1943000908,-3.4813905759,-0.9238545399,-0.7445156443,-0.2716287066,0.0740153911,0.601639362,-0.1861604097,0.7619861438,0.735527259,-0.6519673508,-0.7292645048,-0.4171933345,0.181783054,34.2535512924,0.5220523369,-0.9162366233,-0.1188230253,-0.689136521,-0.3910771393,-0.5416607801,-0.4682402765,-0.8902953785,-4.3628495008,0.3193791379,-7.5094878187,0.026901904,-0.2960786169,0.3503832122,-31.1268730088,-0.0350834974,0.6767256846,0.0525389655,0.5210683603,-0.0113515605,-0.2474051043,0.763483271,-0.9531308822,-0.2875188036,-0.7593959357,-0.4165785879,0.0345212154,-0.2805963795,-0.5812878195,-0.5052252504,0.3298006773,-1.5746078243,-1.0707061456,-0.4838352633,-0.2116378093,0.8072846315,0.8883449025,-1.407512138,-0.3509722709,0.8101168748,0.2175046333,-0.4163999022,0.7807878218,0.0763707646,-0.7006214867,0.2094519137,0.3490119564,-0.1567774248,-0.5971487767,-0.030444612,0.0080938345,-0.091770947,-0.4965742391,0.0467884491,-1.8208229142,0.6603028989,0.2374633731,-0.8286108946,-0.64542155,-0.0174263449,0.8599982523,-0.6183947959,-15.2246420741,-0.8161973284,0.7497229355,0.5215554498,-0.5796489266,0.5805253626,-0.8286795472,-15.6156227472,0.0322886432,-0.9827092046,0.2405460819,0.0436873336,0.4254428588,0.8218345882,-0.5301674528,-0.9555325364,0.5153529071,-0.9650567888,0.7152282255,-0.6224661504,-0.1670246859,0.0095115259,0.2184781732,0.3782291423,0.3317200531,-0.8366274469,0.6706276738,0.2639633774,0.5630762598,-0.2518603484,-0.346819111,0.0572841705,0.1508405893,0.2902017321,0.7358988406,0.4905286868,0.2956778569,0.5884084487,0.6890378314,-0.1370765154,-0.4079791189,0.6039481587,0.0383565976,-0.7887551573,0.8818079419,0.2618711802,0.2344085785,0.5653002883,0.1455912556,-0.0923430749,-0.9720832015,0.5088787655,-0.4542406612,-1.5600261097,-9.849714543,8.4578138043,0.6494932642,-0.038333061,-0.1217763322,-0.9464780243,-0.3595543833,0.6863537208,0.5271735065,-0.0100436113,0.1527647516,0.2967103904,-0.4317067749,0.2711092319,14.2485653866,-0.0766054333,-0.5017784706,-0.1984475418,-0.4663320173,-0.3199084055,-0.9253074089,-0.2724632554,0.830602214,-0.4784659084,0.4834134196,12.5752925032,-0.5701198057,-0.0525008059,-0.3523041252,3.5509374917,0.1398949905,0.3170660842,0.8575330383,0.847861954,-0.3364621851,0.806503863,0.6951983991,-0.8018153002,-0.4363651912,0.1151697546,-0.0301871265,0.1061212794,-0.4860606124,5.5321991002,-0.2734563111,-0.5484267377,-0.4677825822,-0.2465585613,0.1852426949,0.1753439593,-0.7404437147,0.5926339022,0.3444552387,31.7437378006,-0.1738030913,0.2770040993,-0.1910039816,0.1905278775,-0.5053940942,-0.9274102438,-0.6686869161,-0.5612015072,0.898305596,0.9822601141,0.7996937157,0.0121201907,0.6561339077,-0.8081102731,0.8324849648,0.857965561,-0.8497569507,1.0004529847,-0.6053350178,-0.4187667755,-0.5992312064,0.4910957212
