encog,BasicNetwork,java,3.4.0,1,1615238487571
[BASIC]
[BASIC:PARAMS]
[BASIC:NETWORK]
beginTraining=0
connectionLimit=0
contextTargetOffset=0,0,0,0
contextTargetSize=0,0,0,0
endTraining=3
hasContext=f
inputCount=130
layerCounts=1,131,131,131
layerFeedCounts=1,130,130,130
layerContextCount=0,0,0,0
layerIndex=0,1,132,263
output=0.9313427441,0.981077172,0.4201063987,0.0040648079,0.2453056389,0.1489679161,0.7801424246,0.2170590225,0.564290581,0.9955062266,0.2927457877,0.7760471463,0.4124744019,0.1843859174,0.7241686675,0.0220916728,0.0460277528,0.0065333363,0.956034349,0.9230571236,0.9697556742,0.530262062,0.178190992,0.005633874,0.4568837133,0,0.7923106817,0.0398039544,0.247556695,0.9727081999,0.5689255735,0.9967774647,0.1836057025,0.5136537062,0.4979025954,0.1375190648,0.646260831,0.0037917948,0.0547556483,0.7110733133,0.0066752002,0.9164182995,0.1756151268,0.0856577094,0.9833941282,0.9595684116,0.0291678957,0.006933484,0.2595125643,0.9795373961,0.3318192942,0.9710039192,0.5353538816,0.0607230465,0.8770465071,0.5272990312,0,0.4452577546,0.1393748925,0.7891093851,0.8871004464,0.1513732556,0.0120994159,0.8724431849,0.049560514,0.849076829,0.9893789855,0.0561153535,0.0017320811,0.0726531786,0.8233925414,0.0064426239,0.3176134847,0.8783870996,0.0661210303,0.056919239,0.7446483199,0,0.000777129,0.1155428941,0.0843738915,0.0008442799,0.973309021,0.9595337817,0.9709148365,0.6388482605,0.0704309166,0.1361479483,0.9392814091,0.2798874002,0.9684391847,0.9719895857,0.1566198317,0.4014975216,0.0056649422,0.3901942097,0.2591861358,0.0128997767,0.9997576115,0.9922022058,0.0958347226,0.7471882145,0.2298340827,0,0.0001146503,0.0078993298,0.0000351388,0.9096795609,0.0585203656,0.97064949,0.040924083,0.9474783125,0.1893591621,0.9856409497,0.9196824701,0.4943689085,0.0076470493,0.0660563197,0.9904960188,0.1040910379,0.0048078894,0.9976331329,0.7257966559,0.7021194211,0.4679924388,0.0010766025,0.1721668184,0.0156029752,0.0057775976,0.8506790821,0.9156399883,1,0.9986962623,0,0.0000668816,0.0008364903,0.5093308049,0.0000057202,0,0,0.0303127238,0.0000445454,0.0000000002,0,0.4189461151,0,0.0000000337,0.9785429374,0,0.1243326117,0,0.8584837402,0,0.0004389439,0.0374516614,0.4352248868,0.0006720649,0,0.9997264944,0,0.4611720747,0.3110686217,0.1783438578,0.0000000008,0.001119641,0.0000000133,0,0.2198396273,0,0.0000437551,0,0,0.0000012298,0,0.9995951091,0.2106746101,0.0000670352,0.2700484023,0.0065886774,0.0000037228,1,0.0001461531,0.0002836578,0.3444360656,0.1994287928,0,0.8690987004,0.2140289983,0,0.9932847493,0.9959160458,0.0266369728,0,0.9999942781,0,0.0032858623,0.999952607,0.1244865815,0.0005168897,0,0,0.0000000018,0.4420628311,0,0.0284339198,0.0000000015,0,0.0119218125,0.9000703663,0.147460357,0.0000694679,0.3145865406,0.6279738385,0,0.0001465214,1,0,0.8188489521,0.7258249775,0.0005819637,0.8298765922,1,0,0.1749000466,0,0.7959943202,0,0.0000000092,0.0158420083,0.9806309741,0.0000483012,0,0.2598077894,0.9731665541,0.0000001081,0,0,0.1589335565,0.2930949995,0.1226867956,0.0030216988,0.0062688013,0.9997787311,0.9368303784,0,0.1562619757,0.9999769561,0,0.0000005185,0,0.0000004657,1,0,0.1008032382,0.0000011706,0.0065299516,0.9899677807,0.9953531374,0.0518085472,0.921539891,0.0225453888,0.0000003067,1,0,0,0,0,0,0,0,0,0,1,0,0,0,0,0,0,1,1,1,0,0,1,0,0,1,1,0,1,0,0,1,0,1,1,0,1,0,1,1,1,1,0,1,0,0,1,1,1,0,0,0,1,0,1,1,1,1,1,1,0,0,1,1,1,0,1,1,1,1,1,0,0,0,0,1,1,1,1,0,0,0,0,0,1,1,0,1,1,0,0,1,0,1,1,0,0,0,0,1,0,1,0,0,0,0,1,0,1,1,0,0,0,1,1,1,0,1,0,0,0,0,0,0,0,1,0,0,0,1,0,1
outputCount=1
weightIndex=0,131,17161,34191
weights=##0
##double#34191
   0.0747435427,-0.4399865375,-0.0374828622,-0.7049741262,-0.7352702763,-0.4605607281,0.7312787119,-0.1027546221,-0.6529858028,0.2030298145,0.841943803,-0.0247418416,-0.357517164,0.7412099634,-0.7723908233,0.3307013637,-0.4315818806,0.9679969131,-0.4191008331,-0.472063266,0.818860776,0.286315111,-0.2337011101,-0.0185940092,-0.1335835645,-0.0773120678,-0.2489320667,-0.7195850682,-0.6819423766,-0.4771297114,-0.92276305,-0.6612122454,0.1096681765,0.1293424961,0.9254077847,0.2056267352,-0.042584133,-0.5059383833,-0.2386241076,-0.2916832356,0.7356339194,0.3869889916,-0.297796963,0.2375333828,0.715555691,-0.3836366793,0.0333954358,-0.6045396059,-0.240075858,-0.0135429668,0.3576665642,0.8007129117,-0.2126999352,-0.5066391634,-0.8505067307,1.752197634,-0.3620187103,0.8523898713,-0.1731748167,0.6579066796,0.6077251965,-0.3189212918,0.2984308241,0.8431076469,-0.5750874485,0.2217845051,-0.8007561854,-0.621955595,-0.0321076187,0.5233491262,0.0951844356,0.4544912707,0.9947094257,0.9793711257,-0.7888907629,0.7133552237,-0.0929162848,0.5889067168,-0.8707303083,-0.1789214151,-0.0252513773,0.6612695209,0.0869344871,0.7082500921,-0.3554605022,0.4501307853,0.8541662352,0.591645684,-0.8167857927,-0.7826899503,-0.9814171801,0.3820360501,-0.1863384777,-0.1033668789,-0.1829985226,0.4445549689,-0.2963045327,-0.3633268407,-0.4541511135,-0.5691886864,-0.3468616187,-0.7820866965,-0.0177280758,0.4323465261,0.9726112516,-0.6885987524,-0.541590457,-0.2536191858,0.1531714373,-0.5704976187,0.0655562727,0.8781123873,-0.30986196,0.8397567143,-0.6075993971,0.731604463,0.8003216782,0.4951011233,0.7064316134,-0.6139918667,0.8190471821,0.9147348608,-0.8446659132,-0.3969921204,0.1052699749,-0.4006656977,-0.4928003049,0.7481166075,0.8614185548,0.5326399409,-0.3917183128,-0.1863492812,0.9218515008,-0.3122912383,-0.4178657421,-0.4404227329,-0.7680448566,-0.9434334372,0.2857391348,-0.1276165534,0.5963096624,1.0925485559,0.0670663117,0.0178695172,-0.81874249,0.7910325189,0.6201809025,-0.8747901551,0.9533310564,-0.3941679831,0.6146953662,0.252944381,-0.0152330219,0.6832903872,-0.3325619795,0.4266046145,-32.5846847441,0.3955485663,0.9127788342,-0.1727479246,-0.9115690692,-0.4943084498,0.3322987191,-0.5892779974,1.5160528428,15.7997589896,-0.6431879133,0.3829739226,0.0904259156,0.2326553487,3.2710767016,0.73824763,-0.5100150971,-0.6263460786,-0.7148721472,-0.7713664873,-0.0716514053,-0.2577741758,0.4386819759,0.7449026319,-0.3077601282,0.0817545188,0.6576393651,-0.9798742922,-2.0608502995,-0.1937147938,0.6137008233,0.060499517,-0.2057278534,0.6016596397,-0.5326231027,0.4518758963,-0.7285727418,0.7517639009,0.1492274954,0.8431227501,-0.5120960095,0.7822977092,0.4192080467,0.7763630248,0.4521325477,-0.1658856502,0.328148204,0.0770427543,-0.3610755486,198.1363612628,0.4776875139,-0.3836249973,-0.6992857266,0.6526174892,-0.5651666732,0.2996271576,0.5841212084,-0.4177575683,-0.1631312597,-0.400227876,0.3244723545,0.4633878487,-0.1794958449,0.3351871086,0.237016804,0.7359161967,0.8956650423,-0.5780080629,0.3497136822,0.0452971389,0.7886128665,-0.759333724,0.2560012649,0.2078940851,0.2522275144,0.4468484323,0.5255251195,-0.9237837444,-1.1840493069,3.1654734479,-0.8687273699,0.415645149,-0.4978025752,-0.080846699,0.8468620081,-0.7949413146,0.5484513787,-0.1276973254,-0.2294307577,-0.311333077,0.0871374273,-0.6311947846,3.2083466123,-0.3657546989,0.9401811086,3.9909754978,0.1892139986,-0.9315184853,0.0408772543,-0.3218412874,0.631064195,-0.2023630878,0.5154520036,-0.7103632537,0.4054405411,0.2764964214,-0.7436978247,0.8735195103,-0.3712512125,0.6902424812,-0.1191202923,0.1779380222,1.5731504999,0.0881372547,0.6615019294,0.5191525191,0.2206340248,0.6277820663,-0.5936502391,-0.3513718053,-0.700249482,0.8051927898,-0.6926871639,0.3027496337,-0.1894725124,0.1026344803,2.3967462674,-0.6658650165,0.5939529622,-0.7509675254,0.1717741872,65.5103508971,0.8591179237,0.4722097225,0.5280077443,1.1036734512,0.1982849311,0.8893737971,0.0924077984,0.1615163497,-2.1352314782,-0.5627636083,0.593608084,-0.8819860226,-0.2328361527,-0.5380913283,0.184719808,-0.5871945605,-0.9822232563,0.9272450389,0.7028324683,0.975321793,0.8231447711,-0.0849631862,-0.0769095169,0.5894458193,-0.8687081946,-0.6047560809,-0.8373776323,11.9537565732,0.681689746,-0.2393512394,-0.6583549426,-0.5278289198,-0.8725153076,0.515400137,0.8769592048,-0.182083602,0.4834798348,-0.4757193091,-0.3945568378,0.7305766743,0.7187061683,-0.2458964811,-0.41930061,-0.9545593763,0.7707694195,-0.0932653858,-0.3954960211,-0.7322281078,-5.9490757065,-0.8137991941,-0.546184246,-0.0473991697,0.1754314577,-0.2640177256,0.8815030613,1.1052673028,-0.50030346,0.3034210002,-0.2473936865,0.5916389695,0.4883355147,-0.9961755586,-0.6744992249,0.2053542613,-0.8148514529,0.9899582528,-0.8927445576,0.0028802994,1.576931435,-0.028558816,0.4751013699,-0.9846453189,0.6237731898,-30.1339739963,0.6813717515,-0.3218139055,-0.1627091006,2.7835589301,-0.7420873723,-0.0182629645,0.2522871548,-0.1911817734,0.9070822882,0.585204227,0.1906931997,0.6414758857,-0.3753978412,0.1380125881,0.3851959399,0.0306057402,0.2625975745,28.1059006948,0.5426327312,-0.0198379917,-1.8000248345,-0.0577843229,0.4721563428,-0.843876422,0.1143604208,-0.7371090292,-0.1460299956,-0.6246818437,-0.0389931235,-0.2913472297,0.8611221452,-0.094597144,-0.6521549592,0.0519076198,-1.1549962196,-0.1935935856,0.3420366271,-0.4082233619,0.0900299692,0.3888807054,0.7968669063,-0.6021284649,0.0884641144,0.0279431735,0.2808511396,-0.5404476254,-0.2280383153,-0.8325818965,-0.7101673391,-0.7314065349,0.0220385189,-1.2615025958,-0.5734302004,0.4149457969,0.4360752471,-0.4386148822,0.5662859884,-0.7668347364,0.6568575825,0.7225144606,0.4397027675,0.2940306754,-0.0347050448,-0.6658311085,-1.3865289192,-1.0687597423,0.5762771754,-0.4494492582,-0.5969719349,0.2322781505,-0.404432406,0.3993313197,-0.4988474772,-0.5176147808,0.4531142071,-1.0326401862,0.2115413002,-0.7670139694,0.4833657228,-0.1890591486,-0.8821490002,0.1630593755,0.2659274538,0.5916104022,-0.2680689266,-0.0432502932,-0.0604134934,0.7992923492,-0.049531855,0.4721437428,0.6851351542,-0.3146199271,-0.1961949516,0.1847725491,-0.5024917245,-0.3427016983,-0.4300480178,0.0828738974,-1.1283924057,-1.0070336844,0.3148415489,-0.1179929599,-0.6708359324,0.3501250042,0.1521227801,-0.5498948773,0.5408836262,-0.1250229711,-0.9944850953,0.5328352365,-0.0331891835,0.1048512234,-1.7922943471,0.4692142036,0.4876335211,-0.2312472747,0.5629076063,0.4306992799,0.6052015128,-0.6939066189,-0.3464357551,-1.091730125,0.6560526397,0.673908499,0.2897653304,0.249299851,-0.6732522207,-0.3902832852,0.2571850761,-0.1455436335,2.2843642771,-0.8322254502,-0.8674818172,0.6077454849,0.9047164913,0.7567911592,-0.2144372533,-0.8556372237,-0.8787847238,0.2777780795,0.8842910748,-0.3970347949,-0.7242669572,1.7539357922,0.6501505048,-0.5921263795,0.7802120422,-0.8530341865,-6.146619251,-0.6964626073,-0.5680805371,1.1879532507,0.2125674853,-0.2919146303,0.0444185741,-0.1487945761,0.1940464529,0.507006238,-0.7755804079,-0.7452443451,-0.1059002473,-1.0427455173,0.9651521797,-0.6947067404,0.4469790222,-0.5807619649,0.1918472274,-0.875287414,-0.0221519785,0.9631048696,-0.0701712689,-0.9303047257,0.1555762196,0.7527603327,-0.6827897898,-0.9139952899,-0.9039158054,-0.9309006483,0.1033483165,0.8238152278,0.0691969503,0.9049077468,0.3775480794,0.4953589618,-0.7535094893,0.7680954244,0.0101675919,0.4867532447,-0.1287569151,-0.9066899766,-0.1539880526,0.6527282477,-0.3424311514,-1.1356601254,-0.9640819269,-1.1412309273,1.3737274187,0.4937757257,-0.0352086241,-0.2423964518,0.2180248429,0.4122200808,0.7606164442,-0.233721582,0.6706047549,0.1308772041,-0.8497383771,-0.3892265211,0.5196998606,-0.6752957741,0.3229685215,0.9542782108,0.3109895718,0.9633830987,-0.1281699408,2.3211538477,-0.7793646996,0.7328560414,-0.6613928466,0.0849304242,-0.5353649354,-0.4374261106,0.5842948092,-0.7267644293,-0.0576241936,0.6142178094,-0.0914081892,-0.5624935879,0.8246136736,-0.628417128,0.7314371682,0.289651748,-0.3965355882,0.4563758375,0.0752329316,0.7998740084,0.8517255323,-0.5041569087,0.1716840461,0.9717293907,0.4622570906,-0.2798948229,-0.8150592167,0.5129697715,0.8887560941,0.7062247554,0.8704987984,-0.6421406695,-0.8534467509,0.1505226531,-0.8539565507,0.467729981,-0.1005114687,-0.8993361876,0.7194490503,0.2321915207,0.6537039612,0.3129006407,0.7256663158,0.3016028228,-0.4808632541,55.3025394871,-0.0884899137,-0.7971488357,0.6299554092,8.8809089276,2.2745197221,0.1710723364,-0.1051582269,-0.4856079227,0.0447487115,-0.8494072175,0.5984041972,-0.1214733028,36.3079802793,-0.8704758509,0.0403586776,0.4201955145,0.1342196315,-1.9667453019,-0.812713146,0.4591642115,-0.762424156,-0.4474052828,-0.0289321885,0.2292712659,0.5342048651,-0.2214206299,-0.8318312417,-0.0548612531,0.4128690747,-0.0036954326,-0.9151115502,-0.6287273106,-0.2610360168,1.1348618624,0.4584197626,-0.5569039136,-0.6878163317,0.3404887695,-0.7663505847,0.1310842582,0.7426891218,-0.4724797621,0.0776951532,0.765841428,0.3124043168,1.0191654618,-0.9637253181,0.5242737902,0.9452820342,-0.8036888939,-0.9822506668,-0.874152551,-0.4091124669,-0.5678564022,0.2268058451,-0.5399532729,2.9282380567,-0.7461381461,0.9463140222,-0.1319345148,-0.0066422169,-0.9833684239,0.7879459623,-0.7706584467,-0.405663269,1.4992043944,0.2792278945,0.3248786341,-0.7931890535,1.1188616751,1.1005889979,-0.3480893043,0.9158178821,0.5408006092,0.8413907326,0.4738312667,0.3358512993,-0.5895935982,-0.2825003292,0.976308125,0.7118509933,0.8777356313,0.4214913651,-0.6080425971,0.8655975754,0.4127000197,-0.3969433145,0.0821970744,0.8743413603,0.4244094352,-0.1935369568,0.8143227276,-0.4300535171,-0.8792037597,-0.0298507197,-0.7198974245,0.1684571814,-0.5139695311,0.4411929178,-0.1606595497,-0.5070039757,-0.232200156,0.9496297474,-0.4221709732,-0.4262683032,0.7938944105,0.7207434054,0.5048538087,0.4505021063,0.5017201731,-0.8881698164,0.9768019422,-0.2385205973,0.3718002609,0.7516037641,-0.6500692612,-0.9722680799,-0.2878518054,0.4039651813,0.5296728553,-0.078674163,-0.3151802142,-0.7707644603,-0.1709858783,-0.866808752,-1.8647480902,0.0168853564,0.1262656098,0.0678820623,0.5006182762,363.4403157895,-0.1085719606,-0.8848954253,0.7962421178,-0.0219171731,2.5589883567,-0.9150233294,-0.5410042426,0.934349619,-0.8532355766,-0.5196087349,-0.5286037551,0.4524818339,1.6875212446,-0.9988279026,-0.9447279326,0.0753169055,-0.6695931968,-66.0063448233,0.658976816,0.9374501159,1.4202750144,-0.0451221749,-0.6673813351,0.4625456542,0.1422246219,-0.011642516,-0.9271619377,-0.2259561617,0.7568197155,-0.7409305771,0.4871265093,0.3403940332,-0.4592612247,-0.271918718,-0.0061741667,0.0516120399,0.0259883437,-0.3323293902,-0.2312633768,0.2336462891,0.5536746388,0.713224034,-0.6113313134,-0.2328651606,0.322093609,0.2689481075,-0.6049217051,0.1589959564,0.3508327668,0.1810742874,-0.7800598405,1.2092678292,0.1415489765,0.7549878912,-0.205785441,0.0865679641,16.5451965668,-0.0420700146,1.0984134012,-0.2804825215,0.5383406586,0.7443659798,-1.4641036186,-0.1889068481,-1.0273749494,2.7950155269,-0.2373445228,0.6929785352,-0.1139781452,-0.4833830905,-0.0475887059,-0.5808049037,-0.7010167777,0.1839714345,0.4451270329,-0.1830187428,-0.1789622999,-0.9317624225,-0.3233778562,-0.8748963614,0.2548903198,0.1984251967,0.6351056662,0.5879399617,-0.153225551,-0.4309132585,-0.866648162,-0.0586620156,0.39738504,-0.3424784781,0.8918187847,0.9145682071,-0.8955342201,0.4757913887,1.0686550996,-0.0983952553,-0.6824965407,0.7255162356,0.2722429557,0.3723570451,-1.0492371486,0.7522419819,-0.5884855427,0.2435118353,20.6289071761,-0.7418281212,-0.2133054123,0.252951288,-0.373183863,0.0869776756,-0.9240950172,0.0382371306,-0.7654132577,0.7612578316,0.4171172815,0.373629789,-0.0281792151,0.5642653626,0.3123152512,-0.3680862356,0.8692804536,0.5591335213,0.623350528,-0.9349408548,0.9297487488,1.1792323399,0.9736100007,0.0493481338,-0.4359676013,0.5655000027,125.9647077651,0.8740302122,0.684718025,0.1978153519,1.2168810017,-0.5456391761,0.676205694,0.0200093138,-0.6441944685,0.1145901965,-0.1039581389,-0.8104699209,0.1141066405,2.4083905265,0.8203753143,0.5081966225,0.8149528897,-1.0037022561,-2.0795677141,-0.8147403551,0.9883043522,0.1881930018,0.3811625884,-0.5548205061,0.381737026,-0.5512406533,0.2677381501,-0.9258975813,0.8558500752,0.8661334029,-0.1766628764,-0.3369513939,0.6195776398,-0.0719748924,-0.3586788805,0.2491083054,0.4072751945,-0.518394911,-0.4446806185,0.8325275988,0.5989626906,-0.9613983393,-0.8071519477,-0.7174715823,-0.9978914901,-0.3298378373,-0.5864606452,0.7584565367,0.6650430628,-0.1199403982,0.0122331935,0.193620085,0.4481831442,-0.4487099029,0.6396776641,-0.0461379479,0.6548720438,-0.7798223892,-0.4958083802,0.3293097236,-0.8415643222,-0.7922552689,-0.5440278331,0.6260334151,0.8264908692,-0.5299238816,1.2792194096,-0.676344959,-0.3034471949,-0.1584992711,0.3607091846,-0.1865342701,0.1255175862,-0.1024291047,-0.2758877681,0.2646833944,-0.9019667978,0.9740795964,0.6801592174,0.940219099,-0.3059718109,0.2877693458,-0.5670335146,-0.370470372,-0.068669659,-0.264315404,0.5112967542,-0.6085024097,-0.3792304848,-0.5153923368,-0.5676121082,-0.5991200968,-0.7363096512,0.6248564138,0.9101477581,0.4350557658,0.2380506323,-0.5634396369,-0.3963251419,0.8313803689,-0.3364988868,0.7427726815,-0.1251890619,-0.2736326292,-0.8762680523,-0.5100230196,-1.0878339079,-0.0979077105,-0.882884578,0.4127709003,-0.3455589886,-0.7629068955,0.6308799267,0.573206859,0.7885308872,-0.5980002695,-0.2235219755,-0.1181672712,-0.7574504705,0.3086671087,0.5525500368,0.6790109514,0.1553573252,-0.701895981,0.0762922724,0.9942752017,1.644104171,0.7824652094,-0.6216762973,0.1320400073,-0.6573235251,-72.1933109109,-0.1232914761,-0.9272675862,0.4011906123,3.9589853584,4.6435893254,0.930621607,-0.6520413839,-0.1867490166,0.6370683844,0.9157341974,0.4465644454,-0.1334677679,-0.9802188127,-0.9197709924,0.5212409439,-0.8628012782,0.7482139313,2.5465174422,-0.683098911,0.8601564052,-0.7295037586,0.2882655166,-0.8472919577,0.2024501652,0.1135398511,-0.8253892796,-0.0360827503,-0.160553217,0.9988139848,0.4501533784,-0.6295847517,0.6946552162,-0.4852625027,0.925563016,0.6804843878,-0.9933789483,0.7961012553,0.8678960733,-0.1931026557,-0.7060366908,0.1378158214,-0.3664099508,0.0629643136,-0.8653366784,0.2464121524,0.1271840935,0.6433733349,0.1393664858,0.1201346975,-0.9349473612,-0.4270831961,-1.29848862,-0.571603197,0.1349537287,0.0210906991,-0.3785319772,1.9099545451,0.8949426573,-0.3496216868,-0.7520840026,0.9787565661,-0.514156389,0.9847922028,-1.1052143759,-0.7169565118,-0.0231333334,0.0827561947,0.6750284526,-0.1359355989,0.8433696204,0.1507697287,0.3252640837,-0.2504757748,-0.624673117,0.0910768322,-0.7267556422,0.1326935428,-0.3646966339,-0.8048173467,0.6336676254,-0.9111785929,0.6597739512,0.1323290623,-0.8292369387,-0.154340793,0.3213714639,-0.221060959,-0.1441689675,0.2661689779,0.1454393311,-0.1841492144,-1.0096615324,-0.5282443169,-0.737734858,0.4721374497,0.8376781824,0.5974229596,0.707609044,0.3004464582,-0.6057666443,0.9088647917,0.4319198771,-0.4033524742,-0.1277899864,5.3318753511,2.1108895783,0.475123688,-1.039387993,0.309749092,-0.3687262459,-0.2080541202,0.7038800483,31.296360471,-0.6341920509,0.3618179243,-0.9621916773,-0.865358392,0.0080016676,-0.7483402396,-0.3384600278,-0.0114842497,0.1375826259,-0.3341240139,0.8444847899,-0.7937228341,1.0884340033,-0.9847685922,-0.8424815998,-0.6697909523,0.1197907107,38.5975268416,-1.0287503955,0.6841898081,0.4618266754,2.0901877853,5.9017645325,-1.005159295,-0.2789145811,0.1135404618,-0.9689411453,0.1219891735,0.8344073218,0.5251352614,4.7238670628,0.3878060652,0.4741826472,0.570796036,-0.0801420501,-1.1307010114,-0.8288168507,0.558368503,0.7785131381,0.6583633096,-0.0126598765,0.8919465203,-0.5664653552,-0.352695176,0.1538766986,-0.4908456868,-0.0808283471,-0.8271161056,-0.5668492739,0.0715815254,-0.1313120893,1.1197289507,0.1697517356,-0.3119602912,0.5893182067,0.8174792025,0.0649553881,-0.1308394642,0.1627504583,-0.5038203068,1.0015656913,0.9362939016,-0.3767370869,0.1374998489,0.5702775219,0.9246194184,-0.7965227212,-0.8497334591,0.5875826008,-0.9446128251,-0.9786987083,0.4770948483,0.5937276145,0.7053735576,2.4689807114,-0.7564220728,-0.776264895,-0.0965038421,-0.5522663666,0.32057745,0.5739840914,-0.2517222585,-0.4358225687,-0.3038895391,-0.1668360896,0.5205673796,0.3477423025,0.4228892963,-0.4167228538,-1.1655286312,-0.3035004543,0.6561440037,-0.2255937015,-0.5595025396,-0.028144219,0.6684105928,0.7416091527,0.3865258967,-0.5840651936,-0.7628891748,-0.9409077095,0.7018838745,0.1419098705,0.9933781913,0.1514797212,0.2214453669,0.53908401,0.3658847473,-0.4299481618,0.3723773687,-0.6959592239,0.9297286229,0.0454306236,0.3924561833,0.5173495847,-0.7099521495,0.0919440824,-0.0986915941,-0.8785201991,0.5792589704,-0.1999062898,-0.2713671427,0.1670322088,0.2028667261,-0.4999514492,-0.7376707319,0.271352556,-0.2333137905,0.6642469342,0.3315493151,-1.0405333966,0.9148151572,0.9509343572,0.4659332844,-0.6173288027,0.7579378023,0.6628333656,0.7685177691,-0.0365203833,0.3359565833,-0.035547415,0.4258754165,-0.3495847475,0.2979129451,0.3474226942,0.4198652134,-0.6742474057,0.3838333472,20.5916740423,-0.7470834182,-0.7678586166,0.2632004461,0.0638398657,-0.4927243312,0.2270831678,-0.0846529312,-0.5699269896,0.5784626813,-0.8168118535,0.8620633688,0.9914851964,1.6650380298,0.6972291589,0.4893691846,0.1673414399,0.9863878081,-4.1330632641,0.6429355416,0.1269228781,-0.3921919381,-0.2650391127,-0.9308856386,0.5305615726,-0.5779545675,-0.5013482991,-0.5656909506,0.4591343703,0.4796889105,0.4472190133,0.9431820576,-0.9581740688,-0.681084461,0.6112629224,-0.47826618,0.0248731425,-0.7942819386,0.6209640595,-0.9882764103,-0.0909508781,-0.7844951577,-0.8561204373,-0.1481454068,0.9356780263,0.5719291166,0.7885094532,-0.9819490918,0.2630194436,-0.4392269297,-0.643069803,0.7514075834,1.8062039542,0.0142423067,0.9753380052,-0.282502122,0.2797782994,-1.4151078352,0.728546858,-0.0461891948,-0.7775082533,0.6621716973,-0.3225575917,0.2429863313,0.9306752449,0.4707654398,-0.4391056795,0.1351841365,1.0513576918,-0.721846828,-0.1099330855,-0.5168318741,0.8548062656,0.3907061132,-0.1153306632,0.8621953633,-0.9036917116,0.4606932028,0.4220358279,-0.4650633398,-0.807323605,0.5771575877,0.4870929601,-0.2453483426,0.9927017512,-0.0321850483,-0.5561762204,-0.1497997753,0.3761868084,-0.7710093255,0.5980965908,-0.5621747019,0.8293578502,0.3517495459,0.2479747479,0.982445202,-0.0344903014,0.900093673,-0.55885947,-0.9536184607,0.6549808681,-0.4608869621,-0.2526577179,-0.2110124812,0.8248381139,-0.6565824588,1.0965101652,-0.17320585,-0.811592555,-0.5157472743,0.9648275776,0.123829529,0.9436994483,-1.5941110894,-0.9436330534,0.4836044016,-0.8867994835,-0.4427642326,0.1473192866,-0.2653610908,0.0853205192,-0.2623151844,0.5778829845,-0.2608551032,0.908570901,-0.1035007959,9.1805053469,0.9889795893,0.7999991222,-0.3964408803,0.8694998369,-58.9244873766,-0.292615929,0.8591759121,-0.5859844668,1.5690442791,-8.2373944657,0.8378926714,-0.8748921995,0.3277938922,0.3022151774,0.7132047083,0.0913987858,-0.0509383756,0.9083590545,-0.3279637199,0.9664329466,-0.0266463302,0.0499958895,4.1959710411,-0.6500483899,-0.1113609013,-0.6149715775,0.2163746055,-0.3021516557,0.6923800557,-0.074353202,0.7143114955,0.6491639399,-0.6688834794,-0.2773751839,0.8957848678,-0.5220108055,0.9764118826,-0.1384455419,-0.4397476326,0.9154877293,-0.4712768332,0.6407415767,-0.5544335467,-0.2010850197,0.8820815972,-0.8469907029,-0.9595127739,-0.5740908004,0.3089081357,-0.6059900274,-0.9074360355,-0.1399119071,0.1254828911,0.6304529757,0.7933665366,0.2958429192,2.861247938,-0.0528588604,0.8984864017,-0.6002934426,-0.1199151089,-7.0636043489,-0.4445474731,-0.9862170854,-0.177201683,0.9608621101,0.8220679933,0.1298140954,-0.5435669211,-0.9050516936,-0.7467509243,0.2843596133,-0.3525852732,-0.1951372381,-0.9163097825,0.4505757649,0.8113620309,0.7834604536,0.2363207895,-0.8477423681,-0.5027279514,-0.1918642955,0.285175821,-0.4612274244,-0.5596018267,0.0322717586,-0.7186960112,0.9312217492,-0.0947226838,-2.4653811527,0.8884630659,-0.5507850291,-0.4876345367,0.2307158421,-0.127525933,-0.5944156785,-0.3157851389,0.7596683347,0.0522200514,-0.6057587427,0.0016715321,-0.4428857039,-0.3121741091,0.4032482991,-0.8670237167,-0.7241586762,-0.2029099129,-0.2756517098,-0.2645969504,-0.0653405517,0.6716491247,0.2675721082,-0.7585731206,0.872078282,-0.9830598441,-0.0490468218,-0.6177187311,1.5541429545,0.632694099,0.3883761651,0.0258891619,0.0942420048,0.0334313015,-0.3676169365,-0.7646317114,0.7791050191,0.4887418719,0.457575081,-0.3762596123,0.3023536889,2.0841029487,-0.0892732861,-0.6891789626,-0.1004198854,0.0076466299,-363.0645252951,-0.0460999101,0.7165419866,0.9939540297,-0.4737699507,-16.0666048126,1.0317368251,-0.9312256523,-0.0159063851,0.4262744408,0.9340453194,0.6787262237,-0.0350075821,-0.5481346834,0.0593524457,-0.8013715073,-0.796322967,-0.9642639651,6.6073969647,0.7016053985,-0.4865937937,-24.3114357233,-0.4014758769,-0.8044096254,-0.5350901782,0.4234906477,-0.8117169944,-0.0395314747,0.523965748,-0.0311057267,-0.0132743547,-0.5825986726,0.6617620122,0.4635921788,-0.3914888425,-0.2183841276,-0.06575222,0.7660628696,-0.6666143336,0.3173974039,-0.7204832855,-0.6675997235,-0.9804597386,0.750347755,-0.6002344209,-0.6728628235,-0.9008870057,0.735066958,-0.7975152382,-0.8932799336,-0.334446006,0.491678666,0.5865199028,-0.8268904587,0.2805555159,-1.0386451002,-0.4649595312,0.7810288426,-0.0828211224,-0.6425366412,0.4463652879,-0.7452253877,-0.5750295222,0.2403791768,-1.0277290159,-1.4270000277,-0.9572991123,0.7186526059,0.7990614521,0.7284147851,1.088227581,0.1458210739,-0.3930082656,-1.089094259,0.0571858777,-0.9075707251,-0.9213552405,-0.1164769018,0.53047555,-0.1319444757,0.0840306095,0.5331768161,-0.5187127444,0.2095460253,-0.7130215124,0.1307883141,-0.0555520487,0.19330465,0.0044969413,0.6108344102,0.2936189348,0.5376456629,-0.1151032329,-0.9065057173,0.7716874321,0.3430573846,0.199030379,0.7890338309,-0.2059107731,0.084198632,0.7729933497,-0.3845759546,-0.1924056643,-1.0342129387,-0.8014966276,-0.6794239591,0.1727756935,-0.8204362865,-0.4182044384,-0.6598617026,-0.2209540013,0.6248615785,-0.0300999589,-1.6851898069,-0.4571232132,-0.3067305923,-0.3056351935,0.569237082,0.0930464403,0.1564649399,-1.0012145934,0.6210782559,-0.8835700808,-0.4062742329,0.8424559518,0.7546032459,1.6749143968,0.4721060062,-0.6952267744,-1.1473002046,0.3256419008,1.5269016282,0.5098521655,-0.0314848206,0.8244602044,0.9664902261,0.2635112363,-0.0489777617,-0.2471963046,0.3374220503,-0.4933814269,-0.0403818256,0.6587865172,0.1912915203,0.8715441677,-0.9559713059,0.0252184204,0.3596821456,-0.1543030906,-28.0174752006,0.5508346356,-0.9012048692,0.9850305593,-1.0227019982,0.4410142558,0.0990671865,-0.1227414598,0.0793397461,0.2283744351,0.4927411738,-0.2503834471,-1.2398163846,-0.5774794769,-0.9476364384,-0.8954259243,-0.6760442774,-0.2271070587,-0.0258584969,-0.1323458269,0.5730559504,0.8317319628,0.3498845003,0.339505488,-0.874190349,-0.5298086778,-0.4544296294,0.2804974249,0.7353416609,-0.5213189836,0.9553647073,0.9738033265,-0.5180040449,0.2288711581,1.5883372548,-0.8379006496,-0.4691618167,-0.7336016167,0.3593417718,-0.5466428104,-0.4405830259,0.592479428,0.4409052771,0.8112238612,-0.7495693025,-2.6600749452,-0.1835054204,-0.3424854419,-0.2437421883,-0.5506296054,0.1233222859,0.1193233825,-1.5228519076,0.3921325767,-0.2816405963,-0.7431189866,0.8739264825,-0.4528461691,0.6256646926,0.3217977955,0.5339939886,0.6611577021,0.9251314912,0.6735598705,-0.9768460371,0.5282906732,-0.7212352463,-0.3638378958,0.3143972746,0.4325705766,-0.2230975321,-0.6304865358,-0.4242234485,0.5187095871,-0.010927456,0.1864399552,-0.9578101794,-0.6634096131,-0.9505230719,-0.5119249095,-0.1887661242,0.2011879409,0.8074575039,-0.7086639226,-0.0782297374,0.2436712054,-0.7635921682,0.7140841789,-23.1217623309,-0.1930237075,-0.0954526648,0.1852475834,-0.2113325779,0.113804791,-0.9667748548,-0.1206422806,0.3039749819,-0.3324234958,-1.0780730985,0.1793911337,0.4209637989,-0.8014724845,0.17713825,-0.151319331,-0.6525552548,0.4280905583,-0.5321789432,0.1434123142,0.4418989989,-0.4352761814,-0.0842285881,0.7070725158,0.1131545735,-1.9736490642,-0.9952206363,0.1280468605,-0.9386148588,-0.1926175739,-4.6760372722,-0.2190536196,-0.3080435415,0.2843352873,0.6398531323,0.405633387,0.9079721282,-0.7718109228,1.8921937864,0.3533389557,-0.0087443378,0.3818877823,0.854551538,-2.6161231207,-0.9755580023,0.6431242709,-0.0732540252,0.6331489339,-0.04691347,0.8341813688,-0.637763293,-0.2222989234,-0.4991142924,-0.5733852852,-0.7647692936,0.1548838519,0.48176502,-0.8424653735,0.9965791269,0.359743574,-0.2901551148,-0.9929593864,-0.6943552166,-0.2954313628,0.476180906,0.2819146488,0.8636977248,-0.9200569492,0.2473014737,0.5613896202,0.600999346,0.0344665117,0.4784436631,-0.3980457169,-0.2328805184,17.2708126678,-0.4700826923,-1.0351243928,-0.5962011519,0.0641352864,-0.7025803062,-0.1804006223,0.6691013753,0.7044168465,0.3126956774,0.3083318108,0.1001997499,0.6875386207,-0.0918830157,0.0985479658,0.0871070559,0.6391228786,0.8405554189,0.1717154554,-0.5040339151,-0.2134634433,2.6107139335,1.043946487,0.8094521794,-0.8711458711,-0.6058491023,0.2694648477,0.000573736,-0.2355256727,-0.5585066392,0.3308178264,-0.6346490896,0.594575284,-0.7333331656,0.2715772505,-0.1508627604,-0.4101685083,-0.5147298883,-0.06512311,0.0193439884,-0.8075067333,0.0455446202,0.9663908824,0.157293397,-0.962105357,-0.2593188978,-0.3402985697,0.6437019015,-0.7431889012,-0.673202877,0.2229826486,0.1871892249,-0.9427507868,-0.0500412822,0.0222368047,0.886703826,0.5849719823,-0.1817283263,0.2837328863,-0.9956922536,0.820264346,0.3755090912,0.0530907852,1.3617978346,-0.3728775933,0.8525965183,0.7311836003,-0.6415939777,0.7960579182,-0.129611974,0.6613236473,0.3291423187,0.3220261176,0.196737082,0.2048299227,0.0345077203,-1.1683558261,-0.8325618467,0.290236392,0.6637257162,0.9113424178,4.9209597737,-0.0453445666,-0.0520641271,0.3029806894,-0.2297151414,2.0360995531,0.8200806417,0.7459369587,-0.2989327036,-0.6073714778,0.3414224869,0.6464263192,0.5582828533,-0.1415728568,0.0929322324,-0.3441846345,-0.9223568154,-0.0454636367,25.2176606692,-0.362311936,-0.3960390237,0.0919052611,-0.0961560056,-0.2221934299,-0.5296559694,-0.4956926164,0.4605661307,0.4469922376,0.5564227874,0.1106111362,1.0704143058,-0.1550951684,-0.7858502227,-0.2859402704,-0.1255848341,-0.3042495662,0.7842688211,0.5087442774,-0.6638757555,0.1080101872,0.5563371327,-0.3046080082,0.1679988918,-0.0817003377,-0.8887362832,0.8526405321,0.0967313691,0.9429936161,-0.839459299,-0.931485004,-0.7858545423,0.93294159,-4.777784088,0.6650125018,-0.2933143601,0.7051932493,0.7239556015,-0.4885517645,-0.0868393206,0.869827254,0.0476710893,-0.5896577374,0.9896784616,-0.2310562131,-0.5845823586,-6.6222572027,-2.1878819786,-0.3549882737,0.7748424858,0.3923055947,-0.3539256869,-0.7546743647,0.3950645302,0.4901560573,0.5944335342,-0.9953251554,-0.2423995333,0.0210058313,0.2211068326,0.4120968107,0.1634067384,-0.4278553678,0.9799017041,-0.0091705445,0.541377476,-0.2648997892,-0.5179586403,-0.2762590568,-0.8247059801,0.9289548818,-0.8164121067,0.1674619156,-0.9012067729,-0.0612257016,-0.3685743081,-0.9362263281,-0.6795931527,0.9876685654,0.3189429435,0.4090441711,0.5225581586,0.9013447424,-0.6612768407,0.4602445681,0.369022863,0.9056013696,-2.4001406809,0.5521612725,0.0104540193,0.0871011289,0.8943664368,-0.569613792,0.6588246253,0.3268791271,0.9442450642
   0.3558988135,-0.3924843629,-0.2365511573,-0.7532470416,-0.8092474827,-0.5040300896,-0.9233501315,-2.2129560004,-0.3208015394,-0.8020155109,0.1889126472,-2.5092568432,0.6799209676,0.9384651195,-0.6711664256,0.7081118946,3.4770467154,0.3900344028,-0.2443842229,-0.3254954913,0.5231328573,-0.1206112263,0.0349073258,0.7169709764,-0.4665882584,-0.4941483965,0.2754560663,0.1432973585,0.237046283,0.3576783773,0.7356620598,-0.9542555408,-0.9137224233,-1.0035740887,-25.9883503513,0.3543206982,-0.8435380652,0.3490429603,-0.1593742053,0.2333008735,0.9485442683,-0.9907557419,-0.1439661154,-1.3751435505,0.7338115113,-0.2687909029,-0.1771316721,-0.3231182919,-0.3908794808,-0.2917957211,0.9482755808,-0.2576730101,0.5644321448,-0.1376988889,0.6267833131,-0.9274827069,-0.297589876,0.3119976026,0.7244052113,-0.3194958037,0.1831392481,0.8356764899,-0.9215840928,0.9858862337,-0.2619992562,0.1119627897,-0.1357137301,-0.9024376455,0.3890867665,0.9320352371,-0.2616316761,0.3168083097,0.3144976292,0.570716085,0.1773297557,0.4893770159,0.5828736668,0.7639415079,0.2458598208,-0.4569807179,0.2495663767,0.7959264218,3.9908482664,0.0473211379,0.6517513629,-0.0746632037,0.7711221347,-0.0282777711,0.0313448126,-0.4215396641,0.2131725498,-0.268841391,0.8769040716,-0.2309628559,-0.5827051327,0.50141732,-0.922520258,0.5500179912,-0.8247341864,-0.6363829721,-0.7927630172,-0.2905286349,-0.5662140929,-0.1215878898,-0.3883108435,-0.81025409,-0.430743653,-0.1365384596,-0.7000554228,-0.9701060229,-0.1478195556,0.4243663928,0.5367743824,0.2366643935,-0.4166988539,-0.6245160697,0.8189027862,-0.0430730341,-0.8738928266,0.1384517516,-0.2612030647,0.6089677267,0.897256057,-0.6216675796,-0.3579626426,-0.5550269108,0.7592939357,0.1844148278,-0.7417040401,0.7595261641,0.2437316049,-0.9333123708,-0.5296217231,0.217165479,-0.5316736829,0.7854386858,0.9100531901,-0.1210656103,1.0555242428,-0.2626653702,-0.9193788586,0.3914942273,-0.5016384742,0.7359065418,-0.1328928646,-0.3464420555,-0.9460524993,-8.4783117193,0.8482576014,0.4416944465,0.7937316624,-0.5547583612,-0.1812614852,0.8401681043,0.4513105007,0.6713086753,0.8317099493,0.580524012,-0.7360973764,-0.1288914551,-1.6543678125,-0.6684171741,-0.0168971123,-0.2072174244,0.4033528629,16.9865249148,0.4271103697,0.8321100206,-0.896960333,0.7930217446,-0.6922199812,-0.2183255029,0.1241913817,-0.4090577758,-0.7947307231,0.544023626,0.2314425872,-0.6048661657,-0.0215104793,-0.4041300741,0.1671200523,-0.5511900132,0.0988767012,0.0937951188,0.785725873,-0.0221783921,-0.2793310461,0.8551220727,0.9969494821,-0.2790122237,-0.7109194606,0.80231002,-0.8025669116,-0.6876557757,-0.8666426449,0.3119406142,0.1836340167,-1.1655029704,0.6153079295,-0.8046256282,-0.8125341896,0.5224409674,-0.4466535582,-0.5935636026,1.231850612,-0.9717747649,-0.2574060046,0.2577444127,-0.8377898729,0.4885293713,0.7381563943,-0.4222914406,0.2931713653,-0.3864666736,-0.1151280031,0.1012064647,0.5232251273,0.9198633378,-0.9396303296,-1.0835719216,-0.0113004384,0.6740148614,-0.9861145345,0.245663836,-0.2074832214,-0.9787032658,0.1610803538,-0.229294888,-0.1524248531,-0.971189704,-0.8210894749,-0.8734360321,1.1247022503,0.4307891524,-0.403311589,-0.0114803702,0.98483947,-0.9627412466,0.7498142205,0.3835921679,0.9841682296,0.8437197439,0.274085545,0.8608790093,0.2083488246,-0.0474243363,-0.6802531899,-0.8927167512,0.1486670013,0.6035457944,0.666547226,0.5462141718,0.608511868,0.5591366787,-0.8763634128,0.0734206148,-0.7643393716,-1.0059422545,-0.1337142426,0.1371248235,-0.3574206963,-0.9094979166,-0.9009397718,0.0130509851,0.0392199706,-0.4393141717,0.538887921,-0.8884575184,-0.3462703029,-0.0139871075,-0.5335659978,0.9366877315,0.6373085983,0.1204949853,-1.0033571849,-0.7944269533,-0.8109684108,0.3157531223,16.3438576697,0.0659823498,0.3276352234,0.865681371,-0.3792124746,0.6631651109,0.4979303148,0.2334576185,0.385421341,0.6482984816,0.133243122,-0.7557098373,0.0328182495,1.4065442761,-0.5179558606,-0.8065034282,-0.0425557346,0.2489331236,-5.7719188648,-0.6157962878,0.532039639,1.036308484,-0.359577368,-0.8959519102,-0.8493181135,-0.3887158171,-0.9427570014,0.4194787508,-0.9339855777,0.433825881,-0.2589568066,-0.2859177176,-0.2664426332,-0.6724102884,-0.9291628048,0.4113116217,0.260879299,-0.5361553737,0.1494881435,0.0517292407,-0.3393332978,0.1860377985,-0.2310312642,0.8405228111,0.6076119341,1.020691835,-0.8381321488,0.0785757674,0.0173590669,0.9900978771,0.3790051259,0.3862200327,0.2917490897,-0.0591833069,-0.4598427915,-0.1984931775,0.4599072331,-7.3422482257,0.9421701955,-0.1306810567,-0.1204639328,0.8457526752,0.8711857747,1.1233245409,0.5492761554,-0.4389279273,-86.9867907627,0.303769726,-0.3779873673,-1.7811900446,-0.2434194929,-0.2078189747,-0.6082920752,0.964793305,-0.7221361017,0.337005742,-0.800155774,0.973291875,-0.867585994,0.7674127657,0.5734217407,0.9901365222,-0.6128598609,0.6675963968,0.6865927002,-0.3020987478,-0.3453361507,-0.1936849389,-0.886677269,0.8687289454,0.5356915379,-0.742846795,0.5904222456,0.177900389,0.3020678009,-0.5893720111,0.3882529008,-0.7794299835,0.6243625812,-0.3656772624,-0.0173557708,-0.6078748075,0.7830657669,-0.8780423407,0.8626518075,-0.0027942385,0.3368125397,0.7363037248,-0.6683516596,0.4843095123,0.1613493054,0.5511910789,0.9801977166,-0.4006880242,-0.8755652487,-0.4421551986,-0.1559563393,0.863509327,-0.9591747747,-0.7796090817,0.8163880695,-0.3229877223,-0.4617757742,-0.4232691181,-0.2715152661,-0.5378031939,-0.473934138,0.6393243274,-0.8985038566,-0.0946023162,-0.9787783151,-24.9423482023,1.0106872083,-0.8645137726,-0.8003824728,-0.0187912277,-1.7544770754,-0.8666749527,0.3268082457,0.9528468066,0.7471890126,0.1436120652,-0.1784772781,-0.1491551702,-0.8785636402,-0.8030571938,-0.4689372233,-0.0778077443,0.468789977,1.3643244598,0.4305025232,0.0811260495,-0.4043263297,-0.6426443843,0.6922680516,0.9645342564,-0.7239425738,0.3562914451,0.4490173802,0.9813048945,-0.5485037473,0.4509793615,0.0043208215,0.6172417102,-0.8180502047,0.4718059088,-0.6019023044,-0.4230851429,-0.0683640054,0.1898558308,0.4907707567,0.3098794702,-0.9485300589,-0.4162081543,0.6342762079,-0.2727916203,0.8132660263,-0.76777291,-0.1113633958,-0.7415256308,-0.7930344959,-0.7947770989,0.7603072862,0.8510588665,0.1149702131,-0.4506691376,-0.4212128036,-0.5837823,0.5507707163,-0.3161913966,-0.7181020384,0.0421108189,-0.8087772053,0.871964836,0.6166815339,0.4055543546,1.1162236444,-0.1632997088,-0.4719971295,0.7306493068,-0.2232185581,0.8225073553,-0.1600572954,1.632057179,-0.7705483646,-0.7656638996,0.2311546355,-0.9386634136,0.0937313925,0.2557039792,0.4581057528,-0.9480593565,0.84147435,-0.774368989,0.8732338608,-0.2629433495,0.2838124478,-0.9431892773,-0.2071995076,-0.0454593746,0.1613628304,-0.1790303561,-0.2451217536,0.0509830621,-0.5883843731,0.9784190814,0.1622160898,-0.244739121,0.5477518202,0.2043675103,0.8063967418,-0.597478715,-0.8174553742,-0.3685390962,0.4314269015,0.6910784726,0.9466546745,0.4838032288,0.8066029774,0.6200529381,0.5118931614,0.8515381296,-0.4965827809,-0.591426567,0.7811379081,0.2902319346,-0.9867013341,0.7748169595,0.6354007824,0.7931907449,0.1599057229,-0.2327406348,0.7720232372,0.9660586409,0.3212104278,0.6452430387,0.4537375086,1.5657357696,0.0013492285,0.3154373911,0.9592465461,-0.9401312827,7.5419563063,-0.6445469996,-0.6129250018,-0.6695560761,3.5967993725,-0.028687599,-0.1304841482,0.2698515651,0.7950016708,0.3610538573,0.1363853052,0.6188479574,0.4734559907,-0.3127837056,0.0466961877,0.2260731803,-0.8145046807,0.2013648597,1.7908508744,-0.31038846,0.7220590674,-0.5615474161,0.3680819789,0.839141478,0.9535543754,0.9305045013,0.1944726162,0.4941629665,0.8584210486,0.2856816204,-0.0890520874,0.0665879846,-0.7905323372,-0.5045233533,-0.0612870711,0.7862644163,0.3908979282,0.1430925887,0.0670267483,0.189209919,0.2228765982,0.7470553433,-0.25936533,-0.6002975035,0.8741462531,0.6508177939,-0.0353647617,-0.1495178473,0.2713137924,-0.2357496882,-0.8808535638,0.9076836253,-0.8176547563,-0.7034011645,0.8789719923,-0.8812007308,-0.5227182645,0.9115025944,0.3972158839,0.5990871057,0.8847963495,-0.8211671738,-0.1161267233,-0.927218425,-0.7785812882,-0.7461589335,-0.2224606992,-0.1432053458,-0.1181003062,-0.7618036368,-0.7594356681,0.3047635385,0.3250454838,-0.5799744339,0.4351345727,0.1093995853,0.1357041681,0.2708936714,0.5195154325,0.632046853,-0.3507785453,-0.1885654272,0.8836830403,-0.9598490706,0.8225976843,0.6863980511,-0.4300493585,-0.7726536229,0.2146282131,0.4633383396,0.5600204693,-0.7521684662,0.2145897809,-0.2120630611,0.8324666247,0.6338910421,0.9299182731,0.4990010305,-0.989999838,-0.4942531547,0.0377193628,0.3726994637,0.4842108059,0.0476889114,-0.6499651327,0.1337755247,-22.5286430335,0.4301464947,0.2896305175,0.0417309838,0.9787238058,0.3281664108,-0.936015196,-0.7381469814,0.3696847392,0.4714039412,-0.6087725917,0.0563165505,-0.084380603,0.7157914735,-0.3479591553,-0.4004504383,-0.7217429461,0.2790461178,0.2015287285,0.7231047517,0.6587027742,0.3835785323,-0.1219673034,0.6405440595,-0.4311048341,24.4587117159,0.08284137,0.7451354762,0.6893463235,-0.0585225369,-0.3578594438,0.7584759472,0.4698056875,0.0109328173,0.0757624481,-0.919985779,0.6361891837,-0.4254095327,-0.9208411962,-0.680449768,-0.9507040082,0.2661043496,-0.9688025722,-39.872450164,0.7687653175,-0.1032887627,0.9574615683,-0.3481436418,-0.1400745097,-0.9505111696,-0.8033076656,0.5731300521,-0.4308023158,0.3239466094,-0.8777849114,0.5078142283,0.6083090994,-0.2043766232,0.2207813344,0.4506948468,0.607516405,-0.1377368516,0.6793450301,-0.1801023146,0.9079869585,-0.525676434,-0.0332081745,0.9287087605,0.1370440829,-0.0139040755,-0.2911702226,0.2325776776,-0.0484966136,0.4638715289,0.098365685,-2.3807055823,0.5977779463,0.3283710146,-0.0398096338,0.4534865993,-0.4030584608,-0.8663744952,61.1627333963,0.0424571937,-0.5053731126,0.6455077898,0.7705195015,0.0707649254,0.2061800374,0.6772077937,-0.1230583301,16.3364181878,-0.2963832809,-0.0361792591,-0.8580235985,-0.3425419054,-0.3879006664,-0.9998189735,0.2154144221,1.0023591389,0.8417137339,0.9032335746,0.4033057711,0.6756790643,-0.5563726214,0.9544589055,0.0264007521,0.9585820971,-0.9092645503,-0.420783474,0.4689834375,0.4903842359,-0.819769725,-0.3166905895,0.7257838966,-0.4898841876,-0.7025960971,0.7601652853,0.7450251525,1.104831022,0.4967924507,-0.913389698,0.4104388947,-0.8333229842,-0.0452719991,0.4479638983,-0.1529965218,-0.5714092228,0.3046094293,0.6466034393,-0.0399709535,1.5451003753,-0.0701187671,0.2982791854,-0.2437504536,0.7892754046,-0.9603274032,-0.794407462,-1.0557939986,0.2021985171,-0.6012490074,0.6424065382,0.1323062959,-0.8263539655,0.8684871707,-0.5117825658,0.9094984904,2.0707570927,0.1084792593,0.4137082822,-0.3522499659,-0.3760654394,0.9093598332,0.1909930153,0.2040078232,-0.641692343,-1.7514832553,-0.650646686,0.601216138,0.2386841894,-0.5685626811,1.3374544139,-0.515230829,0.8304522786,0.8261025024,0.0587459206,-0.9729326116,0.218433586,-0.5779596759,-13.1727256058,-0.5495176025,0.1244604686,0.7536592369,0.818536589,3.2735023109,-0.6481945041,-0.089021274,0.0997874159,0.3241373126,0.3234190755,0.5316472372,-0.0310884761,-0.4241780857,-0.3861907993,-0.2424807342,0.1602314583,-1.0507820454,-0.8032151158,-0.1753924259,-0.8694726472,-0.9382630043,0.094981575,-0.6201918266,0.2684651275,-0.8821702697,-0.4655576631,-0.2808790218,0.7611555881,0.1789152156,-0.8621759219,-0.3635689323,0.208364808,-1.0774436702,-0.6833044276,-0.5026650119,0.9929140458,-0.350925788,-0.3476343985,0.448180943,0.5156409434,0.1431379759,0.0987739531,-0.2643123386,1.8075106938,0.7354719712,0.1046104205,-0.3395591186,-0.2344969347,0.011266737,-0.2171548041,-0.8862640047,-0.632329718,1.345484174,-0.2951223966,1.0808075126,-0.6583981891,0.9944787903,1.0097533073,0.8289156781,0.5072609768,-0.7574960019,-0.4230259985,-0.1838241712,0.8166435566,-0.9875845775,1.0062014488,-0.9971493293,-0.3357245917,0.7886368696,0.827512754,0.8450876773,-1.0166197871,-0.3597623179,0.5865473589,0.3989524876,-0.672081159,0.4443713127,0.7549779213,-0.563903732,0.4853620254,0.3406987103,-0.8062168172,0.4963133807,-0.0416251733,1.0415811775,-0.2331385009,0.5837515212,0.8852916763,-0.2000545713,-0.0917343394,-0.5435920689,-0.3099255263,2.2141143916,-0.0148132359,0.0902302517,0.7257092843,-0.070868141,-0.7520112905,0.1225108851,1.0423927393,0.1759174657,0.3132469809,-0.9329192048,0.5315989102,0.662922728,-0.0215890726,-0.5027255121,-0.1975502631,0.3114072906,0.2415629934,-0.6671091386,-0.3395393094,-0.368216469,0.3027972867,-0.5105563921,0.2505806323,-0.3549014205,-15.58989923,-0.7843895077,0.5626101373,0.7938877288,-0.6428357473,-1.2902231872,-0.0733096511,0.416319982,0.3565133786,-0.3349650907,-0.1390409483,0.796425217,-0.2466012833,-0.126639532,0.2627251513,0.9170317867,0.5502211791,-0.5373717918,5.8997787104,0.2162907534,-0.8192753789,-0.0337582471,0.4905400402,-0.7705411535,-0.126434137,-0.8351962001,-0.4485037518,0.7736665669,-0.9179038511,-0.4455288659,0.3811825057,0.3613567386,-0.8069665176,-0.8542245516,0.7414763343,0.7459538982,-0.3534354266,0.5241887685,-0.1407146184,-0.8712456607,-0.3487951157,0.5158053021,0.9454073448,0.8130863438,-0.0198069277,-0.5481376389,-0.4328607732,-0.6713163827,0.0202541125,-0.7467059268,-0.313200366,-0.698073957,-1.6732984293,-0.1216690495,0.3686326613,-0.6619725303,-0.7811094433,5.4712522986,0.3505702776,-0.6573990841,0.5275841974,0.2760348486,0.0920401657,-1.1120183172,-0.0069733836,2.9115431669,1.0743622071,0.4794048046,-0.4168825111,0.4460714134,0.6421217487,0.9313528699,0.2999037283,-0.6113113935,-0.3274424911,0.0066509943,0.8347784452,0.1291857567,-0.2935668494,-0.8021241089,0.5281142315,0.2250408417,-0.9059006155,-0.4063916598,0.525721886,0.8099443756,-0.7391371311,-0.3794728092,0.0707220358,-0.3064385657,0.8555744043,0.0187025677,0.3318885438,0.5042796699,0.8573194587,0.1257158057,0.6005978398,0.2756477632,-0.515113586,0.457810159,0.5614678527,-0.572615752,0.3075919294,-0.7600515019,-0.1479781646,-0.7233053312,1.1674635289,-0.2703074459,-0.7232075027,-0.0860048933,-0.6265052524,-0.9611017387,0.4399463555,-1.4639264948,-0.362161837,0.0560361894,-0.3476567478,-0.4365614606,0.4258768561,0.0635849014,-0.5789026943,-0.354949335,0.550488586,-0.0773609194,0.9569229147,-0.8961546914,1.1386437943,-0.5143541247,-0.0249755046,0.2266180003,1.440305792,161.0535270782,-0.0691226678,-0.5171523596,0.2300677617,0.946688677,2.1436058951,0.5678682173,-0.5505089599,0.0008297747,-0.0379540742,-0.4479873616,-0.4980640697,-0.5916018595,191.3781668966,-0.3285336985,0.5588460167,0.145545455,-0.2857373583,4.392775384,0.3047044117,-0.5159957205,-0.7972561554,-1.0277069283,-0.5821494982,0.5421320943,-0.0851860994,-1.0822029795,-0.2064302343,0.110755241,-0.2126241592,0.5883738692,0.2141760078,0.4782149288,-0.8425699027,10.1700089384,-0.7576767007,0.2207799141,0.9081535329,0.4786047073,0.6737770525,0.8585142102,-0.8194045123,-0.6479731837,-0.4787920982,0.8777359598,-0.4743885478,1.007533245,-0.9436388808,-0.2325637656,-0.5466586152,0.1637265233,-0.7285655388,0.1617376969,-0.1368900862,0.2965882521,-0.0375345464,-0.0111288864,-0.5624140149,-0.5554898515,0.6131914229,-0.2779088863,-0.3392634513,0.9561835839,-0.2751182868,-0.0390059752,0.879600792,1.1919119112,0.2409003182,0.471472422,0.1203736419,0.9341659829,-0.9146641815,-0.5110898955,0.5023639166,1.0293773682,-0.647628153,0.4427678742,0.1447402076,0.3155315939,-0.1009216942,-0.3818348729,0.5736239693,-0.7625663668,-0.93393351,0.1131977821,-1.3964282898,0.4278586475,0.9045520958,0.1919201568,-0.8275049464,-0.431182819,0.4660130657,0.6564377247,0.6485393974,0.6982438537,0.598421967,0.8155898007,-0.4673406335,-0.0464525079,-0.8009257089,-0.6483794034,0.6624629151,0.3375027601,0.6905654418,-0.1688072349,0.3162317,-0.5789532499,-0.3329917547,0.2152690625,-0.6056896096,-0.8012400406,0.3739702972,0.4075188942,-0.1277360598,-0.5795605286,0.1949191887,0.7689233263,-0.0411400078,0.7829046217,-0.7086433708,-0.7061457986,0.3723467306,0.5689656921,-0.4509303966,-0.6262015706,0.9705044272,-0.8686720323,-0.8792989766,-0.9619636428,0.4645818116,-0.1342815635,1.7840682884,-0.8160175524,-0.7304657617,-0.1769502309,-0.3769490771,-2.8561404886,-0.9451054109,-0.5633604469,-0.1379546511,0.8243120476,0.7651746088,0.2610153907,-0.9436997127,3.6950448931,0.2753358422,-0.8539531361,0.1616787525,0.0402049265,3.4672913694,0.9257661965,0.6963409633,-0.1870203734,-0.2620138143,-0.0865298184,-0.6953550301,-0.2582932688,0.6801884598,-0.4602159955,-0.032739655,-0.3353546161,0.7431715759,-0.5669283777,-1.1228764067,-1.5252341173,7.6813461933,-2.7168285119,-1.1248910271,-0.6959097765,2.9063060485,-1.5059729353,-2.3488857641,-0.8600890475,-0.2607189524,-0.5619023884,0.3649257242,-0.9539761832,-0.7717130148,-1.9472043373,-1.4923565589,-3.0086844512,-1.6029887137,-0.4383264,-0.8020322116,-0.541049418,-3.2069887694,-0.6901054381,-6.9901761326,0.8607875777,-0.4807039715,0.6846155565,-1.3692900523,-1.5231412655,-0.6809858279,0.0714679017,-0.1774666398,-0.2368123798,0.0549253315,-0.7248060633,0.0293042079,-0.9404652176,0.661078851,-0.3880096581,-0.5690841289,-4.7160760158,0.1522722301,-2.7338525017,-2.1255683025,-0.7044452087,-1.7593111335,-4.2983694155,-2.0426642363,-0.3490252715,0.0902051322,-1.3029758425,-1.3686479198,4.4679316449,-0.5688592661,-0.6290867128,-1.8004793872,-2.3278623879,-1.2423584264,-1.6707074992,-1.6244545417,-1.7674821934,0.3219777228,0.2473156006,-1.004209027,-1.4291709508,-6.0436209446,-0.5607490503,-2.7382712987,0.1364620641,-3.9057020232,-1.2394587887,-0.7261343111,-0.5213783021,0.8435280404,-1.6581992531,-0.2054878365,-2.2378825159,-2.8726543546,-1.7790604022,-1.4603784281,-0.2232441021,-1.5560175507,-0.706594631,-0.9322934221,-1.5535655065,-1.5348591907,-1.5248295566,-2.0285595804,-2.939196897,-1.4481860523,-1.6409062372,-0.7612165654,-1.9398816212,-0.1815373144,-1.5152677258,-0.4159390041,-2.1868782305,0.1221209933,125.154294766,-5.6900609706,-1.0259573136,-1.2973388892,0.9479351078,1.9737146431,-7.0624885203,-2.4994997366,-1.7552403557,-1.5546075032,-0.0998353039,-1.7638717028,-1.1166967049,0.7417589857,-0.6022229592,-0.5903429785,-1.4719881493,-3.4652913939,-0.8094052281,-2.0787017375,-1.9811656532,0.3325082324,-1.8207738061,-2.5889610493,-2.0370137113,-0.8669209457,-1.2145556158,-7.8031581831,-1.5657194717,-0.9285179376,-1.0018972075,-0.8078052507,0.4354864605,0.8626480124,-0.2430711135,0.3690102874,-0.1295892593,0.4779194304,-0.2768648952,-0.7841154832,0.4875318471,0.2910962431,0.7167906317,-0.2551007255,0.2977089765,-0.1845441075,0.2633061949,0.3630197967,0.4365974869,0.5362062415,-0.1429673009,0.1321355964,1.7373039243,0.4838750834,0.2336460081,-0.0357760127,-0.9136351273,-0.0141753562,0.6136798303,-0.898709141,0.3917835252,-0.8934262491,0.5051122997,-3.5489568758,-0.7605012745,-0.0128451463,2.4095802488,0.6082422969,-0.7144834715,0.5818136439,-0.5018322546,0.164542956,-0.8997778932,-0.2169627453,0.7230129446,-0.2401653635,0.4988216814,-0.8379950788,0.3632306864,-0.7728745449,-0.1343628419,0.1053800434,0.0861285906,-0.9683364914,0.6908309663,2.3775514117,0.3139930366,0.182799311,-0.1710275762,-0.7905334008,-0.5817933397,-0.4777409386,-0.7326979498,0.853400067,-0.1710549306,-0.3863575009,0.7080874159,-0.7255187775,0.0750903874,-1.0033826317,0.1138199517,0.9131107236,-0.5775306434,0.5200574953,0.3780256578,-0.5494423782,-0.2520340903,-0.6040871522,0.6405424408,-0.0744103262,0.0345487722,-0.1818276253,-0.9718103021,0.0235693345,-0.104935868,-0.7097648148,0.3206154204,0.6232681753,-0.377379141,0.0811334419,-0.8915713291,-0.2402071431,-0.4700315115,0.0441700657,-0.2530468733,0.7059525021,-26.2137326264,0.7212033341,-0.1482937515,-0.1497818319,0.778654966,295.5247727216,-0.5559136403,0.7115080575,0.0290768055,14.9856287298,5.0892992211,0.0263743346,0.5088603611,0.276129936,-0.5768677331,-0.8039565123,0.3864209174,0.3309194594,12.2438386572,0.4768078635,-0.3897170529,0.8162337524,-0.1927367109,-5.7582887261,0.0412809655,-0.2371758922,2.0587078027,0.0031070321,-0.4940923062,0.1200765429,0.8285307982,-1.0057037358,-1.1163161603,-0.3158701774,0.0616504072,0.578105694,0.0815492346,-0.7600765383,-0.365169856,0.8189164337,-0.5389358085,-0.217927264,-0.3820967825,1.0248887766,0.4594184634,-0.6705177932,-0.981815128,0.2652589644,0.177512448,0.9370847152,-0.4555850797,-0.2433314948,0.5669905611,-0.134934118,0.7461293855,-0.761179991,-0.2977931313,1.0098758529,-0.7102695303,-0.4853940613,-0.1662748107,-0.3110183231,-0.4587397984,0.1569771752,-0.3788253718,-0.2829002171,-0.8175934767,-0.1557992822,-4.9751833176,-0.6905186816,0.4918103546,-12.9824013283,-0.0144140917,0.8246101325,0.8902411541,-1.0591668586,-1.0456074734,-0.5971380911,0.3449865406,0.5950059781,0.813546395,0.4792761881,0.8447823852,0.9777970085,0.4127013014,0.233116661,-0.2522203767,0.662056557,-0.6991080578,-0.4248598857,-0.4572768223,-0.5882869208,0.5015164243,-0.8629212837,-1.0796402615,-0.7326218837,0.4587583989,0.0858760828,-0.571376675,-0.7474454948,0.3036578091,-0.9634897934,-0.6180450063,0.2698123604,0.5024836925,0.5768203099,0.9038060724,-0.5794503796,-1.0278308881,0.3102451244,0.0113775535,-0.3992540119,-0.7715686856,-0.3297466766,0.3396105189,-0.7819594832,0.6647023011,-0.7515405229,-0.921235027,0.5870311698,0.3825868833,-0.4267865361,0.0958629844,0.1080250926,0.155561942,0.6142362318,0.2656689952,0.6856242479,0.2677894417,-0.1436466754,-0.3090836867,-3.8440141282,0.7962121378,0.3835731547,0.7934741429,0.1365899219,13.7956731343,-0.6578829252,0.3201915285,0.7691744271,7.4203656395,-0.4566045181,-0.245478376,-0.6812365456,-0.7097955905,0.8925035252,-0.7781910801,0.1909399729,-0.7424565654,-0.69492062,0.6944102075,-0.6467838834,-0.5548339124,-0.3723124344,-5.6265329347,-0.1042745861,0.6247900327,0.736501477,0.4441105766,0.2796963642,-0.5877478923,0.750808681,-0.2332975981,-0.529091952,-0.3649874355,0.4318461254,-0.4129560546,-0.5568859818,0.4883861913,0.8338681597,0.1438230806,-0.53316337,-0.2971245477,0.9649863405,-0.4464932114,-0.2162840996,0.7233729589,-0.1194971384,0.4331912385,-0.2299804115,0.6341729093,0.9826479513,0.114964566,-0.2786028326,0.4237345066,-0.073575677,-0.1173881603,-0.0570891305,0.5194729836,0.092309156,0.207918708,0.1421475397,0.4063962561,2.5531418725,0.880654299,0.3306369473,-0.7533641602,-0.5474282722,-0.0855518083,-0.8340755197,0.4470326792,-0.0175847108,1.8175201141,0.590400601,0.3242752283,-0.6538446028,0.8925019577,0.2440769002,-0.0211899698,0.4685197292,-0.9133599442,0.8278648319,0.0287383766,0.1347300281,0.1034968083,-0.0433837256,0.1671412225,0.7246223775,-0.8838605847,-0.6139959012,0.5747315008,-0.138449603,0.3128533446,0.0764098773,-0.1989092137,0.1869355073,-0.2466751349,-0.1334485989,-0.1577602126,0.1443948337,-0.4219535581,-0.7293692684,-0.6619772757,0.8228672485,0.6021212249,0.9730122822,-0.1685385035,0.3509666589,-0.1539877862,0.9388168686,0.7489425298,-0.2073454518,0.2052194581,-0.3433951854,-0.558611721,-0.7314852655,0.8647387846,-0.5644635496,0.3946695438,-0.834648108,0.7482909868,0.6975367642,0.2677510043,-0.7767341359,-0.0287733405,0.5999703717,-0.9806066204,-0.6043385021,-0.5499610391,-0.0768308451,0.9380047759,-0.0840430846,1.038184498,-0.1090947532,-0.4468713061,-0.042015041,-0.228756594,362.7999148505,0.4041038777,-0.5442902594,-0.8894415976,0.9904875707,1.1105261571,-0.3149394807,-0.6672056109,0.4566324622,0.6626076163,0.5441015581,0.8107963446,-0.3126309243,0.0935426475,0.2974978227,0.3586105471,-0.6787696763,0.7978275841,-91.8772946169,0.4081944402,0.0810237873,0.4820564277,0.1180589212,0.5088262179,0.3888324568,0.0807441268,0.0435081304,0.3568879627,-0.3586940931,0.4601878494,1.1720022611,0.7375930156,0.8287230986,-0.185057082,-0.5920724535,-0.5132972431,0.315016821,-0.0267657168,0.5968339739,0.8770794558,-0.0586985695,-0.0156832271,-0.4024447411,-0.1838957431,0.487458232,0.4502015215,-0.6744361753,-0.2938699681,0.5036535727,-0.032789532,-0.6896543605,0.9529355929,-0.7099130561,0.9363018124,-0.0550019799,-0.2308677997,0.3539534264,191.1334928356,-0.8369561535,0.9083330143,-0.0704014055,-0.2035703753,0.5527343762,0.8276647599,0.0699576643,-0.8962288992,4.0756636863,0.9279756518,0.8696373872,-0.3233429928,1.0016955671,0.019811488,-0.1245496744,0.5678254222,-0.9157490302,-0.5864868091,-0.4208226873,-0.3901100956,-0.2297531586,-0.3259755631,0.9304229233,-0.401041923,-0.6213054922,0.6687262301,0.8763131884,-0.6027798652,0.9686783607,-0.0095194302,0.0561316053,0.0120307923,0.9830028995,-0.0520108827,-0.5156058793,-0.6850202353,-0.9968513356,0.1859136303,0.252737456,-0.0401961115,-0.1742805687,-0.2000163007,0.5619633634,-0.0802096661,0.8045511763,0.9348664108,-0.6132523295,0.5382985975,1.3779474216,0.0322163269,-0.7505592199,0.783573799,0.7522279079,-0.4216194766,-0.3364159364,-0.7231932029,0.4750153143,-0.8987854531,0.7351416725,0.9353896961,0.5834442997,0.6181439254,0.9274249563,0.4505252646,-1.0488504605,-0.5045054213,-0.7529886349,-0.328051157,0.6551566753,-0.3282729831,-0.0677565442,0.4719368922,0.5647710713,38.8580668816,0.141751699,-0.9815954607,0.8154900412,12.8378922177,0.9740680923,-0.3455306849,-0.342116641,0.6555135002,0.5639174061,-0.7468337876,-0.4799944565,-0.0976691059,0.7447167451,-0.3928705139,0.4421724508,0.9669832541,-0.6906073954,-4.1436269001,0.3473542366,0.8702392758,0.2066556416,-0.3513963356,0.5671958059,0.4809857594,-0.1967332345,0.7003495653,0.3368759941,0.5092552509,-0.4693660386,0.5061045125,-0.6813679267,0.8703563457,-0.3205352272,-0.1468795393,0.6572041484,0.5192230944,0.1585036277,-0.6370404307,0.8571539173,0.9333065614,-0.8013364682,-1.0448027286,-0.7331231088,-0.2734984754,-0.7289852955,-0.0021191897,0.6155176881,0.6374817322,0.7043744019,0.1161076981,-0.8969175434,-0.1341114901,0.208759567,0.9892989407,0.0506341827,0.4161636488,1.0075084364,-0.7054115886,0.1567071883,-0.6845896268,-0.5189032325,0.3587789703,-0.5720774805,0.3613651001,5.7966852577,-2.3629270186,-0.527172124,0.0868745875,0.9677118616,-0.4897520859,-0.4998783896,-0.368635697,-0.5455789718,0.9043131345,-0.5199638698,-0.5057014663,0.518835692,0.0985369634,0.5796629262,0.9285509556,0.0085632944,0.0198119899,-0.7620134421,0.6966736427,9.1555779543,0.3649457234,0.9853723533,-0.5448091843,0.2264175771,-0.5701638629,0.9462872953,-0.0059243464,-0.7448529777,-0.7432302701,-0.4706236815,-0.0452854094,0.4959140819,0.1300615863,-0.2782266769,0.8277697843,0.4307486477,-0.6392498276,0.046528064,-0.9127174881,-0.3221208823,-83.3596876672,0.1829503474,0.1191983068,-0.9196076887,-0.246604013,0.0095216739,0.1123027531,0.3346971584,-0.2529484313,-0.0523214678,-0.9889969947,-0.1889833901,0.3240505608,0.1219934612,0.4496909889,0.7977285632,-0.6858417492,-0.944668534,-0.6513338451,0.8510288363,0.0385190383,-0.2918800976,-0.9312086538,-0.8405599533,-0.9410775482,72.5109236144,0.6162468562,-0.6242771768,-0.7192690087,3.6925008089,0.8177889682,-1.189237952,0.4287508031,0.3741556409,0.5163114289,0.5618006645,-0.7307273903,0.5137880486,0.0425445643,-0.5369079909,-0.6457249814,-0.2057772036,-0.6485979924,-116.3011183133,-0.5961198739,-0.7575953633,0.0141869513,0.7704199834,-0.8363738026,-0.9227683062,0.7242142862,0.5641904511,0.2063319068,-0.7970140618,0.7724078407,-1.009532158,0.2048203608,-0.9559566413,0.4695680505,-0.6296638604,0.6024827967,0.2295189924,-0.2945128941,0.1085750857,-0.3185772678,0.7907377896,0.3800395632,-0.2516364736,-0.7369409246,-0.9386740362,-0.0006848487,-0.6549031053,-0.0456382037,-0.8247210994,0.1459689783,-1.1631618732,0.9053568112,0.2802464337,0.0638302176,-0.4673289421,-0.6789541575,-0.0796414864,-0.7616395712,0.1760702695,0.9503483445,0.3256656222,-0.1302045636,-0.5388501251,0.2856181049,0.8020614076,0.313058818,0.9240892684
   0.8471494881,-0.0468998728,-0.3750095829,0.6212302163,0.6892402746,-0.2991915793,0.0466557718,0.8634937896,-0.8684384388,-0.5495619362,-0.0366005521,0.7041100706,-0.934937514,0.4250295809,0.1965869199,0.6447723862,-0.0784004473,0.4113389882,0.9869086507,0.9152721778,0.4791963293,0.2019273628,-0.7167965382,0.6368926283,0.4648488107,0.6831622484,0.1370766853,-0.7420256638,0.9264655127,0.5931592768,0.9149130343,-0.0902026733,-0.9196088428,-0.4304204194,-0.4776997868,0.1133584981,-0.3037866573,0.7908565322,0.2359503238,-0.4917419091,-0.4525525389,0.0256310312,-0.7686836692,-0.3550136069,-0.2501760069,0.7233266353,-1.5157228275,-0.1686699494,-0.6894961465,0.5967924594,-0.2942010232,0.6241106562,-0.2269963674,0.3489944581,-0.0757366313,0.1406118636,0.351757879,0.1088730001,0.0210523391,0.5589582513,0.9243936985,0.0706414444,-0.2292400613,-0.0080995953,11.6538323022,0.3234776032,-0.3445577141,-0.8488470128,1.6926238724,0.9024355241,0.1880166518,0.3617490707,-0.7424224394,0.9519140396,-0.5402118115,0.5284874119,0.5525254179,0.3632845001,0.6510425561,0.8426030766,0.9410699801,-0.890118515,-24.3671508236,0.663258824,0.5170260478,0.2844360773,-0.106028814,-0.1102991221,-0.6895805613,-0.2577771491,0.985912589,0.9281056494,0.4551218206,-0.3416931234,-1.0006694864,-0.1229003918,-0.3086573621,-0.9840346445,0.3805157791,-0.9221777219,-0.0917668674,0.8292920949,-0.5515293836,0.3105379018,0.7604082702,-0.9202187246,-0.1739268088,-0.3844657849,0.0286872825,0.1482121025,-0.1154860024,0.048500545,0.8212072056,0.8056226427,-1.148281349,0.6709401588,1.2872515495,0.5871556117,0.2378619353,0.231869935,0.3264885263,4.6922596836,-0.7429320197,0.5702392676,-0.8845418895,-0.3258107904,0.8685879072,0.25954053,-0.184227435,0.2753016426,0.3825254932,0.7462919744,-0.1683811356,0.1915412499,0.2262845503,-0.25577399,-0.2022047503,0.0982590592,-0.1262723422,-0.6509349686,-0.3616330882,0.9366440631,-0.2067399079,0.8927448965,-0.8528954017,-0.5339683436,-0.8291448545,0.5921033731,-0.390724497,0.9914110071,0.1162641164,-0.9981692489,-0.7038309223,0.1466070015,-0.9887114777,-0.5593997646,0.3595115413,-0.9724168658,-0.9544273399,0.8304465306,-0.9919533332,0.0790184257,0.3652610806,-0.1737767435,-0.371820671,-0.9288647255,-0.8665137892,0.3931830165,0.826259054,0.686868153,0.3307415537,-0.9774248904,0.9456812825,0.1683078133,-0.0747343173,0.3697240301,0.6840521703,-3.0754273459,-0.5390118912,-0.3907878007,0.6993024421,0.2478336446,0.1808368846,-0.1085586822,0.8898107172,-0.6689025176,-0.1110822047,0.812492522,-0.6285558932,-0.1309542645,-0.048772653,0.5092724447,0.2062388894,0.8247445058,-0.4749259987,363.5938600557,-0.2290822178,-0.638339294,-0.2470972326,0.2453641908,1.1348757753,0.6968100568,0.6571192849,0.2349351224,0.6882208155,-0.6098573924,-0.2248449565,0.5083999479,0.5131645617,0.5998286001,0.0426451877,0.0619619341,0.5464711407,-6.9779939455,0.2241902033,-0.5605250433,-0.4237676577,-0.7388408804,0.9259635845,-0.6490296766,0.9746851888,0.1615554163,-0.0557739797,-0.3597527896,-0.9570722499,-0.7207234563,0.5036386993,-0.5273884826,0.4418932788,-0.6259387412,-0.2190004043,0.3250029043,-0.7950859002,-0.4515354512,-0.1552074123,-0.7906940657,-0.6437173,-0.6777203105,0.4612959028,0.3876772725,0.2685004992,-0.4106685435,-0.973340484,-0.5467527564,-0.2857052319,0.2018621862,-0.1158904529,-0.1504813675,-0.7792091361,0.8984075981,0.6373229977,0.1172211334,0.2502173448,0.93283177,0.6296002905,0.2795753999,-0.1964733518,0.5224919459,-0.9898684944,-0.8314673119,0.6043063944,-2.2460268787,-0.5674600846,-0.0054632954,0.4600125591,0.2814730446,0.8174866646,-0.5822502754,-0.1876938236,0.621531724,0.730077753,-0.4218999129,0.4432545976,0.0923567741,-0.9102705962,0.8789944462,0.6836707752,0.4487973366,-0.9290009644,-0.3893555572,-0.1960641876,-0.2967532227,0.7497964369,0.2514371523,0.6206488216,-0.5105195007,0.3703211897,0.9782899785,-0.9784275915,0.9837001288,-0.3648165251,-0.0696751369,-0.5285810573,0.0274776323,0.7256407513,-0.1341788327,-0.0825877391,-0.9401926916,0.110690083,-0.5649733458,-0.5227873181,0.0085928893,-0.5343645666,-0.5865652661,0.1197807247,0.1990877506,-0.5111010485,-0.3201712561,-2.7390269183,0.6797812217,0.5723013716,-0.8171414735,0.224967345,-0.3881259833,-0.3212586966,0.8206101954,-0.7076726187,0.679183399,0.4804536585,0.3875838887,0.4726619961,-0.2948554771,0.4379616762,-0.2221576925,-0.9544749521,-0.6491614726,10.0389953307,0.3621196735,-0.1212279869,-0.1440738503,-17.6406427852,-1.3138571092,0.0059001484,0.7821130128,-0.8716827091,-0.4295583595,-0.6859363412,0.0113916107,-0.7455268835,-1.5426299157,0.0205958655,0.3881806674,0.5924519162,0.9062926564,0.0757649363,0.7815333153,0.9611085714,-0.6578567224,-0.4732743434,-0.6431248809,-0.6432329089,-0.1584715125,0.5611704387,-0.3779483411,-0.8774747252,-0.3925781509,1.001757934,0.8735324062,0.5551487303,0.8013236951,0.7109954314,0.4601898074,0.1946930505,-0.1372128724,0.5747252426,-0.6975895168,-0.58460549,0.9559527931,-0.1297059518,-0.4060868887,-0.979651864,-0.0769445902,-1.05509004,-0.1625729761,0.5921468578,0.169682557,0.5130173561,0.521835045,0.3614221631,0.2590944981,0.654359662,-0.9207428478,-0.7875622282,-7.5033386373,-0.2483476456,-0.3889616372,0.2801599028,0.0706763058,-0.5037072685,-0.8336181875,0.8843784984,0.4807572121,0.1666437646,-0.1434135836,-0.8205449009,-0.3928995095,-0.9703388861,2.4516996563,-0.4369291186,0.1876155775,0.6273538583,-0.1884934736,0.6651231539,0.3741871,-0.4475890708,-0.0562525946,-0.1663803064,1.0414345582,-0.429113975,-0.6081379539,0.7834729647,-0.5328818079,0.7155419884,0.7255262845,0.3540999608,1.0546317099,0.7114138365,-0.5503276809,0.6607845964,-0.0588048706,-0.682933603,0.6302964178,-0.1735772791,0.1432611163,-0.1119331879,-0.5733682306,-0.8496950784,0.2874792466,-0.483613788,0.1938939624,0.887800066,-1.0406449977,0.278529503,0.96565745,0.6799675341,-0.7912932966,-0.1582026373,-0.66725842,0.6416965289,0.4494933399,-0.6790851732,1.0171877285,0.7589936757,-0.4340170543,-0.2927312563,-0.5101102073,-0.6276713199,0.0665767163,2.033060003,-0.231306799,-0.7325512501,-0.6185503425,-1.5422165626,0.1553215992,0.2911316394,-0.5101959317,-0.1199586487,7.3511484898,0.9358480449,-0.7289452566,1.0014739745,-0.2053709937,-0.5800891336,0.4289066332,0.7888666681,-0.8413961538,0.9279081832,0.6991295813,-0.4893995509,0.3647192396,-0.5089890967,0.2936537717,-0.7860941281,-0.8053100537,0.4510085533,6.1820129911,-0.1834814061,-0.4248764558,0.6694592305,-0.9818647168,0.2753223927,0.5193736844,-0.9015782411,0.4430582828,0.5300741753,0.7817746046,-0.7356451711,0.0805742495,-0.8082378254,-0.0914598613,0.2037857197,0.5274303597,0.9324154393,0.9780125455,0.1695788724,0.1414412545,-0.7960855051,-0.8801824455,-0.5618063696,0.2767661512,0.6928956617,-0.7233249839,0.1579258439,0.5971916963,-0.0396669755,-0.7915027225,0.579973189,0.2272868748,-0.0543221123,0.2368800721,-0.7581816023,-0.9368656903,-0.3575386479,-0.4825151321,-192.4920770465,0.339216621,-0.074939941,0.5295646738,-0.1474886418,-0.7986531865,-0.6315078124,-0.5438646681,0.5134825327,0.7082706879,0.5453323938,0.3262897427,0.2794966293,0.90459102,-0.158260291,0.2076073651,-0.4764053276,-0.4570487075,-0.6291135847,0.7773655341,-0.8616079445,-0.2414122025,-0.5485643509,-0.6140202053,-0.8854668668,-0.177299193,0.4351297027,-0.1789212693,0.190003742,0.8199269637,-0.1212116701,0.1805618929,0.1302366036,-0.587593335,0.4914929625,-0.1451473504,0.810128994,-1.0240169356,-0.7049907613,0.529408423,-0.6232564029,-0.0301712247,-0.0559455002,0.5583054891,-0.6658435368,0.5443132653,0.8059594321,-0.0304188322,-0.0675771671,-0.6299519172,-0.3513268015,-0.2890608931,-0.2779492669,-0.7196565471,-0.5207981568,-0.5274082052,-16.1097559857,0.9808790545,0.9643385673,-0.7309342243,0.2154696771,0.4251850367,0.3592694029,0.2337249274,-0.6109384983,0.7135317584,-0.9199165738,-0.6384125927,0.4286703621,-1.7490719864,-0.2820798023,-0.2356843818,-0.0394000838,-0.97043902,-1.6658926509,-0.3586929202,-0.9668362247,-0.6635678272,2.8427104917,-2.1101456191,-0.5210798271,-0.7996353949,0.7207331985,-0.651002346,-0.775877648,0.1084236765,-0.4426501368,0.9348878538,-0.8603431387,0.0807548138,0.5880913226,-0.3946108206,-28.3807056702,0.0477875502,-0.8151955905,0.2184894824,0.5954739871,0.1089864989,0.2450537741,-0.9875341495,0.4039065078,0.2459146781,0.1066622992,-0.3204086296,0.4783363739,-0.1584045109,-0.5956805046,0.1006690841,0.6498285288,-0.5821796269,-0.9902921376,0.310453417,-0.5272896836,-0.17604704,0.674097131,-0.9933142646,0.1707703567,0.8763273549,0.6450074204,-1.0607879581,-0.8483575965,-0.8101626099,0.6471479735,0.5178246289,-0.2888172833,0.1923046299,2.9342170687,0.7277379075,-0.1616772812,-0.4130579857,0.9494520971,-12.7419133222,0.7453308967,0.7680038742,-0.2125682625,0.7027693557,0.5852651584,0.5100315224,-0.6229361301,-0.1521674095,4.1231908116,-0.0269779408,1.047093868,0.604425293,0.6525110615,0.3821178034,0.9397959452,0.739097464,0.1452826791,0.474199102,-0.6264269952,-0.2586397084,0.970949977,-0.4161469377,0.7386461024,-0.7539982973,-0.6301035347,-0.7716943309,0.6871186719,0.5746019215,0.7188208298,-0.5855546093,0.2039315719,0.3195546542,-0.9064916585,0.9327495699,0.9935547986,0.6107994111,-0.3994039602,0.9381838019,0.7261886333,0.4536521559,-0.3048341318,-0.8037304584,-0.8682772131,1.078634089,-0.8261291316,0.6076049433,-0.133045843,-0.6391088189,0.6701301083,0.2985168257,-0.4933442235,-0.0940532864,0.5343329984,-0.5880154604,-0.1111009433,1.2777499754,0.2987433405,0.2314320177,-0.0142459269,0.290189642,-0.4494121649,1.0449382855,0.7534844864,-0.6196222499,0.2825053307,0.1066555661,0.9400946054,0.5664767961,6.6846311678,0.3383463409,-0.1138577363,0.6624842989,-0.0277311859,24.6516378725,1.0193594273,-0.3517797708,0.8007881675,-2.1269463862,1.2062786017,-0.6093204689,-0.3197239171,-0.9168443134,0.8761496923,-0.4503888589,0.8695473548,-0.6903612248,-0.0585786788,-0.4319779082,0.2575852909,0.3764135736,0.8340703111,7.5788815357,-0.9348750871,-0.9754959771,-0.3152348679,-0.6138721435,-0.5364908407,-0.3283488191,0.7700658127,-0.5377647848,-0.0214613424,0.7288495798,-0.7338409956,-0.9145981068,-0.9920592058,0.1678233414,0.3555609148,-0.781952197,0.6313722123,-0.6056751131,-0.8793486139,-0.5064458579,0.8557930253,0.6131116688,0.8946546451,0.1814169855,-0.0898186584,-0.6935659995,0.8603062733,0.296909231,0.0695219663,0.5135664365,-0.2503359042,-0.2917975533,0.5356569689,-0.1052210607,-0.0312738139,0.2714904768,-0.5042442156,-0.5038973846,-0.5171741578,0.0995844113,-0.8243771861,-0.1492933191,-0.9776637889,-0.6422435033,0.2641428577,-0.9777545257,0.5914694804,-0.9957035505,-0.1237285119,-0.1990305284,0.8102010645,0.2096643177,0.9964600133,-0.8955011928,-0.1302208352,0.6868573369,0.6867688937,0.1612355814,0.3466838288,-0.3764327918,0.742171868,-0.8768581643,-0.4439483341,0.3719389911,-0.5321004205,-0.6346366864,0.4013005012,-0.6504019943,-0.5512719151,-0.3943297196,-0.902384398,-0.5077694537,-0.8257016372,0.9217697979,-0.0387592646,-0.6058780664,-0.8134946452,-0.3652406714,-0.652168083,0.8882304996,-0.2340709202,0.3125180424,-0.6393806681,0.4392433989,-0.4725455044,-0.9844402653,-0.6936708129,0.0177296016,-0.2326542162,-0.0466621642,-0.5159541597,0.9364365128,-0.7157529971,-0.1155237349,0.364367359,-0.4839152206,0.1038606108,0.6557466593,-0.6162335484,-0.3557625192,-0.3995162575,-0.7996744978,-0.8066380694,0.8666220599,-0.4347607992,0.0551350861,0.4130130432,0.7171800747,-0.0061230692,0.0885334889,0.5259686574,-0.6761511673,23.1333032574,-0.1386719557,-0.362781658,-0.0464173954,-0.0358539121,0.6565550067,-0.5908448533,0.6510121438,0.343341223,0.0370720444,0.0590465512,-0.4565133323,0.5057841923,1.9696492128,-0.321158806,-0.2202155139,-0.1607725644,-0.7435400534,-5.6976674016,-0.4707236759,-0.652303751,0.5373237134,-0.2239297479,0.7621271072,-0.9304584196,0.8287191707,-0.6551891924,0.8376406881,0.7457791232,0.1099597944,0.9545616973,-0.276695049,-0.8110140506,0.135434808,0.597370697,-0.5046353194,0.5771589384,-0.1034610209,0.6374885636,0.3538789611,-0.8735153194,-0.7123776205,-0.7546905133,1.0853051651,-0.0314934592,0.4124099432,0.8357927452,0.5907659814,0.524314722,0.2684764463,-0.1317364504,0.9618233318,-0.3920784998,-0.2977715335,0.542661751,0.0243686646,0.5262946085,-3.9467024702,0.3203879788,0.476369064,-0.93467574,-0.7550230162,-0.8290699605,0.4355531355,-0.577489445,0.54516198,-0.5158179887,0.7568730152,0.7592546653,0.4318557032,-0.3659240173,0.9239591684,0.4107746559,-0.6235739983,0.6561253957,0.2632224782,-0.3579264214,-0.4953633147,0.3842761672,-0.3924813754,-0.2825521382,0.298422325,-0.1172538266,-0.8374602307,-0.0098535045,-0.6539568593,0.6987650329,-0.882883757,0.0386214374,0.0065244281,-0.4267058646,0.0211845978,0.5333645149,0.5209201924,0.7175873374,-0.5973879952,0.2890381508,-0.9790858153,-0.3608968405,-0.3957084224,-0.8636915765,-0.7738146217,0.8709781633,-0.9044888783,0.3385366545,0.2966717727,0.8879215273,-0.2792860347,-0.9840595151,0.4063467835,0.1822412506,-0.3048790103,0.0765197663,-0.1729665341,-0.0089172922,-0.0138494202,-0.0968583108,-0.1519838216,-0.8541660205,-0.6271504584,0.2519844603,0.1191888522,0.6104468785,0.9818899659,0.467667476,0.3907271338,-0.149769647,0.15017335,0.1514527175,-0.3227937046,0.4632158568,355.5957832872,-0.0729154021,-0.7258658647,-0.952050613,4.250508077,0.5188760685,0.7335115149,0.3367597985,-0.4582111903,0.7638435037,-0.3066292214,-0.8200834263,-0.3608456061,30.2600091808,-0.6999975044,-0.8470469864,-0.0145330406,0.0840131608,-5.4274248518,0.7149761044,-0.2099490846,-0.7627392115,0.6681635951,0.4563105021,-0.8366717656,-0.612422534,-1.0922226303,0.1393684919,0.8564508841,-0.1772432445,-0.6810678871,0.3467600596,0.4639438275,0.2437708501,-0.3758471316,-0.963639952,-0.1961845399,0.1816854176,0.9216924402,0.6888971623,-0.0398178744,0.5938615929,0.0167260842,0.4881082761,-0.7724455438,-0.7032256248,-0.4714969518,0.7575429385,0.8091445701,-0.112585753,4.3994834057,-0.6729194959,0.6753842685,0.2209215536,0.8529395572,-0.2668410125,-0.3180784716,-1.0049371037,0.4010054227,-0.1490892069,-0.7202135623,-0.2492743008,-0.0744132296,0.0397752196,0.4791128885,0.2311427373,5.3106589441,0.5193106545,0.2424892791,-0.6901585289,0.2970160376,0.5132491436,0.3969334934,-0.757745983,-1.120329706,-0.4435102058,0.4596273814,-0.8600644095,-0.359762901,-0.128195688,-0.8308058007,0.4332225093,-0.1750365668,-0.828128618,0.2642865156,2.3310122286,0.1545203486,0.1170446093,0.3088498139,0.4826278301,0.0194504661,0.6377786644,0.1666414084,-0.611026847,0.3937257969,-0.6576623845,0.2943227147,-0.9944958137,0.4593137033,-0.8614613945,0.0739186696,0.6012842651,-0.8341894546,-1.0536511894,0.7358927474,-0.2436128706,2.3753800578,-0.4866405458,0.0790381362,-0.969455037,0.5486689858,0.0864725261,-0.1523014468,0.2573674353,-0.7381067485,-0.118759383,0.5774154283,0.0817966124,0.265849467,-1.0008553018,-0.313825174,0.9588018373,0.3711820539,0.6746176608,0.4676509279,0.7146217029,-0.0279811552,-0.860034401,0.4837725188,-0.2496853309,-0.6320624907,65.4558294404,-1.0507653647,0.0531451618,-0.8777040154,5.1110421664,4.1057266219,-0.1013348834,0.1105702666,0.3468066897,-0.8763363635,-0.8888521173,0.7774422152,0.810469595,87.3985304146,0.9513824933,-0.0316117863,0.2637682934,-0.6084323885,-33.4377025786,-0.9513455745,0.1510801143,2.8071780557,-0.2857097256,0.9010095485,-0.0968370304,-0.1948967047,0.4692322106,-0.3605889466,0.1830571084,-0.5933730854,-0.0359294059,0.1735410997,0.1853597888,-0.2682076656,0.3742747874,-0.6924145729,0.3386854624,-0.6299075205,-0.5384124403,-0.3995324127,-0.2337939044,-0.835474375,-0.0079529917,-0.9415336486,-0.9407896369,0.0425820251,-0.2353934593,0.9507911271,-0.0312189037,-0.3171030942,-0.7978700282,0.4306886764,-1.7389848058,-0.6430489365,0.4984201519,-0.2872332888,-0.3892412725,0.4492923955,-0.9004179119,0.6633170044,-0.6633850037,0.5256874731,-0.1804749551,-1.0857211676,0.4711099766,-2.6653307899,-1.242475113,0.1397204577,-0.5214959244,0.462188551,0.8772496734,0.6266779131,-0.3653842856,0.8797926087,-0.5755179754,-0.6039190582,-0.618365542,0.1510280963,-0.1395837557,0.187609416,0.6580704069,0.7165824095,0.0220549901,-0.0676739425,-0.5806871609,0.9723555807,-0.8807552531,-0.524483633,0.1894396797,0.3449234944,-0.7376622812,0.9350924537,-0.9953127173,0.3075956611,0.4696754302,-1.3338261264,-0.6987607853,0.3226350288,-0.7139826466,0.0667238044,-0.5673450662,-0.2294576928,0.6615204699,0.125808719,-0.5418409994,-0.1599016421,0.7142702045,0.3699543739,-0.1927845697,0.0229875507,-0.3669858231,-0.3504860287,0.1703844569,-0.1766831115,0.6381285357,0.1172809639,-0.7020811677,-0.1225753535,0.3040324685,0.7677025964,-0.5953484035,-0.7524362238,0.0617644627,-0.442311202,0.8065795487,-0.6756642616,1.3388215488,-0.2070600692,-0.007477013,-0.4618334081,0.9467916199,5.5210529908,0.8942778357,0.1827408196,0.9076103901,0.6694865394,0.1209436825,0.112949185,-0.709144329,-0.9189102569,0.1869789801,-0.2382402388,0.3170355682,-0.8206736464,0.5383626132,0.5063633676,0.2488168459,-0.2345970219,0.2255371077,-2.7846097628,-0.8224098905,-0.5009824882,0.1084905074,-0.8102118948,0.8550560102,0.4058362121,-0.8443470695,0.7800638086,-0.5814637091,-0.0383944367,-0.6679827943,-0.0621887842,-0.6187442582,0.7076235328,0.7384568508,0.7612705879,0.3741509444,-0.4990515655,0.8338539074,-0.9859332564,0.2312400461,-0.5902097227,-0.401695903,-0.4282604666,-0.4222400222,-0.4563614897,-0.6918153116,0.8918465136,-0.5238724959,-0.8565149927,0.4024684922,0.6747890815,0.0949619873,-0.6755924875,0.5010769874,-0.6797705956,-0.0766513471,0.7982084868,-0.2052281133,-0.2029387312,0.6339836256,-0.5211529957,0.3096267456,-0.3431680266,0.4240814695,0.1158506826,0.0338847955,-2.7048060374,-0.8211036732,-0.9673690748,0.3179398725,0.0253498303,-0.8251179835,-0.1885174662,-0.6220674858,-0.9225678628,-0.0080505488,0.6989985211,0.1761789625,-0.5598116142,0.4024025312,-0.1266978498,-0.7523670206,0.6993914089,0.5898383285,0.7240376134,-0.0417018744,-0.0170112831,-0.1779173099,-0.8715535526,-0.4448324716,0.7733571677,0.9347865838,0.2241214773,0.0650048386,-0.7616538281,-0.8799593448,0.9657169092,0.2266907014,0.2562851392,0.12849029,0.4013627505,0.3938819277,0.8910880279,0.98586906,0.7572354327,-0.2859013307,-0.151800496,-0.5848097642,-0.7954543661,-0.2466004282,0.7071133152,0.4216407394,0.4587153997,1.2721134558,0.960286935,1.0061767886,0.1261977196,0.3245553514,0.3886472243,-0.8387802326,0.7271404868,0.1152978858,0.0120935677,-0.0350756267,0.4002074046,0.1373670387,4.9908984571,-0.6707569271,-0.8767447783,0.5400325025,-0.7107238108,-362.2697767574,-0.4590017186,0.76871433,0.577625199,-5.9908063436,0.9400631877,-0.427600015,-0.9849855273,0.5738443468,0.5198888437,0.8757439643,-0.89005537,0.3339505811,-5.1585380762,-0.133048999,-0.4663085684,0.4380135911,0.167153143,5.3426610478,-0.1086860169,-0.4863386554,-0.0654989735,0.5185004009,0.1715346871,0.2433984898,-0.9243694003,0.1974890193,-0.8598768241,0.6551187529,0.3978630397,0.5006433311,0.8100936211,0.9578184459,0.9164503544,-1.044797048,1.2419987903,0.8613456967,0.2098937067,-0.2615777,-0.9439912747,-0.8101767267,0.4960535741,-0.6409198725,-0.004066005,-0.1470116596,-0.2361502573,0.0248357991,-0.0365433412,-0.536134585,-0.4010139192,0.8030329788,0.2184811027,13.2441201172,0.6539127263,-0.7323441643,-0.0308299662,-0.8523610071,0.4757321236,0.5599265043,0.2048979572,-0.1500736348,0.3594306907,0.7879362135,-0.7361835436,-0.3079091053,0.684264081,-0.5635300739,-0.109364197,0.3445782811,-0.1741793642,0.0798891623,0.9062712194,0.2714813141,1.0114914134,0.0738084518,0.2248412577,-0.648917507,0.1200975024,-0.7749486036,0.580300704,0.3108002906,-0.2285672495,0.1302033835,0.043109649,0.0215723902,-0.7798093349,0.2342798923,0.5334536866,0.7960254217,-0.6366880931,-0.5733409707,0.1492480705,0.3089034191,-0.1058439259,0.3656413714,-0.222851381,-0.1833949999,-0.6215464183,-0.3898398528,-0.3554084049,-0.8310434696,-0.1750735534,0.1533825335,-0.1348258261,-0.9039258204,0.674853831,0.5332986519,0.8299920631,0.8399935344,0.4165712305,0.9455175209,-0.5238588928,0.3527134179,-0.218559506,-0.0122941937,-0.8020905624,-0.6341970319,-0.0747715853,-0.8821091013,-0.3642491663,0.4402755778,-0.3239293914,-0.2935928166,0.5385788864,-0.6051834797,0.0824552577,2.3404364541,0.9284414385,0.4813447914,-0.9732283827,-0.7864528667,-18.9134903118,0.3527788935,-0.2539048686,0.0196416018,-0.5235431294,-3.9684098597,1.005858303,0.3911631737,0.4205968913,0.0099402289,-0.9727477913,0.6028814364,-0.6459991482,-0.0265868185,0.8555968374,-0.7633743357,0.065964321,0.1361092864,4.8729796451,0.1466948202,0.3745210174,0.8026118604,0.102951637,-0.355148755,-0.6151869245,-0.6624935641,0.5187972548,0.2932344024,-0.9154188963,-0.3931423261,-0.8550115506,-0.4785765784,0.1729347063,-0.1490838358,0.9042168526,0.6652627518,0.2347388879,0.6990627509,-0.8345834709,0.5275129696,0.3225995764,-0.436905751,0.3154219601,0.1960868409,-0.3930439736,0.2248780005,0.5938611083,-0.6672112252,0.6499337092,-0.905041652,-1.0531277059,-0.0339124325,-19.9474343832,-0.7014065172,-0.6938930348,0.810014707,0.5166158607,0.3615851257,0.5938167277,-0.9069495344,0.8602624402,-0.1313890281,0.5498493757,-0.703342965,-0.241568338,-0.7557028345,-0.7556708911,-0.2304654271,0.6995998495,-0.8825316544,0.3571371926,0.8251701598,-0.1535411487,0.2025236506,-0.5962774068,0.2119008007,0.6173778876,0.8281628855,-0.3008750865,0.9490603008,0.9277311172,0.8921204927,-0.9712011531,0.6879550705,-0.8714446957,-0.0175056983,-0.1247796299,0.5253371155,-0.3576017968,0.2206562618,-0.8361675796,0.6020546644,-0.1532450488,-0.0185363322,0.6945209399,-0.4183402919,0.2151873957,0.6727571108,0.6220494894,-0.4572979701,-0.6609790366,0.3468637339,0.3606922845,-0.9203186693,-0.117200699,-0.1903236292,-1.9672117197,-0.1608658905,-0.7225343026,0.4212000225,-0.5682600511,0.9683352541,-0.9802524922,-1.6627597674,0.404548734,-0.4761763086,-0.8279882382,0.1501311609,-0.3775981318,-0.3840486311,0.424197441,-0.7202964506,-0.5352099302,0.4676229858,0.3535466219,0.7311575425,-10.2730580032,-0.8848730008,0.3705867994,0.1511290792,0.707591815,112.2360442943,-0.8599755314,-0.3037326928,-0.6524926024,1.521840311,9.9330990326,0.8968442277,-0.1209362356,-0.0125882905,-0.471622876,-0.2047953264,-0.8949570922,0.2404617368,0.3431732309,0.6554381184,-0.2495652155,-0.3568331605,-0.7203149939,-46.0622259585,-0.8617596266,-0.33688784,0.3360329127,0.2775711105,0.3751520264,-0.7904531763,-0.5699731423,-0.5983498213,0.7025386477,-0.3545739104,0.2268439774,0.6772499593,0.533455415,-0.2086777136,0.1356113896,-1.9557038108,-0.2879149094,0.5359933134,0.7141562542,-0.0060518161,0.1178570723,0.9841253508,0.9634591449,-0.6439425327,0.8422966494,0.0174987234,-0.2015450858,-1.3318220145,0.7084754956,0.8956233717,-0.1215259338,0.9747042253,0.1114394136,-0.1938389901,0.4245502924,-0.206213365,-0.7067965844,-0.8189160227,0.135116306,-0.1735844389,-0.8186509861,-0.9425405883,0.2927974499,-0.6556853356,0.7270752457,-0.5584547097,0.9082123013,0.2352061111,0.0336996635,-0.1411079101,-0.0191703806,-0.8681526826,0.4697150476,0.7719249053,0.4243335688,0.8621764548,-0.1307985713,0.3008637392,-0.7454892512,-0.1907150495,-0.2299016672,-0.8585274478,-0.0468086255,0.0646704133,0.4335543628,-0.7881720598,-0.602578865,-0.3470654542,0.1739083866,0.4686696036,0.4451275276,0.9749674709,0.2549078455,-0.1480881998,0.8220574368,-0.0055878134,0.1147252946,-0.248909761,-0.4546416025,0.6214300222,-0.1499985934,-0.3707816842,0.9617343012,0.6284586917,0.3657768299,-0.6116642153,-0.5610768423,-10.5008884321,-0.5946027414,-0.5877252722,0.5635213761,-0.4534720787,0.8911562649,0.6368295847,1.5404550666,0.5480709423,0.0779034131,-0.7517344365,0.5155357189,0.4882214083,1.0324992417,0.5717705471,-0.3555853209,0.0813329732,0.9967813653,-0.1004305222,-0.209580604,-1.8685042638,0.9443452222,0.3934934358,0.7607533926,0.684641763,-41.3391811199,-0.3720943146,-0.7035599325,-0.8146604015,-0.584608161,-0.9417078041,0.2695895012,0.8297362038,-0.5176466198,0.7587685382,-2.0602973248,0.7759540565,-0.4065392599,-0.3754236,-0.4512082855,0.5731104526,0.6277681924,0.8274589732,6.3916373464,0.3192558058,0.4210783179,-0.4969526411,-0.3573067761,-0.858354635,0.8853259373,-0.7089199196,0.2874144061,1.0342402097,0.1807729652,-0.2512795715,1.0516453446,-0.0282865826,0.6057588633,0.0497923419,-0.2148221189,-0.5689374564,-0.375378159,-0.4804741355,-0.6303834436,0.3062554817,0.0430543802,-0.0338053201,0.2457699849,0.4766499637,0.188996331,-0.7696866795,0.7868736246,0.4589823552,0.4327973401,-0.8346568317,-1.2901824965,-0.0218799897,0.4718571515,-0.6531618037,0.027590638,-0.923761032,-0.219059963,-0.6477261858,-0.0004876979,0.8903982809,-0.4473615417,-0.3467532051,0.6938485287,0.9560341231,-0.8548074512,-0.4815539054,0.5428705499,0.0498358,0.1830119569,0.1101698516,1.032793583,-0.4109442303,0.3117851383,-0.449087564,-0.7770842757,-0.271983305,0.2841819072,0.4888093002,0.598594303,0.388282998,-0.3809897976,0.259692109,0.2576186346,-0.7159304195,-0.208309204,-0.3972913027,0.2703602701,0.9240213114,-0.5917770157,0.6825331199,-0.1316499296,0.4803505075,-0.3504622387,-0.0381303413,-0.0726398982,0.2250988901,0.054883817,0.3853027338,-0.4180941596,-0.240279515,-0.6665672251,-0.0425406709,0.5958001046,-0.4864204806,0.3633550887,0.5762323389,4.9818964213,0.3294957596,0.6369751685,-0.347895228,0.0286707851,-0.8604070182,0.6479898403,0.2932794218,0.9958093277,0.6436432247,-0.1351971875,0.39775116,0.3233172891,0.2160642276,-0.1077233834,-0.5988941389,-0.0933242539,0.2457904335,0.3098948445,0.3788893541,3.323689896,-0.2100279546,0.8389415012,-0.3609534298,0.6850308965,-6.9487594225,0.1401395825,0.5653815603,-0.7361945844,-4.082331922,3.3171331655,0.0345728173,-0.5189373528,0.737149455,-0.227647019,0.2496934926,-0.1776122213,-0.4725970927,-0.641490414,-0.0442702098,0.9816764095,0.9627506858,0.3280050105,18.9181757309,0.5747113542,-0.2194271095,-0.2048602113,-0.9256350556,-0.5580833783,-0.2710450528,0.8069498472,0.8451181209,-0.5741906845,0.3818479994,0.2118173869,-0.799864057,-0.7556628116,-0.3644104941,-0.5984326375,1.0381520437,-0.6044305437,-0.4785282902,-0.738515852,0.3993265612,-0.2949514793,-0.1806210341,0.1667373398,0.289126039,0.3511713763,-0.2573068914,0.4210227753,-0.0615030357,0.5738118147,0.4042006082,0.3114072588,0.4517849825,-0.920518174,-39.6153853512,0.2224161449,-0.4711170421,0.8944719393,-1.0534210884,-1.0099985793,-0.4174086064,0.4009704841,0.2090707282,0.181789001,-0.1282666482,-0.8284980668,-0.8835432736,-1.2373938923,0.2067706625,-0.7041140031,-0.4221383865,-0.035093963,-0.3215446719,0.3122973636,0.697305216,0.7075054157,-0.1931499048,-0.0777444595,-0.4808382148,0.2521298672,0.4295763812,0.8658743356,0.2474137581,0.272302741,-0.1209774008,-0.8290242415,-0.4778941698,-0.0116546337,0.3686648459,-0.331888196,0.9921647801,0.7404228814,0.5992750694,-0.2233541361,-0.6021358165,-0.853906034,-0.0231574401,-0.6263226796,-0.9751689641,-0.271319034,-0.9376741716,0.1982216443,-0.3734083658,0.304495557,-0.2317633977,-0.399282346,-0.111943788,0.0738639373,-1.5744392005,0.6193455891,-0.4142507179,-0.0442746778,-0.4296347898,-0.5796277659,0.5520516437,-0.2987820574,-0.3480704526,-0.1452041393,-0.3822508824,0.3832248965,-0.2902779831,0.7923044347,-0.3738971192,0.69145539,0.483198536,0.0681588194,0.4781097709,0.5984548541,-6.5041853971,0.8538310403,0.5893299686,-0.7809601253,-0.2096135236,6.6808276226,0.6474187885,0.2944458551,0.5305737269,6.325252524,3.1894842154,-0.9151260045,0.1712980429,-0.802155465,0.4817156487,-0.1084933578,0.0835668994,-0.5283607117,0.1354841946,0.3949598948,-0.4502453394,0.8107993525,0.4189350949,-3.3405112165
