encog,BasicNetwork,java,3.4.0,1,1615362644689
[BASIC]
[BASIC:PARAMS]
[BASIC:NETWORK]
beginTraining=0
connectionLimit=0
contextTargetOffset=0,0,0,0
contextTargetSize=0,0,0,0
endTraining=3
hasContext=f
inputCount=130
layerCounts=1,131,131,131
layerFeedCounts=1,130,130,130
layerContextCount=0,0,0,0
layerIndex=0,1,132,263
output=0.0559467002,0.9830754983,0.0082474741,0.8595213072,0.7630126811,0.0558490876,0.9834084676,0.7661242193,0.0053604877,0.5225761542,0.0115793199,0.2811971935,0.4130328478,0.4706189593,0.9825968041,0.1662402508,0.0000090905,0.9907498568,0.2123402848,0.9935204334,0.9989016984,0.9980265612,0.0032833138,0.3366537586,0.0000310298,0.9947271345,0.5893360086,0.5451462014,0.962047763,0.6098035935,0.2342072182,0.0277066132,0.0561631836,0.0000117075,0.019159196,0.9101737677,0.0278269154,0.0004820244,0.0325767959,0.0106533866,0.0814669793,0.7612102221,0.0001699533,0.0059259609,0.7298388566,0.821355371,0.9910474901,0.0988669324,0.9977905028,0.0181621564,0.4482961164,0.0003058336,0.0187978863,0.2395133573,0.3149972445,0.1200728115,0.0127295194,0.7099880385,0.4271391358,0.7577076189,0.2711760503,0.0018550655,0.9750515766,0.9996233675,0.3542322109,0.0734954017,0.140515906,0.8456864814,0.9983033144,0.9031077881,0.9025794255,0.0030419266,0.9883802486,0.2272909777,0.0007487109,0.1684847797,0.9975841967,0.6229457469,0,0.4270929576,0.9926820014,0.4264681999,0.2141692657,0.9997065525,0.0087912395,0.117888958,0.4822554285,0.0030942065,0.3201301165,0.4710489634,0.1398057356,0.0113686816,0.9752974917,0.9712370908,0.9697660589,0.0156238052,0.9960119554,0.0959800217,0.5572652545,0.9896147415,0.2211845023,0.4133386331,0.0002405408,0.0598672053,0.4964252101,0.2542651576,0.9912908236,0.0005905783,0.0033751463,0.9946217287,0.029523834,0.9994731722,0,0.9508875988,0.9985881731,0.9677569118,0.1426161681,0.0156248348,0.0758186978,0.0095674006,0.6862443709,0.0107111059,0.9085234655,0.3060242049,0.9461772536,0.0309277781,0.5737232559,0.9869761242,0.2887146397,0.9674535385,0.0047510579,1,0.0000001353,0.002177787,0.836918522,0,0.982347238,1,0.0712139482,0.0007280671,0.0000000013,0.0213702226,0.0010306492,0.0027638899,1,0.0163785751,0,0,0.0002555752,1,0,0.0000471322,0,0.9405066482,0.7765687073,0.9790460342,0.9831345987,0,0.9998048712,0.6828846013,0.0000000092,0.999655487,0.0000004704,0.0270786876,0.0001625038,0.0000000015,0.9191100934,0.6139755483,0.0000056161,0.9999607813,0.0000085722,0.059504583,0.0005036147,0,0,1,0.7894202231,0.0000000861,0.000141381,0.231979462,1,0.0000001002,0,0.0000001572,0.0000000429,1,0.9999927994,0.0090765365,0.0000460617,0,0.9868104571,0.9999974654,0.0028922598,0,0.2738401863,0.6507991891,1,0.9143045097,0.9999999823,0.9995366495,0.0012063995,0.735473683,0,0.4010143019,0,0,0,0,0.000192909,0.9930960857,0,0,0.0000720078,0.8269773839,0,0.0000000024,0.4297296662,1,0.0000004494,0,0.0011886383,0,0.9087997041,0.8263005412,0.0000018128,1,0.0000004983,0,0.1236208286,0,0.0013185877,0.999999249,0,0.9937797034,0,0,0,0.0000000202,0.0033774103,0.001361996,0.0000000001,0,0.9999974166,0.0000000084,0.1696451614,0.8452257828,1,0,0,0.0000538664,0.7664921913,0,0.0003968995,0.1249367418,0.0000004313,0,0.9999994829,0.9884526287,0.0000000204,0,0.5804574815,0.0000011334,1,0,1,0,0,0,0,0,0,0,0,1,0,0,0,0,0,1,1,1,0,0,0,0,0,1,1,1,1,1,1,1,1,0,1,0,0,0,1,1,1,0,0,1,0,1,1,1,1,0,1,1,1,1,0,1,1,0,0,1,1,0,0,0,0,1,0,1,1,1,1,1,1,1,1,0,1,1,1,1,1,0,0,0,1,1,1,1,1,0,0,0,0,0,0,0,0,1,0,1,1,1,0,0,0,1,0,0,1,0,0,0,0,1,0,0,0,0,1,0,0,1,1,0,0,1,1,1,1,0,1,1
outputCount=1
weightIndex=0,131,17161,34191
weights=##0
##double#34191
   -0.6212544887,-0.8675815004,-0.2403096881,-0.5169019884,0.4590414609,0.3677165029,-0.5179558845,0.8935602654,0.2590673373,0.980212856,-0.9410851775,-0.3451902707,0.5957392549,-0.6445120865,-0.8190972038,-0.0925882448,-0.7337428348,0.5137433813,-0.7952159331,-0.9263787653,-0.8761330405,-0.3901516147,0.9424911959,0.1088817947,-0.5163988504,0.1040975361,-0.3145843144,0.9495468389,-0.2252687209,0.5996421068,-0.3408673596,0.705463475,-0.0155691248,-0.1450600071,-0.4228214961,0.3049976374,0.0711312794,0.4284020852,0.6706235405,-0.6662636474,-0.0839485287,0.7051343086,-0.4546005411,0.6734149193,0.1150286135,-0.4122261909,0.5750107229,-0.0986857371,-0.4474762525,0.7287838224,0.0415632066,0.7589833981,0.2858917345,0.1913110936,0.0202179555,0.8017315554,-0.6247906901,0.5607366376,-0.1384758987,0.839432463,-0.537149644,0.6918743027,-0.907739494,-0.1642025681,0.8837599144,0.5348140118,-0.5010986291,0.737827106,-0.7381702991,0.9483184676,0.2443139255,-0.581787663,-0.3408918078,0.7722084128,0.9500955511,-0.3271033552,0.6433524528,0.0315947965,0.5414205596,0.412290797,0.2934915661,-0.1881213568,-0.740219239,0.389832717,-0.3048934044,-0.0534353675,0.2749740151,0.2457083694,-0.9389942241,0.0975634436,-0.9419289938,0.3674048914,-0.5572428464,0.7619325009,0.2735951493,0.8783505093,0.0732385299,0.92171826,-0.5750442181,0.1478409143,0.8485804613,-0.0106762586,-0.7402089549,0.3890633121,-0.168746985,0.4528699131,0.4263422945,-1.0060189469,-0.3013053162,0.8088269499,-0.9520486287,-0.0098158567,-0.7250748758,0.2765002514,0.5177825729,0.9216503341,0.0614711317,-0.1176354376,-0.0251320586,-0.5711901848,0.7332790825,0.3479693874,0.7310647022,0.1949738311,0.5356632793,0.91041078,-0.2134951295,0.6986473177,-0.9210571159,0.8810874073,0.8767010717,-0.8887221578,0.8213354771,-0.1868477133,0.7996500196,0.1735140014,0.9709345484,-0.3164219933,-0.9244709166,-0.8512362656,0.6488886213,0.780265337,0.0303762897,0.2140557732,-0.513904207,-1.0352954627,0.555737448,0.5655381993,-0.4450291649,0.0665917918,-0.4007478436,0.1871456196,-0.8037551382,-0.091692261,0.8934604746,-0.6926600829,-0.7598606079,0.1479326375,-0.0720931977,0.9813600218,0.4870630418,0.0787861946,0.8233156214,0.7787004004,0.5377406595,-0.9595453615,-0.1170505715,-0.916464056,0.6918791801,-0.0653010678,0.39260761,0.1104905169,-1.7682316033,0.395841673,0.9786443293,-0.7585358675,0.196047643,-0.8044469713,0.6040156822,0.4591982757,-0.1718353145,-1.127362217,0.0498987741,-0.0402670668,0.2285121403,-0.6603928475,-0.4176746381,-0.6262906492,0.7598608826,-0.8820802156,0.9764916414,-0.6126956001,-68.7776042239,0.3545237654,0.0070958352,0.600888835,0.5107557058,0.9684428168,0.5646655065,0.3055904073,-0.4938088575,0.1716156013,0.7695649612,0.599127091,-0.0982545641,0.9475651058,-0.8080860322,0.461677943,0.6035865031,-0.1237829518,-0.1921838534,-0.280452539,0.6304762365,0.0510595213,0.5289824153,0.8028900098,0.2915063687,0.1922589841,-0.6388507422,0.2292175327,0.7595431469,-0.4501016202,0.0102184859,0.1151400431,0.3991789891,-2.4488889952,0.8026700384,0.1084674275,-0.5683583267,-0.6241198114,-0.586232684,-1.8039368398,0.1779389342,-5.6831882996,-0.5529345972,0.5130080574,-0.581952836,-0.6617024889,-0.7700268103,0.886381879,1.6633914433,0.143495623,-1.6400744286,0.7121360649,-0.1213972686,0.2092837361,-0.5778476143,-0.939244258,-0.298186767,-0.4170865687,-0.5056644654,-0.24712012,-0.0486498076,0.5216684855,0.1553074126,0.1691504033,-0.5188430526,-0.1652941979,-0.1520556824,-0.7488450605,0.0154360224,-0.3319442424,0.0638242755,0.0934268772,0.5696073085,-0.6774965071,0.5478141681,-0.0826272251,0.4307484374,0.3548097254,0.8575384517,-0.5961675344,-0.0422902938,-0.3288426749,0.4002363093,0.58496217,0.6860807088,0.5806244335,-0.3284193393,0.678172746,-0.4174518852,0.3215964717,0.0482519822,-0.9876774622,0.7686299996,-0.8861951612,0.6678095945,-0.3869744265,0.0736570702,-0.3087822077,-0.8521211723,0.7877960804,0.6321173637,0.8436908995,0.2672561674,3.8622911496,0.3264914982,-0.9892472262,-0.9667079588,-0.7523970018,-0.3080586082,-0.2158212667,0.8751234454,-0.8688228137,-0.3011340756,-0.4502208821,-0.3772292967,0.8679887555,0.7282391859,0.6524600708,-0.4616078316,0.0260870867,1.256541698,0.3717756531,0.0532053927,-0.9528092122,0.4652998389,-0.1712375273,0.4296082136,0.3417812386,-0.2809036799,-0.1175833766,0.9621888801,4.4046402853,0.7696580387,-0.6672629585,-0.1850517883,-0.9060727593,-0.5890072738,-0.0026457848,-0.1017370094,-0.9082432545,-0.5816280853,-0.8238249924,-0.257226448,0.6507532498,0.0886354714,-0.992576337,0.5182229308,0.1121554589,0.5757989048,-0.4036424254,0.8906583446,-0.3529197576,-0.1249379345,0.7781839064,-0.6163228677,-0.7513863719,-0.2795739843,-0.4852868081,0.5182503681,-0.3284781789,0.3097692778,0.7596697199,0.441098381,-0.0562847313,-0.1939178,-0.708720774,0.6744538484,0.7433743686,-0.737441325,0.1228112419,-0.0093938619,-0.6522082173,-8.6868063667,-0.1045776788,0.0958174262,-0.3838948666,0.9743380208,0.514449468,0.7926894641,1.0184962738,-0.6980971434,0.0768420309,0.3865867713,-0.2949540309,-0.4310751107,-0.5718087675,0.5944087506,0.3402574684,0.1209778518,0.1552568483,-0.2653727642,0.7490080006,0.3334715215,-0.1422211567,0.992706068,0.4212829223,0.5332574915,0.9877958425,-0.0881123344,-0.1647443324,-0.5682603953,0.3599048771,0.5314508029,-0.084494207,-0.5514904634,-1.0859910404,-0.8795589427,-0.5557940105,0.2128707361,-0.1404511208,0.4246773886,-0.7266112815,1.1679607537,0.9783986633,0.2262874926,-0.1827785588,0.5031817342,-0.1893957168,0.8567850676,0.3379202209,-0.7791407766,-0.3878332696,-0.514697565,0.6672248689,0.5783220991,0.0331544963,-0.1332131888,0.7338406882,0.2048437562,-0.9316938262,0.9410609852,-0.3264418917,-0.4201411716,-0.4903175529,-5.3675148644,-0.1584299174,0.7340749473,-0.8534155742,-0.9626961806,0.1064088073,-0.0397662834,-0.469385831,-0.0907486145,-1.6946672038,-0.1786398798,0.9571375082,0.1659318616,0.8414475947,0.4221009446,-0.9313492592,-0.2376028912,-6.1576168465,-0.7887255278,0.75294862,0.396564821,1.0970792324,0.6335216086,0.7582409375,-0.4616810719,0.139241657,-0.1199868676,-0.338791678,2.8373502754,-0.8579655661,-0.3492575378,0.2255995251,-0.2716115785,0.4057172631,0.3504009065,0.6867939975,0.3552276603,0.1619331612,-0.5922174894,-0.7997209174,0.3092979465,0.5957085508,-0.7031584421,-0.5505443574,0.4263048555,-0.2012633361,-0.8191058388,0.3213378776,0.2235326378,-0.5886233664,-0.6441746037,0.7342325833,-0.608846377,0.6003206463,0.5069913594,-0.4064829687,-0.4550216207,-0.9694854409,0.576196573,-0.0080327317,-0.7614875126,-1.0796054,0.1194177065,-0.1866633726,-0.2165383238,-0.6285536623,0.7779143915,-1.3881202383,-0.6808875444,-2.6847284088,0.4152461863,-0.0790860753,-0.796767528,0.2230684563,-0.2814639094,-0.2831063905,-0.4769427176,-0.026310191,0.0019169449,-0.9753641523,0.7446495654,-0.8529113989,-0.7359881192,0.5032426733,-0.8414047253,-0.533790492,-0.0249280317,0.9809885186,-0.5352598285,0.5388097911,0.1274630884,0.070359124,-0.1030299429,0.5186407151,-0.4673969713,0.3852419965,-0.4430410691,0.1589162528,-0.0687814737,0.5615164334,-0.043018451,0.2386825805,-0.1463784542,0.3531726525,-0.1590916044,0.1985798872,-0.4354258477,-0.0768486537,-0.6793255085,0.128691364,-0.8012400101,-0.0240955124,0.3362505004,-0.6600126147,-0.7831410898,0.8053191247,0.7759159042,-0.2636262572,-1.694212407,0.1969093919,0.8632060692,0.1013022951,0.9381599268,-0.7576458178,0.1602790251,0.6772626699,-0.4387375876,-0.1094048532,0.5461844278,-0.6698401927,0.5451394895,-0.2905853098,-0.4109601372,0.5624900448,-0.5262717357,-0.9452889289,0.1589653587,0.0931673442,0.8814859456,0.1498291306,0.0192475355,0.6272511962,-0.3328371331,-0.4254832971,0.9797591953,0.8914754259,-0.1856672048,0.9630852847,-4.5198469275,-0.3164808825,-0.0534779365,-0.4461701791,0.8470946526,0.0086611347,-0.7005743694,-0.7082071562,0.26863531,-0.9521033666,0.3663040352,9.6089394777,-0.8234802589,-0.9506606159,0.8956785903,-0.9060887918,-0.5555837332,-0.8200316165,-0.3076965388,0.4005387989,-0.1415021823,0.1593819231,0.8307756108,0.1229922201,0.1169015204,-0.739481089,-0.6622649229,-0.3904269321,0.4176836098,-0.6421714315,0.1087934854,0.8168218806,0.7365994258,0.2651146882,0.4897593413,0.2736860014,-0.7850644696,0.0574172719,0.6797925573,0.5181704017,0.3915996797,0.5040816327,1.060991236,-0.0840299218,-0.7702212399,0.3570276259,0.1239257351,0.8546179964,-0.1768567743,0.2746789765,0.3715785829,0.8453432781,-2.8825256203,0.1241562045,0.6202340669,-0.884423819,0.9529103291,0.1668818776,0.0497103498,0.9051595229,-0.1944975226,0.0229395453,0.4754394642,0.3061514926,0.6823990889,0.4687628823,0.7420655881,0.1266847822,-0.2528348739,0.2907078816,-0.937229152,-0.511414917,-0.2359932516,-0.2764762876,-0.6415405285,-0.6697004212,-0.9368913603,-1.060365527,-0.9044421517,0.9429990379,-0.0381582424,-0.7038329281,-0.5457826965,-0.0635015327,-0.7775975758,0.8070373418,-0.4054218204,-0.2707641498,-0.0272176082,-0.4812114311,-0.8232744714,-0.6856594555,-0.3312368314,-0.2760148833,-0.5295908009,0.5335327608,-0.1325383038,-0.1303437899,0.5015791631,-0.9301685709,-0.596469208,-0.4345260755,-0.4431009451,-0.7792981786,-0.6526259413,-0.1048160232,0.5104050088,-0.5286156143,-0.8811960342,-0.0569284223,-0.8687015965,-0.0894263741,0.1956255724,-0.7202718136,1.4198527308,0.8034916298,0.8741830072,0.444969163,0.4717298576,-0.2205202758,0.2823740379,-0.1676920897,-0.0698542519,-0.0413305567,0.2183494409,0.5958850221,0.7489011618,-0.148248355,0.3943797354,-0.5428624521,0.4489420971,-0.6756117803,0.6246087277,0.5751015365,0.5585792753,0.8421259638,-0.9719343922,-0.3392204739,0.0926362939,0.2437208047,0.3754446707,0.4294368133,-3.8106286258,-1.0622467845,0.6500060953,0.3688511164,-0.1013450344,-0.3084425462,-0.2722044901,-0.4855448494,-0.4032459217,-1.0726687791,-0.8033468663,-0.8716654503,0.2676813931,-0.683055538,-0.4621931894,-0.065941986,0.1010884109,-0.5771491649,-0.4140050895,-0.3073156949,-0.804803099,-0.814627883,-0.6352755211,-0.4106181985,-0.3180977028,-0.9414984669,0.1578837529,-0.2265202034,-0.4945745714,-0.4455472295,0.3457166207,-0.1701041715,-0.0301060466,-0.9860475714,0.9474666566,-0.917389134,0.1815200828,0.7976635349,-0.6681476291,-0.4373846079,0.2526662002,-3.5576782083,-0.5226642736,-0.7602291048,0.302244929,0.1538183425,0.3570076036,0.8290154146,-1.9767861967,-0.8787225049,0.2556199086,0.3804687778,0.4323451213,0.3051308952,-0.3165981913,-0.8231069948,-1.0739597177,-0.9259945826,-0.4999696462,0.5105063473,0.2350619989,0.2171368868,-0.739765448,0.117086617,-0.3883728863,-0.5315794112,0.5135652972,-0.8085020655,0.5466330518,0.4976211241,-0.90291999,0.6360959971,-0.0325460973,1.2488372596,0.7095286333,0.5654005417,0.2734821859,-0.2055824067,0.1924477568,-0.3233025112,-0.8160946516,0.1602129229,0.4136547602,0.7790463965,0.4903518331,0.7289628947,-0.1321910234,-0.0024247015,-0.1032849344,0.6697683114,-0.5302834907,-0.8624407815,-0.4324344579,-0.1477691914,0.7632614703,-0.322883067,-0.0085610137,0.140264171,0.3504250741,0.4047190192,-0.0543862752,0.2797076611,-0.4158204479,6.5544561535,0.2141285373,-0.8334382027,-0.9056033461,-0.0577376166,0.5195643342,0.7978332194,0.546195493,-1.4742462645,0.5794338551,0.59551176,-0.8053700784,0.7080156591,0.288480813,-0.5327036524,-0.2311714408,-0.722497008,1.4902154783,0.2228619424,-0.0492968355,-0.5238252878,0.820271204,0.7071529043,0.2312078882,0.448712588,0.5946539574,0.8375528948,0.0567304756,6.4350176151,-0.384706599,-0.6707059243,0.5669794598,-0.1012977292,0.8070239459,-0.4508791366,-0.5981347358,-0.2686711578,-0.2845029884,-0.1215515634,0.5903304577,0.1188135884,0.084456743,-0.7903984337,0.5821431129,-0.0267339615,-0.5972927867,0.1561277104,-0.6872227076,0.6342195068,0.1315126435,1.0853728738,-0.4867422773,-0.1078090682,-0.6440459167,0.2822336319,-0.8828341647,0.3989184249,0.1309440224,0.159511711,0.6843400007,-0.9365421195,-0.5349757173,-0.7069005739,-0.3562799432,0.4123739059,0.4137268018,-0.3089449006,2.4291454672,0.7507598501,-4.9619925497,9.3423275019,0.6588569661,-0.537791315,0.6020199034,-0.9037981231,-0.1467148601,0.7074475573,0.5209138586,0.1224517365,-0.3199488216,-0.1017377682,0.5623072874,-0.6392992513,0.0594427575,0.8385811037,-0.6171629192,-0.2046754732,0.3277501682,0.8586539097,0.0206131447,-0.9972667047,0.8783615925,0.6915594928,-0.241182283,-0.7253411562,0.4052171078,0.6273415665,-0.8610344009,0.5147977759,0.9887626006,0.6009364503,-0.4828927212,-0.1627826223,0.0398302807,-0.8172300711,0.2155938106,0.2210718583,0.1191062934,-0.4202148265,0.1797443273,-0.671364956,-0.1080528684,-0.5919510309,0.030876202,0.4784482175,0.0928672193,0.7468867299,0.6426134935,-0.7824303879,0.0000615613,-0.5647074744,0.0039312695,-0.6310257125,0.0073193415,0.7187433118,-0.4163459832,0.2828284286,0.4324676403,-0.0440335181,-0.1780196163,0.6539252894,-0.9338508921,0.0253298824,0.55214715,0.6783587228,0.6177739729,0.9249195637,-0.6407819576,-0.0884274511,-0.0684398108,-0.7439008317,0.4881527984,-0.7591744145,-0.4431722578,0.1316009938,0.8204635123,-0.7105265463,-0.8306797949,-0.0537591631,-0.4671256828,0.8562678112,0.1786940353,0.2617534629,-0.4294116716,-0.0826587397,-0.3201926067,-0.1399022861,-0.1134907483,-0.5813640172,53.1834652168,-0.8152363655,0.281147168,0.4773478852,0.0201276392,0.3761528147,-0.8293984537,-0.9393085485,-0.6724436616,0.8465803963,0.4449761984,-0.0578489474,0.0090259153,0.1063911975,-0.0605712084,0.2410374213,0.9332087974,-0.680468248,0.4264589806,0.1754413941,-0.155003795,0.0885686083,-0.3422386309,0.0289496713,1.0020220908,-0.1526475152,0.4181576167,-0.6209537752,-0.5931244556,0.3886508877,-0.0690403948,-0.528185393,0.6152633498,-0.0067542283,0.8153546617,0.4319062305,-0.6613456526,-0.8981606039,0.5961863747,-0.1320099039,-0.4872578536,1.5019961853,0.7881361866,0.6399407653,0.4929652516,-0.0848493381,-0.120382513,-0.8133222689,0.3081189702,-0.2191944621,0.603294439,0.816888617,-0.8449791263,-0.1804539327,-0.6044877342,0.6539215324,0.1752866854,0.0702145067,-0.0642357622,0.2378670971,-0.1643726331,-0.6765253153,-0.605225813,-0.6392418252,-0.6186574141,0.1804605857,0.4397662457,0.8917281131,-0.6757760382,0.2385179972,0.4202864923,-0.3685291484,0.5623418322,5.0297502333,0.9101840445,-0.9307951475,-0.1012369389,0.1330960787,0.0361791759,-0.4459565183,-0.7021408933,-0.8239120378,0.7099858629,0.6400257789,-0.2509596022,-0.2105212564,-0.6420702453,-0.6890490278,0.523955444,-0.2898685606,-0.6289883377,0.5418445389,0.6925426327,0.8072321669,0.3390587413,0.327130254,0.0536743977,-0.9820056183,-0.3714132799,0.5417878193,0.8383109212,-0.6005207954,-0.7469485003,0.8222571596,0.7578511481,-0.7854306311,0.614810846,-0.7801507878,-0.8365216191,-0.3742425757,-0.4464253505,0.7024390081,0.4813515477,-0.3385421307,-0.4724200631,0.0163375457,0.0137261613,0.7500571071,-0.8447646088,-0.9826018885,6.5338947016,0.6141323366,-0.0226953853,-0.1942929477,0.3849473285,-0.8854472698,-0.187822479,-0.1965480558,0.280777544,0.2022241881,-0.8229933937,-10.1666605498,-0.1476130722,0.4475721699,-0.8761945227,-0.4275703125,-0.6253441634,0.3379813117,0.3851013557,-0.9479969673,0.9158993085,-0.8240366927,0.1444625369,0.5494313812,0.3968758993,0.58370883,0.6628354694,-0.6579027454,0.7190958,-0.789546283,-0.2199435719,-0.4421629667,-0.7828594299,-0.6128094254,0.7990656655,-0.8717659333,0.1954175343,0.7468282884,-0.0882547831,-0.0620893512,-0.7835823555,0.2902256079,0.2658003703,0.566484756,0.7789286498,0.6348000085,0.2485756868,-0.8503591654,-0.4747436498,0.6399020957,0.0176744658,-0.2643538776,-4.6440698709,-0.2047760459,-0.4540200698,-0.7987854139,-0.8133154826,0.8659381274,0.1608673457,-2.2080364193,-0.8624744454,0.5369934277,-0.3355068906,0.3917083143,0.3732667563,-0.1572601984,0.5797192984,-1.0286920658,-0.8946892736,0.7201300355,0.0354972213,0.2451914383,0.1548455151,0.601073453,-0.9330425697,-0.9941636971,-0.4394150323,0.6317144148,-0.1722792126,0.0103919712,-0.1719760959,-0.5317249943,0.9790779631,0.0497603468,-0.9099987618,-0.5586971324,0.701090329,0.708568419,-0.3638304006,0.9513722491,-0.675202411,-0.4366705718,0.556283765,0.2137190057,-0.1126855055,0.0410023231,-0.8734643967,0.5887152548,0.8163923705,0.3618214989,0.1839854506,0.5389989086,0.6924947266,-0.2877507363,-0.4895079128,0.8131326594,0.3593045086,-0.4069878848,-0.3960185224,-0.2307168309,0.3127065461,-0.9596382204,0.6487729932,-0.5956971755,1.3617008672,0.4367916384,0.9617833682,-0.4007037236,-0.6040149139,-0.4624241596,-0.7518699606,-0.8211640771,7.9326678684,0.1696136022,-0.1968385972,0.2073036357,-0.4345985879,0.9953058059,0.65703964,-0.1557622905,0.3326591259,-0.5257649375,0.3254359564,0.194622512,-0.0863184877,-0.9846187902,0.9335011004,-0.2553339873,-0.2111332635,-0.5090910847,0.3590295142,-0.1026819709,-63.5078286016,-0.5277351655,-0.6454026087,0.0691221314,0.7622379217,0.3104198008,-0.173015159,0.2354284721,0.5609587383,0.647393264,-0.075169254,-0.9754653507,-0.9180107284,-0.536651751,-0.8437665883,0.6509655037,-0.1273257338,0.6469272524,-0.7159057113,0.0961012015,-0.3552266781,-0.4835126401,0.8372318329,0.8293205212,0.4543404123,0.4662181798,0.1077366025,-0.8123030927,-0.8761833889,0.5434334303,-0.9071877493,-1.0889886003,0.5037247436,-0.0381101326,-0.7738576986,0.9188418299,-0.4426674359,0.4856918105,-0.9490030257,-0.9871945924,-0.0312308645,4.2072762407,1.1471193986,-0.6620089354,-0.2713935667,-0.8326037786,-0.148176388,0.4965576226,-0.1520972559,0.3948802548,0.1688760541,-0.0708770653,-0.5514945604,0.9521002246,0.0826406348,-0.419946524,-0.4209323721,0.2882785522,-0.7286698386,-0.2812370508,-0.8931507125,0.2294403015,-0.1046779431,-0.4898860181,-0.7198306845,-0.847244948,0.0269755493,-0.8558776344,0.3746361205,-0.4423816591,0.4200095498,0.2999063003,-0.5158228228,-1.1918898904,-0.3512472592,-0.0740086659,-0.1537617447,-0.5653592364,-0.5691791441,0.7248102066,-0.5887091801,-0.4232917694,-0.6266266843,-0.5916362867,0.5832982652,-2.4902448549,-0.2570477555,-0.0244553922,0.3454941116,0.3009147104,-0.0345965292,0.1224796981,-0.672676312,-0.319749749,-0.3071674575,0.8226058209,-0.1394851455,-0.4744649608,0.6718725792,-0.2257883559,-0.5570352632,0.663054083,0.3792009987,0.429741136,0.0812321764,-0.8407951062,-0.2827198351,0.722765586,0.7267783367,0.806564749,-0.4564403221,-0.4275440788,-0.6461304344,-0.3074219527,-0.4506506659,0.8613096687,0.1388979499,0.9021973904,-0.0004803574,0.9581142913,-2.0454047564,-0.1395797474,-0.4487866877,-0.2146878944,-0.6643625606,0.5202950325,0.1599521254,0.6415962994,0.5624533784,-0.5531498079,0.5385195517,-3.1303063042,0.0433887919,-0.8648044817,-0.1735362697,0.6087645776,0.4771764055,-0.2441220436,-0.3617258153,0.1526964719,0.8195799977,0.1313912782,-0.8958638978,-0.3639508518,-0.9443712248,0.3738412357,0.4347307141,-0.0911761091,-1.6144812074,0.0691126304,0.7006835513,0.5905428698,0.8641931412,0.020121779,0.0097435835,0.297053769,0.3959123897,-0.9467497013,0.6910055765,0.7964930114,0.6483045791,-0.8794976192,0.4925956438,-0.6249403921,-0.9138503342,-0.6903139078,0.4056587918,0.8574683167,-0.5050057752,0.0308696906,-0.3465597926,0.7604458839,3.1905009751,0.6454928888,0.6761968941,-0.6961307966,-0.5198589081,0.7721423282,-0.2023416033,-0.8486140416,-0.7445136502,-0.7347071836,-0.3914351425,-0.1604826843,-0.1215407419,-0.3847425849,0.6999106281,0.2495662971,0.7108613251,-0.5077600423,-0.4189369197,0.8181733009,-0.6356806323,0.6191107333,-0.4320508894,-0.2560192231,0.4860409838,-0.2502621381,-0.763093572,-0.872250202,0.2978271402,-0.9513456973,-0.3550770852,0.0870471104,-0.1304385285,0.3072471922,0.8907312615,-0.8024725525,-1.0573918758,0.5929714164,-0.3006638531,0.0231244601,0.9416024216,-0.41844305,0.1636964642,0.7781102301,0.9254692123,0.246277974,-0.8189459564,-0.8600418971,-0.1203073228,0.6712534912,-0.128846371,0.9500805919,0.3542404922,-0.3977584866,-0.7214977557,0.2994982228,0.4238945787,-0.3926211277,-0.8286760619,-0.52659423,-0.4652725345,-0.3443670585,-7.620298875,0.0016186276,-0.1960790403,-0.4244933207,0.4964118469,-0.5570743752,-0.3665164012,-0.327024663,-1.0508675049,-0.3789641054,-0.5639403932,-0.0172489071,0.9606473145,-0.8337071032,-0.6572266351,0.4386603268,-0.9791383799,0.4202751128,-0.5796618399,-0.4782225992,-0.8705502694,-0.3243113768,-0.6092083788,0.5468062746,-0.256350511,0.8590052879,0.648687821,0.7184045855,-1.0490910329,-0.8191232267,-0.0938351204,0.0263579453,-0.5315159912,-0.0347060092,-0.4545069364,0.476285881,0.2146237031,-0.2862517982,0.4204568636,0.7867366458,0.587666794,0.5950471754,0.9393036683,-0.7566261531,-0.0766968365,-0.765940259,0.7446614068,0.8248008572,0.0398849275,0.76258058,-0.2769475343,-0.894358023,-0.6818095061,-1.0465612802,0.9791489315,-0.7503615625,-0.3626016623,0.3081116804,-0.0094182652,-0.0215383228,-0.4011224893,0.0072481226,0.5288282848,-0.5149500411,-0.0651371201,-0.7521562462,0.1554079429,-0.3986588095,-0.7184498295,-3.9148321028,0.3821023239,0.6575545122,0.4304919453,-0.4536572786,0.5371495876,0.4676826891,0.14395329,0.6868949871,-1.309416636,-0.5180324777,0.8435645622,-0.0091339539,-0.0289863436,0.3023662534,0.9194248554,0.131361388,0.453571006,-0.8100389191,-0.2840925599,0.6606719754,-0.4625819767,-0.3279579954,0.3890550426,-0.8424722232,-0.8449965617,-0.4020841509,0.6665671589,-0.009999841,-0.8783390796,0.2459539942,-0.1273629313,-0.61751084,-0.8715221159,-0.5327624929,0.5336331877,-0.0929146718,0.1635800233,0.3586769043,-0.769274436,-0.2284749771,0.6492144159,-0.8037169578,1.035071716,-0.5490233152,0.8666354052,0.3177847732,0.5644397219,0.3248617419,-1.2629083413,-0.4375604678,-0.5010249207,-0.8491958172,-0.0955208004,0.2326730962,-0.8822224728,-0.4058310678,0.2683794128,-0.8952592393,0.5899073821,-0.8087066692,-0.2951095559,0.6061458552,0.8060909472,0.9434890934,0.2568081945,0.9543847009,1.0904635752,0.385293808,0.1480473003,10.0924235602,0.3143186794,0.2523738969,-0.5299584243,-0.841864531,-0.2300152091,-0.7388702164,0.121461563,-0.6860535384,-0.0484414267,-0.4635573659,0.2692922228,-0.7862508483,0.8294970095,0.2717649286,-0.6294537679,0.4592235359,0.7317825185,0.8415731406,-0.4092358624,3.3376653711,0.1672699356,-0.8767866693,-0.7316695764,-0.2791838326,0.7863272984,0.4984679457,0.1581726385,-0.5954436702,0.0661703619,0.3978126476,-0.8221762806,0.9634453613,0.8602743309,0.3630570852,0.4437288986,0.1404008153,-0.9129421057,-0.2015560054,-0.005060442,0.0849267795,-0.3529918307,0.889514596,0.1082199491,-0.4343320825,0.1678060595,-0.5076790329,0.5006186553,-0.7109962736,-0.9915649657,0.8108255479,-0.7759333914,-0.1877402365,-0.1046960096,0.3373048776,-0.3517547918,-0.6781769279,0.8750517158,0.6313618773,-1.0309316102,0.251669466,-0.171979892,4.247232376,-0.0708382174,-0.4626971842,-0.546603655,-0.7877943229,-0.679583999,-0.0292643332,0.5529847482,-0.6284651362,0.7252719413,0.9314122851,-0.0224410589,-0.4386660816,-1.0130976531,-0.6334499154,0.6500260329,-0.7409438929,-0.9228917532,0.5209400942,-0.1124740614,-0.8062790458,-0.7935800524,-0.9885125839,-0.8533610023,0.5489853669,-0.6047848436,0.2329711243,0.6410221217,-0.7785671406,-0.0723875361,0.6125742114,0.1551205308,-0.2906083747,-0.1697148383,-0.3161646582,-0.847254411,-0.3817735259,0.2572396148,-0.8386622851,0.5420435004,0.9692036881,-0.2548760866,0.9051264932,-0.2598627069,-0.3763462634,-0.28196622,-0.0599155854,-0.5861240174,-0.4529710687,-0.5946888286,-0.433130127,-0.0312983306,0.9762624282,-0.4518299872,-0.1323319155,0.8049109699,-0.4860671719,-1.029425447,-0.9444079007,0.001489636,0.6240780737,1.5705199113,-0.8103516789,0.6991255805,-0.9238633782,-0.6053567087,0.2485945396,0.4582521764,0.633661855,0.4294199728,-0.7611036763,0.0582330704,0.0504179449,0.0027136962,0.4996403963,0.5140166552,-0.8444335789,-0.7955061965,-1.4821125984,0.8818262153,0.519132122,0.9488878862,0.8604982336,-0.6232391535,-0.3936815334,0.1669823299,0.0811475283,0.4310375989,0.3941905146,-29.2814440863,-0.053534329,0.3042203739,-0.2424094763,-0.0344875324,-0.2828899218,-0.3027485655,-0.2742361497,0.6661349229,-0.2298162059,0.3374777991,-0.609805268,-0.1930315527,0.9118865221,-0.0707267468,0.0924440768,0.0710986139,0.0633979749,-0.3075189475,-0.5496736221,-0.9909469718,-0.4022133282,0.7807585087,-0.5845564549,-0.8579525883,0.5496437517,0.0666917306,0.1530115115,-0.0437209207,0.9693565339,-0.499748288,-0.1093345284,-0.4682590446,0.6602017875,0.2090381486,-0.5219601586,0.8507681707,0.244468522,0.4398234093,-0.5988726387,-0.7659899505,9.6425964038,0.6647510699,0.5809762566,-0.9874103275,-0.2138683404,-0.5232801465,0.7825352866,-0.8037731067,-0.937032426,-0.3850410775,0.4815733955,0.9688668591,0.3096399727,-0.0186356026,0.9656526188,0.1582322058,0.9468546545,-0.3938001142,-0.2255410079,-0.3347127949,0.2713266687,-0.5426216988,0.0505625818,0.786572679,-0.7207682868,0.3796289897,0.3585206554,-1.0028929917,-0.7552842684,-0.4491896727,-0.1567989967,0.657445022,0.7300603965,0.6767292466,-0.4064417242,0.2888170883,0.0434770162,0.4077544885,-0.7236662851,-0.4212488002,0.9755828984,-0.231565905,-0.324132485,0.1771182061,0.4931241736,-0.9170745064,0.7599289101,0.198801153,0.5181747102,0.8124650333,0.0484665892,0.3151728067,-0.9697904699,0.4638101812,0.1233313742,-0.2148999621,0.1041142608,-0.6454716312,-0.2784097601,0.1235616221,0.2568375656,-0.2923117742,-1.5138481377,-0.5316839297,0.8445915357,0.7598237691,0.0429329566,0.3379931973,-0.6027020544,0.1948665276,-0.3020576192,0.6687475847,-0.3056549151,-0.3303284445,-0.6359718694,0.1088168526,0.8913860378,-0.241233313,0.5655728061,3.7065286537,-0.2916183692,-0.4420200383,-0.3754330357,-0.3305753018,-0.3140908672,0.691795077,0.8522924972,-0.1292944545,0.642392343,-0.761064858,22.3020188405,0.3916878472,0.6955397523,0.6620541038,0.7710500967,0.0347862861,-0.0266488182,-0.0534485598,-0.4451526927,2.5291120672,0.6465753081,-0.767868874,0.067155517,0.196865496,0.7607709209,-0.990582872,0.3296373075,0.2290916616,-0.5810611629,-0.2049779507,0.5677386717,0.2149427536,0.6525681612,0.0320935788,0.952759595,0.1683697507,0.5563788034,0.2496129533,-0.1162467475,0.3575922433,-0.103879037,-0.5289011327,0.6760968813,0.0275893994,-0.7336523412,-0.2928558219,-0.9068028523,-0.5251928155,-0.8210827706,0.4480733018,-0.1247584181,-1.6522660567,-0.4941605145,0.111500081,-0.9889510086,-0.6607041991,-0.7362944979,-0.2403908179,1.3579107681,0.1521744303,0.6867319634,0.8765906942,0.6019206813,-0.2523809944,-0.6022657801,0.4026918702,-0.3054378654,0.0104836785,0.6385436233,0.1878613457,0.229027145,0.16090336,-0.9263697363,-0.9922738301,0.964912259,-0.6309897027,0.7157316883,-0.313878746,-0.0138219114,0.1396670389,0.3103670072,-0.7731998285,0.4563222876,-1.6552292986,-0.5018588631,-0.5529154752,-0.6685572195,-0.642730275,-1.1552878859,0.4169525935,-1.0355506776,-0.3242952935,-0.5483402637,-0.5101952406,0.7390981085,-0.2978723673,0.9889300132,-0.8660688359,-0.4460608515,-0.0691294667,-1.0056332615,-0.7545084576,-0.8065048507,-0.5064270238,-0.5212588043,0.5152269474,-0.8047140742,0.8059772686,-0.6404705991,-0.7579867645,-0.8075946994,0.4709875184,0.8503792405,-2.066767993,0.5120908676,-1.1143888967,0.4224449766,0.627835508,0.4176666175,0.3175552311,-1.0004045152,-0.584221823,-0.8722687999,0.4200037259,0.1274523736,-0.931859822,0.050964261,0.6324842509,-0.3449846728,-0.324334667,-2.0296392715,-0.27568272,1.1209705584,-0.7438499881,1.0696094817,0.2246505597,-0.508440325,-0.9899018251,0.7809198865,0.1639170212,-0.8788798226,2.7274127826,0.5138576399,0.7066282729,0.2410142378,0.7495403535,0.0722569871,0.4006615173,0.2866080349,-0.5185606712,1.5000251935,-0.478741961,0.4947797569,-0.6541140572,0.2744757443,-0.6732829682,0.3174940551,-0.0557394407,0.088105171,-0.8627275689,0.1369734911,-0.4518138923,0.8955516536
   -0.2694810114,-0.1415273413,0.7340687781,-0.0189631921,1.4392573674,0.6546631071,-0.8361522578,0.5554713315,0.1786299282,0.1083306853,0.9412700644,0.8235796027,-0.1291205659,-0.4873427245,-0.5254383446,-0.5948291609,-0.0557709133,0.5416879323,0.4025824172,-9.2031730722,-0.990091847,-0.3401662843,-0.9852648251,0.1615443398,-0.6337599434,0.5372599909,1.6791648308,0.3693989025,-0.3380395272,0.5107144383,-0.0415356129,-0.8898109783,0.3898414891,-0.9457973921,-0.5128000466,-0.327485051,-0.3325967511,0.6225271327,-0.2128808862,-0.6388680925,-0.0831583256,-0.2515422067,-0.6736947914,0.0110592691,0.7642706625,-0.970319442,-0.6306913926,0.523838576,0.2590977113,0.289516231,-0.5967959904,0.6910315976,-1.2108664637,-0.8979888827,-0.1252816511,0.1668240912,0.2650689669,-0.1721656462,-0.5124750071,-0.6121253602,0.3444039034,0.645705714,0.2719485494,1.2841503966,0.3978728332,0.4410378303,0.1626633337,0.2875809181,-0.1375758646,-0.3389319914,-0.941075813,0.0933694874,-0.1984487967,0.6362143361,0.7361038616,0.240694926,-0.627937422,0.8790863645,0.449674219,-0.2742255013,-0.231058503,1.1878592017,0.395423027,0.3984966127,-0.4729984706,-0.9315810109,-0.0781578661,0.1637463587,-0.207220565,-0.6535855051,0.5488642626,-0.6023010594,-0.0387794041,0.2323247311,0.5937352087,0.1883923316,-0.807584202,-0.0832228653,-0.1390980712,0.8978506935,-0.8249977018,-0.9591310881,-0.5254811023,-0.8452850748,-0.0874773298,0.7498818622,-0.2699741511,-0.6360068136,0.5175791368,4.3099787518,0.675605127,0.0359526431,-0.4774347607,0.1057589116,-0.2471724134,-0.2649836932,0.2634859111,-0.5047025053,-0.0068955398,-0.167109466,0.9104343779,0.0290570728,-0.3709570534,0.0027611401,-0.2283841359,0.4620560352,0.9624573814,0.4844340524,0.2056847299,-0.1511155729,-0.6026282052,-0.390721784,-0.340509651,-0.7818976538,-0.0522393197,-0.0230751561,0.6389535907,-0.4472579516,0.1977238785,0.5939488053,-0.0983700241,-0.14399038,0.3356066377,0.457588333,0.6839109023,-0.2581832918,-0.6312411119,-0.4367815831,0.8525864446,-0.8106917931,0.5465885314,-0.790906972,-0.4769699143,-0.5423619497,0.7760124665,0.6090205529,-0.8044606221,1.4672855804,-0.9770017152,-0.0598617416,-0.032223121,-1.0340123287,-0.3949583117,1.0522298216,0.4360749182,0.9331827688,-0.0409173987,0.6780459789,0.2583229201,0.4212338991,-0.6232118842,-0.9050585842,-0.9991681135,0.0761576397,-0.852958493,0.008236614,0.108851752,-0.0435357697,-0.8827225868,-0.0434565856,0.3479083962,0.8473485249,0.4706940647,-0.9373550944,-0.2845597145,1.2551939438,0.5451398957,-1.444615503,0.1548054514,-0.0116364191,1.658228326,0.6532967912,0.169756723,0.4055898982,-0.680301277,-0.2619914079,-0.8734564073,0.1751835606,1.0593647648,-0.4635920637,-0.0314895499,0.602712027,-0.7133468059,-0.3995517454,0.8427088882,0.446911322,0.6313788027,-0.7196719044,0.593496171,-4.4301235253,0.3033312076,-0.2633854451,-2.3480252008,-0.1050989599,0.2154079435,-0.2080941216,-0.7326425855,-0.6002414598,-0.3742721727,0.5252183529,-0.0914062225,-0.4633242173,-0.7767873871,0.5670432933,0.6456501006,0.0690371972,0.665851743,0.6986959161,0.385870826,6.5062796133,-0.8137326531,-0.1433764934,0.8993992999,-0.2410450282,0.313467884,0.5401009182,-0.3116376849,0.4299889172,0.4535469357,-0.3214484047,-28.6403166412,0.2209441254,0.0255139901,-0.4696678943,-0.1984068699,0.4287846464,0.0952213424,0.6142940132,-0.0137235517,0.3766467261,-0.6712914095,-0.9275159339,-0.3676521317,0.8158465432,-0.6949395776,0.1328895343,-0.4472090093,1.2042684246,0.0528595905,-0.780439431,0.8388536617,0.6384386074,0.6671281019,0.2441260932,-0.6706583326,0.2444275372,0.2009240241,-0.6145947604,-0.798874343,-0.9571423581,0.7153018343,0.681238639,0.6512039476,-0.2339006779,-0.3636735963,-0.8371755757,-0.2395217977,0.4389522442,0.4812786234,0.1760606271,0.7540764201,17.5291063905,-7.4357785266,-0.6596843231,-0.1147659657,0.5494527315,-0.2016681429,0.1243373791,1.0189444996,-0.4163267017,0.4952426231,0.5549725184,0.8878513092,0.0423619796,-0.6706409533,-0.5658147475,-0.4982912145,0.8891414409,-0.8833922533,0.742212986,-0.6666781038,-1.0507180135,0.0545737554,0.0446781786,0.9526701647,-0.2424961845,0.381245019,-0.9472119448,0.6456990711,0.757218815,0.3247321302,0.8350153701,-0.3590196725,0.1714526003,0.8925516965,-0.0386382669,-0.0020409618,0.2365138791,-0.5616966541,-0.2883411454,-0.9617034285,-0.0828506442,0.4162514508,0.5226789013,-0.2487403713,-0.5622436181,0.381572918,-0.9497140689,0.7600675601,0.1063512435,-0.045873635,0.2570339615,0.7961994574,-0.679204472,-0.3363403802,-0.5687763763,0.5517449927,-0.2416348009,0.867306718,0.8055183846,0.5793315477,0.1178613067,-0.836919336,3.7114176335,-0.8654503008,0.1939549678,0.3802182955,0.7865409842,0.7719910874,0.9096127505,0.4247194599,-0.1780044839,-0.0346465102,-0.5426747652,-0.4638196676,-0.3878776293,0.9906274594,0.6738642107,-0.6666437601,-0.9733179791,-0.2497418948,0.9763636853,-0.9086745922,0.2114369001,-0.7826691838,0.6128720014,0.7300040859,0.0260555299,0.2096853515,-0.0928559071,-0.1523887736,-104.5399855772,0.2488697606,0.2138590195,-0.1155244696,-0.5560434632,-0.312062983,0.3644775576,0.5034724649,0.9499133199,0.2063204694,-0.935705432,-0.2728726698,0.9545468535,-0.0516809695,-0.4518354426,0.4101545119,-0.7339181215,0.8274450443,0.3278688288,0.0602048459,0.1976885763,-0.1208732124,-0.7995806457,-0.4974288235,-0.0709079226,0.1976414369,2.1050060856,-0.456590887,0.7099946606,-0.1226579082,-0.3436728361,-0.6417602981,0.893004576,-0.6978069709,0.2503313945,0.0046267698,0.2693011973,-0.6936121005,0.9110756145,0.8642888362,-0.64536838,9.5572434749,-0.5104776369,-0.0703769388,0.7780397278,0.3753788004,-0.2970012559,-0.2065618698,-0.0608418965,-0.8450842832,0.3423742977,-0.3846607737,-0.6047438585,0.7318715746,0.45423297,-0.1828245616,-0.4518536284,0.0875215895,0.2438127732,-0.0865984878,-0.040587732,-0.3179541528,-0.7871802156,0.2342286083,-0.4106215566,-0.4857432219,-0.6354055094,0.9268079802,-1.0499253008,-0.2866805953,-0.9051411776,-0.2636467642,-0.2137338338,0.0547039401,-0.4736833278,0.4379329719,-0.4482520752,-0.9214539218,0.2867574702,-0.4100281353,-0.2839350403,-0.9704134927,-0.2626195841,0.2919427938,-0.3295051063,0.6059504201,0.8603393845,-0.2737724597,0.7520053481,0.2189895514,0.9000968225,-0.0383869624,0.6742541246,-0.9650964797,-0.5863215584,-0.5593124831,-0.795638027,-0.4215371038,-0.6164512205,-0.3002422245,-0.007607901,0.8498698383,-0.390436484,-1.1641924987,0.9670597761,-0.7119125173,0.129016328,-0.3441671558,1.1011763616,0.2106470694,-0.984851448,-0.3760453427,-0.9115596232,-0.478861973,0.1425475352,-0.6606797474,-0.1065149523,0.1375782543,-0.3922405804,-0.1398310153,1.319305993,-0.2719138656,-0.269813131,0.507963745,0.5576264592,-0.3143264425,0.3530612771,0.7069689021,0.8193692396,-0.2891586425,-0.6054604613,3.8438961937,-0.6922173446,0.5808962888,0.9551460117,-0.7309667496,-0.1588172286,0.2882017929,0.0375599925,0.7716050669,-0.038553031,0.5049950403,0.8537119105,0.5582786585,0.4197952689,-0.9205050883,0.3177109101,0.9861647569,0.7312350826,-0.5309481526,-0.5768128909,0.8478450094,0.5531005609,0.9060708873,-0.9419942293,-0.853958817,0.2761786986,-0.5385476855,-0.3478712163,-0.6364730119,0.8119891855,0.2703311048,0.7750331185,0.9447534961,0.2010394667,0.6762929985,0.4709424532,-0.9897698313,-0.8722445701,0.9116569152,-1.1801252856,0.6962705827,-4.9413244508,0.2469163757,0.3340489898,0.3725067658,-0.6531849672,0.7342386741,0.0519623336,-0.1010539165,0.720820015,0.8422619905,-0.4202927224,-0.8727378574,0.4710587521,0.4069600045,-0.0470543139,0.3078524532,0.5336414227,0.4109216313,-0.5105382658,0.4180536114,-0.7098331036,0.2052548058,0.8672223369,0.8190675022,0.028530752,-0.8214410357,-0.7590346781,-0.7288744505,-0.2055917587,-0.132553877,0.2389364539,-0.6996957716,-0.3343319646,-0.1513578395,-0.1878472461,0.085250293,-0.2705276798,-1.2685015265,-0.2180399644,-0.3595659411,0.5885357808,0.3005790065,0.1419647746,-0.8883328261,1.6890138993,-0.5519725739,0.3094063534,0.880661718,-0.225292588,0.3686237693,-0.0474230785,0.2749908116,0.9125490815,0.4203781133,0.0239837238,0.9065362797,-0.8697873523,-0.451200348,-0.4821118249,0.6088409088,0.3123958149,-0.0622738066,4.5891497946,0.7031491723,0.0727525827,0.7597852225,-0.3170903448,0.326530525,-0.4281414832,-0.7699630205,-0.3817489,0.2704308702,0.4175433241,0.3682835004,-0.1498759598,-0.7230345699,1.0356085937,0.2350168736,0.294273414,3.7800010909,-0.153269339,-0.3610666533,-0.6539054061,-0.6592228245,0.9371007177,0.458399462,-0.7032872714,0.3263145721,0.7185650095,-0.8689595545,58.2035416666,0.1533061936,0.9506383918,-0.8224095016,0.4214318822,0.7092716215,0.2894414935,0.9339569264,0.5386043931,1.52439561,-0.0667235693,-0.4678177994,0.5417821634,0.1197380255,0.9795892315,-0.304070405,-0.9422198223,0.8483061843,-0.8793489687,-0.6144940854,0.8095226263,0.5101193753,0.1074860384,-0.3221211911,0.6283739652,0.4483334546,0.4853831748,-0.275002585,0.6244016914,0.1579953844,0.8471568787,-0.2026173067,0.4939536837,0.982412418,0.4264251015,-0.3651168642,-0.5864736727,-0.2830582757,0.5864965539,-0.9565744109,0.3016503215,9.9391529772,0.9428242524,-0.586212449,0.4372872551,0.5481560022,-0.2077539534,0.2805188922,-0.1468628017,-0.8490101604,0.8352005693,0.0826694624,0.09269169,-0.760338655,0.3544455409,-0.5411702657,-0.6717951718,0.993502409,-0.3374894819,-0.4308350839,-0.0033542838,-0.4546185862,0.7907588915,0.4548392421,0.4128053528,1.8477554887,-0.7260588421,-0.1440914172,0.0002523073,0.5214784728,0.2688649413,0.1677733456,-0.5386386688,0.2858629905,0.0293511311,-0.4971709192,0.4769869731,-0.9061387308,-0.060217957,-0.7529889817,0.0534728488,-0.4430362764,0.4119947656,-0.0602129591,0.5209788674,-0.3162132128,-0.4307911506,0.1749628198,-0.0996119119,-0.1054600407,-0.2271962052,0.4798473123,0.2854936771,-0.2324768472,0.3681105868,-0.1296212756,-0.309247754,-0.2501944965,-0.8763468736,0.425573066,0.0713322798,-0.5644256668,-0.5377608309,-0.4798854063,0.3631230884,0.7344725188,-0.1827642205,-0.3317382022,-0.601552528,0.4420088075,0.7872809978,-1.1930938922,-0.310115413,0.8162838723,-0.6761827769,-0.0038474975,-0.8979724816,0.1022744962,0.3404516399,0.1796651593,2.306361412,-0.8166022708,-0.6614675169,-0.1218382545,1.0447438286,0.7534279975,-0.3651746527,-0.4341204695,0.0387976571,0.1528426822,-0.0074343038,10.677799959,-0.1766947808,-0.1006254907,-0.807529956,0.4026384034,0.4770667005,-0.2353978472,-0.0435970989,0.9224088027,0.7910181501,-0.5083165976,-0.3141502701,-0.7877566717,0.8415902173,-0.0418562355,-0.833766227,0.9874943066,-0.031941017,-0.9685347789,0.2573431961,0.7337414146,-0.6031391766,0.8314418581,-0.7888283522,-0.168177373,-0.1083111024,-0.8793027918,-0.4256204309,0.9044200725,0.3769549005,-0.6852482245,1.1876252826,-0.6342501573,0.318864831,0.8748263753,-0.3422075275,0.0241977287,0.0350640553,0.5477750742,0.2240951885,-0.3604574375,39.9320623294,-1.5493230183,1.0919006829,-0.5208816206,-0.4820431634,0.372713791,0.1638933204,-0.6278725517,0.9468744994,0.5390980776,0.566815718,-0.2918977609,0.2172821263,0.1780151786,-0.9247577925,-0.6570691178,0.7543403655,0.2065106158,0.4408958342,0.6756737573,0.4663291329,0.8586034961,0.4152386729,0.5292934353,0.7761042845,-0.9640811619,0.3830451047,-0.8164691747,0.1904480451,-0.4528484423,-0.3039214763,0.5944546451,-2.7875002016,-0.6438267349,0.5111496277,-0.1643243175,-0.6064482622,0.3713794769,-0.8935529605,0.9070437895,0.7040920228,-0.9926781088,-0.8597529038,0.636936386,0.5796070108,0.4843362346,-0.8573584178,-0.9102651641,-0.4496320962,0.9369796732,-0.2487771382,0.1858193308,0.9464630001,-0.8770756577,-0.9674836316,-0.9363536463,0.1315718792,-0.9062040217,-0.1061710795,-0.6424627232,-0.4531032326,0.0234239654,-2.7569222558,-0.50771739,-0.8155650731,0.3289968994,-0.8140996428,0.2760144679,-0.2160398602,0.5639550273,-3.1767717898,0.1499886814,-0.0897905229,-0.2699322287,-0.0525083354,0.9013814661,-0.4710784287,-0.4399520108,-0.0816965336,-2.8026645978,-0.0933594957,-0.0623334601,-0.750793002,0.4480707386,0.4434311021,0.2653791174,0.2100121654,0.5727644694,0.7533534147,-0.1116602046,12.4237625254,-0.6452943118,0.0079490757,-0.0103811265,-0.7446018768,0.6198222712,-0.0388604634,0.8794328741,0.0016209905,0.0464882907,0.4059888532,0.885477181,-0.3080546026,-0.6867774508,0.0523808626,-0.1732834219,-0.1744775983,0.0791507379,-0.5278578411,0.0530450355,0.4644143415,0.6243780033,-0.3599339003,-0.2668730653,1.0111520722,-0.7296217352,1.0968041288,0.5113859985,0.9361879036,-0.4312976615,0.0648976031,0.9916525424,0.1073828351,-0.9575372511,-0.3739215506,-0.2575318241,0.0410234385,-0.4213304998,0.3427768358,0.2982342117,0.3537518754,9.6967776705,-0.8016992076,-0.7940218155,-0.8629814162,0.0995971242,0.8973412453,0.6208598393,-0.1002301311,0.2406601608,0.5419491207,-0.1710811202,-0.797715981,0.7364628046,0.4919471908,-0.777095785,0.1569867823,-0.8781744249,1.0087286958,-0.1173075865,0.5261997786,0.5588677795,0.2694150613,-0.9895819467,-0.7388665492,0.2832472183,0.9358895222,-0.2734070348,0.8821331496,-0.7937992463,0.6324275336,-0.8590200591,-0.2495207115,0.1876789769,1.0860154653,0.2741013335,0.6214097141,0.2977339893,0.5133353379,-0.2673169213,0.6070542582,0.8117380183,-0.0132032627,0.0008126723,0.1285285481,1.1206958376,-0.2445851114,-0.7657084639,0.2031247332,-0.2447255153,-0.2326292188,0.29389681,0.7782160961,-0.8460926761,0.7600483149,-0.4763595506,0.2055324791,-0.2174823316,0.508421309,-0.6451231046,-0.7691323111,0.869871174,0.2375794861,2.9207411387,-0.5613763847,0.4900414159,0.6962944124,-0.7855886765,0.8417850728,-0.2585534266,0.5524344444,0.3220413871,-0.3173123621,0.23887877,0.5306843374,-0.4875148023,-0.1988599407,-0.7044757476,0.3146217653,0.4572221138,-0.8612046385,-0.9506565298,-0.0190345146,0.616393154,0.3922347635,0.873624538,0.5445948725,-0.3487963307,-0.009025204,0.4117769656,-0.4064938872,-4.2339543987,0.8961903935,0.6828363601,-0.6179547973,-0.7905581997,-0.2380308897,-0.5237335024,0.2766037731,0.2235477566,0.2016325453,-0.7292510437,-0.5459209578,-0.0695120964,0.0540596349,-0.4869774902,-0.8402038881,0.840971572,-0.9015909881,0.7995246928,-0.0269436878,-0.8596272653,0.7119153772,-0.2049621219,0.4383379909,-0.1528319697,-0.7511115884,0.1241324219,-0.8822286092,-0.4516888767,0.6010919404,0.0096684113,-0.6871361489,0.2339032475,-0.2619341366,-0.1929341919,0.6613320858,-0.150054506,0.8779487774,-0.25076339,0.1347289838,-1.0435128818,2.7659714303,0.0619500986,0.3388984781,-0.2703101479,0.1242231169,0.7986343628,0.1205094433,-0.9067266532,0.4033569849,-0.2687426228,-0.0479256315,-0.9340197364,-0.5885226218,0.0769707148,-0.4197468638,0.0739100362,0.9157344269,0.7044325247,0.0742561866,0.1106682456,-0.2450830431,-0.8291062785,-0.9343512602,0.9220274118,0.9142588555,0.9281361073,-0.4456576174,-0.177554709,-0.1725034445,-0.3577533433,-0.1110085757,-0.8289207379,-0.2756756692,0.154310653,-0.0691526038,-0.0586301867,-0.0244060729,-0.2384420807,0.3388267688,0.1076843297,-0.8348365944,-0.9201742407,0.6159512143,0.0337403978,-0.9734277569,0.66937855,0.6833853825,-0.8138890924,-0.1626239289,-0.2682580032,-0.1984407805,-0.1066548641,0.3842371534,-0.0503940025,-1.195103941,0.2768780635,-0.0716882552,-1.1307236041,-1.2374400365,0.5002302644,-1.0432888993,0.7039912204,-0.3093845041,-0.664467772,-0.3132741602,0.5596806314,-0.4674048713,-1.2627199927,-1.2844622574,-0.6523066493,-0.2988632966,0.0550346392,-1.0239582543,0.2783166833,-0.3885535951,0.0920556586,0.1941209836,-0.2895092967,-0.5921526513,-0.7472835665,-0.3221679591,-0.2896931916,-0.8732081028,-1.1111011462,-0.8441879374,0.4422765455,-0.2195247273,0.3207356971,-0.8167489604,0.5727306634,-14.4886227717,0.4081067513,0.7362698823,0.8611681257,-0.860824342,0.3188448691,-0.8091864932,-0.0316420711,-1.0372968227,1.3373158337,0.0835679423,-0.5413066213,-0.8023662142,-0.9248138528,0.7574878764,-0.3379882849,-0.463707517,0.3168308757,-0.1216916189,-1.0241560398,0.8552261412,-1.0639416954,-0.5507876623,-0.9512197241,-0.2538617687,-0.950197069,0.4443165391,0.588446194,0.4784283261,-0.6271952312,-0.1960822496,-0.116146878,-0.9755753589,-0.0543877428,0.3195504325,-0.5809341579,-0.5449323336,0.7682408627,-0.9162722597,0.0896393916,0.3687191127,-4.738414733,-0.613067015,-0.1869459811,-0.3481179746,-0.6036868491,-0.2014300072,0.5318988228,0.2682598219,-0.2019309364,-0.7267584983,-0.2754352304,0.3945729705,0.7724287481,0.0813688165,0.7922660621,-0.1085978537,-1.0016289764,-0.8304053002,0.7239003741,-1.2684517601,0.710567263,-0.5284394312,-0.8615410099,-0.294271815,-0.558631332,-0.4129809082,0.4326680694,-0.5084455494,0.5934298906,0.8112301426,0.9058402749,0.143226265,0.4973619516,-0.7876039666,0.4111431146,0.6791485701,0.4786661727,0.6410995336,0.0179842184,-0.491959262,0.3568148125,0.7700930268,-0.5314001383,0.8282458681,0.1802292382,-0.8702905311,-0.0583403986,-0.0567315774,1.0221233806,-0.0311372289,-0.3022623263,0.7920501782,0.1404450191,0.9138773266,-0.3891459132,0.8052057511,1.0010092398,-0.7893473311,-0.3212023975,0.724742661,0.7459937132,0.0102476753,-0.7364812136,0.2597535884,-0.6521741344,-0.9253010173,-0.3216335538,-0.3327302216,0.4011832513,0.9291773383,0.4702531149,0.595206445,0.51159347,-0.8165405993,0.4479440888,-0.5041400674,1.0538471244,-0.6923767161,0.4024571536,0.3544438368,-0.4667816371,0.9383463296,0.0211841779,0.1498992098,0.3062014617,-0.5242519139,-0.2200950966,0.9454410052,-0.7406319267,0.6351728559,3.1566119741,-0.3268286466,0.1954396672,0.4327192211,0.5942362283,-0.5178115483,0.9164720304,-0.6928845311,-0.4415708243,0.7757416506,0.9169697479,0.1850272869,-0.2440826941,0.4110047944,-0.5649566132,-0.1916359238,-0.6639740109,0.2000594063,0.8513791511,0.6811902863,-0.5412983824,-0.728448143,0.1941688181,0.6408789378,0.8368875078,0.1815553224,0.1396117551,0.1279452405,0.3842849125,0.8699803603,0.1180758862,0.6508526961,0.4967064287,0.1474848802,-0.2243538479,-0.4245444957,-0.0947635716,0.9039289455,0.3572268672,-0.3098579365,0.3414683849,-2.1738919199,0.5201716593,-0.0516657605,-0.6818576482,-0.1924766734,0.8456149965,0.6217201448,-0.3802994657,-0.6423000817,-0.0019899497,-0.0292194757,-0.9510928717,0.2604264957,-0.502404084,0.4908646368,0.788965056,-0.3733647778,-0.7418406879,-0.5655659343,0.7243097487,-0.4033843727,0.6014101942,-0.3662910819,0.1057128084,0.5033676346,-0.198827785,0.2601047747,0.059013879,0.8527930989,-0.1944583871,-0.2312001393,-0.1137668868,0.780128783,-0.5560492704,-0.0653473851,-0.130333292,0.408836835,-1.1032540654,0.7324134815,-0.2911403907,0.335306677,-0.265881576,0.7868924385,-0.3187500459,-0.7920449303,-1.0010581323,-0.7489832389,0.088048603,0.3784530606,0.3031973835,-0.0029000611,-0.015575901,-0.4007948418,-0.5937467405,-0.0729410417,-0.8996507244,0.7213711554,0.7324587541,0.255805379,-0.4029002621,0.9277998981,0.6119017091,7.1428317224,-0.1797672921,-0.1688457819,-0.2107784197,-0.2942633011,-0.2871514259,-0.4867404955,-0.6258362323,1.6790868748,-0.358784887,-0.078761618,-0.8538308304,-0.2290778292,0.1068482549,-1.0072284472,0.2349930664,0.3922494085,0.2799326378,-0.3431912985,-0.7079519768,0.6678882324,0.2013555825,-0.39425511,-0.7418361,-0.1346767244,0.8852083191,0.7069554204,0.8493852358,-4.4140120964,-0.2869245177,0.2150704545,0.2223103531,-0.9225701039,-0.4684752799,0.4101959469,0.4701850453,0.6802354695,-0.2690358623,0.5905775196,-0.3764795002,0.1136618623,-0.2544741595,-0.7440853384,-0.319270801,0.5254395396,-0.0047433285,-0.6325927955,0.4793988723,0.7326307026,0.0732058625,0.7858683909,0.9840752248,0.8904675592,-0.6660928476,0.9229269362,0.0697415572,0.2194156584,0.5266598507,-0.2889266884,0.304458718,-0.9369891004,0.7087501644,0.9731460533,-0.1177129377,-0.8058340351,0.8891101541,0.7698591252,0.7267854686,-0.577040066,3.7523469784,0.0769478406,0.5859401127,0.6963462707,0.5296158777,0.1031929602,0.1971718497,-1.2656704085,0.1612208786,0.7930051378,0.1799546498,0.0031565052,0.0038256776,0.5854414293,0.098411163,-0.3116343183,0.8459097392,0.4828737271,0.5302384603,0.0771484952,-0.0610448625,-0.9517503479,-0.546576706,0.089976979,0.1550033831,0.8413190866,0.4005916875,0.2428747744,-0.6041048974,0.0312988499,0.9388369212,-0.7673196463,1.2936597253,0.1965818429,-0.7934859455,0.9095595249,-0.8308624274,-0.0266660687,0.9016052042,0.2393819115,0.3834153787,-0.6793094269,-0.6798855322,0.6443454879,0.8055324803,-0.296189983,-0.5073561961,0.6991573113,0.9263966202,-0.8545586497,0.5555988329,0.5935893732,0.2773181655,0.8724704139,0.1995247361,0.2036022516,0.088260807,0.4397255994,-0.3741175824,0.0668521259,-0.4931991107,0.2858538388,-4.8584457794,0.2337167233,0.0864482329,-0.3983363627,-0.6712090887,-0.6274615258,0.4749123683,-0.6033354175,-0.5189423925,0.6045342981,-0.6298294765,-0.8778540195,0.6088821195,-0.6458832952,-0.4620909832,-0.7349589829,-0.5217479932,1.2549754131,-0.8090654129,0.696250607,0.3333900051,-0.3406312557,0.7003702624,0.5615311123,0.77690844,-0.3297067323,0.3063743799,0.2597209255,3.1216980784,-0.4600334377,0.5975201883,0.5775669039,-0.0118332821,-0.5411555058,0.4067822155,0.2809521318,-0.2308253281,0.2474867993,0.5434141348,-0.0987166866,0.720440787,-0.3995193028,-0.1377622208,-0.260500384,0.8239047087,0.1412320702,0.7829442366,-0.7762708051,0.3655263523,-0.0911272967,-0.0250724745,0.3774573265,0.4932120199,1.0727602576,0.5259571128,0.3978952958,-0.8143975017,0.8477565868,0.5230956747,0.0049863262,-0.8948710115,0.5399953283,0.2848956089,0.901288747,0.0071072276,0.0184874975,-0.05264644,-0.4416276888,0.6591313018,-23.7129519264,0.3290708437,0.5165996491,-0.8869717506,0.9924104008,-0.3548021639,-0.3041631405,0.8070077656,0.8158495048,-0.0938814602,-0.9052922635,-0.3545756104,-0.2418944744,0.8291834176,0.3918812774,0.2160340083,0.0357004333,0.7107460706,0.1184468318,0.4507992139,0.0312510019,0.6782373475,0.0653986157,-0.5228679356,0.4035839352,-0.4955525691,-0.6582500138,-0.2774279799,0.1896291652,0.5014849031,0.7899063109,-0.0639587848,0.1269512395,0.3801173468,0.7586292624,-0.0571898813,0.6601861661,0.1708691933,0.1522177423,0.1830998422,0.1446014719,-0.1402802729,-0.8531933496,-0.1268249382,-0.9498227429,-0.5497967509,0.8134604384,-0.6622843491,-0.1831311276,0.2316049138,0.2428922763,-0.5769485832,-0.7467952332,0.1493655028,0.2729578844,0.4291538743,0.4661269089,0.467319766,-0.4680588238,0.7606692986,-0.5020408589,0.9960732513,7.2195797058,-0.2775368465,-0.818253265,-0.8757061934,-0.6761064755,0.7481815799,-0.0385511052,-0.633494498,0.0962735634,1.601915867,-0.3867869972,0.5643182845,0.6879286415,-0.9433799096,-0.3282307523,0.7580452715,0.7816472741,1.6999065378,0.5347999104,-0.9307792043,0.3451356959,-0.2275580139,-0.1902496297,0.4142422422,0.4237510262,-0.5591796003,-0.2551439375,-0.1020412709,-324.5334688487,0.1571516679,-0.827536168,0.7779126686,0.4818866281,0.7083189164,0.4121865281,0.924294441,0.3967018095,-0.9783561853,0.2633223917,0.8435733758,-0.2525957842,0.7929243048,0.1028409393,-0.1841315692,0.7845484956,0.3625354456,-0.6455505615,0.6876334412,0.9998246899,-0.9387332191,-0.2874160841,-0.1095027664,-0.3676385455,-0.8884208675,0.9547559911,0.5597389327,-0.6229646397,0.1814623475,0.7001706908,0.2807672572,0.6362125096,0.2170336823,0.872160202,0.2243044975,-0.8104161312,-0.6279127629,-0.318587625,-0.9535521612,-0.811833533,0.2955736434,8.9598009422,0.2720567464,-0.6184709445,0.6000612347,-0.6544714422,0.2169590827,-0.9958091398,-0.8640631433,-0.8528380871,0.4545057898,0.8890732476,0.3222328986,0.5066102698,-0.8860423469,0.7210859667,-0.3874329068,-1.0400095463,0.8572715711,0.3345425195,-0.89369152,-0.6045483233,-0.2109191786,0.592519934,0.6931438128,-1.0511175826,-0.0473753519,0.2468853868,-0.6771541644,0.8983332965,-0.2993098532,0.4208147807,0.0303121558,-0.1976584978,-0.9263948302,0.0323255842,-0.708583377,-0.1239832133,-0.7835458952,-0.9529585556,-0.0249610956,-0.9137928062,-0.4061679909,-0.4429955399,0.6976792673,0.6523567513,0.1171547557,0.2639117362,-0.8130273241,0.5743017625,0.1939182653,-0.0218272222,-0.6900816305,0.7506194469,0.6462505073,0.2851876227,-0.0388010181,-0.1351690935,0.2840807796,0.1390953545,0.7534967347,-0.9346425754,-0.3601044117,0.8170172635,-0.200986479,-0.3402061085,-0.3932961026,0.9168718968,-0.6922422758,-0.9115813389,-0.5521677934,-0.0414613042,0.2972365608,-0.4682819292,-0.0204506759,-0.7347849301,-0.7262628796,0.357945934,0.4548192045,0.618986161,0.9913806233,-0.7915903317,0.6752570624,0.122036926,-0.174339405,0.7597670221,-0.9544139105,-0.5880036417,0.2349440903,-0.5954634946,3.2250987911,0.8463041789,0.9604056019,-0.7908261859,-0.7799345285,-0.2889947042,0.9852252433,-0.3345804685,0.371305622,-0.3676852232,-0.015384234,-0.7360751115,0.5843360173,0.3681477132,0.5220000473,-0.6220647189,-0.7031591886,-0.7076355715,0.5988988057,0.1026663134,-0.7320237329,0.2058109403,-0.7312897919,0.9979339969,0.0742299668,-0.8385223054,-0.8185009031,0.4467088735,-0.839307683,0.8186499495,-0.7597154315,-0.3477054867,0.2939493499,-0.1869496387,0.227056431,0.7785969007,0.6325176474,0.5185289374,-0.1363232481,0.7351932528,0.6790449415,-7.5620889506,0.5516555101,-0.155456085,-0.5741056077,-0.2220175847,0.8537977903,0.5162321806,-0.412558644,0.3933484801,-0.5684548764,0.9425070121,-0.6031435083,-0.4140632977,0.1173742608,-0.4829202303,0.0172261674,0.1675919361,0.1534127541,-0.9531137315,-0.0469429755,-0.0945448679,-0.4232500527,0.6404225729,-0.6731194802,-0.7748406838,1.1721049933,-0.5636756247,0.0084033525,0.5253174296,-0.8942894451,0.4982362724,0.1573004686,-4.1612418215,-0.4691341361,0.9483837745,0.7704774015,0.3282390554,-0.8629173142,-0.9329964174,-0.9403922267,0.1518470111,0.3021574263,0.4003438856,0.4508380107,-11.8751801082,0.1686759173,0.4321943093,0.1417429026,0.7248053707,-0.9090256509,-0.8866335529,0.1811102015,-0.4729057634,-0.6911387894,0.209030744,0.9367263068,-0.9580695774,0.3869203889,0.5882871316,0.5254986425,-0.0201657068,0.8763245327,0.163749453,-0.5099256036,0.2035803651,-0.8558191932,-0.7632522029,0.2060905748,0.7986959727,0.7008307503,-0.778798915,-0.0276036437,0.1375801946,-0.489051815,0.0491983124,-0.2682599141,-0.4953973201,-0.6631677285,-0.3153588119,-1.5773142105,0.4013660129,0.4425133769,0.4734092945,0.7474487111,-0.823525303,-0.8167304793,0.6035460943,-0.407806162,0.7050561372,0.0243860119,-8.8303989964,-0.6681247843,0.5733710208,0.3917194275,0.1740045354,0.6130237475,-0.6929785627,-0.3903301209,-0.1234778377,0.273593038,0.6195853273,0.7095164072,-0.0783765204,-0.9975733123,-0.3036090548,-0.105971632,0.3714984862,-0.0854058238,-0.9739121404,0.2332710676,-0.2023106121,0.3735802952,0.6238597115,-0.6396591338,-0.9224089674,-0.340845745,0.0387791062,-0.5207975092,0.7458731482,0.6479520864,0.0325231082,0.767523934,-0.9638021457,0.638965813,-0.4215773527,-0.351317583,0.8176828223,0.8031566949,-0.1494097966,-0.9346760345,0.3863604132,-2.7797143439,0.1737209367,0.5512182493,-0.9892150367,-0.2780573767,-0.959144292,0.9783690427,-2.2061133159,-0.8553643473,0.3372826916,0.5368954382,0.3577993193,-0.1481699247,0.1867000376,0.4056248829,-0.3369568141,0.0148176558,-0.455220413,-0.8816291621,0.8199246559,-0.2982310611,-0.6089363969,-0.3072094286,-0.7686376211,0.3281274642,-0.9521175608,0.5434495778,-0.4227277736,0.5387777782,-0.1554470503,-0.651608092,-0.7064208621,-0.9048133008,0.647086954,-0.0207663091,0.0932804506,-0.2285992379,0.9538577838,0.6157720386,0.5241398874,0.8353548181,-0.9093429877,0.9631563611,-0.8773646238,-0.0726070659,0.9978005032,-0.0192415304,-0.6148447007,-0.2406798188,0.3863219376,0.2030819665,-0.9976158338,-0.9446218785,-0.2847053903,-0.6758592794,0.6033816062,-0.4772137416,-0.4892677371,0.8058279562,0.1916971725,0.2065893741,0.9926808673,-4.0928448645,-0.1468686331
   -0.9109020113,-0.2595233664,0.6755627907,0.196234259,-0.4479838628,-0.8266913402,-0.3528257472,-0.0744803671,0.200229495,0.5631863048,0.7387805305,-0.2351129853,0.741995624,-0.1849512736,0.6103318803,0.7294438289,-0.8567957,-0.7169605887,0.090893186,0.5641521039,-0.1998990556,-0.2723736985,-0.0993286721,-0.8714789115,-0.8114062439,-0.7280437947,37.2587934963,-0.2538516244,-0.4670662713,0.778788393,0.8990817089,-0.2236067684,-0.1272566188,-0.6298611999,0.6783579152,2.8075625191,-0.1364005941,0.5901709516,0.0446336413,0.3358861686,0.6275975431,0.1124748924,-0.9058054344,0.7899368386,0.4215379575,0.770173632,0.966674115,-0.8043833353,-0.5679040049,0.9366395738,0.8224433665,0.474024369,0.4653482309,-0.8731288261,0.7983587521,-0.1076457668,0.1189771413,-0.4247204512,-0.5305294575,0.4355175269,-0.1100541321,0.4250462877,0.4235035696,0.9304985703,-0.5868646232,0.6479644758,-0.933546203,-4.116218703,0.31690121,0.3504372712,-0.3106867081,-0.524361044,-0.3945015418,-0.9585150948,-0.1549151341,0.7294631763,-0.5985924612,0.1485410149,-0.6406865576,-0.9226902738,-0.4842405524,-0.6843430726,-0.5747972906,-0.669855984,-0.9410464286,0.5722172897,0.9223975117,0.324545298,-0.235775217,-0.8187083227,-0.1890750224,-0.2926630703,0.912103553,0.2247470438,0.1359188371,-0.0242485907,0.1653640094,-0.7884989444,-0.6428115201,1.5905106784,-0.3079208368,-0.3385716877,-0.9627325742,-0.11004264,0.478187146,-0.35944567,-0.6498097509,-0.4112335287,-0.4763560265,-0.2878522685,-0.7065297696,-0.0801792581,0.3363084969,0.349152699,-0.2448380745,-0.6931760849,0.9261081763,0.8704360617,0.1997059279,-0.4391040059,0.2102621042,-0.3967889036,0.2975520087,0.4778201925,0.4931591373,0.5972601055,-0.0627993022,0.7682418896,0.2306996678,0.9544844097,-0.1678979766,-0.1562136271,-0.4691336585,-0.9963471071,-0.8578464158,0.8306172549,0.4205099007,-0.1781737372,-0.4749978266,0.7620069083,-0.3517629896,-0.2856641056,0.9067093475,-0.4201340649,0.7054887881,0.1887996956,-0.8104447825,-0.3392942602,0.0557279906,-0.2132069448,0.3947067856,0.0990617098,0.6304616821,-0.4602258383,-0.090477293,-0.1982105164,-0.8665185021,-8.9952312539,-0.7833518889,-0.3072189495,-0.9818245751,-0.2616489098,-0.2621416224,-0.5312071812,-0.5865159989,-0.2353206483,-0.9503774928,-0.5747633984,0.9660914329,0.5191184161,0.3806469468,-0.4550985764,-0.4476967303,0.895889588,0.7641849798,-0.4238955908,0.6830032134,-0.575895165,0.6354551055,0.9218518705,0.6173226226,0.1849641242,-0.8958642544,-0.5545462443,-0.8405480034,0.1454789228,0.0650549534,-0.1943407198,0.2815697969,0.4052934538,-0.5779473711,-0.7032187629,0.1939404231,0.2918504268,0.0568371317,0.085594009,0.8064042252,-0.8307157502,-4.5281233505,1.2900885471,-0.9628323189,-0.2133924955,0.1020857982,0.1572083354,-1.076281333,-2.1245263403,-0.6329810188,0.2530078614,0.8811889603,0.1741278963,0.4071346457,0.0189028951,-0.4123099632,-0.4848197271,0.2430307069,0.8466895379,-0.7657579447,-0.2169915995,-0.5294467424,0.3741078965,-0.0515912456,-0.1604330955,-1.0180311863,-0.5418052342,-0.3690797097,0.1286109612,-0.6346976934,-0.4323714859,-0.8069913012,0.3172269693,-0.5245475722,-2.5128987394,0.4354102973,-0.7741096983,-0.1047445682,0.364587594,-0.7497608001,-0.83886151,0.0404722363,-0.2887377666,0.2177046755,-1.2823652693,-0.3131195642,-0.9262451706,0.238758551,0.1479850778,-0.0484335979,-0.3682295704,-0.9770497888,-0.2449947568,0.3595377946,-0.3609289851,0.6198056778,0.3913908995,0.5864647183,0.5892188127,0.2860586664,-0.1498451183,-0.6188573161,0.0912179096,-1.2218190371,-0.7456728082,-0.0739935761,-0.1629651812,-1.0378652111,0.8140999871,-0.1050550661,-0.2869578394,-3.424859821,-0.5421358021,0.4125783251,-0.9787972771,-0.6206548617,0.6249985541,0.5548598812,0.2693295404,-1.2219201989,1.7509804523,0.4488487811,-0.8375794318,0.3101380229,-0.0876032231,-0.7304623074,-0.5900126563,0.3643009791,-0.8145609972,-0.4171749167,-0.3994858472,-7.6909192505,-0.2867338438,0.023071809,-0.872524587,-0.7463262635,0.1192726658,-0.479867958,-0.4639152081,-1.0374046769,-1.4403908901,0.6329053563,-0.8531777038,0.2011050613,0.6681271859,0.6691984589,-0.808479922,-0.458604179,0.2911179955,0.7056644125,-0.0911777963,0.1975269913,2.2069444865,-0.3872803763,0.1462429583,0.6636992019,-0.674816802,-0.8738366165,-0.5202941606,0.8061196947,-1.0739172454,-1.0068836523,-0.8089159817,-1.1240679842,0.7883310754,-0.6348153456,-1.0912755263,-0.0220764418,-0.7439371412,-0.7855925096,-1.3429577596,0.6954883287,-28.2500726176,-2.2070841812,-0.5675352161,-0.391494073,0.0048361599,-0.8341538079,-0.9887498117,-1.1359527201,0.5179807281,0.5326862381,-0.7813855413,-0.7590636433,-1.1956738827,0.4517833974,-1.5771637668,-0.2180572996,-0.1747032822,0.1752825247,-0.9108762984,-0.2983700027,0.7793860968,-0.6199048971,0.0350053461,-0.6360045725,-0.1937752014,-0.1856548215,0.5287542603,0.7256907821,0.455417464,-0.9947421499,-0.9435686844,-0.4032920158,0.6079205991,-1.0389497892,0.4414587908,-0.2400909136,1.0671571818,0.6471594524,0.027978277,-0.7884373585,1.4776364074,0.273788936,0.3133621235,0.5025738308,1.879690845,-0.6543143954,0.776101376,-0.4393553685,0.3566610353,-0.230623908,-0.5854902577,-0.9436131184,-0.7542877663,0.0619406079,-0.275203571,-0.8327034684,-0.4901513259,-0.7624966799,0.8307826198,-2.0110453593,0.0493016394,0.8561622227,2.9785914836,0.625525251,0.5675395564,-0.5209255767,-0.9784987581,-0.3168489125,-0.7947499873,-0.6731788967,0.2089236584,0.1844782938,-0.8388823941,-0.9309230185,0.4436286033,-0.1599859181,0.0759463424,-0.9879612211,-0.8315392098,-0.4253941657,0.8539760575,0.0571061727,0.2070310249,-0.3302017881,0.1348647337,-0.6298586244,0.8849214211,-0.2775800635,-0.648040029,0.1516006253,158.2242338873,-0.2147455963,-0.3755299592,0.2710073479,-0.4560238734,-0.728425455,-0.6278149402,0.5777782448,-0.0335125458,0.6704942054,-0.0621118828,-0.0855941562,0.2391364058,0.1513147048,-0.768040812,0.5353261093,-0.4658627639,-0.7015889798,-0.3231224121,0.4071446391,0.7277982282,1.0873356708,-0.3972989587,0.5115368335,0.9000489339,-0.6481538293,-0.4711799896,0.0325294911,0.801066648,-0.7065488115,-0.1627737029,1.0253272811,0.701479822,-1.9955555684,0.6883308091,0.1524125227,-0.6596919484,0.5194336929,-0.4681701477,-0.1618595534,0.6407326804,31.3693348665,-0.5158121238,-0.3929491346,-0.587338633,-0.0224328163,0.6043725403,0.7685582342,3.2136480601,0.775878365,0.2818046339,0.0089764344,0.8220082142,0.9647613504,-0.5277950994,0.7296415633,0.0617888473,-0.0417134886,-1.0417364996,-0.4659984129,-0.5405389543,-1.0148615619,0.384656005,-0.4887142977,0.7182274785,-0.4425950122,0.1296346491,-0.3802362372,-0.1008947813,0.0705300069,0.1055169652,0.7961410531,0.5181078824,-2.8287517403,0.199665837,0.9854598925,-0.0135309695,-0.7295751165,-0.6391817898,-0.7254391009,0.7253542639,-0.893043347,-0.5553206241,-0.797341915,0.8022549049,0.4862619983,0.6989862689,-0.0804057365,-0.0234058201,0.4043255778,0.5043012874,0.1650246944,-0.4048990829,0.5054355239,-0.4026197486,0.5300726272,-0.1849063803,-0.1816357684,-0.9873131489,-0.6732097102,-0.3055627355,-0.2015148107,-0.4713932263,0.2100866831,-0.0273698208,0.4882765301,0.9239316632,0.120032972,0.315343121,0.9163228337,-0.8644696927,0.2595942891,0.1761146404,-0.0322732234,0.8352527226,0.5838560677,0.8800526764,0.6910755671,-0.0874880847,-0.809228157,-0.1927714966,1.0456937634,1.1044038495,0.4937913101,0.1094367737,0.0614491627,-0.0620979862,-0.961679534,-0.6329885987,0.7551588104,0.274498466,4.0001485107,0.5682226479,0.4805788247,-0.9831251947,0.4193700577,-0.3393837126,0.6061322632,-0.7560417165,0.8211699571,-0.3764596537,0.3852647593,0.0782020148,0.1975729369,-0.3950324234,-0.8814077261,0.1472859214,-0.361655677,0.6392830734,-0.7415441259,-0.5148265558,0.4811431742,0.6022217651,-0.1430055728,0.5388348084,0.1141641435,-0.2702233922,-0.2119419185,-0.9402833695,-0.1604948388,-0.9389365191,0.7973066624,-0.4490964458,-0.3699536967,-0.4858014877,-0.7695957963,-0.7042739354,0.4678021906,0.3765451746,-0.7396850893,-0.8177521956,-0.126380247,-7.7748643314,-0.7850246536,0.0572661438,-0.3887370394,-0.3631884931,-0.2895600181,0.930917081,-0.0496673445,0.9904939141,0.1885192547,0.9663643253,0.7979343592,-0.1988081145,-0.755939694,-0.4116795934,0.3369333568,-0.6113145489,0.2930221691,0.6040974555,-0.2345072358,-0.1588586196,0.0592320855,0.5418363566,-0.6783203664,0.5597614329,0.5303383968,0.7965758912,0.5926562314,-0.6944159804,-0.3545801163,0.9848672792,-0.488980711,-0.5616388338,0.1494901245,-0.8389161947,-0.095226134,1.0058750967,0.9001585885,-0.8799990757,0.2288874997,-0.9913015438,0.3945559,-0.1759391104,0.2054566017,0.230339446,0.0669333978,0.4355961366,0.0192470193,0.1983576819,0.8518196878,-0.309989473,-0.8811319321,-0.9851511627,0.777715325,0.8119842788,0.0032523265,-0.4029685625,0.4395518861,-0.9068871407,-0.0992101017,-0.4882406113,-0.5415029638,0.5063682289,0.3396293981,-0.7429338424,-0.780254587,0.1535477788,0.003742169,-0.4227317428,-0.2390834079,-0.5560923331,-0.2337978872,0.7568933897,0.5699647094,0.2499900536,-0.6167427655,0.0228279334,0.2660923392,-0.7284530752,-1.9681027932,-0.665952842,-0.5200935216,-0.5440768841,0.4526040505,0.9641855563,-0.7251940158,-0.5072116234,0.992372025,-0.5168740367,0.9238082234,18.0915859942,-0.6133711576,-0.1909760742,-0.0301577383,0.5885504302,0.2446959288,-0.1813414568,-0.7632691259,0.1926862241,0.3736840385,0.9888584015,-0.0063965368,0.1969141364,0.6698039098,-0.9120948445,0.8102646599,-0.2504603231,1.0390976544,-0.8989690397,0.682086779,0.7615341953,-0.576975721,-0.6675642806,-0.3112147839,-0.8160672418,-0.1827453057,0.6535504348,-0.5413478815,-0.3498421116,-0.4616030391,-0.8284328617,0.3027986646,0.4665470492,-0.0465909665,0.2180136369,0.1739674644,0.1693665583,-0.5072921588,-0.4830248214,-0.9526287506,-0.538584172,3.9595901816,-0.934975164,-0.3424394667,0.0494300262,0.5234560319,0.4747332363,-0.302283481,0.1921411326,-0.4485772792,-0.907974916,-0.4115721499,0.4782733656,-0.4839369093,-0.1049409736,0.9821132706,-0.435949433,-0.9538188339,-0.7659140973,0.8955800232,-0.5447478916,-1.3794676186,0.1979093929,0.2413563251,0.9624848425,0.1357173905,-1.2134047111,-0.9138528979,0.4411982363,-0.6116666096,0.7363944453,-0.1587019777,-0.3562409101,-0.5635958874,0.9455787151,0.4016079914,-0.3321094016,-0.3725080546,0.4008880105,0.3558338065,-0.147564511,0.0352378644,0.1462613489,0.7490634795,0.5088004189,0.2771172021,0.5653088755,-0.612445445,-0.0045723977,-0.5275423318,0.1571082442,-0.2274522108,0.4054991608,-0.2784929904,-0.9660580993,-0.8067446936,0.3446754074,0.1509552316,0.5151061194,0.5049280327,-1.0531950458,-0.2023115537,0.4270477932,1.9348818617,0.4776288772,0.2091893878,0.082753027,-1.0797625086,-0.6524376997,-1.3643194637,0.4516946,0.4388172522,-1.2904004911,0.4741918544,0.4619066933,-0.425048011,-0.4251572012,0.2025885735,-0.6918028012,0.6243202124,-0.139168349,-0.5010617626,0.4786052995,-1.0958390709,-1.4035023081,-0.3514994384,-0.0766931415,-0.6572547158,-0.2731996315,-0.5896746497,0.6626137382,-11.8205981564,0.3084387951,-0.294993664,-1.0213041732,0.2253353164,-0.8079108657,-0.8613048669,-0.547903823,-0.4691076602,0.8892805583,-0.7695326185,0.1708166986,0.1460885161,0.1078989523,-0.4037590297,-0.6788938202,-0.9372137457,0.4665742248,0.2157015496,-0.9491462023,0.5301613929,0.2274731195,-0.955131612,-0.2573818925,0.391304166,-1.3792041635,-0.263506974,-0.9754387819,-0.4939426636,0.3652188247,-0.3369708088,0.3288944306,-0.6316886895,-0.4656402142,0.3958173347,0.138963819,0.277823906,0.447181222,0.0693291397,0.7132239684,-1.0674493412,1.6657497626,0.4890697878,-0.7517698673,0.3968067649,-0.4267749106,0.436638627,-0.54845594,-1.3106974229,-0.2083719342,-0.6899375974,0.8557963125,0.6997070715,0.5660918393,-0.1257605254,-0.3287804364,-0.336715172,-0.1106963604,-0.9958470774,-0.8313333772,-0.0811102403,0.1999097932,0.6624900299,-0.3386195788,0.8296952911,-0.6871487301,0.107901847,-0.7106656273,0.1812523485,-0.3216327411,0.3381540275,-0.5039725171,-0.424392969,0.3990277602,-0.2626983979,0.1512734291,0.1087094261,-0.5706217053,-1.2904202251,0.6571010406,-0.3675465906,0.1043478596,-0.2754915827,-0.6613074106,0.0766228987,-1.7083821785,-0.2733654884,0.8940979309,-0.979857499,0.4928836132,-0.4762881208,0.0122314296,0.0837983565,-0.4719266202,-0.8826493345,-0.6220175607,0.2269711516,-0.9996465998,0.6061002662,-0.3596102296,-0.3854598455,-0.6895958329,0.6821501301,0.2032545774,0.9517299297,0.2853075869,-0.3041540392,0.6196336488,-0.7588488587,-3.7606958896,-0.7289269805,-0.2485967469,0.6254558097,0.3703614268,0.4110292731,0.8388484121,-0.1045879661,0.6584559765,-0.3220784153,0.6241590855,-5.725854366,0.7728362034,0.4179253136,-0.3289293975,-0.075033103,0.932934588,0.9400015647,0.0820886546,-0.5796960766,0.4278029946,0.4224509795,28.1045103732,0.2757402578,-0.6668005024,-0.5101209049,0.115005563,-0.8625256948,-0.0119033768,0.6902445955,-0.0435161089,-0.946602041,0.0517752543,0.3379702221,0.2818809441,0.7572409746,0.9708090004,0.5725037529,0.8305954486,2.329056904,-0.3362289494,-0.4923882575,-0.9122717088,0.1410540917,0.6947140984,-0.3993649195,-0.834768912,0.8292670691,-1.5512096663,0.6312637089,-0.1263694286,0.6279974113,0.156393445,0.6703683818,0.2742324625,0.6183559375,0.2405022318,0.6190951994,0.1640540017,0.6166066859,-0.1001260274,-0.9241938935,0.1533501197,-26.8684791664,-0.4115884805,0.358301449,-0.6894774915,0.6596904953,-0.3793735816,0.1399125554,-2.0041287104,0.4683717145,0.6423229342,0.9394988411,-0.6591100027,-0.5505491519,0.5586801681,0.0870063633,-0.1618653858,-0.7197625784,-0.8760096971,-0.5122639445,-0.0015850424,0.5138480754,-0.9130192597,0.615893788,-0.4225201517,-0.4618705763,0.4978421271,-0.5921786682,0.1949810371,-0.247031414,-0.7020785983,-0.7177171339,-0.7922568485,-0.5392361344,-0.6140760778,-0.8484379324,0.4114418662,0.2747478629,1.1644738071,0.017801298,-0.0411628527,-0.4884407164,0.2937090365,-0.6582530519,0.9965767693,0.7047009518,0.2925861595,0.3399745462,-0.5743557074,0.6862333123,-0.5318269989,0.051958468,0.2707545927,-0.447667487,0.588359946,-0.9073216723,-0.0175355637,0.2477161472,-0.7008865598,-0.3223357504,0.8657040449,0.3084592733,0.200689229,1.3519248361,0.8642613154,-0.8441673054,-0.9679922824,0.0712821471,-0.2263326543,0.6005573554,-0.3393017478,-0.3255573559,-0.8450126425,-0.318921049,-0.8240106303,0.4976991379,-0.6869425199,-0.5179373261,-0.4643972443,-0.0500721413,0.1445055697,0.1047932692,-0.0958539053,0.2338180115,0.5275037505,-6.6745177917,-0.474832594,0.9854174425,0.1515500637,-0.1400619509,0.0763734615,-2.7159447886,0.7558826295,-0.4840407802,0.3777278149,-0.3493420055,0.974851046,0.1801124752,0.471552382,-0.8890977581,-0.3102815737,0.8458378048,-0.3221812973,-0.202284917,0.1140454947,-0.2467758895,0.0566550434,0.1809704516,-0.2103227205,-0.4565228231,0.5714807204,-0.4570051596,0.5683332838,0.1244138748,-0.4996661296,-0.544139561,1.0844639532,-0.1727502224,-0.841737428,-0.0738791831,-0.1001567351,-0.8933948404,-0.5020992679,0.4462967347,0.3706913795,0.098333041,-0.4513627319,-0.5191820515,0.9546616554,0.2954380023,0.3622216665,-0.7402929567,3.1593147326,0.1530631005,0.950483403,-0.4717517516,0.6288828941,-1.5155876135,0.5901567727,0.4507711602,0.1144068544,0.7904278206,0.2546910373,-0.1997696009,-0.608340886,-0.7272831161,0.2599917331,-0.8441199862,-0.1282154751,0.6872170428,0.3966845456,-0.7788185197,-1.0637251375,0.7910246599,0.2705254956,-0.4325673938,0.9238744044,0.580385964,-0.1596943711,0.5744875481,-0.7332566236,0.8823622055,0.5943783869,0.8030361165,0.0741837749,0.2420017156,-0.5377009773,-0.2666145208,0.0748010115,0.6114800247,0.6693638068,0.6887523482,0.9845797983,-0.0400603933,0.6809830956,0.7428125806,-0.256847774,0.2682236144,-0.8862270702,0.219290889,0.4913168855,0.047667332,0.126938071,0.6606043811,-0.082924428,-0.1757826883,0.5390017701,0.4931429815,-0.5820195953,0.6534642066,0.0815077421,0.2070114207,0.3421952627,-0.7797087936,0.9226606473,-0.1902567535,-0.2981290126,-0.5547010348,-0.5490924857,-0.5923024286,-0.8458630778,0.6570473976,-1.026706998,0.6901140508,-0.952454056,0.1600384095,0.2128192481,-0.060743463,-0.0377611531,0.3723475533,-0.6181788381,-3.7566971137,0.3394629358,0.4811902458,0.1599830411,-0.655261992,0.1403990446,-0.6848918433,-0.7655373226,-0.5320922402,0.1359480491,-0.1728241047,-1.6385658303,0.2091461315,-0.0026835739,-0.9433390833,-0.4156335164,0.4798169104,-0.0170403634,-0.0311754891,0.1365744658,0.1353120121,0.2894990158,-0.2245094825,-0.8486226624,-0.8947148877,-0.4223176378,0.5277407274,0.6972430497,0.1742134252,0.5623208764,0.2005448646,-1.0003473204,0.3108022104,-0.9816956411,-0.9651465712,-0.2152386956,0.6193499654,0.6562666696,0.510839423,0.4062713597,-0.1502230412,0.476318812,0.4287713638,-0.3214766116,-0.1021759702,-0.9591851085,-0.0596886725,-0.5571181851,0.1793491951,0.968881231,0.3293646607,0.7957163744,113.3196701,0.4580212042,-0.0494667754,0.4740157052,0.9133234424,-0.7782649626,-0.5238880348,1.5744026488,-0.0590206323,0.7707785439,0.0277896247,-0.6606070591,-0.9571567756,0.7959483154,-0.7065111814,0.2647682366,0.8157176311,0.6625477086,-0.8524771871,0.1397215613,0.0244051869,0.1657280719,0.8599988053,-0.2742387622,-0.0877108374,0.1054019675,0.430170823,-0.0355404624,-0.3897935418,0.0736687599,-0.5342435926,-0.6510885898,0.3154650885,-0.4698059682,-0.1459383735,0.0059457277,0.3597926942,0.5299531407,0.2064374228,0.0258516524,0.1621802693,0.8442317945,0.058465652,0.2292428146,-0.190368555,-0.4293938781,0.4337491415,-0.8876730613,0.2185326016,0.5295634032,0.6545147548,-0.24229848,-0.9760938702,0.773683745,0.8441715681,0.4769267048,-0.5123132982,0.9683615965,0.3873534085,0.3279094381,-0.07775404,-0.5156918564,-12.3390036919,0.266722148,-0.6649856551,0.1950642957,0.1611840759,-0.0057714335,-0.2429009092,-0.370809434,0.2642144836,0.9682043914,-0.3370480899,0.5472588918,1.0353297771,0.8853725074,-0.365695116,-0.0517488197,0.8255255155,-1.3125616405,0.2720278152,0.5502127418,0.6237644377,-0.3956320402,-0.5041940385,0.6399348194,0.2091787916,-0.9384723734,-0.6851883571,-0.500972463,10.6011670222,-0.1876790822,0.0397071045,0.9121188626,-0.4636765245,-0.889273397,-0.2019569218,-0.4536395257,-0.5198488469,0.1889998444,-0.4905767012,-0.2909151248,-0.8521117013,0.5923240418,-0.4533658736,0.4557252964,0.1105840192,-0.1458976714,0.2321481536,1.0245567454,0.3160347282,-0.2954428299,-0.7955352429,-0.608094784,0.0548426904,-0.4200676914,0.8485410335,-0.7418327174,0.5996605583,0.8786538752,0.9956915337,-0.2201352196,0.7820176237,0.8574450946,-0.561299992,-0.1602455067,0.4231351159,-0.6984710381,-0.0219526828,-0.5866649991,0.7616415663,3.0642638099,0.5197931717,-0.9543038927,-0.0689641187,-0.2710992775,0.5588040017,0.3380208544,-0.7151548831,0.19011461,0.7297027949,-0.5281160318,-0.4893155238,0.9554293564,-0.7735095963,0.4400347009,-0.6467776288,-0.8957802506,0.30154829,-0.8524227229,-0.9425964531,0.7778158897,-0.2359360386,-0.7578047378,-0.1554118284,1.0371205334,0.6376240527,-0.4599222072,0.0553771092,0.9988067276,0.6385085235,0.4539498945,-0.9437739175,0.9184631533,-0.1618544967,-0.4878595213,-0.3875336476,0.2615944364,1.0780852462,0.840482147,0.9607063331,0.4381313353,-0.5907534768,0.2704205912,0.7739690562,-0.6056661449,-0.2776247282,0.6080320041,0.4825487821,-0.0383504436,0.6235017928,0.442427428,-0.5497239049,-0.4741978925,0.2921802076,-0.6382244622,-0.4793818269,0.1589640166,-0.161398749,-0.5624866283,-0.2728764389,0.5999791028,-0.8214967103,-1.039580058,-0.5049340464,-0.3135339554,-0.8799655482,-0.8551730808,0.4537931382,-2.6439861188,-0.7584035567,-0.8820111121,0.4866521939,-0.6181243349,-0.25113523,-0.0154325869,0.8471199293,0.69670919,-0.5887658069,-0.8298031199,-1.1624253117,-0.0751375094,0.2909165645,-0.0697127595,-0.1687319936,0.8213675602,0.135129717,0.7244259622,-0.9028832624,0.1232419234,-0.6093396827,-3.4117551777,-0.2975720175,0.2612098889,-0.9787488293,0.3251877569,0.475878479,0.1027395987,-0.0936889244,-0.6707795557,-0.4331293332,-0.0889693265,-0.4240428365,-0.9058137063,-0.5413987001,-0.7766878461,0.7548432285,-0.9770011315,0.5343855987,0.4264029607,0.5805531111,-0.0077862519,0.9165232489,-0.0927778498,-0.3045017803,0.5585450653,0.7831357277,-0.588029025,0.6029148373,0.3413371418,0.1152591731,0.0573610359,0.6351705264,-0.7756244801,0.9535425622,-0.6192465672,-0.9984519919,0.7743904459,0.3599831248,-0.2668791227,1.1682832448,0.8655976658,-11.5745950798,-0.488880286,-0.7564102295,0.7241684094,-0.1871525993,0.1671101739,-0.9626334343,0.1354285837,-0.6048399334,-0.5536873877,-0.3537966456,-0.3628199917,-0.040887266,-0.4710933373,0.2559305687,-0.471888595,-0.7040106096,1.0129466949,0.3438611058,0.805074751,0.1531794483,0.323133832,-0.905980167,0.4191799054,-0.397944179,-0.3745838605,0.7978816781,0.2610960764,0.4844807234,0.7820361831,-0.6954024091,-0.6145867215,0.8227000773,-0.8078931842,-0.2308697133,0.6132124955,0.5083313675,0.1664459298,0.5744952753,-0.0759881699,0.1609676043,0.5589896621,-0.8507228793,0.7759170239,0.459726378,-0.6658725922,0.7686559407,0.3662784937,-0.7543166121,-0.7518339535,0.5435802961,0.4941822067,0.3636693545,-0.5017144206,0.9228075248,0.7383229632,-0.9574503938,-0.8678461478,-0.4822583465,-0.8275337368,-0.8309253623,0.4151469465,-4.0208301282,0.2014407695,-0.735300031,-0.3349964025,0.6441087704,0.5165193058,0.9269040204,0.5432433664,-0.6987915402,0.0273637125,0.0184257248,-0.2912231457,-0.1642439886,-0.6573533014,-0.7129315381,0.9047146936,-0.5448662949,1.8398963017,1.0101689549,0.3375556651,-0.3019813441,-0.2994806846,0.627753555,-0.9218805201,0.1189208317,0.0195079003,0.0953176027,-0.4495904102,4.1762632396,-0.3731556107,0.3121285552,-0.9677940881,-0.6905186256,-0.9722057867,-0.705715755,0.6007591067,-0.8548350107,-0.8090836861,0.9343472195,-0.0779481421,0.3028112681,0.0151470612,0.3003966496,-0.5435208656,-0.3520876493,0.5934598081,-0.5586401065,0.5554732653,0.5811035046,-0.0660893378,0.3341057753,-0.7044352962,-0.2233401491,0.2121296215,-0.6000401281,0.5665905399,-0.8303189437,-0.923221022,0.6242088792,-0.2067810141,-0.1913850763,-0.8266620126,0.7137520062,0.6674462833,-0.1985192898,-0.5628905557,0.2889965077,0.0401149126,0.7397339375,4.1521644528,-0.0937135087,-0.5009384286,-0.8787099666,-0.9308612112,0.070687777,-0.3502175848,1.4813222996,0.5625681765,-0.675921345,-0.290324139,-1.0798590763,-0.6200663163,-0.0699841906,-0.5790076799,-0.8738353377,0.7223996112,0.1752581699,-0.0337787702,-0.2345574896,0.3665598754,-0.0716767136,-0.6370404875,-0.949586827,0.0485533288,0.8095309156,-0.1555681097,-0.4056973807,-0.3718506602,-0.4777692064,-0.3474482708,0.7496860264,0.631071823,-0.8470714276,0.805719065,0.2595014236,-0.5616172228,-1.0279183261,0.8278598851,0.873519853,-0.0519286944,-0.4729334227,0.02139709,-0.7777983549,-0.5149749617,-0.8194350452,0.9403318163,-0.0357013393,-0.7326701435,0.9482639445,-0.1820063374,-0.6023100749,0.461955076,0.54329766,-0.1157040116,0.8354942139,0.0943173386,-0.9213965613,-0.674042966,0.4855971271,0.0925473541,-0.321468698,0.7867778603,-0.1864780941,-0.1920198055,0.7985808758,-0.8752830551,0.5273332663,-0.0589236279,-0.7788930056,0.458950652,0.0239944196,0.8297288048,-0.4836986286,0.0578392787,0.9015850259,-0.7197248786,0.0374580467,-0.7580632726,-1.9216920624,-0.9352215656,0.6352544034,-0.1836559253,-0.0858478864,-0.5322203619,0.8309279045,0.3038196628,-0.5238248185,0.0332583626,-0.5581606819,-25.7141018104,-0.7824310367,-0.370541424,-0.0930897384,0.8202040286,-0.8020933285,-0.859954919,0.3413047497,-0.6325824245,-0.3367278732,-0.6909458059,-0.5587197348,0.0568631033,-0.935286527,0.4137664216,-0.493873231,0.3458795909,0.7338170333,0.3170466845,0.5844528356,-0.8043276747,0.2861090621,-0.5224330771,-0.8375157657,0.3282838961,-0.2190514814,1.0511191591,0.7781286094,0.7162161963,0.7589949313,0.0349940948,0.1885630676,-0.0248475989,0.3190557878,0.3281833439,0.0518203423,-0.2832909615,0.1454278663,0.3299275707,-0.9366885845,0.9414356641,-39.427570339,0.0401196342,0.2858770308,0.1078442524,-0.5202392251,0.6759287018,0.4666319621,-1.6839618249,-0.8303012006,0.2180321804,0.7923665614,0.1715055775,-0.021539208,-0.9465009496,0.3288275141,0.7958321179,0.2467145186,0.7568539984,0.1111523111,0.3120883569,-0.3423706467,-0.4751131508,0.7202308299,0.7362906737,0.0041457298,0.4063066102,0.7734085137,0.7374393286,-0.0401066478,-0.4405487098,-0.0362460375,-0.4136798843,-0.7477762969,0.8767649056,-0.7785980211,-0.7390538428,0.7594353501,-0.1135615012,0.8723588046,0.4254660317,0.2821984672,0.9154297604,0.7126178566,-0.1490252531,-0.4895711241,-0.1430276421,-0.9077557558,0.2768056136,0.5561002055,0.8866685021,-0.9068883609,-0.0576259302,0.0575933931,0.0929952944,0.8513049865,-0.6523394673,0.6324832839,0.2176871843,-0.3072250143,0.1629248072,0.7423686054,0.8819010688,4.5848407785,0.7129904344,0.4622807848,-0.6454040188,-0.704354358,-0.0743851701,-1.2290313315,-0.5487758304,0.1929924186,-0.4811427792,-0.5555342268,-0.0030815838,-1.1023971485,-0.1730140141,-0.4286858817,-0.4819007026,-0.9699439672,0.0298474737,-0.7304711665,-0.1788487246,-0.0005035625,0.5055214882,-0.8891257572,-0.5824992271,0.0584291174,0.4681408421,-0.4984262534,-0.4016418255,81.3213519091,-0.7199792719,0.9413392323,0.5462536786,0.5561388272,0.2808615117,-0.8595772256,-0.3948425107,0.7336462403,-0.6236444418,0.2069474053,-0.2409571426,0.3029599335,-0.53648794,0.1910380225,-0.5643920597,-0.0063806654,0.5499609341,-0.2751017209,-0.994306546,-0.3277162769,-1.0725721171,0.254492259,0.2863092503,-0.0821722851,0.4919612125,-0.8196236687,-0.6799636336,-0.4056683697,-0.7265227606,0.223520962,0.3230890347,0.3300214905,0.2160112429,0.3019084626,-0.1041415594,-0.6831895825,0.368015347,0.6513451889,-0.4281320307,-0.0015759063,-0.9978158105,-0.7186829805,-0.3634312954,-0.3660462084,0.687978375,-0.6855021851,0.2865294143,-0.2803111659,-0.4453939026,0.0570958031,0.4876389263,0.829727681,-0.1857425907,-0.6219521514,0.485664501,-0.2159895578,0.3260253786,-0.5153215191,0.1014557633,-0.5972248961,-0.1418635936,-0.0421084965,0.3578254616,0.6260107121,0.5876278108,0.2538330126,-0.5855820129,0.7151664078,0.8430880168,0.8326550297,-0.2691144422,-0.8225673968,-0.6354945338,0.5224523551,0.3910551779,0.1922856888,0.2712878571,-1.1445986674,0.1038059334,0.4932112814,0.3478275174,-0.8993577924,0.3205128851,-0.7234828232,-0.5639787272,-0.6915623866,-0.3869908804,-0.4793392592,0.7645060443,0.7683328373,0.2056389945,0.4354514597,0.5879683288,0.8792011388,0.2895088606,0.6098242692,-0.0185515972,-0.8012807117,0.4370121458,0.4846701737,0.2684784053,-0.5518066844,-4.5170771306,0.8090969408,0.4189238535,-0.9101270504,0.2765831426,0.4616939314,0.9452634909,-0.3222926085,-0.4945362491,-0.4259888161,0.8484454581,0.0513512586,-0.3577232384,-0.4952355803,-0.7276834748,-0.3149651876,-0.4888062182,-0.0805314013,-0.134413913,-0.5099556825,-0.644490261,0.9066270666,0.4024047643,0.7629231588,-0.0607474099,0.6109455694,0.4438080992,0.5033254509,4.0199162056,0.8230638872,-0.2671604408,-0.7030570368,-0.7887789413,-0.4904093326,0.7419778531,0.2643672171,0.9199864603,0.5620655434,0.716253698,-0.1246267796,0.7108633503,-0.5775243013,-0.507880666,0.8929094326,-0.7661202219,-0.3734825495,0.5908578888,0.421760232,0.4679058389,-0.2590523933,-0.115508831,0.283328983,0.4636888884,-0.2102932245,0.0536186777,0.919442423,-0.8716775889,-0.4915579143,0.5319945093,0.1336483294,0.8986498364,0.7988395962,0.4736559893,0.629672335,0.8476655323,0.0054950314,0.011722799,0.1333700626,-0.5471523461,-0.2772642413,-0.2607860265,-0.5955147051,-0.6597313549,-0.5043083456,0.9556162028,-0.966618977,-0.5486260405,-0.1701891164,-0.8565043478,0.9617464816,-0.2913135726,-0.8184146892,0.8739015567,0.746675271,-0.1134641964
