encog,BasicNetwork,java,3.4.0,1,1615234153120
[BASIC]
[BASIC:PARAMS]
[BASIC:NETWORK]
beginTraining=0
connectionLimit=0
contextTargetOffset=0,0,0,0
contextTargetSize=0,0,0,0
endTraining=3
hasContext=f
inputCount=130
layerCounts=1,131,131,131
layerFeedCounts=1,130,130,130
layerContextCount=0,0,0,0
layerIndex=0,1,132,263
output=0.7237975699,0.9859222816,0.3615607479,0.2883949523,0.9998876889,0.3285726441,0.0422426437,0.0054140423,0.0007643912,0.9979596242,0.0614081101,0.0026961756,0.0047858917,0.9897295717,0.0000000039,0.0209612104,0.400278417,0.9999091071,0.0000569739,0.9392865976,0.8737315632,0.0001503217,0.9983585709,0.6029722252,0.9910355466,0.0314190952,0.000525108,0.0032947916,0.8501194215,0.8354778268,0.0215635924,0.9965097356,0.0085967546,0.4704021358,0.9671152066,0.99585423,0.0007795176,0.9974079261,0.8701693826,0.7888426021,0.9629539708,0.00291894,0.99673545,0.1513029657,0.0021737772,0.8031322083,0.0049592835,0.990775935,0.9891745072,0.0435051082,0.1085736081,0.7265767793,0.0003884178,0.9673912791,0.0000221274,0.0036765663,0.3143969276,0.5200447564,0.9125178212,0.000414032,0.9361190725,0.0392463676,0.8987364279,0.007478641,0.0051478986,0.3389608981,0.2333012157,0.0309405794,0.0137807008,0.9467306661,0.0244608888,0.9957594783,0.7621903274,0.0539668889,0.0070296626,0.0062501348,0.1659825983,0.0002323815,0.9987718983,0.6151186326,0.0160021443,0.974656544,0.0032688973,0.0466518736,0.9985550539,0.0509799448,0.9955776438,0.5976238845,0.6884313842,0.0172715342,0.1962095135,0.0321366591,0.0713846959,0.0010251098,0.0248587485,0.5433643866,0.4575591623,0.004186721,0.0006220615,0.0000045321,0.9813946707,0.0876012697,0.0237294902,0.8061512226,0.0064588103,0.1100322815,0.4919700125,0.8906319115,0.0264735373,0.000106712,0.0006128266,0.8514285454,0.0974889839,0.9992479754,0,0.9424428874,0.0018947472,0.982311841,0.1039258316,0.99952192,0.8483411678,0.9694169232,0.005639865,0.9751431825,0.0523240027,0.000157171,0.5490433571,0.0030259608,0.2465308059,0.9974038604,0.0128225172,1,0.8697726753,0.3573760771,0,0,0,0.0046749326,0.0041181451,0,0.0000037087,0.0063043263,0.000000117,0,0.0000233623,0.9811666591,0,0.8391790217,1,0.8536106713,0.9999041517,0.9692115771,0.9986716463,0.0003136292,0.0000000405,0.8317579377,0.0000000063,0.9649064842,0.0150395471,0.0000000045,0.0040886121,0,0.0000001597,0.8849030213,0.5622166859,0.9956908016,0.7224784592,0.0000043968,0.0000145129,0,0,0.9170614844,0.9915646702,0.2092649712,0.0000042392,0.9360806362,0.9999980303,0.1278850124,0,0,0,0.0000000035,0,0.5974026801,0.0007516648,0,0.9724202791,0.9999077988,0.7650085624,0.8653422907,0.9110580862,0.0000000586,0.0002783448,0,0,0.0834826218,0.183004955,0.0015495269,0.0026614474,0.9985073198,0,0,0.3084519049,0.0076561192,0.9999999909,0,0.9356690338,0.055991009,0.9985260094,0.0022132148,1,0.3456709244,0,0.0018269974,0,0.1507758411,0.0000752624,0.9733620867,0,0.0041333065,0.9376069417,0.8837155688,0.0066262171,0.9999457386,0.0008325815,0.0002845549,0.000230501,0.0000000011,0,0.8266372659,0.0000000007,0.0817413192,0.3031110249,0.943018857,0.0153649846,0.075806035,0.5321855433,0.0000004724,0.9999999661,1,0.9948225578,0.9190980404,0.6191573279,0.0000000038,0,0.0035015862,0.976370955,0.000004988,0.0021819818,0,0.061269846,0.0089178284,0.9995708164,0,0.8231834661,0,0.0000000305,0.9914772792,0.9963057581,0.9241877548,0.9419197161,0.0180546878,1,0,0,0,0,0,0,0,0,0,1,0,0,0,0,0,0,1,1,1,0,0,1,0,0,1,1,0,1,0,0,1,0,1,1,0,1,0,1,1,1,1,0,1,0,0,1,1,1,0,0,0,1,0,1,1,1,1,1,1,0,0,1,1,1,0,1,1,1,1,1,0,0,0,0,1,1,1,1,0,0,0,0,0,1,1,0,1,1,0,0,1,0,1,1,0,0,0,0,1,0,1,0,0,0,0,1,0,1,1,0,0,0,1,1,1,0,1,0,0,0,0,0,0,0,1,0,0,0,1,0,1
outputCount=1
weightIndex=0,131,17161,34191
weights=##0
##double#34191
   -0.5867989839,0.2304619412,0.004930066,0.3356367666,0.5103496861,-0.4094999096,-0.9673679527,0.2711314356,0.3083623411,-0.8401745639,1.8211337793,0.2102489014,-0.8796365846,-0.1275862395,-0.7972923783,0.324422089,-0.7315222903,-0.1309528743,-0.3816814322,0.1646530932,0.7588301054,0.7910111079,0.6365354713,0.8908672439,0.194529301,-0.6390759892,0.3431199358,-0.5438577013,-0.3741791111,0.5745386815,-0.7597631793,0.8442640262,0.744315754,0.0724961706,0.4328562499,-1.0018655899,-0.6331728732,0.132112588,0.5039798202,0.3934310833,-0.7091343494,-0.6187379039,0.5598878832,-0.7635951363,-0.8677094016,0.502443302,-0.9059502894,-0.0851697193,0.5718954882,0.4490890699,0.4826491865,0.2796486008,0.5188373875,0.8990892876,0.2536087842,0.7795703297,-0.0952127466,0.1542213247,-0.9031917135,0.3228689307,0.7630285275,0.3215385982,0.680769061,-0.1081806784,-0.3760548983,-0.1020527569,0.9980773465,0.4152625681,0.8792704431,0.8825197335,0.2759345577,-0.8865511254,-0.2274213554,-0.3816265612,-0.4392968473,-0.3272264727,0.2148692062,0.6668773249,0.2842813261,-0.3688295525,-0.1864951033,0.1143143887,0.9796664318,-0.2289540541,-0.8037043827,-0.9688223869,0.9106803128,0.4426590764,0.0485328448,0.0706706501,-0.6627216269,-0.7073802898,-0.286731997,-0.1626650193,-0.4236929351,0.2802892866,0.2550607444,0.5785266895,1.646974194,0.1365059793,0.3837640277,-0.2101916412,0.6104355227,0.7497985309,0.1020394745,0.1375807778,-0.3315206139,-0.9011975277,-0.3515493039,0.6798140552,-0.3231332522,-0.6471123177,0.9189600513,-0.0044039285,-0.2840012499,0.1096745918,-0.7668048082,-0.1629714305,-0.7548670191,-0.3174462711,-0.2846087966,0.6840394263,0.7892652697,-0.112099369,2.0498846634,-0.099551583,-0.0743559029,-0.8270045847,0.7548161544,-1.4262551615,0.754540987,-0.2353788178,0.1804720283,1.4457355086,-0.3873146693,-0.7319730784,-0.5787945489,0.6319862705,-0.5340711693,0.3827163832,-0.6720119798,0.8019644496,-0.2454991995,-0.1522857073,0.5280482627,-0.1962130581,-0.8950981184,0.4937478529,-0.4069544003,-0.1287870054,0.8022500685,0.3055888913,-0.4023702516,-2.3625700451,-0.268239683,1.0141633694,0.8424741757,0.896714218,0.519964696,-0.6738936278,-0.9017838656,-0.0681319166,-0.2939391191,0.0392061218,0.9725154027,0.2061962156,-0.0764199336,0.9191678855,0.6777109689,-0.7080326472,0.709399034,0.7610097186,0.6900312812,0.2985670751,0.8046031081,-0.9041441137,0.164448523,-17.7266178209,-0.744136516,843.983278969,-0.3528570314,-0.1267822404,-0.8821229295,-0.4091111068,-0.2813937889,-0.1798915677,0.0426290343,-0.1844187975,0.30913646,0.537461112,0.6463907885,-0.1934559259,0.8063384001,-0.8308135331,0.3875306201,0.7380466658,-0.6120198381,-0.9158265922,-0.8292193974,-0.2808649757,0.8914501664,0.2691166918,-0.565798092,0.1454502022,0.7885349844,0.2426109949,0.5342090001,0.042346535,-0.5793629005,-0.1386619327,0.9097245605,-20.015212022,0.9631028267,0.497702841,0.1516329568,0.5664534079,-0.1149423701,0.1345706361,-0.0490469124,0.6432678764,0.6949868762,-0.8406687967,0.7094269459,0.4969322036,0.359927622,0.5641555296,0.6825575831,0.2964825053,-0.6976322462,0.5249186597,-0.9859918298,0.5485370634,-0.0453700692,-0.4229575043,-0.7486611329,-0.1639714574,-0.6750879134,0.2663802025,-0.8445983891,-0.6859115089,0.8750190707,0.8174689143,-0.393660387,1.041975563,0.2915805769,-0.4221719329,-0.9470519124,-0.0768385075,0.9408240684,0.8768481668,-0.5430190505,-0.7699331339,0.2048636168,0.2328770139,-0.1647274184,-1.1368280104,-0.6068239809,0.9745226819,-0.5222671798,0.8881111165,-0.1445680504,-0.3432944695,-0.9232144285,-0.2952836001,-0.9106329911,-0.5572842096,-0.4740588427,0.2163222499,0.1529048715,-0.162409152,-0.1947249289,0.482350792,-0.0540666018,-0.0778127382,-0.8289753549,-0.6263671351,1.017220987,0.0042514628,0.1273160685,-0.3233925235,0.9882685783,-0.8414244802,0.0986846451,0.213023569,-0.041962132,-0.3121043161,0.192811635,0.5636345586,-0.7398837677,-0.5259694264,0.1861673279,-0.6673388724,-0.9396307652,0.9396786308,0.7830421657,-0.603005673,0.1040948825,0.253124133,-0.6291273734,0.7163395684,-0.0553627736,0.6344963638,0.0840769979,0.947070443,-0.5994804299,0.1691199967,-1.0012928048,-0.5520078314,0.9620850833,4.0673405973,-844.0044367417,0.6071306951,0.6180566584,-0.4052862364,-0.1080456341,0.119129171,0.7562241578,0.5926986484,0.7949105391,-0.0416290219,0.5740424144,-0.2146288495,0.4321940034,0.4858814168,1.0922456793,0.5585214868,0.8012782806,-0.128021221,0.7596029683,0.3525625427,0.0591319015,-1.0089775349,-0.3378338012,-0.5970941789,-0.7105130257,0.565432877,0.0773165466,-0.7979865623,-0.5535695079,-0.1200182195,-0.1918926504,-0.7664672996,30.0628327305,-0.7594880012,-0.4049172033,-0.4725990104,0.8149557606,0.4735830324,0.8389863215,-0.4705623686,0.4364783932,-0.7413440265,0.2053592255,-0.1728213969,0.1312402613,-0.8138060898,-0.241436097,-0.471758576,-0.0261680764,-0.6139694103,-0.8865479341,0.0583934998,-0.9398495856,0.4243816432,0.0885388322,0.6550587133,-0.9542390971,-0.8415151034,0.2497153779,-0.5031614044,0.4571750552,0.822733484,-0.3729716795,-0.620447577,-0.5832863307,-0.2139669026,-0.1050494108,1.0840879442,-0.2593753682,0.1924419824,0.0755288493,-0.5279222716,-0.1871602129,-0.0335349435,0.4197844021,-0.8449502469,1.1554034639,-1.016773942,-0.87889485,0.8232681771,-0.3080375826,-0.8941808198,0.4501664966,-0.3080097602,-1.1656260365,1.0816882089,-0.070375661,-0.7802150906,0.1476463234,-0.8932025297,-0.8242565313,-0.7997650756,0.6245660335,0.0172822918,0.469184849,-0.6308318631,0.6073302231,-1.0901598154,0.7943918943,-0.6493463752,-1.0682793857,0.3876633418,-0.0979970746,-0.4487094778,-1.0258576847,0.7256502241,0.1815133752,-0.2355777409,0.9748742274,0.3561520058,0.3636237488,-0.8411685615,-0.1401008435,-0.1061079918,0.1266838299,0.0437246443,0.7942857681,0.5962840863,-0.2900398346,-0.0274690899,-0.9402879352,0.0926220845,0.3418977723,-0.8844503241,0.0856130236,0.2960793417,-0.6398569451,-0.1676522521,0.6955667412,-1.0679905058,-0.798129701,-1.3481980557,-1.2268866784,-0.6490680371,0.4413112452,0.1256473054,-1.1910412228,-0.4294104502,0.723200363,0.4880242198,-0.0816622463,0.3172847203,-0.2351262619,0.3005643196,-1.3561730614,0.6151436734,-0.4875504538,-0.3259009872,0.7569822007,-0.3945472626,-0.9133647895,0.1658236022,-0.8981628691,0.3410853639,0.6129430216,0.9067422636,1.1467958444,-0.7428974348,0.1428539855,0.41735938,-0.1517276292,0.3569723637,-0.7015234771,0.2361198365,-0.5234189364,-1.2032781205,0.4851075986,0.2863085896,0.0069804627,0.5608009468,-0.7358700023,-0.5969906625,-0.5051059962,0.5311320135,-0.9387771669,-0.5479114742,-1.0549225884,-0.4279960998,-0.4303085435,-0.6985529486,0.2109664674,0.3973029209,-0.5313760044,0.0047746336,0.3246889973,0.6580247423,-0.1346985319,0.1852420525,0.4040544761,0.1946024414,0.4207247659,0.20321068,0.7563680655,0.2173426739,0.8263825771,-0.0808588644,0.3001884121,0.6899485589,-1.8776199486,0.4931533508,-0.4415408178,-0.195480915,0.3338425951,-0.6713491592,0.2923923294,0.4674939776,0.7087164202,-0.3099803529,-1.0695811633,0.7441297407,-0.6651007295,-0.833467429,-0.8696565593,-0.9673040208,-0.5041327889,-0.6072302105,-0.339896432,0.327392372,-1.2253808126,-0.6335108539,-0.6419640827,-1.4282460408,-0.4638491763,1.0470704773,-0.7632844017,0.8270882589,-1.0114672999,0.7843485923,0.7740601224,0.8208656804,0.4456907371,0.3287375368,-0.304880293,-0.526877679,0.6167268921,0.935755749,-0.6895064834,-0.3448701577,-0.6296419522,0.378203266,-0.4612250898,-3.5316870685,-0.5885673683,0.6890671579,-0.0574899684,0.4947559118,0.8179871082,0.7738405385,0.8928391301,-0.3131664447,-0.041596259,0.7232214814,-0.0251972747,0.8111741862,0.8050343722,0.4460432776,-0.2799883157,-0.6502947422,-0.2770419472,-0.3347572208,-0.3386702583,64.497639202,-1134.229114258,-0.2295810283,-0.2461056031,0.45204707,-0.3818811655,0.4193121037,0.6148435834,0.6449833593,-0.7424394364,-0.3541704211,0.6906733335,-0.3306467955,-0.0560841125,1.5823153217,0.6230732288,-0.0944942456,1.0309868453,-0.0696480889,-0.7831310185,0.3640039812,-0.2627808936,-0.7996026737,0.1716899031,-0.4183473682,0.771155982,-0.7557012615,0.4223729447,0.9162263631,-0.4038541261,0.2663426222,0.0237308014,-0.2086505513,1.6493358857,0.4025019999,-0.3328983706,0.8025871984,-0.2554768735,-0.0626299275,0.0693014297,-0.382471423,-0.1032840459,0.8099510288,-0.6124142745,0.8538747263,0.4788727387,0.3120773357,0.9502816866,0.3575180041,0.2574661947,-0.2037983283,-0.7001270191,-0.5408369503,0.3221871897,0.2092070673,-0.7679777337,0.8425162163,-0.2493456657,-0.5048578512,1.0190758681,-0.7521578192,0.6865848714,0.172080088,-0.6815641768,-1.04217591,-0.0805427177,0.5480260906,-0.7113903599,0.4596727776,-0.3639672539,-0.4365016084,-0.9559298646,0.4509534924,-0.2925658018,-0.5560109818,0.1695063603,-1.08760497,0.0855129862,0.9779264153,0.2107956883,-0.4594102214,0.9269354491,-0.2762311381,-0.8900081279,-0.2699016605,-0.3187291085,-0.1577710377,0.5741211964,-1.6671646971,-0.5037333117,-0.4487059094,-1.5456295315,-0.8709914592,-0.8828439092,-0.9536614427,-0.8900067287,-0.8985722045,-0.0855673507,0.097139033,-0.7770477042,-0.3228497287,-0.2061934993,-0.0535215804,-1.0581325025,-0.8710180499,0.0038858985,-0.4621099848,0.0877306407,-0.1622685666,-1.0113816318,-0.5788241853,-1.546784922,-0.1127581075,-0.7370176996,0.672587257,0.2759159497,-0.6537824264,-0.4466349303,0.7750753751,-0.9408250458,-1.0491786843,-0.0694583836,0.2616680418,0.2312202951,-0.6552624092,-1.0628731258,1.147720045,0.6134080894,0.4477817682,-0.2122140499,0.9057499478,25.9184971744,-845.7390669561,0.9115083449,-0.1566506105,-0.5445710693,0.5013335673,0.7111448478,-0.4369474322,0.5839747227,0.2384079195,0.7636895439,0.7711415044,-0.8498843655,0.3458340928,-6.8151796666,-0.1553537245,0.2244685946,-0.4361256271,-0.3149621591,0.5952937559,-0.1433279324,0.9041881249,-0.4160089,-0.2746076847,-0.1671441523,-1.0375166506,0.3143518201,0.6942546474,-0.3224755016,0.1764901217,-0.808335338,-0.5642107504,0.9342054657,25.4423748793,0.234565749,0.5382856163,-0.4695550607,-0.7555386403,0.7716367392,0.2866472227,0.3607592383,-0.7584360553,0.7296664639,-0.0289836845,-0.4350049562,0.6092574599,-0.433560386,0.9913294598,-1.2423615282,0.1736485247,0.9330500728,-0.9423503673,-0.784131581,0.1137481563,0.8475403088,0.3738952099,0.8339607149,-0.4938239424,0.4223582262,-0.3588403178,0.3322017622,0.3732120607,0.8605443626,-0.8222949475,-1.0852317958,-0.267882588,-0.2455303108,-0.4717461395,-0.5842181016,0.4553275761,1.025826138,0.6926308361,0.4314885055,0.1577985333,-0.0013221119,0.0915549762,-0.4228290912,0.7053070965,0.2575547746,0.8225491606,-0.4765409173,-0.5308453077,-0.3026007938,0.6923817308,-0.7789818157,0.1978498282,0.3004228955,0.3250986099,-1.3953651905,-1.0152070203,-0.4483806233,1.2349675926,0.4487143075,0.0904636552,-0.265662281,1.0079864958,0.0616281716,-0.4245556951,-0.7249049794,0.1731129443,-0.7754168408,-0.8906526137,0.5045605661,0.4222818477,-0.693274809,-0.1895062768,-0.2820934323,0.592519881,0.0525557709,0.4871086258,-0.704018369,0.6656926718,-0.1645895006,-0.5086172019,-0.1498509827,-0.3050226912,-0.1153770129,-0.9321443507,0.6881878561,0.7285404555,0.8344037197,0.7253322479,0.1599914818,-0.5430909269,-0.4489685615,0.2441870624,-0.0447741893,-0.8637727873,-0.7176247838,-0.2761488558,-5.8769264237,-11.0659936004,844.6877859224,-0.7335308344,0.2882970002,0.6029355652,0.5375516387,0.8820379474,-0.4873455408,-0.9163147017,0.1578136463,-0.3635999562,0.1511316059,-0.4330871794,-0.0398959759,2.2024085313,0.6795632422,-0.2407796518,0.4836205148,0.4274321736,0.7160545588,0.3376965392,5.0296507741,1.0549776172,-0.5132168855,-0.2645779098,0.510575613,-3.6133183015,0.7657467935,0.9325529418,-0.9116607336,-0.6064486764,-0.7807406069,-0.4267710291,-36.2896096944,0.3554947859,0.8844910849,0.1241459667,0.6764676061,-0.6225888898,-0.3101232657,0.2727579757,-0.6098887438,0.7281682307,0.8387235317,0.7696961136,0.5783285504,-0.5995089137,0.4758950767,0.7370261436,-0.940136381,0.0596545932,0.3035119078,-0.0485235473,0.6169561676,0.2140517232,-0.5037597026,-0.7909730075,-0.4167970652,-0.1805837725,0.3900697052,0.774029704,0.5815314616,0.1039075039,-0.6677139745,-0.3414972122,0.7958959994,-0.8265064734,-0.2167631973,0.3814808023,-0.9089958064,-1.043370582,-0.4963317553,0.8307405657,0.8346360636,-0.3890854093,-0.4172785644,-0.1065041672,-0.3902339662,0.0142289209,-0.0546505384,0.7833536319,-1.0001951723,0.7087911437,0.9067870414,-0.1493283113,-0.8952213608,-0.0852289377,-0.706971712,0.6058034621,0.4669759279,0.8890867739,1.1178211721,-0.3065240569,-0.8634589438,0.4767576454,-0.2455511651,-0.5157709795,-0.505779569,0.3614472809,0.0237257033,-0.4110153456,-0.6793670155,-0.6906661172,0.3403031893,0.5982107456,0.1814461954,-0.7202097187,-0.5610014258,-0.5827225034,-0.7050542276,-0.8236682003,0.3896122519,-0.5507045196,0.3116844092,-0.5632157135,0.75196508,-0.2240030534,-0.8738351793,-0.2535886408,-0.355466443,0.8572789296,-0.0227033802,0.7626323523,0.7681882019,0.2399632366,0.6499217578,-0.6271168166,0.3013541813,0.3705528584,0.5605210818,-0.2673476438,-11.5693876179,844.2520781265,-0.8613826706,-0.1351765548,-0.073467224,0.7321602613,0.6383891552,-0.5901374528,-0.6719838642,-0.3785774624,0.311500262,0.0589598394,-0.7262628455,0.3804340105,-4.8279329222,0.797620837,-0.2277420349,0.3726796388,0.7884129381,0.8590530926,0.8541217063,0.377153686,-0.4476205759,0.2875922612,-0.1014451265,0.7279123412,0.1832449748,0.2077617048,0.6976185888,-0.5213520642,0.6334742369,-0.5408578593,0.5516500239,-29.1654075526,1.0406411765,0.7249978956,-0.5006012425,-0.0071974777,0.3478170511,0.0288835648,0.2950288666,-0.7038426594,-0.2727848617,-0.6506709236,0.1243369073,0.4080435146,-1.0253007389,-0.6458254032,-0.8989029577,0.3112108376,0.6449517348,0.2125069217,0.2062646167,-0.6180387605,1.0344714637,-0.0467899376,-0.4056205204,-0.6556534292,0.0868419222,-0.5003384709,0.0630687727,-1.0768625879,0.4834011384,0.4214388904,-0.4249095857,-0.3978744578,-0.5991755544,0.4566493331,0.3431247307,0.3392776524,-0.0016776745,0.6136981765,-0.4325148446,-0.8645778098,0.5013177583,0.0230713388,0.5405762706,-1.1798388406,-0.7375700267,-0.971218313,-1.071043793,-0.9558809793,-1.0488029356,0.8445905297,-0.2898755798,0.348794749,-0.001802036,-0.2720519432,-0.0321226202,-0.3164710204,0.9932078675,0.4198129133,-0.289784601,-0.2077246852,-0.6531736251,-0.2464664774,0.156381043,0.4408266189,0.2191691835,0.2636959871,-0.4696076329,-0.6407901548,-0.6919757356,-0.7052400976,-1.0359896157,-0.7463457906,-0.2315483509,-0.6409618425,-0.1088805987,-0.7253727436,0.0459905898,0.4364444043,-0.9446215165,-0.3621767116,-0.2878932945,-0.3387288917,-0.4353091265,0.5328437489,0.6222586986,0.5322477874,-0.3125436097,-0.2442848975,0.2872419727,-0.5611847357,-0.6862683698,-0.3697289306,-0.4607984162,0.1008454077,-0.3675346418,-0.8292639378,-0.7498888974,3.6268232176,-440.3694202745,-2.6389215876,0.0940002385,-0.8342530823,-0.7302447254,-0.6664934838,-0.4130866759,0.7284108917,-0.2080760372,-0.5219989975,0.4520114121,-0.2331519965,1.1404810556,-0.3972409006,0.7542760259,0.0514464081,0.0332009034,0.1432718804,1.1885297523,-0.8804142428,-0.8224906111,-0.521732008,-0.7875959541,-0.4653998501,-0.6042431756,-0.2342464496,0.862763449,-0.9197088577,-0.4422277352,0.6918185439,-1.0201761931,-0.5749095815,7.7363227206,-0.3360196336,0.44807306,0.7716947891,-0.3770254623,0.5126980435,0.9257981286,0.1124060099,0.3397104158,0.3388096535,0.7310178174,0.5134556243,0.1309084393,0.2220327758,-0.4199680051,-0.4962928753,0.5562299741,0.4164069062,-0.3272689409,-1.0282090142,-0.5879850999,-0.1608812836,0.0372157992,0.6424933548,-0.6969057731,-0.2642464839,0.3127499883,0.4929079075,-0.7164640469,0.9793110046,-0.748509542,-0.6855105882,-0.6047418374,0.8232299478,-0.6219361421,0.2926434782,-0.7785675026,-2.7019276122,-0.7016340427,-0.9385742949,0.4834378952,0.7530890616,-0.8090915318,-0.5704011806,-0.5333685754,0.1784552081,0.2186942044,0.5995823104,-0.5348397169,-0.2023243891,-0.3248154761,0.2674686611,-0.5440809846,0.0225792375,0.3234911592,-0.866578244,0.7612374144,-0.8902700016,-0.1995250158,0.5303284645,-0.7171252828,-0.8026203782,0.0730616999,0.1284915801,0.6352631577,0.769947232,-0.3417670308,0.3719222407,0.0520016483,-0.0255429196,-0.5656354695,-0.2638623914,-0.2239440565,0.9477079958,0.9042574925,-1.4477272732,-0.1168314699,-0.1625052355,0.3657890343,1.0192976249,-0.8389501822,-0.8603795482,-0.1317650081,0.4096022274,-0.0014574283,0.7382302264,0.5428730113,-0.4241524094,0.5006300271,-0.5761912661,-0.6371781774,-0.4321762957,0.2576041441,-0.0706236798,0.6370265638,-0.4114566363,-0.6294909428,0.9134366772,1.9411224145,-628.5594678114,-0.8085274866,1.3015493189,0.4613675708,0.306906907,0.7278596596,-0.4675921413,-0.2867965436,0.620050943,0.4796355568,-0.648316949,0.2475880512,0.7620688335,1.0766821812,0.8553509073,0.2640507436,0.5303324355,-0.5903609943,-0.6983514462,0.8871201997,0.3674601604,0.0919360939,-0.9494062777,-0.6236606183,0.8895055617,0.1769674119,0.7478316979,-0.1963472411,0.4265981254,0.8847739827,-0.414328136,0.702730747,25.5686301352,0.7690793523,0.1000551926,0.5126044602,0.3587258621,0.0625893089,-1.2504363856,0.3189217618,0.3629563427,-0.3009853217,0.9155426127,-0.3701003514,0.5972915888,-0.3224463627,-0.838066253,-1.0866119194,-0.3501787535,0.0013794143,1.0950448436,-0.5734220539,-0.5991689519,0.594093299,-0.5512769088,-0.5174351243,0.9523668043,-0.860883709,0.7572439792,0.8919814206,-0.1119180073,-0.7502954478,0.5243631864,-0.9503518018,1.2336819667,0.210847246,-0.8322632972,-0.2769765503,-0.1506277411,-0.9448485921,-0.06299774,-0.311139048,0.9965064372,-0.7256508273,-0.2591943233,0.9180477711,-0.4497774631,-0.4249539578,-0.4452426246,1.0343483457,0.9920301776,-0.8551707156,0.6485229863,-0.150642239,-1.0221266691,0.5685535405,-0.5670250216,1.5585603674,-0.1297223071,-0.8415573096,0.8485638594,-0.4473128752,0.267337821,-1.472145666,-0.3002154391,-0.8606539838,-0.5170352075,-0.2389476524,-0.1648873816,-0.2554398048,-0.1891894856,-0.2105840399,0.4254215378,0.6541658598,0.3581596127,0.4268855167,-0.7611085902,1.1608726172,-0.5881128453,-0.489089707,-0.2526892885,0.5261445757,0.8159930015,0.6919264311,-0.3101134911,0.3284046421,-0.2648087476,0.4373869204,0.411624163,-0.3745889806,1.3604921251,-0.982858064,0.0531464602,-0.1432154438,-0.5741937968,0.8324783675,-0.9265695486,0.7390337113,0.869918282,0.4067336428,-4.0371498028,844.4892100451,-0.5878233324,-0.6086194556,-0.053784382,-0.9035741536,-1.7895708084,0.9164324422,0.1954330702,0.1552566591,0.6916679075,0.3724564018,0.0025162344,0.8863924606,0.1864194526,0.8343346178,0.0840006899,0.1263879195,0.038363127,0.4841880077,-0.7157994777,0.4511138517,1.2292111409,0.138944924,-0.8797323052,0.4737755086,-0.4538664311,-0.4755263928,-0.5161611642,-0.8873953372,-0.8487918878,0.8612307819,0.3346555367,-6.909447298,-0.5420241062,0.2018432408,0.3458407549,0.3980331476,-0.5990772809,-0.1479501824,0.6453774726,0.6421815373,0.708176243,-0.7282825628,-1.0755774783,0.0932879781,0.0028162756,-0.2909578167,-0.7881894387,0.4381247967,0.0865415587,0.4094141141,0.7298814659,0.1416978526,-0.2968869882,0.6061263842,-0.0913979513,-0.3931723471,-0.4602423889,-0.2123997743,-0.1628518597,0.0288827161,0.3673187733,-0.2763536681,-0.6971264072,-0.5111357683,-0.7965046,0.1419904428,0.0665350925,-0.2225636333,-0.1574894432,0.124332439,0.6021444837,-0.3194997405,0.6155888996,0.4686933387,1.1556231273,0.3364537679,-0.9178179484,0.4162300046,-0.5857092535,-0.3323869288,-0.2988507681,-0.0847812204,0.2335030053,0.7817122209,-0.0080141083,-1.2302250668,-1.0240824674,0.710376379,0.6468120954,-0.1272436303,-0.7008418286,-0.967425173,0.6519498586,0.3561730168,0.3699291841,-0.7517383325,-0.3724003867,0.0553076052,-0.2691438813,0.8880738317,0.2073797141,-0.8940574334,-1.040656378,0.3444586466,-0.0797940238,0.2487851063,-0.1709089217,-0.4646706806,-0.8944542135,0.0979149579,-0.4897466865,0.8051004704,0.6413886264,0.3457723824,-0.7746274066,0.8805961847,-0.5467490863,0.4782151564,-0.6319168302,0.2587580783,0.1570880891,-0.5679626594,-0.3954275187,-0.0367497119,-0.7166429473,0.6785778593,-0.5221177842,-0.3711014186,-0.0535896248,9.3633136575,-640.6700750442,-1.4561127472,-0.0632527137,0.7205094282,-0.0386790058,0.4316864852,-0.7108968643,-0.8777899596,0.2559802703,0.1811394933,-0.4942339136,0.6290013903,0.441220998,-1.9740266163,-0.4900347418,-0.8990950166,0.2939924747,0.0250636991,-0.1412153733,-0.674681118,0.7561993838,-0.8088141636,0.7697863275,-0.200211792,0.4301706588,-0.0291031815,-0.443936241,-0.1868171205,0.3496853017,-1.076461707,-0.1617798525,0.347056575,7.5461601958,-0.7629455616,-0.2169479087,-0.165515624,0.7488386936,-0.5287757559,0.1147034866,0.0969584997,-0.5419484639,-0.0897545618,0.2657233902,-0.6440150878,-0.4002416091,0.8048065555,-0.0040289862,-0.8632592582,-0.3210805268,-0.0814029881,-0.2888069839,-1.1497611722,-0.504978695,0.6272085317,0.7559763257,-0.6208274539,0.8022846295,-0.2935891703,-1.0641469182,0.2985484269,0.3445428322,-0.4350196397,0.7684411201,0.6173564755,-0.0674550116,-0.9555164315,-0.8965766998,-0.8603740603,-0.0393797142,-2.118966943,-0.556322578,0.7984201366,0.5888518563,0.9610747904,-0.3753706943,0.0087026308,0.6056850596,0.2081561406,-0.3987871275,-0.4838871983,0.4966519589,-0.5454428992,-0.094155088,0.855649067,0.3121400964,0.0979755346,0.2018866611,-1.6392205693,-0.6600459342,0.55138605,-0.1877882428,0.2968688782,0.203914371,1.2248563765,0.4276518734,-0.0366507862,-0.0949867367,0.8192118066,-0.7735136803,0.3369900753,-0.6627144273,0.340223611,-0.6553451244,0.3612802041,1.008664169,0.6463453349,0.1851779459,0.3632844806,-0.8114848322,0.7607540571,-0.1406799176,-0.3835696309,-0.3496857802,0.2160573485,-0.8566127737,-0.8112415839,0.5463037263,-0.6702313902,0.6710474897,0.491760768,-0.7116893627,0.621807213,0.6995517498,0.8093703627,0.3098954912,-0.0639419609,-0.3651856208,-0.3800332176,0.0304117084,0.7292011126,10.7719578142,-845.7671482944,0.1067533274,0.7450993613,0.5097248476,-0.0762283923,-0.7821722841,-0.6308103756,-0.0663568349,0.6788072356,0.1062871423,-0.2913594529,0.0813757403,0.496015201,0.6397586063,-0.4793449404,-0.8143628349,1.2092362509,0.4884825093,0.7811039473,-0.4852597587,-0.5994172775,0.3666121662,-0.4058115517,-0.661222553,0.6540127466,0.8157175559,-0.6629542916,0.8763431599,-0.8681878194,0.2749254242,0.3490622229,0.3480870242,29.5741039311,-0.1938194526,0.534251054,0.646607283,0.5388809998,-0.4816594305,-0.3039498398,0.7044866951,-0.0230124114,0.4710100997,-1.0736159991,-0.5382483386,-0.5351026583,-0.6696575884,-0.3804988933,0.2194743903,0.4749684194,-0.8504153772,0.1714359377,-0.8897674502,-0.9431565383,-0.219500213,-0.3494182432,0.4870787424,0.8120505897,0.0198047609,0.1647381105,-0.2206238367,-0.4774619693,-0.5821791571,-0.015632098,-0.8306591332,-0.7229685766,-0.4750104884,-0.2831530498,-0.3371076612,0.749487489,0.7068482592,0.5097141825,-0.707721938,-0.9750163241,0.5089087541,-0.4385893181,-0.5468942663,-0.7114085017,-0.7450864672,0.826200274,0.1777922474,-0.0715871578,-0.8034852922,0.3170840226,-0.5424691749,0.1119544065,1.021157716,-0.2608411704,0.0051371558,0.4390199066,-0.7352947847,0.0857986092,0.6378910627,0.6585137519,0.730031242,-0.7650110371,0.4161001864,-0.0895907231,1.0461199742,0.6170243707,0.4227455635,0.498232046,0.8594629491,-0.6261579969,-0.6116062445,-0.874436768,-0.2753293374,0.3618260224,-0.1783408098,0.7276829096,0.5188904098,-0.1588996457,-0.3801565572,0.1040409869,0.7282273041,0.438435469,-0.4507110636,0.8691950976,0.2857346677,0.2116690838,-0.6792372837,0.7015314151,-1.0249385679,-0.7973119954,-0.3240456653,0.098048739,0.3610945537,0.670664163,0.5854747391,1.0340365033,-2.6497308591,-11.2223911694,845.658002133,-0.0261888563,0.3845581442,-0.8258302362,-0.0519360441,-0.6617567044,0.2047660329,0.2951664795,0.8026097963,-0.1522883223,-0.3077293032,0.5662642351,-0.1002468063,0.1743609706,-0.4092489353,-0.2153411805,-0.1089841782,-0.410348385,0.255494957,-0.0575317158,0.8419875087,0.4266042482,-0.8375848999,0.3876810275,0.0637629871,-0.6280225474,-0.3042378066,0.6153062467,0.6272811424,-0.1291625225,-0.8535357219,-0.308737189,-168.2604787304,1.0430682289,-0.3462269141,-0.3288863668,-0.844808462,-0.5231408848,0.4921517802,0.0669110345,-0.9988243246,-0.4574703526,0.4781231797,-0.019879622,0.3732196244,0.5646629956,0.2608049596,1.1942396022,-0.607720535,-0.4964784708,-0.119753746,0.6201972677,-0.4029753705,-0.0016001459,-0.3325738053,0.1924660207,-0.1757172222,0.2506035245,0.6151850965,0.3066108543,0.3743509797,-0.0929244445,-0.0087739738,0.8907002269,0.8238408247,-0.0612022903,1.0163700378,-0.1249724311,-0.2668013549,0.5768487811,0.2727643002,-0.4497410762,0.247295506,0.529146418,-0.4040376528,0.1407680557,-1.1218954637,0.472696004,0.4980379537,-0.1625970172,0.7843946094,0.1660009425,1.0191250092,-0.0634781736,0.2862279993,0.7913842002,-0.6872830289,1.0708456116,-0.593526313,-0.6848665019,9.2521458009,-1.0070941038,0.4372838461,0.6260253889,0.3398574327,-0.9176508023,0.2294299468,-1.0689040033,-0.6880440034,-0.9552589257,0.7296226828,-1.1342683677,-0.1806747085,-0.7778214196,0.1063862814,-2.3446128382,0.2675492364,0.1240216475,-0.8301096003,-0.9307318075,-1.1545860983,-0.2561089731,-0.9381115082,-0.7353047076,-0.1824059393,-0.6587530172,-0.6830564881,0.713714277,-0.8649589366,-1.4719526592,-1.2813956409,-2.1201233644,0.467517015,-0.7244085675,0.042399656,-0.8748240313,-0.2859731878,-0.9530208196,-0.0571205841,-4.6683907978,-182.5928046882,1372.6574664235,-0.9905957228,-0.7770382504,-0.3328002157,-0.7518647814,-1.2029797081,-1.1531221132,0.0133688677,-0.8611826317,-1.1272531863,0.7770916493,-0.3004613721,-0.6287635094,0.5679583706,-1.0151796825,-0.9900490409,-0.4981511561,0.1369225879,-0.4356725468,-1.48734743,0.0993370295,1.6170836287,0.1640143217,0.0687492327,-0.3227773829,0.2712493315,-0.1206152529,-1.123517036,-0.9668626524,0.2301133976,-0.1890066904,-0.0888207282,-124.199115399,-1.5391567392,0.7197485723,0.2108095772,-0.5222093193,-1.0596497037,-3.4193119042,-0.3814678874,-0.1815715779,-0.8745466654,-0.07123307,-1.2899341102,-0.653439153,0.7172617426,0.3027865172,0.2352285724,0.1786852742,0.2523181427,-0.740752781,0.1143722833,-0.3681541368,-0.1203614005,-0.7658350717,-0.1844913554,0.3448596352,-0.0902750603,0.4276546404,-1.5298234123,0.1873415899,-1.3287091092,0.3096531384,-0.3797792633,-0.5752965609,-1.4496978459,-0.4346527578,-0.0136321388,-0.3934726751,1.6237252525,-1.3318841263,-0.1958743513,-0.7896925372,-0.4385706383,0.0830707167,1.339145541,0.0901232081,-0.5405836088,-0.3275643139,-0.7976867024,0.1398163332,-0.7404466263,-0.5650718721,-0.8878002143,0.3490889199,-0.4501749253,0.3322266331,-1.6969215457,0.3660002972,0.1313361392,1.4223435726,-0.2651152855,0.7305041665,-0.0368566699,-0.8508570268,0.3716428937,0.4824871451,-0.881183405,-0.1611078564,0.0320030831,0.5472609915,-0.6179562154,0.0989073077,-0.9149466669,0.2238614565,-0.663663218,0.0394547142,0.8636997827,-0.4930832203,-0.6330963589,-0.2281207318,-0.4717081693,0.1324796302,-0.9474488398,-0.3599694292,-1.0584130527,0.2752364122,-0.6878195265,0.2595725091,-0.0219905344,0.3323875902,-0.1057887999,0.8779797476,0.2758439811,-0.2008531281,0.1860493483,0.0407715213,0.3356108815,-0.0500571973,-0.7455494343,-26.5202034049,845.3713558793,0.0045465104,0.0438632428,-0.9957308988,-0.6976778295,0.4549574008,-0.3729904229,-0.4366693732,-0.7485244922,-0.1041538576,-0.6687850541,-0.8280574322,0.71939626,0.2443121179,0.2131305317,-0.4893654235,-0.8440075292,-0.0244182965,0.4025651906,-0.448485308,0.4216718262,0.4323109422,0.7716843352,0.7370332462,-0.1255379972,-0.7819388263,0.4735620356,0.9072532652,0.4009766631,0.6914029814,0.244694875,0.6732035267,-24.6283163148,-0.5515126257,0.3271568443
   -0.8645806103,-0.3583884644,-0.0732606839,0.4074985247,0.5410564122,0.5562242326,-1.0389550389,0.2664916308,0.6089080413,0.0948938999,0.2202361451,-0.1254578201,-0.0130247533,-1.0108692944,0.7994625272,-0.6394494423,0.274053462,-0.8832176874,0.3603236832,-0.2398438955,-0.8785022574,-0.6842614611,-0.2605648314,-0.2777394713,0.553717362,-1.028459207,0.8875174809,-0.7185988223,0.8101355621,-0.3204732544,-0.4588904084,-0.7721515436,-0.2640922996,-0.0123720447,0.6329418771,-0.82682202,-0.2978401907,0.1060402596,-0.4497396689,0.1918530738,0.2624012925,-1.1204692138,0.0634325035,-0.5668598763,0.8242977716,0.007864697,-0.3991184584,-0.2742192558,0.1544501214,-0.6708299815,0.7676224563,-0.5792762922,0.5307738255,0.7614251527,-0.8410851948,-1.3957966559,0.4046895278,0.3804014284,-0.5875543578,0.9617926722,-0.3753827899,0.4566009879,0.4840750865,-0.9340108843,-0.7988855933,0.5122399062,-0.6406974615,-0.6769494072,0.8096249953,-0.3132327236,0.7124155006,-0.2507586449,-0.2204705676,0.6090793277,-0.3434134609,1.2845643536,0.4521707114,0.6364348467,0.2609906465,-0.1218696872,0.2099318159,-0.3498774571,-0.6913562175,0.5315219153,-0.0790107032,-0.0446001712,-0.0085046825,-0.3396155576,0.1581039631,-0.7546502692,0.1932154667,-0.6060631668,-0.3698034956,-0.3173168188,30.4688007313,3.6210431155,-844.4472832354,-0.1822208452,-0.1505945355,0.5276979707,1.0745109096,-0.9659368132,-0.7917712718,0.8797765856,0.2983153594,-0.1931650746,0.0732368698,0.8416244861,-0.3030902573,0.4952013273,0.7349247739,-0.6699985171,-0.0980375541,0.8219494278,0.5125267837,-0.190574827,0.8979921551,-0.5449102622,-0.7376537338,0.7903316468,-0.0811815074,0.0966253791,-0.3655591723,0.0388552902,0.9063553581,-0.8951163205,-0.0959104333,0.0969707539,44.4198402794,-0.2284002058,0.9236591351,-0.4644694749,0.9052177647,-0.1929879876,-0.961805042,0.8622193111,0.9616559844,0.904813874,0.58463982,-0.6193741029,-0.620811755,1.0592300662,0.3766017234,-2.6975443138,0.5414973477,0.2440854971,1.1928150606,0.5238908407,-0.9383467625,-0.5315782179,0.5029593965,0.1688976387,0.5824699188,0.8723348526,0.1670730139,-0.7435919809,0.6638830656,-0.0564137378,0.351260737,-0.3439560151,-0.8593134658,-0.9283597186,0.4028420903,-0.246440262,0.3091182479,1.3707290327,-0.1257905119,-0.9018581274,0.2188556767,0.1295313666,-0.1617115034,-0.0813254315,-0.8027625537,0.7036898577,-0.2716017299,0.2450949023,0.7771948357,-0.3592569584,-0.563380974,0.0362780601,0.049327507,1.3164769102,-0.1019216877,9.2371909547,-0.3370872541,0.2634128584,0.6862143028,-0.5394205404,0.3834683465,0.5089331582,0.6224755259,-0.6062316069,0.1763077928,-0.7902514938,0.8215601934,0.7858914482,0.2619621273,0.4341962173,0.8992374813,0.7119004562,-0.1613638711,-0.4101360099,-0.2514873605,0.2185465397,-0.7163181945,-0.5033874766,0.3910865896,-0.323099672,-0.5077558097,-0.6419707835,0.8381410746,-0.3327048008,0.0386828115,0.7730025081,-0.607755446,0.7169647569,0.3109754416,-0.1318915228,0.8404626384,-0.7607326287,-0.1145734939,-0.8809371578,0.4929527302,0.2254726118,0.8360613609,0.4634569864,-11.9338449114,845.1945646875,0.7228305544,0.4054727394,0.1875583474,-0.4543926665,-0.3814137708,0.2811153363,-0.9123251555,0.1604329481,-0.847772779,0.4607116715,1.2958875075,0.9103694132,0.8828342994,0.8659697195,0.2833265567,-1.0759645153,-0.4075369191,-0.2982545908,0.8745759026,0.627592024,0.7353758568,0.4453915709,-0.4309458924,-0.2348116177,-0.0259604936,0.1882653529,-0.2990399394,0.7648791891,-0.4906227076,-0.7339232897,0.0905970972,-28.061789533,-0.8368652752,0.7554287382,0.1486274841,-0.6115273916,-0.5350212842,-1.2020510408,0.2697200846,-0.0371568873,0.4854008458,-0.1830503346,0.5114011806,-0.9345424994,-0.132307553,0.2849326191,0.1645995644,0.6330845564,0.7865379821,0.3418752861,0.0406843194,-0.6357690294,0.6969881193,0.1667524336,-0.1135839261,0.1210422195,-0.1477328556,0.2450302691,0.3007691531,0.7271220756,0.8473278082,0.7235001144,1.016207241,0.8300347537,0.3713694502,-0.1931834858,0.5533723669,-0.5016781482,3.0350399702,0.5795285081,-0.759785058,0.7332901439,0.2836212727,-0.3737340185,-0.4466679474,-0.7242680118,0.0975991801,0.8435578502,-0.4348929695,-0.04963955,0.5917438244,-0.6037322398,-0.4919863722,0.4512118468,-0.6962788662,-1.365136276,1.4609450353,0.0522892652,-0.077814142,0.9750395908,-0.8438688175,-0.0990036405,-0.1328038356,0.1431514382,-0.2983396953,-0.295611013,-0.0303620728,-0.8179384006,-0.5265127625,-1.0383971177,0.7128407833,-0.8378658745,-0.7810621511,0.300564929,0.6454499946,0.2297691652,0.6948650768,-0.1557202082,-0.9905269096,0.3854185864,-0.3992335463,-0.7543827393,0.3762968834,-0.4769265687,-0.5160850637,-0.7293831604,-0.8728027678,-0.8704895405,0.6343431152,-0.8579872202,0.0858694922,-0.3397591027,-0.2994016514,0.3561641436,0.0181488731,-0.8037324646,-0.0268425755,0.361301903,-1.779739767,-15.8054714271,844.0539198807,0.1825193704,-0.073517319,0.7779379775,0.443654872,0.7836362499,0.8948223839,-0.8624908768,0.9528275836,0.8834463647,-0.7191350817,0.9208054877,-0.5422608102,-0.6212411831,0.7689455362,-0.1628703868,-0.8333601119,-0.4013778021,0.4807238031,0.837196225,0.4078951187,1.1541140673,0.7805690001,-0.5278744261,-0.1846825359,0.2739784203,-0.0817207215,-0.2199072606,-0.6654083006,-0.8123022288,0.017856499,0.1860658063,-26.2655025627,0.7244351116,0.5307804647,-0.257323544,-0.4901024116,-0.7918909276,0.4829533254,0.1565653487,-0.2101828559,0.1306046298,0.8276358769,-0.6143409329,-0.4050458215,-0.5850360198,-0.3844776492,-0.4073340261,-0.1306271666,0.5931802819,-0.9732888689,-0.5570631011,0.6214594812,-0.7314704505,0.8896636053,0.159843356,-0.9711422244,-0.5393425132,0.050864587,0.5593112388,0.1375946694,-0.2077781682,-0.1507818411,0.018492599,0.589142399,-0.7416582859,-0.700657861,-0.5576355089,-0.1555378926,0.2510009983,0.5498947812,0.8814025571,-0.8860775221,-0.2389934288,-0.9708925178,0.768080765,-0.9106549788,-0.8925928153,0.0888300594,-0.3037107942,-0.2239711505,0.0751957966,0.9149015118,0.262062811,0.0405638354,-0.4795711534,-0.0123632898,1.16276673,-0.3947672035,0.4508121395,1.6465982757,0.6336019815,0.5056890593,-0.1752600286,-0.1081541887,0.0591662261,-0.0874068044,-0.4831202816,0.6336523747,-0.3522948236,0.8672987556,0.1784881624,-0.4096617701,0.7203838964,-0.9514770909,-1.1961931005,0.8380007936,0.9009575112,0.3447368627,0.4710623724,-7.3558304528,1.0689958109,-0.4296350702,-0.8294061887,0.5707720838,-0.8424602581,-0.145708173,1.2178265371,-0.3731586063,0.5383386969,0.2130681381,-0.9509312475,-0.7219065909,1.0138573972,0.4852114645,-0.7419084182,-0.037232224,0.5191435801,-0.725577938,-1.2923128823,-11.8678007446,844.1033759671,-1.2663505893,0.1793185876,1.0949814782,-0.3526120347,0.0232197382,-0.0553806022,-0.2272088628,0.999480927,0.910643055,-0.6266326828,-0.139881788,1.0898318388,-0.6162307457,-0.1051850797,-0.9436537878,0.1244099065,-0.1907202001,0.2659054179,-0.7880073857,1.0117891041,-0.1849981801,0.5357100239,0.0179720844,0.2268493054,0.1803728062,0.6892984528,-0.0577389956,-0.6249366358,-0.7378655724,-0.4865362538,-0.2898896467,-33.7530625791,-0.2639690682,0.9210768865,0.3390858198,0.901114565,-0.2832148932,-0.0884458462,0.8086747848,-0.819969475,0.6358557118,0.6191357051,-0.4076079846,0.4707096226,0.8873621545,0.3134917288,0.1827444248,-0.5366553902,-0.7498390419,0.4344211867,-0.0992322491,0.5775047981,-0.0830916741,0.2760392457,0.8421046905,-0.5214335018,-0.0803392913,0.6876852979,-0.6348781364,-0.6791747391,0.167445391,-0.8078081184,0.3883090923,-0.7599350949,0.3514650483,-0.5617747049,-0.8012139423,-0.7559069853,-0.7562840371,0.6536744393,-0.0485044937,0.8205657517,0.5968985024,0.7223003241,-0.3579055581,-0.1553380764,-0.3767786942,0.3164558894,-0.5537744549,0.5418641758,0.3872198982,-0.1306137857,0.8763372311,0.6128916484,-1.8041649323,-0.2110765206,-0.0492853872,0.6826975448,-0.0470921104,-1.3830604307,0.444988357,0.4027699093,0.7315567233,-0.4551185587,0.4598760849,0.0082265383,0.7730464354,0.8645952334,-0.4487274127,0.9076925264,-0.8756395261,0.0124810053,-0.6765165142,0.7440753924,0.7685816075,0.3127104624,-0.8447270401,-0.6512658046,0.2810933365,-0.0967750858,-0.469804329,0.85499646,-0.7711020515,0.1382330534,-0.4031190661,-0.8844058454,-0.0975025897,0.1954108252,-0.2007344866,-0.2575655281,-0.9604268729,0.8226881895,0.5488159631,0.9605627911,-0.4447544333,0.8081901577,-0.156967684,0.4600142912,12.663350146,26.557128072,-844.7394578569,-0.9596460326,-0.5237411617,-0.2379556421,-0.0677279002,-0.889356234,-0.1730803466,-0.0378083911,-0.1475539056,0.7933746886,-0.645925156,-0.7330817883,0.4610188468,4.1436342207,0.8178136912,-0.2463077069,0.158841871,-0.2087684211,-0.8243044427,-0.4892879892,0.181708686,-1.7450263414,0.7033066057,-0.2039833171,-0.4848181461,-0.7066771105,0.3733710458,-0.0009073138,0.8027489798,0.518708367,0.6556498683,-0.7395412789,31.0431664042,0.7958226272,0.0213839983,0.2791614468,-0.0176559487,0.1930320248,2.846161314,-0.2399931614,0.9458614192,0.2397380966,0.1124909288,0.3826066872,0.6400101374,-0.4099811298,-0.7435404092,0.4922986005,0.4751808288,-0.1690457632,-0.9327599646,0.8733667671,-0.9840793235,-0.2600733684,0.5231361888,0.4675478618,-0.1783992245,-0.4196806839,0.530871258,0.8514409765,-0.6745716837,0.3364239893,0.4882733582,-1.0353327922,0.1965319155,0.1616144295,0.202223845,0.2366531397,-1.1343572254,-1.5200097403,-0.5054432306,-0.845582095,-0.6857497887,-0.4367018116,-0.5812419915,0.4336589494,-0.665100227,-0.2585371384,-0.7323538796,0.1055487368,-0.8002380525,-0.811944464,0.5446251754,0.9971501288,0.5015765519,-0.29965484,-0.2315751862,0.2457842792,0.407375784,0.5445820917,1.1783789378,0.4366995758,-0.0365703068,-0.7656741897,-0.6980865404,-0.4327143446,-1.076646906,-0.6571808793,-0.062771143,-0.0270694388,-0.3100669379,0.0963780915,0.0464590095,-0.9913730146,0.1755580197,0.5413372283,0.0633529249,0.5930906718,-0.8102241855,-0.6236809955,-0.2888999556,0.272674414,0.8608116193,-0.7351348496,-0.2931336242,-0.4547627826,-0.7288920174,0.6273038927,-0.3120151675,-0.1317582679,-0.231985298,-1.0572356904,-0.9335741022,-0.7920987146,0.6033915178,0.5515908024,-0.0689217261,0.1552635885,-0.8088204308,-0.7753260415,-0.9870844942,445.7158601911,0.0116427281,0.0691274588,0.017263365,0.638609102,-0.9666477367,0.6526989734,0.5887392417,-0.7244024861,-0.457898793,0.5058801712,-0.295084121,0.5071351443,-0.7670954608,-0.8021229372,-0.9341593956,0.3674116237,-1.0333817952,0.3744089948,-0.7941074445,-0.5564278923,0.9883252588,0.9662693491,0.3473576421,-0.2227369715,-0.9884551362,-0.9239661135,0.9972369131,0.111671959,-1.0593237207,0.5331898966,-0.3819947907,-28.7299594639,-0.9146370328,0.2719036601,0.0723478694,0.6974502073,0.5623987791,-0.0054405776,-0.2222235168,0.0365972128,-0.4133255621,-0.6071044619,0.0983819958,0.3248961834,-0.2436139336,-0.6949148563,-0.606892001,-0.4728854903,-0.6128398594,0.4555854921,-1.0127080183,-0.7471465122,-0.7408440623,0.0743035089,-0.8462261896,-0.0507996393,0.0358963743,0.5040912781,-0.0375616434,0.5380006444,-0.5757306112,-0.8229330668,0.3758513572,0.6694351372,-0.4763100583,-0.290660473,-1.062340963,-0.4296327177,-0.3365820695,-0.0587745572,-0.4206965471,-1.0561406652,0.5813446139,-0.6273620752,1.0798202603,-0.6402704113,-0.9856671076,0.9908006271,-0.7933483762,0.0682678928,0.6829240815,-0.436003287,0.5349414995,-0.6398035049,-1.7310133549,-0.778971144,0.7136951067,0.1421069066,-0.408868083,-0.3992346194,0.6044588349,-0.8382443209,0.3128342115,-0.6007834311,0.550658005,0.7155146491,-0.5635814687,0.4159885372,-0.9319034608,-0.4158195762,0.7136810242,0.6710725694,0.6637646758,-0.8465625344,-1.0262505461,0.1362321061,-0.611398747,-0.0454176572,-0.5428062941,-0.375099968,-0.3537517664,-0.2991197764,-0.7764335317,-0.9937305866,-1.06441535,0.1836879942,0.4370017112,-0.4711485272,-1.0178773045,0.4442028742,2.1053153066,0.9191159916,-0.4575066292,0.4368062307,0.3419393871,0.7588506105,0.5379347755,-0.2120549569,18.4308150449,10.4365450738,-845.294619721,-0.5133601419,-0.0190590511,0.6043194601,-0.7604896559,-0.0061549204,0.5047204062,0.4773426383,0.6177812403,-0.7199922217,0.9597387129,-0.6833657782,0.3663326283,-0.9249537671,-0.2270772615,0.0458564637,-0.2031562629,-0.3169602789,-0.4010281468,0.0530813124,-0.8804284217,-0.9581057386,-0.6501277623,-0.0178150627,0.3826323755,0.048662056,-0.5669274032,-0.3889028066,-0.1504876385,0.6002645675,-0.7698278964,-0.2786986279,167.8726281654,0.3897418277,-0.4763460426,-0.7454423739,0.4229786801,0.8882689256,0.4111672927,0.0933557413,0.5127084169,-0.2777777619,0.1214992329,0.8097948359,0.8609651309,0.3799129164,0.0306712621,0.0138535019,-0.1599455417,0.7051163555,-0.6429351378,-0.0030068517,-0.5400310753,-0.2729713572,0.7988745976,-0.9874399345,0.6390465923,0.4417742281,0.428048107,0.1465921593,-0.6591624388,-0.0694718253,-0.0576834703,0.0239524352,-0.2801204468,0.4932953688,0.2464890355,0.8500060595,0.9372734836,-0.6404971588,-0.4251070241,-0.1185247278,-0.2353631493,-0.6072534828,-0.5968661108,0.1769283727,0.091806738,1.0784387002,0.4065339984,-0.3869749727,0.2134009342,-0.8612552915,0.0702900543,-0.8590642416,-0.5218996765,4.9810081515,-0.3788757039,-1.4879363652,0.4159230907,-0.8274552806,-1.3929369987,-1.0020496736,-0.3516893956,0.4087084702,-0.0971424362,-0.7266939656,0.5041091446,-0.3341159484,0.5683130369,0.7885838178,0.089792552,-0.3984713722,0.7104632557,-0.6867897709,-0.042044767,4.1199039682,-0.1716402578,-0.6340777984,0.0066356341,-0.3563165321,0.6393855875,-0.7730813928,-0.1833847643,0.0994338925,0.3709050257,-0.2857831195,0.7381747144,-0.1781217706,0.1478817188,-0.0088602321,0.5319640626,0.9396397252,-0.1481849447,0.0631088538,-0.8602409009,0.2515775861,0.862224078,-0.9751751839,-0.0260197099,0.9819348958,10.0665459706,-1133.9340806113,0.2845848712,0.2906301171,-0.6611187892,0.9574453815,-0.0639009061,-0.7677728408,0.6816374193,-0.663782627,0.5204546556,-0.0295441987,0.7448409307,0.6861902744,2.3721312638,-0.3444140618,0.2678772691,0.0570546859,0.1429808386,0.5406326677,0.8905016068,0.5703079242,-1.3196927179,-0.3741036112,0.42593456,0.8795475451,0.7401913427,0.3991148959,-0.8464112592,-0.4859012197,0.7174470699,-0.2262102096,0.6046397948,21.2813844042,-0.9295816088,0.4986169447,0.2035024697,-0.5967050711,0.0996435756,-0.9729455733,-0.3156814888,0.8527120705,-0.4844195417,0.1694646691,1.0094415259,0.1019785266,-0.1892511651,-1.0519127814,1.4238312189,0.8749977265,-0.6362306273,0.8500230488,0.5567197293,0.0327851924,0.3013757485,-0.683350041,-0.3828993255,-0.9825924427,0.257501381,-0.021834702,-0.5767524122,-0.8845917838,-0.5708600243,0.9876856273,-1.2653253306,0.1033157225,-0.5090989315,0.9059789325,0.9054589061,0.5837652124,-1.3872917816,-0.3015019267,-0.3225612005,0.0511527332,0.2828095751,0.2282504043,-0.1157135313,-0.4309328183,-0.1024314629,-0.7117235777,-0.2561447186,0.2186289212,-0.7418059753,-0.8756574957,-0.8252635011,-0.279220503,-0.3872898688,0.6432031644,0.6146774265,-0.2689620475,-0.7484563628,-0.4214545042,-0.5311258896,-0.812459776,0.0344155698,0.5524232652,0.3914372812,0.8480095078,-0.7436437137,-0.0096291645,0.3772257663,0.0016447741,1.0350960321,-0.8148755125,0.9819330129,0.4943969202,-0.9553996118,0.2616543088,0.1190685179,-0.8357120885,0.0854914472,0.3666210786,-0.6270016658,0.0859360915,0.4502666079,0.2287666219,-0.5500138183,-0.3184432749,0.4669181286,0.0616997453,0.0293618172,0.4850829477,-0.0949572566,0.4153276002,-0.4744607539,0.8064928705,-0.4478877054,0.8032787869,0.1156320645,0.463160328,0.1153981675,11.8449413501,-558.8750754385,-2.4302204134,-0.629716839,1.013487229,-0.0468594463,-0.6837856388,0.8672400508,1.0021051723,-0.7027130779,0.7021495793,0.6440880817,-0.8514732293,0.5280494956,-0.76163214,0.1060095502,-0.2458129207,0.0340833075,-0.2113750012,0.1002224789,-0.0087403188,-1.1747553723,-0.3798666788,0.4973968241,0.8493860197,0.8676686805,2.295592002,-0.182969004,0.0823805452,-0.8435569412,-0.0096876478,-0.4990853196,0.8353838095,25.576628382,-0.8627975374,0.3089639455,-0.415384175,0.4883885102,0.737852768,0.1299105531,-0.6770173472,-0.6964609052,-0.168334354,0.0852960292,-0.7168163911,0.2743744389,0.6773139301,0.0702814595,-0.1130165975,-0.4031692415,-0.5422639542,-0.103221488,0.9923791031,-1.0158021175,0.3842452164,0.2127675856,0.4333064315,0.5876264034,-0.216924111,0.4180711197,-0.3041780135,-0.0953616114,0.3720960239,0.6753756707,-0.6636601957,-0.4951305528,0.0150259586,0.9325544725,0.6898600805,0.7881930982,-0.887926886,-0.537094304,0.2412252793,0.3029000263,0.18108609,-0.4355138271,0.4447114606,0.7149184552,-0.4734312821,-0.4482920856,0.7174233344,0.2286701183,-0.3843738248,-0.8487899383,0.1682657821,0.1695696701,-0.2155484241,-0.0730319274,-0.6120219178,2.4875402843,-0.3851030661,-0.4674184087,-0.5779990233,-0.2652082723,-0.8320899545,-0.2981102908,-0.4682489041,-0.5415050983,0.3040668539,-0.2379312067,0.08231812,-0.3096261425,-0.2567879326,0.670942577,-0.9377583694,0.9950216416,-0.9047671457,-0.0845555622,-0.1413747865,-0.32205252,0.9426783495,5.3021700357,0.254997703,0.69846962,0.4199032018,0.975571034,0.6029239829,-0.3791962554,0.7441627403,0.3710522127,-0.554426036,-0.5323653974,1.0610110941,0.3698793061,-0.6379922037,-0.8966971065,-0.3655465311,-0.1517369861,-0.9568223518,0.5734197764,0.4982220586,27.0240870515,-845.0602318262,-0.5659703339,-0.0993226273,-0.0315938021,0.8547812463,-0.024829116,-0.3550645848,-0.4746709267,-0.3125277022,-0.4671138292,0.9129582425,0.3346345413,0.027984515,-0.7096618143,-0.0839182592,0.0890625779,0.1636171976,0.2807765153,0.3736551226,-0.2684843115,1.2556416748,0.2024470037,-0.7374818216,-0.3198161338,0.3367162981,-0.8548099882,-0.3953497816,-0.9054975404,-0.7011121983,0.843193369,0.90236006,-0.3238766272,26.3676438381,-0.7198442307,0.5521611068,-0.0861741769,-0.2345178172,0.765311475,-0.2197902538,0.1930853189,0.1881016231,-0.0569637411,-0.71560455,0.3918730957,-0.1098037372,0.2291941797,-0.9798660206,1.1887578017,0.907363162,0.2863476146,0.542941507,0.0501744933,-0.192343146,-0.6021051872,-0.7198546505,-0.4012930781,-1.1136740003,0.7047425405,-0.617283648,0.0269532424,1.0305702712,-0.996695789,0.2479387584,0.2785454325,0.6248768464,-0.1529398777,-0.9618082512,-0.3329600595,0.3704817351,0.5554736724,0.19917292,0.8350213629,-0.5048261104,0.3900607859,0.6414935746,-0.3146509167,-0.558223183,0.2446507531,0.6105869086,-1.1761375183,0.0786181723,-0.1649753079,0.586113234,-0.8900239376,-0.3571930131,2.212472957,-0.8037048455,-1.9354486415,-0.3275768538,-0.2378246657,1.9033718061,0.6782318655,-0.6791208238,0.076990276,-0.6389458031,0.6942068056,0.3944168987,-1.0021984882,0.6894782233,-1.0530301927,0.7922399613,0.073752386,-0.8614321563,-0.2076872015,0.3797295089,0.9868526378,-0.5737227725,-0.2320276122,0.1223970391,-0.3857364355,-0.5758207123,-0.9508627054,0.2725434581,-0.8508519675,0.7847286711,0.5840691768,0.9543343506,-0.5502924081,0.7132577834,-0.0517031551,-0.8028477323,-0.938182164,-0.7963132649,-0.6953204258,0.1242821405,0.1151863946,0.3345546785,-0.4554888721,0.0101994833,-44.0793758336,-10.1246109205,845.7466808514,-1.0104607907,0.214092584,0.0694459387,-0.4808254491,-0.9134637066,-0.7735317869,-0.4091413678,0.5385804102,-0.6420229002,-0.4299175307,0.9335163045,-0.4224088999,-2.0695492753,0.6296026334,0.0681811523,-0.3247621564,-0.1361819781,0.5384122287,-0.288816036,-0.1461835168,0.4444233979,0.8080832314,0.451215975,-0.0238745983,-0.7534509381,-0.8102686079,0.2707581347,-0.0124839296,0.3985598912,-0.5268341366,0.7048525906,-36.5327137543,-0.7832014743,0.4396375181,-0.1609920776,-0.2865263825,0.3123467691,0.4908087449,-0.5918390963,-0.1241750666,-0.4597059278,0.1794753611,0.4219818721,-0.239528816,0.310366236,0.9246610611,1.5937275359,0.935779503,0.4151830091,-0.2445073012,0.8556066795,-0.7576470885,-0.7800716352,-0.8494574483,-0.9529520161,0.7633638113,0.4821885161,-0.4445289327,-0.7563701453,-0.505255814,-0.9911348539,-0.9547624486,1.1780760229,-0.316807193,-0.6417289289,-0.5564133302,-0.7922702242,-0.0457591993,-0.2528173992,-0.5384652691,-0.5960155054,0.0153835492,0.6604487207,-0.2746913627,0.579680266,0.687242675,-0.0607000092,0.6303184739,-0.2210581383,0.0143085926,0.5678696377,0.5380391158,-0.6742758644,0.1088481943,0.6997304883,0.300955877,0.9247761503,0.6270239544,0.9356887612,-0.8469422911,-1.0178908263,0.5712110474,-0.0801973406,-0.6525307927,-1.0908663969,0.3907939938,-0.4068150881,-0.5187238812,0.5836232882,0.9300819464,-0.5286307069,0.908277181,0.8890214621,0.2050136701,-0.0342446401,-0.8509825524,-0.5482033881,-0.8827625877,1.0683100102,0.9062866627,-0.3273286759,0.2061020229,0.126373243,0.3195379612,-0.6351117029,-0.1575259365,-0.9956751833,-0.2091971231,0.5816031734,0.3869728945,0.049715883,-0.5236480745,-0.1741575959,-0.7684598949,1.3239193135,0.0403923344,-0.097495599,0.7255124032,-0.1870779794,25.8578813612,-845.1620379756,1.3186211126,-0.1692555085,0.3526131997,-0.3324941635,0.5992642847,0.6577906013,-0.0623907897,0.6136340511,0.0292119135,-0.0301278321,0.3579688579,-0.854707337,0.9178780226,-0.4451603737,0.2173569064,0.1880686943,0.5082699275,-0.9640516672,-0.4655328667,-0.9964464359,-2.01328412,-0.1545340329,-0.3476995599,0.3554109403,-0.2131840694,0.0155550449,-0.6458473734,0.9563286414,0.1951280532,0.0447959225,-0.6097560816,0.6517157829,0.3879865556,-0.4055700651,0.1177106725,0.3065630031,-1.0053060497,-0.4857394209,-0.1710525573,-0.1268478712,-0.598047677,0.950353885,0.1075446974,-0.0148898175,0.7093431967,-0.039097891,0.5214799053,-0.6475740625,-0.143682559,-0.5956211917,-0.8842501027,0.3745460359,-0.7839065194,0.6665725802,-0.8571334616,-0.8171530874,-0.6187595995,0.4030418577,0.6746255531,-0.8855774751,-0.3932180423,-0.200139748,-0.3650275808,0.3434579036,-0.1410385661,-0.7841846372,0.6130524993,-0.3229090686,0.0576838756,0.0318914734,-0.6171024281,-0.8130791027,-1.0023501842,0.2546826148,0.1970768059,0.2873682235,-0.1979849071,-0.8030691082,-0.4243282932,-0.7785242523,0.6727891535,0.1946717345,-0.8583344254,-0.029482773,0.2831300863,0.7886291686,0.9461340264,-0.7938292879,0.2293170424,1.2493282879,0.1707857415,-0.5171584839,0.050968346,0.0306627428,0.1050436273,0.2049182667,0.54715895,1.0153610425,-0.1909247367,-0.0328348396,-0.5331178755,0.9482698876,0.3717278632,0.6710268655,0.1153844505,-0.247602393,-0.4375539816,-0.5998503618,0.1782922891,-0.1334198126,0.0441397976,-0.6223511444,-0.5990262228,-0.0885293834,0.2866610467,-0.13945673,-0.1267356187,0.0523480957,1.0054142679,0.9936095438,0.4389245832,-0.3953648933,-0.4228835771,0.9822216464,-0.9756737735,-0.6793513113,0.3823645138,0.1527206143,-2.0952182661,-10.6788509855,844.3338776556,-0.5273432973,0.9152054176,0.8766195426,0.6420682589,0.1799845266,0.3442131324,0.5637140518,0.966452947,0.4573265655,0.6211329487,0.7418227852,-0.6944552307,-0.0775501088,-0.6452456381,0.5136017981,0.2150939548,0.6774298722,0.1193767266,-0.6590598353,-0.3040903155,0.5117444297,-0.1001303832,0.6023509266,-0.30268293,0.0787411384,0.5234994323,0.0459811006,0.5487444862,0.8639246621,-0.9436540054,0.8276755411,-28.0875612951,-0.8818937458,0.8319162681,-0.059132803,-0.2749113185,-0.1905009776,-0.8122474555,0.6912949956,0.7937712654,-0.2059428083,-0.5847080053,-0.4645530252,0.4289023046,-0.4562228386,-0.539272359,0.4204673841,-0.32413895,0.6750908507,-0.4920651462,-0.2528901646,-0.1092428825,-0.665643096,-0.5495693483,0.959749876,0.1494589382,0.8994874195,-0.4258442334,-1.0319442774,0.9941989844,-0.0382227596,0.1881552702,-0.5418693648,-0.1839907674,0.3539062256,0.5781978937,-0.770258669,0.6086415689,0.2875549072,0.4384194312,1.0071988765,0.8533947124,0.4613202122,-0.1931458117,0.3197454248,0.7023757694,-0.1438375037,-0.3739317291,-0.0915824186,-0.5646207239,-0.9040251586,0.359360641,0.9335651847,-0.8274914057,-0.083106792,0.2633844927,-0.9062098025,-0.9687512094,0.5033872527,1.315725282,0.5877601081,0.4324855676,0.4894890439,0.6478708227,0.9229275728,-0.1956819163,0.6245076156,0.5771187626,0.1672985109,-0.5226615472,0.888976408,-0.8120847497,-0.2442866468,-0.6785550577,-0.2982932579,-0.7591555007,0.6796620676,-0.3980481903,0.2892310453,2.169553024,-0.4604454175,-0.4110927002,0.99480063,0.8168738044,-0.5629268458,0.285626169,0.2649955966,1.0297089791,-0.4090517018,0.4338502375,0.4116077559,-0.635369046,0.8428725067,-0.3140316596,-0.2751119777,0.8153211368,0.8824345093,0.8719846771,-0.2764196543,-26.0193260731,1134.8731826111,-1.0718556884,0.463939324,-0.9128614597,-0.2000927366,-0.054761817,0.7564934626,0.716513621,0.451115521,0.0143028271,-0.9699844617,1.0143025437,-0.5078183641,1.3436961932,0.4815308066,-0.5869111785,-0.7189415897,-0.2442619682,-0.0918912056,-0.9557656777,0.6355316132,1.3044681897,0.9099424457,0.5382382617,-0.5901661412,0.2722347955,-0.8856535535,-0.5719277208,0.8144734834,0.2076256795,0.0324740279,-0.2993542008,-28.9351440056,0.4981131874,-0.256061905,0.526626601,-0.0152055432,-0.572931224,0.754252201,0.1369165842,0.4953933,0.3727167279,0.0664888453,0.4612580143,-1.0073907881,-0.4193474521,0.5701653309,1.0024794534,0.6832999724,-0.6895356845,-0.4190769506,0.7741699007,1.0065440126,0.4558525067,-0.6932109095,0.9796912458,1.3967397768,0.4234081793,0.6581962712,-0.4450208258,0.6707442169,-0.7138620382,-0.8626607912,0.2956371599,0.1595465035,-0.8415261148,0.5699490126,-1.0466900668,-0.3448277552,-0.2254929247,0.9948524733,-0.0405613495,0.7281455286,-0.7525280151,-0.387494801,-1.0931011919,-0.4791459889,-0.722404479,0.5655395567,-0.5151625217,-0.5529298964,0.2613251054,-0.7782755998,0.5995250827,-0.3161846344,-0.9909824219,-0.0642361568,-0.5161435559,0.650307021,-0.0963803903,0.3375027831,0.3472887234,0.6252897862,0.1946969963,0.8791679817,-0.7920492135,0.8707446334,-0.2797963913,0.572501554,-0.4608942238,-0.5286830038,0.3680031053,0.8954895567,0.1682894361,-0.5566596566,-0.3825916597,0.5376592013,0.8361987918,0.1833205637,0.0222883245,0.3403046334,0.2947052707,-0.8443411475,-0.3780956995,0.3684454923,0.2615185809,0.4735599924,0.3402830542,0.5298085001,-0.3641014546,-0.4551230314,0.6940807518,0.4656017523,0.962339918,0.5640911032,0.427665118,-0.5931323924,-0.0686648835,0.0486010444,1.9277023486,11.7231184581,-844.447599851,1.0615597192,-0.5851568459,-0.7602267827,0.4220048416,-0.2725593961,0.0041256556,-0.1514715362,0.8555069968,-0.6617212031,0.4671502987,0.4728567434,0.5598872177,1.0356945718,0.5833603907,0.0421737597,0.6664574035,0.3124791126,0.8439912935,-0.3933996775,1.0534866972,0.1874909292,-0.9404493185,0.5371731247,-0.7804281358,-0.6573660076,0.8873283437,0.8675206999,-0.8732812082,0.6269954212,-0.6597121911,0.5495963597,83.7147998393,-0.4955846705,0.2139937343,0.4860909323,0.5937752676,-0.3202174037,0.3797217436,0.2836505232,-0.4709232469,0.2288527863,-0.5784311215,-0.8369434031,-0.0595689126,-0.247171679,0.6647747599,-0.3688256925,-0.3156627208,-0.0286387206,0.1761521822,0.5030506302,-0.1630029567,-0.7998944668,0.729929171,0.3226858211,0.0099630792,-0.7195600168,0.3382050527,-0.4357858872,-0.2065226846,-0.3004419769,-0.5336273583,0.0345487797,0.8336888592,0.2609481998,-0.4641379429,0.6613418361,-0.319232086,-1.1814210425,-1.00384711,-0.1943798046,-0.7931910908,0.026996425,-0.8121208978,0.6618898631,-0.0193850446,-0.8709954433,-0.1633952635,-0.1332970534,0.0276178826,0.0140891798,-0.7939935861,0.9170983279,-0.8850726049,2.4178488211,-0.33790169,0.1464167653,0.2527541081,0.3578539689,-0.4885666902,1.0114252701,0.5386174302,-0.6027854589,0.1329692378,0.8479215828,-0.8988509136,0.1341024585,0.5348538426,-0.0780967275,-0.6871949717,-0.5723171119,0.1959745167,0.8902041739,0.3318479388,-0.501166249,-0.0613146265,-0.0732799054,0.9024093278,-0.5940357147,32.6639077008,-0.8532769488,-0.7135217875,0.8630972361,-0.3831795253,-0.1919580066,0.9132848601,0.8165142133
   -0.5338233118,0.1667932969,-0.0467801846,-0.4613409733,0.3586328271,-0.0328821658,0.5019040681,0.4303801279,-0.5745755872,0.5256182762,-0.812369132,-2.0006936959,-0.5993990983,844.5614938944,-7.2645655146,-0.6093998271,0.3247581233,-0.377615354,-0.4825356443,0.4037662852,0.2257912395,0.7498084747,-0.9749461793,0.7536916271,1.7070652368,1.1938445333,0.7078523334,-0.3114896089,0.1140355059,0.8225051089,-1.058909828,1.0008167903,0.557324354,-0.09807908,0.6520032436,0.8121392047,-0.287429876,-0.8722588762,-0.7680120854,-0.4704103421,0.464031313,-0.4154600069,-0.8493333137,0.6138970305,-0.4638550463,-18.6655424444,0.9354293419,-0.0541620589,1.0063358856,0.6727663262,0.1648764383,-0.0645668741,0.3312201248,0.1391955551,0.5697257236,1.3577280258,0.0111239806,0.8881030108,0.5964618071,-0.7792777782,1.4554662359,-0.8378341041,-0.691481964,0.6381471214,0.4411896364,-0.4176352375,0.7041240848,-0.755258781,-0.8652533785,0.3151663105,0.2439851231,-0.1533766689,-0.8624041722,-0.1671325105,0.933201591,0.7354994103,0.5146836692,-0.5541077281,-0.7369670105,0.6293390411,0.5627260769,0.8087639852,-0.6177830048,-0.4039099227,-0.4976372675,-0.6984513561,0.4315800116,-0.4480781746,0.4117650526,0.2196091776,0.2209314181,1.0114866367,0.8838223235,0.7301234022,-0.2121430511,-0.7708914901,-0.5287980755,0.3131099413,-2.0148932901,1.067452697,-0.9253230369,0.372232455,-0.450221963,-0.6069539092,0.9140254662,-0.4451394854,-0.8073601362,-0.0991914096,0.4018258012,-0.1178785893,-0.501757047,-0.810465672,-0.7414158818,-0.4256892131,-0.6287196236,0.7311383198,-0.2990391814,0.3816125726,-2.8292138303,-0.5675665164,0.7392197819,-0.1255178003,-0.8003781364,0.0817694574,-0.2132749493,0.1193732651,0.6845779289,-0.3306072285,0.2301070797,0.294100197,-1.1937271801,0.7523233917,0.2318055516,-0.9518633681,-0.584363571,-0.9018077444,0.4030762819,-0.3508655258,-0.3867959592,-0.6098847386,-0.5140924204,0.188676137,-0.4123796261,0.0386200509,-844.7949589153,-1.0813286199,-0.8042821269,-0.9415033851,0.6206749736,0.830919104,-0.396847274,1.0104690771,-0.3281764676,-0.5746429991,-0.721703672,-0.6739527612,-0.5320714377,0.4306856298,0.4654166694,-0.3866408638,1.1577371048,0.8943753011,0.6118557881,0.6425472546,0.1464508889,-0.1564415815,0.5683262682,0.873990896,-0.8150169348,-0.4853956599,0.2612187985,0.1248015854,0.235761236,-0.5674315564,0.4218462697,0.6015022185,6.9917295709,0.1851341257,-0.3296684584,-0.1515632357,0.0883065492,0.9042869763,-59.8120558455,0.3213880066,-0.2340129846,0.1743154821,0.8693368692,0.5313391146,-0.6762542231,-0.5661061875,-0.0062456084,-1.2819769052,-0.8298645341,-0.0493491121,-0.7786809518,0.3711008449,-0.8787283998,-0.3421261198,0.5793353725,0.4607251251,0.4258567755,0.8739869268,-0.2981405936,-0.407512692,0.0103405931,-0.4377200598,0.8026696546,0.1823889252,-0.1631516133,-0.4857558595,-0.8472703833,-0.6342712723,0.8186403425,-0.9450276474,0.3310022742,0.746159574,0.3013532125,-0.8538842714,0.8141526636,-1.1329907817,0.0767181769,-0.8806400735,0.6615360207,0.2936990245,0.6559345157,-0.6126669327,-0.5758287397,-1.0369357589,0.2768961097,0.8941155384,0.2061395988,-0.8365472953,0.9891945621,-0.1004738107,-0.4546673119,0.6529614085,-0.1137889898,0.2993195181,0.6789760613,0.4477125325,-0.7517665814,-0.1005028228,-0.558338661,-0.4836546213,0.900820355,-0.5090908393,0.0715837522,0.804800161,-0.1217895105,0.5127131464,0.5022787373,-0.0203432868,0.2864852496,0.6820735198,0.8280997215,0.4374702626,0.6184149359,-0.371868521,0.4288320995,-0.1553915225,-0.1528569117,-0.1021326908,-0.2517493531,0.299456501,0.6141593869,0.7856757283,0.4329436975,0.1289741785,-0.8065516239,-0.1726633026,-0.4991449963,0.0308364004,0.3256999781,20.5659619265,11.3373012146,-844.1632902435,-0.5494239046,0.302969896,0.0933133155,-0.303981229,-0.4063736192,-0.9541853045,-0.8230599572,0.590737706,-0.637730878,0.4678371619,0.7412882959,-0.0524249799,0.3636098475,-0.9290763579,0.7305132047,-0.6680729709,0.6266543337,0.4245109256,-0.5436383356,-0.267712329,-0.3569970841,-0.2471317136,0.2632747694,0.8412413993,-0.7680334287,-0.1278307194,-0.1285202118,0.5866413474,0.7706493888,-0.7885117628,1.0025911898,31.3852349841,-0.1135153253,0.2265973217,-0.9160610062,-0.326195256,0.7585382602,0.8336022406,0.6488955435,0.88594931,0.3783858917,-0.0092279562,-0.5477715082,-0.634905419,-0.3366582614,0.4323081795,0.1230780504,0.6074910396,0.7741007797,-0.2266412755,-0.281131884,-0.8971354192,-0.5051925886,0.4468439404,0.9146089344,-0.0828427874,-0.5902475873,-0.4378462271,-0.7884555716,-0.1706590329,-0.0207467773,0.4479106913,-0.9029455523,-0.0526864099,0.8526815901,0.4188979584,-0.322588342,0.2015029191,-1.0851142754,-1.0291020891,-0.8498141242,-0.39614787,-0.8560707455,-0.5848836957,-0.8385744747,0.7128253331,0.5476104408,0.6153027663,0.2894242707,0.111833852,-0.0008583896,0.7138725921,0.7195359317,-0.7224095421,-1.1773002012,-0.2478335171,0.1977911738,0.6399388525,0.2920263756,-1.0633096312,0.4670258544,-0.435923975,0.6505891049,0.4063662685,-0.7475387701,-0.6170971003,-0.8818409712,0.0654674187,0.9603369472,-0.1513181546,1.0605481227,0.0864563945,-0.6103641701,-0.5787313883,-0.5622098483,0.2822535911,0.4672063117,0.0946261647,0.9537313284,-0.8538590778,-1.6416868319,0.1828361796,-1.0349242787,0.2991153192,0.0655440179,-0.8374058362,-1.3368033492,-0.5595897997,0.8805287823,-1.0339256847,-0.1579223775,0.0511182544,-0.3521546655,0.8083682764,0.7328458015,0.2958264622,0.6551670063,-0.8410710276,2.3014686058,30.2777072739,-845.249686164,-0.8612958228,-0.2489737807,-0.1330490305,-0.8933677109,-0.0300798399,-0.6680154851,1.0264279961,0.9045839422,0.9667315518,-0.7007120494,-0.6070634108,0.5405570942,-3.14800547,0.1923729578,0.6372265416,-1.0407132348,0.6016433734,0.1010819665,-0.238700639,-0.6140738195,-0.4634776136,-0.0712215152,-0.7119678634,0.4936336404,0.3469649696,-0.6523752263,-0.2851467097,0.864963235,0.7766666991,0.9032087266,0.8813954275,26.3637209292,0.0035781924,0.6229135034,0.1852449769,0.9036940256,-0.1660173441,-0.202171945,-0.6398335723,0.5385523556,-0.9402985643,-2.6136422438,0.8546027172,0.4013716378,0.664839654,-0.770664272,-0.8634390996,-0.764948295,0.4011212411,0.3992979831,-0.7552709775,0.3033577425,0.552499519,0.3897571932,-0.7105994899,-1.7087571159,0.3036819486,0.0807831116,0.5388379535,-0.4852462056,0.9173795737,-0.1572655507,-0.7548711742,0.2918646607,-0.10968156,-0.3784077319,0.3295778065,-1.4008665329,0.9324921585,-0.9084394411,-0.9455941073,0.894111739,0.6638566027,-0.2088666811,-1.1009123002,-0.4309670794,-1.055215953,-0.5217078881,0.7529312229,0.1117146722,-0.8978728702,-0.7428290874,0.9063207812,0.5413380193,-0.1418498711,0.1676935356,-0.2459731606,-0.824095721,-0.441482836,-0.1189027955,-0.2327580029,0.0280859418,-0.0512057452,-0.714769795,-0.893092069,1.0010388143,-0.0526836866,0.2264041372,0.9509499184,1.0591230723,-0.7649181576,0.6878919874,0.3321343243,-0.4420578412,-2.2696826513,0.7328685221,-0.2010245706,-0.5958934541,0.8970149396,0.5767858117,-0.2853595267,-0.3888428742,0.4811504916,0.4731462403,-0.717118469,0.6093725658,0.120381575,0.1075003564,0.2722073254,0.7333788989,0.8313380721,-0.3788277012,-0.536752006,0.5415300962,-0.4984840573,0.6609169722,-0.39767842,0.7886747169,20.8902748139,8.2184364082,-844.8651434406,-0.6659526389,0.5207140437,1.0175950236,-0.946881352,0.4356390014,-0.3591682173,-0.2682384238,0.0658822307,0.422391304,1.0301004282,0.3117035635,0.4861150074,0.314217879,-0.084914202,-0.3404711986,0.8784651138,-0.8005060314,0.8540519484,-0.8158828824,0.6576547291,-1.0255266759,0.6335763474,-0.6500336463,-0.895476419,0.8572209869,-0.7502013478,0.2688874526,0.9940580929,-0.1672512386,0.7433323256,0.7855980025,19.4338238838,-0.0428737483,0.6644549384,0.7028333351,0.056938719,0.9449615917,-0.5983721476,0.6050247977,0.1351811981,0.8919362509,-1.0523626077,0.8674945432,-0.3947677726,-0.6330488352,0.1709401464,0.1890359546,-0.5074229044,-0.6063842043,0.4062157564,-0.2086174165,0.9334966062,0.5491995177,0.2418005962,0.69829727,-0.034659686,-0.6731556101,-0.1686056587,-0.0002356885,-0.3962368229,-0.3709493747,1.0458325291,-0.9283053478,1.2720380177,-0.1673023161,0.1013260301,0.8784235381,0.1873819158,-0.6972380177,-0.1437523519,-0.323945372,-0.2043144644,0.9518685357,-0.7354629964,-0.144613728,0.5197788542,0.3865861948,-0.6682206579,-0.84229413,-0.7643119468,0.216045467,-0.713188192,-0.5830603111,-0.5637647314,-0.1494654056,0.8188036835,-0.362603293,0.3025699636,-0.3800984016,0.1051211633,-0.6467671391,-0.9208359694,0.1394387636,-1.061404053,0.8767935755,-0.5211682188,0.842481022,0.5147474748,-0.7396598932,0.7314251259,0.142796067,0.6094682816,-0.2501512029,-0.4023570725,0.5166314621,-0.7322858256,0.5698928971,0.5876764371,0.4942998299,1.1684264736,0.7302408992,0.2397211105,-0.0427619436,-0.4856388864,-0.9532794311,-0.5533717234,0.9001272991,0.0267581284,-0.8102565161,1.4134599938,-0.2977397939,-0.3922681809,-0.687914482,0.3926264036,0.2797198571,-0.1383802479,-0.8674025418,0.2870251064,-0.4639772773,-3.9119826317,794.0974670015,-1.3162705263,-0.8793344656,0.3668882702,-0.4288883009,0.3917337154,0.1578414077,-0.4477093231,-0.2203811138,-0.8800084164,-0.8494664915,-0.9604024232,-0.3079489224,-0.2954816215,0.3435209406,0.6386234033,0.2876310922,0.7191660847,-1.0193144237,0.2435130868,0.9872097791,2.8898735834,-0.3645119084,-0.1520843867,-0.6693048892,-0.0379099131,-0.8592897802,0.8710238752,0.439864963,0.1700214624,0.951976137,0.4778647778,-6.3505246414,-0.5686686485,0.073117448,0.1784480708,0.4978653202,-0.7128072389,0.9923937883,-0.4432214419,0.2243337786,-0.2841290961,0.3808353242,0.2919414,-0.2502218388,0.6917195443,-0.6781528872,-0.3246936349,0.641174628,-1.0182105344,-1.1663360163,0.5983280582,-0.3017534758,-0.0252783254,0.5378580593,0.9088936556,-0.997282357,-0.7249606895,0.9806841843,-0.8879998699,-0.1259756157,-0.7163867858,-0.6730326739,0.0093069811,-0.0993613546,0.0245538115,-0.7417939577,0.233171979,0.0582983946,0.5222050157,0.1985554391,-0.676461755,0.2495665963,-0.8110177514,-0.0590559514,0.3912210809,0.2838792538,0.1676535557,0.4651026971,0.4224072083,-0.5573065301,0.1147694124,0.406455168,-0.1032635908,0.3677015963,-0.5261731204,0.4152948689,0.7504497037,-0.1862536675,-0.373429731,0.5058854746,0.4420040534,0.6564994818,0.8027397616,-0.3150606598,-0.0954251419,1.0289624217,0.6799519947,0.74762594,0.6796791981,0.6780842009,0.5982673612,-0.166072597,0.7896056294,-0.8441976449,0.2041887613,-0.8228698859,1.1545596787,0.1640758421,-0.243638912,-0.7384818973,0.4859187406,0.400552046,-0.7393110681,0.4269946826,0.0320105538,-0.454136794,-0.3271768887,-0.8085959881,0.6292117625,0.1431861129,-0.2797497975,0.6424761723,0.5635486223,0.5545750139,-0.9401932612,-0.932373403,0.0916581267,0.4746639607,0.4776291871,-11.3836808373,844.0053079636,0.7290688489,0.3523066466,0.6253963251,0.5528337576,-0.7082523133,-0.7216516112,-0.5206003257,-0.341676353,0.3861396997,-0.4804993208,-0.5092330217,0.5184975575,1.7225224827,-0.9477537539,0.9896476082,0.9710592736,-0.1309846364,-0.0194278083,0.7361039545,0.4728107565,0.679569503,-0.8018167319,0.4215482659,0.2811675974,0.3967487817,0.3423272834,0.8588910618,-0.1106083136,-0.734079507,-0.0836617679,0.4676457138,-25.8086195456,0.9805749419,-0.8372123628,-0.8987900654,0.3424008205,0.4943556392,0.4735146671,1.0353924812,-0.536447665,-0.4112083596,1.0594079073,-0.1456866435,-0.6361446343,0.1211461947,-0.5631150167,1.227775306,-0.0488914315,0.5481148221,-0.5769121413,-0.7602020594,-0.5444311949,-0.1872065594,-0.0162545394,0.0436959183,1.125752725,0.7618533661,-0.0801080302,0.4518137201,0.2301791985,0.6373946647,0.3859480226,-0.5546956988,0.0913213465,0.0572132267,0.406982774,0.5798146652,0.6870577571,-0.0805397144,0.9219259657,0.7404470857,0.4699796105,-0.9112516821,0.3433820537,0.315458188,0.6318558236,0.3078236473,-0.7795981663,0.3834278732,0.0097667698,0.1445595789,-0.6205081911,-0.2943393553,0.9658129399,-0.1644606695,0.1578502129,-7.4052088506,-0.6519046675,-0.8308274133,0.2754043152,-0.6793453589,-0.752942973,0.1251279446,0.4429134128,-0.0744992025,0.2877719243,0.450110656,-0.3127059441,0.4320430727,0.7744784027,0.4881412735,0.1801197244,-0.2394859734,0.5698273299,0.0576920151,0.6053312582,0.8888323974,0.6349134701,0.7286761706,-0.3316647002,0.8570643299,0.6575508518,0.2017358808,-0.1101918132,-0.3885479534,-1.0071793453,-0.8849912307,-0.6570644697,0.0127188092,0.7175800453,-0.0667771544,0.2023738706,-0.6058994998,-0.417908437,0.2735032346,-0.6287677078,-0.2649705807,0.5442680467,-0.4772158124,26.2665216252,-844.0071067589,0.7064168977,-0.7404102358,0.6042802289,-0.9991459169,-0.3838293058,-0.7494206025,-0.7644824896,0.5049971539,-0.1501820114,0.1404538377,-0.5634078344,-0.7623180335,-3.5459899852,-0.8326987098,-0.7859223424,0.9089504214,-0.2355014248,0.1256776267,0.8829997757,0.6132894867,-1.3334689607,0.5729334336,-0.7616216218,0.01480318,0.5832772383,-0.0372687435,0.7302376857,0.8821009283,0.1539273203,0.2174859583,0.643615165,26.373474052,0.8125178178,-0.2015163079,-0.1293079883,-0.2353171785,0.631182547,-0.5324654048,0.4698209014,-0.7274483862,-0.58402064,0.473237719,0.6568167076,0.8557199701,-0.3734875094,0.2694250732,0.0020056949,0.1456438843,-0.7509990774,0.7992157871,-0.0009682242,0.1808354446,-0.6831285453,0.3931907452,0.0391379846,0.2970633637,-0.7414597199,-0.5387478322,0.2643246739,-0.1259786989,0.5952456417,-0.2362645213,-0.7619968368,-0.7588070211,0.5510069355,0.7307738936,-0.493812196,-0.5588743712,-1.7980614982,-0.6635798179,-0.4198260112,-0.2573410064,-0.8194985899,-0.7818287122,0.0696260369,1.064363683,0.1498702624,0.9086185168,0.8802257121,-0.4745413679,-0.6932597993,0.4601361548,0.2010427271,-0.5568848214,4.4583574079,0.2261310921,-0.7837278921,1.0423851617,-0.1161899755,-1.0869240654,-0.7903439661,0.5773626736,-1.1958685009,0.0016882564,-0.661809336,-0.2947757209,0.4627835449,0.6147372688,0.4220728331,1.0131781248,-0.3626008566,0.6606295947,0.1266624182,-0.3442002952,1.0488311947,-0.7336238518,0.8680738077,-0.0208738135,0.1536295952,-0.1422723361,0.2972923282,0.795310981,0.1760236614,-0.9005563268,0.5288719036,0.8875793231,0.4298270372,-0.0502997858,0.6773780893,0.2956098052,0.1249167639,-0.7057895536,-0.4567850485,0.4761732627,-0.4118048547,0.519162071,-0.73692952,0.3226339153,-0.7589432456,4.7265242911,-844.725109789,-3.8093396078,0.3974713569,-0.3187627938,-0.6945410842,0.2269527139,0.0555589769,-0.475051983,-0.0435111047,-0.6930662024,0.8037311209,0.7831708821,-0.5621800509,-6.4283552551,-0.2181203232,-0.6666991698,-1.016334769,-0.7053077865,0.410610636,0.883565974,-0.5004278844,-0.5581343847,-0.8915281998,-0.2597282023,-0.8592773061,0.4549690071,0.0675916158,-0.6120812098,-0.135672643,-0.2419292481,-0.0929372784,0.0880065289,31.3184546472,-0.8524643038,0.7020187854,-0.577760842,0.0055512951,-0.4328253589,1.1026199856,-0.8439074256,0.7389617122,-0.9794605744,-0.7654425034,0.4850409053,-0.5259567632,0.3525436028,0.4615238908,-0.6808855608,0.884379829,0.0908600955,0.1879482319,-0.9158587002,-0.0051705407,0.4441685351,0.1696688168,0.619182011,-0.3913868791,-0.6833011114,-0.2320766957,0.6417303618,0.4441847583,-0.2325370862,1.0413585251,0.6830329466,0.5644036462,0.0581880833,-0.1889319147,0.5851337199,0.9736505191,-0.1099385512,0.7253022714,-0.7257863628,0.3620738868,0.0821818763,0.1836878773,-0.3474064635,-0.4801287955,-0.7630731697,-0.5572571372,0.9899297681,0.8053609887,-0.104863716,-0.3268832009,-0.3712359157,0.3014283989,-0.4691973568,-0.2887992131,1.437186693,0.0919394365,-0.9908127345,-1.2778374637,-0.1290466701,-0.015473378,-0.6897440683,-0.0502835004,-1.0819196779,-0.8926812426,-0.0307931741,-0.2392104173,0.2079244913,0.966210906,0.6274893773,-0.3700097747,0.1241183356,0.8244466149,0.2930965708,0.7819819272,0.9047531586,-0.378716127,-0.0216963523,0.0320932451,0.7476308591,0.4719505882,0.0871923531,-0.9839875666,-0.2422075385,0.8538463098,0.420029159,-0.8127402176,0.1923006472,0.9155987984,0.6338639291,-0.5554762245,0.9297037192,0.9697226878,0.1680065274,-0.5388589115,0.6995928706,-0.9583555385,-0.1821435155,3.2455684196,-844.2247318941,-3.1342045598,1.0601733622,-0.2166876387,0.5418558523,0.1515938024,-1.0274713243,0.1307618422,-0.4573736504,0.7894349122,1.0638388185,0.6167731251,0.3781972942,0.2605811223,-0.4776395021,-0.2714634448,-0.8464097158,0.072665255,0.2180716219,-0.7961735805,-0.6214743662,-0.3694386491,-0.8178831183,0.8533640741,0.6376443068,0.9112171777,0.2313277812,0.466938703,-0.2906817916,0.9824206109,-0.073075288,-0.4181232398,36.0151562819,-0.9220644485,-0.4336305187,0.180066493,0.7728622477,0.6739627038,-0.4194101432,0.5628979739,1.0522131229,-0.8091214186,-0.4965494598,-0.7731278529,-0.7280711874,0.1766809885,1.075115483,-1.0770291814,0.1127902391,-0.6628293507,0.2652367109,-0.4370709538,-0.5706767694,0.9333030128,0.3923201628,0.7313013352,-0.3432383828,0.7690232955,-0.268784126,0.234183801,0.0042240074,0.0904378337,-0.0625296164,0.6922881857,0.4342788913,0.6734171978,0.3538807097,0.2402427551,-0.8760258745,-0.7309329321,0.8829843486,-0.0341224386,1.0183420146,-0.580068032,0.567350407,0.8561952155,0.8835640642,0.6513714606,-0.3960234629,0.0532913224,0.1659823624,0.8477236501,-0.0087222505,0.5583230576,-0.1863896726,1.0269916374,0.010521245,-0.1382007152,0.3978014584,0.2448458507,-0.2212543526,-0.0452914664,0.8078216087,0.1127843189,-0.4369679271,-0.6293055948,-0.5664963136,-0.4755286959,-0.0188680822,-1.0373583013,-0.1342145251,0.6541183194,0.7356268829,-1.0154136013,-0.6175419722,-0.3366552107,-0.0964781545,0.5219890971,-0.5924932215,0.0897239876,0.0602793672,0.6135835622,-0.4401631488,-0.2888248013,-0.1039716248,-0.290623558,0.7787579177,0.4863851558,-0.3503335662,-0.3457635877,-0.8561209803,-0.0297103684,0.2446545572,0.1575609501,0.6323889861,0.2641549152,-0.2256096731,-0.6419469935,-0.0408909938,-5.688853133,-3.1999494329,844.5663186176,0.7739766385,-0.1822996812,0.6069485464,-0.3771490317,0.148947867,-0.0807863839,-0.7210206145,0.8053333268,0.2306527822,-0.9909956854,-0.8500329357,-0.8892851292,-1.3259686126,-0.2372919262,-0.9323911764,-0.5614281391,-1.1527940413,-0.8108791099,-0.8600186537,0.8584560667,0.3105470549,-0.1196852293,0.0434683749,-0.7224407119,0.5373423199,0.2138193704,-0.7230300476,0.4501152579,0.7690447542,0.0068300322,-0.4796719882,-30.3985336639,0.9306660105,-0.0228247281,-0.6507529489,-0.2281211414,-0.0173109367,-0.7729856205,-0.8310168055,-0.6398655717,0.3295729195,-0.0052331134,-0.3933661386,-0.432792846,-0.6630362151,0.8534250384,0.9152588359,0.8035845649,-0.0545732553,-0.6885465092,0.1964534547,0.5056795926,0.4055889671,-0.4118257851,0.7169250157,-0.3181457835,-0.8085087313,0.0633865927,-0.4359273297,-0.2976534566,0.2623011362,-0.177201421,0.1127281155,0.134701086,0.0178392987,0.676972843,0.248432636,-0.9210682651,-0.2586807311,-0.2484910953,-0.4569996513,-0.4995032955,-0.5734900766,-0.4006981487,-0.2015576793,0.6216544503,-0.5075326134,-0.0203902078,-0.0610450342,-0.3651874842,0.8194180502,-0.8229199834,-0.3582919353,-1.0427401664,1.1006059034,-0.5797206066,1.2971172362,0.4825102657,0.6461424266,-0.4292311396,0.5836060877,0.583823145,-0.3899343763,-0.8715006627,1.1905813118,0.8634420483,0.4055126477,-0.1018172566,0.7379966621,-0.7950324398,-0.0736009913,-0.5386162915,0.4570159363,-0.7693465678,0.9186715055,-0.8327216508,-0.5700518412,0.6873933206,-0.6037262177,-1.5605328388,-0.8681591363,-0.1365255657,-0.2453777325,0.8379741329,0.8295716521,0.953518691,0.5705182496,-0.778095289,-0.8815477929,1.4581566272,-0.4573687639,0.8155185465,-0.1321751186,0.0164676265,-0.5767716864,-0.7281786317,-0.8989933669,0.3658767387,-0.2588232563,-4.1543109628,843.9820291296,-5.679593656,0.6155330704,-1.0179999749,-0.6630339977,0.1791829377,-0.9073591249,-0.1234438532,1.0601968843,-0.4801404915,0.2145263926,0.5743414636,0.4860443143,2.2340430503,0.05247512,-0.2422979558,-0.0314577899,-0.7364065182,-0.7718832373,0.0901360749,0.238733259,1.6262347207,0.309720347,0.5631366748,-0.8078296319,-0.3540268278,-0.067929385,-0.1002540415,0.0341828749,-0.2129508512,-0.2516782066,0.6487393519,-19.098997364,-0.307783796,0.0495914179,-0.6201487627,0.3385656673,0.4152838916,1.1644682459,-0.6497522643,0.4121754676,0.3159736755,1.8266466609,-0.7850867891,0.7593081931,0.3829446867,-0.4870932392,-0.1205391201,-0.3861578787,0.7200855601,0.7790571465,-0.7503499862,0.9114518479,0.0597725571,0.3383612667,-0.0763228183,0.3485636395,0.7663525599,-0.9700332674,0.9409327392,-0.0449729596,0.2491138795,-0.0061480982,2.1329142445,-0.3721941656,0.0638035834,0.4693155799,0.6633136517,-0.7734061815,-0.855980698,0.4106725055,0.9534518115,0.3350155815,-0.5599834467,0.682979892,-0.0950831392,0.463560008,0.8746769831,1.4766043098,1.0373483902,-0.0346622711,-0.0013619811,-0.2207668246,-0.8195425226,-0.5989810529,1.6947806847,-0.2787604462,0.9969988552,-0.169103044,0.2839353272,0.3817313912,-0.780829025,0.3327488083,0.4007337035,-0.5781378674,0.268648568,-0.0980615968,0.8418032031,-0.8851940099,0.9884641736,-0.2769828437,0.2010864399,-0.343681527,0.2715672976,0.6879582759,1.2699978236,0.5208268357,-0.6317846625,-0.6770806902,-0.710785268,0.3994086614,0.6524032022,0.2836430681,-0.8031708737,-0.6978060867,-0.535661098,-0.6942058285,-0.6970840743,-0.6572295772,0.4088626253,0.4039714157,-0.3128950659,-0.1994697226,-0.8408733066,-0.9089665532,-0.1252703602,-0.7739683497,-0.0601661195,-0.996978389,0.3611318391,4.0450577837,-1133.9908005644,-0.7855828583,0.3134848737,0.9730924849,0.0924166072,0.15111889,0.1687406172,0.5264793364,-0.2536684053,0.7964281786,0.2920777798,0.5482689198,-1.2001228456,-0.2681025506,-0.3788931628,0.8185279905,0.1511628213,0.8877688918,-0.5007514045,0.6021931376,-0.7543549875,-1.3475691524,-0.8587132908,0.4022668311,-1.0445135161,0.0099495981,0.3584162736,0.5277864499,0.101358318,-0.8235090425,-0.2817039707,0.3551091837,28.491858822,-0.4008889184,0.7319206275,0.279337753,0.5777817633,0.1843300392,-2.1959190397,0.0187357245,-0.659660147,-0.0853455303,-0.5613470277,-0.2390306497,0.550687192,-0.074494332,-0.2092930947,0.6337135959,-0.6407097055,-0.5335437377,0.7004621637,0.0066374669,0.5308070299,-0.8551498711,0.3680555597,-0.8375752259,0.7840251812,0.3282264888,0.6421985317,0.1432341848,0.5057995296,0.8560221457,-0.607904186,-1.2457935597,0.1234519887,-0.5579045855,0.8164723704,-0.4978387814,-0.2353884965,2.401343113,-0.4937504412,-0.666566798,0.4295050261,0.5921728315,0.8318193685,-0.2312412115,-0.6931388766,0.1495220048,-0.7464526742,-0.247435381,0.8438004886,0.8049458257,-0.2356526757,0.3251540343,-0.4806634437,0.6906202325,-0.0068089002,0.7723014743,-0.3989992795,0.5989577127,1.1470498278,-0.396640565,-0.1395442455,-0.0474489227,-0.5122837628,-0.1537002964,-0.9834568319,-0.2464956447,-0.4348850167,-0.6023619325,-1.0513821976,0.9259286176,-0.666684259,0.3408262811,0.1124551096,-0.7211305098,-0.6265354446,-0.0632080084,0.8057928054,-1.0382454246,-0.6252118698,-0.4036429192,0.0946928,0.0349088013,-0.6335702683,-0.3185577927,0.2514498938,-0.131010149,0.7273721508,0.2720732669,-0.2141405324,-1.1657170341,-0.8346279041,-0.4269687026,-0.6236221295,-0.3929414906,0.0104779536,-0.2660174324,0.1786105701,-1.9331161312,-3.346741168,844.2229701334,0.5980542937,-1.1261502427,-0.0789445798,0.0606967962,-0.7666946631,0.904890092,0.6438957623,-0.6590739098,0.182002432,-0.038084999,0.7806272737,0.7500152369,-14.313153744,0.309749045,-0.2416584996,-0.4456974654,-1.0801268352,0.2512867999,-0.5356397413,2.3550013549,-0.2694731348,0.2878120894,-1.0565090414,0.8573352971,0.5502913565,0.5581024418,-0.1520277991,-0.7429986138,0.1954393753,-0.8917173194,-0.7476169745,-25.3310349935,0.9329170881,0.5605044573,0.3380774961,-0.7018738909,-0.6789322363,0.6487614252,0.8951711617,-0.1351451587,-0.8866036716,-0.1328887205,0.6355863328,-0.530855388,-0.3446984951,0.5786405992,0.524651036,-0.3819712544,-0.0727564228,0.4880967017,-0.6871372479,0.5589181949,-0.0718994285,0.165569158,0.4001438201,0.1123490121,0.6048490984,-0.1277574291,-0.5300155713,0.0778170867,0.3896050687,-0.9588028538,0.3265198647,-0.6739937612,-0.698197356,0.5540965022,-0.5239322248,-0.6795405438,-1.2581445481,0.186025504,1.0448418737,0.8286038968,0.1326453534,-0.6018950992,0.0356794691,-1.0444688019,-0.6449201655,-0.5898808904,0.1235508285,-0.2202179322,-0.3387620644,-0.0963158791,-0.0927353249,0.6028326537,0.2525123117,0.4341359942,-0.3571497245,0.6381559275,0.6440831141,0.7641102514,0.2221269829,0.8325681451,0.2779091783,0.4001814585,0.3343045274,0.006544641,0.8164811586,0.1469162377,-0.8316940531,0.3843086086,0.0525402019,0.1845981841,-0.7445873055,-0.1220983879,-0.057201417,0.3935380171,0.870279209,-0.6028386969,-0.6899371815,0.8950926029,0.6742819924,-0.6938395259,0.8903839304,-0.4693677612,-0.1001241264,0.6312057215,0.2563833992,-0.400213874,-0.0774245274,0.2097235687,-0.3215723822,-0.6426208177,0.7987581198,0.6334853778,-0.1379956645,0.4667709583,-0.1944978772,0.6857036108,-2.5169415176,-13.5454037919,845.5288563133,0.3869803777,0.4978215185,0.8908612611,-0.3001308572,-0.6795575696,-0.1289195987,-0.193214068,0.9460270784,-0.5220750166,-0.3448302764,-0.6386565467,0.4067056827,-1.1371568139,-0.2809846007,-0.614937581,-0.8155327884,-0.4848524652,-0.6991125798,-0.1707640833,-0.074130568,-0.5145832124,-0.3247852679,-0.2530742659,0.0961434808,0.6225630227,0.4199821904,0.5014265456,0.197581966,0.7708254354,-0.4391609817,-0.1700382277,-25.3786642667,0.8411895864,0.0294763732,0.973521468,-0.5145418742,0.5182209986,0.3819255699,0.8350509033,0.6663219967,0.0387679539,-0.9168533585,-0.2722012375,0.4153850975,-0.0554645512,-0.2281195411,1.1190909907,0.2873367723,0.4290038723,-0.8719072748,0.6199299936,-0.0754919399,-0.2399212383,-0.0037699969,0.7766716474,0.1598805658,0.7786079911,-0.1260157682,-0.6134716604,0.7724598592,-0.7503249229,0.1318654329,-0.7072261628,1.0264728733,-0.8703026017,0.7294671334,0.6035615963,1.0246261698,-0.9238388826,-0.8414196551,-0.4125185812,0.1347274208,1.0060987047,0.871925714,-0.5376920427,0.2415038788,0.8713181028,-0.7310574547,-0.5168137125,0.2232544517,0.3499390937,-0.6541643745,0.3835262425,-0.804432721,-4.0931116515,0.7666927923,0.9976292751,-0.5512024559,0.442298718,-1.2047346067,0.9165179782,0.1280174108,0.2735474052,-0.279297542,-1.8550580545,-0.4874805376,-1.0208955306,-0.4324868006,-0.1596782883,0.4781691489,-0.9409042521,0.8278039003,0.7557790972,-0.9300581106,0.6507729128,0.3917316237,-0.2193036567,-0.5751451732,-0.7993928443,0.5288732224,0.4839284401,0.194329349,-0.1928556722,-0.2671705784,-0.0212636328,-1.0034448152,-1.5386575452,-1.0354565507,0.836683259,-0.4604955162,-0.5747819357,-0.8866307232,0.8485046873,0.8748891046,-0.8133483469,-0.1061223419,-0.4089193042,-0.8685675128,0.0346621139,10.1213484876,-845.0914987164,0.9639025443,0.7952822645,-0.481438831,0.5574777744,-0.4034937786,-0.5587099504,0.071834136,-0.4686785322,-0.4287113331,-0.4572147062,0.6040439832,-0.0050195731,-0.5258321128,0.3621148714,-0.5608834542,-0.3910964687,-0.1751391258,-0.5051504324,-0.2590495057,-0.8065517311,-1.0436678668,-0.3223929533,-0.9093307888,-0.6846418581,1.102426809,0.9120852386,-0.6411056906,-0.1269522286,-0.106217229,-0.465957708,0.81222669,37.2453097668,-0.1131968625,0.9217241656,0.15500561,-0.6937220698,0.414083245,0.7121470513,-0.6079069368,-0.5571914674,0.6786603452,-0.0025565317,0.0126379255,-0.4529793247,0.7834978156,0.2589787314,0.640418724,0.4670400887,0.2855353316,-0.9628250257,0.9202711308,0.4627305901,-0.9086395702,0.5042340406,-0.8491545894,-1.4760981223,-0.8592259073,-0.0258439161,0.7562578719,-0.2783649393,0.1572549884,0.1320812632,0.2234233253,0.58164044,-0.2110434622,0.8293997566,-0.8382525194,0.61087482,1.1302274329
