encog,BasicNetwork,java,3.4.0,1,1615234715512
[BASIC]
[BASIC:PARAMS]
[BASIC:NETWORK]
beginTraining=0
connectionLimit=0
contextTargetOffset=0,0,0,0,0
contextTargetSize=0,0,0,0,0
endTraining=4
hasContext=f
inputCount=130
layerCounts=1,131,131,131,131
layerFeedCounts=1,130,130,130,130
layerContextCount=0,0,0,0,0
layerIndex=0,1,132,263,394
output=0.7457688866,0.1986650947,0.8736368613,0.981350684,0.0068688315,0.015064803,0.0750510166,0.2358937754,0.7116918068,0.0002171851,0.9584693029,0.0045137952,0.0000000001,0.9990033437,0.1284997751,0.0000000006,0.0002669824,0.1177626406,0.1094697962,0.9962599298,0.215434659,0.0450565138,0.850347565,0.0026434601,0.002060365,0.800879766,0.1521322482,0.9671276547,0.8734284975,0.0000326456,0.1191084012,0.8701706342,0.9927493927,0.0005238784,0.2616346827,0.1648294474,0.0232333559,0.4552212725,0.7196315327,0.4779628591,0.6215037656,0.2503638728,0.1005462516,0.0527867175,0.0181666213,0.0115041584,0.9667772616,0.7076441181,0.0096850105,0.0051330725,0.0800048455,0.1140096605,0.4427597312,0.2588676398,0.7425326462,0.0185164419,0.213078338,0.9767762496,0.9906901328,0.9995021649,0.0010716035,0.0376600271,0.708616871,0.9672954903,0.0086015535,0.0151986067,0.0711757908,0.0168406536,0.1983734907,0.9181233944,0.0139803153,0.058601703,0.0208662242,0.3620869228,0.0134333478,0.0105225895,0.2671554802,0.006566662,0.0348875958,0.9929882886,0.9067093646,0.0016769706,0.0010036697,0.9853795558,0.2423237549,0.9362675879,0.0119534363,0.9889822981,0.5301816995,0.9645042599,0.1544575919,0.4820479043,0.9725759138,0.9341633536,0.0883339481,0.0049466253,0.5002186446,0.0517355174,0.1528082542,0.1918021639,0.0123617598,0.9963036542,0.0761484253,0.3443654974,0.0020023135,0.9988358837,0.7583048256,0.893864541,0.000256537,0.9874815669,0.1097477234,0.00006088,0.9556583076,0.0000191419,0.0058255583,0.9349269145,0.1534958795,0.2106791188,0.0067716503,0.061070795,0.0023374883,0.9685449164,0.0983515281,0.4862874752,0.8631943664,0.9921561577,0.0025996663,0.0759825278,0.9562342609,0.0062566447,0.8023162652,1,1,0.9998584308,0.0070859242,0.0000001418,0,0.9999641688,0,0.0000091507,0.0000514552,0.0079487333,0,0,0.0031830702,0.1992775249,0.0000000049,0,0.9999625397,0,0.0043056586,0,0,0,0,0,0.0034889658,0.4848937339,0.0045200296,0.9865845277,0.0000871302,0.9375720778,0,1,0.9749476008,0.0000000032,0.9994491526,0,0.0000069081,0,0.0001507938,0.8189193489,0,0.0000143884,0,0.1146635409,0.9999943757,0,0,0,0.0000000007,0.0000833035,0.0000032813,0,0.1429885524,0.9947521968,0.8936009859,0.0426668325,0.0020508124,0,0.0000001756,0,0.0000082751,0.0000000167,0.0007811774,0.9999999993,0,0,0.0000011624,0,0,0.70052288,0,0,0.0000000793,0,0.0000794281,0.9951484364,0.0000737146,1,0,0.8415395533,0,0.0616383352,0.9527826145,0,0,0,0.0353267258,0.1452745384,0.9506606038,1,0.9987869063,0,0.0000000424,0,0,0.000089064,0.00845561,0,0,0.0000515143,0,0.0000020749,0,0.9954304926,0.0000102175,0,1,0,0.0002911309,0.0000000002,1,0,1,0.0015619545,0.0122755204,0,0,0.0000603045,0.0000385299,1,0,0,1,0.0339253035,0.0004997138,0.0007169729,0.0320863629,0.0230337441,0,0.3305748088,1,1,0.9889636935,0.0000065017,0.9955311948,1,0.6189427669,0.0001089582,1,0.0000478202,1,0.02806587,1,0.9999999988,0.9999999172,0.9993203954,1,0,1,0.9999999952,0.9804578438,1,0.999162444,1,0.9999943744,1,0.99481364,0.9999999479,0.9815591011,0.9264774712,0.9999576724,0.9894246758,0.0003785411,0.00000927,0.8806973257,0.9919190991,0.9999398342,0.0018035866,0.9997004112,0.0001758203,1,0.0006399342,0.9212501801,1,0.999995292,0.9995720314,0.0171225967,1,0.0012756645,1,0.0000004238,0.9801597659,0.0313090357,0.9974772282,0.9958548508,0.99993885,0.9997490106,1,0.9990408913,1,0.9992408343,0.9999999961,0.9999999943,1,0.0001247217,1,0.9955178777,0.0000323383,0.1053296607,0.7667140797,0.9978878533,0,0.0000000001,1,0.9999999547,0.9997824562,0.999891172,0,1,0.0000033385,0.9902417063,0.198535258,1,0.9621557667,0.0000000237,0.9969389054,0.1034867768,0.0001291706,0.0002767125,1,0.9999998744,0.9999811211,0.8099199913,1,0.982807718,0.0205433073,0,0,1,0.9838835727,0.4310062867,0.7617024868,1,0.2912858402,0.1125831213,0.9984343449,0,1,0.9999646946,0.9999194892,0.0000187149,0.780977248,0.9556773688,0.999770157,0.0000037708,0.9999980873,0.1653980154,0,0.0000006424,0.9999999866,0.0000155539,0.0000082827,0.2298879079,0.9963350932,0.999979015,1,0.0012733024,0.5803852481,0.0239501322,1,0.9999993454,1,0,0,0,0,0,0,0,0,0,1,0,0,0,0,0,0,1,1,1,0,0,1,0,0,1,1,0,1,0,0,1,0,1,1,0,1,0,1,1,1,1,0,1,0,0,1,1,1,0,0,0,1,0,1,1,1,1,1,1,0,0,1,1,1,0,1,1,1,1,1,0,0,0,0,1,1,1,1,0,0,0,0,0,1,1,0,1,1,0,0,1,0,1,1,0,0,0,0,1,0,1,0,0,0,0,1,0,1,1,0,0,0,1,1,1,0,1,0,0,0,0,0,0,0,1,0,0,0,1,0,1
outputCount=1
weightIndex=0,131,17161,34191,51221
weights=##0
##double#51221
   0.3807327126,-0.197922158,0.4733350877,0.7882619471,0.7799036492,0.7111700465,0.9430060615,-0.5618901267,-8.9583190545,0.2716920223,0.1523566752,10.7361741624,-0.2593651474,0.1679647275,-0.29056329,0.4575647362,0.1160955974,-0.6727290217,0.5757948399,-0.0945824133,0.1839208065,-0.3032619404,0.67331649,0.0928141528,0.0986950695,0.1076990823,0.3493115003,0.9971331686,0.2026536008,-0.2659769286,-0.3368632901,0.3185314341,-9.0628108669,-0.1531041535,0.5401097051,0.4286827644,0.846675146,0.1134548565,-0.6277908542,-0.6130376231,-0.7093978252,0.7122793224,-0.1623018492,-0.6634499742,0.0286217982,0.8258905742,0.911053331,-0.8441576006,0.0613683152,0.4319249407,-0.3003240023,0.6170481688,-0.2807759037,0.3256826245,0.2219348388,0.1655799411,0.7675766048,-0.8627204587,0.6066171189,-0.4949494529,-0.7387810046,-0.10819269,0.3152178998,-0.1930315011,-0.909864222,0.5533002356,0.4611787266,0.2356512921,-0.1266704753,0.1525465367,-0.3900079687,0.28739623,-0.2204650727,0.8420861491,0.1962535153,0.4763051324,-0.3155228205,-0.424618853,0.7159176531,-0.4546769928,-0.0298793797,0.250733889,-0.9506359539,-0.0999346952,0.3293500854,0.0686563695,-0.6310438256,0.6583795188,0.2584297946,-0.7961017292,-0.4202441116,-0.5523481632,-0.1647786648,-0.483730315,-0.4638614183,-0.6678179112,0.4975837008,0.7534073862,0.3922609744,-0.4709272633,-0.5159493298,-0.7639577596,-0.7184931306,0.0777438175,0.3633740437,0.3674239233,-0.7391517043,-0.6452078607,-0.3121974393,-0.1255350696,0.0324941315,-0.9384816887,-71.9557261385,0.3376429547,0.3467264712,0.9045477279,0.7292780829,0.700460369,-0.9043690078,0.379861195,0.1152954194,-0.9197337593,0.0419392196,-0.4980038484,-0.2745856254,-0.9309150247,0.3546175635,0.3293714964,-0.766899016,0.3884477604,-0.0023864018,-0.3030931634,0.6073014519,0.9813306469,0.7708124713,-6.5083995793,1.078498782,-0.2939032857,-0.0486809647,-1.0650701469,-0.1018033251,-372.4480629417,0.1372916481,0.7778501675,-0.4322875836,-0.1935465196,0.0853003172,0.0886350624,-7.689101336,0.2444612964,-9.9672790485,-0.6720339108,-9.2277213411,-1.728958129,-1.1398199192,0.8465826548,0.1428707263,-0.4297129082,-0.5115615142,0.8901787727,0.4551248807,-12.8929967143,-0.888133852,0.8026156144,-0.8450095045,-0.3952261193,-1195.8294334968,-3.0814633367,21.5979285963,-0.4552935084,-0.3226963537,-0.5836189409,0.8661872853,0.3902198717,-0.4492312976,-0.9489784526,-4.5701526333,-8.4316695425,-9.1985812162,-1322.3088712365,-0.4556687092,0.7295020548,-0.6268048688,-0.1400849834,-0.2982434349,-0.1018395884,0.7369711038,0.1849510895,-16.5690680236,-1.1340503161,2.1683477351,0.1476216041,-0.7657852929,0.2474222593,0.06530453,-9.0816646242,-3.0830261754,-0.6859233784,-0.5662999981,-0.3151104565,-0.4249739072,-9.0473075935,-3.5950922944,-30.6181726467,-0.5283594869,-0.3827895258,0.7778412141,1.0737706019,-0.0597756674,-15.2852146392,0.2310803125,-2.0169953741,0.6681047156,0.1886920037,-1.5093395249,-3.280567457,0.6147217702,0.2017363037,0.734546094,-0.7884426135,0.6474775914,0.0299281867,-7.9069030894,-0.6916823119,-9.4535507204,0.342969082,-1.7762241303,-0.4348750469,-9.3315999941,0.7586391958,-0.8521009298,-0.5352798752,0.7431782798,-11.5733243442,-0.601250468,-0.9308975363,-7.8653118828,0.5329616217,0.7684657345,0.7349964932,0.133911779,-0.7640042826,-6.9663399452,0.4745578893,-0.1939135773,0.097983239,-2.4145540558,-0.0960016217,-0.5830337596,0.2556925652,0.2622589209,-76.1470619799,-2.7369760474,-0.6436375553,-0.6319632557,0.6860994084,0.0313110655,0.8920611889,0.9579498066,-0.9831827413,0.1724309384,-0.9270164374,-0.0861219983,0.0700531736,0.2202330165,0.8254902945,7.1377943303,1.0786295625,0.4958908548,0.9216891221,-0.1815545118,-0.8373594276,605.5441533059,-0.8353497569,0.7605001165,-0.8937691581,0.6891493642,0.4588596902,0.6943337964,6.6617044686,-0.457974758,9.8779189188,0.5834494435,8.9495202123,0.8521760281,2.5083898865,-0.2032238347,0.2369696942,-1.4511882036,0.4033589953,-1.0800764586,0.3082438377,8.5929294896,0.8514275499,-0.9141456864,-8.790060537,0.637654889,91.6659258978,0.8432017895,-7.0604861864,-0.5997280632,-0.4766499153,-0.597423836,-0.6468383897,-0.1621672793,-0.9603100995,-0.4796990145,5.9365742388,7.2237936019,10.9526960694,1612.2787071746,0.3414096781,0.8730233965,0.3568689708,0.8447125395,0.053469337,0.5832138315,-0.6322041454,-0.8001475107,-35.8301338194,0.8740549187,-1.5933808789,0.0772063905,-1.0564279776,0.2626138712,-2.1520105353,10.4072569156,2.3525929799,-0.4068339748,0.4791926557,-0.5959244318,0.946312687,8.0535438193,4.0788238589,36.8748233182,0.727803838,1.178433659,-0.9761433644,0.706229174,0.916770809,37.0711761258,0.0933157406,2.0569156516,0.6706219044,-0.2520309795,96.5004928146,8.061078684,-0.7709322672,-0.4927888519,0.4722070559,-0.3482813994,0.2812520441,0.0736118297,9.5082683128,-0.2583229351,9.4573697745,2.886160847,0.2761812009,0.4426414791,7.1494698051,1.3649818269,0.2910306451,0.9628306045,-0.3645835532,12.9903280847,-0.3291305744,-0.5504187448,8.2940629918,0.8834990728,-0.0148746808,0.5140127114,0.7365315699,0.9385405731,6.6246432749,0.2262548825,-0.6533765759,-0.4015196801,3.509039625,2.6040602081,0.4526970102,-0.545904499,0.1122077501,135.203152175,3.8600376375,-0.9271191647,-0.6436653627,-0.0418931163,0.5151776215,-0.6628439732,0.8087523363,0.1702182645,0.8852812349,-0.3023335095,0.882800209,0.492361654,0.1687525833,-0.1227432032,-7.7653173173,-0.0381076876,0.7178393354,-0.0334066628,-1.1615701378,-0.3582480567,-957.6006464755,0.5651724969,1.8214260141,-0.8887003637,-1.8023708042,0.0423451311,0.5481568174,-8.2513889636,0.9469597956,-10.1162628433,-0.9061336764,-10.0502400204,-0.6100660549,-1.7525547819,-1.1280648337,0.5938870566,0.5082307951,0.4650662299,0.0383292976,0.7598216747,-12.2340091296,-0.8589074963,0.1026079129,1.29187952,0.6898655525,-1247.006545045,-29.5250102856,2.0867317433,-0.9697727477,-0.2777223377,0.5820069352,-1.3640693867,0.6342884642,-0.2187630422,0.6878310245,-6.040679335,-6.8262936394,-8.754062007,-1384.8510425639,-0.9526451161,7.1804500515,-0.6123180842,-0.3514955684,-0.0320532023,-0.1117163536,0.6844623746,0.0854367,-148.0025969319,0.6002789233,0.5782141643,-11.7208819968,-25.9691722888,0.9972534374,-0.6523033173,-9.2671913659,-3.0572088798,0.8048196034,-0.9827196375,0.6050676401,-0.81646852,-7.0500043637,-4.2938976276,-52.3118070966,0.3840129043,-0.2637799125,0.8924595307,0.0093269181,0.6316697796,-19.2447179506,0.0511169504,-1.0414380975,0.4715500807,-0.3636087689,-10.8628490343,-3.5195790647,-1.08339581,0.6286805622,-0.1783175776,0.6532873861,-0.8861233645,0.4730011137,-9.5393549106,-2.9302933402,-10.536743348,-2.8440666063,0.1158850329,-0.023483697,-9.0660001506,-0.4490972014,0.5180780444,-0.4730777884,1.0741359712,-3.617379187,0.343936336,0.9978191329,-7.0145214634,-0.7049215136,-0.6076233933,0.0270765853,-0.5413280282,0.055680926,-5.7945638863,0.1196871043,-1.1842892866,-0.3048138329,-2.2517954083,-0.8531866413,-0.7623610718,-0.4178772505,0.8707651139,-1750.822594965,-3.4201121078,-0.1667633457,0.7599721415,-0.2711847945,-0.7764756384,-0.3050221014,0.3383298079,-0.2537271604,-0.9715531522,0.138029923,0.6328650863,-0.0960699092,-0.7344818407,-0.9802378781,-4.0519700403,-0.0777114406,-0.6579598377,-0.057266441,-0.2917392986,0.4946152463,-768.8559994775,-1.1889448678,2.5673700028,0.5952401024,-0.4662433869,-0.3121215948,-0.3650737729,-6.9683207764,0.2712608518,-12.1015252557,-0.8362770247,-10.198748218,-0.3870686369,-1.4235714941,-0.4092860292,0.2867085578,0.2372413333,0.9730211205,0.1174182176,-0.4778880316,-11.8326033806,-0.2852535548,-0.1499846272,6.6623051567,-0.8990977023,-463.5890646849,-2.1015488125,2.0321024641,-0.3257210842,0.2072826139,1.3090347078,-0.8864713478,0.0420985491,-0.687850833,0.3615451259,-6.4184013744,-6.9722427256,-11.7908979338,-1612.579411235,-0.265844842,-0.0960082733,0.7667250634,-0.1633826192,-0.243625326,-0.8998892705,0.2732335954,0.7029537103,-94.908050574,-0.7891367941,1.0695654279,1.6868147575,-0.6887390612,0.2606841729,0.1158082188,-10.4140693205,-3.5803429456,-0.2520892229,-0.3053343065,-0.3035833848,-0.9116142594,-10.3179116224,-3.9935706037,-12.0471222069,0.4705517034,-1.3725389282,-0.726035476,0.1649615579,0.5505491966,-17.5940111045,0.4381120107,-1.8453887654,-0.0185160697,-0.9487943243,-4.4221101877,-4.3727796038,-0.3838788485,-0.5457089976,-0.417698703,0.1080936235,-0.6183885266,-0.6915812705,-8.4203041638,-0.5078881304,-13.5791903918,-7.3593151321,-0.5888762044,0.4942995007,-8.9488017194,-0.463836763,-0.0433270368,-0.0691305572,-0.1230650891,-1.7692081919,0.5235919918,-0.2166792931,-7.6432639115,-0.9780757793,-0.4870902028,0.8007889012,0.4282378171,-0.3225685354,-5.8014910716,-0.9704759509,0.4656697071,0.5617618048,-6.9923100101,-0.0181610853,0.1534655858,0.3968116142,-0.5944809385,-230.2553285143,-1.0148283287,0.4870993313,0.5875052723,-0.4788281418,-0.5657512187,0.287661967,0.7161152344,-0.217448877,-0.6615203851,0.62573532,-0.9296073881,0.850931476,-0.509013323,0.9990249044,-3.5265220887,0.6584665968,-0.1084378412,0.3387865729,-0.9204870896,1.010358142,-819.1229280442,0.632775318,-1.5118443458,-0.5246988997,0.685112247,0.7595668764,1.0112537884,-7.5397787167,0.8756911175,-11.6168958627,-0.9144466376,-9.9085472872,-1.181487426,-2.0110184262,-0.1711029093,0.3807330804,1.470281256,-0.0955843401,1.4145567829,-0.7101390188,-12.1458749212,0.2040325166,-0.8486307536,2.0156408479,0.0259356778,-1169.9097333887,1.0840254757,3.1111794961,-0.4719343635,0.3171984153,0.5953172333,-0.9909168774,-0.52523558,-0.8954006336,-0.8183598241,-6.9499273016,-6.6630842646,-11.0933969828,-1612.876791788,0.7743456254,-0.5100053639,1.4250971946,0.308404448,-0.2379267591,-0.8880435649,0.2447458986,-0.2235854574,-103.7256282603,0.1002723139,0.7171663836,-2.0178443759,0.474415929,-0.3754619605,0.3429416962,-8.7090713685,-1.2744651587,-1.6794145249,-0.8769010982,-0.8372030037,-0.7645548925,-10.2914707751,-5.0181526257,-10.5171333746,-0.626583688,-1.0281979946,0.8183847405,-0.1419892977,-0.8726860136,-17.9990309255,-0.5381881256,-1.3922761933,-0.8424595297,0.6182844546,-3.9245707728,-4.74893013,0.1640352635,0.20645349,-0.09969876,0.1499661108,-0.45681214,0.3633429887,-8.5920657671,-0.1253663027,-13.4388824452,-7.4316660243,-0.8535854609,0.6925327197,-8.5694512588,-1.0359799687,0.3807227964,-1.2574698574,-0.6650024277,-1.3846135942,-0.3746694711,-0.1455343843,-7.9326088729,-0.8039387115,0.0723106681,-1.0596383718,0.7236332158,0.3465768608,-6.6256306234,0.5490869694,-1.0074720288,-0.1933001048,-5.4817245849,-0.0549600283,0.368314136,-1.8424108745,-0.913094224,-151.2350312485,-1.3093701225,-0.7967701427,-0.2504720733,-0.1707469215,-0.4723646534,-0.0205867709,-0.1504974768,0.9540461915,-0.0042461868,-0.736026715,-0.6137033481,-0.0693790826,-0.6130781927,0.9603016794,-3.1930828659,0.9242306599,-0.8333918098,-2.4288406024,0.3958998288,0.1805241559,-345.0806340769,-1.3840733129,0.2083693963,-0.8279410074,0.7826315299,0.5264170114,0.5299567993,-7.6040150172,-0.2128158354,-10.8397854071,-1.3884568903,-10.1709989569,-1.4684470281,-2.4557224634,-1.9732806677,0.4975459306,-0.0227835077,0.1137416439,-11.9363139654,-0.9852750328,-12.0127991012,-0.3365004072,0.209358917,4.9501247827,-0.1574577529,-864.3191410299,-0.0582078154,2.3488159711,-0.0224191001,-0.377359492,-0.5714794616,-0.6366619983,-0.1442639463,0.2552733551,-0.8703646797,-6.0167704891,-7.9991155948,-12.3178373108,-1653.8469683739,0.4341388268,-2.0209196012,-0.5668619874,-1.146408022,0.7466335501,-0.6862106813,0.7011753719,-0.7300933146,-575.8244389922,-0.3733945249,-0.2792388435,-4.8575579703,-0.1134592191,0.1544815926,-0.809472825,-9.4098057181,-3.1773797425,-0.8810413335,0.3559928767,-0.4559070883,-0.1397894001,-11.3503262494,-4.6423254751,-4.2284863444,0.0735815191,-2.8147666649,-0.4208287676,-0.3560056369,0.6183249096,-10.4195766896,-0.002699425,-2.3081792551,0.275759578,0.8388603526,-21.4237476924,-3.4947990988,0.1141461864,-0.2924674737,0.4581986038,-0.8653520691,-0.1956207973,0.7108210951,-9.4653983869,0.2824784781,-18.7144039668,-3.9732376541,-2.3077842897,-7.9166341708,-9.1409704974,0.4687508777,0.1888577671,-0.4486148345,0.9961862489,-4.4237323693,0.9843485397,-0.6974015006,-6.7249406207,-0.169420247,0.5326035843,-0.1357761564,-0.3910587934,-0.7265584033,-7.0892959194,-0.1576830635,-0.3831933008,0.7598161968,-6.6774424664,-2.8980776098,-0.8058063195,-1.9192539284,-0.3991874301,-2200.3443557051,-2.7729961968,0.2211339233,-0.2233772759,-0.7612178041,0.5307522078,-0.3679585304,-0.1389595448,0.0075945661,-0.4025490141,-0.4780755327,0.3238524663,0.1198991702,-0.3389238397,0.1838385692,-2.92046042,0.8128066298,1.2027990258,0.9085287998,-0.0272407783,0.6710452342,-924.624126612,0.0267969433,-94.3155384097,-0.5989036773,-0.1261897022,-0.6905272718,0.9956892063,-8.2449155835,-0.7185686621,-10.6546636302,-0.2810408051,-10.1500510939,-1.4143012803,-2.8390965257,1.3638963034,-0.4523270204,0.0138832507,-0.8147063199,4.0741661592,0.3858817046,-16.8312047162,-0.0778818614,-0.9200162537,10.3264084049,0.0490296978,-707.2497392611,0.5618897164,7.8159641817,-0.8154893038,0.3448681966,1.0418926097,0.3836831642,-0.5947564479,0.037399921,-0.317752398,-5.6960743447,-7.6483523046,-8.7899165931,-1779.4918319238,0.4536848403,-2.2684104508,0.2706466044,0.6491717382,0.5766265483,-0.3776412287,0.3184317308,-0.763153745,-132.7112008569,-0.5498585885,0.2792435474,-0.7909196188,-0.3707336942,-1.4606063507,-0.235337996,-10.056165354,-2.9747357891,-0.9121419263,-1.3972062509,0.1978014472,-0.9781842496,-15.3960778825,-4.7462639888,-8.6720584499,-0.2993403451,0.4607875687,-0.1183905336,-0.685604481,-0.6696359812,-2.6263979659,-0.2502950471,-3.1134934258,0.1063679482,0.5098964099,-0.0904165931,-2.4636968313,-1.1094626893,0.6603276717,-0.5717775368,-0.0415518097,0.2736124039,-0.4322083829,-9.2078623481,0.0708418043,-14.9642591187,-2.005006134,0.0633061648,-0.3650808941,-9.0928114378,0.3254111303,1.7300881713,-0.4253115833,-0.605292345,-2.4317211986,-0.6670426076,0.5710477694,-7.3652270799,0.0155527516,-0.0853728104,0.2729290768,-0.8351974579,0.5815785997,-6.6597090904,-0.5932469822,0.0690735439,-0.4812279733,-5.8132968245,-0.5934639776,-3.5580623905,-3.1948617139,-0.0039880357,-18.285167608,-0.9594430814,0.8820772423,0.3691913058,0.2556021109,0.5094150455,-0.0720277339,-0.8082733185,0.3932073639,0.8422287371,-0.5303274283,0.7572581872,-0.8408115806,-0.1111114754,0.5983287447,7.8706409365,-0.7765705123,-0.8135035147,0.1900807618,-0.6879109449,-0.1740043578,534.1393340243,1.4832742758,1.1560837532,-0.4088473532,-0.8000730737,0.4501788899,0.6320556419,8.8446233603,0.7611716393,11.0056896133,1.7605995717,10.8542291765,1.4111573699,1.9272081401,-0.3635707802,-0.3826945868,-0.0246077629,0.7690763011,-1.9088359257,-0.2406322487,16.3569832224,0.1472201865,-0.3401040011,-2.3279446526,0.1071551653,42.0170097329,49.5558027307,-1.4105011971,-0.6800897057,0.5570581776,-0.4859871811,-0.7751012386,0.7212961817,-0.4929989888,-0.7873029286,6.0585854537,8.6941041587,11.5348817339,1321.8999607157,-0.4752311109,1.3600100964,-0.1024548533,1.3310017117,-0.542375031,0.1643510696,-0.1310352253,0.4286792541,-267.8612105672,-0.1521098476,-0.7450012783,10.9515171455,-0.3919613197,-0.3029204606,-0.133497442,11.0382910476,3.6484172779,-0.1956108693,-5.9699989624,-1.5585209315,0.3400325583,13.7449850503,2.7148832674,218.6356233838,-0.3661276714,0.1452706534,0.0529938614,-0.4329734859,0.962349231,17.698733022,-0.6189294564,2.4770063014,-0.5212928624,-0.9905737509,-4.1849395868,3.3325849353,0.7733590224,-0.636680622,0.5828952001,-0.2103561666,0.3874726582,0.1124029709,9.9423657347,0.3263311398,18.538107342,3.0054049414,2.2535355227,-0.5745767614,10.0765205502,0.8634644487,-3.3823920988,1.3410695156,-0.2089469713,5.1621760466,-0.452559813,0.2474008023,6.6679152672,0.6477185308,0.1419670124,0.0983614874,0.1631322006,0.833489522,6.4600700387,0.7167073179,2.2462509411,-0.2239377518,6.2893647701,2.4185560529,0.1963551117,0.6883199203,-0.3207951525,215.3639840449,4.2283741264,-0.6055867516,-0.4944507615,0.8844050277,-0.7296033536,-0.2211524425,0.7519648102,0.6996439023,-0.5437660192,0.9185620971,0.3564807527,-1.0474230903,0.7082537404,-0.9194943519,-1.1887728763,-0.8156991589,-1.2307142197,-0.7593212472,-1.5683854172,-1.0710729522,730.3501520031,-0.2879789544,-0.0777477413,-1.1088128805,0.898740309,0.5557327285,-0.1907272413,-3.1716738782,-0.0082812807,-5.0071462016,-2.3945820253,-3.4145370362,-3.0117227865,-3.6065088861,0.1678011275,0.8175425833,-0.3530777769,-0.0713641618,-2.5819396102,0.2600779324,-1.8727384096,0.1482494864,-0.9200454367,-3.6558780957,-0.2064770678,28.8044369336,-2.3202548235,-1.1837134946,-0.1050097405,0.3443466077,0.5537944636,-0.0140644753,0.4741120202,-0.5707662845,-0.8747186176,-3.4053586913,-3.6901967155,-5.4505941686,483.3264551965,-0.9689535002,-2.1105891205,-1.6369669701,-0.8716760106,-0.1827001949,-0.421822277,-0.0861604756,0.5426072513,-144.2461578249,-0.9389628181,4.9449883289,-0.225890846,0.3531582906,0.0147760187,-0.0913551492,-5.053669682,-0.965003324,-0.5844683717,-1.6778732296,-0.0695695325,0.1458701047,-4.6060330235,-7.0903151316,-8.4654706405,-1.1136568689,-0.4753304643,-0.9373905895,-0.9921026475,-1.1039213741,6.8837774342,-0.2198269269,-1.6147876831,-0.9638687774,-0.6892974074,-11.2714503001,-4.4186435125,0.7989827502,0.6552570253,0.4010171581,-0.2920013861,0.0656786574,-0.4488791952,-4.2842823233,-1.0719571322,-4.325588598,-2.551488075,0.5144484319,-0.7600522728,-5.0408599956,-1.2323828704,0.0456152305,-0.0120005277,0.826372645,4.4801748334,-0.312026433,0.1971068536,-1.7835033018,0.0533132217,-1.054088305,-0.2421517147,-0.6998829032,-0.5070143746,-4.5176066716,-0.5250628994,-0.7671190884,-0.8431858613,-1.4664718868,2.8732658881,0.3495818565,-1.4428020109,-0.313116728,51.1621758207,-1.8549281488,0.2177482676,-0.1336504986,0.8144969938,0.3604077928,0.2219562819,0.5234745884,-0.9461973525,-0.8995558876,0.4089874644,0.7146635842,0.7910864923,0.4544064395,-0.3323545404,-8.3931452742,0.8264202399,-1.0693189361,0.0123902279,0.0043798401,-0.1785609418,-686.7606049688,-0.9387142994,1.1202650364,-0.6059302691,0.2405076179,0.4315686895,-0.7965370686,-5.3506570539,-0.1024313588,-11.043710298,-1.7137027033,-10.2671485166,-2.6429686773,-2.3691423302,2.4449429576,0.8184298518,-0.7624971141,-0.6656504764,-0.1560537038,-0.1898298863,-11.4883836581,-0.3546626778,-0.9924698716,3.7164462225,0.2258466091,-36.988250046,-0.3571887497,4.6201748726,-0.3932200392,0.6060371944,0.0968517926,-0.8303225304,-0.3579307284,0.1613677542,-0.7374386159,-5.4320378361,-5.5580953144,-8.0909786077,-1778.5372325767,0.565228091,78.4115703426,-0.1382735933,-0.9832081127,0.1464701291,-0.3812565619,0.8556340723,0.2173240024,169.0660657759,0.913033016,1.3242825266,0.0996564248,-0.4661942746,0.1265666131,0.7752577554,-7.6878411213,-2.4624307489,0.5200280491,-1.2795599677,-0.8681711549,-0.1880900244,-8.6226303115,-4.6534568765,146.1279235438,0.3848247419,-0.1914091642,-0.5616802659,-0.1597988539,-0.0251430809,-19.3160094477,0.2400923157,-1.2632340023,-0.2610476391,-0.1353051477,-0.6350810497,-3.6004594176,-0.4244187546,0.8441713509,0.3501598213,0.8106419088,0.9184253104,-0.6466067097,-8.7432334419,-7.2297993354,-9.8001976238,-1.7740640429,0.4170501615,-1.182747836,-7.1654155531,-1.2635479425,-0.964200698,-1.2222897991,-0.686385168,-9.264288406,0.626481374,-0.5617540363,-9.149345322,0.9722254857,2.0864139547,0.485907191,0.6562541324,0.0046453955,-6.9272495169,0.3433592077,0.6756260574,0.9486745415,-7.3094455688,-2.6294734447,-0.335237972,-0.8093181296,0.1501459035,-7.8647334264,-3.2360881139,-0.4147597741,0.0196963605,0.6265260239,0.549889075,0.365911146,0.7239266652,-0.7102740208,0.5765024297,0.6267252182,-0.7502600555,-0.9410158429,0.5495478265,0.4015323671,-8.3095699192,-0.3706837382,0.0507305899,0.8957114038,-1.3905981169,-0.4573678125,-776.6040157722,-2.0220504553,-0.5432654037,-0.2035564134,-0.0785226728,0.5697631258,0.3921934146,-5.174147796,0.5754895358,-9.9790079016,-1.8763613361,-10.1996462164,-1.8128997384,-2.2970338361,-1.1680364837,-0.4374670123,0.9051295779,0.6382318513,0.0155487044,0.3220192945,-8.7558867757,-0.5091504749,-0.5064059601,5.858486241,-0.3954442886,-60.4089205869,-4.420887948,15.7949544043,-0.3299622739,-0.9531678104,0.7901930395,0.7597932046,0.383724161,0.5570363245,-0.6751939167,-5.3553831764,-6.0868173434,-10.1846527436,-1321.8018718315,-0.2303906484,0.1015325802,1.5343808278,-0.7846926139,-0.3799014429,-0.0493849461,0.5400898645,0.8533063513,11.9949085541,-0.2328840746,0.423483013,0.4878166942,-0.022167815,0.5452199834,0.2729566544,-8.4873870582,-1.8757905279,-0.0025938187,-0.501813471,-0.4522111064,0.8081469523,-7.6635211639,-2.7303449315,-27.5844158409,-0.7505240041,0.7840335286,-0.6041989411,-1.1987120093,-0.0242008706,-36.8228684815,-0.1593142301,-3.6628000541,-0.7239783365,0.4193855432,-7.7440468507,-6.2812041587,-0.0840971078,-0.8997984425,-0.5898928118,-0.1567159443,-0.0257914913,0.6101630623,-10.2954453314,-0.7778894843,-9.9409783515,-8.277589931,-0.0443053996,-1.4227834259,-6.0394042033,-0.9076813297,0.2373892522,0.6916217288,0.1955632943,-23.1477086215,-0.6724422051,-0.1451758181,-7.4160961194,0.1498481257,0.4480061723,-0.6899170039,0.7961638481,0.0388718221,-4.7598922969,-0.7770576249,-0.5460871987,-0.6285541043,-9.5714006387,-0.3678556927,0.1241698511,-0.7323490968,0.0676249609,-46.2684773083,-4.294463544,0.5505738363,-0.7297966599,0.6142178296,0.7950619811,-0.8424711145,-0.2520020635,-0.4851571005,-0.7313406434,-0.9000648061,-1.166244857,-1.2912891265,-1.1373594133,-1.8924793749,-8.5826796376,-0.9468135518,-1.0695759652,0.1968849439,-60.9293118989,-0.5154317007,-1121.0858494197,-8.9318498488,44.6835207643,0.0436887445,-0.5932769848,-0.5963957854,-1.0560416851,-4.9312687622,-0.1211155929,-10.6988917601,-9.9541213541,-8.9023936248,-4.5300344682,-1.4056728994,-0.6088903114,-1.2448155016,-1.020495226,-1.8408296083,3.0386553956,-1.148169098,-9.1616099994,0.0367555654,-0.7414931441,333.441172968,-1.1161380569,-33.3985363536,-9.9987361956,9.4822138982,-28.0426248486,-1.3178443737,-0.9449621568,-2.2292135899,-1.0590044532,-0.2602290139,0.0011233701,-4.6939491858,-5.8569408186,-10.7894047101,-2433.5518122598,-2.7019346246,-18.6097661116,-0.1777877535,1.6625872094,-1.1624790187,0.326950307,-0.3462775633,-0.4029926425,-483.1801731348,-4.9590505506,0.2766092388,-3.0808362923,-1.0971862456,-3.0533823522,-0.1118099691,-7.8035962385,-0.1222546823,-7.6092448854,1.2020472398,-0.2046487635,-1.2621403829,-7.8971723356,-3.7697397687,-180.4305034308,-1.6078640231,-9.0351636298,-1.061020656,-2.4554723503,0.0240702632,-12.1116531274,-0.0258775682,-1.1288931208,-1.3141886344,0.003314777,-59.3696259726,-7.5521796068,-0.3216571613,0.1761716835,-1.5411615116,-1.4681234614,-0.3269659542,-1.351485176,-9.5776076184,-3.3119797177,-10.8659811211,-5.9002921175,-17.5038000171,-7.7671726186,-7.0984976114,-2.7098871606,-0.1901113357,-0.6393202181,-0.6197237477,-15.0454536269,-1.2868587416,-0.9234290471,-4.7444397506,-1.4479623094,-1.0006035117,-3.8808322903,-0.1240538766,-1.0712497156,-3.072410498,-0.6576327895,-2.8196618162,-1.3065406469,-8.8028570667,-1.6326418648,-1.4474681311,-25.3918221239,0.005449617,-408.206091708,-4.0348880782,-0.2524221461,-0.3221948627,-0.4079679249,-0.3335132949,-0.8191187208,-1.3261160455,-1.4010668514,0.5108588313,-1.3143108153,0.0226343316,0.4634402657,-0.9835920649,-0.073527337,7.3461599154,-0.3448419424,-0.2865015748,-0.5868635384,0.8689984072,0.0650002016,836.6241282803,-0.5477231589,-1.7212399582,-0.4895575865,0.873193627,-0.4555710441,0.5069943717,6.4639423897,0.2317225049,9.4418096571,0.172821112,9.3521728301,1.5245490386,2.0761508497,0.9016884389,0.9186384478,0.9341259811,0.0742711138,0.1520622736,-0.0765184979,8.9654062402,-0.6508738669,0.8468055532,-0.0565095112,0.7442443832,147.4491710867,3.829943347,-9.9843463418,0.6380622378,0.8608776868,-1.1298938526,-0.9435325512,0.3567966955,0.0699397399,0.8531355997,4.8153479377,6.097946557,11.3449808302,1612.2316420852,-0.0810822819,1.9132496032,0.8855165736,0.2745057729,-0.4989651355,0.9462379071,-0.2969580882,0.1905629021,53.0753111433,0.198813424,0.0766019704,1.0685529411,1.0066076885,-0.4584150277,0.6275018132,8.2081913054,2.1678087863,-0.135634013,0.8375707815,0.6970276249,-0.7805651292,7.3592194655,3.6526633651,4.162545756,-0.6314196954,-0.5259813654,-0.8595691803,-0.1149133323,0.0640933417,35.1926734108,-0.3136724207,1.9626217347,0.466481137,-0.589807786,3.127908251,7.4046992878,0.9499142083,-0.702152487,0.4098868227,0.1002708446,0.5594051139,0.955480519,9.3007348531,0.3250902201,11.1327109981,3.8418319269,0.0022158255,-0.2427854073,6.7478330223,0.1340111384,-1.6908947904,0.9391910834,-0.682934575,9.7109773455,0.1273056182,0.0702244642,6.1987599359,0.2607880155,0.7863823365,-0.6043206583,-0.9802875668,0.6884642017,6.4390561375,0.9900778747,-0.013905117,-0.6690311717,10.8452163951,2.5269139214,-0.7501188846,0.4640761487,0.9042430913,51.0653000015,2.979708645,0.2501831485,-0.3944609903,-0.4107854819,0.8361097162,-0.3467019203,0.7217166618,0.4211442808,-0.2411890235,-0.203230482,-0.348760927,0.5655759278,0.7565674582,-0.3067996752,-7.178826388,-0.2677671588,0.4006023866,0.5160829405,0.2112935219,-0.0766799125,-330.688868193,-0.2568933408,0.3074251685,-0.7573117944,-0.4696004337,-0.2180822797,-0.7698247123,-6.8455777368,0.069320896,-10.4272692645,-0.3426882712,-9.4411410757,-2.1172466689,-1.840189729,-0.4881388692,-0.39575672,-0.3912382995,-0.5153071881,1.3230071001,-0.1015896377,-8.4635565902,-0.9912240004,-0.2421864959,0.6869892898,-0.4418023058,-86.8119416434,-3.4378434276,11.3295693436,-0.3535887847,0.3336078721,0.0971286025,0.2278600701,0.0778514853,-0.5772447515,0.5434059851,-4.6082338552,-7.2537082407,-10.6173868357,-1322.9616662066,-1.9545803866,-0.5891502401,0.5236745531,-0.4819808426,-0.3029303336,0.468892297,-0.1689761966,-0.8155420918,-41.3680861329,0.5660040301,1.501469875,0.2397168775,0.4194692528,0.2596925997,-0.9328127751,-8.6007851688,-3.4855284311,-0.8225719226,0.1984975665,-0.3249482498,-0.0343976582,-8.3537804288,-3.2813650702,-7.6981578598,-0.8137376856,-0.8023939686,-0.0914654664,-0.2006250841,0.664950825,-18.8025746515,0.3214078541,-0.8613112621,0.0051361357,-0.4721449199,-5.7659837257,-6.3387540094,-1.1219949058,0.1532774505,-0.0318643468,0.0485184808,-0.1212615885,-0.9195003644,-8.9509947808,-0.7016391796,-9.4798079459,-4.3801815678,-1.64608546,-0.5868079499,-7.3471868036,0.8660568146,0.3078174425,-1.1649100563,-0.232019413,-6.5442336259,0.91610985,0.1124636538,-6.6759170505,-0.4501346917,-0.013977619,0.4340434861,0.7149322988,0.937124146,-6.5850014585,-0.1227005197,-0.3836089841,0.0323402941,-10.0183971793,-1.3154486104,-0.5821951421,0.6410902288,0.4906192172,-225.6614832404,-3.827661164,0.8197031939,0.0108040039,-0.4844617249,0.4400111558,0.4016667513,-0.4135811098,0.8198443642,0.6522684129,-0.516967057,-0.4787840255,0.5509653486,-1.3428729109,-1.0312224173,5.5435163583,-0.6038989433,-1.6539919108,-0.3890414172,-0.3088048551,-0.1423001531,749.2667988021,-0.4487791523,-1.4420187427,-1.2863610794,-2.0668494364,-0.7879731861,-0.4066332263,3.6662481247,-1.0183980486,7.7958601351,6.4672188488,8.1699986702,2.0814032848,2.7497157795,-0.2088249893,-1.2078005092,0.3622293913,0.1815761983,-0.9130825596,-0.9249759887,5.1211195081,-1.1850244561,-1.2897143726,-138.7290020073,0.0638711665,122.0384544964,1.8231068994,-5.1760003107,0.0448568961,-1.5187123916,-1.5944489531,-1.4983219951,-1.120296458,-1.3613859984,-0.0436399808,2.456783885,2.4690472849,7.9309913762,1561.2262861143,0.2254890567,0.3009455378,-0.201965088,0.2187752512,0.0182869938,-0.9499784319,0.1893862047,0.1371629628,400.9788830124,-0.3540477337,-3.9088469487,0.6971009402,-0.8349873706,1.9146404161,-1.2319071105,7.1436264848,2.5299491244,-1.1262038261,-5.2677407511,-0.1494299583,-1.3825354751,5.0629274435,2.363782979,9.276260037,-0.4007616857,0.5679125688,-0.554134474,0.7167251078,-1.3349882666,32.9581459072,-1.5791888219,2.2048765627,-1.0430275194,-1.1909436806
   2.6824562836,14.5990802178,-0.5987182026,-0.4005714364,-0.692055363,-1.4527476588,-0.5876102853,-1.1057475385,6.5630065037,-0.8052048891,8.3487426074,2.9869762526,-0.2578441001,-0.5880165674,4.2423049412,-1.6031793351,-0.6497326803,0.8448436874,-0.7979939549,19.5036685751,-0.0942271544,-1.2569437372,5.4776702271,-1.5553435582,-0.5793165627,-0.97702295,-0.2573959864,-0.8415880333,4.7298209033,-0.7509751824,-1.1198480927,-0.8433499722,6.5583681546,-1.2398171976,-0.552189165,0.2641256052,-0.6682296609,270.811993646,1.9623819832,-0.4787609922,-0.314186257,-0.5820831899,-0.0312113246,-1.188362803,0.1982283522,-0.607769198,0.0409747104,0.1277199822,-0.9675542882,-0.8863601387,-0.7152496517,0.8844979439,-7.1373311903,-0.0866552548,0.4439891714,-0.4173044047,-0.7692298335,0.0011577,-928.9696533955,-1.1853572321,0.5522144455,-0.6823494372,0.3267493112,0.8858861715,0.4828578971,-7.6806247937,-0.9538583683,-10.6350482929,-1.5113910546,-9.3924125616,-1.3594428791,-1.4403525655,0.1752620943,-0.0773462191,0.7099799768,-0.8944452,1.1343542679,0.2216580545,-12.2014998531,-0.8510686297,-0.4805840101,7.0668473937,-0.1055984616,-157.0527163199,-2.3276180601,2.8421564442,0.2453511858,-0.8711279144,-0.2198241878,-0.4413071923,-0.6515529174,0.6075436663,0.0153302146,-5.877221594,-6.1089452653,-12.9752204408,-1323.3009927888,0.7516900056,-1.4249924562,0.1509421572,0.5750681842,-0.1038615033,0.1414417685,-0.4242745995,0.2325028882,-62.1018879574,0.5501547403,1.1321656216,-1.0611324582,0.8013565534,0.2310915046,0.6707042944,-8.7878969301,-2.1363085957,0.3157884728,1.0835499155,-0.7940260998,0.3847218128,-7.2814532815,-3.2134892352,-4.3597253607,0.9932290919,-0.737493681,-0.8476568713,-0.3951553689,-0.5139544086,-35.6769886984,-0.8149981934,-2.0324978701,0.4677087503,0.5266731758,2.8006710193,-3.323787929,0.1756485244,0.509432411,0.3969657534,-0.5195787025,-0.8431456709,0.5339115908,-9.2571332379,-0.63567053,-11.0675851539,-3.6719546514,-1.7039046454,-1.3331740999,-7.8570706349,0.1578095065,1.4966187279,0.1613152883,-0.2413197892,-7.1339326229,-0.8349122123,-0.7211712036,-7.6443587641,0.5533093013,-0.3085139453,0.1228118444,0.8772080874,-0.3085500272,-6.476267453,-0.3899322861,-0.3733850275,0.055770182,-7.2126484942,-2.3656584858,-0.8783087472,0.7026147031,-0.2509097198,-250.0747543327,-3.4687247479,-0.2408285675,0.0286610933,0.5671204807,0.141460226,0.1082861022,-0.6698354556,0.6205993641,-0.7813256466,-0.9043085364,-0.8897650617,-0.0179033315,-0.4587572087,-0.3301080284,-7.1094951211,0.9749785713,0.5255882859,-0.6103614634,-1.3129158174,0.5980720737,-434.8670923091,-0.6358911593,-0.1971264045,0.5634074901,-0.1101781448,-0.4953163372,-0.7105720104,-5.6600779499,-0.0665954683,-10.8677492581,-0.9260630991,-8.273435354,-1.8254516547,-1.7430982953,0.382389469,0.6288668112,0.8559710504,-0.772981229,0.2389190026,-0.7807184376,-9.1487506611,0.0558452072,-0.9618771922,0.2745318376,0.0234174367,-376.3330037271,-0.6242086452,2.9922049281,0.195759197,-0.8107851182,-0.0500390663,0.9867350808,0.7762837316,-0.7061585347,0.7855831666,-4.7292171161,-6.3028481438,-6.0744523313,-1612.9868316626,-0.0647263071,0.9283855188,0.3531976728,-1.1478315483,0.6525783757,-0.7862101097,0.9989561703,-0.342447748,449.4736824587,-0.1613210464,1.031408498,-1.0954155477,1.1154062109,-0.244815221,0.2130270937,-7.4009695224,-3.0271052134,-1.5501332299,0.6552538249,1.0165911449,-0.4303373404,-6.674313747,-2.8712592865,-491.7671201839,-0.8349541565,0.1089789515,-0.1636681431,-0.3716521546,0.0142608856,-30.3735675092,-0.3240619228,-2.1149663095,-0.3259321757,0.433349268,-14.7165745362,-8.2341895384,-0.2825041954,0.4328137168,-0.1616536267,0.9349224755,-0.1989524431,0.0397972872,-8.4032326887,-0.9326564242,-9.7903448275,-2.3012295157,0.2686567366,-0.092843666,-6.9360167452,0.7859205199,0.627472349,0.6118322857,0.9909859918,-14.6060356496,-0.8264391596,-0.4438943832,-8.2996333195,-0.0584364122,0.7028492188,0.643526929,-0.2204790452,0.7829502585,-6.4144515794,-0.3031786978,-0.361097389,0.3903443252,-8.5814284036,0.0588509521,-0.310599975,-0.9238530517,0.3605975806,-8.1404934638,-3.0450229999,-0.4838738038,-0.139634191,0.859150253,-0.4115366253,0.7913145488,0.4903478875,0.8825754862,-0.8390419627,0.8566682271,0.7133124343,-0.2334314558,-0.7909895455,0.2197846758,3.6668549478,1.0648233625,0.136748171,0.8991631492,-0.1494910967,0.5401400705,634.6142058776,-0.5294123474,1.8568672656,0.8502230378,-1.4641925123,-0.2567926815,-0.1985074739,9.4533415268,0.459255821,11.4473483235,0.8211715361,9.3347191063,1.2182235152,2.2025065289,-0.8398438098,-0.8801009366,-0.6795467061,-0.7322833933,-0.6738086698,0.6432043426,25.5800196999,-0.7616702263,0.0779957987,-2.3715490814,-0.5917285795,701.8637223406,0.2564746569,-38.8003055194,0.2776608213,0.8161813713,-0.1891265746,0.246343788,0.3362970479,0.8219617077,0.678735583,6.8834276425,8.9800449394,8.373809743,1612.7582480367,0.0881713439,0.1724907201,-0.6422396201,-0.9994761494,-0.9704357172,-0.1109094874,0.1621179089,-0.7679661344,-58.5655291857,1.3246381241,-1.1171697983,67.3400463578,-0.0150278403,-0.8697525267,-0.1038875025,10.8707344247,3.6778036887,-0.0563424325,-1.1393156378,-0.5569401561,0.173678074,12.0800326942,2.1566179286,8.2884599185,0.2057135904,1.5644328726,0.2055863222,-0.9762308625,-0.623795431,5.2695347162,0.7085173625,1.8916263053,-0.6292403403,-0.4475685462,3.695252682,4.6637457805,0.8500045101,0.6383378305,0.9257456459,-0.5077606576,-0.6653885255,-0.3835003304,8.5484559285,-0.0568646653,24.5785553777,0.6108399789,0.7024995524,0.8522336883,10.537486318,0.4496644711,-9.7349088156,1.9482326889,0.227368441,3.5168636931,-0.5484480179,0.7864669411,7.082242806,-0.4977169884,0.3547252838,0.0222149706,-0.8731881652,0.1276105959,6.25268855,0.2217301103,0.9773122567,-0.3681137203,6.053502037,1.3275261315,-0.8931061573,1.0987364724,0.7822076888,171.3566001128,2.2256901025,-1.0005983266,-0.1767264945,0.8874271429,-0.1153989419,-0.7255666132,-0.4141698946,0.9863556588,0.7290989597,0.3224119939,-0.4306952934,0.3175417095,-0.0250638945,-0.2658002301,-3.159036982,0.751970022,0.2791148812,-0.6706812067,-1.1739437749,-0.9298787423,-530.9402535377,0.3318190402,1.3774539059,-0.0525457888,-0.7237733919,-0.1978360228,0.2834334189,-7.8602174317,0.894453958,-11.4569080565,-0.4706346308,-9.0085441465,-0.4185791893,-0.5824087266,0.1863015461,-0.2277401176,-0.279215987,-0.0371659978,-0.3938244363,0.7630743842,-12.1550850525,0.5793082633,-0.847951828,1.4570961725,-0.2078908969,-178.0019414856,-11.4402290256,8.5936020912,0.6612842657,0.9721792541,0.73646074,0.670660077,0.9741023077,0.3102487801,0.7343860189,-5.4502030352,-5.9790815792,-9.1469684604,-1322.8702231644,-0.5341160242,-1.0846289631,-0.2027822655,-1.0423370085,0.4289037188,0.6656212944,-0.4083544951,0.281690086,-60.2932433943,-0.8654326561,0.0497660218,-0.9840319075,0.6001783652,-0.9816332504,-0.2933745435,-9.6636276645,-3.6618571754,0.0918537984,-0.61149285,-0.9167946642,0.87504071,-10.7445839644,-4.4719590646,-3.2284371175,-0.4378877927,0.5238100667,0.7954072683,-0.4565934166,0.9144053594,-21.0039662236,-0.1033249972,-1.4496892182,0.1223053862,0.4474350968,-7.5220060952,-3.8375415032,-0.842128733,-0.8701608246,-0.2915844947,0.4886814258,-0.0235226907,0.0875741046,-8.5486510484,-1.0683352854,-9.5728814625,-2.295363544,0.6301085338,-0.7161793469,-9.5301903751,-0.3247103871,0.5739861334,-1.3113313143,0.5167125787,-2.3186615446,-0.6775306589,0.1285115148,-6.7808328438,0.618076448,0.9464850174,0.8377437592,0.8950069669,0.0795062166,-7.2675146943,-0.1922043859,-0.6579260711,-0.1176644841,-5.1958316893,-1.6157582206,-0.0598383495,-2.973526123,-0.6549850487,-372.2353156452,-1.2829724216,0.05903246,-0.3634132033,-0.4954778962,0.8763469837,-0.816378933,-0.5573806023,-0.0688852806,0.680998787,-0.0894735324,0.7014743937,-0.5215180867,4.0375979221,-1.1570826662,8.8235788593,0.3193312017,0.5144224192,-0.3752324509,0.088143255,0.5233432033,405.2741775646,0.3563183272,-3.3432168205,-0.8009647667,-0.0139361738,0.1245395009,-0.4043580795,5.4167510875,0.6237166594,10.0828804245,0.7848494082,9.6835507003,3.0578625043,1.1431433916,-0.9118413148,0.956219868,-1.0021837037,-0.3310125038,0.3210376487,0.7127713415,9.6637960225,0.8168767004,0.235367992,-7.8286228893,0.7014536852,129.7078002635,0.3984965926,-11.185443754,-0.4815626987,0.6487605783,0.2773626253,-0.3350686577,-0.3444029643,-0.9681372316,0.1069346907,5.5533275682,4.1360664423,6.6559047087,1323.4940886519,2.6641734852,-7.4818265497,0.5332570779,0.2518743815,-0.9691373356,-0.8887030019,0.257104871,1.7980167186,211.0958190402,4.3221671012,-2.1439174678,13.1182350719,2.8939039826,0.977366957,0.2424481542,6.2090154637,1.2805515918,3.3251419898,-0.6957439714,0.296654849,0.6429780411,6.1582770909,2.8688342446,13.2573389327,-0.7981661938,-0.8181782803,0.7671793406,2.0520880153,-0.6189365538,30.0569772012,0.8778904899,1.5058739287,-0.5273495617,-0.6981938958,32.2425947103,4.8483604477,0.043415715,-0.0495831128,-0.1266057322,-0.6593678734,0.2710420331,0.3053085892,7.3758427535,0.3169920097,11.1532483697,1.8396363179,1.1647423293,1.3224501765,7.6976229156,-0.5016678063,-0.3118418189,0.6910798376,-0.4493418624,16.452076535,-0.0142046414,-0.0109064097,6.9187543574,-0.9839253024,0.3555075029,0.6092260886,0.8088634413,0.1739472442,5.3226010463,-0.8459123559,0.9507491381,-0.4248000699,7.6541552147,1.086913162,9.1406633682,3.362309182,-0.752096393,16.7666416953,2.2156245535,-0.7021843396,-0.7519075321,-0.8826648244,-0.4331880633,0.9963377286,-0.7965481698,0.6186749651,0.3213938567,-0.4036793156,0.1660776184,-0.23844392,0.2238811608,-0.6450355215,-7.7224098268,-1.0287048667,-0.5848959126,-0.1435523487,0.8629031146,-0.9002990256,-731.481586455,-0.6590319128,3.0461638199,-0.9658265082,0.8945719078,-0.637484103,-0.8899361367,-4.4322305193,0.5722138644,-10.1097937371,-2.046458384,-10.3472142093,-3.0005235618,-2.3008562329,-0.1709914945,0.12355744,-0.7705917541,0.1041229481,-0.3577340321,0.7257665485,-8.5341421578,-0.1135795226,0.9682418513,158.0725010398,-0.8970074532,-103.8570985624,-1.0858820947,3.1571499488,0.3462859382,0.4463329937,-0.2885490379,-0.6279803289,-0.9304357133,-0.7420653328,0.3592533311,-4.7220503836,-5.398226638,-8.8695289052,-1323.4398224727,-8.7050791485,0.1602827747,-0.2612966593,-0.9555102117,0.8942242532,-0.1983317942,-0.5507006375,-12.0568463569,-60.2617545916,-0.3279717641,1.0014814008,-1.0647028569,-5.130356475,-0.4947310162,-0.1431999603,-7.4468442393,-1.5627011482,-0.5887579553,0.1513239742,2.7215022135,-0.9797031889,-6.874591337,-3.7520801786,-119.2814369105,0.0981873199,1.988976475,-0.0240329399,-4.6848124215,-0.550392332,-35.8720798156,-0.1096632735,-2.3927563793,0.0372321375,-0.5718301627,-66.4540265368,-3.1231666055,-0.0575069775,1.6889742306,0.2307980652,0.6710896915,0.5242514174,0.4451620648,-8.7566138808,0.018249368,-10.00505896,-2.6250024079,0.0108169274,-0.4466045894,-5.9612052008,-0.8527065855,-1.2776228946,0.224543683,0.7904980932,-5.1679723261,-0.4344555261,-0.4859347755,-5.7641179137,-0.0159279358,0.4462007248,-1.3922186415,0.4875026012,-0.9806536555,-6.2041762666,0.1458560861,-3.2971619718,-50.6233299761,-8.9055661872,-2.2143130061,-0.3448799857,-3.8665715266,0.291122902,-126.0949109022,-2.8889485435,-0.5524627426,-0.7679556213,-0.8078972469,-0.5903997496,-0.0616040231,-0.4606526667,0.609640605,0.9925317645,-0.5902375872,-0.5874458112,-0.0119733153,-0.435719958,-0.1362990627,7.3500195229,0.3018228868,-0.4826309833,-0.5720974772,-0.066021847,0.1035095864,343.5030505358,0.0336750842,0.2606069984,-0.9854948408,-1.0246152227,-0.2682862987,0.3023466823,8.0958019014,0.6107863622,11.2147924985,1.0132573552,9.2494986176,2.8745109722,1.6118633884,-0.5913600094,0.6815796063,-0.7770299314,-0.2641194591,-0.82392881,0.843618982,13.1491138909,0.1825896185,-0.5601283312,-6.4341778922,0.1955729995,954.5865180022,1.2106161433,-0.1230242635,-0.3764579833,0.4542092829,-0.9507004773,0.1808217101,-0.2914152564,-0.1425760922,0.0392470347,4.8123682283,7.4796877857,8.0234267244,1323.3954609219,-0.1153156606,-0.6383075469,5.2430626778,-0.9089385155,0.0741640223,0.2118432191,-0.0989885886,-0.7656882319,-1339.7222988788,1.4735797523,-0.2666942473,1.4043122864,0.115571097,0.0602098607,0.0438675483,8.6306335528,3.6571313161,-0.586042139,0.9846268056,0.4950225532,1.0022913436,8.7603836859,2.5678708481,8.8271103039,0.1805604413,-0.8638501522,-0.8398976809,0.6057321651,-0.5090647805,9.7318796439,0.4507556708,1.8014752812,-0.6916762699,0.9693313464,-2.8241670845,4.850993907,-0.3959883479,-0.4109769575,-0.2648905773,0.1544362572,-0.5789341716,-0.3332617005,8.8265871336,0.1771501046,11.1035225621,1.4010327888,1.1305748608,-0.7434602123,8.5979092382,0.7420043562,-0.6972336598,0.4815584548,0.7341412718,6.9333948281,-0.2763038946,0.6875891813,7.1048595616,-0.2230997674,-0.4813990401,-0.8914541419,-0.5520223423,0.6949891967,5.3523825194,0.8659692408,-0.325203376,0.8987666835,3.9808314656,-0.3912598741,0.21980561,0.4878684223,-0.9045360649,22.3747546964,2.9382520707,0.0073239729,-0.278603403,0.2197428671,0.9450340716,0.1677098399,-0.3077754539,-0.0878832304,-0.8089336636,0.9831698493,-0.6867009548,-0.6038624018,-0.4138421936,0.6523514116,-4.1018028726,0.4582424864,0.4955897247,-0.5459556759,-1.1456051457,0.7196382302,-511.2501466113,-0.7255448823,1.2890261354,0.7604417905,-0.6232996331,-0.2494000671,0.8207513887,-8.2638041573,0.3970646669,-11.8066036986,-2.092067067,-10.0742681084,-1.2980370134,-1.2005876106,-0.7746038045,0.368071415,0.3122531133,-0.9169031257,0.1182605569,-0.7206947093,-12.1266652274,-0.7770715075,0.2690589663,6.6394210668,0.5918625143,-862.4435654495,-0.2434153523,1.3995059824,0.4902743267,-0.4985973965,0.8829916741,0.92395301,0.6450482162,-0.3937218933,-0.7048712161,-5.4469186015,-8.0921831157,-12.6120652598,-1384.1955790032,-0.782923947,-1.2938707221,-1.2899980833,0.5922092798,-0.7840858228,0.3243602803,0.6049773115,-0.1615645866,-227.5968385442,-0.8811783975,0.0005737695,0.0488823731,1.0040489474,0.389777129,0.115043908,-10.1614609818,-4.29682175,-0.0238708878,-1.0024949696,-0.5810603418,-0.5597490586,-10.3023103682,-4.6705102666,-7.130549251,0.4802491881,0.000680622,-0.0990478324,1.0000594489,0.0632405758,-20.015640964,-0.5330921864,-1.6660619665,-0.0924838046,-0.9802690776,-5.5638012749,-4.4621577189,0.2977371755,0.8880769295,-0.7702331791,0.622240064,0.9810702014,-0.203528807,-8.3817974759,0.5585085789,-10.9053770971,-8.1783808882,-0.4903430051,0.3133282659,-8.8911567556,0.441209415,1.7020887167,0.0791408051,-0.3865695111,-1.2547060871,-0.7373354204,-0.5047356045,-8.7518121374,-0.9138775167,0.8678287745,-0.6155492553,-0.2135866006,-0.9565080056,-6.7091588199,0.4017230381,0.3638121681,-0.4230403982,-5.5970411849,0.0663962049,-0.9314580682,0.7717048304,-0.7525691779,-30.5511101995,-1.3066126882,-0.5040690563,-0.4835288051,0.5498506369,-0.9235229069,-0.5057410021,-0.4925062731,0.3869027985,0.0435076693,0.6859436369,0.4698592039,-0.1473141742,0.5757000822,0.4531375955,-7.2245436831,-0.442524673,0.21746557,-0.6350596457,-2.0383501265,-0.8418918698,-513.8606472669,0.6602920439,1.2979094014,0.7644879447,-0.6208853125,-0.9352626923,-0.9603519857,-5.0431784347,-0.054339606,-9.7663434139,-2.1376596037,-9.5585619412,-2.9746939629,-3.5178706186,0.4484896605,0.5100091088,-0.0853855087,-0.6303473839,-0.2041059438,-0.6259473427,-7.6462537698,0.2885370734,-1.0811970453,12.1291331825,-0.3059336727,-92.7481881765,-5.3956238515,6.632650031,-0.1074130728,-0.9709555246,0.4251614963,0.3392880964,-0.1714867203,-0.0785416072,0.2502452999,-4.2660483183,-4.6334600883,-10.0401942446,-1832.4923587718,0.1819271626,-4.0802795478,-0.4375017227,-0.4091343984,-0.8805414154,0.4064113614,0.7760298456,-0.5089212862,-424.7244649145,-1.4884416654,0.0022901318,1.8042862361,-0.7787390675,0.5894232351,-0.0689237486,-6.5118648701,-2.8755587068,-1.9945536036,-1.2155426563,-1.1248477352,-0.5929870431,-7.5442511117,-3.3155372355,-8.3867507932,0.6202267059,-1.3429990071,-0.0915279907,-0.9681894832,0.3699781561,-30.798924879,-0.6990420622,-2.208107398,-1.0158797798,0.4796013551,-8.3324469318,-10.0452213577,-0.752151025,0.9295989779,0.4372523523,-0.8044272904,0.411739776,-0.1627039183,-9.1691223439,-0.7817369035,-9.6719308589,-4.5149646023,-0.8940866519,-0.3277307704,-6.5235184933,0.5188570892,0.8107968628,0.5539477353,0.4584007019,-18.8275805788,-0.4405907733,0.5125759868,-3.5148061956,-0.8303058614,-0.164127233,0.3672771952,-0.1438483335,-0.992580064,-4.5528888301,0.8392619167,0.4231242997,0.5698680436,-9.5840943624,-1.8316267337,-0.1561358239,0.1056488198,0.0632934198,-101.0598446003,-2.4170607066,0.5009024583,-0.013955754,-0.0967945943,-0.2502964398,-0.9745562229,0.2095534241,0.4575165119,-0.4317792307,-0.2901589489,-0.4404429304,-0.2253577852,0.3492301024,-0.6842983754,-7.2912009248,-0.6363545961,-0.4459809187,-0.9674296148,-0.1548458517,-1.0353574625,-521.8244403899,-1.7920137727,2.0046828587,0.4411183804,0.2119560531,-0.1049018601,-0.0920938912,-5.5348901248,-1.0232146801,-9.6357862369,-3.1776705668,-9.2401998086,-2.5600518138,-3.8835898438,0.4871457764,-0.8476098294,-0.3160035858,-0.0523242932,-1.2648175167,0.5647916283,-7.1717106535,0.756633468,0.4000171887,6.9760865354,0.2520324994,-391.4948067771,-0.2352358661,2.8886433953,-0.8689901113,0.7155407032,-12.0027766105,-0.5299371488,0.5166663331,-0.8283399936,-0.290574768,-5.6425060753,-5.9624651532,-7.4730131102,-1851.9668674088,0.2960211785,-1.3881509513,-1.0518995951,-0.2899033387,-0.1516473384,-0.7133479781,0.7093953109,-0.9432839867,-1.2244133764,-0.7430242194,0.6927344186,-0.7593929711,-0.8949712411,0.0497083258,-0.2389010838,-6.8558428027,-2.021385328,-1.9557044417,-1.1629291793,0.6988544332,0.1475630758,-7.7648083193,-5.1023552925,-37.0640245944,0.042514685,0.4254521367,-0.4527770043,-1.1764983463,0.589318331,-36.5172558934,0.2775917789,-4.1296251593,-0.3895589884,-0.1666409539,-3.2911315529,-13.7785381853,0.4279735702,0.1751549149,0.7692854979,0.6339650085,0.1021187822,0.8647130729,-9.5033430355,-0.6167351741,-10.573676567,-5.9660296118,0.4233254539,-0.8402327095,-6.4076696848,0.0117263242,0.5381782032,-0.1216924603,0.6236847925,-11.1968258538,0.2157300351,-0.1203540534,-6.1039948953,0.0501020633,0.5276485847,-0.3803395112,-0.6864623656,0.3883719053,-4.6692834125,0.8879922871,-0.297798982,-0.5232185093,-8.4543417722,-1.5717870029,0.4318266325,-1.9666511148,-0.6941972838,-254.52014834,-3.6270755604,-0.2208400278,0.7647802825,-0.3794456595,0.485641615,-0.9323647822,0.7569646141,0.3460320141,0.2698088288,-0.6179019953,-0.2690403365,-0.8153984354,-0.2559614967,-0.2279897602,-7.2365410963,-0.2705036557,-1.313438878,-0.3693149079,-0.7308182374,0.2202923072,-355.0785820892,1.0685208242,-0.2320588888,0.1863014605,-1.0493150171,-1.0182794833,-0.6385233912,-4.6858904713,0.2227589044,-10.1723517594,-1.816691596,-9.804779548,-0.9821404121,-3.429854799,0.942912323,0.6924515988,-0.5758632426,-0.9870811306,-3.0788369151,-0.533398023,-7.1727540511,-0.8703532293,-0.4706782802,22.5743629344,0.2678607842,-459.3328620983,-3.4583484662,4.5729016034,0.3153966501,-1.0577993824,0.2537517598,0.1359684272,0.020475979,-0.3395517409,0.5894755542,-4.9228878253,-4.6424728314,-9.4831569943,-1852.9754834044,-0.8780679645,60.6672811634,-1.0687679749,-1.1902283383,-0.283257716,-0.4041990761,0.4735418157,-0.8771025375,-433.6637146375,0.451325189,2.8764295871,3.3404598823,0.108179415,-0.2076046348,0.8096805657,-8.4842030102,-2.8980186408,-2.2992154881,-0.9133945579,-1.1815826054,-0.9712554703,-7.5651583241,-4.308435064,-49.9486086325,0.7766120644,-5.9008339902,0.5947092687,-0.1987756237,0.3325261338,-40.8574957222,-0.0924556012,-3.5131523401,0.5028984541,-0.3287295626,-6.9183636707,-10.5620753336,-0.9448666133,-0.835743401,0.6557917478,0.2942744299,0.0259447031,0.8561524718,-9.6397057487,-2.2208816858,-10.9574123288,-6.7251217851,0.2508933996,-0.278046012,-6.5363529838,0.4445960327,-0.8543912326,-0.8167367491,0.2456435759,-4.6719166464,0.7813713415,0.6977685502,-5.591787237,-0.1797227195,0.2114004224,-0.1314215423,-0.9793276662,0.3315396376,-4.4310733749,0.123667119,0.5186997202,-0.6245987559,-8.5443919973,-1.3672029555,-0.5746306165,-3.8280201072,0.1246820164,-122.7308559512,-3.0924307563,0.0402923071,-0.7035212532,0.2057266938,-1.2007906858,-1.1087432107,0.6385388647,-0.4153344033,-0.9869345637,0.7910597384,-0.8561602326,-0.7240216179,-0.9769942222,0.3639740072,-6.7613853364,0.3004940898,0.2915100892,-0.9404416618,-0.0364864751,0.4844674801,14.3096956012,-0.3547461957,-1.4955936399,0.3188593355,-0.8303688045,-0.0064216183,0.4446517928,-6.8884823332,-0.8208964962,-9.5555257602,-1.9989289466,-8.5582758949,-2.2398052063,-1.0553628816,0.7657548084,0.2515441621,-0.5020774111,0.3627567235,22.9836287886,0.3248582877,-12.3765843295,-0.4372479193,0.6523499536,0.9051456416,0.2132867188,-240.8370805284,-35.730866059,31.362961346,0.8748355467,0.6581924708,0.1262676903,0.1418169161,-0.0574851354,-0.9458694409,0.261795689,-5.7283363682,-6.0681924741,-8.1836771557,-1322.6618681386,-0.5622876485,15.5140308223,0.5543520981,-0.120183417,0.6621225354,0.693644184,0.8849972889,-0.8611173334,-118.4994950927,-0.2318580213,1.3483594243,-0.8387502309,-0.6324018799,-0.7677695315,0.0967221891,-9.4772845222,-3.5659011586,-91.5202088643,0.4648412452,-1.5212783856,0.2615220755,-7.9558471012,-3.3760534838,-10.9387974019,-0.4670954805,0.76081889,0.0143179583,-0.5390949524,-0.0669447757,-19.6299640308,-0.3032447492,-2.1311749525,-0.6010764697,0.8283852098,-2.4610372975,-3.1151839847,-0.8917234953,0.6589332573,-0.3268637868,0.5085896996,-0.0692755202,-0.259236105,-7.6115803208,0.1959035795,-11.2114985057,0.3617455705,-1.2733893008,-0.094576235,-6.6857143479,0.4295255251,-1.6744326501,-0.0280474577,-0.8857862365,-4.5657576801,-0.7146478248,-0.9940986995,-6.7466817019,-0.2948741419,0.483637809,-0.3983913109,0.7836572693,0.1197387427,-6.496855145,0.3397876564,-0.4766980721,-1.0424011659,-1.5948599962,-2.5931260116,0.2869812766,-0.5625839198,0.9519046176,-2157.8269446901,-3.5295667621,0.0296904197,-0.584140226,-0.9522899643,0.938749677,0.4402798603,0.6457255613,-0.2567119703,0.0283806244,-0.3174216195,0.5351048154,0.3112216304,0.3969578887,-0.1418510625,-2.9198113275,-0.7962623391,-0.1210894073,0.6012270945,-1.266708739,0.6095411486,-776.79491862,-4.5168125839,-1.1928576425,-0.3762359643,-0.6405794569,0.7027158014,-0.5604866088,-9.2994437811,0.1594068041,-11.9840375437,-0.3836151275,-10.8888073461,-5.7488008817,-2.6558640013,0.1757853455,-0.4082223855,0.3829949372,0.6485064699,0.9165612879,0.2372804704,-21.1797969029,-0.6859022695,-0.9442618745,1.8321602247,-0.0493734835,363.060200547,-0.5792242216,-1.0552822281,0.394248891,-0.3210137982,-0.5758919358,0.5128706675,-0.5509946105,0.1936521084,0.0890957101,-8.8177967499,-9.3297457804,-11.3147500174,-1673.6240654738,0.3120009843,-2.1113011175,-0.656383262,-0.0662698784,0.7039091685,-0.3123918987,0.9789134085,0.6517890651,-13.2060532139,0.0842433726,-0.359666751,-12.8113722316,0.371279083,0.0604031269,0.2855295832,-11.3374609454,-2.0040731179,-0.4598097852,7.3398729601,-0.7781220984,0.7365247744,-15.6068603025,-1.8429600859,-8.246848912,-0.4264637323,-0.9154901529,-0.8652204418,0.0539910728,-0.4547452913,-6.0240715702,0.339478992,-3.3131565864,0.3973748513,-0.2520089018,-11.7711350834,-3.1437727646,-0.2267471294,-0.5276276877,-0.2492084,-0.6347814379,0.5369564842,0.4703170303,-8.6154079461,-1.4880004618,-27.3664844981,-15.3552054337,-0.5995902454,-0.455980012,-10.1938039103,-0.4473735992,0.2662166282,-1.6479539499,0.2078456867,-54.0967037489,0.4121937188,-0.179969692,-7.5632574694,0.6318820566,1.1241780222,0.7651877926,0.4404129986,0.834465656,-7.599627866,0.4287261672,0.7325611861,0.5944055678,-6.764285174,-1.0490993501,-0.958838873,-0.697638056,0.5390027252,-14.7277089537,-1.3484228095,0.065511195,-0.7145797879,-0.7661988874,-0.512995421,-0.4908170435,0.6080604788,-0.1504487953,0.9464315733,0.0936750618,-0.3139226861,-0.3250039573,-0.3755620645,-0.8721391353,4.0033598993,-0.9451068524,-1.0261345992,0.6236640924,7.5593745614,-0.9988243463,-17.7003037968,0.4204292285,2.8433969957,0.1072185426,-1.4230198367,-0.9873632776,-1.2633025904,3.3398357293,0.5169582033,7.509764916,4.9361678466,6.8278298974,-1.1023225098,0.403688658,-2.6956083405,-1.0513285972,-0.6067449612,-1.1746125592,-0.2039272846,-0.7106541307,5.8410918065,0.0025440814,0.1266634911,7.7763354424,0.360839441,2.9227875479,20.5017364076,-5.7442034169,2.329746476,-0.6742202011,0.2412452529,0.8617196561,0.5245115462,-0.4763627058,-0.1061889399,3.6131330434,4.5150134355,7.5635360699,1164.0717728892,2.1918290608,3.9240056841,-0.6081630469,1.2414341173,0.0990299804,-0.1207232663,-1.1251078086,0.6504340559,-155.5193438559,0.4359869239,-2.8774304092,6.4688542213,1.4088343801,3.1883388313,-0.1842230551,5.9163028836,1.1533718791,2.736075306,-0.0355283234,0.1524280647,0.3388936524,5.6686415002,3.6528450123,70.0563519631,-0.3655060713,3.2637520446,0.1133368664,-0.3263536926,-0.7845426877,5.8928106275,0.279462869,1.4396945175,-0.5199030038,0.0527126435,-24.5994667783,3.3553295797,-0.482567275,-0.7043497366,-0.273391982,-0.0221211245,-0.5843246306,-0.8317963567,8.4607734065,1.4085567317,6.7747161255,1.1879520528,6.6957159407,6.7770224749,6.798081006,0.988658489,-0.5457739259,0.2000273939,-0.5509604238,1.718831763,-1.3096220432,0.8442912549,1.8895713268,-0.7785526839,-0.1896658213,1.5357241942,0.160751754,0.1453231956,3.9431328227,0.3023952496,1.9324045466,-0.1370207853,4.135505807,-2.5113120577,1.4062318201,2.2215992616,-0.3501385191,6.1899107479,2.3645069097,-0.3848107674,0.3140927372,-1.6488245223,0.6989978493,0.1363131287,0.2251020439,-1.4006690917,0.341963097,-1.0139869823,0.8654137333,-0.5939358462,0.9259642492,0.8276159577,8.2273460445,0.1311292664,0.2660817181,0.6405068271,0.5879683704,-0.4061086891,604.4046097919,-0.815166962,6.3728308926,-0.293939343,-0.6654005127,0.4935107639,0.011713667,7.7916751073,0.0041538782,11.1578408348,0.2261024463,9.6931996611,3.0918460913,2.3376255642,-0.2274923474,-0.6006341462,-0.2781299722,0.1372418936,-3.2061463633,-0.6403057763,12.5815844428,0.1771255926,0.9753940337,-4.1851282894,-0.5985940271,220.6105128315,-3.5370284299,-3.2680054307,0.5460513201,0.7730656189,0.8188340137,-0.1099920308,-0.0863591528,-0.95557068,0.0982015927,6.2293449007,6.1509966341,9.588860594,1613.7520502791,0.819185873,-4.4706337368,-0.8293940113,-0.4542065467,0.2521777768,-0.7903464559,0.4360844361,0.3508743967,15.5604654465,0.6765119482,-1.9828540258,3.0718593559,-0.2088474974,-0.4879368956,-0.6393395568,10.6020372082,2.9665357457,-0.0583804386,0.8179925841,-0.5504571628,-0.6449378967,8.1897572637,4.1637982909,-5.0604153256,0.7989419224,2.3181649597,-0.3539015202,-1.0375219607,0.9431568379,36.7850486199,0.3503478216,2.6454251027,0.3094794425,-0.0463416966,7.2184772309,3.2274844681,-0.1567053616,-0.4834605517,-0.1542098857,-0.2410748357,0.2893229267,-0.7878999386,9.1241624535,-0.133888356,10.3290021622,2.6847794868,1.4614933754,0.4087816948,7.7351104994,-0.0003789951,1.6609923516,-0.3154865263,0.629830775,2.923068192,-0.7257590431,-0.4214057913,8.0321640813,-0.3249976855,-0.2299465746,-0.6795292597,-0.4318028359,-0.294044881,6.2158869687,-0.1225579047,-0.5625630854,0.5101493419,9.423551837,1.2281468292,0.7648497811,-0.4359367121,-0.3151234885,13.7581380415,2.9968940651,-0.0302034851,-0.82177544,0.9771084793,0.8361619102,-0.7640806158,-0.0801776998,-0.8377198643,-0.3836459428,0.7048914985,0.1657190177,0.287759705,0.6742557827,-0.2426779821,8.0777560081,-0.6679239866,-0.0074433961,-0.6158479765,1.0788966968,0.1152911879,139.12480557,0.6156199997,15.0846598156,0.682912457,0.1897993161,0.8137795363,0.6980324943,6.9819286298,0.9170992753,9.5585241347,0.1578923602,10.2187432493,2.5790966139,0.9897174672,-0.9692887402,-0.7211907482,-1.0020216877,-0.5256634044,0.7827388196,-0.4491188768,11.8718703077,-0.971759951,-0.5116111001,-11.399536516,-0.8097050617
   956.2124609268,56.7831020583,-47.5213028041,0.5190537248,0.6385103938,-0.0807382123,0.2621252592,-0.152589556,-0.6547867806,-0.0484466783,5.4234663205,5.1187798736,11.7666540655,1323.5478662841,-0.7891706038,-10.9229045001,0.9945623449,-0.4440058219,0.1160640898,0.7322990778,-0.2133860855,0.8404953706,81.3536204624,0.1907928769,-1.2469607418,0.9979147141,5.7010137662,0.176294245,-0.725265109,9.622630087,2.9507391825,1.1329670986,-0.3454872423,0.6099362021,0.8911610537,6.6533603306,3.9199171899,185.3051353696,0.9769397111,2.2993448789,0.8784301042,-0.5405916331,0.2299371124,40.2950787314,-0.0700160795,2.7757999256,-0.036017711,0.9647381805,10.8914565297,2.7448943681,0.3707279802,-0.5226863157,-0.0365594223,-0.4013539681,0.2004173445,0.8288978661,8.7537109366,0.2456780104,9.5941873823,7.2742847451,-0.0647714791,1.2718934061,8.1313379849,-0.3530900659,1.2950951777,-0.3411170341,0.5413239489,4.0388621696,0.6974165151,0.4308753871,5.307954049,-0.5546991358,-2.2490526029,-0.3123978133,-0.1496386538,-0.0288119016,7.0583985929,0.7499944303,0.372885462,0.8793088013,6.2757144371,2.6894574286,0.3456594989,7.8418626303,0.7149320469,1712.8396595705,4.2131251083,0.4339694788,-0.7951113285,-0.8369804631,0.0467790704,0.8028867388,-0.6036193759,-0.3844999758,-0.2139255011,-0.7268045471,0.5063485727,0.4796550575,0.8877955492,0.3581428124,-7.336779472,-0.0444142621,-0.1111093691,0.5452072877,-0.9106185804,-0.1866634972,-562.1301233556,0.2402854077,-1.5937679206,-0.423073218,0.5254283157,0.9318509292,0.1532989259,-6.9938267657,-0.3492668035,-11.3358450416,-1.6243617753,-9.6287566228,-1.6135815954,-1.6907987775,0.5443323513,0.4018456521,0.8019580726,0.0811168676,-0.3791762632,-0.7861196512,-9.7087293959,0.882528725,-0.9677505449,12.7318839355,0.7128880646,-114.0413471772,-1.285300452,2.7703391508,-1.0002319404,-0.0732281868,0.0329695883,0.2036113343,-0.293380199,-0.6122114769,0.7288017868,-5.7702776833,-6.0950809715,-8.004366744,-975.3643925257,-0.061004556,0.7661091465,0.2259610389,0.019784394,0.227253865,0.4231185199,-0.2879487486,-0.4272094931,-14.8021208993,-0.0599803274,1.2454558392,0.0995937994,0.2781698994,-0.7455954786,0.8502169378,-9.0533597515,-2.9779874273,-1.165374233,0.604361821,-0.6925424769,0.8529626302,-7.2105625374,-4.1274055035,-35.1911872481,-0.8778883699,-0.5468591584,-0.3612727012,-0.4155626908,0.2019946493,-27.0021101071,0.4262299539,-1.4642604949,-0.4123431776,0.3381188279,-7.6073720033,-3.0852684107,0.4024362963,-0.0228825808,-0.9085338176,0.0576579384,-0.0160513848,0.9397628132,-7.608644997,-0.9336200691,-10.4467662721,-1.4390980157,0.6152363629,0.683115298,-7.1978698547,0.3372520356,-1.4208236754,0.2989538802,0.3122859702,-9.6898972495,-0.202444284,0.4454270017,-6.6563442948,0.3432317853,-0.5499630945,0.7313430842,0.4897986457,0.5890241906,-5.2380283599,0.7337745791,-0.8607677571,-0.1133134767,-4.3679944108,-0.1712476271,0.5507215422,-0.4136726569,-0.4422316244,-105.7104307887,-3.0086304487,-0.5110616768,-0.1457594241,0.8876605836,-0.1213289933,0.1854379772,0.445694672,0.8023351428,-0.8662691982,-0.5057522023,-0.6286909009,0.4303860167,0.7205689863,-0.9810964357,8.1600201829,0.1744370428,-0.3797852932,0.6667943568,0.3391455606,-0.1498059405,639.2617305216,0.3745914284,0.4049587024,-0.3392940098,-0.3927149207,0.5274596208,-0.9090203598,9.049673934,0.0134637338,11.4099750856,2.0824994485,8.852079847,2.0628720336,1.5178733898,-0.9472278093,0.2208511914,-0.3204584585,-0.7364946657,0.1381486266,-0.3769529899,12.9679628728,-0.0008535321,0.5027015332,-19.8290836207,-0.9374255835,217.7039187657,0.7063428054,-1.7630880106,-0.0988563813,-0.8299530896,-1.1633524873,-0.3150364806,0.6638441822,0.0755340003,0.048981919,6.7208906189,7.7245780407,11.2912312397,1613.5559809909,-0.5936614644,0.3422555752,-0.3248931253,0.6602419301,0.1451818269,0.9891236308,-0.1022080887,-0.8484271703,32.8892301891,0.8319661223,-0.8053002107,0.9878042245,-0.8253919836,-0.4039286575,-0.7649058779,9.4828753371,2.1879698197,-0.0337202297,-16.4480467804,0.3553396672,0.7513757757,12.8799872546,2.789391761,4.0768856749,0.2881382447,0.5389578273,-0.6246023443,0.3411954557,-0.8176335505,42.4777634105,-0.1854373684,2.6552605838,-0.1565733134,0.763732855,-2.6287915978,4.2245590612,0.4310716547,0.1525741133,0.9360055037,0.2323178164,-0.9727845993,-0.6723517722,9.4677937103,-0.6021527066,9.6915806084,2.8909571463,0.2049813156,1.2516380263,10.958755597,0.2841019524,-1.0607712303,1.0391319356,-0.1325305457,6.8223288297,-0.1899570394,0.5938358422,8.3049353028,-0.7179675573,0.7256169216,0.701504405,-0.6489576604,-0.2798291235,6.5238977908,0.1798338702,0.0413636251,1.002015251,6.2720232405,1.4876510971,0.6037876484,-0.0362205039,-0.6890716569,702.6257197005,4.498827163,-0.9792460738,0.0593521008,-0.1078660383,0.4629734684,-0.1596778764,-0.9342374414,-0.4445952084,0.2959376161,-0.6508011011,0.3901429291,0.1034900978,0.7895724694,0.6133372158,7.0755175957,0.1256948996,-1.8837997782,0.3166023575,0.9241436898,0.7867753601,560.0501352778,3.7348645681,-0.6914640673,-0.113062496,-0.9665438469,-1.0111171346,0.8199448087,5.3404214347,-0.1336123818,9.6936092439,0.26162438,8.7595077028,1.2384850369,2.1657275724,-0.7416868877,-0.5278017004,0.9241978071,0.4587623825,0.0780767514,-0.235654833,8.3608033606,0.9184767706,0.9681662423,-3.4801719576,0.3435607622,38.9209931184,0.3238408099,-5.5791270499,0.1846055689,0.0944642388,0.5522379249,0.4357770494,-0.6912626466,-0.6319923813,0.2875241523,5.380735715,6.0501567027,6.4124482768,1613.4798942857,-0.4313240241,33.8021414867,-0.7554977873,0.6934115729,0.6733570317,0.3799711531,0.408203564,0.8013683439,-183.513857782,0.7374746733,-0.2581162088,-0.0673453059,-0.2871502939,-0.0496688813,-0.9509920946,8.8373671339,2.5986140743,-0.803396362,1.07388393,-0.0863443081,-0.3735531062,6.8286988226,2.8237125823,15.209775894,-1.5417565611,1.8787233039,-0.8529840684,0.3934331624,-0.2380324653,10.4500677253,-0.78302143,1.2892808723,-0.5996046997,0.9359631365,2.4402320804,8.184658924,0.8629920392,-0.6827129835,-0.606923337,-0.4256329203,-0.5138187932,-0.1746215039,7.9696277171,6.0475398297,9.7090459628,0.2648923889,2.1301913199,-0.5238849562,7.2650516851,-0.09545139,-0.173393387,-0.7093472851,0.1711697765,13.7441274689,-0.808352329,0.2302678728,7.8460063511,0.9591816541,-0.2184227122,1.1825999334,-0.3265697392,-0.7598460937,5.9404082006,-0.4049717184,0.6847503046,0.8553946201,8.7719165007,1.828156096,0.1864315054,0.0180833362,-0.4311856203,1.7462642519,3.0523210195,-0.301034742,0.0213171037,-0.5614387763,-0.5306736741,-0.892627058,-0.2778816611,-0.8996568385,-0.8806316645,-0.6968756552,0.6839212194,0.1993972863,-0.4526761974,-0.8332399803,-8.598450171,0.5639412625,-0.8127358437,0.3223489162,-0.7325019273,0.7129364531,-596.9726760705,-52.5403518001,0.0512416014,0.1060608055,0.3000545948,0.5006130362,0.7554057289,-6.5624675507,0.3912328969,-10.7389833893,0.1184234733,-11.0625251914,-2.1495674033,-3.0481665366,-0.0347690995,-1.071663789,-0.3009128042,-0.4014951664,-0.4259185905,-0.3534556649,-12.0571048695,-0.0387952675,-0.9559661284,4.4387085597,0.7512192912,-560.928731396,0.3749167857,7.3185108453,-0.0603986853,0.7743866428,-3.8114951175,-0.8103876277,0.7772366603,-0.970146773,-0.4468510091,-7.0375301577,-6.7532746021,-10.9863329801,-2233.8857238073,0.1844234086,-2.1547238064,1.0820788581,-0.2126127139,0.4998570726,0.6890697686,-0.3183135906,-0.4006870566,-285.286017836,-1.7491789053,0.280407202,0.1220112589,-1.0858379391,-0.8216354213,-0.8805960436,-9.947767553,-3.0020043163,-1.0872779287,-1.4965897427,-0.8087081142,-1.0514149814,-9.7136330923,-2.5564806635,-3.7262593463,0.8097129162,-0.3569122857,0.8743158621,-3.6604497812,-0.472996947,-11.0035827676,0.4332054201,-1.3492342258,0.5977929559,-0.4435115445,-0.0557698924,-4.5728821077,0.106048429,-0.2894342741,-0.8964391089,0.4619266256,-0.1227813417,-0.4981460754,-10.3617305801,0.1671300301,-14.3548590533,-4.3295742961,-4.2878634324,-0.814376272,-9.6006474333,0.777872074,0.8681101693,-1.3190312464,0.4175414606,-4.4160274717,0.4704093439,0.1004685394,-8.0009857578,-0.4995357319,-0.0992651891,-1.1044098164,0.790469858,-0.3401549005,-5.7830911234,-0.4587703139,0.6332624625,-0.2903964446,-7.3042189144,-2.6700398512,0.5539663844,-6.3804083492,0.1110323504,-185.1553417752,-3.0575228914,-0.5797472384,-0.2929089744,0.8857098614,0.2852090358,-0.0384743661,-0.4522567357,0.3250456249,0.0752689006,-0.6571840642,0.0890330573,-0.0482672512,0.0951323767,0.4215570906,-7.2629448795,-0.7158645471,0.7150920264,-0.6474039393,-0.1653921928,-0.9770101052,-927.8460619852,0.1642563562,14.8836673956,-0.2021409433,0.8761540947,0.0933467113,-0.2292905326,-7.4587339368,-0.9686604107,-11.0411363382,-0.5891045405,-10.7012619088,-3.074541999,-1.6247576703,0.7646515091,-0.8942730192,-0.7515631747,0.4599601455,6.6941443971,-0.0730671301,-11.5918046869,0.5067716891,-0.3302458144,2.0329251069,-0.1787600429,-304.4316206977,-9.4247163008,2.3894962269,-0.068146757,0.9764107558,0.5939669145,-0.0450679077,-0.2624343043,0.8064929203,-0.449314929,-6.0743577061,-5.8924715842,-12.7367668533,-1613.5118417558,-0.307170371,-1.5425774352,0.2291152921,-0.8600346734,-0.0835165565,-0.2432787018,-0.7582729339,-0.6725613916,-83.9852874354,-0.3176016432,1.3402113584,-11.547186257,0.1476361725,-0.634269302,-0.7861478258,-9.4727593325,-3.1462294276,0.6235313141,0.0031696546,-0.45603551,-0.7933046858,-7.7444892175,-3.8032408247,-18.4263153458,0.4226132733,-2.7089351629,-0.8172569243,-0.6584308252,0.0622046423,-36.0623762138,-0.8982083579,-2.802040338,-0.0224150513,0.9396879048,-141.5371018861,-3.9896358421,0.5473821915,-0.1178551523,-0.2733473164,-0.852402032,-0.6570743205,0.729722454,-9.7091689696,-0.1035742391,-10.0199480163,-3.2553441429,-1.1922553275,-1.2819591463,-6.6414149524,0.4169067595,-0.0248135789,0.0379190044,0.2670736354,-5.8925536427,0.9231772769,0.8795923532,-7.1653660017,-0.4170724742,0.5204622903,-1.1508612955,-0.9394589331,-0.6988066091,-5.4145447877,0.1460738795,-2.0672144773,-0.2812082971,-5.9325799529,-2.990662821,-1.2372354232,1.2542092852,-0.7769173851,-87.1630620728,-3.2589142588,0.7083301724,0.355607474,-0.8015339272,-0.6974320084,0.2864121944,-0.8141202792,-0.256614081,0.1273612008,0.0586733815,0.4361262294,0.3416096537,0.3332499616,-0.5134916416,-3.4004160333,-0.4050301296,-0.0890098135,-0.6971063148,0.3291609208,-0.2633569322,-1161.6055821276,-392.8535894049,0.6561274282,-0.4380330559,-0.6593430902,-0.0088560644,0.7002016644,-8.1596836715,0.5062375242,-11.2589375652,-0.9174549295,-11.0253630718,-6.024248498,-2.9983918788,0.7326889463,0.7817367145,-0.0182042105,-0.8702013188,-0.507988172,-0.2378236892,-20.9549455297,0.9871034826,-0.0670526495,2.6458505193,-0.0198884384,-175.4786340432,2.7431458545,-0.7659679653,0.6589831783,0.0396214766,-0.2530188475,-0.6565109843,-0.6361985898,-0.4739075397,0.9595756262,-6.3561982379,-9.7780329773,-9.673816448,-1779.3609166312,-0.9971818721,13.9387119443,-0.5951038105,-0.4464760473,-0.6673132126,0.8381447628,-0.2186567484,0.7596015627,-248.2107716493,-0.4479630458,0.9309827905,0.2047551558,-0.1197886638,-0.2244743098,0.2780145016,-10.7319748581,-3.2976353449,-1.3083869395,-3.2596902262,-0.5401959981,-0.3783505709,-15.7929214364,-3.8991130092,-9.0273948231,0.1271957769,-2.2189815356,0.6256124337,-0.0617845357,-0.8103115001,-4.4247631669,-0.0768215012,-1.5660442244,0.5237259421,-0.252160552,3.0572845872,-5.0593224154,-0.2270299166,0.2333222299,0.6599342502,-0.9852337517,0.1485624721,0.0168087789,-11.4089373965,-1.1205177074,-39.4770414955,-1.4722978616,-1.9465391489,0.1821835094,-10.1005590688,0.670749265,0.2511163009,-0.1806883481,-0.7862741396,-22.1613461452,1.0071488012,0.5549022407,-8.5697865882,-0.9884442531,1.0598579458,-0.6723079529,-0.6039139812,-0.1057185681,-7.9314387271,-0.9166344236,-0.5222411576,0.1283944724,-6.1734398185,-0.3392873362,-0.3713489751,0.2499387071,-0.528626587,-373.8938672691,-1.6358216925,-0.6528556483,0.745820151,-0.5435081355,0.4878300369,0.2706104653,0.4738075956,-0.5387067014,0.4252313286,0.7943191768,0.6092982768,-0.2501628955,-0.4940785104,1.1146233867,-7.300423395,-1.3759266036,0.4661021449,0.3306444083,-0.2855579066,0.3353634675,-419.9252847102,-0.8691212524,-2.2496219234,-0.1621203373,0.4928735908,0.1942273791,-0.6078960471,-5.3093225705,0.3606601437,-11.2781110294,-1.2675808808,-10.5102703102,-2.3091909933,-2.3879341573,0.079268834,-0.670663042,0.4491960341,0.0927193959,0.6091082971,-0.7440989433,-7.9166069219,-0.5604644729,-0.2179481781,0.278314208,0.9330835733,-1209.4304681572,-2.3137051688,3.8412897564,-1.7664134083,0.991313048,-0.8168409182,-0.5255714287,-0.2695385733,-0.4168344585,0.7547968429,-5.5469025143,-4.8415952614,-8.9025664043,-1778.7910679142,-0.2607120982,-0.826780996,-0.2320008667,-0.254470133,0.4395405039,-0.3351380349,0.0921293177,-0.0220412141,-1536.3140273623,-2.0782612595,0.5099789965,-0.0303925657,0.0579903778,-0.3527806552,0.2755080804,-6.2984098644,-1.806936594,-29.9210748562,-0.9074472831,0.5501100931,-0.8099069352,-7.1933748282,-5.7864910205,-59.1482345705,0.7423544317,-2.8635081489,-0.535841998,-0.9642096781,0.0415638183,-22.7465682981,0.6681357183,-3.3508419647,-0.9896255695,0.3903357102,-6.8996670019,-5.2954515337,-0.8710047812,-0.8938527114,-0.3546276358,0.0131771429,0.5891246354,0.282246279,-9.6548208788,-1.0828945257,-10.6731373557,-7.3068583081,-56.9541901881,-1.7188520314,-7.6366751501,0.1159217763,-0.2683191503,0.0606688036,0.7218313815,-5.8994056161,0.5585193153,0.1181308938,-7.2903241789,0.6425510335,-2.3289144757,-0.2697328816,0.158361629,0.5664728452,-5.0836215442,-0.8897120331,-1.1859707662,0.5372421963,-9.0607095248,-1.1628483701,-0.6703442082,-7.1960618969,0.830585145,-740.9488660183,-3.5169801973,0.0125570683,0.3655389194,-0.0356079947,-0.5170969288,0.2119604973,0.5234186023,0.2039133157,0.0941199139,-0.9029896863,0.8031384915,0.0406863606,0.4416959398,-0.5329417882,5.9997743006,0.2527994552,-0.6111009012,-0.7034153943,0.0979925566,-0.1830162504,551.4882832059,-0.2318183665,0.8379297461,-0.2848204644,-0.0898570468,0.577635436,0.6836936935,8.3739744135,0.4798939475,11.8536563548,1.8167112191,8.5740883441,0.3092592605,1.3391506106,0.6568693625,0.3430710802,-0.2999844037,-0.8239004601,-1.1554237767,-0.2744229715,21.349591354,0.1912610802,-0.6173378287,-17.816031794,0.8533853808,226.9211265909,-2.7317605741,-0.8750184177,0.4152601972,-0.1571978622,-0.1489361821,0.7721726747,-0.4615398553,-0.3241993908,0.085826914,6.8459944641,8.9257419556,8.4636901644,1385.6852976559,0.2016739982,2.9627357843,-1.0186865964,1.0972988766,0.7650241427,0.5193502986,0.6118425358,-0.5783178177,-1110.2632380911,0.3936348705,-1.4189868206,19.0744500979,0.2910824683,-0.0571630369,0.4710620505,9.5327335838,3.132260693,1.7740892829,-21.2607687454,-0.4824167263,0.3832081896,12.4751793637,2.5645108628,11.9458300186,-0.8440004511,0.8035169735,-0.3180909641,-0.2692883858,0.2647401739,4.7275754793,-0.3819744077,2.8695814827,0.2115390523,0.6279837277,1.0352281419,4.0162730268,1.0292772381,-0.5470983285,-0.2148664251,-0.0352075299,-0.7650105852,0.2247297196,8.6797981959,0.6281657508,15.8875821493,1.8126754255,1.1939056394,-0.1862686305,8.0727267975,0.3282231445,0.2678704357,1.2904819041,-0.2651043681,2.4610778268,-0.5410882562,0.6020155662,8.2186268813,-0.971117627,-0.1038816468,0.925558276,-0.3854421574,-0.6315272468,7.2000704086,0.1922930202,1.1835076437,-0.6507898406,6.336566341,-0.016016967,0.6599159247,0.4461885149,-0.4311301277,17.9742236966,1.7751679843,0.1648778367,-0.5725191749,-0.140892723,-0.7838117528,-0.0509927415,-0.61630152,0.5057560709,0.4567662496,-0.9302549975,0.187783791,-0.0278865543,-0.5233959502,-0.8151355906,6.8238654198,-0.4555817098,0.9448756594,0.4774114868,0.9813025706,0.3487792037,548.273233006,0.3116523505,0.8605912206,-0.4413939493,0.8920275351,0.4890498199,-0.7251558262,6.4013975023,-0.4453436795,11.4450687615,0.9757333696,10.3361117058,1.9191942625,1.2962075658,0.0512330233,0.2170423657,-0.1193848613,0.3037088972,1.8022558358,-0.7357627823,18.8369600119,0.0925407537,0.8491792135,-7.7597258118,-0.0694925225,770.6525577334,2.3922930867,-0.9563639382,0.5014640642,0.9599104233,-0.8414850694,-0.4880110904,0.2810719819,-0.2751218735,-0.6027852579,7.2230456508,8.5772887008,9.2710237312,2068.3324271952,1.0263986858,1.6549315785,-0.5623768929,0.118078768,-0.2665575285,0.9442639921,0.6173449337,-0.0048305796,203.9128471147,10.733735642,-0.6062940726,11.1250383326,0.8043753788,0.2376339779,0.3790864554,9.5085845999,3.8953988121,0.7950292957,0.8031719085,0.1821909873,-0.8740461258,12.3651124545,4.4917209428,2.7235025185,0.2671049281,4.9851475586,-0.2969537591,0.8031835937,0.529456435,11.4305695571,0.3395747277,2.2736732154,0.9471164776,-0.9595678012,0.2226357011,3.8940623688,0.6681639582,0.7579118837,0.0535100557,-0.4740704211,0.9246271687,-0.374415451,9.7240632383,19.1763347675,17.9473986746,8.394043101,0.0558300968,0.4775143895,9.7216590883,-0.5376421671,0.9337053679,0.6583102349,1.3896912817,12.38304398,0.0667107316,-0.235756543,8.423706911,0.6375135322,0.8582225046,-0.6954076306,0.0611835267,-0.7321006178,7.4507898869,-0.4185453005,0.0922162182,0.9396034853,7.4717739866,0.0804076515,-0.998892072,1.4257778505,0.8129693777,1109.7216837717,4.7086475383,-0.4586874152,-0.4489435918,0.549234772,-0.484041177,-0.0789194086,0.6969552126,0.152116104,0.5504141059,0.5959408747,0.9430226301,-0.7832071817,0.4498310284,-0.4764822851,4.1370348923,-0.2749048546,0.4546674961,-0.230712883,0.3013550305,0.6272888476,354.5080121087,-0.6186189582,0.0928999312,-0.2914804747,0.4961017817,0.7550594776,-0.6628847051,7.9555143016,-0.7508870974,12.1706934238,1.5031834196,9.7180713956,3.5227362688,1.1284009713,-0.4006667111,0.3543837437,0.1482205357,-0.9016939448,-0.5913634229,-0.0838766857,20.2661386193,-0.3807259304,-0.0614720137,-1.2664992524,0.9163922145,576.7465340479,0.54219376,-16.2050335017,-0.3723585122,-0.6644946246,0.498825248,0.1301500995,0.9307165433,-0.1986601555,0.0386515307,6.7804659558,8.8682607635,10.7816168426,1612.1554112925,-0.2321349249,0.6529511562,-0.4747191161,0.098094004,-0.0475330227,-0.5153803557,0.1401384683,0.0944280204,69.896312439,0.0734777455,0.0827878954,-0.248532446,0.6153296026,-0.236995868,-0.4035276455,10.3909010548,3.5714764432,0.8918565248,-0.3392078681,-2.8653850245,0.1836389601,15.2866027093,4.4114151093,7.1720558735,0.8651374159,0.2158322438,0.0491062265,0.2514471201,0.0421485715,6.2511446582,-0.6046755175,1.4385493998,0.5748138131,0.1609768521,3.7509668268,3.4111669536,0.0179192061,-0.9136566477,-0.0422083679,0.8587834352,0.0575271371,0.9603472757,11.6693350571,-0.3549899183,56.8508033268,2.6241159002,1.3561490333,0.050780714,10.2234796689,0.0694332019,0.7055961462,0.4945362811,-0.6933734577,2.2656029507,0.6389260417,-0.590587841,9.0313824566,-0.7988534321,-0.2778156532,-0.1529044272,-0.5178646515,-0.9697329063,6.881970972,0.390231332,0.260184337,-0.2716830466,6.9806983517,1.4980390588,-0.625502687,0.0018087779,0.8910387702,56.6692785668,1.2818058378,0.4694681844,0.5755457948,0.4440653196,-0.136613252,0.2782610674,0.7469217141,-0.222910971,-0.4388102269,-0.7351607113,-0.4085966259,0.2268003619,-58.9836422965,1.0324559215,-3.6866346701,-0.7436935878,0.1145530483,-0.8369015383,-1.0093270684,-0.6262506248,-984.214378291,0.087173784,-5.1668680434,-0.8111756199,0.7978772337,-0.2617921431,-0.7565715724,-7.690889401,-0.074510889,-12.0657158193,-1.0324298733,-10.5638766018,-3.3097302502,-0.8235958579,0.2484250732,0.8602137713,-0.4308476116,-0.3730607082,-1.1348558641,-0.7281897061,-14.0301804365,-0.4509147902,0.6217736362,3.3641337056,0.0555344621,-948.4039722071,-1.6860833332,27.6463139198,0.0774494907,-0.1839548833,0.652343781,-0.6192177732,1.0053582094,-0.8457759414,-0.9622340296,-5.6748660156,-6.631619684,-11.0438568562,-1364.4688839483,-1.5369657324,-1.4519669809,0.6633497937,0.9162846327,0.2790068694,0.0976792093,-0.060412377,-1.4667631396,-66.4042404736,-4.6175447043,0.4176990062,-41.1521679018,0.2061621023,-0.5008412809,0.7412697937,-9.2609463988,-3.4059412362,-4.1761378869,0.4563973461,-0.2616674525,0.7022499338,-8.3318938233,-2.8141455319,-0.2316140686,-0.6070545322,-0.0287477368,0.3516856015,-2.1709762631,0.0459832318,-9.6668509106,0.7544940917,-2.2387954866,-0.1649448535,-0.9258096723,-91.2365942281,-3.6177050948,0.548179583,-0.4418137724,-0.0125872827,-0.5369086912,-0.9352227678,0.8829160101,-9.7461921636,-1.0359612202,-15.158043216,-1.7593487476,-2.8816543366,-1.1301732688,-7.8510015288,-13.9473459471,-1.1553206625,-0.283475125,-0.6341254868,-5.2944642318,0.996408775,-0.2097679237,-8.5329967528,-0.4668101762,0.9520280887,0.7897522296,-0.6261739103,0.0755431915,-6.7003958578,0.6452992958,-0.3613128489,-6.6233063907,-6.3911690527,-1.514671161,-0.5227668524,-0.8012896161,0.1912531165,-1360.4677246488,-2.6790206567,-0.5839128945,0.1413940556,0.4709166881,-0.2893173078,0.8861678505,-0.2760642037,-0.9923826836,0.3641939772,-0.4625834815,0.0496997602,-0.6596943692,0.3222740002,-0.4389550196,8.4040203542,0.6501608805,0.8675289592,0.7595138187,-0.3932901792,-0.7044220388,703.1648328395,19.2828646172,0.8557663624,0.0539246687,-1.211362752,-0.5256388959,-0.051480325,4.9220589905,-0.6887052479,9.7391040962,0.3110431895,9.8078229943,0.8093772999,1.7908172877,-1.4044376568,-0.8029901926,0.9013158286,0.3080013452,-1.0905954892,-0.2579735472,8.5652659616,-0.6261103481,0.0037312139,-0.4990912246,-0.9027520106,83.0461675314,22.4394306758,-4.2375314227,1.1001345991,0.7008590695,0.308504126,-0.0207708769,0.9930634306,-0.9661041437,-0.3247190323,5.0949820011,5.9169271298,10.7976786296,1612.6628229212,1.3595263519,-1.7146466426,0.4818075905,0.3422187007,0.0626664757,0.0061174255,0.1291322864,0.770005346,420.5786014509,0.0908512327,-2.2117058936,3.9989562424,-1.0601948433,-0.452358846,0.0994279464,7.8622150243,1.6022030681,0.0498559798,-0.8492133368,0.535165176,-0.6865102705,6.4133940039,4.5071413163,68.1800455516,-0.4471638449,-0.6629919612,-0.9277274038,0.5910896061,-0.846190339,30.7847933237,-0.0775979305,2.2242195765,-0.1757171185,0.9176116953,2.5290698805,6.9766159078,-0.5950541831,-0.727579341,-0.5509054763,0.9669916929,-0.9662696471,-0.6490927151,8.1328705289,0.6147857692,10.4360941472,1.6507769424,0.793453014,0.5910738931,6.6261119748,0.728425656,0.8802472078,0.3764232958,-0.3809053556,5.4937700078,-0.8765414521,0.6108524727,8.5610814548,0.8214337437,0.9450675865,-0.1475611125,-0.2125356977,0.412196424,4.912193004,0.6341796413,0.7769781893,0.6636723964,7.2380401817,2.3497153767,0.4414389541,0.5610736432,0.6767440051,4.1362992902,2.8888739617,-0.6998883119,-0.9460366813,0.3075678269,-0.5130425694,0.9425463883,-0.4141208762,-0.7802934959,0.8814737291,-0.4051903974,0.9485691612,-0.9336331067,-0.204217382,0.7791806272,2.7627937752,-0.5873112964,-0.5703582349,0.7317950095,-0.5145034773,-0.1422493411,586.3278847424,0.8664832033,0.1717340412,0.9695455505,-0.3771665263,0.6051619747,-0.3341716077,8.1102785948,-0.9687609483,12.1381114518,0.2036736112,8.7482003983,1.4525848217,2.0452524321,-0.495103812,-0.7029981808,-1.029547641,0.7349642802,-0.286443452,-0.7946376105,18.100374585,-0.2306063648,-0.8712240653,-1.0766016292,-0.5508706118,630.4050220489,1.2408990176,-0.1505895976,0.9579580239,-0.6960835445,1.1921620385,0.320098629,0.2310366847,-0.027134704,0.9376055464,7.411415874,9.0103493626,12.1015759799,619.4158095695,-0.2563703133,-2.3002898389,0.0342972044,-0.2779526263,-0.4020223871,-0.1881418248,-0.1766440745,0.2419100445,59.2958831686,-0.5826315107,0.0126145451,3.5366931076,0.3357470359,0.9107268034,0.0837343201,10.8140454285,4.1409530146,1.3397110053,-4.5132149173,0.6387546288,-0.5178699787,13.0364628041,2.6508410011,-12.2352510172,-0.0701837633,0.7002921635,0.498953012,-1.307097971,0.4244881356,4.0076789891,0.4963246293,2.2613185522,-0.8227478198,-0.0827315948,13.601709261,3.4726373887,1.0045939165,-0.6654820461,-0.8096148652,0.7906067622,-0.4663429373,0.0841587244,9.3870029225,-0.4167969583,15.6516299184,1.645511137,-0.183130854,0.7673350934,10.4459986544,2.3332281231,-0.5353132684,0.1949923367,0.2898083178,7.8007386195,-0.5208689152,0.5620107231,8.3381930524,0.1626138185,-0.2867627639,0.8600723107,-0.6504173442,-0.7204442229,7.6076127139,-0.665630056,-0.2652838916,-0.103774945,6.5797904095,0.9595276365,0.8376185935,0.8964523356,0.0645896407,13.7585178963,1.0922038908,0.1316436002,-0.7611757285,0.7535858604,0.399214748,0.7843754018,-0.7079293681,0.9450829961,0.3914288314,-0.7539000498,-0.3285627885,-1.0660346209,0.8622830567,0.2137484738,-8.1938756973,-0.7733789837,-0.7794358474,-0.8724264844,-1.3440963915,-0.8022694302,-436.5033531084,-1.6279623095,1.2485072071,-0.0935420565,0.9191203754,0.074507326,0.8420275103,-3.4767863372,0.5893678585,-10.0769488824,-1.5052359279,-8.019025847,-3.2729422078,-0.8616532665,-0.4799025425,0.0397222058,-0.265153537,0.274953982,0.1619601404,-0.3765879549,-8.3054922902,0.2311385651,-0.4684400983,23.8495791343,-0.9124096273,-6.1233953117,-2.6217850517,4.7728573059,-0.206267158,-0.3273466349,0.5791855853,0.9336448612,-0.0741837678,-0.4067001467,0.69920872,-4.6885518605,-4.2785232203,-8.6797601604,-1679.0958631021,-0.0937602444,-0.1757837065,4.3640586792,0.410383291,0.424144017,0.3402379004,-0.3551096269,0.3371179081,-211.5034108163,-1.1968295629,1.685820969,-0.7093232539,-0.1632449188,-0.0541158478,0.4898572117,-7.2031569181,-0.4956597367,-0.3930342723,-0.8715988316,-1.0259205222,0.8800152263,-6.0715382602,-4.2133714903,-10.8192586815,-0.7690913462,-0.1701671327,-0.8098698009,0.2502878227,-0.3124562376,-13.7688794369,-0.2415294799,-2.2943555595,0.3760991982,0.8790309677,-6.0893104949,-2.2212555683,-1.2124493938,-0.2124222545,-0.9178172163,-0.5487725866,-0.480173848,-0.2689460285,-7.5740441542,0.0162454853,-9.7213546984,-4.7004088679,-5.0011333179,-1.1882093304,-5.3590602351,0.6421895727,0.1360047928,-0.261470118,0.0786535616,-7.0090131306,-0.8143560037,0.3128854199,-3.9136027728,-0.6485499032,0.9296765158,-1.2353630102,-0.9520043189,-0.6404237445,-3.673878542,0.200123207,0.3427285109,-0.8787042633,-8.3696123967,-0.1422392894,-0.2437466353,0.2216168307,-0.3185139245,-115.024081638,-1.8023797393,0.7213769062,-0.1278651901,0.9469219587,0.5313621797,0.5427959,0.3771078459,-0.8114690497,-0.8348666608,-0.5298668699,0.0290764331,-0.8279652102,-0.8519075703,-0.6440461299,-3.6490682233,0.4384374523,-0.1408832675,-0.7290734427,-0.8147940699,-0.8804371661,-167.6106540194,-0.1952561911,0.4040059947,0.002176065,0.2175543823,0.6331780068,-0.3011231574,-9.087392154,0.0995706839,-10.614853533,-1.7927851615,-10.8807106875,-3.8659489629,-2.8567386816,0.72541621,0.8274115963,1.0323735488,-0.9644116778,0.1622705598,0.0602635335,-17.169884444,0.4801043134,-0.9943598919,11.9748416341,0.5666610661,-782.6858089618,-0.3241898069,0.725170085,0.1624909748,0.9669594395,1.0293309549,-0.5205295486,0.9161577667,0.9165396432,0.8998317644,-7.3464403945,-8.4590262844,-9.9830525119,-1613.7600540397,0.709129471,-0.5962091938,-0.274873519,0.4629029985,0.0215426557,0.3302799137,0.2992576605,0.4229478528,1075.4196284027,-1.7456603417,0.4391789911,-1.7734886956,-0.7555409479,0.4549380078,-0.0427396295,-9.8565589491,-3.1062870164,-0.4475028455,2.6906748271,0.2055367359,0.4305393482,-14.6013198695,-4.5137614795,34.7496220144,-0.2742347905,-0.5405599067,-0.9682227685,0.086119413,0.9678550739,-7.8646151052,0.4913128512,-1.509100875,0.6068160748,-0.3082793896,-21.2563885257,-4.1301091198,-1.0037830023,-0.1711397924,0.9159650325,0.3257550345,-0.1659290984,0.1472618038,-10.7646877849,-0.9972522487,-24.1970676726,-4.786066504,-0.8921508135,-1.1072416084,-8.5447357714,-0.4583303209,0.4909067809,-1.5093250428,0.864612078,-2.7543335073,0.7932495695,-0.7125148289,-8.0095243736,0.5414471767,0.1933233266,0.644629956,-0.3595561441,-0.0710650498,-5.9939180007,0.3781991769,-0.7118945381,0.0961629384,-6.5307257513,-1.2886599775,0.8076996857
