encog,BasicNetwork,java,3.4.0,1,1615235084344
[BASIC]
[BASIC:PARAMS]
[BASIC:NETWORK]
beginTraining=0
connectionLimit=0
contextTargetOffset=0,0,0,0
contextTargetSize=0,0,0,0
endTraining=3
hasContext=f
inputCount=130
layerCounts=1,131,131,131
layerFeedCounts=1,130,130,130
layerContextCount=0,0,0,0
layerIndex=0,1,132,263
output=0.5162459175,0.8291176745,0.5414256628,0.0736415757,0.3954731774,0.0001231807,0.8315036773,0.301987453,0.9981603755,0.8338289539,0.9698701977,0.9846894514,0.8305513864,0.983699455,0.9804881707,0.7357549546,0.9774710668,0.4840993466,0.6699389552,0.9301290754,0.1556990087,0.5934268434,0.1015980776,0.7679419522,0.1279129101,0.0018413628,0.7552234811,0.2990549175,0.0008876621,0.0015451544,0.0307376739,0.0115086501,0.0680664961,0.0006486386,0.2263729037,0.8904789007,0.0157544012,0.9736447861,0.0020189693,0.8405228854,0.0002659773,0.0615965031,0.0019212522,0.0086654349,0.7566171705,0.0139506305,0.7580985767,0.1085900592,0.0579072471,0.0840228177,0.5239590824,0.0335377672,0.0010492545,0.4736993131,0.4641478149,0.0108409313,0.8268444304,0.5332957005,0.026863824,0.1692984801,0.0475690536,0.6415613005,0.0545338293,0.8909816113,0.9785718719,0.8834428724,0.000078093,0.0018848659,0.0646236977,0.0006505734,0.999899216,0.5840297732,0.0000054432,0.482791412,0.4647779641,0.9421245513,0.7081211535,0.6598175064,0.7808901597,0.0032638562,0.0000000001,0.965719693,0.9997306267,0.003803163,0.8772510803,0.5915911291,0.1031403353,0.0121571486,0.2746019451,0.003785248,0.2451804595,0.1308608367,0.0060304157,0.9978794486,0.1529512474,0.5610524057,0.8365659097,0.0156366048,0.2512786668,0.9964530022,0.1355845294,0.1397773659,0.0702202441,0.000952741,0.0002969619,0.9944836604,0.0962685666,0.0406810648,0.7459758045,0.9984787318,0.9126690847,0.9961706023,0.0732122794,0.0204546229,0.2965175313,0.2950096232,0.0237804629,0.3591250253,0.0914069901,0.0001054629,0.142471524,0.0088087068,0.1709250596,0.1210566326,0.0158952343,0.7144511747,0.9871290235,0.0392297549,0.3327287744,0.1313068522,0.9069627993,1,0,0.0091877288,0.0000052101,0,0.7705993725,0.2366405696,0.7104620882,1,0.8755382758,0.2828166407,0.0000003797,1,0.0003719945,0.093957002,0.0043696511,0,0.3059662246,0.087279288,0.8288200653,0.0000000221,0.000000371,0.9758135734,1,0,0.9200488242,0.0025958165,0.9888942807,0.0001968253,0.0000000023,0.0004436234,0.0000312921,0,0.0000000778,0,0.0000091907,0.0000000039,0.8740059047,0.0022712157,0,0.0000000007,0.9999349626,1,0.0718554785,0.0000002478,0.0000478649,0.0296682611,0.0000179896,0.0003890321,0.5055466502,0,0.9867114848,0.9776280173,0.9641344578,0.0000007646,0.9999881706,0,0.9998277293,0.0000000941,0,0,0,0.9416872883,0.3272694141,0.1816673814,0.63975947,0,0,0,0.0000000832,0.9970872039,0.0044428874,0.9553706542,0,0,0.9999969692,0.1720267369,0.1413557407,0.0005643974,0.1229624172,0.9968567871,0.001661357,0.99957556,0.0000659152,0.1348284813,0.9739935527,0.0004563665,0.0115930684,0.0004338006,0.9689703001,0.691982768,0.8908037018,0.9119027929,0,0.139141054,0,0,0.172283166,0.9948271213,0.9973080628,0,0.0000678068,0.0005239764,0.0722693778,0.9490802994,0.0000295665,0.1505039542,0.8377275566,0,0.4385407585,0,0,0.009611306,0.0000000232,0.9946561477,0.0046539829,0,0.0000196719,0.3435350336,0.0035345086,0.9998477212,0.0000546371,0.2859726646,0,1,0,0.0059306768,0.9572056728,0.1323432535,0.0000761632,0,1,0,0,0,0,0,0,0,0,0,1,0,0,0,0,0,0,1,1,1,0,0,1,0,0,1,1,0,1,0,0,1,0,1,1,0,1,0,1,1,1,1,0,1,0,0,1,1,1,0,0,0,1,0,1,1,1,1,1,1,0,0,1,1,1,0,1,1,1,1,1,0,0,0,0,1,1,1,1,0,0,0,0,0,1,1,0,1,1,0,0,1,0,1,1,0,0,0,0,1,0,1,0,0,0,0,1,0,1,1,0,0,0,1,1,1,0,1,0,0,0,0,0,0,0,1,0,0,0,1,0,1
outputCount=1
weightIndex=0,131,17161,34191
weights=##0
##double#34191
   -0.5520863283,-0.4749133479,-0.2101835178,-0.6230572453,0.639045443,-0.7923125781,-0.1780007066,0.9075172918,0.1781797424,-0.2676275657,0.795496932,0.3997356381,-0.6375620105,0.8470004724,0.0318471928,0.6528716408,0.8130511474,0.0838779596,0.7823897442,0.1888339928,-0.1873074926,-0.8389099875,-0.126255243,-0.0336555418,-0.6245982591,0.758938327,-0.3110483659,-0.5340100409,0.359529956,-0.3262515943,-0.2839098148,0.4316599973,-0.4895745008,-0.6268426962,-0.978337484,-0.7031392049,-0.8672311936,0.3741025512,0.597766755,-0.429196352,-0.8768165923,-0.2121154665,-0.6882522361,0.5720622095,-0.6467057029,0.7566524232,-0.1359072807,0.4766982871,-0.4046547078,-0.5851435451,0.1853149516,-0.6451582127,-0.5519768443,0.2316082935,0.876176897,-0.3378544924,0.2022681685,0.8636415095,0.3415965337,0.2863113761,0.1525129038,-0.939246984,-0.1861478611,-0.2349757556,-0.9671107279,-0.1287859134,0.5114628267,-0.3501219117,-0.0184273558,0.8550713726,0.1619896537,-0.0473710849,-0.3139683421,-0.7312351926,0.9826762917,0.4388613171,0.1342270668,0.2516579635,0.9410519935,-1.9049656374,-0.4776802021,-0.5687919707,-0.5998964743,0.8780992037,-0.348598432,-0.0284567519,-0.2400284969,0.4176344251,0.3468107402,-0.4433366759,-0.828319837,0.3111666091,0.8185709378,0.5745331649,0.0712127165,-0.7992447931,0.6080574344,0.35394562,-0.2823705318,-0.1474741296,0.9167307058,0.1209176752,-7.1836810712,-0.0465960013,-0.6546423405,0.2241712435,-0.8546355949,0.9211723741,0.0692308813,-0.5075987444,-0.9906611416,-0.443213178,0.3326164474,0.9681536945,0.6176110569,0.14354862,-0.6333904459,-0.5823864837,-2.2733691685,0.9114886266,-0.3154118258,-0.7641944536,0.6677850808,-0.3575769514,-0.576169899,0.4333009615,-0.0926989863,0.8258340721,-0.7195067971,0.0849034861,-0.9897444493,-0.854043571,-0.9806348172,0.6175276925,0.6398883814,-0.4256628714,0.5954470277,0.164697261,-0.140634687,0.5692125438,-0.1101280585,-0.5644224951,-0.0126050248,-0.1902845125,0.8467500611,-0.2098250481,-0.8542514345,0.7115640967,0.5357571338,-0.7457690119,0.8226433678,-2.401852245,0.6632589052,-0.6470289946,0.4772893857,-0.2027591399,0.7298329475,0.5906721893,-1.1395003398,0.1293443329,-0.5840187099,0.480007387,0.6625745719,0.7516684194,0.5449003187,-0.2581635572,0.041208453,-0.2459453458,0.5816151066,0.8123357622,0.5995563245,0.3308805681,-0.6024441053,0.0470249039,0.4921900702,0.1129255941,-0.5564458818,-0.8736332059,0.1134902853,0.6456952753,-0.8354833147,-0.3635395019,0.5533196993,0.0771969908,-0.451855554,-0.6789480106,0.1666191713,0.7294765485,-0.8457405454,1.0192021046,0.8743001784,-0.3740649797,-0.6491672258,-0.1332582847,0.3118141731,0.3160469905,0.582421111,0.4636114915,0.9091075247,-0.9314685669,0.7024994483,-0.0891046128,0.1898901753,-1.4037968966,0.8844905383,-0.8426109033,0.897999731,0.6866361016,-0.2077586948,-0.5196527054,0.7740243683,0.6327715709,-1.000644504,-0.2047985452,0.0886909476,0.627077284,-0.0144677694,0.8905304034,0.9369626724,-0.5237427845,0.5119585343,0.9624136512,-0.4499393714,-0.6290373043,0.0805278603,-0.2566648543,-0.4453223604,-0.3013702735,0.8556013588,-0.6331357726,-3.5574409477,-0.0759599386,0.1660375882,-0.5143286669,-0.3844193051,-0.9281097045,0.090149363,-0.6733349532,-0.8816191893,0.5974718326,-0.7873426759,15.3622851223,0.6615067206,0.6795216933,0.2187346097,0.8026313385,-9.5488346781,-0.8416417482,-0.335597139,0.2503856845,0.1541533125,-0.7599612693,0.6619661014,-1.6432137849,0.7996834024,-0.8916401025,0.1482094876,0.9092370597,-0.4412468538,0.0211200417,-0.0297303024,-1.0024526326,0.230791011,0.9205756692,0.8797991073,0.6992941941,-0.1323565432,-0.4158622625,-0.450663221,0.2081398193,0.7512027915,-0.8059677279,-0.97843283,-0.3755081671,-0.8039682933,0.8229516427,-0.1644209456,-0.037068663,0.8911303512,0.9750183456,-0.7284943533,-0.7573709941,-0.9196704604,-0.3318121467,-0.5138993735,-0.5358928385,0.5507341938,0.0438606889,-0.1858668377,0.835090195,-0.1771038702,0.8386550318,-0.9222778484,-2.631130803,0.2096615536,-0.7451947643,0.4103327727,0.2508485809,-0.0774931091,0.9047983687,0.2560749638,0.7771052766,0.0383282724,0.8289061191,-0.3780218358,-0.8438966742,0.5236290164,0.9275606269,0.0348481145,-0.7143489306,-0.4702514082,0.1849060179,-0.593906012,-0.1845829858,-0.064814938,0.6636244312,-0.0988209063,-0.5789991949,-0.1765582463,0.4255381546,0.0043268239,-0.5606347662,-0.6919101729,-1.0030872958,-0.0732896347,-0.7106014213,-0.0343765017,1.0340620211,0.1442814043,0.2119743666,0.8522354189,-0.6004143347,-0.3561722182,0.3524482205,-4.1876880622,0.4381140749,0.6191681946,-0.5823885035,-0.8934277222,-0.2155422868,-0.7772737147,0.3017537467,0.3222205136,0.5737085228,0.5590458812,0.4202039551,-0.4275042278,-0.5948313393,0.2491014166,0.6526710708,-0.4485909326,-0.2211499545,0.2197886902,0.2974695163,0.1338882101,-0.4016584353,0.6171649484,0.1300629569,0.1253899966,0.3755276004,-0.8537726981,-1.0127124495,0.3960754311,-0.5524984493,-0.1519253797,0.9025199719,0.2801190647,-0.2468112406,0.1034875192,0.3639692103,0.6406559116,-0.4623524178,21.6303845807,0.6400815237,0.2957549219,-0.3699486771,0.6089862086,-12.4936070874,0.9801834973,0.4371990853,-0.5837352626,0.6156314296,0.058554515,-0.9457612594,0.2692982994,0.6095644943,-1.0431896671,-0.9991850448,0.1810130758,-0.2812226141,1.0259013609,-2.1313380108,0.7912544287,-0.4871521504,-0.2653653032,-0.2695959264,0.5295854106,-1.0014349937,-0.8083820003,0.7408877729,0.0063031973,0.0650234407,0.2768938934,-0.3811737323,-0.4079869149,-0.9877408312,-0.0376811795,-0.1942989258,0.1226743102,0.349658044,-0.0047023408,-0.3148672258,-0.8687597584,-1.3410575106,-0.2899402125,0.3490560646,-0.9039667859,0.5661929145,-0.6473885285,0.4651731991,-0.2209866296,-0.5946359393,0.5872442875,0.2317583502,1.9747285508,0.1067094365,-0.2716745593,-0.7601261603,0.5077335038,0.7678073592,-0.2086007755,-0.3891246601,0.2997142377,-0.9398678042,0.0195268503,-0.2358628008,-0.9712829975,0.2440277562,-0.7059472843,-0.2289946877,0.4333472382,-0.3918459271,15.005480118,0.5406647554,-0.9079489805,0.0138606186,-0.7200418709,0.5132210897,-0.6825000128,-0.7946758356,-0.9559419527,0.4528452868,0.6332259592,-1.4186066353,0.0100132771,-0.1550921343,-1.0089825546,0.4526364441,0.1020390213,0.6221379061,0.2275256782,0.2636937598,0.4749478251,-0.6030864593,-0.6844611466,-3.2352668053,0.3974348835,-0.8844270116,0.8861264264,0.784226605,0.3511857821,0.0221033022,-0.9922697664,-0.7648256626,-0.2750714189,-0.310423909,-0.2058304201,-1.0015578892,0.5773495323,0.6144795468,-0.8609546673,0.1938462383,1.0104551644,-0.7926994786,0.6570360195,-0.0881447007,0.137043984,0.0655610416,-0.9873724555,0.4865047519,0.8860982805,-0.0408771366,-3.4885708167,0.8376936033,0.5775589928,0.8725815442,-0.6972464516,0.850892494,-0.8204755794,0.2970432163,0.7650795648,0.5369969577,0.73341522,4.2157884979,0.6883433347,-0.2144981152,0.2742911293,-0.9017429928,-12.245098021,0.1424941428,-0.0900453599,0.9437836062,-0.2432830753,0.2050023761,-0.0853022498,-1.7624707437,-0.6759793716,-0.7962459022,1.2203714471,0.5176265723,0.2270274431,0.5960975192,0.0695804373,0.0694754984,-0.721081799,-0.5672939828,-0.9364547013,0.6911507271,-0.9127175787,0.4714721431,0.1689046492,0.1921936752,0.3444226326,-0.1143016251,0.2448912612,-0.5561577717,0.6490742487,0.0924875842,0.9398479958,0.9208640102,0.2804539024,0.6761663633,0.8268670029,-0.3361133038,0.4227813972,-0.9439770909,-0.0754058814,-0.5563112294,-0.0960820054,-0.1416464142,-0.8654787535,0.18963319,0.7152863548,0.6919585606,0.5335398595,0.3171109668,0.0302291878,0.5186905304,-0.6400305473,-0.1971865346,0.0924804695,0.6428865789,-0.9643701645,-0.4450086861,0.2401456672,-0.8406102294,0.5009057508,0.24303833,-0.3067851922,0.0630564261,0.4191249075,-0.0682059439,-0.8600685562,0.1189285423,-0.3299685207,0.2334154743,-0.0284027706,0.8968867982,0.0307930918,0.4857237262,0.6703607651,-0.4010709182,0.5392681782,0.581414444,0.3650932661,-0.1248822414,-0.0820049866,0.8400685928,-0.4856408511,0.2851563242,-0.9804393036,0.3956539193,-0.7952471326,0.6112831072,0.9918984661,-0.1990885731,-5.1515261754,-0.8837392293,-0.2030747678,0.5557175705,0.819654077,-0.4016167147,0.5560757436,-0.7933567715,0.9955918701,-0.7048956876,-0.1243409891,-0.3202343869,-0.3474451076,-1.0602584508,-0.8826351409,-0.4309111491,-0.239121793,0.9724521459,0.1488180046,0.9019014297,0.4007405499,-0.3118926882,0.8843618762,-0.5910747815,-0.7586534071,-0.7181740368,0.899982174,-3.2827003419,-0.6906104547,0.8896134369,0.6159542905,-0.6637569673,0.8235238551,0.3148917245,0.8256344702,0.6123518946,-0.1584983057,-0.2375869439,76.0115462863,0.3698280497,0.5628862935,0.125519888,0.7821219157,-30.3215817526,-0.9490860394,0.9464769141,-0.6237274662,-0.2256606961,-0.7606642292,0.1743182578,-0.7654146225,0.8958266505,-0.0334976252,0.3527327571,0.6220223311,-0.900678,0.4497478384,-1.3764887945,0.129402018,-0.100254903,-0.984724966,-0.0333663977,-0.2376976159,-0.7470068199,-0.8907088826,-0.9495412808,-0.9378568474,0.1099207104,0.1741190231,0.2770829747,-0.5104458109,0.3613753,-0.2760247339,0.9583064074,-0.9503011239,-0.6485461637,0.368267142,-0.1484042065,0.805933939,1.1284230913,0.0091233822,-0.243371814,1.0314496902,-0.2956515433,0.7311491859,0.022638061,0.8659617547,-0.184003728,0.8629407411,0.9561919297,0.2797774707,0.2587355608,-0.9570059614,-0.6050801074,-0.5608042246,-0.6630939622,-0.0389678883,0.4857306373,0.5693446298,0.9916884717,-0.8614961506,0.7562570231,0.6588072039,0.317052115,0.9089215017,-0.6709345474,0.3701335359,0.3753076365,-1.2130996104,-0.7614047922,-0.5743088414,0.120997198,0.4137768666,-0.2629220123,-0.372853335,-0.8734579599,0.245848112,-0.7456703407,-0.2918190331,0.8634629781,-0.1073684396,-0.708307397,-0.6314680742,0.3053630992,0.6143707991,0.9286661207,-0.6099224241,-0.9677822693,0.1472467957,-0.5394429486,-0.5108877794,2.6629522719,0.0484295008,-0.1693451365,-0.6888721856,0.5208502472,0.5896267967,0.1238301608,-0.5583771567,-0.8262633217,-0.4385386729,0.1236952549,-0.5690814372,-0.9913996575,0.4800006022,-0.4394199111,0.9638271523,0.6942790149,0.1685552574,0.4290622515,0.3465818362,-0.1423984947,0.9230879563,0.4855149985,-1.0802188771,0.2308946019,-0.9822919053,-0.5117286895,-1.182492171,-0.5149613682,0.0587786846,0.7301731671,-0.1703295202,-0.4232713287,0.4737289194,-0.7647847428,0.2631559488,0.4874941674,0.2666268496,-9.5344838391,-0.7650526673,-0.3187029048,-0.0553877416,-0.2140225897,6.5554008396,-0.83879518,-0.2572727888,0.7607385096,-0.1407748707,-0.4433002422,0.6543071235,0.4740870234,0.5879658269,-0.8348450627,-0.6758514345,0.2695558019,-0.911893766,-0.0215903831,-1.1705309055,-0.4101975338,1.060137409,0.5564512511,0.4946634544,0.5735006078,0.1549404554,0.1134836998,-0.6705716529,0.6314210156,0.8406597528,0.1002914448,-0.3815273813,0.5529522526,0.4838317745,0.6516096366,-0.2993062785,0.9727863339,0.106049956,0.8697944979,-0.5978578794,0.7976488862,-0.5367409333,-0.6520651661,0.5484554268,-0.3646646823,0.7182737634,-0.3372548711,-0.7437141688,-0.1067123512,0.104244669,0.9789607008,0.5364535788,0.2391974329,0.9012557147,0.3551352043,0.7858464677,-0.2713190839,-0.9274465098,0.1892431165,0.1951493084,0.7829680877,0.7556982402,0.2887707876,0.1101512553,0.5905212827,0.6821229985,0.773494434,-0.5867343549,-0.731459493,0.9583369191,1.9124088729,-0.0547179087,-0.7497000699,0.9253021169,0.9693568177,0.9793978375,0.5620322898,-0.0395526462,-0.2165761246,-0.1871617057,0.9822416584,0.3679818032,-0.0397762691,0.6796590559,-0.2866645197,0.4930258099,0.8906953573,-0.7985530565,0.6195412151,-0.298845619,-0.0879318463,0.2218359513,-0.2206341247,-5.2551643256,0.3899351001,-0.8304386035,0.7924553975,-0.8579162324,0.9283423248,0.5408976233,-0.8956366751,-0.3915203684,-0.8778098339,0.6050716585,-0.7381327368,0.0012375958,-0.6365603746,-0.6627952039,-0.7408171503,-0.3906570886,-0.6783466744,0.4227226237,-0.6342815286,-0.5888609305,0.2442876122,-0.0887939114,0.5779031466,0.256043431,0.9653911795,0.3197349279,-1.0580412497,-0.6487745737,-0.1569413749,0.2056345583,0.9913037284,0.4666303175,0.0434390027,0.013958563,-0.9242025728,0.7670300015,-0.0497188452,2.715583417,0.0271627573,-0.6168090976,-0.5296039172,-0.8044124228,-11.9666196796,0.1655384674,-0.0174078266,0.3982044309,0.1187693681,0.4179473362,0.6014017842,-0.9844034885,-0.0027184571,-0.6208273657,-0.7797859146,0.0311664092,-0.5717378375,0.9523027347,-1.0298259735,-0.1774433255,0.7208423147,-0.1694669859,0.9852635969,0.8484201647,-0.6572520691,0.7945339697,-0.3559367921,-0.0712591926,-0.1520870701,-0.30164632,0.7561925759,0.3346349591,-0.0720194375,-0.7372006645,0.9324463077,0.1344213595,0.0333925234,-0.2284840676,0.1712655492,0.5064048898,-0.0483985398,0.3463628433,0.2468055437,0.9077349581,0.4485394785,0.2225364843,-0.7366974621,0.5223730047,0.8609739269,0.1894655924,0.875394774,0.4462174342,0.4091199482,-0.369768447,-0.0831653541,0.9508581036,-0.479283795,-0.5467676273,0.0296297747,0.3261601628,0.058522401,-0.3306214239,0.9379263291,-0.0622992299,-0.8999752367,-0.2146282776,-0.2594391911,1.0590980756,-0.5632681426,5.4258392789,-0.1261317844,0.6811486844,-0.0456798308,-0.8418000142,0.7714111185,0.2586368819,0.8089727693,-0.517948839,-0.4530493678,-0.3003490371,-0.2529844716,-0.1535231846,-0.420661459,-0.554504249,0.9731620358,1.9690319931,0.3829929389,-0.2127132314,4.1769275367,-0.3339534242,-0.6409581621,0.5663135975,-2.7022933004,0.0842223509,-0.3158594586,-0.554070114,-0.9909494806,-0.6067901198,0.8924823041,0.7718650782,0.9260261911,-0.6259680007,0.0458367363,0.5896954197,0.6654672046,0.8810329832,0.5598712324,0.658668482,-0.2627323665,0.7632216416,-0.8237392842,0.1039655891,0.2049705105,0.7472010114,-0.8293804968,-0.7186809795,-0.5352036886,-0.1638714956,-0.2407021301,-0.2189653772,0.8494518295,0.0399148159,-0.0904171013,-0.504195992,0.6529646133,0.4379340211,0.200396392,0.69774034,-0.2870228248,-0.2919574778,8.1638646732,-0.6827270049,-0.2173412507,-0.6456123253,0.4480695027,19.5653267552,0.6154327752,0.8305694576,0.2739485353,0.8346712459,-0.5905961083,-0.9557640317,0.5182296611,-0.5853263391,-0.0671846665,0.452270464,-0.1497867229,-0.706099885,0.2685425004,-5.059181024,-0.9393838167,-0.7113265856,-0.2531902492,0.2239589721,0.9211779615,-0.1577184183,-0.9175928571,0.5703012812,-0.1326530179,0.7448223816,0.6722071226,0.1967770884,0.4467594796,0.7551372493,-0.7064101296,0.0927403139,-0.2679068855,-0.7714110318,-0.4455047189,0.6449307358,0.6296229773,-0.1870616284,-0.2118279147,0.8188838164,-0.5904379519,0.1019425908,-0.4377751122,0.9482365562,0.4617736436,0.1195424449,-0.8287490293,-0.1488900315,-0.2893065332,-0.5255005866,0.9051622763,-0.8650327318,-0.7018808712,0.6490688274,-0.0548450242,0.429640351,-0.7262732795,0.3873288952,0.6882935813,0.5279552637,0.2210373132,0.3059136105,-0.2401617299,-0.8948682667,0.5156799957,-0.6019679208,-0.6822626504,-0.5918150773,0.4793656829,0.1565556565,0.0348597992,-0.2656442826,-0.5476042946,-0.4444168947,0.3073937809,0.8642634507,-0.3257334893,-0.9527178059,0.3640659396,-0.8607191264,-0.6996165619,-0.2060026354,-1.0199926333,-0.6601147833,-0.4888539651,0.6904901382,0.0877999218,-0.6233969041,-0.2445136166,5.4130263762,-0.938216152,0.6790340919,-0.3727068502,0.5687848828,0.1372327841,0.3819869721,0.280595282,-0.7693895283,-0.052500074,0.7420720271,0.7131447361,0.1597779706,-0.4628226365,0.8422145706,-0.2573575207,1.0018082986,-0.158478676,-0.6544765363,0.9201212032,-0.3706090504,-0.2304490821,-0.6913283683,-0.1218234946,0.7818078398,-0.8605800771,-0.0370475724,0.9972961968,0.9294827759,0.7756126059,0.9897310376,-0.304797793,0.3755857311,-0.5797708163,0.6579318397,-0.3085259335,0.1027710017,0.190083509,-1.0765880814,0.2614005189,0.3699348254,-0.7496731771,-0.6497742167,-2.0705553713,0.6615940948,0.9151208798,-0.4443075807,0.462781835,0.8807316238,-0.8497396618,1.0440920717,0.4242179615,-0.3092980919,0.6259832069,0.9449673149,0.5880954614,-0.0377226999,5.642217104,-0.1535216703,0.165041438,0.5918845772,0.0540055868,0.1430290027,0.4289285898,-0.1556806818,0.23904811,0.8551517142,0.5150519335,-0.0831223443,-0.1674846101,0.6781099672,-0.6813677849,-0.1566965547,0.4679151735,-0.8232726166,-0.5794941852,-0.5476041127,0.9851333007,-0.2804939331,3.3315983137,0.7752939653,-0.1911076561,0.2554408131,0.2855409692,0.3414406901,0.0445300324,-0.0576470616,-0.5888947931,-0.822776273,0.026374193,0.415826907,0.8690242139,0.4654298769,0.748125187,-0.8850801544,-0.0247154828,0.6127201225,0.884146841,-0.4921515404,-0.2102848092,-0.7760933939,0.2131820563,0.0563940018,-0.6495948668,0.886035845,0.2711871821,-0.0839741421,0.9377694275,-2.7063012215,0.2577900224,-0.8310127896,-0.4698525905,0.0925763297,0.2014309067,-0.4043934623,-0.481224353,0.0390219502,-0.7450951145,-0.2274065483,0.591449098,-0.979019701,0.2151637743,0.7661823331,-0.0241726145,-0.537962568,-0.5275849283,-0.719059479,-0.7010875388,-0.7509442418,0.6266214634,0.6310742181,3.3285989724,-0.0345728903,0.331756442,0.2302871193,0.4378234936,0.8955412345,0.0814799781,-0.8299881705,0.0342222568,0.8216984234,-0.3415989353,0.6975515306,0.5177937659,0.5457259849,0.8067235988,-0.640881969,0.5232243872,0.5767050329,0.6239395037,-0.9582701345,-0.4819642712,-0.2860709349,0.77220537,-0.0947844273,0.9293142536,-0.3575632238,-0.7927021019,1.0791329681,-0.3719008138,-0.1033511882,0.1319175936,-0.142967513,0.7454602292,0.3265639886,0.8345275477,0.3096135812,-0.4081642321,0.1082835682,-3.2079140403,0.3156193893,-0.0505320025,0.0565812118,0.9775495704,11.2722070735,0.4307515933,0.0203178257,0.3121989119,0.517678015,-0.2723881589,0.9190876072,1.4787636701,-0.4187400405,0.1945304266,-0.8277975128,-0.4998087992,0.6067935825,-0.7223987421,2.2494325038,-0.6963853612,-0.5210402823,0.499557129,-0.5682995116,-0.2437917372,-0.8345170449,0.9400842391,-0.8434793836,0.8455045631,0.0162401449,-0.7754581339,0.3825414709,0.1480450328,-0.5971191171,-0.7973082187,-0.2224158166,0.1310244287,-0.577351122,-0.041756079,0.7885639501,0.8613611093,-0.5873033429,0.2683272628,0.2771663203,0.058743134,0.2822984677,0.181886464,-0.0884405465,-1.112607306,-0.1554562331,0.9091858093,0.4840236473,1.1267686996,0.8796991464,0.3970581847,-0.3597951518,-0.341594162,0.7031896461,-0.35702993,0.5171730679,-0.5547573243,-0.8491816081,-0.2067401941,-0.202995405,-0.8695102019,-0.8461460487,0.5734616545,0.3690855279,0.722706463,-0.87010476,5.4862487897,0.8953718958,0.364216797,0.4374220435,-0.2269208947,-0.3647182697,-0.5267306118,0.5073235691,0.210272991,1.5459352102,0.3489491273,0.2870333204,-0.0650717951,0.4971477126,0.5145434728,-0.7228731075,0.1982229001,0.3177709557,-0.6754134322,0.4238599829,-0.2045273069,-0.1840442424,0.1534151171,-2.2492675413,0.0191624841,-0.5654186619,-0.968577494,-0.0136494175,-0.7097341815,0.9946667816,-0.4976075733,-0.6391705218,0.2877935292,-1.1352641317,-0.8175381753,-0.0390144405,0.3834011214,-0.273867864,-0.7822642261,0.847971226,0.5876314383,0.4586341433,0.9209559255,-0.5917128019,-0.3286015464,-0.4816913477,1.2584473729,-0.300497553,0.2985896717,-0.8580556381,-2.4579892507,-0.9003682907,-0.3610727471,-0.9681981703,-0.8759044875,0.7344596788,0.0044784145,0.29785538,0.0183311758,0.1639529139,-0.6737416086,35.1301359016,-0.018861894,0.7606426693,-0.1981829175,-0.5650881519,-13.6099939403,-0.7377171788,-0.8907793997,0.1731474119,0.8616349186,0.8735202928,-0.3146290597,-0.9184958447,0.3451665631,-0.9212732545,-0.5570782288,0.1890497596,0.0654038968,0.9822330598,-0.407341404,0.9248956422,-0.3825269008,0.7192619148,-0.3334078086,-0.5747638289,0.3756857442,-0.2762074278,-0.2998850284,0.2944608727,0.3309126356,-0.4685031144,-0.8397965726,0.0492433359,0.1199247343,0.6908487857,0.3248356729,-0.170762244,-0.8072852446,-0.845438,-0.2549980132,0.4917046919,-0.931701982,0.2753880811,0.1642858983,-0.1177215275,-0.361283962,0.4356690103,0.6231547752,-0.6693871973,-0.01563623,0.4395157509,0.8394098297,-1.0525169354,-0.2541557761,-0.5982662208,0.9294372666,0.4061982164,0.7406186996,0.3855928813,-0.8219905911,-0.795126588,-0.648381636,0.1114299952,-0.679558324,-0.4192359914,-0.424461289,0.9091286383,0.9909607925,0.7566062679,-0.6869676993,0.0421988753,-0.1337986101,0.535595678,0.1451290289,-0.2519390174,-0.1361263522,-0.2917550674,0.4601360228,0.0426899654,-0.104160226,0.024597736,1.1521720658,0.3321606153,0.9232346553,0.4753889077,0.6611840866,0.3031892929,0.9101151525,0.4560588006,-0.8125948674,0.8990508156,-0.0703523925,0.4573880646,1.5948157351,0.7590114299,0.1568158068,0.8676712524,-0.8655377389,0.5867722726,-0.204916345,0.2066301067,0.141717518,-0.509347537,0.0934273381,-0.0698550975,-0.3543327133,-0.8806291736,-0.7852038366,-0.1221886589,0.133929247,0.442183805,0.0949098197,-0.1404550033,-0.4260065746,-0.2482170939,-0.7303547833,0.6371722069,-0.6845849068,0.6699306278,0.994553074,0.192709423,-0.767775712,0.336806293,0.3029176754,-0.221239393,-0.1578374394,-0.1955770241,0.4128215493,0.1853305547,0.3048290129,0.2101246785,-9.3882213616,-0.2204126965,-0.6746722154,-0.8277180207,-0.7369651545,23.067780127,0.6133613607,-0.0534975441,0.1153053787,0.014795452,-0.2606107452,0.8867895699,1.4642195128,0.3191494802,0.0432008775,0.7749686748,-0.1080063203,-0.4390151091,-0.6065857831,0.4400307524,-0.8982497936,-0.0663098509,0.1006591181,-0.859300501,-0.8489085585,0.1870982138,0.9526585535,-0.6992887223,0.7075932173,-0.0895311171,-0.8856491062,-0.084847436,0.9321465775,-0.3048933135,-0.9446515949,-0.4471056878,0.0422950136,-0.1192251788,0.817135003,-0.9846387941,0.461285653,-0.2166959183,0.0102661459,0.8763007061,1.0815069957,-0.6862282219,-0.8869371396,-0.1373315539,-0.2928986188,-0.8078789625,0.7676566196,-0.1396086733,0.8835981835,0.7550406673,-1.4681608095,0.9859747072,0.2075631528,-0.3997416228,-0.4736035025,0.8388136129,0.5607227231,0.4908225697,0.7667365749,0.1828724136,0.822816043,-0.4729552095,0.1289069065,-0.5598075767,-0.5251830397,0.339666041,-8.7572856457,0.6501476151,-0.6005400486,0.6074823234,0.8956917675,-0.4458588587,0.3199968636,0.996110917,-0.6302004583,-3.3297769141,-0.4837018622,-1.2164608197,-0.6946218473,0.479983241,0.8935859528,-0.5982124331,0.922527533,0.4754150336,0.6112524417,-0.2746052687,-0.4866893837,-0.4313630074,0.7583510781,5.725400352,0.8766041689,0.4071384114,0.8561326411,-0.5564709195,0.5564037079,0.9055767804,-0.6088926579,0.9660119879,0.7053146335,0.0656371496,0.6376291271,0.0159462456,0.0149412041,0.3987648743,0.0717148556,0.1010324033,-0.1727598046,-0.1649501307,-0.1717980944,-0.5277151957,-0.9954842409,-0.5294962665,-0.8982030894,0.6512518525,0.964459339,-0.328790293,5.1358405251,-0.6295103121,0.9821957761,0.1172473343,-0.0361868025,-0.5905054538,0.7020008269,0.2514647379,-0.0253916637,-0.4977493407,-0.4560058332,-1.6288536154,0.4251887424,-0.4256894216,-0.9519459891,0.3227280175,3.1878753807,0.4291039306,-0.891094509,0.6060617583,-0.1957397899,-0.6740784546,0.7145939836,-1.8269832199,-0.8018959946,0.1859307337,0.6921440655,0.4672053539,0.3649100454,-0.2989088992,3.1920753187,-0.2526284569,-0.9902103195,0.5978945611,-0.8904110738,0.8146672319,0.4960998475,0.0824270068,0.8224570785,-0.1926755944,-0.2591081862,0.2340543702,0.345816507,0.074763345,-0.8309237868,-0.8673617957,-0.148344516,-0.8146966548,0.9475665412,-0.4206317277,-0.2512828308,0.9580152667,-1.2609842436,-0.0107521687,0.203102039,-0.5379365418,0.2043054797,-0.8187032625,-0.3995260297,-0.9523257844,0.5736778851,0.3855293289,-0.6400286239,0.5250202903,-0.130800701,-0.1772305283,0.2966520192,0.6311888793,0.715707065,-0.2038923227,-0.7500714858,0.5353422039,0.2644470484,0.9514631854,0.9131191277,0.416291597,-0.7401459429,0.7659228743,-0.7945778527,-0.0694302763,0.4790619515,7.9417924208,-0.3162874052,0.3649179523,-0.2156908176,-0.6051204627,0.7879419045,-0.0157271976,0.7639535679,-1.0543625677,-0.3677256689,-0.3370264267,-0.995548737,-0.5924509344,-0.2231972856,-0.4627707003,0.771232354,0.1556085256,0.9397439372,0.5542523497,0.5341026503,-0.0887155394,-0.0168631224,-0.2882267494,-4.8515070054,-0.1441266674,-0.9122866048,-0.603702028,-0.6960048651,-0.1630561259,-0.1910894955,0.0171679281,0.6410693699,0.093074173,0.0713088553,0.8504289412,0.9874715127,-0.7637717013,0.6381982866,-0.4807359354,0.0104244391,0.5497277809,0.5042364883,0.3554976748,0.7158890942,-0.78107856,0.3018644037,2.1002148475,0.9749025388,0.3195181791,-0.2221649655,-3.6778825541,0.5702936385,0.3401347884,0.6365636858,-0.9731280882,0.8743438722,-0.0851488996,-0.6562344533,-0.65518763,-0.5275881403,-0.6412207907,42.4793130476,-0.9089930601,0.1212494981,-0.0307842948,0.6152917403,-3.106939176,-0.1443335549,-0.553332842,0.998086878,0.82585799,-0.8833718292,0.8058524896,1.8025825739,0.1887582804,0.2299880031,0.7530883537,-0.8077418324,-0.2191557801,0.7940977979,1.6524889433,0.5381316281,-0.0818279553,-0.9730317992,0.1188816486,0.1244927684,0.3384896586,0.6780586998,0.1295747158,0.5060810237,0.4653238031,-0.9307419666,-0.3849056248,0.0311542055,0.7684397458,-0.4046712353,0.7762994577,0.8929983004,0.3612961984,0.9032788825,0.4512509844,0.8482182455,0.3714661793,-0.240441469,0.2388555994,0.4934716375,0.8684707697,-0.2530992386,-0.0172745931,0.7185058767,0.416829801,0.4975737349,-0.0480779721,-0.9716335807,-0.1833291917,-0.7683479407,0.9439224356,0.5767273718,-0.8017913947,-0.8821424531,0.8633704355,0.1961791054,-0.7463363862,-0.1859951143,0.2163700037,-0.1965978714,-0.4880026275,0.1782492476,-0.0606071367,0.0519281699,-0.845292758,-3.4722022334,-0.5430333603,0.1765084197,0.380834509,-0.8529081806,0.1632356139,0.4556775069,-0.3586691702,-0.6820201482,-0.2707243655,-0.6011560101,0.7544924868,-0.3563405681,-0.28844908,0.9474640848,0.1896984514,0.0563297758,-0.5680133011,0.67592817,-1.211351724,0.2928417498,-0.9529671888,0.7228232708,5.6351651558,-0.6914502451,-0.7033459821,0.1012693229,-0.7941680259,0.9412823713,-0.2147425632,0.0840791788,0.5696997026,-0.1005544354,0.6232934885,-0.5888034717,-0.0282878012,0.4463896957,-0.5776516379,0.4494920875,0.9588865544,0.7401990394,0.3966333609,-0.0909335534,-0.9323518939,0.0601300899,-0.4820278967,-0.191498885,-0.8280946644,0.9043971611,0.76343517,29.5842214512,0.6687957086,-0.6719465454,0.6808321085,-0.1109269003,-0.859436505,-0.9585383907,-0.9610241721,-0.2750729805,0.844477575,0.7833455603,-5.1877399342,0.9419798483,0.4237380046,-0.1445118548,-0.1571354771,14.8013874406,-0.1530777577,-0.8068215854,-0.6823751818,0.9772764377,-0.0937598202,-0.6995010999,0.357737156,0.3041068976,0.0177283881,0.0042297373,0.1399295459,0.1695036511,0.3884149148,0.8906583109,0.3346979895,3.4003329538,-0.3109299853,0.3528764837,0.4082596837,-0.2987348451,-0.467577435,0.0580009678,0.8971511538,-0.4566627672,0.2111884303,-1.0192721431,-0.8734682025,0.664646071,0.0505374867,-0.5357541659,-1.1490215998,0.6799324046,-0.2669301913,-0.1139292667,0.230616167,2.9426044609,-0.6415170925,0.8752124892,-0.9620202296,0.986898969,-0.0244115888,0.3623119002,0.2310952452,-0.1679602775,-0.240210911,-0.6918096752,-1.7025695171,-0.866285591,0.6951573257,0.5496456233,3.3536912863,-0.0949029749,0.1128686666,-0.5227974696,-0.6125327102,-0.0763288599,0.7183337881,-1.0157526828,-0.1893020976,0.7374814319,-0.60780037,0.6225681193,-0.1250367603,-1.3872518837,-10.7200402705,0.4457166701,-0.9518616274,0.6872282236,1.2680531231,-0.4372745777,0.1930650414,-0.0965150497,-0.7859635084,-1.1253063004,0.33484465,-0.2323050142,0.4131471222,-0.2930438919,0.9486931874,0.319309676,1.3533875288,0.5690837106,0.7611607547,-0.4317607113,0.2723120948,-1.0467286788,-0.9758265349,2.9687331053,0.945543471,0.1172009443,-0.4867798264,-0.7674405158,0.4238725298,-0.0582878633,0.1880351835,-0.6780103763,-0.3267437945,-0.8905862243
   -0.2831168202,0.1628266246,0.3826165267,0.6521950684,0.7353440692,-1.0952805221,-1.0878242653,0.965639548,-0.1625137903,-0.1292985037,0.1619534226,0.0931114197,0.6913958061,0.8498070368,0.4258779381,0.7252210696,3.76396491,0.6176102846,0.5692063088,0.496130191,0.3541093233,0.5742837643,-0.8337676519,-0.3546859056,0.2789572574,0.6670084674,0.4969729699,-33.8369443315,0.3747495975,-0.3476096807,0.7658489144,-0.4352365342,-129.5979164942,0.8415046918,-0.0261003507,0.6201550647,0.5811818994,0.2677354674,0.2834317239,0.856830413,-0.2519305204,2.2212385464,1.2211733875,-0.1262040627,-0.8148456271,-0.0287037066,3.8400137415,-0.6823780583,0.1333569095,0.0532726353,-0.1054159523,0.2594887588,0.7096253876,0.8169408346,0.7809056178,0.796443617,0.0403195748,0.5204500046,-0.4590642964,-0.1386681329,0.3937857161,0.7666239112,0.2526966886,-0.5232988397,0.1073203631,0.9864657476,0.2302037058,-0.1768187836,1.2562958637,0.5603162193,0.7081068936,1.0437351571,-0.3879852715,-0.5387402714,0.5931078896,0.7651572567,-0.2236822662,-0.0591705778,-0.1283265709,-0.3861665087,0.0038727277,0.2821903321,0.8401462873,-0.7977003159,0.8791490415,0.6262823562,-0.9489820204,1.074197705,-0.1808687698,-0.9054838045,0.1515167743,-0.7358562272,0.4925993914,0.6697888235,-0.2627332519,0.1621796485,0.0623324025,-0.223073306,-0.9475555535,0.781875271,0.7499834105,0.7491486725,0.4858515131,-0.3626453409,0.4045040229,-0.8072524025,-0.5307810625,-1.0423761084,0.5692533936,0.8678197065,0.7794100692,0.7908431845,0.6914321849,8.826794755,-0.5876220501,-0.5274282545,-0.2424981945,1.0004811392,-0.347662068,-0.5847814486,5.0179649168,0.5456600708,-0.6999997784,0.8076831355,-0.3971699641,-0.7430357632,0.8332959439,-0.8413626442,0.5876306255,-0.0586081537,0.8620211617,-0.2773494236,-0.1717531849,0.6576470076,0.5718573761,0.8900970824,0.5658462195,-0.7670073981,0.8619916587,-0.3661065162,0.7033193992,-0.9346081347,-0.2465320904,-0.6797446169,0.5519683633,0.0808503696,-0.7740021146,59.8214659536,-0.4109467892,-0.5208575433,-0.6097161349,0.0730698068,0.4241782946,0.5675407989,0.0321631229,-0.014117417,0.5387695529,-0.4982682772,-27.3975285233,-0.3768258399,0.8116764595,-0.6164712041,0.9006108477,9.8817174516,-0.4164807653,0.5324419171,-0.7868780306,0.15572996,-0.6257917745,-0.2576898631,1.4041728449,-0.8075258934,-0.7281347907,0.3082607997,-0.7056043345,0.0893996767,0.3703121763,46.9657663635,-0.1861764412,-2.7981455841,-0.5919314304,0.2904616551,0.0934889835,0.469896061,0.4882348502,-0.5696176452,-0.086890652,-0.1281586365,-0.2714521937,-0.0818152212,0.3289068532,0.5881274062,-0.7386123413,0.1858109032,0.6492001235,0.2694765114,-0.8828354637,-0.468083702,0.8029659879,-0.5824888897,-0.511350497,-0.6869085285,0.9868662452,0.6303426073,-0.4908150484,0.1608240153,0.3706362648,-0.9374042134,0.9295224188,0.7988149069,0.2710279316,-0.4641438233,-0.5774789155,0.7724074638,0.8120592283,-0.159009976,0.3435262325,0.7646349764,-0.6046515291,0.6213212037,0.7877702456,-0.7790527207,0.3406071771,-0.2157718465,0.620029346,0.3553275109,0.7354148498,-0.9113056077,-2.3136407056,-0.9558828316,0.3357148619,0.4935554052,0.642417867,-0.0390730419,-0.690850443,-0.4378048078,-0.3707287868,-0.7646321572,0.4276039132,0.6433971767,-0.9458045661,0.886643102,0.2698134412,0.7440617458,-0.3353692908,-0.9511613353,-0.1407991875,-0.1665820114,0.1372216265,0.3495092128,-0.8834340739,4.9849504661,-0.5474625183,-0.4865483345,0.3924578325,0.0625943428,0.7711776782,0.2645794222,-0.7924127942,-0.7251996732,-0.9765372403,0.6154206357,-0.7565469435,0.8341286661,0.1387604707,0.5269013686,-0.1189146668,0.5445887557,0.8700273114,-0.2002047515,0.6668433988,0.731893368,0.4942751587,-0.034494061,0.6730266282,-0.749446565,-0.7457563572,0.0881818411,0.5407233752,-0.7436360917,-0.9447944616,-0.413593931,0.4466779238,-0.1340294284,-0.3775161631,0.8737307858,-0.3350930846,0.6273898823,0.6077522635,-0.9665681081,0.4616814534,0.2946619816,-0.2543525,-0.0395836585,-34.4452454753,0.7305733876,-0.6951377141,0.2786886226,0.1445849523,0.8337795666,0.2289568444,1.2720526423,0.259116751,0.1268460682,0.7529043521,0.6601768392,0.002986033,0.2130359031,0.4067554264,-0.0419590672,-1.2467672196,0.3916397545,-0.0033092782,0.8726590903,-0.7256650251,-0.9947577742,-0.1456746638,-0.3054005607,0.5683570962,0.5289508628,-0.9006964037,0.5660665278,-0.1750675413,-0.5042685381,0.504938315,-0.8578411396,-0.6196672759,0.2232090584,-0.0983675392,0.2639042214,-0.1489404357,0.7831674873,-0.3446522819,0.7429761262,0.0866461677,0.0343375737,0.6329553932,0.7393879079,0.8127648334,0.426282705,0.5155962438,-1.0271486022,0.6083210317,0.5557798563,-0.3923256967,-1.0053367187,-0.6368093392,0.6309519503,0.7741746645,0.6089612973,0.2440507436,0.0264378644,0.0856129997,0.1379612347,0.4661555041,-0.9317222644,0.0797755974,0.2945817972,0.7809433799,-1.3561764729,-0.3210117894,-0.5709656965,0.2729307977,1.6461174418,0.5487805556,0.9184423673,-0.2700171348,0.2744540197,1.1470086211,0.1008461519,0.8166784168,0.4322639456,-0.4327134797,-0.7690605588,0.7568898016,-0.5792898103,0.4991798561,0.3874609082,0.7840885324,-0.4965184168,0.5947307195,0.5454452226,2.1033065116,-0.6057829206,-0.9393316456,0.9834678405,0.6076203428,-0.440972644,0.5880654522,-0.3413350368,-0.3063730382,-0.355015491,-0.2866899391,0.2717989888,-0.3060863484,0.3373378673,0.2443037055,-0.4841798313,-0.2545225831,0.1822351902,0.5163398518,-0.4852407086,-0.0439652601,-0.5952359554,0.8321919992,-0.1124569433,0.3368423194,-0.0735083405,0.1357565571,-0.1387808168,-0.5844446796,0.433036223,0.247177233,0.8646195175,0.1185931289,0.4222604667,0.7321089626,0.0991019511,-0.3347973803,0.7943246159,-20.6165997529,-0.8590514929,-0.5787261247,0.0056156534,0.7575301266,-126.4605222848,-0.2247051992,-0.0158114485,-0.5401110173,-0.5097352345,-0.9567745528,0.100118739,0.5273158137,0.0763032418,0.5499385142,-0.2554549037,0.7694142586,0.6975165811,0.3431519777,-0.1934901665,-0.6812613794,-0.1010987862,0.1154994142,-0.31039512,0.4676038946,-0.1592613734,0.021618766,0.5878413352,-0.5992758866,0.4998053509,0.1281732888,-0.5493082825,0.8172658578,-0.0866263467,0.9851454145,0.1135726551,-0.7992687994,0.2242103883,-0.9420980427,0.9912488539,-0.2694872623,0.0853962945,-0.778925998,-0.6512151468,-0.1590521963,-0.1327029383,0.6943159426,-0.5794742246,0.085097514,-0.9361465497,-0.5598819441,-0.2632885642,-1.8007456502,0.2936701429,0.7379451548,-0.6763562783,0.0467886863,0.3933391791,0.6865273285,0.6978027118,1.1215999335,0.6594460888,-0.8465294393,0.5661845047,-0.8367849187,0.0751601975,0.2721060582,-0.6221132703,0.5054389501,0.1741625533,-1.4088639855,-0.930218884,0.223870167,0.5744190221,0.3126253455,0.8454422272,-0.1519353904,0.0411744942,-0.8339271522,0.1607397498,0.5856057963,-0.4708851689,0.9366294827,0.9318692316,-0.0863102535,-0.1509481514,0.2850964742,0.2377924254,-0.2597220441,-0.1554110778,0.6522429088,-0.8170060764,-0.2123517883,6.5775844933,0.6811076333,-0.5653584931,0.9401399981,-0.2962301026,-0.242385876,0.8282214405,-0.1624754555,0.9775013329,0.7995317057,-0.7567846125,0.9038153839,-0.4064219363,-0.2376703368,-0.7749981568,0.6182970561,-0.4639699455,-0.6475375961,0.0651337009,0.6087645249,0.7775822658,-0.4261384049,-0.5077677053,-0.9262371212,0.878251932,-0.3581077959,0.7033898196,0.9725559261,-0.4302872415,-0.1680414367,-0.2754247083,0.6648681165,0.8693643978,0.9324223944,-0.8364163628,-0.6609687243,-0.29062507,-0.6632685015,-13.860556034,-0.3065773692,0.7222182396,-0.2277191532,-0.8293802807,8.4911076219,-0.3986890502,-0.1777901171,-0.2929080212,0.8941404254,0.4248482503,-0.768744241,0.6000243173,-0.3294347991,0.4513645829,0.0805821278,-0.283042889,-0.4417586525,0.2072367677,-0.2179725965,0.435884721,-0.0022334314,0.5363846508,0.9352510653,0.2017307257,-0.950387258,0.3994977101,0.3234288578,-0.4153157353,-0.3002198998,-0.5070210879,0.4725745786,-0.037459991,0.8421796074,-0.0182594799,-0.4374749279,-0.9544345453,0.7749319257,-0.7869834831,-0.2145176305,-0.5943352591,-0.1042769638,0.8657369802,-0.9035999362,-0.3041801269,-0.8931120447,-0.3510255262,0.5481431504,-0.3142740392,0.8169349943,0.2413273332,-0.4022113481,-0.1644772628,1.2074755305,-0.9244512965,-0.0826147921,-0.612850356,-0.5003040776,-0.9816452498,-0.3320111009,0.7789227682,0.0306016063,0.1596047448,0.8442244011,0.2549639913,0.9084347896,0.8264485379,0.3493803979,0.450452344,0.8286967704,-2.6036023334,-0.7359328687,0.6200425267,0.0240915844,0.3377375135,0.3025127554,0.7853484396,-0.2884753764,1.040011467,-0.4567422038,-0.1276028759,0.3727829619,-0.094406678,0.1599444345,0.3409965642,-0.9613219612,-0.8926226974,-0.4384987621,-0.2927457261,-0.8795328363,-0.0314297405,0.1897398325,-0.3995947704,2.3817533097,-0.0385761118,0.5886482812,0.6515968372,-0.7209846421,0.1691363681,-0.5161517519,0.2698643973,-0.8559787334,0.4158452389,-0.2943247506,0.8465191925,0.4851693825,0.7102733663,-0.3990707881,0.2325258612,-0.7053591228,-0.4865202664,-0.3428074568,0.9722361722,0.0645263694,0.7104649573,-0.7211636145,0.0864012095,-0.2160769244,0.3318291107,0.0062159267,20.6600621597,-0.8562158928,0.4658633332,-0.9327958442,-0.4118600264,0.69494261,0.2492441105,-0.1716864903,-0.6694495501,0.2863425624,-0.5916125381,-11.5974929406,0.0448697113,0.6067771528,-0.3926408983,0.0426866003,132.5385680029,-0.949167328,0.4160993295,0.9868669128,-0.7801489439,-0.8678087895,0.5774183664,1.8493775142,-0.0247790605,0.3317371974,-0.8042616352,-0.4909689564,-0.5943150013,-0.5473385766,-0.3520500626,0.8683663411,1.1992139686,-0.8382043475,0.7825296436,-0.9726281978,-0.6430525097,0.7116176911,-0.0845179338,0.0391450963,-0.5006072915,-0.3146806468,0.7514817886,0.3656119105,0.5695977685,0.4594595506,-0.6572271239,-0.7053744155,0.8282515305,0.1749806254,0.6116639539,-0.9472096772,-0.8509294871,0.0805584933,-0.1452610025,-0.9374408242,0.3482025001,0.024201548,0.815618049,-0.9316854866,-0.7427146288,0.1235001278,-1.1089691431,0.3043636741,-0.1710766745,-0.4803391324,0.0807762801,-0.286933667,0.6381173785,-0.2539030656,0.3127936442,0.0377419345,-0.9376226054,-0.7808708816,-0.7540986506,0.3200387429,-0.361597676,-0.4775529359,0.2406608923,-0.1832319726,-0.9150534401,2.6467580088,-0.1561099751,0.9228550896,-0.9301783137,-0.4354993473,-0.3755773007,0.1237601425,-0.5732908382,-0.495323358,0.3115727361,-0.3975627314,0.0445079395,0.3163013334,-0.0569589329,-0.6990249214,0.6789511907,-10.2682596705,-0.3054669407,-1.3559623243,0.5819871741,-0.613086826,0.6856498645,-0.4975357154,-4.810598308,-0.9545469805,0.1357447697,-0.7017778183,0.7247315502,-0.185880841,-0.9983717954,0.3304555511,-0.6990464866,-0.1318620053,-0.6039736293,-0.3763362851,0.3280434262,0.453678012,-0.0034485039,-0.6805249691,0.5092046017,0.5530090372,0.0181677667,-0.0648853717,0.9808501843,0.3727042035,0.4089303524,-0.095876555,0.6323836677,0.9366836991,-0.6530276558,0.286122755,-0.38394103,0.4195191356,0.9210406315,0.0923334555,0.4208511929,-0.567148797,-0.8355944603,-0.2578842228,0.5735679041,0.0780746197,1.2832812215,0.9512314611,-0.4206042914,-0.7616168176,0.8117911337,5.1387681718,-0.1520233771,0.8288961939,0.7207955679,0.410723781,-0.9536250136,0.2910295032,-1.0474089826,0.946298983,1.0318034733,-0.7016628352,-0.2689512178,0.8932331011,-0.1053665659,0.4884192667,0.1118730059,-1.0119201859,-0.0593648095,-0.4375880066,0.6885457909,0.7774529233,0.7054201763,0.8981844948,-0.1624862407,0.2213369765,0.2785744196,-0.7643601158,-0.1591808141,-0.2151789517,0.0016468155,-0.8283298053,-0.6482436266,0.0537531086,0.8325039503,-0.6472237818,0.0169574318,-0.6826314071,0.0821314489,0.6005437464,0.7818985479,0.2422128147,0.9560763832,-0.4295280886,-0.5409259973,0.2522837097,-0.3978693046,0.0114542606,0.088889945,-0.7271836087,0.5380040491,-0.6282113628,1.9216303653,-0.4332793682,-0.1647541623,-0.5307998406,-0.6312182005,-0.6450086459,-0.6662281481,0.3923997899,-0.9041825748,-0.5532415316,-0.3579625428,0.1708125183,-0.6490839409,0.3013527775,0.8584111769,-0.1247900898,-0.6532942876,-0.4622393708,-0.3648496126,0.837323385,-0.686592454,-0.2469319766,0.1283409357,0.8758295972,0.2862313309,0.92551154,0.4547799468,-0.492789981,-0.1413746612,-0.9182655851,0.0619897975,0.0338399109,-0.1482668698,0.2211141973,-0.7534807053,0.2165040463,0.0101985778,-5.5499658595,-0.60597151,0.6723906435,-0.335053523,-0.8066037239,-0.6938892131,-0.0960521268,-0.0436719017,0.6304662717,0.1313767999,-1.2166366188,0.347384894,-0.9043114247,-1.0105830963,-0.4573852737,0.3009629332,0.2884262605,0.2472551541,0.3294065854,0.1624131926,-0.7581064041,-0.6636293045,-0.7612806884,-0.5687393724,0.2527180193,0.3380690407,-0.6116958195,-2.7188416318,0.5984436778,-0.1579054871,0.1614924076,0.574939021,-0.9471506423,-0.6617560172,0.1318601368,0.136421282,-0.93392741,-0.8942263519,3.037507234,-0.9080995782,1.1611471329,-0.8751810252,-0.641737861,-13.1694251214,0.8664967174,0.2899856833,0.5348966458,0.8235073997,0.5813233238,-0.0633781013,-0.2642803034,-0.7493275095,0.4163750626,-5.5055980242,0.341368244,-0.7424303178,0.9788117296,0.1373078369,-0.2768536945,0.7076321261,-0.0865382295,0.7255704572,0.6503516644,-0.9171646551,-0.4090779087,-0.1980428678,0.165195547,0.5163393357,-0.1628532994,0.4716721882,-0.3102323461,-0.9420444185,0.1076724275,-0.9590084387,-0.2966595782,-0.8567904153,-0.7839361369,-0.9356512383,0.7965946654,0.003921429,0.3400855736,-0.312673007,-0.3591117353,-1.0415214232,0.1297100139,-0.1417840742,-1.9599402688,0.0518106103,0.7447366235,-0.249269074,-0.9736044215,-0.2066787092,0.6514090479,-0.2846685834,0.4207913078,-0.9901997719,0.0607489657,-0.8682599997,0.6394948325,-0.3713488508,-0.5451373729,0.9192032605,-0.6602997074,-0.3059609015,-0.6931331211,-0.1153886665,-0.5159339121,0.8376411551,2.7806047808,0.6254689124,0.8098847509,0.8573610812,0.2387342892,0.0787161774,-0.2185981716,-0.3414699281,0.2486333455,-0.8719234612,-0.5986751616,-0.1474312138,0.4955009988,0.6463325163,0.8261298269,0.7843930552,0.6441559476,-0.8835477148,-2.8688233476,4.1900908746,0.7477983035,-0.7590409761,0.2802138462,-2.1096645313,-0.469709334,0.1950296009,-1.0612776663,0.7915520529,-0.0855470307,-0.1485335253,0.2048626071,0.6625012024,0.8838666941,-0.5490617773,0.8318186544,-0.5098262093,0.1237106828,0.1347998771,0.3429384592,0.2810698414,0.0563103802,0.1189582403,-0.4720596042,0.0360099948,-0.2624634491,0.8893356462,0.0982453179,0.7377521134,-0.7789508673,-0.9736043383,0.4552708498,0.4483381243,-0.8103454044,0.9443530411,-0.0896414661,0.1496131676,0.0874227466,-0.1298057582,0.0870177918,0.8174518752,-0.1355604235,3.0536333769,-0.5119263015,0.4393412575,-0.1740356911,-0.396652109,-11.1933387318,0.3048039977,0.1707291323,0.9363769922,-0.3031135487,0.6587542693,0.7830518438,0.1029407882,0.9270019154,-0.3369671071,0.7311879244,-0.0043519843,0.2727683462,0.5193647284,-0.9123343319,0.9048481661,0.1564718664,-0.6875025044,0.3008873739,-0.8748497519,-0.7976155759,-0.4243072756,0.299395701,0.6554106165,-1.0914466533,0.758065619,0.176100942,0.5865673058,0.4167439472,-0.8106363243,-0.9942806117,-0.8432378602,0.7112182533,0.3186359463,-0.412419075,-0.0106271931,-1.2056104885,0.157103902,0.1421356832,0.1021001601,-0.1589556607,0.353282652,-0.6661408722,-0.6561454449,0.8443228209,-0.5156119606,-0.8188853042,1.382584,-1.6265300716,-0.4572958294,0.0667440015,0.6496001366,-0.6616189674,0.7633967296,-0.749615761,0.847720382,0.5819980276,0.6839731256,0.8219629566,-0.2802232492,-1.0104920806,-0.6215846397,-0.0679594056,0.8256451738,0.1620303767,9.809109138,-0.0385692977,-0.8447884013,-0.0456595117,-0.7323483209,0.1731482078,-0.5956391547,0.4235591475,-0.6253329686,-0.1874741792,0.1850019307,-0.7265181489,0.3007040383,-0.1285290954,-0.8744623143,0.5133216693,-0.4153886008,-0.7758683523,-0.5059000081,0.3316945393,-1.120582947,0.2563004354,-0.6498498878,-3.3184493861,-0.069469872,-0.5623027982,0.5281952408,-0.7397969496,0.4259541937,-1.0192037591,0.1936984365,-1.0035177923,-0.2666778292,0.1345174437,0.0438153017,-0.5412847517,-0.8917084971,-0.8767887161,-1.1340059017,0.1143044035,0.763142253,0.56776978,-0.187264625,0.7166315256,0.5461809607,0.6840605795,-0.5698603473,0.6759058546,0.6909268031,0.1423835591,-1.6451364843,-0.6025367534,0.630486011,-0.0808174243,0.316193941,-0.8128428061,-0.0339560176,-0.1471944019,-0.0754894803,-0.4555381918,0.0469906707,13.4966613593,0.7424331851,-0.5713058182,-0.8474030787,-0.246432758,-5.2142196373,0.597622619,0.6449759544,0.8225400055,-0.3555915886,0.1500210195,-1.0113749265,-6.8545744886,-0.474937892,0.6604145695,-0.83214247,0.3930390493,-0.0811663903,0.4903847034,0.1381196155,0.3177574846,0.9258880452,-0.0139399114,-0.6005644628,0.5968346401,0.5949057596,-0.3246613449,-0.92228913,0.559679817,0.6676297799,0.8718423825,-0.0330106254,0.6488095257,-0.5254313153,-0.1626317143,0.9649096391,-0.6381028904,-0.3891765477,-0.1812470198,-0.3588656688,0.4949550549,-0.0247558005,0.4559636714,-0.0230107613,0.5915895259,-0.9029414106,0.0965430329,-0.8889395854,-0.2490787887,-0.508208666,-0.3973799662,0.5989136953,0.9779804855,-0.6911816989,-0.0107560277,-0.3523685079,-0.5376628607,0.4622070746,0.5807228296,0.6126981427,-0.3380594752,-0.875090713,0.8238130116,-0.8264742162,0.3348874445,0.0412146234,-0.4762344931,0.5227783814,1.0975678019,-0.8499447577,-0.443549682,-0.8363841048,0.143384862,0.0380437123,0.7078391683,-0.1104919014,0.6639459282,0.129486326,-0.6439669166,-0.6688445752,-0.4777618177,-0.3777489641,0.5141906927,-0.1411733979,0.7367744866,0.7086612255,-0.9889257735,-0.0242388094,0.0162825191,0.8543928937,0.1218536615,0.9039749195,0.2503560282,-4.1405988627,0.436204551,-0.2565417975,-0.2474782831,0.8986299972,-0.953027318,0.5067126766,-0.3042989097,0.6987794359,0.5750607383,0.3085804174,0.0556702151,-0.9293466343,0.5946985435,-0.9465102065,0.2638044548,-0.966801853,-0.3120861145,-0.9799404407,-0.2629280563,0.7614577238,0.446478431,-0.4433857247,-0.2399664194,-0.5835559089,-0.0779608254,0.0978378313,-1.1866123291,-0.3026613584,-0.0516503758,-0.7924508441,-0.7341506631,-0.1458710454,-0.489773813,0.2229173433,0.6022136334,0.279849239,-0.1549921873,0.9884743456,-0.0302362866,0.7844531733,-0.8779604009,-0.0284618512,-9.7642675237,-0.9377683255,-0.664095694,-0.270081631,-0.9033262079,-0.6784882861,-0.6596397669,-2.1222883448,-0.1064690659,0.9602729934,-0.8926730076,-0.6125567269,-0.7119371694,-0.6628698088,-0.3737181967,-0.4064173048,0.2294007394,0.1206981763,-0.0161058855,0.7253204684,-0.0881865359,0.7519602967,0.363643512,0.3730639004,-0.6887550205,0.679744014,-0.3242737002,0.0685187573,-0.8389324782,-0.8741659129,-0.2856533439,-0.4443590772,0.5872519682,0.2129727895,-0.8526376071,-0.9994093309,-0.8571687443,-0.0533335027,0.1916947691,0.5856945785,-0.1328475896,-0.1439989374,0.7111424951,0.3823410198,-0.2848840747,0.3489377936,-0.5472305358,0.8927730434,-0.6831405603,0.3951497651,-0.8152597079,0.5158577088,-0.6239378191,-0.3739192819,0.1772418225,-0.8327248377,-0.4255051145,0.3355988583,-0.1183568037,-0.810592407,0.5579295318,0.5330223041,-0.5906287625,-0.6995494749,-0.8271984338,-0.0252006624,-0.8798760643,-0.7762227949,0.5318397966,0.2238717773,0.2792889367,-0.9541140489,-0.1037421794,-0.6860313769,0.2022411388,-0.3479683504,0.1389667987,0.0949002605,0.0094613116,-0.013323445,0.4057247792,-0.8244734618,-0.7080792793,0.3499393022,-0.7458705208,0.4202717493,0.2712573416,0.5074007144,2.0882946123,0.5650189636,-0.6013761955,-0.809680116,0.9667945802,-0.9013985422,0.2327992599,0.5172109707,-0.2679057754,-0.6233482656,-0.8001872639,0.0623682387,0.4399033718,-0.776559225,0.514310167,0.0680732121,0.0973662848,0.1089763015,-0.2774146142,-0.5818465225,-0.5951274688,0.4858226147,0.8054411826,-0.67228581,-1.0024861301,0.0072506082,0.5763361229,-0.4939142677,0.4950032944,0.7516892158,-0.3021530992,0.4094449027,0.8645143888,-0.2863849592,0.746220059,-0.3019789816,-0.9509087546,-0.6011720464,-41.8672264758,-0.2616738764,0.6532868074,-0.7820577429,0.1698664,-51.2247316242,-0.6271831314,0.1466417235,0.5094338697,0.9875000125,0.7246737568,0.7978633809,0.9776454773,0.3152996651,-0.9335071885,0.5153888185,0.6560200936,-0.0261279741,0.9719922117,-0.5093236405,-0.2615083278,-0.3130380094,0.4692085549,0.062167366,-0.5087343181,-0.3454493068,-0.5136871531,-0.574810917,-0.7903909677,0.4275054715,-0.7103761438,0.3039243242,0.4124562936,-0.5024370254,-0.0666635499,-0.3054198839,0.5325204463,0.6510602758,0.6992255836,-0.9497713459,-0.6981367367,-1.1531344614,0.0214488291,0.0322648845,0.7565830387,0.5745272546,0.3456466774,0.6098275521,-0.4487808198,0.2926711533,-0.6943973763,-0.9747170847,-1.9887836349,0.5394083387,-0.4263057737,-0.6765356518,0.5801061136,-0.6776982689,-0.4542935305,-0.6712345615,-0.9474563254,0.7887166118,-0.4132018734,0.3444835016,0.2296056148,0.935921076,-0.6771297522,0.6006281546,-0.6385893837,-0.4898198629,-0.3394061917,0.2533864833,-0.4792111556,-0.1583898349,-0.404758893,0.7553916255,-0.0830326298,0.3408447585,-0.0218283252,0.8913909018,-0.2495564963,0.4892832948,0.28205528,0.8233543382,0.488337469,-0.8086919733,0.1783987887,0.8480471413,-0.2961940443,0.2932295845,-0.4578765986,0.8638869694,1.0202927737,-5.4538864509,0.6929444083,0.009992512,-0.7649309007,0.5466621911,-0.0632719653,0.2420799543,0.515461752,-0.2910839928,-0.2416350574,-0.1493930961,-0.813972241,-0.95976489,-0.3491142886,-0.201496803,0.5396885522,0.5814064755,-0.4663501726,0.5966310137,-0.5631731137,-0.019069087,0.6371578199,-0.7400122993,0.2375071557,-0.2845510325,-0.7495459541,0.820532218,-0.8166277951,0.3394302431,0.6826767314,0.0635580502,0.3188297493,0.4519649898,0.007996602,0.863804295,-1.0381449777,0.7216687104,-0.5995556967,7.1239132168,-0.9309302698,-0.5315649756,-0.0298320056,0.964031654,34.9104907251,-0.3373063055,0.7372069923,-0.0243543894,-0.9101683861,0.6648351717,-0.5498724151,-0.3154220295,0.1425302125,0.2578209855,0.4430593971,-0.6461662209,-0.3748710826,-0.6203815213,-1.2411202344,-0.9573597863,0.8764049061,-0.7248606591,0.9119206964,0.3290534564,-0.6119168938,0.0140277276,-0.3188475762,-0.4361195758,0.2089991057,-0.7232308453,-0.4725250894,-0.8378658588,-0.8591482857,-0.9780485552,0.1317405843,0.9350699465,0.034698815,-0.5797340333,0.0748622641,-0.2051889179,-0.0364955534,-0.7553091066,-0.4133464935,-0.7528958037,-0.6833428815,0.7539312577,-0.0056445077,-0.6533779483,-0.4984292472,-0.7352389515,0.4582146526,0.8979003696,-0.2179312544,0.7835277146,-0.6774658462,-0.6539485531,0.9202609369,0.1148808152,-0.3550888437,0.3084742017,0.8896445057,-0.9391832234,-0.9169515081,-0.8061900018,0.8420267133,-0.3380581444,0.0678218946,-0.6209971434,-0.8627601191,1.1144494075,-0.8686813143,-0.4606606722,-0.1193956636,0.6716722657,-0.0841063804,-0.1527278352,0.6636442413,-0.7341405916,-0.0087671159,-0.5672690272,-0.8791995787,0.1345598958,-0.5690242543,0.1911806152,-0.3791042819,-0.6364323399,0.4276245779,-0.3946499335,0.4157966627,-0.2762153813,0.8191175243,0.420969745,-3.9698497573,0.7529313892,0.5510885496,0.2973653673,-0.7684392542,-0.937060114,0.0241624801,-0.1390060452,0.0759737028,0.5306615967,0.0703414912,0.913436361,-0.3613781118,-0.3355856988,-0.7720278629,-0.317489456,-0.5837437286,0.8191884419,-0.9979550855,-0.2737400462,0.7669101582,0.0707001014,0.0146822398,0.2506177179,0.5472817322,-0.5710367168,0.3130887217,-1.4504095294,0.8982473435,0.1218778799,0.0482523515,0.2878906652,0.2706432632,-0.209874468,-0.1739142028,0.8200140353,-0.5908149584,-0.3994900571,1.8334141202,-0.2366303216,0.0171877462,-0.6865109528,0.1608322149,-9.3232569805,0.7446212506,-0.6026773948,0.2562471076,0.3355426161,-0.7106133158,-0.9529984186,-1.735131635,-0.508986817,0.4210359857,-0.4071728362,0.4146057004,-0.0388351912,0.662552987,0.2263237371,-0.6931415589,0.8070355654,0.781916381,-0.2333546376,-0.0406995997,-0.6811915687,-0.1894099004,-0.7601754831,-0.7388739571,-0.1674264531,0.8908046533,-0.2051445367,-0.4817793651,0.8126530019,-0.6674065766,0.6390338327,0.0979123943,-0.6154285475,-0.5257505508,-0.154648544,0.3175208471,0.4702833693,-0.9920266682,-0.4207850721,-0.753714904,0.9030683177,-0.6366344475,-0.9146656304,0.2687051954,0.0031775179,-0.296435458,0.0259739167,0.028150993,0.3596402813,-0.7631054148,-0.7303609629,-2.4517128175,0.3440228871,0.3183322321,-0.6922066083,-0.806948351,-0.5362352275,0.0355088936,0.6708886335,-0.7224735201,-0.0776117162,0.5938748707,-0.6568051721,-0.7417591585,0.3212976969,-1.4573910521,-0.7991564428,-0.2465878436,0.417063876,0.7708574682,0.2370742459,0.4785581424,0.3629405904,-0.5609020562,0.2302903194,-0.1462348819,0.5123221047,0.4753250249,-0.611683836,-0.3752924902,0.0761793682,-1.0062779907,0.022519833,-0.4373631419,0.0087397034,-0.1399160773,0.8106343224,-0.8422753296,3.3291537386,0.0140663058,-0.5223687158,0.7246476513,-0.7479406654,-0.8932524256,0.4209607931,-0.6091096097,-0.9324212823,0.748019053,1.0152726428,-0.8246803866,-0.976090759,0.6101626536,0.9739175487,0.7501848948,0.4623675458,-0.1998476064,0.793563098,-0.8904287694,0.6892125993,0.4017168719,-0.072430078,-0.4094377044,0.1353968892,-0.6630994852,0.5608458957,1.1368302869,-0.0696275855,-0.3308150376,0.2004825795,-0.374064874,0.7551745215,0.1893264348,0.3637732149,-0.6140267392,0.3137155233,0.3272661956,-1.8617007055,0.2605705087,-0.7289295384,-0.6144957632,-0.591782513,6.9882602206,0.3488446975,0.1122703507,0.2190101209,-0.0180018776,0.7434611772,-0.8668751315,0.7720461772,0.2462290803,0.4190987194,0.8172483461,0.52698702,-0.2317067125,-0.7372703476,0.2716368305,-0.4927988653,0.8618328583,-0.9298297012,0.9530316724,0.7262127168,0.2153949645,-0.8750875418,-0.6101343327,-0.5598448135,0.286735411,0.1146591875,0.3250885635,-0.3371134315,-0.2593404127,0.6433293628,-0.2573030476,0.1782535585,0.7009773019,0.1697531914,-0.5182897079,0.5437728387,-1.976848005,-0.6128554287,-0.4266277071,0.2084223328,0.8326628652,0.1459483454,-0.9433681216,0.2805268562,0.0987261482,-0.7062190498,-0.1155008289,1.1251816933,0.5679144176,-0.1529463739,-0.5264447425,-0.2282019021,-0.6875007066,-0.7306835211,0.3672588567,0.2197032509,0.5787167035,0.7900130355,-0.6749261312,-0.9863563282,-1.0031330403,0.6651342801,-0.7152057293,-0.4310233699,0.2988075936,3.2408152601,-0.7928374483,-0.1875952339,-0.9349482023,0.8182959344,0.407051041,-0.9147797246,-0.8145567191,0.7310621901,-0.5150806232,0.0832355681,0.3206350202,-0.4716635487,-0.6181110874,0.7165320471,0.663691649,0.2972898753,0.1746743671,-0.5870143308,1.0326041055,0.7101807093,-0.8496155276,0.522884369,-4.6051077518,0.2421369486,0.6665533696,0.7752834626,-0.4529566738,0.2346968083,-0.8611353404,-0.3500222559,0.253071986,-0.9101373681,0.4589300356,0.3438195803,-0.4022733603,-0.8657553659,0.6933642479,0.6113996908,-0.2441739611,-0.2826565786,0.3118910888,-0.6550094876,-0.2689260457,-0.8573028841,-0.6832302908,1.3814555671,0.0112317401,-0.168469516,0.2023431591,-8.7736230553,-0.8695985683,-0.817885248,-0.3405865003,0.7996780455,-0.347049936,-0.5919668558,0.6600262341,0.3085649754,0.3147640306,0.7402355102,3.2185058519,-0.8076129003,0.7666161502,0.8935591612,0.2617279006,-7.5799594671,-0.308801128,0.2238159418,-0.7062581948,0.8413943739,0.0163286788,-0.6658364126,-1.7210665045,-0.8749237205,0.7154043626,0.6517812367,-0.1784223095,-0.7347455039,-0.9811234681,-2.3626884751,-0.7515873077,-0.1678620703,0.1007579996,-0.7266195863,-0.8024417047,-0.4525968864,0.0449349662,-0.8237349799,0.3775225419,-0.3146746431,0.6109302122,0.1090213885,-0.7296778602,-0.2656064594,-0.7594875893,-0.6341685436,0.0323019511,0.5653632036,-0.0341549064,-0.9300367466,1.0255221914,0.2999246354,-0.7218827422,-0.4261768183,0.1039646405,0.121148246,0.5688226492,-0.0563732386,-1.1351732449,-0.0845930503,0.2543066959,0.564994158,0.1422846721,0.6969745148,0.9469145467,0.5609720129
   1.0603365871,-0.0573711185,0.0092227936,-0.9897765703,-0.209366927,-0.4165556285,0.3286875404,-0.4363008973,-0.5800897289,0.1222917852,-0.5746887156,0.7249442834,0.4322470046,0.788826087,0.6184418547,-0.9116127459,0.117755753,0.2377503249,-0.6402813795,-0.9354028385,-0.7432030438,-0.1079262243,-0.1075229789,0.8017075013,-0.2364347864,-1.1860076184,-0.6044504343,-0.453814191,0.1180368885,0.5203722566,-0.6780945128,-0.6206607007,-0.8276728476,-0.6051305055,-0.3223149255,0.8957274696,-0.3907451559,-3.9825568143,-0.5501238363,-0.6804233103,0.347171345,-1.0030520056,0.6804594506,0.2747046086,-0.4494072282,0.7719148004,0.6766060267,0.6047929809,0.1221129577,0.4750221564,-0.9593980091,-0.5858380352,-0.9458975173,-0.0075718041,-0.5251000675,-0.663656025,-0.9384216417,0.2705845083,-0.7641867872,0.5544227537,0.0018822099,0.3910690185,0.4517173162,0.5467062565,-0.1342723895,-0.748339251,0.0553578778,-1.0032298421,0.3556328823,-0.7124061988,0.3106882685,0.5854163394,-0.0509800205,-0.4346820216,0.937659594,14.3812905876,0.1538997157,-0.6546817627,0.2298965105,-0.8304520864,48.1212337697,-0.5266169925,0.1409374184,-0.8594298316,-0.8554689643,-0.5678279204,0.6621390892,-0.1007298017,0.1227896388,0.5233073913,1.9023534855,0.8308434838,-0.8518149411,-0.6209374337,-17.1831763646,0.9681284953,-0.2695321479,0.7743889954,0.1228531153,0.420739603,-0.717327372,0.6813542619,-0.1738461288,-0.8788251589,-0.2368498607,0.8670536187,-0.6530395015,-0.2851156232,-0.5796577415,-0.1414447387,-0.6282955995,-0.4712823423,0.5657669445,-0.1992169671,-0.5383119188,0.3974172668,1.575582372,0.3626360436,-0.695846957,0.7387453478,0.4891687238,0.6875034958,-0.1022510507,0.8063238593,-0.2935948449,-0.4476016112,-0.7382386915,-0.5771739411,-0.2609366146,-0.2389767931,-0.7968499032,-8.5543131012,-0.5598969286,0.5982813146,-0.5946583238,0.0724060276,-0.2016888392,-0.9414473981,0.8989399468,0.596266384,0.7187309596,-0.6346575396,-0.4797162025,-0.7657572918,0.8353310763,-65.0005519894,-0.7279978198,-0.3398015831,-0.3293733279,-0.1331000345,0.3573285343,0.8135562695,-0.1785400941,0.7721259512,0.3240535965,-0.7789441036,1.2670171343,0.6244079611,-0.5998361297,0.0648060375,-0.5972532115,-0.627186339,0.0153503172,-4.7545217461,0.2091289881,-0.7224712307,-0.3488993118,0.9343569754,5.5623602053,0.5884305035,-0.9843971368,-0.0341808024,0.9569406453,-0.7331519652,-0.2787039517,-0.2897460935,-0.0697261362,0.9292049856,-0.7752386501,-0.7211672298,0.6017028772,0.1686698925,0.4911357036,-0.4606056899,0.3735864458,-0.4538396339,-0.1661623648,-0.6500906293,0.3422194856,-0.1297313868,-0.9125910907,-3.4306471397,-0.1347910701,-0.304956375,-0.6060591718,-0.6573779358,0.6741178323,-0.5943413141,0.8779686882,0.869251454,0.372980077,-0.7867529398,-0.6659036853,-0.1756922838,0.4065600167,-0.7388445813,-9.8606639338,-0.1658807822,-0.0648414659,0.8488063424,-0.6852277954,-17.8774895767,-0.8856914769,0.5505638896,-0.7841058626,0.4336980294,0.1944287409,-0.3938466046,-1.1670218473,0.5954309175,-0.3490436388,0.1582108954,0.5972815447,0.4204368004,-0.826719531,0.6945587978,-0.0875200895,0.3386981307,0.7809838263,-0.9814518115,0.506605667,0.7956246885,-0.2547655871,0.9783889883,0.6476579092,-0.1827068264,0.1111018936,0.3255984922,-0.0588765209,0.8205540517,-0.345640366,-0.4360776977,-0.2331556339,-0.1793342699,-0.7140107273,-0.8253341623,-0.2349293469,0.6649690514,0.3766132513,0.2885881088,-0.4397166592,-0.5196981814,0.5209657716,-0.5153876046,0.075043897,-0.2385688635,1.0084816438,-0.1713450399,0.717059955,-0.014221283,0.4877253376,-0.3039914835,-0.1107880146,0.6642473301,-0.1470194117,-0.5749037519,0.874330919,-0.8693398033,-0.2489194851,-0.0867143234,-0.8506007204,0.1438429278,-0.2366533336,-0.868880352,0.086030297,-0.93400831,2.9282243636,-0.1724464844,-0.6613389285,0.0492280511,0.7360425241,-0.6546498835,0.8900499801,-0.9264006377,0.850509038,-0.62267711,0.2868246284,-0.4635377606,-0.83572777,-0.4975340435,-0.6247563674,0.2041053201,0.0232166677,0.8921234585,-0.0165066695,-0.1637542927,-0.5972714088,0.0978207095,0.3901355256,-4.3409285681,0.6527225615,-0.3137830265,0.1051977996,-0.9347759896,0.6983540887,-0.3231986644,0.7895906468,0.9760756951,-0.3395001616,0.6878865218,-0.6999888621,0.0580604088,-0.6467761889,0.7381756527,0.1925351522,-0.8834029737,-0.870885096,-0.7899921382,0.0594001433,-0.3471576858,0.8719064418,-0.8678595023,-0.6926284592,-0.8001951081,0.1621879035,0.4114822611,3.3427107425,0.3668865639,-0.4891477268,-0.5885976039,0.1213875068,0.5309409392,-0.5500206341,-0.3200453351,0.0907618919,0.9717642614,-0.3122465703,9.4028856313,0.2313248449,-0.8838681941,0.4937560673,0.698553765,-8.3335071444,0.4003716919,0.0329208795,0.1873204345,-0.9123750169,0.1340169024,-0.8412251122,-0.498635148,-0.597673862,-0.7013836719,0.3287125095,-0.8070709034,-0.6474556569,-0.2001422519,-0.4354326928,0.1892373018,0.1783760151,-0.9853389148,0.9876712629,-0.4402639323,-0.5451536597,0.8290295212,-0.0249663766,0.1129262426,-0.6628152141,-0.5610305162,-0.6051356705,-0.3917899671,-0.7851458005,-0.8983313948,0.9849176025,-0.0086081886,0.4829960815,-0.9700556992,-0.805124383,0.1199602881,0.8629213335,0.8622975289,-0.8973315419,0.8860577701,-0.6598459002,-0.4843676732,-0.5660516517,0.0433679934,-0.3656140318,0.9254911287,0.0127843429,0.6068165545,0.3582103549,-0.7336601497,-0.0221712609,0.4619262697,0.4285782558,-0.6907680206,0.5763593716,-0.5613705511,-0.9931786143,-0.2820083811,-0.875119249,-0.7588898801,0.2147607696,0.2759777125,-0.9337403518,-0.6161595263,-0.4795252776,0.3768563417,0.8705083673,0.5226887155,0.256825643,0.4866474036,-0.7844191642,-0.0709536823,-0.3998999496,-0.6524472236,-0.6568222524,-0.8086368149,0.9216910034,0.4729118948,-0.8513108967,-0.9645649401,-0.1045807268,-0.0246157125,-0.7565216637,-0.3678863221,0.234933953,0.3999318933,-0.2255109683,0.1234144893,-5.6644660102,0.8585805401,-0.0323752076,-0.6588771624,0.7467418589,-0.6260852943,0.6879591378,-0.6035193695,0.2090285233,0.6099053685,-0.8864031542,0.4551198964,0.8548556377,-0.2473237517,0.7957125802,0.0637864764,0.4712736332,0.7261634974,-0.3423519036,-0.0813674373,0.3121985,1.0332298504,0.9627403624,0.031583203,0.5712223146,-0.8944198486,0.1639487672,0.4687521133,-0.1644466,0.0303222829,0.3133556255,-0.6021724281,-0.3605086246,-0.8837751205,0.854892935,0.7824651631,0.8867738246,0.7934192828,26.567213808,-0.8807954689,0.9561172219,-0.405640614,0.8484175248,-30.1762444136,-0.4002912697,0.4140509326,-0.4399157171,0.8968401774,0.9048457548,-0.5828721246,-0.248700492,0.2080070113,-0.2106973432,0.1739561525,-0.8477153212,0.2402494217,0.0317422741,0.0715151283,0.9070035864,0.1081094811,0.2249903403,0.5005925192,0.6300547756,0.8263002232,-0.8682515819,0.5954302891,0.1302396355,0.5257469138,0.0341661474,-0.4223137367,-0.4470908846,0.2317072703,-0.8740923451,-0.4306405629,0.9812908247,-0.175729159,0.1666946901,0.3508878481,-0.3697936633,0.0726441721,0.2029315362,0.9381457041,-0.2805342499,0.4056258854,-0.5665595267,-0.0520248139,0.9293362873,0.247656443,0.9107359473,-0.7097579533,0.0456579838,-0.054434429,-0.6289433801,-0.7556689742,0.6458817711,0.0814190052,-0.5257895972,0.0029443068,-0.2322089544,0.7753172206,-0.5954031963,-0.418244091,-0.8910092643,0.2658257806,-0.1028581293,0.2776479072,0.5453960414,-0.7517528585,0.539214842,0.6492136557,-0.2905275426,-0.4649192443,-0.1380910301,-0.3783851896,0.2994760539,0.6606751899,-0.6216023613,0.023242895,-0.8198853991,-0.5828098875,0.7223055145,0.4212174262,-0.3335323447,-0.3859872207,0.7856067147,-0.2799361259,-0.2804716985,1.0270172572,-0.8520452646,-0.2932607363,-0.2288061409,-2.0855240978,-0.5320969672,0.6761134939,0.7393308136,-0.1349461487,0.9441085545,0.3187790997,-0.422452716,0.6699933863,-0.5403030317,-1.0302232273,-0.1003200321,0.338763028,0.7514015401,0.94491157,0.9068702677,0.7064144909,-0.0472920115,0.3231946916,0.8905652159,-0.9776419243,-0.8451378263,-0.410881991,-0.0512002613,-0.4697971567,0.1835155065,0.0977596224,-0.8694610418,-0.3147498182,-0.8669782071,-0.8678400991,-0.7557268534,-0.6051186814,-0.9390720918,-0.7784121016,0.3442891217,-0.2858428675,0.213342491,15.2457739401,0.2417945258,-0.8808331494,0.3248786206,-0.6079394209,-26.9857722665,-0.1583880031,-0.0798153203,0.1692555906,0.1527051272,0.5799043538,0.6158193043,-0.2361270286,-0.2525225617,-0.8024834409,-0.0631269265,0.2677277637,-0.0286499264,-0.7928376133,-0.9661799775,-0.9571412974,-0.8334954644,-0.0480696827,-0.3274761552,0.3406596697,-0.3881093433,-0.2668793198,1.0267454913,0.0418464289,-0.8433023135,0.2718994896,0.4630159388,0.0159165735,0.1487001378,-0.713924457,0.0168169054,-0.3507709018,0.6634222297,-0.365206989,0.2283988135,0.6107569556,-0.7965609411,-0.9045076129,-0.0472067308,-3.2791917017,0.1084407902,0.2262039201,0.3155655376,0.6788865578,0.3728776132,0.0465706196,-0.8870753337,1.739552944,-0.5483610456,-0.5916015602,-0.0471360814,-0.9368347698,-0.9757095894,-0.6966848836,-0.1632048932,-0.3368881644,-0.7992025835,0.4221383357,-0.2983162232,0.6813098662,-0.7579700223,0.5170778564,0.6031379806,0.8935674016,0.0352550718,0.3419624355,-0.3081049201,0.5184876544,0.3174192078,0.5832857276,-0.9465717333,-0.0119390956,-0.4614396817,0.5954394937,0.637619113,-0.4986092172,0.4111855073,-0.1084576363,-0.8576557637,0.1473865648,0.4005638244,-0.1156001205,0.8250087967,-1.5941859862,0.692029028,0.1752570284,-0.83235606,-0.6480404593,-6.7629062076,-0.5843106058,-0.6758498078,0.874892529,0.8027476701,-0.3187245466,-0.5722375731,-0.422074736,-0.1906054496,0.7106032357,0.0334635137,-0.5990144887,0.9103404011,0.78474696,-0.021699819,-0.2454914076,-1.0028521818,0.6301095614,-0.9545420702,0.661511108,0.6947601604,0.957304981,-0.0974023741,-0.3033433804,0.1826269094,-0.9904895256,0.5480988166,-3.4620262506,-0.7968110053,-0.5193353996,0.3266394579,-0.6142813447,0.8855015195,0.4154368009,0.9862548191,0.704539408,-0.2866847865,0.8736676523,121.9872372054,-0.6548806379,0.544852805,-0.0615518938,-0.8285437673,13.8841626196,0.2288709322,0.0278587465,-0.8573232403,-0.1843544549,0.9026025483,0.373241777,-1.1595903162,-1.0004260569,0.8947987684,-0.9985134714,-0.2731570499,0.853574259,0.3522811379,-15.3785303501,0.5301548403,-0.7565254069,-0.2306795963,0.1836895714,0.700736005,0.9718465803,0.8507169064,0.891789868,-0.024882998,0.0797606431,-0.7892654361,-0.3850651569,-0.7205544385,1.0926810684,-0.2490500222,-0.5088484685,0.6740010258,-0.6675818326,-0.0461389265,0.7119772093,-0.1206346747,0.7783238936,0.0539991845,0.0549136451,0.8006244092,0.0992443491,0.8884859505,-0.8214104174,-0.6776823738,-0.4317556243,-0.6386734625,0.8021115857,0.1436768571,-0.9525801255,0.6348126096,-0.1193636406,0.9830511766,0.6872329999,-0.6193128181,-0.5587533813,0.5297035736,-0.2581782648,-0.2703293424,0.5692407492,-0.9918576825,-0.3950808506,-0.422849203,-0.5755007435,0.2278255078,0.7003403952,0.5487520478,-0.6229525903,-0.6637749152,0.5594953164,0.5478942546,-0.0826437659,-0.4260375509,-0.3576066969,0.1484050511,-0.3284485616,-0.8019234751,-0.5345949899,0.9856015112,0.3288348916,-0.3950157453,-0.6237394861,-0.5392989134,-0.3963265172,0.5805798011,0.5527795277,0.0448845463,0.6290760866,-0.8963100426,-4.5783732919,0.2868139002,0.5726971333,0.2325405203,0.1564160891,0.2243989901,0.7043964272,0.8317424851,0.7509752436,-0.8151321813,0.9170741829,0.9064032307,-0.8242873492,0.3640858398,-0.1143211274,0.4023531717,0.0921954641,0.975509228,0.619061608,0.3376298099,0.5144429929,0.0401026464,0.1740563116,0.3606016036,0.914305731,0.2476361098,0.2933905037,-0.8278264248,-0.1284722598,-0.1388703132,-0.146201806,0.3304970284,0.7560644216,0.2951283074,-0.9259220017,0.5621008529,-0.3411996306,-0.6880184947,1.0905550966,-0.4363316202,-0.3042089608,-0.1005995894,0.8088109274,-9.2296846364,0.2280857375,0.8325420149,0.712481553,-0.303911512,0.1794862676,-0.0329286472,-1.2737869447,0.8792604256,0.4560932488,0.6477292049,0.7601226644,-0.549935206,0.5999324303,-1.4953568407,0.920098181,2.7629309128,-0.4731060227,0.0131425372,0.3181977647,0.7016388207,0.1270474625,-0.4287066235,0.5692785445,0.4355256483,0.3657309847,-0.981210342,-0.1592989944,0.724081938,-0.7546978188,0.4791133121,-0.1536550514,0.5021843014,0.7645652505,-0.9703873402,-0.2474609877,1.6227695623,-0.2540966049,-0.0729486398,0.81682837,0.7760592841,0.6701843753,-0.8779905478,-0.467905793,0.0678852818,0.6718180086,-0.515704561,2.9081262305,-0.5732260173,1.0058697842,0.5258700265,0.2263494698,0.0113829335,0.3259869857,-0.5022685687,-0.7919224712,-0.66679066,0.6738662071,-0.37931619,-0.6891556455,0.0564782133,0.3324304683,-0.7244358613,-0.9021427999,-0.8089679715,-0.0638373651,-0.3174994376,-0.0181138519,0.0797134063,-0.6650445128,-0.5870295653,0.9447683142,-0.7784767483,0.3202329075,-0.477725076,0.86199896,-0.4118606766,-0.4053658744,-0.0274478233,-0.0590498087,-0.1461859312,1.0336246014,0.7477922856,1.5072716569,0.9638361404,0.2452037873,0.1283630354,-0.8183912694,3.9529278894,-0.136515495,-0.0852951161,0.2992615773,-0.2818149674,-0.4047207053,-0.1424348824,0.648838883,-0.6308751215,-0.2482586146,-0.0683816504,0.5161200569,-0.3065219372,0.8157875197,-0.980201278,-0.2229063389,-0.1536091442,-0.7128069365,-0.0101483951,0.621051988,-0.8605000873,-0.2591014912,0.3421042753,0.8999736722,0.2513648994,-0.9200584974,-0.1629464668,3.7757825282,0.7543245739,0.6596111933,0.7114617624,-0.7072933939,0.5114082799,0.875450467,-0.0834257632,-0.9104301223,-0.280853621,0.8317536404,-12.500703295,-0.4214891103,-0.165979979,-0.5107297874,-0.1000000678,-20.6032602656,0.4084009234,-0.5955378112,-0.5338613372,0.9054228174,-0.7512236545,-0.0161373691,1.1719956891,-0.8381728357,0.9960971828,0.4774263589,-0.8031281099,-0.1505717394,0.4214370753,0.5108147535,0.0384097295,-0.3304930805,0.425815182,0.4407957143,0.4088059379,-0.4892540259,-0.6600973174,0.5322331532,0.2697081541,0.8200085956,0.236827973,0.5965222626,0.9206162975,0.3295683555,0.5616118142,-0.7166067785,-0.8278166463,0.1915945247,-0.4981039105,0.4962876684,-0.583546005,-0.139053641,0.4832251361,-0.7128532914,0.5567473894,0.0013063097,0.5950977236,-0.3732420187,0.6774740039,-0.7771512928,-0.4914076407,-0.1904629555,2.7023622466,-0.3660901942,0.1489633218,0.803398598,0.2098883311,0.2637206688,0.8454063533,0.526378076,0.5521972319,0.1185600231,-0.6952866555,-0.5740188078,-0.3282966414,0.8826421447,0.5267387749,-0.7619452727,-1.1189911446,0.9162913077,-0.4483203341,-0.0742108156,0.261165437,0.3904077723,-0.4797257453,-0.9454892915,-0.5481095996,-0.60845761,0.0612901658,0.0950473766,-0.2891191793,0.1465315981,-0.3651399955,0.0506736231,0.6594110777,-0.7163034728,-0.416086394,-0.0281530102,-0.3636682947,0.1595867155,0.7389036243,-1.0664643851,-0.286779631,5.4251963692,-0.2106055492,0.3591653408,-0.8446559055,0.9770946884,0.0087619614,-0.9212520485,0.8545405806,-0.1412963466,0.9369445165,0.6407805212,0.4543176888,-0.9273701967,0.7751434802,0.5621970656,0.5714469479,0.7256173951,-0.3214162438,-0.7614894342,0.3228116183,-0.4394053908,-0.6542762565,-0.6455090226,0.9976095037,-0.5147550651,-0.281431689,0.2363333672,1.7800300425,-0.6702188637,0.0931529958,0.1140212836,-0.4291477661,0.3520850843,-0.9695190144,0.318796436,1.2248474559,-0.2674419275,-0.7915203233,-14.7093675183,-0.4296158235,0.1393925631,0.6376326977,-0.0637865639,-31.3818204011,0.5494137148,-0.5259431194,0.4956405087,0.7348643774,-0.5273443988,0.6180923366,0.5274386376,-0.3838148004,-0.5822722874,0.6573195904,0.3577206132,0.6038534621,0.050719293,-0.2597220271,-0.9946530537,0.5483190713,-0.771389665,0.4124759247,-0.7618476243,0.3807418229,0.3663796862,-0.3671432237,-0.8908134495,0.3168498474,-0.6813728113,0.2122704686,-0.2770413681,0.70501254,0.7775736353,0.68843177,-0.8937947039,-0.0006264138,-0.7226099547,-0.1249661491,0.0497474091,0.3126308826,-0.6011620947,-0.3398532593,0.3184923401,-1.0196469253,-0.6202808078,0.1036047427,0.0706314381,0.627596156,-0.2499737241,-0.8279197434,-0.1748519982,0.1019556588,0.3553787943,-0.3850152379,-0.2103082989,0.8517519197,-0.6599606104,-0.6222149141,0.1627844104,-0.6305105397,-0.3868883619,0.3544400483,0.0443308542,0.1246067902,0.143502338,-0.1071657729,0.9929880831,-0.9184369609,1.6580883932,-0.7936507988,-0.3677204749,0.4727841471,-1.2721765621,0.8466495231,-0.529830988,-0.0888583252,0.4094172692,-0.7095299496,-0.661368421,-0.3063431326,-0.5602892285,0.3337905449,0.8600803216,-0.8772909039,0.3438650647,-0.2591976728,0.5272006817,0.1389542922,-0.7824182437,-0.7335974661,-0.3360788128,-5.7884960347,1.0750603646,-0.7041127767,0.6124573951,-0.3181748262,0.6336704636,-0.9441078618,0.3941528043,0.8430178322,0.063432331,-0.9228915803,-0.7706706304,-0.2655709437,0.6593212812,0.0002200431,0.9558229215,0.2888550855,-0.4803142654,-0.821124632,-0.7794758775,-0.1764730755,-0.0305076797,-0.4569028885,0.8071460561,0.6673752618,-0.5376586638,-0.4538802038,-18.7844379799,-0.7165834064,0.16009376,-0.7841254081,0.7963208624,0.3012673639,0.6062499656,0.555607898,0.4952498318,-0.1119693298,0.6169343517,35.1387953982,-0.0588348857,-0.9587226134,0.8668850279,0.5836515439,-12.6633411418,0.0400076228,-0.1987093446,-0.8579863724,-0.622602179,0.5293136088,-0.3539812963,-1.778757749,-0.8899898082,-0.2567935102,-0.9384697049,-0.7036328272,0.5951816984,0.6251007284,-46.9287978608,0.408307988,-0.4091621213,0.1026808448,0.5241824215,-0.0177296334,-0.1454100013,-0.9980191835,0.3277984451,-0.7296377939,-0.4354255875,1.0056451433,-0.3731216042,-0.198618256,-0.806464356,0.40955752,0.522664548,-0.3195641654,0.6553593658,-0.2828855834,0.9875044026,0.5503632249,-0.985918689,-0.0841142887,0.0350714454,-0.205225167,0.2437756474,0.1803916761,0.1823041534,-0.3411158484,-0.3232636946,0.2345181018,-0.0194794134,-0.69792563,-0.4831521135,-0.3032363492,0.3597334731,0.4112507791,-0.3014252627,-0.664491256,0.8887737234,-0.3204082391,-0.7204452576,-0.0061451903,0.2653145643,-0.9261237983,-0.4665514629,-0.6473351471,-0.7266615852,0.0266400208,-0.5314175353,0.3182093823,0.8864210831,0.910743484,-0.1898448959,-0.1311302881,-0.1187080027,-0.728623607,0.8388045748,0.7163457674,0.3698776132,0.4577834788,2.891456076,0.1063615516,-0.6570952692,-0.069756359,0.8224004368,-0.0886663517,0.7004376549,-0.0898801909,0.5680069875,0.051110539,-0.7380113519,-0.6611148218,-4.0954703815,0.7010938589,-0.4899034462,-0.7644977949,-0.9356520557,0.9802373556,0.068252003,-0.7126579373,-0.3374578866,-0.4989406739,-0.1779511977,-0.2377152243,-0.9084456783,0.0001814355,0.7663450965,0.6192977091,-0.7192941009,-0.4757617488,-0.8613119197,0.886555067,0.9691037535,0.2918915032,0.8281855326,0.5912725554,0.7118052083,0.8906791589,0.1377557297,-0.3648967405,0.1749855242,-0.4345805734,-0.3833032523,-0.5946364534,0.4407135125,-0.3916366485,0.8093618796,-0.5136267883,0.1128473852,-0.6959313657,0.3281248482,-0.8338768426,-0.0844977506,-0.4312378081,-0.1005589995,-9.6288950075,0.9478852741,-0.1736848282,-0.9354406135,-0.6312570134,0.8318111673,0.8194317075,-0.4452073774,0.7998207484,0.1558137528,0.5579756426,-0.5628742914,0.5810942088,0.3848667814,-2.8490829833,-0.6931543724,-0.3967736151,-0.2385757624,-0.0305562017,0.7677171766,0.62922867,-0.4563468851,0.2808641341,-0.0315969597,-0.9466649615,0.4630017476,-0.3064902274,-0.0132183639,-0.2224256467,-0.0024494321,0.7180725147,-0.015530334,-0.5896356799,0.9437200053,0.7025622894,-0.7679779061,0.6553547273,-0.2246530843,-0.7526166501,-0.2167426824,-0.5035525654,-0.7937614847,0.3406705704,0.1189122524,-0.2202676326,0.4982694041,-0.1194186304,0.5540507613,0.0984551984,0.4127557673,-0.7600709343,0.3792022411,-0.3976587827,-0.7406624512,0.1251809701,-0.5690825078,-0.040734345,0.8596181173,-0.1665523829,0.5360976959,0.1690783335,-0.8888736284,0.6519080512,-0.0617683801,-0.1857569332,4.8323243121,-0.232002153,-0.1977368311,-0.2941874714,0.2371546226,0.1832810132,0.4687591258,0.4999087271,-0.6826031656,-0.6720553013,-0.1971871062,2.2673592121,0.2919906766,0.7038030076,0.0397047172,-0.9735115539,-0.9049469667,-0.5184808436,-4.1515296906,1.0316410246,-0.4946305997,-0.1102196431,-0.6679087361,-2.6214472863,-0.0935877055,-0.9754535873,0.4903930461,0.9168102398,-0.9133362889,-0.2716084065,-0.8295485761,0.4925056583,-0.9229601005,-0.5338881579,-0.4346178165,-0.0278562503,0.9050578543,0.7725515775,-0.1313620629,-0.3697602034,0.1400773732,-1.0100063651,-0.5045684676,0.7902479147,-0.0634454833,0.826127097,-0.1019841563,-0.4159170995,-0.3072800049,0.5172463487,-9.4419538738,-0.3994980393,0.4123727885,0.1809622745,-0.436165739,0.7915584222,0.1425400226,-0.7920873515,0.534367452,-0.1185150566,0.9897917678,4.7857196458,-0.5071106414,-0.4506206481,0.9875559068,-0.0909429516,15.232346522,-0.6002520163,-0.252712708,-0.486963783,-0.4792390067,0.2906601726,0.0584273863,-0.2642035078,0.3545116475,0.6108041184,0.276007041,-0.3730653947,0.7220887964,-0.232302117,0.182960737,0.1422705594,1.1192512611,0.9414574347,0.8233900799,0.6684733831,-0.1434727921,0.2612838953,0.9599025937,-0.9489982604,-0.8313584753,-0.1734101553,-0.8911323634,0.3003461373,0.7256872458,-0.3637329127,-0.2102710051,-0.8802246634,0.3937459003,-0.7943512834,0.9115866157,0.1718810959,-0.6302649002,0.456096922,0.3980795184,-5.1308410248,-0.7118571605,0.8635699851,-0.7701988662,-0.8572057638,-0.2389928805,0.6922260057,-0.6095667572,0.6119749812,-0.507822806,0.5201011988,-0.8859559222,-0.026683171,0.4768265993,-0.4913698874,0.9772542655,0.3637681148,-0.9238998215,-0.974287948,0.2033475068,-0.7632785196,-0.1098854325,0.0773105465,0.8901057151,-0.7620139524,0.3620070207,-0.4609960015,0.9823428755,0.0980325247,-0.9820964882,0.5392437613,-0.4068199899,0.0828244452,-0.2525816962,-0.2816022271,1.3514458031,0.7825199979,0.6907738651,-0.0321678922,0.3966714796,0.1566042449,-0.0140209416,-0.0699879963,-0.4007486531,-0.1642281564,-0.4716838437,-0.5598189831,-0.6944515003,-0.3998324592,-2.5412070652,-0.5646626889,-0.3649980623,-0.439817038,-0.9445103411,0.2685084446,-0.3433620322,-0.9509577297,0.4513643017,0.2151899183,-0.0509819058,0.8119537464,-0.2282215227,-0.9141645359,0.7619367474,0.7970209093,0.3036938937,0.6867502132,0.3356150151,-0.6474145437,-0.0543519717,-0.3350555427,-1.000129472,0.5366081599,0.9513382502,-0.8253386404,0.8600033799,-3.1806280698,-0.7006338786,0.2434493649,-0.1831147447,-0.9214657819,-0.406610033,-0.1899010907,-0.7586531353,-0.2264508297,0.5429826236,0.5584341054,5.9542993774,-0.964358872,0.5264375933,0.8714240274,-0.9072621062,8.2811802793,0.0986326468,0.7770392767,0.6596636681,-0.9396632274,0.1351828008,-0.2078695929,-0.5782636262,0.5934195781,-2.4055310046,-1.4001067296,-0.5973609242,-0.0291337066,-0.184931535,-0.144689549,0.4925319457,0.6740429316,-0.9027274454,0.9075142083,-0.5180409271,-0.347040176,0.6701091567,-0.9179770592,0.1269305486,-0.4236278647,-0.4729503604,-0.3547999907,0.6320164899,-0.6118514356,0.8664422022,-0.4201096295,-0.5185590169,-0.8819754051,0.3268820303,-0.2929839237,0.323116216,-0.2859408319,-0.6564022346,-0.1886329992,-0.030548571,0.4199741494,0.7755390091,0.5506430953,-0.873017839,-0.5781128193,-0.7199129064,-0.3782702713,0.5645177435,-0.589559157,-0.7688771942,0.3319211007,0.4533441572,-0.8839286582,0.0635529922,-0.0199223575,0.8333146179,0.8587596492,-0.2926049542,-0.6784436772,-0.4920769638,0.738411802,-0.8313022924,-0.7575130191,0.5276506724,-0.0347742426,-0.6306754433,0.6746731739,0.3888430425,0.490538168,-0.5805478257,-0.3449185785,0.2198017249,0.4632825742,-0.7042480438,0.6594842718,-0.5049843477,-0.427790629,-0.6045854872,-0.3509905916,-0.5664885107,-0.7992636299,-4.9446028964,0.4042932897,0.0048435092,-0.1542088707,0.2637924545,-0.2727905306,0.7555294844,5.6849982571,0.935594972,-0.1878079657,-0.4405682014,-0.1732222043,-0.3012551615,0.7954540588,0.8545181686,0.6110885337,0.1064230222,1.0012755754,0.4385862915,0.9721432595,-0.5683992314,-0.0905080991,0.0255127566,0.2650131347,-0.2406373369,0.3613923332,0.3683105047,0.7463905184,-0.5185237666,0.2244395258,0.9171810541,0.0208965356,-0.7711867166,0.169447785,-0.1627201415,-0.7042160079,-0.5550088915,-0.0259178042,0.5408686387,-0.3576197929,0.5711491029,-0.9335526893,-0.2030222152,0.1732875902,-0.1214021796,-5.3859696725,0.8237896987,-1.499123771,-0.9221165859,0.9042892928,13.9372456589,-0.8876429639,-0.6404300217,-0.4094058384,-0.8762508852,0.6811157605,-0.0840513636,0.1053990263,0.4796041722,-0.9119007192,-0.0438810529,0.3097663198,0.5609629669,0.7047279423,-0.2728548917,0.3562726424,-0.5112398391,-0.4872048581,-0.0509630517,0.1792126355,0.3206519835,-0.9515073205,-0.3679393309,-0.6041165341,0.7742947878,-0.5193446416,-0.6534653221,-0.3648988067,0.3295241964,0.4837068562,-0.5180719234,0.0168616494,-0.5352141938,-1.0039621553,0.2406818672,-0.0702842006,-0.0864444655,0.9831748767,-0.7617277667,-0.8773031461,0.9403429505,-0.1456256534,-0.0674339788,-0.2352544353,-0.491322157,-0.5393830185,0.0779222907,-0.5699569312,0.5781650445,-0.2935413094,0.099251514,0.6613884426,-0.3431786337,-0.3379784127,-0.6407503229,-0.5849954676,-0.8484001384,0.3882406118,0.0716786843,0.851859088,0.6268719137,-0.0430479945,-0.1000239832,-0.1929699104,-0.6715951471,0.2575048526,-0.868429277,-0.9795203511,-0.2162054526,0.4208439966,0.0608228139,-0.4350936578,-0.6667494785,0.6639635745,0.8801990729,0.3408572904,-0.2042573378,0.651183729,-0.0994544529,-0.6370749453,0.3288620496,0.4933436908,-0.8944877412,0.6193324189,-0.1649301325,-0.3534889066,0.9878344106,0.7442023418,-4.8330806768,0.2862487682,0.7468284151,-0.169987744,-0.6167301121,0.5477073892,-0.6930345063,-0.8839835746,0.0647470396,0.1421040455,-0.6072348098,0.4346693739,-0.3479640691,-0.0943448108,-0.1251150667,-0.201878234,0.7302358847,-0.9406015036,0.4164646786,-0.0783501794,-0.3205801898,0.5508462338,-1.0010785232,-0.2612781457,-0.2029626314,0.1922123718,-0.2048790261,-1.075835918,-0.4108603841,-0.5475432268,-0.0232841587,0.6984630462,0.3195453178,-0.9920624266,-0.2841028661,0.8461175069,-0.5151168417,0.1169801639,1.1986640897,0.8738738633,0.2223512099,-0.4736342674,0.0085018409,-8.445286354,0.7237961246,-0.3996332912,-0.2368086497,-0.498786312,-0.3048259393,-0.5554429531,-0.6579092376,0.2552313004,0.3861177046,-0.0436796825,-0.5790145583,0.3406486652,1.0167027594,0.110539767,-0.3206897456,8.437333629,-0.5416702432,-0.3949907386,-0.3220109366,-0.7561554802,-0.9498362084,0.3048724995,-0.6170388915,0.6812520459,-0.1637887633,-0.7460463563,0.442785615,0.4466834798,0.4391628106,-0.5554797695,0.6552462371,-0.7160355894,-0.3532403315,-0.4808305824,-0.2345571284,0.6164372566,0.2050293247,0.8431052178,0.0512400287,0.78660904,0.4510571471,0.1268001579,0.0255373865,-0.8099289278,-0.3629119946,0.9861144666,-0.7502823855,0.763206714,-0.8614345213,-0.5560366068,0.5892386982,0.718909763,0.8644815768,-0.8807938297,-0.3327675722,0.763496118,0.0781092722,-0.2363373803,0.2905531605,-0.1883517311,0.5988063948,-0.8530727844,-0.1170113588,0.3696862626,-1.8455920532,0.007266778,0.0553679484,-0.8236018079,-0.8182161702,0.4077281271,-0.9062258662,0.8826698023,-0.8679157504,-2.3405487809,-0.8365189877,0.3620252967,-0.7513421519,0.9826262153,-0.8839765351,-0.4147326759,0.2637022513,-0.5217579238,0.2288260794,-1.001450767,-0.0170423059,-0.9492042975,-0.1846083505,1.4125233178,0.6968020976,0.8528367107,0.3002102421,0.8990482353,-0.5469812132,0.3188661354,-0.412898185,0.1640675889,-0.3550317265,-0.5272543941,0.5813181233,-0.517594226,-0.5761194567,0.6139644714,-0.0333608041,-0.0737066989,-0.1044481702,-0.8436605597,0.8006349981,0.869285544,0.5353769862,-0.5246334232,-0.0837505459,0.9797899774,-0.3400945971,-0.4669996632,-0.4576769318,-0.1377486735,-0.2080100786,0.3894042139,-0.8377818487,-0.9592463096,0.8795676832,0.2730623873,0.7727894012,0.9297203114,-0.1456566104,-11.7796107358,-0.3405048857,0.5009493046,-0.2509213305,-0.1149971965,-63.9741190157,0.5378907989,-0.4136675874
